SVM-light Version V6.02
0 # kernel type
3 # kernel parameter -d 
1 # kernel parameter -g 
1 # kernel parameter -s 
1 # kernel parameter -r 
empty# kernel parameter -u 
4315 # highest feature index 
1760 # number of training documents 
304 # number of support vectors plus 1 
1.1728662 # threshold b, each following line is a SV (starting with alpha*y)
-7.680717005136984457092617917251e-06 51:7.6961999 208:15.3924 434:15.3924 505:15.3924 535:15.3924 549:15.3924 631:15.3924 651:7.6961999 699:7.6961999 789:15.3924 791:7.6961999 813:7.6961999 837:7.6961999 1018:7.6961999 1026:7.6961999 1072:7.6961999 1076:7.6961999 1175:7.6961999 1205:7.6961999 1212:7.6961999 1347:7.6961999 1374:7.6961999 1387:7.6961999 1388:15.3924 1392:7.6961999 1413:7.6961999 1453:7.6961999 1470:7.6961999 1492:7.6961999 1506:7.6961999 1533:23.0886 1548:7.6961999 1560:15.3924 1618:7.6961999 1658:7.6961999 1668:7.6961999 1818:15.3924 1862:7.6961999 1868:15.3924 1904:15.3924 2081:15.3924 2125:7.6961999 2214:7.6961999 2280:7.6961999 2313:7.6961999 2398:7.6961999 2411:7.6961999 2500:7.6961999 2542:7.6961999 2552:15.3924 2755:15.3924 2760:7.6961999 2856:7.6961999 2949:7.6961999 2979:15.3924 3032:7.6961999 3074:7.6961999 3107:15.3924 3153:15.3924 3263:7.6961999 3266:7.6961999 3276:7.6961999 3287:23.0886 3306:7.6961999 3307:15.3924 3316:7.6961999 3385:7.6961999 3395:15.3924 3462:23.0886 3468:30.784901 3513:15.3924 3558:7.6961999 3591:23.0886 3668:7.6961999 3675:7.6961999 3720:7.6961999 3796:7.6961999 3835:7.6961999 3853:7.6961999 3867:7.6961999 4102:7.6961999 4170:7.6961999 4176:7.6961999 4199:7.6961999 4215:23.0886 # none/00007054_s02.txt
-2.8004924803366466716514349144518e-05 7:7.6961999 13:7.6961999 16:7.6961999 17:7.6961999 30:7.6961999 43:7.6961999 51:7.6961999 79:7.6961999 100:7.6961999 154:7.6961999 155:7.6961999 166:7.6961999 179:7.6961999 208:30.784901 245:7.6961999 265:7.6961999 282:7.6961999 318:7.6961999 441:7.6961999 509:7.6961999 517:7.6961999 535:61.569698 569:7.6961999 571:7.6961999 610:7.6961999 687:7.6961999 693:7.6961999 726:7.6961999 731:7.6961999 813:7.6961999 839:7.6961999 868:15.3924 888:7.6961999 899:7.6961999 915:15.3924 917:7.6961999 939:23.0886 1018:46.177299 1027:7.6961999 1043:7.6961999 1076:7.6961999 1089:7.6961999 1183:30.784901 1212:15.3924 1326:30.784901 1346:7.6961999 1347:15.3924 1362:7.6961999 1418:30.784901 1484:7.6961999 1498:7.6961999 1517:7.6961999 1533:46.177299 1548:7.6961999 1560:7.6961999 1600:7.6961999 1745:15.3924 1746:7.6961999 1818:7.6961999 1861:7.6961999 1941:7.6961999 1995:15.3924 2037:7.6961999 2039:7.6961999 2125:7.6961999 2131:15.3924 2137:7.6961999 2160:7.6961999 2164:15.3924 2194:7.6961999 2214:15.3924 2318:23.0886 2339:30.784901 2406:7.6961999 2449:7.6961999 2462:7.6961999 2611:23.0886 2621:15.3924 2698:7.6961999 2705:7.6961999 2845:30.784901 2863:7.6961999 2875:7.6961999 2880:7.6961999 2881:7.6961999 2885:7.6961999 2949:7.6961999 2954:38.481098 2970:7.6961999 2972:7.6961999 2979:7.6961999 2981:7.6961999 2982:38.481098 3032:7.6961999 3064:15.3924 3135:7.6961999 3168:7.6961999 3280:7.6961999 3287:84.658302 3307:7.6961999 3389:7.6961999 3390:7.6961999 3395:38.481098 3453:46.177299 3458:38.481098 3461:7.6961999 3468:7.6961999 3513:15.3924 3531:7.6961999 3644:7.6961999 3668:7.6961999 3764:53.873501 3796:7.6961999 3853:7.6961999 3898:7.6961999 4026:7.6961999 4032:7.6961999 4072:7.6961999 4088:15.3924 4102:7.6961999 4129:7.6961999 4139:7.6961999 4170:15.3924 4215:15.3924 # none/00006266_s02.txt
5.8475394451453540766577843257323e-05 51:7.6961999 87:7.6961999 505:7.6961999 509:7.6961999 535:15.3924 549:7.6961999 647:7.6961999 680:7.6961999 726:23.0886 738:15.3924 789:7.6961999 813:7.6961999 821:7.6961999 858:7.6961999 899:7.6961999 939:7.6961999 1027:7.6961999 1032:7.6961999 1041:7.6961999 1076:7.6961999 1134:15.3924 1212:7.6961999 1320:15.3924 1326:7.6961999 1346:7.6961999 1347:7.6961999 1364:15.3924 1392:7.6961999 1397:7.6961999 1413:15.3924 1479:7.6961999 1492:7.6961999 1533:38.481098 1548:7.6961999 1560:7.6961999 1621:15.3924 1639:7.6961999 1671:7.6961999 1709:15.3924 1739:15.3924 1745:7.6961999 1861:15.3924 1868:15.3924 1878:15.3924 1907:7.6961999 2039:7.6961999 2087:7.6961999 2125:7.6961999 2131:7.6961999 2194:15.3924 2214:7.6961999 2217:7.6961999 2339:15.3924 2406:7.6961999 2484:7.6961999 2500:7.6961999 2591:7.6961999 2611:7.6961999 2634:7.6961999 2649:7.6961999 2810:7.6961999 2949:15.3924 2954:23.0886 2979:15.3924 3031:7.6961999 3032:7.6961999 3055:7.6961999 3274:7.6961999 3287:7.6961999 3292:7.6961999 3307:23.0886 3349:7.6961999 3350:7.6961999 3365:7.6961999 3386:30.784901 3395:30.784901 3468:23.0886 3491:7.6961999 3591:7.6961999 3618:15.3924 3668:7.6961999 3679:15.3924 3738:7.6961999 3778:7.6961999 3796:7.6961999 3893:7.6961999 4102:7.6961999 4170:7.6961999 # seizures/00002938_s04.txt
-1.2546835338189975045039559198301e-05 51:7.6961999 208:7.6961999 337:7.6961999 404:7.6961999 434:7.6961999 505:15.3924 535:15.3924 543:7.6961999 549:15.3924 631:15.3924 651:30.784901 692:7.6961999 726:7.6961999 738:7.6961999 789:7.6961999 839:7.6961999 905:15.3924 1018:7.6961999 1076:7.6961999 1175:30.784901 1212:7.6961999 1347:7.6961999 1387:7.6961999 1388:7.6961999 1392:7.6961999 1397:7.6961999 1413:15.3924 1453:7.6961999 1492:7.6961999 1506:15.3924 1533:23.0886 1548:7.6961999 1560:15.3924 1624:7.6961999 1668:15.3924 1672:7.6961999 1740:7.6961999 1780:7.6961999 1818:38.481098 1861:23.0886 1878:7.6961999 1904:15.3924 1995:23.0886 2081:23.0886 2125:7.6961999 2137:7.6961999 2214:7.6961999 2230:7.6961999 2289:7.6961999 2303:7.6961999 2322:7.6961999 2339:23.0886 2347:7.6961999 2403:15.3924 2448:7.6961999 2481:15.3924 2500:7.6961999 2552:15.3924 2611:7.6961999 2755:15.3924 2766:23.0886 2856:7.6961999 2949:7.6961999 2979:23.0886 2982:7.6961999 3032:7.6961999 3042:23.0886 3074:7.6961999 3153:15.3924 3276:7.6961999 3287:38.481098 3307:23.0886 3378:7.6961999 3385:7.6961999 3386:7.6961999 3395:23.0886 3462:30.784901 3468:23.0886 3504:7.6961999 3513:7.6961999 3558:7.6961999 3576:7.6961999 3585:7.6961999 3591:38.481098 3668:7.6961999 3716:15.3924 3720:7.6961999 3771:7.6961999 3796:7.6961999 3835:7.6961999 3853:30.784901 3868:15.3924 3913:15.3924 3927:7.6961999 4078:7.6961999 4102:7.6961999 4170:7.6961999 4215:23.0886 # none/00000011_s09.txt
-3.2899386378257809704361847025211e-05 51:7.6961999 53:7.6961999 505:15.3924 517:7.6961999 535:38.481098 549:7.6961999 625:7.6961999 711:7.6961999 732:7.6961999 738:7.6961999 789:15.3924 813:7.6961999 839:15.3924 893:7.6961999 899:7.6961999 905:7.6961999 1018:15.3924 1026:7.6961999 1027:7.6961999 1076:7.6961999 1212:7.6961999 1246:7.6961999 1315:7.6961999 1320:7.6961999 1326:7.6961999 1347:7.6961999 1386:7.6961999 1392:7.6961999 1397:7.6961999 1399:7.6961999 1412:7.6961999 1443:7.6961999 1492:7.6961999 1533:30.784901 1548:7.6961999 1560:7.6961999 1868:23.0886 1889:7.6961999 1906:7.6961999 1910:7.6961999 1919:7.6961999 1995:38.481098 2006:7.6961999 2039:7.6961999 2068:7.6961999 2091:15.3924 2103:7.6961999 2125:7.6961999 2209:7.6961999 2214:7.6961999 2217:7.6961999 2280:7.6961999 2339:30.784901 2470:30.784901 2484:7.6961999 2500:7.6961999 2562:15.3924 2621:7.6961999 2642:7.6961999 2680:7.6961999 2774:7.6961999 2810:15.3924 2881:7.6961999 2919:7.6961999 2949:15.3924 2954:30.784901 2979:15.3924 2982:23.0886 3010:7.6961999 3032:7.6961999 3131:7.6961999 3156:7.6961999 3170:7.6961999 3235:7.6961999 3287:15.3924 3307:23.0886 3365:7.6961999 3385:7.6961999 3386:7.6961999 3395:53.873501 3441:7.6961999 3458:7.6961999 3460:7.6961999 3462:7.6961999 3468:7.6961999 3482:7.6961999 3509:7.6961999 3513:23.0886 3551:7.6961999 3591:38.481098 3599:7.6961999 3619:7.6961999 3640:7.6961999 3668:7.6961999 3695:7.6961999 3762:7.6961999 3764:7.6961999 3796:7.6961999 3913:7.6961999 4102:15.3924 4126:7.6961999 4129:15.3924 4152:7.6961999 4156:7.6961999 4157:7.6961999 4170:7.6961999 4215:23.0886 4228:15.3924 4312:7.6961999 # none/00001541_s01.txt
5.8475394451453540766577843257323e-05 43:7.6961999 53:7.6961999 208:7.6961999 505:7.6961999 535:7.6961999 549:7.6961999 578:15.3924 685:7.6961999 711:7.6961999 777:7.6961999 789:15.3924 810:7.6961999 813:7.6961999 899:7.6961999 917:7.6961999 963:7.6961999 1008:7.6961999 1027:7.6961999 1072:7.6961999 1076:7.6961999 1174:7.6961999 1183:7.6961999 1212:7.6961999 1311:7.6961999 1326:15.3924 1392:7.6961999 1397:7.6961999 1412:7.6961999 1428:7.6961999 1478:7.6961999 1492:7.6961999 1533:76.962097 1548:7.6961999 1560:7.6961999 1573:7.6961999 1624:7.6961999 1707:7.6961999 1824:7.6961999 1861:7.6961999 1904:7.6961999 2039:7.6961999 2064:7.6961999 2068:7.6961999 2125:7.6961999 2137:7.6961999 2214:7.6961999 2227:7.6961999 2458:7.6961999 2470:7.6961999 2500:7.6961999 2621:7.6961999 2633:7.6961999 2949:23.0886 2954:15.3924 2979:15.3924 2981:7.6961999 3010:7.6961999 3032:7.6961999 3131:7.6961999 3135:7.6961999 3166:7.6961999 3274:7.6961999 3287:23.0886 3395:7.6961999 3468:7.6961999 3513:15.3924 3547:7.6961999 3551:7.6961999 3576:7.6961999 3591:15.3924 3668:7.6961999 3672:7.6961999 3720:7.6961999 3749:7.6961999 3796:7.6961999 3893:23.0886 3913:7.6961999 4048:7.6961999 4095:7.6961999 4102:7.6961999 4161:7.6961999 4170:7.6961999 4215:23.0886 4287:7.6961999 # seizures/00000005_s06.txt
5.8475394451453540766577843257323e-05 51:7.6961999 145:7.6961999 199:7.6961999 200:7.6961999 214:7.6961999 291:7.6961999 346:7.6961999 468:7.6961999 505:15.3924 535:15.3924 549:23.0886 582:7.6961999 610:7.6961999 631:15.3924 651:7.6961999 680:15.3924 789:7.6961999 810:7.6961999 839:7.6961999 893:7.6961999 1018:15.3924 1026:7.6961999 1072:7.6961999 1076:15.3924 1145:7.6961999 1175:7.6961999 1183:15.3924 1212:15.3924 1320:7.6961999 1347:7.6961999 1356:15.3924 1387:7.6961999 1388:15.3924 1397:7.6961999 1413:23.0886 1453:7.6961999 1492:15.3924 1506:15.3924 1533:30.784901 1537:7.6961999 1548:7.6961999 1560:15.3924 1566:15.3924 1624:15.3924 1658:7.6961999 1668:7.6961999 1672:7.6961999 1740:7.6961999 1818:7.6961999 1821:7.6961999 1861:23.0886 1878:7.6961999 1904:15.3924 1962:7.6961999 1982:7.6961999 2081:23.0886 2125:7.6961999 2194:7.6961999 2214:7.6961999 2230:7.6961999 2280:7.6961999 2289:7.6961999 2318:7.6961999 2322:15.3924 2331:7.6961999 2339:15.3924 2347:7.6961999 2348:7.6961999 2350:7.6961999 2406:7.6961999 2447:7.6961999 2500:15.3924 2584:7.6961999 2656:7.6961999 2755:7.6961999 2760:7.6961999 2766:7.6961999 2774:23.0886 2790:7.6961999 2818:15.3924 2845:15.3924 2856:7.6961999 2865:7.6961999 2881:7.6961999 2930:15.3924 2936:7.6961999 2949:23.0886 2979:23.0886 2982:30.784901 3032:7.6961999 3042:23.0886 3074:23.0886 3153:15.3924 3246:7.6961999 3251:7.6961999 3276:7.6961999 3287:30.784901 3306:7.6961999 3307:15.3924 3316:7.6961999 3378:7.6961999 3380:7.6961999 3385:7.6961999 3386:15.3924 3428:7.6961999 3462:7.6961999 3468:46.177299 3513:15.3924 3531:7.6961999 3556:7.6961999 3585:7.6961999 3591:23.0886 3605:7.6961999 3644:7.6961999 3665:7.6961999 3668:7.6961999 3702:7.6961999 3720:7.6961999 3747:7.6961999 3796:7.6961999 3835:7.6961999 3853:23.0886 3927:7.6961999 4088:7.6961999 4102:15.3924 4176:7.6961999 4215:30.784901 4228:23.0886 # seizures/00000032_s05.txt
5.8475394451453540766577843257323e-05 51:7.6961999 208:15.3924 300:7.6961999 375:7.6961999 489:7.6961999 505:7.6961999 535:15.3924 549:7.6961999 631:23.0886 638:7.6961999 651:7.6961999 680:23.0886 692:7.6961999 711:15.3924 713:7.6961999 731:7.6961999 752:7.6961999 774:7.6961999 789:7.6961999 813:7.6961999 839:15.3924 1026:7.6961999 1036:7.6961999 1072:7.6961999 1076:7.6961999 1144:7.6961999 1147:7.6961999 1183:15.3924 1206:7.6961999 1301:7.6961999 1320:15.3924 1325:7.6961999 1347:7.6961999 1362:7.6961999 1387:7.6961999 1388:7.6961999 1392:7.6961999 1413:7.6961999 1453:7.6961999 1492:7.6961999 1498:7.6961999 1499:7.6961999 1533:15.3924 1548:7.6961999 1560:23.0886 1581:7.6961999 1600:7.6961999 1672:30.784901 1861:38.481098 1868:7.6961999 1881:7.6961999 1904:15.3924 1995:69.2659 2026:15.3924 2066:7.6961999 2087:7.6961999 2195:7.6961999 2214:7.6961999 2280:7.6961999 2318:7.6961999 2339:23.0886 2382:7.6961999 2428:7.6961999 2447:7.6961999 2449:7.6961999 2481:7.6961999 2500:15.3924 2533:7.6961999 2552:15.3924 2554:7.6961999 2571:7.6961999 2584:15.3924 2621:7.6961999 2652:15.3924 2755:7.6961999 2766:7.6961999 2804:7.6961999 2837:7.6961999 2852:7.6961999 2856:7.6961999 2875:7.6961999 2880:15.3924 2949:15.3924 2979:23.0886 3020:7.6961999 3032:7.6961999 3068:7.6961999 3074:15.3924 3153:15.3924 3276:7.6961999 3287:23.0886 3307:15.3924 3385:7.6961999 3395:46.177299 3427:7.6961999 3462:46.177299 3468:46.177299 3576:7.6961999 3591:30.784901 3695:7.6961999 3702:7.6961999 3720:7.6961999 3747:7.6961999 3796:15.3924 3835:7.6961999 3853:15.3924 3893:7.6961999 4026:7.6961999 4088:7.6961999 4102:7.6961999 4170:7.6961999 4215:7.6961999 4229:7.6961999 4245:7.6961999 4287:7.6961999 # seizures/00000043_s01.txt
5.8475394451453540766577843257323e-05 51:7.6961999 208:15.3924 300:7.6961999 375:7.6961999 505:7.6961999 535:7.6961999 549:7.6961999 631:23.0886 651:7.6961999 680:23.0886 692:7.6961999 711:15.3924 713:7.6961999 731:7.6961999 774:7.6961999 789:7.6961999 813:7.6961999 839:15.3924 1026:7.6961999 1072:7.6961999 1144:7.6961999 1181:7.6961999 1183:15.3924 1301:7.6961999 1320:15.3924 1347:7.6961999 1362:7.6961999 1387:7.6961999 1388:7.6961999 1392:7.6961999 1413:15.3924 1453:7.6961999 1492:7.6961999 1498:7.6961999 1499:7.6961999 1533:15.3924 1548:7.6961999 1560:23.0886 1581:7.6961999 1600:7.6961999 1672:30.784901 1861:38.481098 1868:7.6961999 1881:7.6961999 1904:7.6961999 1995:69.2659 2087:7.6961999 2195:7.6961999 2214:7.6961999 2280:7.6961999 2318:7.6961999 2339:23.0886 2382:7.6961999 2428:7.6961999 2447:7.6961999 2449:7.6961999 2481:7.6961999 2500:7.6961999 2533:7.6961999 2552:15.3924 2554:7.6961999 2571:7.6961999 2584:15.3924 2621:7.6961999 2652:15.3924 2755:7.6961999 2766:7.6961999 2804:7.6961999 2852:7.6961999 2856:7.6961999 2875:7.6961999 2880:15.3924 2949:15.3924 2979:15.3924 3020:7.6961999 3032:7.6961999 3068:7.6961999 3074:15.3924 3153:15.3924 3276:7.6961999 3287:30.784901 3307:15.3924 3385:7.6961999 3395:46.177299 3427:7.6961999 3462:46.177299 3468:30.784901 3576:7.6961999 3591:30.784901 3668:7.6961999 3695:7.6961999 3702:7.6961999 3720:7.6961999 3747:7.6961999 3796:15.3924 3835:7.6961999 3853:15.3924 3893:7.6961999 4026:7.6961999 4088:7.6961999 4102:7.6961999 4170:7.6961999 4215:7.6961999 4229:7.6961999 4245:7.6961999 # seizures/00000043_s02.txt
5.8475394451453540766577843257323e-05 51:7.6961999 369:7.6961999 505:15.3924 535:30.784901 625:7.6961999 680:7.6961999 700:7.6961999 726:7.6961999 738:7.6961999 789:15.3924 798:7.6961999 813:7.6961999 821:7.6961999 839:7.6961999 939:15.3924 1027:7.6961999 1076:15.3924 1212:15.3924 1320:7.6961999 1346:7.6961999 1347:7.6961999 1375:7.6961999 1384:7.6961999 1392:7.6961999 1397:7.6961999 1413:15.3924 1492:7.6961999 1498:7.6961999 1533:53.873501 1548:7.6961999 1560:7.6961999 1566:15.3924 1621:7.6961999 1739:23.0886 1746:7.6961999 1797:7.6961999 1834:7.6961999 1861:7.6961999 1862:15.3924 1868:15.3924 1904:15.3924 2039:7.6961999 2125:7.6961999 2131:7.6961999 2145:7.6961999 2164:7.6961999 2182:7.6961999 2189:7.6961999 2214:7.6961999 2285:7.6961999 2339:7.6961999 2403:7.6961999 2428:7.6961999 2470:15.3924 2479:7.6961999 2500:7.6961999 2591:7.6961999 2611:7.6961999 2709:7.6961999 2804:7.6961999 2879:7.6961999 2935:23.0886 2949:23.0886 2954:15.3924 2979:7.6961999 2994:7.6961999 3031:7.6961999 3032:7.6961999 3080:7.6961999 3094:7.6961999 3103:7.6961999 3131:15.3924 3287:15.3924 3349:7.6961999 3373:7.6961999 3395:7.6961999 3453:15.3924 3468:30.784901 3591:7.6961999 3600:7.6961999 3644:7.6961999 3668:7.6961999 3679:7.6961999 3692:7.6961999 3696:7.6961999 3796:7.6961999 3868:7.6961999 3903:7.6961999 3950:7.6961999 3954:7.6961999 4032:15.3924 4084:7.6961999 4102:7.6961999 4170:15.3924 4176:7.6961999 4190:7.6961999 4215:7.6961999 # seizures/00000048_s08.txt
-5.8475394451453540766577843257323e-05 7:7.6961999 13:7.6961999 17:7.6961999 18:7.6961999 19:7.6961999 30:7.6961999 43:7.6961999 51:7.6961999 79:7.6961999 100:15.3924 121:7.6961999 133:7.6961999 145:7.6961999 208:23.0886 234:7.6961999 261:7.6961999 300:15.3924 312:7.6961999 317:7.6961999 354:7.6961999 505:38.481098 509:7.6961999 510:7.6961999 535:30.784901 549:15.3924 570:15.3924 571:38.481098 577:7.6961999 580:7.6961999 582:7.6961999 598:15.3924 610:7.6961999 625:7.6961999 651:15.3924 680:123.1394 693:7.6961999 699:7.6961999 700:53.873501 702:7.6961999 711:23.0886 718:23.0886 726:7.6961999 752:30.784901 787:15.3924 810:30.784901 811:7.6961999 819:7.6961999 839:15.3924 858:7.6961999 862:7.6961999 887:23.0886 893:69.2659 939:15.3924 971:7.6961999 1008:7.6961999 1068:7.6961999 1072:30.784901 1076:15.3924 1085:23.0886 1089:7.6961999 1140:15.3924 1183:38.481098 1186:7.6961999 1212:23.0886 1285:53.873501 1301:23.0886 1304:7.6961999 1310:7.6961999 1347:61.569698 1356:15.3924 1375:15.3924 1388:38.481098 1392:7.6961999 1413:38.481098 1453:15.3924 1467:7.6961999 1492:7.6961999 1498:7.6961999 1499:84.658302 1512:30.784901 1533:69.2659 1548:7.6961999 1560:15.3924 1566:15.3924 1600:53.873501 1608:7.6961999 1618:7.6961999 1620:15.3924 1624:7.6961999 1663:53.873501 1672:23.0886 1707:7.6961999 1709:53.873501 1738:15.3924 1740:7.6961999 1751:7.6961999 1770:7.6961999 1783:15.3924 1791:7.6961999 1818:15.3924 1824:30.784901 1839:23.0886 1861:61.569698 1862:7.6961999 1868:76.962097 1878:7.6961999 1904:46.177299 1933:7.6961999 1955:7.6961999 1967:38.481098 1995:38.481098 2008:7.6961999 2081:15.3924 2087:15.3924 2097:23.0886 2099:15.3924 2125:15.3924 2137:15.3924 2194:7.6961999 2214:7.6961999 2227:7.6961999 2262:46.177299 2268:7.6961999 2280:7.6961999 2310:7.6961999 2315:7.6961999 2318:38.481098 2322:23.0886 2328:30.784901 2339:76.962097 2343:7.6961999 2368:15.3924 2396:30.784901 2398:7.6961999 2406:15.3924 2433:15.3924 2447:23.0886 2481:30.784901 2485:7.6961999 2500:7.6961999 2584:23.0886 2597:23.0886 2611:15.3924 2621:76.962097 2622:30.784901 2627:7.6961999 2633:38.481098 2634:15.3924 2642:7.6961999 2647:23.0886 2652:23.0886 2755:15.3924 2756:7.6961999 2766:23.0886 2774:7.6961999 2790:7.6961999 2801:23.0886 2818:46.177299 2845:23.0886 2852:38.481098 2856:46.177299 2880:23.0886 2937:7.6961999 2949:84.658302 2979:38.481098 3032:7.6961999 3054:23.0886 3067:7.6961999 3074:23.0886 3077:7.6961999 3080:7.6961999 3103:30.784901 3107:7.6961999 3120:7.6961999 3131:7.6961999 3153:15.3924 3170:7.6961999 3195:7.6961999 3229:15.3924 3250:7.6961999 3263:7.6961999 3266:7.6961999 3276:7.6961999 3287:84.658302 3307:46.177299 3316:7.6961999 3326:7.6961999 3327:15.3924 3343:7.6961999 3380:7.6961999 3385:15.3924 3395:107.747 3396:7.6961999 3414:7.6961999 3453:69.2659 3462:84.658302 3468:200.1015 3506:23.0886 3509:7.6961999 3511:15.3924 3513:46.177299 3516:7.6961999 3521:7.6961999 3536:61.569698 3547:7.6961999 3576:46.177299 3585:61.569698 3591:30.784901 3594:7.6961999 3596:7.6961999 3599:7.6961999 3605:15.3924 3618:15.3924 3619:7.6961999 3638:7.6961999 3644:15.3924 3655:7.6961999 3658:38.481098 3665:46.177299 3668:7.6961999 3672:38.481098 3675:15.3924 3691:7.6961999 3693:7.6961999 3702:23.0886 3708:7.6961999 3709:23.0886 3720:7.6961999 3743:7.6961999 3747:30.784901 3796:7.6961999 3853:61.569698 3871:15.3924 3912:7.6961999 3927:46.177299 3950:23.0886 3951:15.3924 3960:7.6961999 3962:7.6961999 4026:7.6961999 4043:7.6961999 4048:7.6961999 4072:7.6961999 4078:15.3924 4084:15.3924 4088:23.0886 4102:15.3924 4105:7.6961999 4170:30.784901 4181:7.6961999 4215:46.177299 4228:38.481098 4229:7.6961999 4310:7.6961999 # none/00001422_s10.txt
-5.8475394451453540766577843257323e-05 7:46.177299 10:7.6961999 30:23.0886 43:30.784901 51:15.3924 53:7.6961999 78:7.6961999 79:30.784901 100:7.6961999 121:7.6961999 132:7.6961999 133:23.0886 144:7.6961999 145:15.3924 155:7.6961999 170:7.6961999 171:7.6961999 232:46.177299 287:7.6961999 318:7.6961999 345:7.6961999 350:7.6961999 391:7.6961999 404:7.6961999 488:7.6961999 501:23.0886 505:7.6961999 510:7.6961999 535:46.177299 549:23.0886 600:15.3924 625:15.3924 651:15.3924 680:7.6961999 687:15.3924 693:7.6961999 702:7.6961999 713:7.6961999 718:7.6961999 726:7.6961999 732:7.6961999 752:7.6961999 781:7.6961999 789:15.3924 813:15.3924 819:7.6961999 839:30.784901 844:7.6961999 868:7.6961999 899:7.6961999 939:7.6961999 973:23.0886 982:7.6961999 1027:15.3924 1032:7.6961999 1034:15.3924 1072:7.6961999 1076:23.0886 1140:69.2659 1165:7.6961999 1183:38.481098 1212:7.6961999 1216:7.6961999 1243:7.6961999 1285:15.3924 1301:7.6961999 1326:15.3924 1347:30.784901 1375:7.6961999 1392:15.3924 1413:7.6961999 1421:7.6961999 1463:7.6961999 1478:7.6961999 1498:7.6961999 1499:7.6961999 1516:15.3924 1533:53.873501 1548:15.3924 1560:15.3924 1581:7.6961999 1600:7.6961999 1604:7.6961999 1621:23.0886 1624:7.6961999 1662:15.3924 1663:7.6961999 1671:30.784901 1681:7.6961999 1692:7.6961999 1724:7.6961999 1732:7.6961999 1740:23.0886 1818:23.0886 1824:7.6961999 1861:61.569698 1862:30.784901 1907:7.6961999 1934:7.6961999 1941:7.6961999 1977:7.6961999 1989:7.6961999 1992:7.6961999 1995:23.0886 2030:7.6961999 2037:7.6961999 2039:15.3924 2091:7.6961999 2116:7.6961999 2125:7.6961999 2126:7.6961999 2131:15.3924 2164:30.784901 2188:7.6961999 2189:7.6961999 2194:30.784901 2214:15.3924 2318:15.3924 2339:30.784901 2369:7.6961999 2386:7.6961999 2396:7.6961999 2398:7.6961999 2403:23.0886 2500:7.6961999 2510:7.6961999 2554:23.0886 2571:7.6961999 2584:23.0886 2611:46.177299 2621:23.0886 2622:30.784901 2638:7.6961999 2642:7.6961999 2712:7.6961999 2774:53.873501 2810:7.6961999 2843:7.6961999 2863:7.6961999 2875:23.0886 2881:23.0886 2937:61.569698 2938:7.6961999 2941:30.784901 2949:92.354599 2954:7.6961999 2975:7.6961999 2979:15.3924 2987:7.6961999 2999:23.0886 3032:15.3924 3048:7.6961999 3074:30.784901 3078:7.6961999 3156:7.6961999 3246:7.6961999 3280:15.3924 3287:100.0508 3294:7.6961999 3307:38.481098 3316:7.6961999 3329:15.3924 3344:23.0886 3359:7.6961999 3386:15.3924 3395:61.569698 3435:7.6961999 3441:7.6961999 3458:76.962097 3461:15.3924 3462:15.3924 3468:177.01289 3494:30.784901 3513:15.3924 3525:7.6961999 3531:15.3924 3536:7.6961999 3543:15.3924 3556:7.6961999 3576:30.784901 3591:38.481098 3599:23.0886 3668:15.3924 3679:15.3924 3682:7.6961999 3695:7.6961999 3702:7.6961999 3716:7.6961999 3796:15.3924 3853:53.873501 3868:7.6961999 3869:7.6961999 3893:23.0886 3912:7.6961999 3913:7.6961999 3927:15.3924 3977:7.6961999 4017:7.6961999 4032:7.6961999 4084:7.6961999 4088:7.6961999 4102:15.3924 4170:15.3924 4202:7.6961999 4215:15.3924 4219:7.6961999 4220:7.6961999 4221:7.6961999 4263:15.3924 # none/00000088_s10.txt
-5.8475394451453540766577843257323e-05 51:7.6961999 311:15.3924 440:7.6961999 505:7.6961999 535:84.658302 600:7.6961999 610:30.784901 705:30.784901 738:7.6961999 752:7.6961999 779:30.784901 789:15.3924 811:7.6961999 821:7.6961999 862:15.3924 899:7.6961999 1027:7.6961999 1072:7.6961999 1076:15.3924 1126:15.3924 1165:23.0886 1175:15.3924 1183:38.481098 1212:7.6961999 1225:15.3924 1320:46.177299 1326:23.0886 1347:7.6961999 1356:7.6961999 1397:7.6961999 1423:23.0886 1492:7.6961999 1505:7.6961999 1533:53.873501 1548:7.6961999 1560:7.6961999 1600:15.3924 1624:23.0886 1662:7.6961999 1672:7.6961999 1739:23.0886 1770:7.6961999 1824:15.3924 1904:7.6961999 1907:7.6961999 1982:7.6961999 1995:23.0886 2037:7.6961999 2125:7.6961999 2126:23.0886 2137:15.3924 2164:7.6961999 2182:7.6961999 2194:7.6961999 2214:7.6961999 2220:7.6961999 2280:7.6961999 2339:38.481098 2428:7.6961999 2484:7.6961999 2500:7.6961999 2611:30.784901 2621:15.3924 2622:7.6961999 2676:7.6961999 2774:23.0886 2845:7.6961999 2851:7.6961999 2875:7.6961999 2880:23.0886 2881:7.6961999 2949:30.784901 2954:46.177299 2979:7.6961999 2982:23.0886 3002:7.6961999 3032:7.6961999 3170:15.3924 3251:7.6961999 3275:7.6961999 3287:38.481098 3307:7.6961999 3316:7.6961999 3327:15.3924 3385:7.6961999 3395:15.3924 3435:7.6961999 3468:30.784901 3503:7.6961999 3513:15.3924 3543:7.6961999 3576:30.784901 3591:23.0886 3605:7.6961999 3619:7.6961999 3644:23.0886 3658:7.6961999 3668:7.6961999 3796:7.6961999 3853:7.6961999 3927:7.6961999 4032:7.6961999 4072:7.6961999 4102:7.6961999 4106:7.6961999 4156:7.6961999 4170:15.3924 4190:7.6961999 4199:7.6961999 4215:7.6961999 # none/00001413_s02.txt
5.8475394451453540766577843257323e-05 10:7.6961999 51:7.6961999 452:7.6961999 505:7.6961999 535:23.0886 549:7.6961999 563:7.6961999 600:7.6961999 631:7.6961999 651:7.6961999 733:7.6961999 789:7.6961999 862:7.6961999 868:7.6961999 899:7.6961999 912:15.3924 920:7.6961999 971:7.6961999 1027:7.6961999 1076:7.6961999 1132:7.6961999 1186:7.6961999 1212:7.6961999 1320:7.6961999 1347:7.6961999 1392:7.6961999 1434:7.6961999 1480:7.6961999 1492:7.6961999 1533:38.481098 1548:7.6961999 1560:7.6961999 1575:7.6961999 1626:7.6961999 1662:15.3924 1663:7.6961999 1740:15.3924 1745:7.6961999 1818:15.3924 1861:7.6961999 1862:15.3924 1985:7.6961999 2039:7.6961999 2068:7.6961999 2081:7.6961999 2097:7.6961999 2125:7.6961999 2131:7.6961999 2137:7.6961999 2214:7.6961999 2280:7.6961999 2293:7.6961999 2339:61.569698 2426:7.6961999 2484:7.6961999 2500:7.6961999 2554:7.6961999 2621:7.6961999 2774:15.3924 2810:7.6961999 2812:15.3924 2818:7.6961999 2875:7.6961999 2949:15.3924 2979:15.3924 3010:15.3924 3032:7.6961999 3068:7.6961999 3074:7.6961999 3156:7.6961999 3170:15.3924 3183:7.6961999 3235:7.6961999 3246:15.3924 3287:30.784901 3307:23.0886 3365:7.6961999 3385:23.0886 3395:7.6961999 3442:7.6961999 3458:15.3924 3461:15.3924 3513:46.177299 3516:7.6961999 3576:38.481098 3585:7.6961999 3591:15.3924 3595:7.6961999 3619:7.6961999 3649:7.6961999 3665:7.6961999 3668:7.6961999 3695:23.0886 3762:7.6961999 3796:7.6961999 3853:30.784901 3893:7.6961999 3927:7.6961999 3954:7.6961999 3962:7.6961999 3971:7.6961999 3978:15.3924 4048:15.3924 4102:7.6961999 4148:7.6961999 4161:15.3924 4170:7.6961999 4176:7.6961999 4215:61.569698 4220:7.6961999 4228:15.3924 4307:7.6961999 # seizures/00000327_s03.txt
5.8475394451453540766577843257323e-05 51:7.6961999 66:7.6961999 200:7.6961999 218:7.6961999 505:23.0886 535:15.3924 549:15.3924 631:7.6961999 651:23.0886 670:7.6961999 680:7.6961999 699:15.3924 718:7.6961999 779:7.6961999 824:7.6961999 839:7.6961999 1008:23.0886 1018:7.6961999 1076:7.6961999 1130:7.6961999 1175:23.0886 1186:7.6961999 1212:15.3924 1216:7.6961999 1265:7.6961999 1347:7.6961999 1380:7.6961999 1387:7.6961999 1413:23.0886 1453:7.6961999 1492:7.6961999 1506:7.6961999 1533:23.0886 1548:7.6961999 1560:15.3924 1668:15.3924 1672:7.6961999 1709:7.6961999 1818:38.481098 1861:7.6961999 1878:7.6961999 1982:7.6961999 2081:15.3924 2125:7.6961999 2131:15.3924 2137:7.6961999 2140:7.6961999 2194:7.6961999 2214:7.6961999 2280:7.6961999 2289:7.6961999 2339:15.3924 2343:7.6961999 2347:15.3924 2500:7.6961999 2552:7.6961999 2554:7.6961999 2649:7.6961999 2755:7.6961999 2818:15.3924 2856:15.3924 2875:7.6961999 2937:23.0886 2949:15.3924 2979:7.6961999 2982:7.6961999 3010:15.3924 3032:7.6961999 3039:7.6961999 3074:7.6961999 3153:15.3924 3156:7.6961999 3251:7.6961999 3263:7.6961999 3266:7.6961999 3276:7.6961999 3287:46.177299 3307:38.481098 3347:7.6961999 3378:7.6961999 3385:15.3924 3395:7.6961999 3421:7.6961999 3427:7.6961999 3460:7.6961999 3462:15.3924 3468:46.177299 3513:7.6961999 3516:7.6961999 3548:23.0886 3556:7.6961999 3576:7.6961999 3591:23.0886 3618:7.6961999 3658:7.6961999 3665:7.6961999 3668:7.6961999 3695:15.3924 3720:7.6961999 3796:7.6961999 3831:7.6961999 3835:7.6961999 3853:23.0886 3913:15.3924 3927:7.6961999 4025:7.6961999 4102:7.6961999 4199:7.6961999 4215:23.0886 4228:7.6961999 # seizures/00000447_s01.txt
-7.2587852064850616538686789436241e-06 51:7.6961999 468:7.6961999 505:15.3924 517:15.3924 535:30.784901 549:7.6961999 600:15.3924 612:7.6961999 625:7.6961999 711:7.6961999 732:7.6961999 752:7.6961999 770:7.6961999 862:7.6961999 899:7.6961999 1027:7.6961999 1076:7.6961999 1167:7.6961999 1212:7.6961999 1347:7.6961999 1392:7.6961999 1397:7.6961999 1434:7.6961999 1480:7.6961999 1488:7.6961999 1492:7.6961999 1533:46.177299 1548:7.6961999 1560:7.6961999 1575:7.6961999 1709:7.6961999 1729:7.6961999 1740:15.3924 1745:15.3924 1777:7.6961999 1818:23.0886 1861:23.0886 1982:7.6961999 1995:30.784901 2026:7.6961999 2068:15.3924 2081:7.6961999 2091:7.6961999 2125:7.6961999 2131:23.0886 2188:7.6961999 2214:7.6961999 2298:7.6961999 2339:15.3924 2433:7.6961999 2481:7.6961999 2484:7.6961999 2495:7.6961999 2500:7.6961999 2621:15.3924 2634:7.6961999 2652:7.6961999 2771:7.6961999 2774:7.6961999 2802:7.6961999 2810:7.6961999 2845:7.6961999 2933:7.6961999 2979:15.3924 2987:7.6961999 3010:23.0886 3032:7.6961999 3077:7.6961999 3119:7.6961999 3131:7.6961999 3187:7.6961999 3251:7.6961999 3287:15.3924 3316:7.6961999 3321:7.6961999 3385:15.3924 3395:53.873501 3414:7.6961999 3441:7.6961999 3461:15.3924 3468:15.3924 3513:23.0886 3591:38.481098 3668:7.6961999 3695:23.0886 3716:7.6961999 3737:7.6961999 3762:7.6961999 3796:7.6961999 3927:7.6961999 4032:7.6961999 4048:7.6961999 4102:7.6961999 4170:7.6961999 4174:7.6961999 4199:7.6961999 4215:23.0886 # none/00003509_s02.txt
-1.3976735522200928337442638049737e-05 51:7.6961999 485:7.6961999 505:7.6961999 511:7.6961999 535:15.3924 549:7.6961999 651:7.6961999 789:23.0886 813:7.6961999 899:7.6961999 1001:7.6961999 1008:7.6961999 1027:7.6961999 1076:15.3924 1173:7.6961999 1212:7.6961999 1320:7.6961999 1326:15.3924 1347:7.6961999 1392:7.6961999 1461:7.6961999 1492:7.6961999 1533:15.3924 1548:7.6961999 1560:7.6961999 1624:7.6961999 1671:15.3924 1826:7.6961999 1861:23.0886 1995:23.0886 2000:7.6961999 2039:7.6961999 2125:7.6961999 2158:7.6961999 2214:7.6961999 2217:7.6961999 2339:7.6961999 2433:7.6961999 2470:7.6961999 2500:7.6961999 2591:7.6961999 2657:7.6961999 2683:7.6961999 2765:7.6961999 2802:7.6961999 2851:15.3924 2918:7.6961999 2949:15.3924 2954:7.6961999 2979:7.6961999 3032:7.6961999 3042:7.6961999 3046:7.6961999 3055:7.6961999 3074:7.6961999 3170:7.6961999 3266:7.6961999 3287:15.3924 3365:7.6961999 3395:23.0886 3468:15.3924 3513:7.6961999 3543:7.6961999 3591:15.3924 3644:7.6961999 3668:7.6961999 3695:15.3924 3720:7.6961999 3796:7.6961999 3811:15.3924 3853:23.0886 3893:7.6961999 4102:7.6961999 4125:7.6961999 4170:7.6961999 4190:7.6961999 4215:7.6961999 # none/00001325_s08.txt
-5.8475394451453540766577843257323e-05 7:7.6961999 15:7.6961999 19:30.784901 43:7.6961999 51:7.6961999 53:7.6961999 67:7.6961999 68:7.6961999 73:7.6961999 100:15.3924 121:46.177299 208:7.6961999 229:7.6961999 310:7.6961999 345:7.6961999 346:7.6961999 351:7.6961999 501:15.3924 505:15.3924 509:7.6961999 535:84.658302 549:23.0886 598:7.6961999 610:7.6961999 625:15.3924 631:23.0886 711:30.784901 734:7.6961999 789:38.481098 813:23.0886 819:7.6961999 839:7.6961999 868:7.6961999 899:15.3924 915:15.3924 939:92.354599 942:7.6961999 1008:7.6961999 1018:23.0886 1026:23.0886 1027:15.3924 1032:7.6961999 1034:7.6961999 1072:15.3924 1076:38.481098 1089:7.6961999 1101:7.6961999 1119:7.6961999 1152:7.6961999 1183:23.0886 1212:15.3924 1301:7.6961999 1311:7.6961999 1320:7.6961999 1326:7.6961999 1333:7.6961999 1346:15.3924 1347:15.3924 1362:7.6961999 1388:7.6961999 1392:7.6961999 1418:15.3924 1492:15.3924 1499:7.6961999 1533:46.177299 1548:15.3924 1560:23.0886 1564:7.6961999 1624:15.3924 1672:7.6961999 1722:7.6961999 1729:7.6961999 1732:7.6961999 1739:15.3924 1776:7.6961999 1861:15.3924 1881:7.6961999 1889:7.6961999 1941:7.6961999 2015:7.6961999 2039:15.3924 2088:15.3924 2116:7.6961999 2125:15.3924 2126:7.6961999 2131:7.6961999 2144:7.6961999 2158:23.0886 2164:7.6961999 2214:15.3924 2217:7.6961999 2270:7.6961999 2288:7.6961999 2318:7.6961999 2386:7.6961999 2426:7.6961999 2428:7.6961999 2431:15.3924 2433:7.6961999 2436:7.6961999 2470:7.6961999 2493:7.6961999 2500:23.0886 2584:7.6961999 2591:23.0886 2611:15.3924 2621:7.6961999 2622:7.6961999 2634:7.6961999 2652:7.6961999 2661:7.6961999 2703:7.6961999 2774:7.6961999 2802:15.3924 2809:7.6961999 2812:15.3924 2818:23.0886 2845:15.3924 2880:7.6961999 2881:7.6961999 2949:23.0886 2954:69.2659 2979:15.3924 3032:15.3924 3046:7.6961999 3170:7.6961999 3174:7.6961999 3187:15.3924 3188:7.6961999 3206:7.6961999 3235:15.3924 3281:7.6961999 3287:38.481098 3307:15.3924 3380:7.6961999 3440:7.6961999 3453:38.481098 3461:30.784901 3462:15.3924 3468:23.0886 3600:7.6961999 3668:15.3924 3695:15.3924 3702:7.6961999 3740:7.6961999 3764:30.784901 3796:15.3924 3811:7.6961999 3851:7.6961999 3893:7.6961999 3913:7.6961999 3927:15.3924 3967:7.6961999 3977:7.6961999 4025:7.6961999 4032:7.6961999 4078:7.6961999 4102:7.6961999 4123:7.6961999 4170:30.784901 4190:7.6961999 4262:7.6961999 # none/00003122_s01.txt
5.8475394451453540766577843257323e-05 51:7.6961999 109:7.6961999 166:7.6961999 342:15.3924 501:7.6961999 505:7.6961999 535:30.784901 549:15.3924 571:7.6961999 600:7.6961999 738:7.6961999 782:7.6961999 789:7.6961999 813:7.6961999 819:15.3924 899:7.6961999 939:7.6961999 965:7.6961999 1008:23.0886 1027:7.6961999 1076:7.6961999 1140:15.3924 1174:7.6961999 1183:7.6961999 1186:7.6961999 1212:7.6961999 1225:7.6961999 1333:7.6961999 1346:7.6961999 1347:7.6961999 1375:7.6961999 1386:7.6961999 1392:7.6961999 1397:7.6961999 1437:7.6961999 1467:7.6961999 1492:7.6961999 1533:30.784901 1548:7.6961999 1560:7.6961999 1600:7.6961999 1621:15.3924 1624:7.6961999 1692:7.6961999 1720:7.6961999 1722:7.6961999 1739:7.6961999 1766:7.6961999 1783:7.6961999 1818:7.6961999 1861:7.6961999 1862:7.6961999 1866:7.6961999 1904:15.3924 1941:15.3924 2037:15.3924 2039:7.6961999 2068:7.6961999 2125:7.6961999 2126:7.6961999 2131:7.6961999 2145:7.6961999 2164:7.6961999 2214:7.6961999 2339:7.6961999 2348:7.6961999 2433:7.6961999 2470:7.6961999 2500:7.6961999 2642:7.6961999 2649:7.6961999 2845:7.6961999 2880:7.6961999 2881:7.6961999 2937:15.3924 2941:7.6961999 2949:23.0886 2954:15.3924 2979:15.3924 2982:15.3924 3010:7.6961999 3032:7.6961999 3170:7.6961999 3287:30.784901 3292:7.6961999 3307:23.0886 3344:15.3924 3386:7.6961999 3395:15.3924 3460:7.6961999 3466:7.6961999 3468:30.784901 3509:7.6961999 3513:7.6961999 3516:7.6961999 3543:7.6961999 3551:7.6961999 3591:61.569698 3644:7.6961999 3667:7.6961999 3668:7.6961999 3679:15.3924 3704:7.6961999 3738:7.6961999 3789:7.6961999 3796:7.6961999 3853:7.6961999 3967:7.6961999 3978:15.3924 4025:7.6961999 4102:7.6961999 4170:15.3924 4190:7.6961999 # seizures/00000717_s05.txt
-8.4708156173246165570028115565648e-06 51:7.6961999 440:7.6961999 505:15.3924 509:7.6961999 535:7.6961999 549:7.6961999 651:23.0886 656:7.6961999 680:7.6961999 692:7.6961999 711:7.6961999 726:7.6961999 769:7.6961999 789:7.6961999 839:7.6961999 879:7.6961999 939:23.0886 1076:7.6961999 1101:7.6961999 1139:7.6961999 1175:15.3924 1183:7.6961999 1212:7.6961999 1216:7.6961999 1333:7.6961999 1346:7.6961999 1347:7.6961999 1387:7.6961999 1388:15.3924 1413:7.6961999 1453:7.6961999 1492:7.6961999 1499:7.6961999 1506:7.6961999 1513:7.6961999 1533:30.784901 1548:7.6961999 1560:15.3924 1586:7.6961999 1668:7.6961999 1832:7.6961999 1861:15.3924 1878:7.6961999 1904:15.3924 1982:7.6961999 2077:7.6961999 2081:15.3924 2125:7.6961999 2166:7.6961999 2194:15.3924 2195:15.3924 2214:7.6961999 2230:7.6961999 2261:7.6961999 2262:15.3924 2331:7.6961999 2500:7.6961999 2661:7.6961999 2755:15.3924 2766:15.3924 2818:15.3924 2845:7.6961999 2856:7.6961999 2949:7.6961999 2961:7.6961999 2979:15.3924 3032:7.6961999 3055:7.6961999 3068:7.6961999 3074:7.6961999 3103:15.3924 3153:7.6961999 3161:7.6961999 3251:7.6961999 3276:7.6961999 3287:30.784901 3378:7.6961999 3385:7.6961999 3421:7.6961999 3462:15.3924 3468:15.3924 3504:7.6961999 3556:7.6961999 3576:7.6961999 3644:38.481098 3668:7.6961999 3679:7.6961999 3720:7.6961999 3764:23.0886 3796:7.6961999 3835:7.6961999 3853:7.6961999 3913:7.6961999 3927:7.6961999 3928:7.6961999 4078:7.6961999 4102:7.6961999 4157:7.6961999 4215:30.784901 # none/00000102_s08.txt
-1.7057022482439598604249397784116e-05 51:7.6961999 104:7.6961999 259:7.6961999 300:7.6961999 354:7.6961999 472:7.6961999 505:7.6961999 535:7.6961999 549:7.6961999 571:7.6961999 631:7.6961999 651:7.6961999 680:23.0886 701:7.6961999 731:7.6961999 789:15.3924 819:7.6961999 839:7.6961999 939:53.873501 989:7.6961999 1008:7.6961999 1018:7.6961999 1072:15.3924 1076:7.6961999 1175:7.6961999 1183:30.784901 1186:15.3924 1212:7.6961999 1320:7.6961999 1333:7.6961999 1347:7.6961999 1387:7.6961999 1388:23.0886 1413:7.6961999 1453:7.6961999 1467:7.6961999 1492:15.3924 1506:7.6961999 1533:30.784901 1537:7.6961999 1548:7.6961999 1560:15.3924 1624:7.6961999 1658:7.6961999 1668:7.6961999 1671:7.6961999 1824:7.6961999 1861:7.6961999 1868:30.784901 1878:7.6961999 1904:7.6961999 1982:7.6961999 2037:15.3924 2125:7.6961999 2126:15.3924 2183:7.6961999 2194:7.6961999 2200:7.6961999 2214:7.6961999 2318:7.6961999 2331:15.3924 2406:7.6961999 2407:7.6961999 2481:7.6961999 2500:15.3924 2621:15.3924 2712:7.6961999 2755:7.6961999 2760:7.6961999 2766:7.6961999 2818:15.3924 2856:7.6961999 2881:7.6961999 2936:7.6961999 2949:7.6961999 2954:38.481098 2979:15.3924 2999:7.6961999 3032:7.6961999 3074:7.6961999 3107:7.6961999 3153:7.6961999 3174:15.3924 3251:7.6961999 3287:38.481098 3306:7.6961999 3307:15.3924 3378:7.6961999 3385:7.6961999 3453:15.3924 3459:7.6961999 3462:38.481098 3468:15.3924 3516:15.3924 3529:7.6961999 3543:7.6961999 3556:7.6961999 3585:7.6961999 3591:23.0886 3596:7.6961999 3618:7.6961999 3668:7.6961999 3672:7.6961999 3764:23.0886 3796:7.6961999 3821:7.6961999 3835:7.6961999 3853:7.6961999 3868:7.6961999 3893:15.3924 3913:7.6961999 3927:7.6961999 3936:7.6961999 4043:7.6961999 4078:7.6961999 4102:7.6961999 4157:7.6961999 4176:7.6961999 # none/00000264_s33.txt
5.8475394451453540766577843257323e-05 43:7.6961999 51:7.6961999 145:7.6961999 200:15.3924 218:7.6961999 219:7.6961999 302:7.6961999 505:15.3924 535:7.6961999 549:23.0886 631:23.0886 651:30.784901 680:23.0886 692:7.6961999 699:30.784901 700:7.6961999 789:15.3924 813:7.6961999 837:7.6961999 839:7.6961999 851:7.6961999 868:7.6961999 893:7.6961999 1008:15.3924 1018:15.3924 1026:7.6961999 1076:7.6961999 1130:7.6961999 1175:7.6961999 1183:15.3924 1212:15.3924 1265:7.6961999 1301:7.6961999 1347:7.6961999 1356:15.3924 1387:7.6961999 1388:15.3924 1392:7.6961999 1413:15.3924 1453:7.6961999 1492:15.3924 1499:15.3924 1506:23.0886 1533:30.784901 1537:7.6961999 1548:7.6961999 1560:15.3924 1630:7.6961999 1648:7.6961999 1658:7.6961999 1663:7.6961999 1668:30.784901 1709:7.6961999 1777:7.6961999 1783:15.3924 1818:46.177299 1861:7.6961999 1862:7.6961999 1878:7.6961999 1933:7.6961999 2015:7.6961999 2037:23.0886 2081:23.0886 2125:7.6961999 2137:7.6961999 2140:7.6961999 2214:7.6961999 2230:7.6961999 2289:7.6961999 2318:15.3924 2339:38.481098 2386:7.6961999 2396:7.6961999 2406:7.6961999 2500:15.3924 2552:15.3924 2611:7.6961999 2621:7.6961999 2632:7.6961999 2634:7.6961999 2649:23.0886 2755:7.6961999 2760:7.6961999 2766:15.3924 2774:23.0886 2790:7.6961999 2856:15.3924 2868:7.6961999 2936:7.6961999 2941:7.6961999 2949:23.0886 2979:15.3924 3026:7.6961999 3032:7.6961999 3074:7.6961999 3134:7.6961999 3153:7.6961999 3263:7.6961999 3266:7.6961999 3276:7.6961999 3287:46.177299 3306:7.6961999 3307:46.177299 3327:7.6961999 3354:7.6961999 3366:7.6961999 3378:7.6961999 3380:7.6961999 3385:7.6961999 3386:7.6961999 3395:15.3924 3435:7.6961999 3453:7.6961999 3462:46.177299 3468:61.569698 3513:15.3924 3558:7.6961999 3576:23.0886 3591:38.481098 3605:7.6961999 3618:7.6961999 3644:7.6961999 3665:7.6961999 3668:7.6961999 3671:7.6961999 3692:7.6961999 3716:7.6961999 3720:7.6961999 3796:7.6961999 3831:7.6961999 3835:7.6961999 3853:38.481098 3893:7.6961999 3927:15.3924 4016:7.6961999 4078:7.6961999 4102:15.3924 4105:7.6961999 4170:7.6961999 4176:7.6961999 4199:7.6961999 4215:15.3924 4228:23.0886 4309:7.6961999 # seizures/00001884_s02.txt
3.1712481709406925285514577961266e-05 37:7.6961999 51:7.6961999 218:7.6961999 448:7.6961999 505:15.3924 535:15.3924 549:23.0886 570:7.6961999 571:7.6961999 600:7.6961999 631:15.3924 651:15.3924 680:38.481098 699:15.3924 700:23.0886 711:15.3924 714:7.6961999 779:7.6961999 798:7.6961999 809:15.3924 810:7.6961999 818:7.6961999 839:7.6961999 844:7.6961999 939:15.3924 1018:7.6961999 1072:7.6961999 1075:7.6961999 1076:7.6961999 1085:15.3924 1175:15.3924 1183:23.0886 1186:7.6961999 1212:7.6961999 1301:7.6961999 1347:7.6961999 1362:7.6961999 1374:7.6961999 1397:7.6961999 1413:7.6961999 1453:7.6961999 1492:7.6961999 1499:15.3924 1506:7.6961999 1512:7.6961999 1533:46.177299 1548:7.6961999 1551:7.6961999 1560:23.0886 1618:7.6961999 1630:7.6961999 1663:7.6961999 1709:7.6961999 1777:7.6961999 1795:7.6961999 1818:30.784901 1824:15.3924 1861:15.3924 1866:15.3924 1868:23.0886 1878:7.6961999 1904:7.6961999 1967:7.6961999 1977:7.6961999 1982:7.6961999 1995:69.2659 2081:15.3924 2087:7.6961999 2125:7.6961999 2194:7.6961999 2195:7.6961999 2214:7.6961999 2262:7.6961999 2280:7.6961999 2289:7.6961999 2318:7.6961999 2331:7.6961999 2339:61.569698 2347:7.6961999 2399:7.6961999 2426:7.6961999 2450:7.6961999 2472:7.6961999 2481:23.0886 2500:7.6961999 2552:7.6961999 2554:15.3924 2613:7.6961999 2634:23.0886 2652:15.3924 2766:7.6961999 2818:15.3924 2852:15.3924 2856:7.6961999 2880:46.177299 2949:30.784901 2979:23.0886 3032:7.6961999 3074:7.6961999 3080:7.6961999 3107:7.6961999 3134:7.6961999 3153:15.3924 3229:7.6961999 3251:7.6961999 3263:7.6961999 3276:7.6961999 3287:46.177299 3307:30.784901 3327:7.6961999 3347:7.6961999 3378:15.3924 3385:15.3924 3386:7.6961999 3395:61.569698 3421:7.6961999 3453:7.6961999 3455:7.6961999 3462:30.784901 3468:61.569698 3479:7.6961999 3513:7.6961999 3516:7.6961999 3539:7.6961999 3556:7.6961999 3591:30.784901 3596:15.3924 3668:7.6961999 3672:7.6961999 3702:7.6961999 3709:7.6961999 3716:7.6961999 3720:7.6961999 3735:7.6961999 3796:7.6961999 3831:7.6961999 3853:23.0886 3893:15.3924 3913:7.6961999 3927:7.6961999 3950:15.3924 3951:7.6961999 3990:7.6961999 4017:7.6961999 4029:7.6961999 4102:7.6961999 4156:15.3924 4199:7.6961999 4215:7.6961999 # seizures/00000264_s03.txt
5.8475394451453540766577843257323e-05 16:7.6961999 18:69.2659 25:7.6961999 51:23.0886 208:15.3924 259:7.6961999 261:30.784901 270:7.6961999 271:7.6961999 278:7.6961999 279:7.6961999 282:7.6961999 285:7.6961999 288:7.6961999 300:30.784901 311:7.6961999 312:7.6961999 316:7.6961999 317:7.6961999 326:7.6961999 337:15.3924 345:7.6961999 348:7.6961999 388:15.3924 404:30.784901 509:7.6961999 511:7.6961999 514:7.6961999 535:46.177299 600:23.0886 610:7.6961999 711:30.784901 717:7.6961999 718:7.6961999 731:7.6961999 748:7.6961999 764:7.6961999 779:23.0886 780:15.3924 787:7.6961999 789:7.6961999 810:7.6961999 811:15.3924 815:7.6961999 821:30.784901 868:7.6961999 887:23.0886 899:30.784901 942:23.0886 971:7.6961999 1027:23.0886 1062:7.6961999 1072:7.6961999 1076:69.2659 1126:7.6961999 1167:7.6961999 1183:53.873501 1201:23.0886 1212:46.177299 1304:7.6961999 1326:30.784901 1339:7.6961999 1346:15.3924 1347:38.481098 1353:38.481098 1356:7.6961999 1384:7.6961999 1397:7.6961999 1424:7.6961999 1434:7.6961999 1443:7.6961999 1453:7.6961999 1488:38.481098 1499:15.3924 1533:177.01289 1548:23.0886 1560:53.873501 1585:7.6961999 1587:7.6961999 1588:7.6961999 1607:7.6961999 1624:53.873501 1663:69.2659 1696:7.6961999 1730:7.6961999 1740:7.6961999 1745:15.3924 1751:15.3924 1777:7.6961999 1818:53.873501 1824:7.6961999 1829:7.6961999 1861:7.6961999 1862:7.6961999 1878:7.6961999 1881:7.6961999 1911:15.3924 1933:15.3924 1936:7.6961999 1967:30.784901 1977:7.6961999 1982:30.784901 1995:30.784901 2015:7.6961999 2028:7.6961999 2037:7.6961999 2081:15.3924 2091:15.3924 2097:23.0886 2125:30.784901 2131:30.784901 2144:7.6961999 2169:7.6961999 2182:7.6961999 2189:7.6961999 2194:15.3924 2198:7.6961999 2214:38.481098 2339:38.481098 2348:7.6961999 2368:7.6961999 2376:7.6961999 2378:7.6961999 2386:7.6961999 2406:7.6961999 2410:15.3924 2444:7.6961999 2493:7.6961999 2500:7.6961999 2584:7.6961999 2611:92.354599 2621:15.3924 2622:23.0886 2629:7.6961999 2633:7.6961999 2634:15.3924 2642:15.3924 2682:7.6961999 2755:15.3924 2757:7.6961999 2766:23.0886 2774:61.569698 2780:7.6961999 2788:7.6961999 2790:30.784901 2802:7.6961999 2821:46.177299 2845:30.784901 2875:15.3924 2941:23.0886 2944:7.6961999 2947:7.6961999 2949:130.8356 2954:23.0886 2979:30.784901 3020:7.6961999 3032:23.0886 3055:7.6961999 3068:7.6961999 3074:7.6961999 3084:7.6961999 3135:23.0886 3149:23.0886 3164:7.6961999 3168:7.6961999 3170:7.6961999 3205:7.6961999 3206:23.0886 3208:30.784901 3221:7.6961999 3235:7.6961999 3243:7.6961999 3249:7.6961999 3251:30.784901 3266:15.3924 3287:76.962097 3311:7.6961999 3325:7.6961999 3329:15.3924 3347:7.6961999 3360:7.6961999 3377:7.6961999 3385:30.784901 3386:15.3924 3395:53.873501 3411:84.658302 3440:7.6961999 3453:7.6961999 3458:38.481098 3461:7.6961999 3462:7.6961999 3468:76.962097 3503:15.3924 3511:7.6961999 3537:7.6961999 3539:7.6961999 3541:15.3924 3543:7.6961999 3576:100.0508 3580:7.6961999 3585:7.6961999 3591:69.2659 3605:7.6961999 3618:7.6961999 3635:7.6961999 3644:7.6961999 3649:38.481098 3663:7.6961999 3665:46.177299 3668:23.0886 3672:7.6961999 3702:30.784901 3713:7.6961999 3743:7.6961999 3749:7.6961999 3787:15.3924 3796:23.0886 3815:7.6961999 3821:7.6961999 3832:7.6961999 3835:7.6961999 3846:7.6961999 3861:7.6961999 3912:15.3924 3927:15.3924 3978:15.3924 3992:7.6961999 4021:7.6961999 4030:7.6961999 4032:30.784901 4037:15.3924 4072:23.0886 4102:30.784901 4161:30.784901 4170:61.569698 4199:61.569698 4215:38.481098 4227:7.6961999 4232:7.6961999 4233:7.6961999 4263:15.3924 # seizures/00001732_s05.txt
-2.4285900754864524859685803725995e-05 51:7.6961999 200:7.6961999 208:7.6961999 214:7.6961999 234:15.3924 239:7.6961999 261:7.6961999 505:15.3924 535:15.3924 543:7.6961999 549:23.0886 610:7.6961999 631:7.6961999 651:15.3924 680:23.0886 692:7.6961999 699:7.6961999 711:7.6961999 789:15.3924 839:15.3924 939:15.3924 1008:23.0886 1018:7.6961999 1072:15.3924 1076:7.6961999 1175:15.3924 1183:15.3924 1212:7.6961999 1347:7.6961999 1374:7.6961999 1387:7.6961999 1388:30.784901 1397:7.6961999 1413:15.3924 1453:7.6961999 1492:15.3924 1499:7.6961999 1506:15.3924 1533:23.0886 1537:7.6961999 1548:7.6961999 1560:15.3924 1618:7.6961999 1624:7.6961999 1658:7.6961999 1668:15.3924 1672:7.6961999 1818:7.6961999 1861:23.0886 1868:15.3924 1904:15.3924 1995:30.784901 2081:15.3924 2125:7.6961999 2137:7.6961999 2164:7.6961999 2194:7.6961999 2214:7.6961999 2230:7.6961999 2318:7.6961999 2322:7.6961999 2331:7.6961999 2339:30.784901 2398:7.6961999 2403:7.6961999 2470:15.3924 2481:7.6961999 2500:15.3924 2652:7.6961999 2656:7.6961999 2684:7.6961999 2755:15.3924 2760:7.6961999 2766:15.3924 2774:7.6961999 2804:7.6961999 2821:15.3924 2856:7.6961999 2880:15.3924 2881:7.6961999 2936:7.6961999 2949:23.0886 2979:23.0886 2982:15.3924 3032:7.6961999 3042:15.3924 3074:15.3924 3153:15.3924 3266:7.6961999 3276:7.6961999 3287:30.784901 3306:7.6961999 3307:7.6961999 3316:7.6961999 3385:7.6961999 3386:7.6961999 3428:7.6961999 3435:7.6961999 3462:53.873501 3468:30.784901 3513:15.3924 3556:7.6961999 3576:7.6961999 3585:7.6961999 3591:38.481098 3618:7.6961999 3668:7.6961999 3695:7.6961999 3716:7.6961999 3720:7.6961999 3796:7.6961999 3835:7.6961999 3853:15.3924 3868:7.6961999 3893:7.6961999 3913:7.6961999 3927:30.784901 3962:7.6961999 3985:7.6961999 4102:7.6961999 4199:7.6961999 4215:23.0886 # none/00000286_s05.txt
5.8475394451453540766577843257323e-05 7:7.6961999 51:7.6961999 261:7.6961999 284:15.3924 288:7.6961999 300:7.6961999 440:7.6961999 511:7.6961999 600:7.6961999 789:7.6961999 899:7.6961999 915:7.6961999 1027:7.6961999 1032:7.6961999 1140:7.6961999 1183:7.6961999 1347:7.6961999 1356:7.6961999 1413:15.3924 1516:7.6961999 1533:23.0886 1548:7.6961999 1560:7.6961999 1566:7.6961999 1624:15.3924 1681:15.3924 1776:7.6961999 1824:7.6961999 1834:7.6961999 1982:7.6961999 1995:7.6961999 2037:7.6961999 2081:7.6961999 2091:23.0886 2125:7.6961999 2194:15.3924 2214:7.6961999 2339:7.6961999 2426:7.6961999 2500:7.6961999 2611:23.0886 2622:23.0886 2755:7.6961999 2875:7.6961999 2881:7.6961999 2979:7.6961999 3032:7.6961999 3068:7.6961999 3221:7.6961999 3251:7.6961999 3287:15.3924 3316:15.3924 3329:15.3924 3347:7.6961999 3385:7.6961999 3438:7.6961999 3458:15.3924 3468:30.784901 3556:7.6961999 3576:23.0886 3591:7.6961999 3605:7.6961999 3644:7.6961999 3649:7.6961999 3665:7.6961999 3668:7.6961999 3796:7.6961999 3835:7.6961999 3893:15.3924 4084:7.6961999 4102:7.6961999 4161:7.6961999 4170:7.6961999 4199:23.0886 4215:15.3924 4228:7.6961999 # seizures/00000514_s24.txt
-5.4487203971015731908400514527102e-05 51:7.6961999 208:7.6961999 259:7.6961999 375:7.6961999 505:15.3924 510:7.6961999 535:15.3924 549:30.784901 578:38.481098 582:7.6961999 631:7.6961999 651:7.6961999 680:23.0886 699:7.6961999 701:7.6961999 747:7.6961999 787:7.6961999 789:7.6961999 810:23.0886 811:23.0886 839:7.6961999 971:15.3924 1076:7.6961999 1124:7.6961999 1175:7.6961999 1183:7.6961999 1212:7.6961999 1285:7.6961999 1347:7.6961999 1356:15.3924 1374:7.6961999 1387:7.6961999 1388:7.6961999 1392:7.6961999 1411:7.6961999 1413:23.0886 1453:7.6961999 1492:7.6961999 1499:38.481098 1533:53.873501 1548:7.6961999 1560:15.3924 1618:7.6961999 1620:7.6961999 1624:7.6961999 1630:7.6961999 1663:23.0886 1709:7.6961999 1818:15.3924 1861:15.3924 1878:7.6961999 1933:7.6961999 2028:7.6961999 2081:15.3924 2125:7.6961999 2159:7.6961999 2214:7.6961999 2322:7.6961999 2335:7.6961999 2339:23.0886 2398:7.6961999 2406:7.6961999 2447:7.6961999 2500:7.6961999 2552:7.6961999 2557:7.6961999 2571:7.6961999 2584:15.3924 2611:7.6961999 2622:7.6961999 2633:7.6961999 2755:7.6961999 2756:7.6961999 2766:7.6961999 2774:7.6961999 2790:15.3924 2810:7.6961999 2856:15.3924 2875:7.6961999 2949:46.177299 2979:23.0886 2999:7.6961999 3032:7.6961999 3074:7.6961999 3142:7.6961999 3153:15.3924 3263:7.6961999 3266:7.6961999 3276:7.6961999 3287:38.481098 3307:15.3924 3316:7.6961999 3327:15.3924 3366:7.6961999 3371:7.6961999 3378:7.6961999 3385:7.6961999 3462:30.784901 3468:38.481098 3513:15.3924 3558:7.6961999 3576:23.0886 3591:23.0886 3605:7.6961999 3644:7.6961999 3667:23.0886 3668:7.6961999 3672:7.6961999 3720:7.6961999 3747:7.6961999 3796:7.6961999 3835:7.6961999 3842:7.6961999 3853:23.0886 3927:7.6961999 4088:23.0886 4102:23.0886 4170:23.0886 4199:15.3924 4203:7.6961999 4215:30.784901 4228:15.3924 # none/00000178_s02.txt
5.4914402258332586757730645055098e-06 15:15.3924 51:7.6961999 145:7.6961999 200:7.6961999 218:7.6961999 236:15.3924 270:7.6961999 278:7.6961999 325:7.6961999 505:23.0886 535:15.3924 549:15.3924 631:7.6961999 651:7.6961999 670:7.6961999 680:46.177299 692:7.6961999 693:7.6961999 700:7.6961999 738:7.6961999 754:7.6961999 789:7.6961999 819:7.6961999 839:15.3924 1008:7.6961999 1076:7.6961999 1130:7.6961999 1175:7.6961999 1183:23.0886 1186:7.6961999 1212:7.6961999 1283:7.6961999 1320:7.6961999 1333:7.6961999 1346:7.6961999 1347:7.6961999 1356:15.3924 1374:7.6961999 1387:7.6961999 1388:15.3924 1413:23.0886 1432:7.6961999 1436:7.6961999 1453:7.6961999 1492:15.3924 1498:15.3924 1499:15.3924 1506:15.3924 1533:53.873501 1548:7.6961999 1560:15.3924 1618:7.6961999 1630:7.6961999 1668:7.6961999 1672:7.6961999 1733:7.6961999 1738:7.6961999 1777:7.6961999 1790:7.6961999 1821:15.3924 1861:15.3924 1868:7.6961999 1878:7.6961999 1904:23.0886 1977:7.6961999 2037:15.3924 2081:7.6961999 2125:7.6961999 2193:7.6961999 2195:7.6961999 2214:7.6961999 2227:7.6961999 2230:7.6961999 2280:7.6961999 2331:7.6961999 2406:7.6961999 2426:7.6961999 2447:7.6961999 2481:15.3924 2500:7.6961999 2552:7.6961999 2584:7.6961999 2591:7.6961999 2632:7.6961999 2633:15.3924 2647:23.0886 2649:38.481098 2766:15.3924 2774:7.6961999 2790:7.6961999 2809:7.6961999 2812:7.6961999 2856:7.6961999 2868:23.0886 2880:7.6961999 2881:7.6961999 2949:15.3924 2979:23.0886 3032:7.6961999 3074:7.6961999 3134:7.6961999 3153:15.3924 3168:7.6961999 3267:7.6961999 3287:38.481098 3327:7.6961999 3378:7.6961999 3380:15.3924 3385:7.6961999 3386:15.3924 3462:30.784901 3468:53.873501 3513:7.6961999 3516:7.6961999 3536:15.3924 3556:7.6961999 3576:7.6961999 3591:15.3924 3596:7.6961999 3605:7.6961999 3618:7.6961999 3621:7.6961999 3644:38.481098 3668:7.6961999 3672:7.6961999 3716:7.6961999 3720:15.3924 3747:15.3924 3790:7.6961999 3831:7.6961999 3835:7.6961999 3853:7.6961999 3893:15.3924 3912:7.6961999 3913:7.6961999 3927:7.6961999 3955:7.6961999 3960:7.6961999 4025:7.6961999 4043:23.0886 4078:7.6961999 4102:15.3924 4170:7.6961999 4215:15.3924 4228:23.0886 4253:7.6961999 # seizures/00000573_s04.txt
-5.8475394451453540766577843257323e-05 51:7.6961999 208:7.6961999 404:7.6961999 505:15.3924 535:15.3924 543:7.6961999 545:7.6961999 549:7.6961999 631:23.0886 651:7.6961999 680:7.6961999 692:7.6961999 699:7.6961999 711:7.6961999 732:7.6961999 736:7.6961999 738:7.6961999 789:7.6961999 837:7.6961999 839:7.6961999 1008:15.3924 1018:15.3924 1072:7.6961999 1076:7.6961999 1115:7.6961999 1183:23.0886 1212:30.784901 1216:7.6961999 1265:15.3924 1271:7.6961999 1301:7.6961999 1333:7.6961999 1347:7.6961999 1387:7.6961999 1388:15.3924 1392:7.6961999 1413:7.6961999 1453:7.6961999 1492:15.3924 1499:7.6961999 1506:15.3924 1533:46.177299 1537:7.6961999 1548:7.6961999 1560:30.784901 1586:7.6961999 1658:7.6961999 1668:7.6961999 1709:7.6961999 1722:15.3924 1740:7.6961999 1812:7.6961999 1818:23.0886 1861:15.3924 1862:7.6961999 1878:7.6961999 1904:15.3924 1995:46.177299 2015:7.6961999 2018:7.6961999 2081:23.0886 2121:7.6961999 2125:7.6961999 2166:7.6961999 2194:7.6961999 2214:7.6961999 2227:7.6961999 2230:7.6961999 2262:7.6961999 2280:7.6961999 2318:7.6961999 2339:23.0886 2420:7.6961999 2500:15.3924 2552:7.6961999 2660:7.6961999 2662:7.6961999 2755:7.6961999 2760:7.6961999 2766:15.3924 2774:7.6961999 2818:7.6961999 2856:15.3924 2880:46.177299 2936:7.6961999 2949:15.3924 2979:23.0886 3032:7.6961999 3074:7.6961999 3153:15.3924 3263:7.6961999 3266:7.6961999 3276:7.6961999 3287:46.177299 3306:7.6961999 3307:23.0886 3344:7.6961999 3349:7.6961999 3378:7.6961999 3385:7.6961999 3395:38.481098 3421:7.6961999 3462:30.784901 3468:7.6961999 3513:15.3924 3539:7.6961999 3558:7.6961999 3576:7.6961999 3585:7.6961999 3591:30.784901 3628:7.6961999 3668:7.6961999 3720:7.6961999 3764:7.6961999 3796:7.6961999 3835:7.6961999 3853:7.6961999 3913:15.3924 3927:7.6961999 4025:23.0886 4073:7.6961999 4078:7.6961999 4102:7.6961999 4170:7.6961999 4215:38.481098 # none/00001124_s01.txt
-5.8475394451453540766577843257323e-05 25:15.3924 51:7.6961999 121:7.6961999 133:7.6961999 234:15.3924 261:7.6961999 505:7.6961999 535:30.784901 549:7.6961999 582:7.6961999 631:30.784901 651:15.3924 680:7.6961999 692:7.6961999 789:7.6961999 810:7.6961999 862:23.0886 903:7.6961999 915:7.6961999 921:7.6961999 971:15.3924 989:7.6961999 1018:7.6961999 1076:15.3924 1132:7.6961999 1175:7.6961999 1183:23.0886 1200:7.6961999 1212:15.3924 1216:7.6961999 1301:15.3924 1347:7.6961999 1353:7.6961999 1357:15.3924 1388:30.784901 1392:7.6961999 1397:7.6961999 1413:76.962097 1418:23.0886 1453:7.6961999 1492:7.6961999 1506:7.6961999 1533:23.0886 1537:7.6961999 1548:15.3924 1560:30.784901 1566:15.3924 1621:7.6961999 1624:38.481098 1648:15.3924 1677:7.6961999 1683:7.6961999 1739:15.3924 1777:15.3924 1852:7.6961999 1861:15.3924 1904:30.784901 1940:7.6961999 1995:46.177299 2081:15.3924 2087:7.6961999 2104:7.6961999 2125:7.6961999 2126:7.6961999 2131:7.6961999 2137:23.0886 2144:15.3924 2214:7.6961999 2280:7.6961999 2339:30.784901 2348:7.6961999 2406:7.6961999 2428:7.6961999 2500:23.0886 2591:7.6961999 2592:7.6961999 2602:23.0886 2611:7.6961999 2621:23.0886 2754:7.6961999 2760:7.6961999 2766:15.3924 2774:23.0886 2790:7.6961999 2802:15.3924 2810:15.3924 2812:38.481098 2880:46.177299 2881:7.6961999 2937:7.6961999 2979:7.6961999 2982:38.481098 3032:7.6961999 3052:7.6961999 3074:15.3924 3120:7.6961999 3134:7.6961999 3164:7.6961999 3165:7.6961999 3168:7.6961999 3170:38.481098 3276:7.6961999 3287:23.0886 3307:15.3924 3316:7.6961999 3349:7.6961999 3380:15.3924 3385:15.3924 3386:15.3924 3395:15.3924 3400:7.6961999 3468:38.481098 3556:7.6961999 3560:7.6961999 3562:15.3924 3576:15.3924 3591:23.0886 3644:7.6961999 3663:7.6961999 3679:7.6961999 3695:7.6961999 3698:7.6961999 3720:7.6961999 3749:7.6961999 3796:7.6961999 3831:7.6961999 3893:7.6961999 3913:7.6961999 4102:23.0886 4156:7.6961999 4170:15.3924 4228:7.6961999 # none/00003015_s05.txt
-2.5919698947992582730142502311921e-05 51:7.6961999 174:7.6961999 245:7.6961999 350:7.6961999 468:7.6961999 505:7.6961999 535:30.784901 549:7.6961999 631:23.0886 680:7.6961999 732:15.3924 789:7.6961999 813:7.6961999 899:7.6961999 1018:7.6961999 1027:7.6961999 1076:23.0886 1089:7.6961999 1183:7.6961999 1212:7.6961999 1320:30.784901 1346:7.6961999 1347:7.6961999 1388:7.6961999 1427:7.6961999 1492:7.6961999 1533:30.784901 1537:7.6961999 1545:15.3924 1548:7.6961999 1560:7.6961999 1566:7.6961999 1600:7.6961999 1663:7.6961999 1668:7.6961999 1709:7.6961999 1745:7.6961999 1776:7.6961999 1889:7.6961999 1904:7.6961999 1995:7.6961999 2018:15.3924 2037:15.3924 2039:7.6961999 2088:23.0886 2091:15.3924 2125:7.6961999 2126:7.6961999 2144:7.6961999 2145:7.6961999 2164:15.3924 2175:7.6961999 2188:7.6961999 2194:7.6961999 2214:7.6961999 2217:7.6961999 2318:7.6961999 2339:7.6961999 2428:7.6961999 2433:15.3924 2500:7.6961999 2592:7.6961999 2621:23.0886 2629:7.6961999 2633:7.6961999 2845:7.6961999 2856:15.3924 2941:7.6961999 2949:30.784901 2979:7.6961999 3032:7.6961999 3064:23.0886 3082:7.6961999 3287:76.962097 3395:23.0886 3462:23.0886 3468:15.3924 3531:7.6961999 3536:7.6961999 3591:7.6961999 3595:23.0886 3618:7.6961999 3668:7.6961999 3675:7.6961999 3695:7.6961999 3738:7.6961999 3749:7.6961999 3762:7.6961999 3796:7.6961999 3893:15.3924 3913:15.3924 3927:7.6961999 3967:7.6961999 4078:7.6961999 4102:7.6961999 4123:7.6961999 4129:7.6961999 4170:7.6961999 4190:15.3924 4228:7.6961999 # none/00004253_s01.txt
2.2857324374642426419732346709601e-05 7:61.569698 10:7.6961999 15:7.6961999 43:23.0886 51:30.784901 53:7.6961999 79:69.2659 80:23.0886 100:15.3924 121:7.6961999 167:7.6961999 179:7.6961999 208:15.3924 233:46.177299 239:15.3924 245:38.481098 255:7.6961999 300:7.6961999 307:7.6961999 337:7.6961999 346:7.6961999 351:7.6961999 352:7.6961999 354:15.3924 393:7.6961999 396:7.6961999 440:7.6961999 452:7.6961999 535:115.4432 541:7.6961999 549:23.0886 569:7.6961999 570:7.6961999 589:7.6961999 610:15.3924 680:7.6961999 700:7.6961999 738:7.6961999 789:38.481098 813:30.784901 819:7.6961999 839:15.3924 843:7.6961999 844:7.6961999 868:15.3924 882:7.6961999 893:7.6961999 899:30.784901 901:7.6961999 908:7.6961999 917:7.6961999 932:7.6961999 939:92.354599 965:7.6961999 1008:7.6961999 1013:7.6961999 1020:7.6961999 1026:7.6961999 1027:30.784901 1034:15.3924 1072:23.0886 1074:7.6961999 1076:46.177299 1133:7.6961999 1139:7.6961999 1146:7.6961999 1183:53.873501 1186:15.3924 1212:7.6961999 1218:7.6961999 1283:7.6961999 1301:15.3924 1310:7.6961999 1311:7.6961999 1320:15.3924 1326:23.0886 1347:30.784901 1356:7.6961999 1375:7.6961999 1392:30.784901 1418:30.784901 1423:7.6961999 1460:7.6961999 1463:30.784901 1498:7.6961999 1533:76.962097 1548:30.784901 1560:46.177299 1566:7.6961999 1580:15.3924 1600:15.3924 1618:7.6961999 1624:76.962097 1662:15.3924 1663:7.6961999 1671:7.6961999 1707:7.6961999 1739:15.3924 1821:7.6961999 1861:15.3924 1868:46.177299 1878:7.6961999 1881:7.6961999 1907:7.6961999 1941:7.6961999 1982:7.6961999 1995:7.6961999 2037:7.6961999 2039:30.784901 2091:7.6961999 2125:7.6961999 2131:15.3924 2137:30.784901 2158:7.6961999 2160:7.6961999 2164:23.0886 2194:23.0886 2214:30.784901 2217:15.3924 2318:15.3924 2322:7.6961999 2339:46.177299 2348:15.3924 2377:7.6961999 2386:7.6961999 2403:30.784901 2428:7.6961999 2436:7.6961999 2448:7.6961999 2484:15.3924 2500:30.784901 2546:15.3924 2562:23.0886 2584:15.3924 2592:7.6961999 2611:53.873501 2621:30.784901 2622:7.6961999 2629:7.6961999 2633:15.3924 2634:7.6961999 2652:15.3924 2722:7.6961999 2755:7.6961999 2774:61.569698 2778:15.3924 2818:15.3924 2875:7.6961999 2941:23.0886 2949:84.658302 2954:76.962097 2979:30.784901 2981:7.6961999 2994:7.6961999 2999:23.0886 3032:30.784901 3048:15.3924 3055:7.6961999 3124:15.3924 3131:7.6961999 3142:7.6961999 3156:23.0886 3170:46.177299 3187:7.6961999 3235:7.6961999 3251:7.6961999 3263:7.6961999 3280:15.3924 3287:107.747 3292:7.6961999 3302:7.6961999 3307:30.784901 3329:7.6961999 3353:7.6961999 3365:15.3924 3395:7.6961999 3435:7.6961999 3452:7.6961999 3453:15.3924 3458:84.658302 3461:15.3924 3462:7.6961999 3466:7.6961999 3468:76.962097 3509:7.6961999 3513:30.784901 3516:15.3924 3543:7.6961999 3591:7.6961999 3599:7.6961999 3644:30.784901 3668:30.784901 3672:7.6961999 3695:7.6961999 3724:7.6961999 3762:7.6961999 3764:15.3924 3796:30.784901 3811:7.6961999 3868:23.0886 3869:7.6961999 3893:7.6961999 3936:7.6961999 3967:7.6961999 4032:15.3924 4048:7.6961999 4088:23.0886 4093:7.6961999 4097:15.3924 4102:30.784901 4106:7.6961999 4145:7.6961999 4157:7.6961999 4170:30.784901 4202:7.6961999 4215:30.784901 4220:15.3924 4263:7.6961999 # seizures/00001336_s01.txt
1.1386364208627826455203814470796e-05 30:15.3924 43:7.6961999 51:7.6961999 78:15.3924 155:38.481098 174:7.6961999 228:15.3924 261:23.0886 265:7.6961999 350:7.6961999 351:7.6961999 352:7.6961999 354:7.6961999 356:15.3924 358:7.6961999 383:7.6961999 391:7.6961999 473:7.6961999 501:7.6961999 510:7.6961999 535:100.0508 571:7.6961999 600:7.6961999 610:23.0886 631:15.3924 651:7.6961999 680:7.6961999 687:15.3924 705:7.6961999 711:7.6961999 732:23.0886 738:7.6961999 752:7.6961999 755:15.3924 782:7.6961999 789:30.784901 810:7.6961999 813:15.3924 819:23.0886 868:7.6961999 899:7.6961999 965:7.6961999 1027:7.6961999 1072:30.784901 1076:46.177299 1089:7.6961999 1132:7.6961999 1140:7.6961999 1183:15.3924 1212:15.3924 1320:7.6961999 1326:46.177299 1347:15.3924 1386:7.6961999 1397:7.6961999 1402:7.6961999 1413:7.6961999 1434:7.6961999 1498:15.3924 1499:7.6961999 1516:7.6961999 1533:15.3924 1548:7.6961999 1560:23.0886 1600:7.6961999 1624:30.784901 1633:7.6961999 1671:15.3924 1726:23.0886 1740:7.6961999 1770:7.6961999 1783:23.0886 1821:7.6961999 1824:7.6961999 1861:30.784901 1868:53.873501 1904:7.6961999 1907:7.6961999 1941:15.3924 1947:7.6961999 1948:7.6961999 1970:7.6961999 1977:15.3924 1995:53.873501 2015:7.6961999 2037:15.3924 2039:7.6961999 2081:15.3924 2088:15.3924 2125:7.6961999 2126:7.6961999 2164:23.0886 2209:23.0886 2214:7.6961999 2220:30.784901 2262:15.3924 2288:7.6961999 2318:7.6961999 2339:61.569698 2386:15.3924 2406:7.6961999 2407:7.6961999 2484:15.3924 2500:7.6961999 2584:23.0886 2611:23.0886 2621:46.177299 2622:23.0886 2633:23.0886 2634:7.6961999 2642:23.0886 2652:7.6961999 2774:7.6961999 2790:7.6961999 2801:7.6961999 2812:7.6961999 2845:7.6961999 2852:15.3924 2856:7.6961999 2880:7.6961999 2881:7.6961999 2949:38.481098 2954:23.0886 2979:7.6961999 2987:7.6961999 2995:7.6961999 3032:7.6961999 3048:7.6961999 3064:7.6961999 3067:7.6961999 3074:7.6961999 3078:7.6961999 3134:7.6961999 3135:7.6961999 3170:7.6961999 3235:7.6961999 3285:7.6961999 3287:38.481098 3307:23.0886 3329:7.6961999 3344:7.6961999 3379:7.6961999 3380:15.3924 3395:123.1394 3436:15.3924 3453:7.6961999 3458:15.3924 3460:7.6961999 3461:23.0886 3462:23.0886 3468:53.873501 3494:15.3924 3513:53.873501 3539:7.6961999 3543:7.6961999 3591:38.481098 3595:15.3924 3616:7.6961999 3644:38.481098 3658:15.3924 3668:7.6961999 3720:7.6961999 3738:23.0886 3796:7.6961999 3815:7.6961999 3831:23.0886 3833:15.3924 3839:7.6961999 3846:7.6961999 3853:7.6961999 3860:7.6961999 3868:15.3924 3893:7.6961999 3927:46.177299 3967:7.6961999 3978:15.3924 4026:15.3924 4102:7.6961999 4129:15.3924 4170:38.481098 4202:7.6961999 4215:61.569698 4220:7.6961999 4228:7.6961999 4271:23.0886 # seizures/00007798_s01.txt
-1.0372249285803872740035873334374e-05 13:92.354599 44:15.3924 51:15.3924 133:7.6961999 145:15.3924 155:30.784901 166:7.6961999 167:30.784901 174:7.6961999 208:15.3924 229:7.6961999 230:30.784901 231:53.873501 391:7.6961999 404:7.6961999 421:15.3924 485:7.6961999 505:7.6961999 535:130.8356 545:7.6961999 549:61.569698 600:7.6961999 631:38.481098 701:15.3924 732:46.177299 748:7.6961999 779:15.3924 789:38.481098 813:30.784901 819:7.6961999 868:7.6961999 899:23.0886 915:7.6961999 939:15.3924 971:15.3924 1008:69.2659 1027:30.784901 1072:15.3924 1076:30.784901 1089:7.6961999 1148:7.6961999 1183:61.569698 1212:7.6961999 1247:7.6961999 1265:23.0886 1310:23.0886 1311:7.6961999 1326:30.784901 1333:30.784901 1337:7.6961999 1339:7.6961999 1347:30.784901 1356:15.3924 1357:15.3924 1385:7.6961999 1392:7.6961999 1413:7.6961999 1418:7.6961999 1423:23.0886 1453:7.6961999 1488:7.6961999 1492:7.6961999 1499:38.481098 1508:7.6961999 1516:7.6961999 1533:69.2659 1548:38.481098 1560:23.0886 1571:15.3924 1588:7.6961999 1618:15.3924 1624:30.784901 1633:7.6961999 1662:7.6961999 1663:7.6961999 1688:7.6961999 1739:23.0886 1745:7.6961999 1783:15.3924 1818:7.6961999 1834:15.3924 1843:7.6961999 1862:23.0886 1868:7.6961999 1878:7.6961999 1903:7.6961999 1904:23.0886 1933:7.6961999 1939:15.3924 1948:7.6961999 1967:23.0886 1985:7.6961999 2015:30.784901 2018:7.6961999 2037:7.6961999 2039:23.0886 2081:7.6961999 2091:46.177299 2104:7.6961999 2125:7.6961999 2126:7.6961999 2131:7.6961999 2140:7.6961999 2145:7.6961999 2164:7.6961999 2214:23.0886 2240:7.6961999 2318:7.6961999 2339:23.0886 2380:7.6961999 2386:7.6961999 2398:15.3924 2428:7.6961999 2449:7.6961999 2495:7.6961999 2500:7.6961999 2611:7.6961999 2621:30.784901 2622:15.3924 2676:7.6961999 2755:7.6961999 2771:7.6961999 2802:30.784901 2809:7.6961999 2810:7.6961999 2818:7.6961999 2865:15.3924 2918:7.6961999 2935:23.0886 2949:46.177299 2954:7.6961999 2979:30.784901 3020:7.6961999 3032:23.0886 3074:7.6961999 3135:15.3924 3136:15.3924 3164:7.6961999 3170:7.6961999 3235:7.6961999 3243:7.6961999 3246:7.6961999 3250:7.6961999 3287:100.0508 3301:7.6961999 3307:61.569698 3316:7.6961999 3347:23.0886 3385:15.3924 3395:38.481098 3401:7.6961999 3436:7.6961999 3450:7.6961999 3453:7.6961999 3458:69.2659 3461:7.6961999 3462:38.481098 3468:61.569698 3513:23.0886 3514:7.6961999 3556:7.6961999 3576:84.658302 3585:7.6961999 3591:23.0886 3594:7.6961999 3600:15.3924 3605:15.3924 3644:123.1394 3665:23.0886 3668:30.784901 3702:7.6961999 3738:38.481098 3739:7.6961999 3749:7.6961999 3758:7.6961999 3762:7.6961999 3796:30.784901 3814:7.6961999 3831:7.6961999 3868:7.6961999 3893:15.3924 3912:23.0886 3927:7.6961999 3954:7.6961999 3991:7.6961999 3992:7.6961999 4032:7.6961999 4088:7.6961999 4092:7.6961999 4102:30.784901 4156:23.0886 4161:30.784901 4170:38.481098 4190:7.6961999 4199:69.2659 4215:92.354599 4228:30.784901 4229:7.6961999 4263:7.6961999 # none/00004586_s02.txt
-5.8475394451453540766577843257323e-05 38:7.6961999 51:7.6961999 79:7.6961999 100:23.0886 109:15.3924 166:7.6961999 300:7.6961999 304:7.6961999 314:7.6961999 318:7.6961999 324:7.6961999 351:7.6961999 375:7.6961999 386:7.6961999 427:7.6961999 505:7.6961999 509:7.6961999 545:7.6961999 549:38.481098 571:15.3924 680:15.3924 789:15.3924 810:7.6961999 813:15.3924 818:7.6961999 839:23.0886 868:15.3924 899:7.6961999 915:15.3924 1027:7.6961999 1076:23.0886 1096:7.6961999 1134:7.6961999 1175:15.3924 1183:23.0886 1212:7.6961999 1320:7.6961999 1331:7.6961999 1333:7.6961999 1347:7.6961999 1353:7.6961999 1374:7.6961999 1413:7.6961999 1492:7.6961999 1498:15.3924 1533:30.784901 1548:15.3924 1560:38.481098 1566:7.6961999 1621:7.6961999 1624:15.3924 1662:7.6961999 1693:7.6961999 1701:7.6961999 1766:7.6961999 1818:7.6961999 1824:7.6961999 1889:7.6961999 1982:15.3924 2037:15.3924 2091:30.784901 2125:7.6961999 2126:7.6961999 2137:15.3924 2140:15.3924 2178:15.3924 2194:15.3924 2214:7.6961999 2217:15.3924 2249:7.6961999 2250:7.6961999 2309:7.6961999 2318:7.6961999 2331:7.6961999 2339:46.177299 2348:7.6961999 2386:7.6961999 2407:7.6961999 2470:7.6961999 2500:7.6961999 2584:7.6961999 2611:15.3924 2621:23.0886 2622:15.3924 2774:92.354599 2788:15.3924 2818:38.481098 2875:30.784901 2885:7.6961999 2949:38.481098 2954:7.6961999 2979:7.6961999 2982:7.6961999 2999:7.6961999 3017:7.6961999 3032:7.6961999 3048:7.6961999 3055:7.6961999 3149:7.6961999 3156:7.6961999 3168:7.6961999 3170:7.6961999 3251:15.3924 3259:7.6961999 3266:7.6961999 3287:15.3924 3294:7.6961999 3307:23.0886 3329:7.6961999 3365:7.6961999 3366:7.6961999 3386:7.6961999 3395:53.873501 3453:15.3924 3459:7.6961999 3468:153.9243 3487:7.6961999 3503:7.6961999 3525:7.6961999 3591:7.6961999 3595:7.6961999 3668:7.6961999 3679:7.6961999 3696:7.6961999 3734:7.6961999 3796:7.6961999 3807:7.6961999 3831:15.3924 3853:53.873501 3861:7.6961999 3866:7.6961999 3893:7.6961999 3927:7.6961999 3989:7.6961999 4032:7.6961999 4048:7.6961999 4065:7.6961999 4072:7.6961999 4084:7.6961999 4096:7.6961999 4102:15.3924 4157:23.0886 4170:15.3924 # none/00001789_s05.txt
5.8475394451453540766577843257323e-05 51:7.6961999 52:7.6961999 468:7.6961999 600:7.6961999 779:7.6961999 789:15.3924 813:7.6961999 839:15.3924 899:7.6961999 1027:7.6961999 1076:7.6961999 1134:7.6961999 1346:7.6961999 1347:7.6961999 1392:7.6961999 1397:7.6961999 1488:23.0886 1533:30.784901 1537:7.6961999 1548:7.6961999 1560:7.6961999 1624:7.6961999 1709:7.6961999 1745:15.3924 1818:7.6961999 1907:15.3924 2039:7.6961999 2087:7.6961999 2111:7.6961999 2125:7.6961999 2131:15.3924 2214:7.6961999 2280:7.6961999 2376:7.6961999 2415:7.6961999 2500:15.3924 2634:7.6961999 2766:7.6961999 2774:7.6961999 2802:7.6961999 2949:7.6961999 2979:7.6961999 3032:7.6961999 3068:7.6961999 3287:23.0886 3385:7.6961999 3414:7.6961999 3468:7.6961999 3591:7.6961999 3668:7.6961999 3796:7.6961999 4102:7.6961999 4170:7.6961999 4199:15.3924 4262:7.6961999 # seizures/00003371_s01.txt
5.8475394451453540766577843257323e-05 51:7.6961999 53:7.6961999 200:7.6961999 208:7.6961999 505:15.3924 535:15.3924 549:7.6961999 610:7.6961999 631:7.6961999 651:7.6961999 680:15.3924 692:7.6961999 699:7.6961999 738:7.6961999 813:7.6961999 839:7.6961999 1018:15.3924 1026:7.6961999 1072:15.3924 1076:15.3924 1135:7.6961999 1175:7.6961999 1183:15.3924 1212:15.3924 1347:7.6961999 1374:7.6961999 1387:7.6961999 1388:15.3924 1392:7.6961999 1413:15.3924 1453:7.6961999 1492:7.6961999 1499:7.6961999 1506:15.3924 1533:38.481098 1548:7.6961999 1560:15.3924 1618:7.6961999 1624:7.6961999 1658:7.6961999 1668:15.3924 1672:7.6961999 1709:7.6961999 1818:15.3924 1878:7.6961999 1904:15.3924 2000:7.6961999 2081:15.3924 2125:7.6961999 2214:7.6961999 2280:7.6961999 2318:7.6961999 2322:7.6961999 2347:7.6961999 2350:7.6961999 2398:7.6961999 2447:7.6961999 2500:7.6961999 2520:7.6961999 2552:7.6961999 2634:7.6961999 2750:7.6961999 2755:7.6961999 2766:7.6961999 2856:7.6961999 2949:7.6961999 2979:30.784901 2982:7.6961999 3032:7.6961999 3042:15.3924 3067:7.6961999 3074:30.784901 3153:15.3924 3218:23.0886 3276:7.6961999 3287:15.3924 3306:7.6961999 3307:15.3924 3316:7.6961999 3385:7.6961999 3386:7.6961999 3395:15.3924 3462:30.784901 3468:23.0886 3576:7.6961999 3591:23.0886 3668:7.6961999 3679:7.6961999 3720:7.6961999 3796:7.6961999 3833:7.6961999 3835:7.6961999 3853:7.6961999 3871:7.6961999 3927:7.6961999 4016:7.6961999 4078:7.6961999 4102:7.6961999 4157:7.6961999 4170:15.3924 4176:7.6961999 4215:15.3924 # seizures/00000743_s05.txt
5.8475394451453540766577843257323e-05 51:7.6961999 213:7.6961999 505:15.3924 509:7.6961999 528:7.6961999 535:15.3924 549:7.6961999 651:15.3924 680:15.3924 692:7.6961999 704:7.6961999 711:7.6961999 726:7.6961999 738:7.6961999 752:23.0886 789:15.3924 839:7.6961999 939:30.784901 978:7.6961999 1008:7.6961999 1076:7.6961999 1119:7.6961999 1139:7.6961999 1175:15.3924 1212:7.6961999 1216:7.6961999 1346:7.6961999 1347:7.6961999 1387:7.6961999 1388:38.481098 1392:7.6961999 1413:7.6961999 1453:7.6961999 1492:15.3924 1499:23.0886 1506:7.6961999 1513:7.6961999 1533:30.784901 1537:7.6961999 1548:7.6961999 1560:15.3924 1668:7.6961999 1760:7.6961999 1868:15.3924 1904:7.6961999 2077:15.3924 2081:7.6961999 2125:7.6961999 2166:15.3924 2194:7.6961999 2195:7.6961999 2214:7.6961999 2230:7.6961999 2262:7.6961999 2289:7.6961999 2318:15.3924 2331:7.6961999 2447:7.6961999 2470:7.6961999 2500:15.3924 2652:7.6961999 2661:38.481098 2699:7.6961999 2766:15.3924 2780:7.6961999 2845:7.6961999 2856:7.6961999 2936:7.6961999 2949:15.3924 2979:23.0886 3032:7.6961999 3054:7.6961999 3055:7.6961999 3067:7.6961999 3068:7.6961999 3074:7.6961999 3103:15.3924 3153:15.3924 3161:7.6961999 3276:7.6961999 3287:30.784901 3290:7.6961999 3310:7.6961999 3378:7.6961999 3385:7.6961999 3453:7.6961999 3460:7.6961999 3462:15.3924 3468:7.6961999 3543:7.6961999 3556:7.6961999 3576:7.6961999 3644:7.6961999 3668:7.6961999 3679:7.6961999 3720:7.6961999 3749:7.6961999 3764:15.3924 3787:7.6961999 3796:7.6961999 3835:7.6961999 3853:7.6961999 3927:7.6961999 4011:7.6961999 4078:7.6961999 4088:7.6961999 4102:7.6961999 4117:7.6961999 4141:7.6961999 4170:15.3924 4215:15.3924 4228:7.6961999 # seizures/00001618_s01.txt
5.8475394451453540766577843257323e-05 51:7.6961999 461:7.6961999 505:15.3924 535:15.3924 553:7.6961999 687:7.6961999 705:15.3924 722:7.6961999 726:7.6961999 732:7.6961999 789:23.0886 899:7.6961999 1018:7.6961999 1027:7.6961999 1076:7.6961999 1186:7.6961999 1212:7.6961999 1219:7.6961999 1241:7.6961999 1320:15.3924 1347:7.6961999 1388:7.6961999 1392:7.6961999 1397:7.6961999 1443:7.6961999 1453:7.6961999 1484:7.6961999 1488:7.6961999 1492:7.6961999 1533:38.481098 1548:7.6961999 1560:7.6961999 1740:7.6961999 1745:7.6961999 1861:7.6961999 1881:7.6961999 1889:15.3924 1923:7.6961999 1960:7.6961999 1977:7.6961999 2039:7.6961999 2081:15.3924 2091:7.6961999 2118:7.6961999 2125:7.6961999 2131:7.6961999 2137:7.6961999 2175:7.6961999 2194:7.6961999 2209:7.6961999 2214:7.6961999 2293:7.6961999 2339:30.784901 2428:7.6961999 2500:7.6961999 2571:7.6961999 2729:7.6961999 2768:7.6961999 2810:15.3924 2845:7.6961999 2875:7.6961999 2949:23.0886 2979:15.3924 3010:15.3924 3032:7.6961999 3067:7.6961999 3074:7.6961999 3189:7.6961999 3240:7.6961999 3250:7.6961999 3287:15.3924 3307:15.3924 3385:7.6961999 3426:7.6961999 3440:7.6961999 3468:7.6961999 3513:23.0886 3516:7.6961999 3591:30.784901 3619:7.6961999 3649:7.6961999 3668:7.6961999 3695:15.3924 3716:7.6961999 3758:7.6961999 3762:7.6961999 3796:7.6961999 3818:7.6961999 3839:7.6961999 3853:15.3924 3893:7.6961999 3913:7.6961999 3927:7.6961999 4102:7.6961999 4161:7.6961999 4170:7.6961999 4190:7.6961999 4199:7.6961999 4215:30.784901 4271:7.6961999 # seizures/00000207_s02.txt
-3.8070925757066620149365876457637e-06 51:7.6961999 404:7.6961999 505:7.6961999 535:23.0886 549:7.6961999 571:7.6961999 600:15.3924 651:7.6961999 680:7.6961999 705:15.3924 722:7.6961999 732:7.6961999 774:15.3924 789:15.3924 813:7.6961999 837:7.6961999 899:7.6961999 1013:7.6961999 1027:7.6961999 1072:15.3924 1076:7.6961999 1166:7.6961999 1186:7.6961999 1191:7.6961999 1212:7.6961999 1320:15.3924 1326:15.3924 1346:7.6961999 1347:7.6961999 1392:7.6961999 1434:7.6961999 1464:7.6961999 1478:7.6961999 1492:7.6961999 1533:15.3924 1548:7.6961999 1560:7.6961999 1581:7.6961999 1626:7.6961999 1740:7.6961999 1770:15.3924 1777:7.6961999 1793:7.6961999 1822:7.6961999 1861:15.3924 1881:15.3924 1907:7.6961999 1993:7.6961999 1995:30.784901 2039:7.6961999 2081:7.6961999 2104:15.3924 2125:7.6961999 2145:7.6961999 2209:7.6961999 2214:7.6961999 2230:7.6961999 2339:61.569698 2367:7.6961999 2380:7.6961999 2484:15.3924 2500:7.6961999 2621:7.6961999 2624:7.6961999 2650:7.6961999 2682:7.6961999 2799:7.6961999 2845:7.6961999 2865:7.6961999 2873:7.6961999 2949:15.3924 2979:7.6961999 2982:23.0886 2995:7.6961999 3032:7.6961999 3074:7.6961999 3082:7.6961999 3155:7.6961999 3276:7.6961999 3287:15.3924 3296:15.3924 3307:30.784901 3316:7.6961999 3329:7.6961999 3379:7.6961999 3380:7.6961999 3385:7.6961999 3395:7.6961999 3435:15.3924 3468:7.6961999 3483:7.6961999 3513:23.0886 3516:7.6961999 3576:7.6961999 3591:15.3924 3617:7.6961999 3619:7.6961999 3658:15.3924 3668:7.6961999 3749:7.6961999 3796:7.6961999 3838:7.6961999 3853:7.6961999 3893:7.6961999 3927:7.6961999 3969:7.6961999 4032:15.3924 4085:15.3924 4102:23.0886 4123:7.6961999 4170:7.6961999 4215:30.784901 4228:7.6961999 4296:7.6961999 # none/00009217_s01.txt
-5.6311195318846630445287076982552e-05 51:7.6961999 109:7.6961999 505:7.6961999 521:7.6961999 535:38.481098 597:7.6961999 610:7.6961999 726:7.6961999 779:15.3924 789:7.6961999 813:7.6961999 899:7.6961999 939:7.6961999 968:7.6961999 1026:7.6961999 1028:7.6961999 1076:7.6961999 1212:7.6961999 1249:7.6961999 1326:15.3924 1331:7.6961999 1345:7.6961999 1394:7.6961999 1404:7.6961999 1434:15.3924 1492:7.6961999 1499:7.6961999 1533:38.481098 1560:7.6961999 1618:7.6961999 1624:7.6961999 1739:7.6961999 1740:15.3924 1819:7.6961999 1834:15.3924 1861:15.3924 1870:7.6961999 1872:7.6961999 1874:7.6961999 1879:7.6961999 1977:7.6961999 1995:30.784901 2039:7.6961999 2046:7.6961999 2084:7.6961999 2125:7.6961999 2131:7.6961999 2175:7.6961999 2214:7.6961999 2294:7.6961999 2339:23.0886 2399:7.6961999 2484:15.3924 2495:7.6961999 2501:7.6961999 2634:7.6961999 2690:7.6961999 2768:7.6961999 2774:7.6961999 2802:7.6961999 2853:7.6961999 2854:7.6961999 2911:7.6961999 2918:7.6961999 2936:7.6961999 2941:7.6961999 2949:7.6961999 2954:15.3924 2979:7.6961999 2982:15.3924 3032:7.6961999 3037:7.6961999 3055:7.6961999 3058:7.6961999 3198:7.6961999 3235:15.3924 3287:7.6961999 3307:7.6961999 3329:7.6961999 3338:7.6961999 3395:15.3924 3462:7.6961999 3468:7.6961999 3481:7.6961999 3501:7.6961999 3513:15.3924 3518:7.6961999 3543:7.6961999 3553:7.6961999 3591:15.3924 3615:7.6961999 3619:7.6961999 3620:7.6961999 3662:7.6961999 3668:7.6961999 3716:7.6961999 3762:7.6961999 3796:7.6961999 3885:30.784901 4102:7.6961999 4129:7.6961999 4215:15.3924 4238:7.6961999 # none/00000273_s08.txt
-5.8475394451453540766577843257323e-05 13:7.6961999 51:7.6961999 485:7.6961999 505:7.6961999 535:7.6961999 625:7.6961999 680:7.6961999 705:7.6961999 774:7.6961999 789:15.3924 813:7.6961999 899:7.6961999 1027:7.6961999 1058:7.6961999 1076:7.6961999 1183:15.3924 1212:7.6961999 1274:7.6961999 1320:15.3924 1326:7.6961999 1347:7.6961999 1384:7.6961999 1392:7.6961999 1397:7.6961999 1406:7.6961999 1413:7.6961999 1492:7.6961999 1533:38.481098 1548:7.6961999 1560:7.6961999 1624:7.6961999 1745:7.6961999 1770:23.0886 1818:15.3924 1821:7.6961999 1861:15.3924 1868:7.6961999 1904:7.6961999 1907:38.481098 1995:23.0886 2039:7.6961999 2125:7.6961999 2131:15.3924 2137:7.6961999 2175:7.6961999 2214:7.6961999 2220:7.6961999 2280:7.6961999 2318:7.6961999 2426:7.6961999 2428:7.6961999 2484:23.0886 2500:7.6961999 2591:7.6961999 2621:7.6961999 2676:7.6961999 2771:7.6961999 2949:15.3924 2954:15.3924 2979:7.6961999 2982:7.6961999 3032:7.6961999 3055:7.6961999 3074:7.6961999 3102:7.6961999 3156:7.6961999 3170:7.6961999 3218:7.6961999 3235:7.6961999 3287:23.0886 3296:7.6961999 3365:7.6961999 3395:30.784901 3468:7.6961999 3513:15.3924 3543:7.6961999 3591:23.0886 3600:7.6961999 3619:15.3924 3644:7.6961999 3658:23.0886 3668:7.6961999 3695:7.6961999 3787:7.6961999 3796:7.6961999 3893:23.0886 3968:7.6961999 4085:7.6961999 4102:15.3924 4115:7.6961999 4129:15.3924 4170:7.6961999 4190:7.6961999 4215:23.0886 4226:7.6961999 # none/00000998_s06.txt
-5.8475394451453540766577843257323e-05 43:15.3924 51:7.6961999 79:7.6961999 167:7.6961999 174:7.6961999 300:7.6961999 346:7.6961999 438:7.6961999 501:7.6961999 535:7.6961999 570:15.3924 600:7.6961999 680:7.6961999 700:7.6961999 711:7.6961999 764:7.6961999 779:7.6961999 789:7.6961999 811:7.6961999 813:7.6961999 821:15.3924 887:7.6961999 910:7.6961999 1026:7.6961999 1027:7.6961999 1076:7.6961999 1101:7.6961999 1130:7.6961999 1175:7.6961999 1212:7.6961999 1326:7.6961999 1392:7.6961999 1397:7.6961999 1399:7.6961999 1453:7.6961999 1467:7.6961999 1499:15.3924 1533:46.177299 1548:7.6961999 1560:7.6961999 1663:7.6961999 1720:7.6961999 1751:7.6961999 1891:7.6961999 1904:7.6961999 1919:7.6961999 1933:7.6961999 1967:7.6961999 1983:7.6961999 2039:7.6961999 2081:7.6961999 2125:7.6961999 2164:7.6961999 2264:7.6961999 2322:7.6961999 2339:15.3924 2368:7.6961999 2386:7.6961999 2500:7.6961999 2623:7.6961999 2629:7.6961999 2634:38.481098 2652:7.6961999 2766:15.3924 2845:15.3924 2880:7.6961999 2949:30.784901 2954:7.6961999 2967:7.6961999 2979:7.6961999 3032:7.6961999 3074:7.6961999 3131:7.6961999 3205:7.6961999 3206:7.6961999 3227:7.6961999 3287:7.6961999 3329:15.3924 3331:7.6961999 3365:7.6961999 3385:15.3924 3386:7.6961999 3395:30.784901 3468:7.6961999 3541:7.6961999 3547:7.6961999 3619:7.6961999 3641:15.3924 3668:7.6961999 3720:7.6961999 3796:7.6961999 3833:30.784901 3842:7.6961999 3846:7.6961999 3883:7.6961999 3910:7.6961999 3914:7.6961999 4032:7.6961999 4088:7.6961999 4102:7.6961999 4107:7.6961999 4170:7.6961999 4178:7.6961999 4199:7.6961999 4244:7.6961999 4263:7.6961999 4269:7.6961999 # none/00002494_s01.txt
5.8475394451453540766577843257323e-05 43:23.0886 51:7.6961999 100:7.6961999 174:7.6961999 208:7.6961999 449:7.6961999 505:15.3924 535:7.6961999 541:7.6961999 543:7.6961999 545:7.6961999 549:15.3924 565:7.6961999 570:7.6961999 631:7.6961999 651:15.3924 680:15.3924 692:7.6961999 699:15.3924 700:7.6961999 711:15.3924 738:15.3924 789:7.6961999 810:15.3924 819:7.6961999 839:7.6961999 883:15.3924 1018:7.6961999 1072:7.6961999 1076:7.6961999 1119:7.6961999 1175:7.6961999 1183:30.784901 1190:7.6961999 1212:7.6961999 1320:7.6961999 1346:7.6961999 1347:7.6961999 1374:7.6961999 1387:7.6961999 1388:23.0886 1392:7.6961999 1397:7.6961999 1413:30.784901 1428:7.6961999 1453:7.6961999 1492:15.3924 1499:53.873501 1506:15.3924 1533:46.177299 1548:7.6961999 1560:23.0886 1581:7.6961999 1618:7.6961999 1624:15.3924 1668:15.3924 1672:15.3924 1818:15.3924 1839:7.6961999 1861:15.3924 1862:23.0886 1878:7.6961999 1942:7.6961999 1995:23.0886 2037:30.784901 2081:7.6961999 2125:7.6961999 2126:23.0886 2194:7.6961999 2214:7.6961999 2217:7.6961999 2230:7.6961999 2318:38.481098 2322:30.784901 2339:30.784901 2348:7.6961999 2398:7.6961999 2406:7.6961999 2447:7.6961999 2500:15.3924 2546:7.6961999 2552:7.6961999 2621:23.0886 2633:7.6961999 2649:15.3924 2652:7.6961999 2755:23.0886 2766:23.0886 2774:7.6961999 2818:7.6961999 2856:7.6961999 2880:7.6961999 2920:7.6961999 2936:15.3924 2949:15.3924 2979:15.3924 2982:15.3924 3031:7.6961999 3032:7.6961999 3039:7.6961999 3042:15.3924 3074:7.6961999 3077:15.3924 3103:7.6961999 3153:7.6961999 3174:7.6961999 3276:7.6961999 3287:53.873501 3307:30.784901 3366:7.6961999 3385:7.6961999 3395:15.3924 3462:84.658302 3468:76.962097 3576:7.6961999 3591:7.6961999 3668:7.6961999 3702:15.3924 3720:7.6961999 3796:7.6961999 3835:7.6961999 3853:7.6961999 3893:7.6961999 3927:15.3924 3990:7.6961999 4078:7.6961999 4102:7.6961999 4170:15.3924 4215:7.6961999 4228:15.3924 # seizures/00000177_s01.txt
3.2312080051875083217720677208895e-06 43:7.6961999 51:7.6961999 79:7.6961999 100:7.6961999 234:23.0886 261:7.6961999 304:7.6961999 337:7.6961999 460:7.6961999 505:15.3924 522:7.6961999 535:15.3924 549:23.0886 610:7.6961999 631:30.784901 651:38.481098 680:7.6961999 687:15.3924 692:7.6961999 711:15.3924 726:7.6961999 752:15.3924 779:7.6961999 789:7.6961999 862:7.6961999 971:30.784901 1018:7.6961999 1026:7.6961999 1032:15.3924 1072:30.784901 1076:30.784901 1132:7.6961999 1175:15.3924 1200:7.6961999 1212:15.3924 1218:7.6961999 1320:30.784901 1326:7.6961999 1347:7.6961999 1388:15.3924 1397:7.6961999 1413:7.6961999 1428:7.6961999 1453:7.6961999 1492:7.6961999 1499:7.6961999 1506:7.6961999 1533:30.784901 1566:30.784901 1586:15.3924 1626:7.6961999 1630:38.481098 1648:15.3924 1658:7.6961999 1662:7.6961999 1663:7.6961999 1671:7.6961999 1720:7.6961999 1740:7.6961999 1777:15.3924 1818:23.0886 1821:7.6961999 1834:7.6961999 1849:7.6961999 1861:23.0886 1868:7.6961999 1940:7.6961999 1995:46.177299 2015:7.6961999 2068:7.6961999 2081:23.0886 2125:7.6961999 2144:7.6961999 2214:7.6961999 2273:7.6961999 2280:7.6961999 2318:7.6961999 2331:15.3924 2339:23.0886 2428:23.0886 2500:15.3924 2554:38.481098 2571:7.6961999 2584:15.3924 2602:7.6961999 2621:30.784901 2632:30.784901 2709:7.6961999 2760:7.6961999 2774:15.3924 2790:7.6961999 2802:7.6961999 2809:7.6961999 2810:7.6961999 2821:23.0886 2880:76.962097 2949:30.784901 2955:7.6961999 2979:15.3924 2987:15.3924 3010:7.6961999 3052:15.3924 3074:15.3924 3103:15.3924 3120:7.6961999 3134:7.6961999 3146:7.6961999 3171:30.784901 3249:7.6961999 3287:30.784901 3307:38.481098 3349:15.3924 3380:15.3924 3385:7.6961999 3386:46.177299 3395:76.962097 3453:7.6961999 3468:38.481098 3478:7.6961999 3509:23.0886 3513:15.3924 3531:7.6961999 3536:7.6961999 3543:7.6961999 3556:15.3924 3576:15.3924 3591:30.784901 3650:7.6961999 3663:15.3924 3668:7.6961999 3695:15.3924 3716:7.6961999 3796:7.6961999 3831:7.6961999 3853:38.481098 3893:7.6961999 3913:15.3924 4025:30.784901 4030:7.6961999 4048:7.6961999 4055:7.6961999 4080:7.6961999 4156:7.6961999 4170:23.0886 4177:7.6961999 4190:15.3924 4215:23.0886 4228:7.6961999 4263:7.6961999 # seizures/00005315_s02.txt
-3.4679291616136042198780681244941e-05 10:7.6961999 16:30.784901 17:7.6961999 18:15.3924 19:38.481098 30:15.3924 43:30.784901 51:7.6961999 133:7.6961999 145:7.6961999 155:46.177299 208:15.3924 229:15.3924 259:7.6961999 265:23.0886 270:15.3924 278:15.3924 300:7.6961999 323:7.6961999 324:15.3924 326:15.3924 337:7.6961999 342:38.481098 349:7.6961999 352:7.6961999 354:7.6961999 379:7.6961999 394:15.3924 404:7.6961999 505:7.6961999 535:61.569698 561:7.6961999 571:7.6961999 610:7.6961999 631:15.3924 647:15.3924 651:7.6961999 680:46.177299 704:23.0886 711:23.0886 726:15.3924 755:7.6961999 768:23.0886 781:7.6961999 787:15.3924 789:69.2659 811:7.6961999 815:7.6961999 821:15.3924 893:15.3924 899:15.3924 932:7.6961999 965:7.6961999 973:7.6961999 1026:7.6961999 1027:15.3924 1072:7.6961999 1073:7.6961999 1076:23.0886 1124:23.0886 1133:7.6961999 1134:7.6961999 1140:30.784901 1152:7.6961999 1183:30.784901 1212:23.0886 1238:7.6961999 1281:7.6961999 1285:7.6961999 1301:15.3924 1305:7.6961999 1311:7.6961999 1320:38.481098 1326:76.962097 1347:15.3924 1356:7.6961999 1357:7.6961999 1375:7.6961999 1397:7.6961999 1421:7.6961999 1484:7.6961999 1488:15.3924 1492:7.6961999 1499:23.0886 1533:69.2659 1543:7.6961999 1548:38.481098 1560:30.784901 1581:7.6961999 1588:7.6961999 1600:7.6961999 1607:7.6961999 1618:7.6961999 1624:23.0886 1662:7.6961999 1666:7.6961999 1671:7.6961999 1707:7.6961999 1724:7.6961999 1732:23.0886 1745:7.6961999 1775:7.6961999 1783:7.6961999 1818:38.481098 1824:7.6961999 1844:7.6961999 1861:7.6961999 1878:7.6961999 1897:7.6961999 1933:7.6961999 1965:7.6961999 1967:7.6961999 1980:7.6961999 1995:7.6961999 2008:7.6961999 2015:15.3924 2037:7.6961999 2039:15.3924 2064:7.6961999 2081:7.6961999 2087:15.3924 2091:15.3924 2097:7.6961999 2125:15.3924 2126:7.6961999 2131:61.569698 2134:7.6961999 2145:15.3924 2182:7.6961999 2194:15.3924 2214:15.3924 2262:7.6961999 2270:15.3924 2273:7.6961999 2320:7.6961999 2322:7.6961999 2339:84.658302 2367:7.6961999 2376:7.6961999 2403:7.6961999 2406:15.3924 2420:7.6961999 2433:7.6961999 2444:7.6961999 2455:7.6961999 2459:7.6961999 2484:7.6961999 2500:7.6961999 2515:15.3924 2601:7.6961999 2611:38.481098 2621:15.3924 2627:15.3924 2633:15.3924 2634:7.6961999 2638:7.6961999 2642:30.784901 2675:7.6961999 2734:7.6961999 2776:7.6961999 2790:30.784901 2802:69.2659 2809:15.3924 2810:7.6961999 2818:23.0886 2838:7.6961999 2845:23.0886 2855:7.6961999 2865:15.3924 2880:7.6961999 2881:7.6961999 2936:7.6961999 2937:23.0886 2949:130.8356 2954:23.0886 2979:15.3924 3007:15.3924 3031:7.6961999 3032:15.3924 3064:46.177299 3067:7.6961999 3078:15.3924 3131:7.6961999 3135:7.6961999 3164:7.6961999 3170:15.3924 3206:7.6961999 3227:7.6961999 3243:15.3924 3285:15.3924 3287:107.747 3307:46.177299 3316:7.6961999 3344:30.784901 3349:7.6961999 3366:7.6961999 3376:7.6961999 3380:23.0886 3386:46.177299 3395:15.3924 3415:30.784901 3435:7.6961999 3458:23.0886 3461:30.784901 3462:23.0886 3468:130.8356 3488:15.3924 3513:69.2659 3536:7.6961999 3563:15.3924 3576:76.962097 3585:7.6961999 3591:92.354599 3597:7.6961999 3613:7.6961999 3618:7.6961999 3627:7.6961999 3635:15.3924 3639:7.6961999 3642:7.6961999 3644:30.784901 3649:7.6961999 3658:7.6961999 3665:15.3924 3668:15.3924 3672:15.3924 3702:7.6961999 3796:15.3924 3807:7.6961999 3815:15.3924 3831:7.6961999 3833:15.3924 3845:7.6961999 3850:7.6961999 3853:84.658302 3868:7.6961999 3871:7.6961999 3893:30.784901 3927:61.569698 3933:15.3924 3971:7.6961999 3978:15.3924 3986:23.0886 4026:7.6961999 4072:7.6961999 4084:7.6961999 4088:7.6961999 4102:23.0886 4161:7.6961999 4170:30.784901 4188:15.3924 4199:46.177299 4215:92.354599 4228:30.784901 4233:23.0886 4242:7.6961999 4263:15.3924 4279:7.6961999 # none/00000303_s02.txt
-5.8475394451453540766577843257323e-05 13:7.6961999 100:7.6961999 145:7.6961999 179:7.6961999 245:7.6961999 255:7.6961999 259:23.0886 265:7.6961999 278:7.6961999 300:7.6961999 350:7.6961999 352:7.6961999 384:46.177299 386:38.481098 391:15.3924 394:7.6961999 395:15.3924 519:7.6961999 534:15.3924 535:38.481098 549:7.6961999 553:7.6961999 582:7.6961999 610:7.6961999 678:7.6961999 680:7.6961999 701:7.6961999 711:15.3924 717:7.6961999 718:7.6961999 779:7.6961999 782:15.3924 787:7.6961999 789:7.6961999 811:46.177299 819:7.6961999 821:38.481098 868:7.6961999 893:7.6961999 942:30.784901 965:7.6961999 1026:46.177299 1027:7.6961999 1032:7.6961999 1034:7.6961999 1072:38.481098 1124:15.3924 1140:7.6961999 1172:7.6961999 1183:15.3924 1209:7.6961999 1253:15.3924 1326:7.6961999 1333:7.6961999 1347:7.6961999 1353:7.6961999 1386:7.6961999 1434:7.6961999 1453:7.6961999 1467:7.6961999 1488:7.6961999 1499:15.3924 1517:7.6961999 1533:53.873501 1600:15.3924 1608:7.6961999 1624:7.6961999 1650:7.6961999 1663:23.0886 1667:7.6961999 1698:7.6961999 1709:7.6961999 1720:15.3924 1775:7.6961999 1777:7.6961999 1783:23.0886 1793:7.6961999 1818:7.6961999 1821:7.6961999 1839:7.6961999 1853:7.6961999 1861:7.6961999 1881:7.6961999 1933:7.6961999 1967:15.3924 2087:7.6961999 2164:7.6961999 2179:7.6961999 2214:7.6961999 2314:7.6961999 2332:7.6961999 2339:46.177299 2343:15.3924 2348:7.6961999 2367:15.3924 2398:7.6961999 2410:7.6961999 2444:7.6961999 2450:7.6961999 2475:7.6961999 2478:7.6961999 2481:7.6961999 2500:7.6961999 2503:7.6961999 2584:23.0886 2611:7.6961999 2629:7.6961999 2633:7.6961999 2634:15.3924 2642:7.6961999 2652:7.6961999 2790:23.0886 2802:7.6961999 2835:7.6961999 2845:15.3924 2875:15.3924 2879:7.6961999 2881:7.6961999 2949:46.177299 2979:7.6961999 2995:15.3924 3020:7.6961999 3055:7.6961999 3064:23.0886 3067:15.3924 3074:7.6961999 3078:15.3924 3084:7.6961999 3131:7.6961999 3205:15.3924 3206:53.873501 3210:15.3924 3243:7.6961999 3263:7.6961999 3274:7.6961999 3279:7.6961999 3287:61.569698 3307:15.3924 3324:7.6961999 3327:7.6961999 3365:7.6961999 3379:7.6961999 3385:7.6961999 3386:23.0886 3395:23.0886 3448:7.6961999 3453:7.6961999 3458:7.6961999 3460:15.3924 3461:61.569698 3462:46.177299 3468:84.658302 3472:7.6961999 3536:7.6961999 3556:7.6961999 3576:7.6961999 3591:15.3924 3595:7.6961999 3644:15.3924 3672:15.3924 3693:7.6961999 3718:7.6961999 3805:15.3924 3814:7.6961999 3853:38.481098 3893:30.784901 3901:7.6961999 3913:7.6961999 3927:15.3924 3955:7.6961999 3962:7.6961999 3978:7.6961999 3986:7.6961999 4048:23.0886 4072:7.6961999 4088:23.0886 4102:7.6961999 4170:7.6961999 4199:7.6961999 4201:7.6961999 4202:7.6961999 4215:7.6961999 # none/00000317_s05.txt
-3.8989041825138745847589838433578e-05 51:7.6961999 470:7.6961999 505:7.6961999 535:30.784901 549:7.6961999 600:7.6961999 610:15.3924 631:15.3924 702:7.6961999 789:23.0886 813:7.6961999 839:15.3924 862:15.3924 939:15.3924 1008:7.6961999 1027:7.6961999 1072:7.6961999 1076:7.6961999 1320:15.3924 1326:7.6961999 1347:7.6961999 1392:7.6961999 1397:7.6961999 1413:7.6961999 1434:15.3924 1488:7.6961999 1492:7.6961999 1533:23.0886 1548:7.6961999 1560:7.6961999 1733:7.6961999 1740:23.0886 1745:7.6961999 1770:15.3924 1818:7.6961999 1861:38.481098 1868:7.6961999 1878:23.0886 1907:15.3924 1995:30.784901 2015:15.3924 2039:7.6961999 2087:7.6961999 2091:23.0886 2125:7.6961999 2131:15.3924 2137:7.6961999 2194:15.3924 2214:7.6961999 2339:7.6961999 2348:7.6961999 2413:7.6961999 2484:7.6961999 2495:7.6961999 2500:7.6961999 2591:7.6961999 2592:7.6961999 2621:7.6961999 2623:7.6961999 2774:7.6961999 2810:7.6961999 2941:7.6961999 2949:15.3924 2954:7.6961999 2979:7.6961999 3032:7.6961999 3156:7.6961999 3170:7.6961999 3287:15.3924 3307:38.481098 3365:7.6961999 3386:15.3924 3395:61.569698 3458:7.6961999 3468:15.3924 3513:30.784901 3591:7.6961999 3658:15.3924 3668:7.6961999 3695:7.6961999 3762:7.6961999 3778:7.6961999 3796:7.6961999 3893:7.6961999 3913:7.6961999 3927:7.6961999 3971:7.6961999 4102:7.6961999 4170:7.6961999 4215:30.784901 # none/00007469_s01.txt
-4.0807202296376560602276378775244e-05 51:7.6961999 440:7.6961999 505:7.6961999 509:7.6961999 535:30.784901 541:15.3924 566:7.6961999 600:7.6961999 680:7.6961999 709:7.6961999 711:38.481098 789:15.3924 810:7.6961999 813:7.6961999 868:7.6961999 899:7.6961999 1008:15.3924 1025:7.6961999 1027:7.6961999 1076:7.6961999 1125:7.6961999 1167:7.6961999 1212:7.6961999 1234:7.6961999 1307:15.3924 1326:7.6961999 1333:7.6961999 1346:7.6961999 1347:7.6961999 1392:7.6961999 1413:7.6961999 1434:7.6961999 1492:7.6961999 1505:7.6961999 1519:7.6961999 1533:30.784901 1548:7.6961999 1560:7.6961999 1624:7.6961999 1672:7.6961999 1740:7.6961999 1818:7.6961999 1861:23.0886 1995:15.3924 2039:7.6961999 2081:15.3924 2091:7.6961999 2125:7.6961999 2131:7.6961999 2198:7.6961999 2214:7.6961999 2280:7.6961999 2375:7.6961999 2386:7.6961999 2428:7.6961999 2500:7.6961999 2554:7.6961999 2621:15.3924 2642:7.6961999 2652:23.0886 2675:7.6961999 2774:7.6961999 2810:7.6961999 2949:30.784901 2954:15.3924 2979:7.6961999 3020:7.6961999 3032:7.6961999 3074:15.3924 3131:15.3924 3135:7.6961999 3156:7.6961999 3170:7.6961999 3287:7.6961999 3307:15.3924 3316:7.6961999 3386:7.6961999 3395:38.481098 3428:7.6961999 3435:7.6961999 3462:7.6961999 3468:7.6961999 3513:30.784901 3543:7.6961999 3547:7.6961999 3572:7.6961999 3591:23.0886 3668:7.6961999 3695:7.6961999 3720:7.6961999 3749:7.6961999 3758:7.6961999 3796:7.6961999 3853:30.784901 3861:7.6961999 4025:23.0886 4088:7.6961999 4102:7.6961999 4156:7.6961999 4170:7.6961999 4190:7.6961999 4215:38.481098 # none/00003641_s04.txt
-5.8475394451453540766577843257323e-05 51:7.6961999 124:7.6961999 300:7.6961999 449:7.6961999 505:7.6961999 509:15.3924 535:46.177299 600:7.6961999 625:7.6961999 631:7.6961999 685:7.6961999 687:7.6961999 705:23.0886 711:15.3924 725:7.6961999 779:15.3924 789:15.3924 810:7.6961999 819:7.6961999 893:15.3924 899:7.6961999 939:7.6961999 1027:7.6961999 1060:7.6961999 1076:7.6961999 1122:7.6961999 1174:7.6961999 1192:7.6961999 1203:15.3924 1212:7.6961999 1320:38.481098 1346:15.3924 1347:7.6961999 1392:7.6961999 1434:7.6961999 1488:15.3924 1492:7.6961999 1533:15.3924 1537:7.6961999 1548:7.6961999 1560:7.6961999 1725:7.6961999 1745:7.6961999 1868:15.3924 1904:7.6961999 1919:7.6961999 1995:15.3924 2039:7.6961999 2081:7.6961999 2091:7.6961999 2122:7.6961999 2125:7.6961999 2131:7.6961999 2194:7.6961999 2214:7.6961999 2227:7.6961999 2293:7.6961999 2322:7.6961999 2398:7.6961999 2500:7.6961999 2531:7.6961999 2617:7.6961999 2634:15.3924 2649:7.6961999 2652:7.6961999 2675:7.6961999 2749:7.6961999 2810:7.6961999 2845:7.6961999 2949:30.784901 2954:7.6961999 2979:7.6961999 2982:23.0886 3032:7.6961999 3055:7.6961999 3074:23.0886 3103:7.6961999 3155:15.3924 3218:7.6961999 3287:15.3924 3307:15.3924 3343:7.6961999 3385:7.6961999 3386:15.3924 3462:7.6961999 3468:15.3924 3521:7.6961999 3591:23.0886 3619:15.3924 3668:7.6961999 3796:7.6961999 3927:7.6961999 3963:7.6961999 3967:15.3924 3980:7.6961999 4047:7.6961999 4102:15.3924 4170:7.6961999 4199:7.6961999 4228:15.3924 4263:7.6961999 # none/00000318_s01.txt
-1.7041325780098341084300289649534e-05 51:7.6961999 53:7.6961999 505:7.6961999 509:7.6961999 535:15.3924 680:7.6961999 732:15.3924 779:7.6961999 789:15.3924 813:7.6961999 839:7.6961999 899:7.6961999 905:7.6961999 1008:15.3924 1027:7.6961999 1076:7.6961999 1167:7.6961999 1182:7.6961999 1212:7.6961999 1320:15.3924 1326:7.6961999 1346:7.6961999 1347:7.6961999 1392:7.6961999 1396:7.6961999 1453:7.6961999 1492:7.6961999 1533:23.0886 1548:7.6961999 1560:7.6961999 1624:7.6961999 1760:7.6961999 1777:7.6961999 1868:38.481098 1995:38.481098 1997:7.6961999 2009:7.6961999 2026:7.6961999 2039:7.6961999 2045:7.6961999 2091:7.6961999 2125:7.6961999 2131:15.3924 2188:15.3924 2214:7.6961999 2248:7.6961999 2339:46.177299 2470:7.6961999 2484:7.6961999 2500:7.6961999 2571:7.6961999 2635:7.6961999 2706:7.6961999 2930:15.3924 2941:7.6961999 2949:15.3924 2979:7.6961999 3032:7.6961999 3074:7.6961999 3170:15.3924 3183:7.6961999 3246:7.6961999 3287:15.3924 3307:23.0886 3385:15.3924 3386:7.6961999 3395:15.3924 3468:7.6961999 3513:15.3924 3591:15.3924 3619:7.6961999 3668:7.6961999 3796:7.6961999 4102:7.6961999 4129:7.6961999 4170:7.6961999 4199:7.6961999 4215:15.3924 # none/00001150_s01.txt
2.4611021973122095045588900164013e-05 7:7.6961999 17:7.6961999 25:7.6961999 30:23.0886 43:7.6961999 121:7.6961999 145:46.177299 155:100.0508 167:15.3924 174:38.481098 179:53.873501 208:38.481098 239:69.2659 245:7.6961999 259:23.0886 265:7.6961999 282:15.3924 285:46.177299 312:7.6961999 314:7.6961999 317:7.6961999 337:7.6961999 345:7.6961999 348:7.6961999 350:7.6961999 352:7.6961999 354:7.6961999 375:7.6961999 386:7.6961999 505:7.6961999 535:69.2659 541:15.3924 571:7.6961999 600:23.0886 610:15.3924 625:7.6961999 631:7.6961999 680:38.481098 732:7.6961999 779:30.784901 781:7.6961999 787:7.6961999 789:15.3924 811:7.6961999 862:7.6961999 915:7.6961999 930:15.3924 939:23.0886 942:53.873501 1026:23.0886 1034:7.6961999 1072:53.873501 1076:7.6961999 1133:15.3924 1140:15.3924 1183:23.0886 1186:23.0886 1212:15.3924 1320:23.0886 1326:30.784901 1347:7.6961999 1360:7.6961999 1362:7.6961999 1375:7.6961999 1386:7.6961999 1387:7.6961999 1412:7.6961999 1413:7.6961999 1452:7.6961999 1478:7.6961999 1492:7.6961999 1498:7.6961999 1499:7.6961999 1533:61.569698 1600:15.3924 1618:7.6961999 1624:7.6961999 1650:7.6961999 1662:7.6961999 1663:92.354599 1664:7.6961999 1671:15.3924 1739:23.0886 1768:7.6961999 1844:7.6961999 1861:15.3924 1948:7.6961999 1967:7.6961999 1977:7.6961999 1995:30.784901 2015:7.6961999 2027:7.6961999 2091:15.3924 2097:15.3924 2125:7.6961999 2137:23.0886 2140:15.3924 2164:23.0886 2182:7.6961999 2194:7.6961999 2287:7.6961999 2299:15.3924 2314:7.6961999 2318:7.6961999 2322:7.6961999 2339:107.747 2343:7.6961999 2348:7.6961999 2367:7.6961999 2368:7.6961999 2398:15.3924 2406:7.6961999 2407:7.6961999 2422:7.6961999 2475:7.6961999 2484:15.3924 2495:7.6961999 2571:7.6961999 2592:7.6961999 2611:15.3924 2621:38.481098 2626:23.0886 2628:23.0886 2633:15.3924 2649:7.6961999 2652:7.6961999 2675:7.6961999 2712:15.3924 2766:7.6961999 2774:15.3924 2790:38.481098 2802:7.6961999 2810:7.6961999 2845:7.6961999 2851:7.6961999 2852:15.3924 2855:7.6961999 2875:15.3924 2880:38.481098 2881:23.0886 2935:15.3924 2937:23.0886 2949:130.8356 2954:23.0886 3020:15.3924 3064:15.3924 3068:7.6961999 3200:7.6961999 3206:53.873501 3243:7.6961999 3250:7.6961999 3287:38.481098 3307:53.873501 3316:23.0886 3344:7.6961999 3385:15.3924 3386:30.784901 3395:38.481098 3415:7.6961999 3426:7.6961999 3435:7.6961999 3453:30.784901 3454:7.6961999 3458:15.3924 3461:7.6961999 3462:23.0886 3468:76.962097 3503:7.6961999 3508:7.6961999 3509:7.6961999 3513:15.3924 3516:23.0886 3521:7.6961999 3541:7.6961999 3563:7.6961999 3576:53.873501 3591:15.3924 3599:15.3924 3619:7.6961999 3635:15.3924 3644:15.3924 3649:7.6961999 3665:15.3924 3675:7.6961999 3693:7.6961999 3714:7.6961999 3715:7.6961999 3738:23.0886 3778:7.6961999 3787:7.6961999 3789:7.6961999 3815:30.784901 3846:7.6961999 3853:100.0508 3893:76.962097 3927:84.658302 3986:7.6961999 4032:15.3924 4048:7.6961999 4074:7.6961999 4088:46.177299 4102:7.6961999 4170:7.6961999 4199:7.6961999 4215:30.784901 4220:7.6961999 4285:23.0886 # seizures/00005535_s03.txt
