SVM-light Version V6.02
0 # kernel type
3 # kernel parameter -d 
1 # kernel parameter -g 
1 # kernel parameter -s 
1 # kernel parameter -r 
empty# kernel parameter -u 
4315 # highest feature index 
1760 # number of training documents 
350 # number of support vectors plus 1 
1.3418175 # threshold b, each following line is a SV (starting with alpha*y)
-3.8632142006439653238517029087973e-05 51:4.3291001 53:4.3291001 245:4.3291001 259:4.3291001 404:4.3291001 411:4.3291001 477:4.3291001 505:4.3291001 522:4.3291001 535:5.7722001 549:4.8101001 600:4.3291001 631:5.2911 651:7.6961999 680:4.3291001 687:4.3291001 749:4.3291001 752:4.3291001 755:4.3291001 779:5.2911 807:4.3291001 814:4.3291001 858:5.2911 862:4.3291001 942:4.3291001 971:5.2911 1018:4.3291001 1076:4.8101001 1140:4.3291001 1157:4.3291001 1175:4.3291001 1183:4.8101001 1252:4.3291001 1285:4.3291001 1320:4.3291001 1326:4.3291001 1347:4.3291001 1413:4.8101001 1453:4.3291001 1492:4.3291001 1499:4.8101001 1506:4.3291001 1533:4.3291001 1548:4.8101001 1560:4.8101001 1581:4.3291001 1624:4.8101001 1626:4.3291001 1633:4.3291001 1658:4.3291001 1663:4.3291001 1709:4.3291001 1740:4.3291001 1777:4.3291001 1818:4.8101001 1821:4.3291001 1861:4.8101001 1862:4.3291001 1933:4.3291001 1940:4.3291001 1948:5.2911 1982:4.3291001 2037:4.8101001 2068:4.3291001 2081:4.3291001 2125:4.3291001 2131:4.3291001 2140:4.8101001 2144:4.8101001 2331:4.8101001 2339:5.7722001 2348:4.3291001 2428:4.3291001 2433:4.3291001 2500:4.8101001 2546:4.8101001 2571:4.8101001 2584:4.3291001 2602:4.3291001 2607:4.3291001 2611:4.3291001 2613:5.2911 2621:4.3291001 2802:4.3291001 2810:5.2911 2818:4.3291001 2843:4.3291001 2856:4.3291001 2880:5.7722001 2975:4.3291001 2979:4.8101001 2982:4.3291001 3010:4.3291001 3017:4.3291001 3052:4.3291001 3074:4.8101001 3082:4.3291001 3170:4.3291001 3251:4.3291001 3287:6.2532001 3307:5.7722001 3326:4.3291001 3379:4.3291001 3380:4.3291001 3385:4.3291001 3395:7.6961999 3428:5.2911 3468:4.8101001 3509:4.3291001 3513:4.8101001 3543:4.8101001 3556:4.8101001 3576:5.7722001 3591:6.2532001 3649:4.3291001 3668:4.3291001 3695:4.3291001 3716:4.3291001 3787:4.3291001 3796:4.3291001 3842:4.3291001 3853:6.7342 3893:5.7722001 4023:4.3291001 4041:4.8101001 4161:4.3291001 4170:4.3291001 4215:6.2532001 4232:4.3291001 4310:4.3291001 # none/00003195_s06.txt
-0.00022676576351018939980974664649693 43:4.3978 51:4.3978 200:4.3978 208:4.3978 331:4.3978 341:4.3978 418:4.3978 421:4.3978 477:4.3978 505:5.4973001 509:4.9475999 535:4.9475999 549:4.3978 608:4.3978 631:4.3978 651:5.4973001 680:6.0469999 839:4.3978 862:4.3978 939:4.3978 1018:4.3978 1072:4.9475999 1076:4.9475999 1175:4.3978 1212:4.9475999 1346:4.9475999 1347:4.3978 1374:4.3978 1413:4.9475999 1453:4.3978 1488:4.3978 1492:4.3978 1499:5.4973001 1506:4.3978 1533:5.4973001 1548:4.3978 1560:4.9475999 1618:5.4973001 1658:4.3978 1668:4.3978 1709:4.3978 1739:4.3978 1818:5.4973001 1861:4.9475999 1878:4.3978 1904:6.0469999 1982:4.3978 2068:4.9475999 2081:6.0469999 2125:4.3978 2131:4.9475999 2194:4.3978 2214:4.3978 2309:4.3978 2318:4.3978 2331:4.3978 2339:5.4973001 2500:4.3978 2552:4.3978 2593:4.3978 2621:4.3978 2709:4.3978 2755:4.3978 2810:4.3978 2818:4.9475999 2856:4.3978 2935:5.4973001 2936:4.3978 2949:4.3978 2954:4.3978 2979:4.3978 3010:7.6961999 3032:4.3978 3074:4.3978 3103:4.3978 3131:4.3978 3153:4.9475999 3170:4.3978 3229:4.3978 3251:4.3978 3263:4.3978 3266:4.3978 3276:4.3978 3287:5.4973001 3306:4.3978 3307:4.3978 3349:4.3978 3350:4.3978 3365:5.4973001 3378:4.3978 3385:4.9475999 3395:4.3978 3421:4.3978 3453:4.3978 3455:4.3978 3462:6.0469999 3468:5.4973001 3556:4.3978 3591:4.9475999 3638:4.3978 3644:5.4973001 3668:4.3978 3695:6.0469999 3720:4.3978 3787:4.3978 3796:4.3978 3853:5.4973001 3927:4.3978 4102:4.3978 4199:4.3978 4215:6.0469999 4228:4.3978 # none/00009960_s02.txt
-8.2067203714426470700232796318119e-05 51:4.6177001 297:4.6177001 434:4.6177001 443:4.6177001 505:4.6177001 535:5.3873 559:4.6177001 631:4.6177001 632:4.6177001 659:4.6177001 693:4.6177001 705:4.6177001 720:4.6177001 745:4.6177001 752:4.6177001 789:6.1570001 813:4.6177001 821:4.6177001 858:6.1570001 868:4.6177001 899:4.6177001 970:4.6177001 1026:5.3873 1027:4.6177001 1044:4.6177001 1055:4.6177001 1076:5.3873 1183:5.3873 1186:7.6961999 1212:4.6177001 1277:4.6177001 1278:4.6177001 1316:4.6177001 1320:6.9266 1347:4.6177001 1356:4.6177001 1392:4.6177001 1515:4.6177001 1533:6.9266 1548:4.6177001 1560:5.3873 1596:4.6177001 1661:4.6177001 1663:4.6177001 1765:4.6177001 1868:5.3873 1936:5.3873 2000:4.6177001 2015:4.6177001 2026:4.6177001 2039:4.6177001 2045:4.6177001 2075:4.6177001 2091:5.3873 2131:6.1570001 2137:4.6177001 2164:4.6177001 2170:4.6177001 2194:4.6177001 2246:4.6177001 2339:5.3873 2386:4.6177001 2391:4.6177001 2406:4.6177001 2470:4.6177001 2500:4.6177001 2520:4.6177001 2554:5.3873 2611:4.6177001 2624:4.6177001 2628:4.6177001 2711:4.6177001 2797:4.6177001 2802:5.3873 2809:4.6177001 2837:4.6177001 2851:4.6177001 2880:4.6177001 2949:4.6177001 2979:4.6177001 3220:4.6177001 3221:4.6177001 3287:6.9266 3316:4.6177001 3327:4.6177001 3329:4.6177001 3395:4.6177001 3468:6.1570001 3509:4.6177001 3513:7.6961999 3516:5.3873 3521:4.6177001 3553:4.6177001 3576:5.3873 3590:4.6177001 3591:4.6177001 3595:4.6177001 3605:4.6177001 3631:4.6177001 3644:4.6177001 3662:4.6177001 3668:4.6177001 3675:4.6177001 3679:4.6177001 3749:4.6177001 3796:4.6177001 3853:5.3873 3893:5.3873 3927:4.6177001 4102:4.6177001 4106:4.6177001 4170:4.6177001 4215:6.9266 4228:5.3873 4267:4.6177001 # none/00000844_s03.txt
-0.00013794839772096790945013489171345 51:4.6177001 208:4.6177001 337:4.6177001 404:4.6177001 434:4.6177001 505:5.3873 535:5.3873 543:4.6177001 549:5.3873 631:5.3873 651:6.9266 692:4.6177001 726:4.6177001 738:4.6177001 789:4.6177001 839:4.6177001 905:5.3873 1018:4.6177001 1076:4.6177001 1175:6.9266 1212:4.6177001 1347:4.6177001 1387:4.6177001 1388:4.6177001 1392:4.6177001 1397:4.6177001 1413:5.3873 1453:4.6177001 1492:4.6177001 1506:5.3873 1533:6.1570001 1548:4.6177001 1560:5.3873 1624:4.6177001 1668:5.3873 1672:4.6177001 1740:4.6177001 1780:4.6177001 1818:7.6961999 1861:6.1570001 1878:4.6177001 1904:5.3873 1995:6.1570001 2081:6.1570001 2125:4.6177001 2137:4.6177001 2214:4.6177001 2230:4.6177001 2289:4.6177001 2303:4.6177001 2322:4.6177001 2339:6.1570001 2347:4.6177001 2403:5.3873 2448:4.6177001 2481:5.3873 2500:4.6177001 2552:5.3873 2611:4.6177001 2755:5.3873 2766:6.1570001 2856:4.6177001 2949:4.6177001 2979:6.1570001 2982:4.6177001 3032:4.6177001 3042:6.1570001 3074:4.6177001 3153:5.3873 3276:4.6177001 3287:7.6961999 3307:6.1570001 3378:4.6177001 3385:4.6177001 3386:4.6177001 3395:6.1570001 3462:6.9266 3468:6.1570001 3504:4.6177001 3513:4.6177001 3558:4.6177001 3576:4.6177001 3585:4.6177001 3591:7.6961999 3668:4.6177001 3716:5.3873 3720:4.6177001 3771:4.6177001 3796:4.6177001 3835:4.6177001 3853:6.9266 3868:5.3873 3913:5.3873 3927:4.6177001 4078:4.6177001 4102:4.6177001 4170:4.6177001 4215:6.1570001 # none/00000011_s09.txt
-0.00045384564011221667978110416719062 25:4.8101001 51:4.8101001 200:4.8101001 218:4.8101001 236:4.8101001 237:4.8101001 259:5.7722001 285:4.8101001 300:4.8101001 369:4.8101001 485:4.8101001 505:5.7722001 535:4.8101001 549:4.8101001 631:4.8101001 651:4.8101001 680:5.7722001 789:4.8101001 837:5.7722001 1018:4.8101001 1076:4.8101001 1212:4.8101001 1320:4.8101001 1333:4.8101001 1347:4.8101001 1387:4.8101001 1388:6.7342 1413:5.7722001 1453:4.8101001 1492:4.8101001 1499:4.8101001 1506:4.8101001 1533:7.6961999 1548:4.8101001 1560:5.7722001 1621:4.8101001 1624:4.8101001 1658:4.8101001 1668:4.8101001 1904:5.7722001 1982:4.8101001 1995:4.8101001 2037:5.7722001 2081:5.7722001 2125:4.8101001 2195:4.8101001 2214:4.8101001 2331:4.8101001 2351:4.8101001 2406:4.8101001 2447:4.8101001 2500:4.8101001 2552:5.7722001 2571:6.7342 2602:6.7342 2755:5.7722001 2760:4.8101001 2856:4.8101001 2880:4.8101001 2949:4.8101001 2979:5.7722001 2999:4.8101001 3032:4.8101001 3074:4.8101001 3153:4.8101001 3246:4.8101001 3251:4.8101001 3263:4.8101001 3266:4.8101001 3276:4.8101001 3287:7.6961999 3306:4.8101001 3378:4.8101001 3385:4.8101001 3395:4.8101001 3462:5.7722001 3468:6.7342 3556:4.8101001 3576:4.8101001 3591:7.6961999 3668:4.8101001 3679:4.8101001 3720:4.8101001 3796:4.8101001 3835:4.8101001 3853:4.8101001 3893:5.7722001 4102:4.8101001 4129:4.8101001 4176:4.8101001 # none/00000264_s36.txt
0.00045384564011221667978110416719062 43:4.2329001 53:4.2329001 208:4.2329001 505:4.2329001 535:4.2329001 549:4.2329001 578:4.6177001 685:4.2329001 711:4.2329001 777:4.2329001 789:4.6177001 810:4.2329001 813:4.2329001 899:4.2329001 917:4.2329001 963:4.2329001 1008:4.2329001 1027:4.2329001 1072:4.2329001 1076:4.2329001 1174:4.2329001 1183:4.2329001 1212:4.2329001 1311:4.2329001 1326:4.6177001 1392:4.2329001 1397:4.2329001 1412:4.2329001 1428:4.2329001 1478:4.2329001 1492:4.2329001 1533:7.6961999 1548:4.2329001 1560:4.2329001 1573:4.2329001 1624:4.2329001 1707:4.2329001 1824:4.2329001 1861:4.2329001 1904:4.2329001 2039:4.2329001 2064:4.2329001 2068:4.2329001 2125:4.2329001 2137:4.2329001 2214:4.2329001 2227:4.2329001 2458:4.2329001 2470:4.2329001 2500:4.2329001 2621:4.2329001 2633:4.2329001 2949:5.0025001 2954:4.6177001 2979:4.6177001 2981:4.2329001 3010:4.2329001 3032:4.2329001 3131:4.2329001 3135:4.2329001 3166:4.2329001 3274:4.2329001 3287:5.0025001 3395:4.2329001 3468:4.2329001 3513:4.6177001 3547:4.2329001 3551:4.2329001 3576:4.2329001 3591:4.6177001 3668:4.2329001 3672:4.2329001 3720:4.2329001 3749:4.2329001 3796:4.2329001 3893:5.0025001 3913:4.2329001 4048:4.2329001 4095:4.2329001 4102:4.2329001 4161:4.2329001 4170:4.2329001 4215:5.0025001 4287:4.2329001 # seizures/00000005_s06.txt
0.00045384564011221667978110416719062 51:4.4895 145:4.4895 199:4.4895 200:4.4895 214:4.4895 291:4.4895 346:4.4895 468:4.4895 505:5.1307998 535:5.1307998 549:5.7722001 582:4.4895 610:4.4895 631:5.1307998 651:4.4895 680:5.1307998 789:4.4895 810:4.4895 839:4.4895 893:4.4895 1018:5.1307998 1026:4.4895 1072:4.4895 1076:5.1307998 1145:4.4895 1175:4.4895 1183:5.1307998 1212:5.1307998 1320:4.4895 1347:4.4895 1356:5.1307998 1387:4.4895 1388:5.1307998 1397:4.4895 1413:5.7722001 1453:4.4895 1492:5.1307998 1506:5.1307998 1533:6.4134998 1537:4.4895 1548:4.4895 1560:5.1307998 1566:5.1307998 1624:5.1307998 1658:4.4895 1668:4.4895 1672:4.4895 1740:4.4895 1818:4.4895 1821:4.4895 1861:5.7722001 1878:4.4895 1904:5.1307998 1962:4.4895 1982:4.4895 2081:5.7722001 2125:4.4895 2194:4.4895 2214:4.4895 2230:4.4895 2280:4.4895 2289:4.4895 2318:4.4895 2322:5.1307998 2331:4.4895 2339:5.1307998 2347:4.4895 2348:4.4895 2350:4.4895 2406:4.4895 2447:4.4895 2500:5.1307998 2584:4.4895 2656:4.4895 2755:4.4895 2760:4.4895 2766:4.4895 2774:5.7722001 2790:4.4895 2818:5.1307998 2845:5.1307998 2856:4.4895 2865:4.4895 2881:4.4895 2930:5.1307998 2936:4.4895 2949:5.7722001 2979:5.7722001 2982:6.4134998 3032:4.4895 3042:5.7722001 3074:5.7722001 3153:5.1307998 3246:4.4895 3251:4.4895 3276:4.4895 3287:6.4134998 3306:4.4895 3307:5.1307998 3316:4.4895 3378:4.4895 3380:4.4895 3385:4.4895 3386:5.1307998 3428:4.4895 3462:4.4895 3468:7.6961999 3513:5.1307998 3531:4.4895 3556:4.4895 3585:4.4895 3591:5.7722001 3605:4.4895 3644:4.4895 3665:4.4895 3668:4.4895 3702:4.4895 3720:4.4895 3747:4.4895 3796:4.4895 3835:4.4895 3853:5.7722001 3927:4.4895 4088:4.4895 4102:5.1307998 4176:4.4895 4215:6.4134998 4228:5.7722001 # seizures/00000032_s05.txt
0.00045384564011221667978110416719062 51:4.2757001 208:4.7031999 300:4.2757001 375:4.2757001 489:4.2757001 505:4.2757001 535:4.7031999 549:4.2757001 631:5.1307998 638:4.2757001 651:4.2757001 680:5.1307998 692:4.2757001 711:4.7031999 713:4.2757001 731:4.2757001 752:4.2757001 774:4.2757001 789:4.2757001 813:4.2757001 839:4.7031999 1026:4.2757001 1036:4.2757001 1072:4.2757001 1076:4.2757001 1144:4.2757001 1147:4.2757001 1183:4.7031999 1206:4.2757001 1301:4.2757001 1320:4.7031999 1325:4.2757001 1347:4.2757001 1362:4.2757001 1387:4.2757001 1388:4.2757001 1392:4.2757001 1413:4.2757001 1453:4.2757001 1492:4.2757001 1498:4.2757001 1499:4.2757001 1533:4.7031999 1548:4.2757001 1560:5.1307998 1581:4.2757001 1600:4.2757001 1672:5.5584002 1861:5.9858999 1868:4.2757001 1881:4.2757001 1904:4.7031999 1995:7.6961999 2026:4.7031999 2066:4.2757001 2087:4.2757001 2195:4.2757001 2214:4.2757001 2280:4.2757001 2318:4.2757001 2339:5.1307998 2382:4.2757001 2428:4.2757001 2447:4.2757001 2449:4.2757001 2481:4.2757001 2500:4.7031999 2533:4.2757001 2552:4.7031999 2554:4.2757001 2571:4.2757001 2584:4.7031999 2621:4.2757001 2652:4.7031999 2755:4.2757001 2766:4.2757001 2804:4.2757001 2837:4.2757001 2852:4.2757001 2856:4.2757001 2875:4.2757001 2880:4.7031999 2949:4.7031999 2979:5.1307998 3020:4.2757001 3032:4.2757001 3068:4.2757001 3074:4.7031999 3153:4.7031999 3276:4.2757001 3287:5.1307998 3307:4.7031999 3385:4.2757001 3395:6.4134998 3427:4.2757001 3462:6.4134998 3468:6.4134998 3576:4.2757001 3591:5.5584002 3695:4.2757001 3702:4.2757001 3720:4.2757001 3747:4.2757001 3796:4.7031999 3835:4.2757001 3853:4.7031999 3893:4.2757001 4026:4.2757001 4088:4.2757001 4102:4.2757001 4170:4.2757001 4215:4.2757001 4229:4.2757001 4245:4.2757001 4287:4.2757001 # seizures/00000043_s01.txt
0.00045384564011221667978110416719062 51:4.2757001 208:4.7031999 300:4.2757001 375:4.2757001 505:4.2757001 535:4.2757001 549:4.2757001 631:5.1307998 651:4.2757001 680:5.1307998 692:4.2757001 711:4.7031999 713:4.2757001 731:4.2757001 774:4.2757001 789:4.2757001 813:4.2757001 839:4.7031999 1026:4.2757001 1072:4.2757001 1144:4.2757001 1181:4.2757001 1183:4.7031999 1301:4.2757001 1320:4.7031999 1347:4.2757001 1362:4.2757001 1387:4.2757001 1388:4.2757001 1392:4.2757001 1413:4.7031999 1453:4.2757001 1492:4.2757001 1498:4.2757001 1499:4.2757001 1533:4.7031999 1548:4.2757001 1560:5.1307998 1581:4.2757001 1600:4.2757001 1672:5.5584002 1861:5.9858999 1868:4.2757001 1881:4.2757001 1904:4.2757001 1995:7.6961999 2087:4.2757001 2195:4.2757001 2214:4.2757001 2280:4.2757001 2318:4.2757001 2339:5.1307998 2382:4.2757001 2428:4.2757001 2447:4.2757001 2449:4.2757001 2481:4.2757001 2500:4.2757001 2533:4.2757001 2552:4.7031999 2554:4.2757001 2571:4.2757001 2584:4.7031999 2621:4.2757001 2652:4.7031999 2755:4.2757001 2766:4.2757001 2804:4.2757001 2852:4.2757001 2856:4.2757001 2875:4.2757001 2880:4.7031999 2949:4.7031999 2979:4.7031999 3020:4.2757001 3032:4.2757001 3068:4.2757001 3074:4.7031999 3153:4.7031999 3276:4.2757001 3287:5.5584002 3307:4.7031999 3385:4.2757001 3395:6.4134998 3427:4.2757001 3462:6.4134998 3468:5.5584002 3576:4.2757001 3591:5.5584002 3668:4.2757001 3695:4.2757001 3702:4.2757001 3720:4.2757001 3747:4.2757001 3796:4.7031999 3835:4.2757001 3853:4.7031999 3893:4.2757001 4026:4.2757001 4088:4.2757001 4102:4.2757001 4170:4.2757001 4215:4.2757001 4229:4.2757001 4245:4.2757001 # seizures/00000043_s02.txt
0.00045384564011221667978110416719062 51:4.3978 369:4.3978 505:4.9475999 535:6.0469999 625:4.3978 680:4.3978 700:4.3978 726:4.3978 738:4.3978 789:4.9475999 798:4.3978 813:4.3978 821:4.3978 839:4.3978 939:4.9475999 1027:4.3978 1076:4.9475999 1212:4.9475999 1320:4.3978 1346:4.3978 1347:4.3978 1375:4.3978 1384:4.3978 1392:4.3978 1397:4.3978 1413:4.9475999 1492:4.3978 1498:4.3978 1533:7.6961999 1548:4.3978 1560:4.3978 1566:4.9475999 1621:4.3978 1739:5.4973001 1746:4.3978 1797:4.3978 1834:4.3978 1861:4.3978 1862:4.9475999 1868:4.9475999 1904:4.9475999 2039:4.3978 2125:4.3978 2131:4.3978 2145:4.3978 2164:4.3978 2182:4.3978 2189:4.3978 2214:4.3978 2285:4.3978 2339:4.3978 2403:4.3978 2428:4.3978 2470:4.9475999 2479:4.3978 2500:4.3978 2591:4.3978 2611:4.3978 2709:4.3978 2804:4.3978 2879:4.3978 2935:5.4973001 2949:5.4973001 2954:4.9475999 2979:4.3978 2994:4.3978 3031:4.3978 3032:4.3978 3080:4.3978 3094:4.3978 3103:4.3978 3131:4.9475999 3287:4.9475999 3349:4.3978 3373:4.3978 3395:4.3978 3453:4.9475999 3468:6.0469999 3591:4.3978 3600:4.3978 3644:4.3978 3668:4.3978 3679:4.3978 3692:4.3978 3696:4.3978 3796:4.3978 3868:4.3978 3903:4.3978 3950:4.3978 3954:4.3978 4032:4.9475999 4084:4.3978 4102:4.3978 4170:4.9475999 4176:4.3978 4190:4.3978 4215:4.3978 # seizures/00000048_s08.txt
-0.00045384564011221667978110416719062 7:3.9960999 13:3.9960999 17:3.9960999 18:3.9960999 19:3.9960999 30:3.9960999 43:3.9960999 51:3.9960999 79:3.9960999 100:4.1441002 121:3.9960999 133:3.9960999 145:3.9960999 208:4.2921 234:3.9960999 261:3.9960999 300:4.1441002 312:3.9960999 317:3.9960999 354:3.9960999 505:4.5881 509:3.9960999 510:3.9960999 535:4.4401002 549:4.1441002 570:4.1441002 571:4.5881 577:3.9960999 580:3.9960999 582:3.9960999 598:4.1441002 610:3.9960999 625:3.9960999 651:4.1441002 680:6.2161999 693:3.9960999 699:3.9960999 700:4.8841 702:3.9960999 711:4.2921 718:4.2921 726:3.9960999 752:4.4401002 787:4.1441002 810:4.4401002 811:3.9960999 819:3.9960999 839:4.1441002 858:3.9960999 862:3.9960999 887:4.2921 893:5.1801 939:4.1441002 971:3.9960999 1008:3.9960999 1068:3.9960999 1072:4.4401002 1076:4.1441002 1085:4.2921 1089:3.9960999 1140:4.1441002 1183:4.5881 1186:3.9960999 1212:4.2921 1285:4.8841 1301:4.2921 1304:3.9960999 1310:3.9960999 1347:5.0321002 1356:4.1441002 1375:4.1441002 1388:4.5881 1392:3.9960999 1413:4.5881 1453:4.1441002 1467:3.9960999 1492:3.9960999 1498:3.9960999 1499:5.4762001 1512:4.4401002 1533:5.1801 1548:3.9960999 1560:4.1441002 1566:4.1441002 1600:4.8841 1608:3.9960999 1618:3.9960999 1620:4.1441002 1624:3.9960999 1663:4.8841 1672:4.2921 1707:3.9960999 1709:4.8841 1738:4.1441002 1740:3.9960999 1751:3.9960999 1770:3.9960999 1783:4.1441002 1791:3.9960999 1818:4.1441002 1824:4.4401002 1839:4.2921 1861:5.0321002 1862:3.9960999 1868:5.3281002 1878:3.9960999 1904:4.7361002 1933:3.9960999 1955:3.9960999 1967:4.5881 1995:4.5881 2008:3.9960999 2081:4.1441002 2087:4.1441002 2097:4.2921 2099:4.1441002 2125:4.1441002 2137:4.1441002 2194:3.9960999 2214:3.9960999 2227:3.9960999 2262:4.7361002 2268:3.9960999 2280:3.9960999 2310:3.9960999 2315:3.9960999 2318:4.5881 2322:4.2921 2328:4.4401002 2339:5.3281002 2343:3.9960999 2368:4.1441002 2396:4.4401002 2398:3.9960999 2406:4.1441002 2433:4.1441002 2447:4.2921 2481:4.4401002 2485:3.9960999 2500:3.9960999 2584:4.2921 2597:4.2921 2611:4.1441002 2621:5.3281002 2622:4.4401002 2627:3.9960999 2633:4.5881 2634:4.1441002 2642:3.9960999 2647:4.2921 2652:4.2921 2755:4.1441002 2756:3.9960999 2766:4.2921 2774:3.9960999 2790:3.9960999 2801:4.2921 2818:4.7361002 2845:4.2921 2852:4.5881 2856:4.7361002 2880:4.2921 2937:3.9960999 2949:5.4762001 2979:4.5881 3032:3.9960999 3054:4.2921 3067:3.9960999 3074:4.2921 3077:3.9960999 3080:3.9960999 3103:4.4401002 3107:3.9960999 3120:3.9960999 3131:3.9960999 3153:4.1441002 3170:3.9960999 3195:3.9960999 3229:4.1441002 3250:3.9960999 3263:3.9960999 3266:3.9960999 3276:3.9960999 3287:5.4762001 3307:4.7361002 3316:3.9960999 3326:3.9960999 3327:4.1441002 3343:3.9960999 3380:3.9960999 3385:4.1441002 3395:5.9201999 3396:3.9960999 3414:3.9960999 3453:5.1801 3462:5.4762001 3468:7.6961999 3506:4.2921 3509:3.9960999 3511:4.1441002 3513:4.7361002 3516:3.9960999 3521:3.9960999 3536:5.0321002 3547:3.9960999 3576:4.7361002 3585:5.0321002 3591:4.4401002 3594:3.9960999 3596:3.9960999 3599:3.9960999 3605:4.1441002 3618:4.1441002 3619:3.9960999 3638:3.9960999 3644:4.1441002 3655:3.9960999 3658:4.5881 3665:4.7361002 3668:3.9960999 3672:4.5881 3675:4.1441002 3691:3.9960999 3693:3.9960999 3702:4.2921 3708:3.9960999 3709:4.2921 3720:3.9960999 3743:3.9960999 3747:4.4401002 3796:3.9960999 3853:5.0321002 3871:4.1441002 3912:3.9960999 3927:4.7361002 3950:4.2921 3951:4.1441002 3960:3.9960999 3962:3.9960999 4026:3.9960999 4043:3.9960999 4048:3.9960999 4072:3.9960999 4078:4.1441002 4084:4.1441002 4088:4.2921 4102:4.1441002 4105:3.9960999 4170:4.4401002 4181:3.9960999 4215:4.7361002 4228:4.5881 4229:3.9960999 4310:3.9960999 # none/00001422_s10.txt
-0.00045384564011221667978110416719062 13:4.1978998 100:4.1978998 145:4.1978998 179:4.1978998 245:4.1978998 255:4.1978998 259:4.8976002 265:4.1978998 278:4.1978998 300:4.1978998 350:4.1978998 352:4.1978998 384:5.9471002 386:5.5971999 391:4.5478001 394:4.1978998 395:4.5478001 519:4.1978998 534:4.5478001 535:5.5971999 549:4.1978998 553:4.1978998 582:4.1978998 610:4.1978998 678:4.1978998 680:4.1978998 701:4.1978998 711:4.5478001 717:4.1978998 718:4.1978998 779:4.1978998 782:4.5478001 787:4.1978998 789:4.1978998 811:5.9471002 819:4.1978998 821:5.5971999 868:4.1978998 893:4.1978998 942:5.2473998 965:4.1978998 1026:5.9471002 1027:4.1978998 1032:4.1978998 1034:4.1978998 1072:5.5971999 1124:4.5478001 1140:4.1978998 1172:4.1978998 1183:4.5478001 1209:4.1978998 1253:4.5478001 1326:4.1978998 1333:4.1978998 1347:4.1978998 1353:4.1978998 1386:4.1978998 1434:4.1978998 1453:4.1978998 1467:4.1978998 1488:4.1978998 1499:4.5478001 1517:4.1978998 1533:6.2968998 1600:4.5478001 1608:4.1978998 1624:4.1978998 1650:4.1978998 1663:4.8976002 1667:4.1978998 1698:4.1978998 1709:4.1978998 1720:4.5478001 1775:4.1978998 1777:4.1978998 1783:4.8976002 1793:4.1978998 1818:4.1978998 1821:4.1978998 1839:4.1978998 1853:4.1978998 1861:4.1978998 1881:4.1978998 1933:4.1978998 1967:4.5478001 2087:4.1978998 2164:4.1978998 2179:4.1978998 2214:4.1978998 2314:4.1978998 2332:4.1978998 2339:5.9471002 2343:4.5478001 2348:4.1978998 2367:4.5478001 2398:4.1978998 2410:4.1978998 2444:4.1978998 2450:4.1978998 2475:4.1978998 2478:4.1978998 2481:4.1978998 2500:4.1978998 2503:4.1978998 2584:4.8976002 2611:4.1978998 2629:4.1978998 2633:4.1978998 2634:4.5478001 2642:4.1978998 2652:4.1978998 2790:4.8976002 2802:4.1978998 2835:4.1978998 2845:4.5478001 2875:4.5478001 2879:4.1978998 2881:4.1978998 2949:5.9471002 2979:4.1978998 2995:4.5478001 3020:4.1978998 3055:4.1978998 3064:4.8976002 3067:4.5478001 3074:4.1978998 3078:4.5478001 3084:4.1978998 3131:4.1978998 3205:4.5478001 3206:6.2968998 3210:4.5478001 3243:4.1978998 3263:4.1978998 3274:4.1978998 3279:4.1978998 3287:6.6466999 3307:4.5478001 3324:4.1978998 3327:4.1978998 3365:4.1978998 3379:4.1978998 3385:4.1978998 3386:4.8976002 3395:4.8976002 3448:4.1978998 3453:4.1978998 3458:4.1978998 3460:4.5478001 3461:6.6466999 3462:5.9471002 3468:7.6961999 3472:4.1978998 3536:4.1978998 3556:4.1978998 3576:4.1978998 3591:4.5478001 3595:4.1978998 3644:4.5478001 3672:4.5478001 3693:4.1978998 3718:4.1978998 3805:4.5478001 3814:4.1978998 3853:5.5971999 3893:5.2473998 3901:4.1978998 3913:4.1978998 3927:4.5478001 3955:4.1978998 3962:4.1978998 3978:4.1978998 3986:4.1978998 4048:4.8976002 4072:4.1978998 4088:4.8976002 4102:4.1978998 4170:4.1978998 4199:4.1978998 4201:4.1978998 4202:4.1978998 4215:4.1978998 # none/00000317_s05.txt
-0.00045384564011221667978110416719062 7:4.1687999 15:4.1687999 19:5.1307998 43:4.1687999 51:4.1687999 53:4.1687999 67:4.1687999 68:4.1687999 73:4.1687999 100:4.4895 121:5.7722001 208:4.1687999 229:4.1687999 310:4.1687999 345:4.1687999 346:4.1687999 351:4.1687999 501:4.4895 505:4.4895 509:4.1687999 535:7.3755002 549:4.8101001 598:4.1687999 610:4.1687999 625:4.4895 631:4.8101001 711:5.1307998 734:4.1687999 789:5.4514999 813:4.8101001 819:4.1687999 839:4.1687999 868:4.1687999 899:4.4895 915:4.4895 939:7.6961999 942:4.1687999 1008:4.1687999 1018:4.8101001 1026:4.8101001 1027:4.4895 1032:4.1687999 1034:4.1687999 1072:4.4895 1076:5.4514999 1089:4.1687999 1101:4.1687999 1119:4.1687999 1152:4.1687999 1183:4.8101001 1212:4.4895 1301:4.1687999 1311:4.1687999 1320:4.1687999 1326:4.1687999 1333:4.1687999 1346:4.4895 1347:4.4895 1362:4.1687999 1388:4.1687999 1392:4.1687999 1418:4.4895 1492:4.4895 1499:4.1687999 1533:5.7722001 1548:4.4895 1560:4.8101001 1564:4.1687999 1624:4.4895 1672:4.1687999 1722:4.1687999 1729:4.1687999 1732:4.1687999 1739:4.4895 1776:4.1687999 1861:4.4895 1881:4.1687999 1889:4.1687999 1941:4.1687999 2015:4.1687999 2039:4.4895 2088:4.4895 2116:4.1687999 2125:4.4895 2126:4.1687999 2131:4.1687999 2144:4.1687999 2158:4.8101001 2164:4.1687999 2214:4.4895 2217:4.1687999 2270:4.1687999 2288:4.1687999 2318:4.1687999 2386:4.1687999 2426:4.1687999 2428:4.1687999 2431:4.4895 2433:4.1687999 2436:4.1687999 2470:4.1687999 2493:4.1687999 2500:4.8101001 2584:4.1687999 2591:4.8101001 2611:4.4895 2621:4.1687999 2622:4.1687999 2634:4.1687999 2652:4.1687999 2661:4.1687999 2703:4.1687999 2774:4.1687999 2802:4.4895 2809:4.1687999 2812:4.4895 2818:4.8101001 2845:4.4895 2880:4.1687999 2881:4.1687999 2949:4.8101001 2954:6.7342 2979:4.4895 3032:4.4895 3046:4.1687999 3170:4.1687999 3174:4.1687999 3187:4.4895 3188:4.1687999 3206:4.1687999 3235:4.4895 3281:4.1687999 3287:5.4514999 3307:4.4895 3380:4.1687999 3440:4.1687999 3453:5.4514999 3461:5.1307998 3462:4.4895 3468:4.8101001 3600:4.1687999 3668:4.4895 3695:4.4895 3702:4.1687999 3740:4.1687999 3764:5.1307998 3796:4.4895 3811:4.1687999 3851:4.1687999 3893:4.1687999 3913:4.1687999 3927:4.4895 3967:4.1687999 3977:4.1687999 4025:4.1687999 4032:4.1687999 4078:4.1687999 4102:4.1687999 4123:4.1687999 4170:5.1307998 4190:4.1687999 4262:4.1687999 # none/00003122_s01.txt
-0.00041850313281340857391593646141814 51:4.6177001 79:4.6177001 434:4.6177001 482:4.6177001 485:4.6177001 505:4.6177001 535:4.6177001 610:4.6177001 680:4.6177001 700:4.6177001 711:4.6177001 779:4.6177001 780:5.3873 789:4.6177001 809:4.6177001 810:4.6177001 813:4.6177001 899:4.6177001 939:4.6177001 1072:4.6177001 1076:4.6177001 1089:4.6177001 1138:4.6177001 1183:4.6177001 1186:5.3873 1212:4.6177001 1225:4.6177001 1303:4.6177001 1320:4.6177001 1356:4.6177001 1386:4.6177001 1392:4.6177001 1397:4.6177001 1418:5.3873 1492:4.6177001 1533:7.6961999 1548:4.6177001 1571:4.6177001 1588:4.6177001 1596:4.6177001 1662:4.6177001 1706:4.6177001 1941:5.3873 1995:4.6177001 2039:4.6177001 2125:4.6177001 2126:6.1570001 2137:5.3873 2145:4.6177001 2164:5.3873 2194:6.1570001 2227:4.6177001 2339:7.6961999 2406:5.3873 2428:5.3873 2431:4.6177001 2470:5.3873 2500:4.6177001 2633:5.3873 2649:4.6177001 2652:4.6177001 2788:4.6177001 2802:5.3873 2804:4.6177001 2875:4.6177001 2880:6.1570001 2885:4.6177001 2941:4.6177001 2949:5.3873 2954:7.6961999 2979:4.6177001 2995:4.6177001 3074:5.3873 3156:4.6177001 3287:7.6961999 3316:5.3873 3327:4.6177001 3360:4.6177001 3379:4.6177001 3395:6.1570001 3468:6.1570001 3516:5.3873 3591:6.1570001 3644:4.6177001 3668:4.6177001 3672:4.6177001 3677:4.6177001 3748:4.6177001 3749:4.6177001 3762:4.6177001 3764:6.9266 3853:5.3873 3893:7.6961999 3927:4.6177001 4056:4.6177001 4102:4.6177001 4156:6.1570001 4170:4.6177001 4188:4.6177001 4190:5.3873 # none/00009034_s02.txt
-0.00045384564011221667978110416719062 7:4.1046 13:4.1046 17:4.1046 18:4.1046 19:4.2329001 25:4.4895 43:5.5156002 51:4.1046 79:4.2329001 90:4.1046 100:4.8743 121:4.7459998 133:4.3611999 145:4.1046 155:5.7722001 167:3.9763999 174:5.5156002 179:3.9763999 183:3.9763999 208:3.9763999 228:4.8743 259:4.2329001 261:3.9763999 265:4.2329001 278:3.9763999 282:4.3611999 285:4.1046 300:3.9763999 314:3.9763999 316:4.2329001 318:4.1046 321:3.9763999 322:3.9763999 323:3.9763999 326:3.9763999 337:4.1046 342:3.9763999 348:3.9763999 350:4.2329001 351:4.1046 352:3.9763999 354:3.9763999 388:4.3611999 391:4.1046 396:3.9763999 399:3.9763999 414:3.9763999 501:3.9763999 505:3.9763999 510:3.9763999 516:3.9763999 535:7.0549002 541:4.1046 549:4.2329001 570:3.9763999 571:4.1046 600:5.0025001 610:4.1046 625:4.6177001 631:4.2329001 650:3.9763999 651:4.2329001 680:4.1046 687:3.9763999 705:3.9763999 711:4.8743 718:4.1046 726:3.9763999 731:3.9763999 750:3.9763999 752:3.9763999 768:4.1046 779:4.1046 781:3.9763999 789:5.3873 790:3.9763999 804:4.1046 811:4.6177001 813:3.9763999 817:3.9763999 819:4.1046 821:4.1046 822:3.9763999 837:3.9763999 839:4.2329001 862:3.9763999 868:4.3611999 893:4.1046 939:4.4895 942:4.6177001 965:4.4895 971:3.9763999 982:4.1046 989:3.9763999 1018:3.9763999 1020:3.9763999 1024:3.9763999 1026:4.4895 1027:4.2329001 1032:3.9763999 1062:4.1046 1072:5.0025001 1076:5.1307998 1085:3.9763999 1132:3.9763999 1139:3.9763999 1140:4.2329001 1142:3.9763999 1159:3.9763999 1165:4.1046 1183:4.2329001 1186:3.9763999 1191:3.9763999 1212:3.9763999 1250:3.9763999 1284:4.1046 1289:3.9763999 1310:3.9763999 1320:4.3611999 1326:4.8743 1346:3.9763999 1347:4.3611999 1356:4.3611999 1360:4.1046 1375:3.9763999 1384:3.9763999 1386:4.2329001 1387:3.9763999 1411:3.9763999 1413:4.3611999 1453:3.9763999 1488:4.1046 1492:3.9763999 1498:4.1046 1499:3.9763999 1533:5.2591 1548:4.3611999 1560:4.3611999 1600:4.1046 1607:4.3611999 1608:3.9763999 1618:3.9763999 1624:3.9763999 1633:3.9763999 1663:4.1046 1668:3.9763999 1671:4.2329001 1691:3.9763999 1698:3.9763999 1729:4.3611999 1730:4.1046 1739:3.9763999 1740:3.9763999 1770:3.9763999 1773:4.1046 1775:3.9763999 1783:4.2329001 1804:3.9763999 1818:4.8743 1824:3.9763999 1844:3.9763999 1861:5.2591 1862:3.9763999 1868:3.9763999 1904:4.3611999 1933:3.9763999 1947:4.1046 1967:4.7459998 1977:3.9763999 1981:3.9763999 1985:4.1046 1995:4.2329001 2015:4.2329001 2027:3.9763999 2081:4.2329001 2087:4.2329001 2091:5.0025001 2097:4.1046 2111:3.9763999 2117:3.9763999 2125:3.9763999 2131:4.3611999 2140:3.9763999 2144:4.2329001 2145:4.4895 2164:4.1046 2194:3.9763999 2197:3.9763999 2214:4.1046 2227:3.9763999 2262:3.9763999 2288:3.9763999 2320:3.9763999 2322:4.2329001 2331:4.1046 2335:3.9763999 2337:3.9763999 2339:7.6961999 2343:3.9763999 2348:3.9763999 2367:4.4895 2386:3.9763999 2398:4.1046 2405:3.9763999 2406:4.3611999 2410:3.9763999 2420:3.9763999 2428:3.9763999 2438:3.9763999 2449:3.9763999 2458:3.9763999 2466:4.6177001 2495:3.9763999 2500:3.9763999 2503:4.1046 2558:3.9763999 2559:3.9763999 2584:4.3611999 2591:3.9763999 2611:4.6177001 2621:4.8743 2622:3.9763999 2629:3.9763999 2633:3.9763999 2634:4.8743 2637:4.1046 2642:4.3611999 2649:3.9763999 2652:4.2329001 2675:3.9763999 2683:3.9763999 2722:3.9763999 2749:3.9763999 2752:3.9763999 2766:4.1046 2771:3.9763999 2774:5.2591 2790:5.1307998 2801:4.4895 2802:4.1046 2809:3.9763999 2810:4.4895 2843:3.9763999 2845:4.4895 2852:4.1046 2863:3.9763999 2875:4.1046 2880:4.2329001 2881:4.1046 2885:4.1046 2904:3.9763999 2935:4.1046 2936:3.9763999 2937:4.2329001 2941:4.2329001 2947:4.1046 2949:7.3113999 2954:4.2329001 2958:3.9763999 2979:3.9763999 2982:4.1046 2987:3.9763999 3006:3.9763999 3020:4.2329001 3032:4.1046 3064:4.4895 3067:3.9763999 3074:4.2329001 3078:4.2329001 3084:3.9763999 3097:4.2329001 3119:3.9763999 3131:4.3611999 3135:4.1046 3142:4.1046 3156:3.9763999 3158:3.9763999 3168:4.6177001 3170:4.1046 3206:4.6177001 3227:3.9763999 3243:4.2329001 3244:3.9763999 3249:3.9763999 3250:4.2329001 3263:3.9763999 3287:6.4134998 3289:3.9763999 3307:5.3873 3316:4.2329001 3327:4.1046 3329:4.1046 3344:4.2329001 3355:3.9763999 3380:4.4895 3385:4.1046 3386:4.8743 3395:6.4134998 3415:4.1046 3436:3.9763999 3440:3.9763999 3453:4.2329001 3458:4.7459998 3461:5.7722001 3462:5.6438999 3468:6.5418 3496:3.9763999 3504:4.1046 3513:5.9004002 3516:3.9763999 3519:3.9763999 3525:3.9763999 3536:4.6177001 3543:3.9763999 3547:3.9763999 3556:3.9763999 3563:4.2329001 3576:4.7459998 3584:3.9763999 3591:7.3113999 3595:3.9763999 3597:3.9763999 3599:3.9763999 3605:3.9763999 3617:4.1046 3619:4.1046 3644:5.3873 3649:4.1046 3654:3.9763999 3656:3.9763999 3658:4.1046 3665:4.1046 3668:4.1046 3672:4.4895 3675:3.9763999 3683:4.2329001 3724:3.9763999 3736:3.9763999 3749:3.9763999 3773:3.9763999 3778:3.9763999 3780:3.9763999 3796:4.1046 3813:3.9763999 3831:4.2329001 3853:7.0549002 3859:4.1046 3871:3.9763999 3893:4.3611999 3901:3.9763999 3907:3.9763999 3913:3.9763999 3927:5.3873 3933:3.9763999 3938:3.9763999 3940:3.9763999 3950:3.9763999 3951:4.3611999 3955:3.9763999 3960:4.1046 3971:4.3611999 3990:3.9763999 3992:3.9763999 3993:4.1046 4019:3.9763999 4048:3.9763999 4065:3.9763999 4069:3.9763999 4072:4.1046 4088:4.6177001 4102:4.3611999 4105:3.9763999 4117:3.9763999 4161:4.1046 4170:4.3611999 4172:3.9763999 4187:3.9763999 4190:3.9763999 4199:4.4895 4214:3.9763999 4215:6.5418 4228:3.9763999 4278:3.9763999 # none/00001092_s05.txt
0.00045384564011221667978110416719062 51:4.4895 66:4.4895 200:4.4895 218:4.4895 505:5.7722001 535:5.1307998 549:5.1307998 631:4.4895 651:5.7722001 670:4.4895 680:4.4895 699:5.1307998 718:4.4895 779:4.4895 824:4.4895 839:4.4895 1008:5.7722001 1018:4.4895 1076:4.4895 1130:4.4895 1175:5.7722001 1186:4.4895 1212:5.1307998 1216:4.4895 1265:4.4895 1347:4.4895 1380:4.4895 1387:4.4895 1413:5.7722001 1453:4.4895 1492:4.4895 1506:4.4895 1533:5.7722001 1548:4.4895 1560:5.1307998 1668:5.1307998 1672:4.4895 1709:4.4895 1818:7.0549002 1861:4.4895 1878:4.4895 1982:4.4895 2081:5.1307998 2125:4.4895 2131:5.1307998 2137:4.4895 2140:4.4895 2194:4.4895 2214:4.4895 2280:4.4895 2289:4.4895 2339:5.1307998 2343:4.4895 2347:5.1307998 2500:4.4895 2552:4.4895 2554:4.4895 2649:4.4895 2755:4.4895 2818:5.1307998 2856:5.1307998 2875:4.4895 2937:5.7722001 2949:5.1307998 2979:4.4895 2982:4.4895 3010:5.1307998 3032:4.4895 3039:4.4895 3074:4.4895 3153:5.1307998 3156:4.4895 3251:4.4895 3263:4.4895 3266:4.4895 3276:4.4895 3287:7.6961999 3307:7.0549002 3347:4.4895 3378:4.4895 3385:5.1307998 3395:4.4895 3421:4.4895 3427:4.4895 3460:4.4895 3462:5.1307998 3468:7.6961999 3513:4.4895 3516:4.4895 3548:5.7722001 3556:4.4895 3576:4.4895 3591:5.7722001 3618:4.4895 3658:4.4895 3665:4.4895 3668:4.4895 3695:5.1307998 3720:4.4895 3796:4.4895 3831:4.4895 3835:4.4895 3853:5.7722001 3913:5.1307998 3927:4.4895 4025:4.4895 4102:4.4895 4199:4.4895 4215:5.7722001 4228:4.4895 # seizures/00000447_s01.txt
0.00045384564011221667978110416719062 10:4.3291001 51:4.3291001 452:4.3291001 505:4.3291001 535:5.2911 549:4.3291001 563:4.3291001 600:4.3291001 631:4.3291001 651:4.3291001 733:4.3291001 789:4.3291001 862:4.3291001 868:4.3291001 899:4.3291001 912:4.8101001 920:4.3291001 971:4.3291001 1027:4.3291001 1076:4.3291001 1132:4.3291001 1186:4.3291001 1212:4.3291001 1320:4.3291001 1347:4.3291001 1392:4.3291001 1434:4.3291001 1480:4.3291001 1492:4.3291001 1533:6.2532001 1548:4.3291001 1560:4.3291001 1575:4.3291001 1626:4.3291001 1662:4.8101001 1663:4.3291001 1740:4.8101001 1745:4.3291001 1818:4.8101001 1861:4.3291001 1862:4.8101001 1985:4.3291001 2039:4.3291001 2068:4.3291001 2081:4.3291001 2097:4.3291001 2125:4.3291001 2131:4.3291001 2137:4.3291001 2214:4.3291001 2280:4.3291001 2293:4.3291001 2339:7.6961999 2426:4.3291001 2484:4.3291001 2500:4.3291001 2554:4.3291001 2621:4.3291001 2774:4.8101001 2810:4.3291001 2812:4.8101001 2818:4.3291001 2875:4.3291001 2949:4.8101001 2979:4.8101001 3010:4.8101001 3032:4.3291001 3068:4.3291001 3074:4.3291001 3156:4.3291001 3170:4.8101001 3183:4.3291001 3235:4.3291001 3246:4.8101001 3287:5.7722001 3307:5.2911 3365:4.3291001 3385:5.2911 3395:4.3291001 3442:4.3291001 3458:4.8101001 3461:4.8101001 3513:6.7342 3516:4.3291001 3576:6.2532001 3585:4.3291001 3591:4.8101001 3595:4.3291001 3619:4.3291001 3649:4.3291001 3665:4.3291001 3668:4.3291001 3695:5.2911 3762:4.3291001 3796:4.3291001 3853:5.7722001 3893:4.3291001 3927:4.3291001 3954:4.3291001 3962:4.3291001 3971:4.3291001 3978:4.8101001 4048:4.8101001 4102:4.3291001 4148:4.3291001 4161:4.8101001 4170:4.3291001 4176:4.3291001 4215:7.6961999 4220:4.3291001 4228:4.8101001 4307:4.3291001 # seizures/00000327_s03.txt
0.00045384564011221667978110416719062 51:4.6177001 461:4.6177001 505:5.3873 535:5.3873 553:4.6177001 687:4.6177001 705:5.3873 722:4.6177001 726:4.6177001 732:4.6177001 789:6.1570001 899:4.6177001 1018:4.6177001 1027:4.6177001 1076:4.6177001 1186:4.6177001 1212:4.6177001 1219:4.6177001 1241:4.6177001 1320:5.3873 1347:4.6177001 1388:4.6177001 1392:4.6177001 1397:4.6177001 1443:4.6177001 1453:4.6177001 1484:4.6177001 1488:4.6177001 1492:4.6177001 1533:7.6961999 1548:4.6177001 1560:4.6177001 1740:4.6177001 1745:4.6177001 1861:4.6177001 1881:4.6177001 1889:5.3873 1923:4.6177001 1960:4.6177001 1977:4.6177001 2039:4.6177001 2081:5.3873 2091:4.6177001 2118:4.6177001 2125:4.6177001 2131:4.6177001 2137:4.6177001 2175:4.6177001 2194:4.6177001 2209:4.6177001 2214:4.6177001 2293:4.6177001 2339:6.9266 2428:4.6177001 2500:4.6177001 2571:4.6177001 2729:4.6177001 2768:4.6177001 2810:5.3873 2845:4.6177001 2875:4.6177001 2949:6.1570001 2979:5.3873 3010:5.3873 3032:4.6177001 3067:4.6177001 3074:4.6177001 3189:4.6177001 3240:4.6177001 3250:4.6177001 3287:5.3873 3307:5.3873 3385:4.6177001 3426:4.6177001 3440:4.6177001 3468:4.6177001 3513:6.1570001 3516:4.6177001 3591:6.9266 3619:4.6177001 3649:4.6177001 3668:4.6177001 3695:5.3873 3716:4.6177001 3758:4.6177001 3762:4.6177001 3796:4.6177001 3818:4.6177001 3839:4.6177001 3853:5.3873 3893:4.6177001 3913:4.6177001 3927:4.6177001 4102:4.6177001 4161:4.6177001 4170:4.6177001 4190:4.6177001 4199:4.6177001 4215:6.9266 4271:4.6177001 # seizures/00000207_s02.txt
0.00045384564011221667978110416719062 43:4.3291001 51:4.3291001 145:4.3291001 200:4.8101001 218:4.3291001 219:4.3291001 302:4.3291001 505:4.8101001 535:4.3291001 549:5.2911 631:5.2911 651:5.7722001 680:5.2911 692:4.3291001 699:5.7722001 700:4.3291001 789:4.8101001 813:4.3291001 837:4.3291001 839:4.3291001 851:4.3291001 868:4.3291001 893:4.3291001 1008:4.8101001 1018:4.8101001 1026:4.3291001 1076:4.3291001 1130:4.3291001 1175:4.3291001 1183:4.8101001 1212:4.8101001 1265:4.3291001 1301:4.3291001 1347:4.3291001 1356:4.8101001 1387:4.3291001 1388:4.8101001 1392:4.3291001 1413:4.8101001 1453:4.3291001 1492:4.8101001 1499:4.8101001 1506:5.2911 1533:5.7722001 1537:4.3291001 1548:4.3291001 1560:4.8101001 1630:4.3291001 1648:4.3291001 1658:4.3291001 1663:4.3291001 1668:5.7722001 1709:4.3291001 1777:4.3291001 1783:4.8101001 1818:6.7342 1861:4.3291001 1862:4.3291001 1878:4.3291001 1933:4.3291001 2015:4.3291001 2037:5.2911 2081:5.2911 2125:4.3291001 2137:4.3291001 2140:4.3291001 2214:4.3291001 2230:4.3291001 2289:4.3291001 2318:4.8101001 2339:6.2532001 2386:4.3291001 2396:4.3291001 2406:4.3291001 2500:4.8101001 2552:4.8101001 2611:4.3291001 2621:4.3291001 2632:4.3291001 2634:4.3291001 2649:5.2911 2755:4.3291001 2760:4.3291001 2766:4.8101001 2774:5.2911 2790:4.3291001 2856:4.8101001 2868:4.3291001 2936:4.3291001 2941:4.3291001 2949:5.2911 2979:4.8101001 3026:4.3291001 3032:4.3291001 3074:4.3291001 3134:4.3291001 3153:4.3291001 3263:4.3291001 3266:4.3291001 3276:4.3291001 3287:6.7342 3306:4.3291001 3307:6.7342 3327:4.3291001 3354:4.3291001 3366:4.3291001 3378:4.3291001 3380:4.3291001 3385:4.3291001 3386:4.3291001 3395:4.8101001 3435:4.3291001 3453:4.3291001 3462:6.7342 3468:7.6961999 3513:4.8101001 3558:4.3291001 3576:5.2911 3591:6.2532001 3605:4.3291001 3618:4.3291001 3644:4.3291001 3665:4.3291001 3668:4.3291001 3671:4.3291001 3692:4.3291001 3716:4.3291001 3720:4.3291001 3796:4.3291001 3831:4.3291001 3835:4.3291001 3853:6.2532001 3893:4.3291001 3927:4.8101001 4016:4.3291001 4078:4.3291001 4102:4.8101001 4105:4.3291001 4170:4.3291001 4176:4.3291001 4199:4.3291001 4215:4.8101001 4228:5.2911 4309:4.3291001 # seizures/00001884_s02.txt
0.00045384564011221667978110416719062 51:4.3978 440:4.3978 505:4.3978 549:4.3978 600:4.3978 608:4.3978 631:4.3978 651:4.9475999 717:4.3978 732:4.3978 738:4.3978 779:4.3978 813:4.3978 899:4.3978 939:4.9475999 1027:4.3978 1072:4.9475999 1076:4.9475999 1134:4.9475999 1140:4.9475999 1212:4.9475999 1347:4.3978 1392:4.3978 1397:4.3978 1413:5.4973001 1434:4.3978 1488:4.3978 1492:4.3978 1499:5.4973001 1533:4.9475999 1548:4.3978 1560:4.3978 1566:4.3978 1624:4.3978 1661:4.3978 1663:4.3978 1709:4.3978 1818:5.4973001 1995:4.3978 2015:4.3978 2039:4.3978 2081:4.3978 2125:4.3978 2131:4.9475999 2158:4.3978 2177:4.3978 2182:4.3978 2188:4.3978 2214:4.3978 2410:4.3978 2500:4.3978 2517:4.3978 2621:4.9475999 2809:4.3978 2845:4.3978 2856:4.3978 2949:6.5967999 2979:4.9475999 3032:4.3978 3168:4.3978 3287:4.9475999 3327:4.3978 3331:4.9475999 3352:4.3978 3385:4.3978 3395:7.6961999 3468:4.9475999 3513:4.9475999 3591:6.0469999 3618:4.3978 3644:4.9475999 3668:4.3978 3796:4.3978 3853:6.5967999 3871:4.3978 3971:4.3978 4102:4.3978 4155:4.3978 4170:4.3978 4181:4.3978 4199:4.9475999 4215:6.0469999 4220:4.3978 4263:4.3978 4269:4.9475999 # seizures/00001637_s04.txt
0.00041365181753117818540949057748435 13:4.8101001 51:4.8101001 208:4.8101001 300:4.8101001 306:5.7722001 505:4.8101001 535:7.6961999 560:4.8101001 625:4.8101001 631:4.8101001 651:4.8101001 680:5.7722001 692:4.8101001 722:4.8101001 789:4.8101001 813:4.8101001 839:5.7722001 858:6.7342 915:4.8101001 939:4.8101001 971:5.7722001 989:4.8101001 1018:4.8101001 1026:4.8101001 1027:4.8101001 1072:6.7342 1076:5.7722001 1170:4.8101001 1175:4.8101001 1212:6.7342 1320:4.8101001 1347:4.8101001 1388:5.7722001 1392:4.8101001 1424:4.8101001 1428:4.8101001 1453:4.8101001 1479:5.7722001 1492:4.8101001 1499:6.7342 1506:4.8101001 1533:6.7342 1537:4.8101001 1548:5.7722001 1560:4.8101001 1566:7.6961999 1600:4.8101001 1663:4.8101001 1672:4.8101001 1675:4.8101001 1681:4.8101001 1739:4.8101001 1777:6.7342 1818:5.7722001 1861:4.8101001 1868:4.8101001 1940:4.8101001 2081:4.8101001 2091:4.8101001 2125:4.8101001 2137:4.8101001 2144:4.8101001 2173:4.8101001 2214:4.8101001 2280:4.8101001 2318:4.8101001 2331:4.8101001 2406:4.8101001 2428:4.8101001 2481:4.8101001 2500:5.7722001 2584:4.8101001 2602:4.8101001 2611:4.8101001 2802:4.8101001 2810:4.8101001 2937:4.8101001 2947:4.8101001 2949:4.8101001 2979:4.8101001 2982:5.7722001 3032:4.8101001 3067:5.7722001 3074:5.7722001 3082:5.7722001 3103:4.8101001 3120:4.8101001 3134:4.8101001 3135:6.7342 3231:4.8101001 3287:6.7342 3307:4.8101001 3316:4.8101001 3349:4.8101001 3385:4.8101001 3386:4.8101001 3453:5.7722001 3468:7.6961999 3539:4.8101001 3556:4.8101001 3576:4.8101001 3591:4.8101001 3634:4.8101001 3650:4.8101001 3668:4.8101001 3695:5.7722001 3796:4.8101001 3807:4.8101001 3831:4.8101001 3853:4.8101001 3893:4.8101001 4048:5.7722001 4102:4.8101001 4126:4.8101001 4156:4.8101001 4158:5.7722001 4170:4.8101001 4199:4.8101001 4263:4.8101001 4312:4.8101001 # seizures/00002224_s02.txt
0.00011107680353655517019057646921354 51:4.3291001 109:4.3291001 166:4.3291001 342:4.8101001 501:4.3291001 505:4.3291001 535:5.7722001 549:4.8101001 571:4.3291001 600:4.3291001 738:4.3291001 782:4.3291001 789:4.3291001 813:4.3291001 819:4.8101001 899:4.3291001 939:4.3291001 965:4.3291001 1008:5.2911 1027:4.3291001 1076:4.3291001 1140:4.8101001 1174:4.3291001 1183:4.3291001 1186:4.3291001 1225:4.3291001 1333:4.3291001 1346:4.3291001 1347:4.3291001 1375:4.3291001 1386:4.3291001 1392:4.3291001 1397:4.3291001 1437:4.3291001 1467:4.3291001 1492:4.3291001 1533:5.7722001 1548:4.3291001 1560:4.3291001 1600:4.3291001 1621:4.8101001 1624:4.3291001 1692:4.3291001 1720:4.3291001 1722:4.3291001 1739:4.3291001 1766:4.3291001 1783:4.3291001 1818:4.3291001 1861:4.3291001 1862:4.3291001 1866:4.3291001 1904:4.8101001 1941:4.8101001 2037:4.8101001 2039:4.3291001 2068:4.3291001 2125:4.3291001 2126:4.3291001 2131:4.3291001 2145:4.3291001 2164:4.3291001 2214:4.3291001 2339:4.3291001 2348:4.3291001 2433:4.3291001 2470:4.3291001 2500:4.3291001 2642:4.3291001 2649:4.3291001 2845:4.3291001 2880:4.3291001 2881:4.3291001 2937:4.8101001 2941:4.3291001 2949:5.2911 2954:4.8101001 2979:4.8101001 2982:4.8101001 3010:4.3291001 3032:4.3291001 3170:4.3291001 3287:5.7722001 3292:4.3291001 3307:5.2911 3344:4.8101001 3386:4.3291001 3395:4.8101001 3460:4.3291001 3466:4.3291001 3468:5.7722001 3509:4.3291001 3513:4.3291001 3516:4.3291001 3543:4.3291001 3551:4.3291001 3591:7.6961999 3644:4.3291001 3667:4.3291001 3668:4.3291001 3679:4.8101001 3704:4.3291001 3738:4.3291001 3789:4.3291001 3796:4.3291001 3853:4.3291001 3967:4.3291001 3978:4.8101001 4025:4.3291001 4102:4.3291001 4170:4.8101001 4190:4.3291001 # seizures/00000717_s06.txt
0.0003514447811020392415694291177175 51:4.3291001 79:6.2532001 133:4.3291001 291:4.3291001 328:4.8101001 337:4.3291001 358:4.3291001 394:4.3291001 395:5.7722001 396:4.3291001 505:4.3291001 535:6.7342 571:4.8101001 600:4.8101001 711:6.2532001 731:4.8101001 779:4.3291001 789:4.8101001 965:4.3291001 1027:4.3291001 1034:4.3291001 1049:4.3291001 1062:4.8101001 1085:4.3291001 1089:4.3291001 1139:4.3291001 1140:4.3291001 1232:4.3291001 1235:4.3291001 1346:4.3291001 1347:4.8101001 1360:4.3291001 1386:4.3291001 1392:4.3291001 1397:4.3291001 1412:4.3291001 1499:4.8101001 1533:6.2532001 1548:4.3291001 1560:4.3291001 1630:4.3291001 1663:4.8101001 1674:4.3291001 1709:6.2532001 1783:4.3291001 1824:4.3291001 1861:4.3291001 1868:5.2911 1937:4.3291001 1969:4.3291001 1977:5.2911 2068:4.3291001 2145:4.3291001 2214:4.3291001 2293:4.3291001 2339:4.8101001 2348:4.3291001 2382:4.3291001 2428:4.3291001 2500:4.3291001 2634:5.2911 2642:4.8101001 2649:4.3291001 2652:4.8101001 2721:4.3291001 2774:4.3291001 2801:4.3291001 2802:5.2911 2818:5.2911 2844:4.3291001 2856:4.3291001 2881:4.3291001 2949:7.6961999 2979:4.8101001 2995:4.8101001 3010:4.8101001 3032:4.3291001 3078:4.3291001 3235:4.3291001 3269:4.3291001 3287:5.2911 3307:4.3291001 3316:4.8101001 3348:4.3291001 3380:4.3291001 3385:4.3291001 3395:4.8101001 3435:4.3291001 3461:4.3291001 3462:5.2911 3468:6.2532001 3513:4.8101001 3572:4.3291001 3591:7.2151999 3641:4.3291001 3668:4.3291001 3672:4.8101001 3693:4.3291001 3695:4.8101001 3749:4.3291001 3787:4.8101001 3796:4.3291001 3839:6.7342 3848:4.3291001 3950:4.3291001 3967:4.3291001 3978:4.3291001 4017:4.3291001 4025:4.8101001 4048:4.8101001 4078:4.3291001 4102:4.3291001 4170:5.2911 4190:4.3291001 4215:4.8101001 4220:4.3291001 # seizures/00002514_s02.txt
0.00028784914067446514722783956763408 15:4.9475999 51:4.3978 145:4.3978 200:4.3978 218:4.3978 236:4.9475999 270:4.3978 278:4.3978 325:4.3978 505:5.4973001 535:4.9475999 549:4.9475999 631:4.3978 651:4.3978 670:4.3978 680:7.1465001 692:4.3978 693:4.3978 700:4.3978 738:4.3978 754:4.3978 789:4.3978 819:4.3978 839:4.9475999 1008:4.3978 1076:4.3978 1130:4.3978 1175:4.3978 1183:5.4973001 1186:4.3978 1212:4.3978 1283:4.3978 1320:4.3978 1333:4.3978 1346:4.3978 1347:4.3978 1356:4.9475999 1374:4.3978 1387:4.3978 1388:4.9475999 1413:5.4973001 1432:4.3978 1436:4.3978 1453:4.3978 1492:4.9475999 1498:4.9475999 1499:4.9475999 1506:4.9475999 1533:7.6961999 1548:4.3978 1560:4.9475999 1618:4.3978 1630:4.3978 1668:4.3978 1672:4.3978 1733:4.3978 1738:4.3978 1777:4.3978 1790:4.3978 1821:4.9475999 1861:4.9475999 1868:4.3978 1878:4.3978 1904:5.4973001 1977:4.3978 2037:4.9475999 2081:4.3978 2125:4.3978 2193:4.3978 2195:4.3978 2214:4.3978 2227:4.3978 2230:4.3978 2280:4.3978 2331:4.3978 2406:4.3978 2426:4.3978 2447:4.3978 2481:4.9475999 2500:4.3978 2552:4.3978 2584:4.3978 2591:4.3978 2632:4.3978 2633:4.9475999 2647:5.4973001 2649:6.5967999 2766:4.9475999 2774:4.3978 2790:4.3978 2809:4.3978 2812:4.3978 2856:4.3978 2868:5.4973001 2880:4.3978 2881:4.3978 2949:4.9475999 2979:5.4973001 3032:4.3978 3074:4.3978 3134:4.3978 3153:4.9475999 3168:4.3978 3267:4.3978 3287:6.5967999 3327:4.3978 3378:4.3978 3380:4.9475999 3385:4.3978 3386:4.9475999 3462:6.0469999 3468:7.6961999 3513:4.3978 3516:4.3978 3536:4.9475999 3556:4.3978 3576:4.3978 3591:4.9475999 3596:4.3978 3605:4.3978 3618:4.3978 3621:4.3978 3644:6.5967999 3668:4.3978 3672:4.3978 3716:4.3978 3720:4.9475999 3747:4.9475999 3790:4.3978 3831:4.3978 3835:4.3978 3853:4.3978 3893:4.9475999 3912:4.3978 3913:4.3978 3927:4.3978 3955:4.3978 3960:4.3978 4025:4.3978 4043:5.4973001 4078:4.3978 4102:4.9475999 4170:4.3978 4215:4.9475999 4228:5.4973001 4253:4.3978 # seizures/00000573_s04.txt
-0.00025208924861413366594331542103191 51:4.8101001 452:4.8101001 505:5.7722001 535:5.7722001 563:4.8101001 600:4.8101001 625:4.8101001 758:4.8101001 789:4.8101001 813:4.8101001 899:4.8101001 1008:5.7722001 1027:4.8101001 1076:5.7722001 1140:5.7722001 1183:4.8101001 1212:4.8101001 1320:4.8101001 1347:4.8101001 1392:4.8101001 1397:4.8101001 1492:4.8101001 1533:7.6961999 1548:4.8101001 1560:4.8101001 1662:4.8101001 1672:4.8101001 1740:4.8101001 1777:4.8101001 1818:4.8101001 1821:4.8101001 1861:5.7722001 1904:4.8101001 1907:4.8101001 1995:5.7722001 2039:4.8101001 2091:5.7722001 2125:4.8101001 2137:4.8101001 2175:4.8101001 2214:4.8101001 2230:4.8101001 2339:5.7722001 2484:4.8101001 2500:4.8101001 2571:4.8101001 2592:4.8101001 2918:4.8101001 2930:4.8101001 2949:5.7722001 2979:4.8101001 2982:5.7722001 3032:4.8101001 3053:5.7722001 3155:4.8101001 3156:4.8101001 3287:6.7342 3307:5.7722001 3347:4.8101001 3395:6.7342 3468:4.8101001 3513:5.7722001 3591:6.7342 3600:4.8101001 3618:4.8101001 3619:4.8101001 3658:4.8101001 3668:4.8101001 3695:5.7722001 3762:4.8101001 3796:4.8101001 3811:4.8101001 3831:4.8101001 3893:4.8101001 4102:4.8101001 4170:4.8101001 4215:5.7722001 4228:4.8101001 # none/00008621_s01.txt
0.00019801158160202315949849349863143 15:4.3978 25:5.1307998 30:4.3978 43:4.2146001 51:4.0313001 100:4.0313001 121:4.3978 145:4.0313001 167:5.8638 174:4.0313001 179:4.5811 208:4.9475999 239:4.5811 245:4.3978 255:5.3140998 259:4.2146001 270:4.0313001 282:4.0313001 285:4.0313001 316:4.0313001 323:4.0313001 324:4.2146001 326:4.2146001 337:4.2146001 346:4.0313001 352:4.0313001 354:4.0313001 375:4.0313001 383:4.0313001 394:4.0313001 492:4.0313001 505:4.0313001 509:4.0313001 510:4.0313001 535:7.6961999 549:4.0313001 553:4.0313001 571:4.2146001 589:4.0313001 600:4.0313001 610:4.0313001 612:4.0313001 625:4.0313001 631:4.0313001 651:4.2146001 680:4.3978 687:4.0313001 700:4.5811 701:4.3978 702:4.3978 711:4.7642999 718:4.3978 726:4.0313001 779:4.2146001 787:4.0313001 789:4.0313001 810:4.2146001 811:4.0313001 813:4.0313001 819:4.0313001 821:4.7642999 862:4.0313001 868:4.0313001 893:4.0313001 899:4.0313001 915:4.3978 917:4.0313001 965:4.3978 1008:4.0313001 1027:4.0313001 1062:4.2146001 1072:4.3978 1073:4.2146001 1074:4.2146001 1076:4.2146001 1089:4.0313001 1125:4.0313001 1134:4.0313001 1140:4.2146001 1146:4.0313001 1165:4.2146001 1183:5.1307998 1203:4.0313001 1212:4.3978 1225:4.0313001 1283:4.3978 1285:4.0313001 1310:4.0313001 1320:4.9475999 1326:4.2146001 1346:4.0313001 1347:4.0313001 1353:4.2146001 1381:4.0313001 1386:4.2146001 1388:4.0313001 1397:4.0313001 1413:4.0313001 1452:4.2146001 1453:4.0313001 1467:4.0313001 1475:4.0313001 1478:4.0313001 1492:4.0313001 1498:4.2146001 1499:4.2146001 1516:4.2146001 1517:4.0313001 1533:4.9475999 1548:4.0313001 1560:5.1307998 1618:4.0313001 1624:4.0313001 1633:4.0313001 1662:4.0313001 1693:4.0313001 1709:4.0313001 1770:4.0313001 1818:4.5811 1821:4.0313001 1861:4.3978 1862:4.0313001 1904:4.0313001 1907:4.0313001 1948:4.0313001 1967:4.2146001 1977:4.0313001 1995:4.2146001 2011:4.0313001 2015:4.0313001 2039:4.0313001 2081:4.5811 2087:4.2146001 2089:4.0313001 2091:4.7642999 2125:4.0313001 2131:4.0313001 2137:4.0313001 2140:4.0313001 2164:4.0313001 2179:4.2146001 2194:4.2146001 2214:4.0313001 2220:4.2146001 2293:4.0313001 2318:4.0313001 2322:4.3978 2339:6.0469999 2367:4.2146001 2368:4.0313001 2369:4.0313001 2398:4.5811 2410:4.0313001 2436:4.0313001 2450:4.0313001 2484:4.2146001 2495:4.0313001 2500:4.0313001 2558:4.0313001 2584:4.0313001 2597:4.3978 2611:4.0313001 2621:4.2146001 2633:4.3978 2634:4.9475999 2649:4.0313001 2652:4.2146001 2676:4.2146001 2722:4.0313001 2755:4.0313001 2774:4.0313001 2790:4.3978 2801:4.2146001 2809:4.0313001 2810:4.2146001 2845:4.2146001 2852:4.0313001 2875:4.0313001 2880:4.0313001 2930:4.0313001 2937:4.3978 2941:4.2146001 2949:7.6961999 2954:4.0313001 2979:4.0313001 3032:4.0313001 3048:4.0313001 3064:4.0313001 3067:4.0313001 3074:4.0313001 3078:4.2146001 3080:4.3978 3131:4.0313001 3142:4.0313001 3168:4.0313001 3170:4.0313001 3221:4.0313001 3243:4.0313001 3273:4.0313001 3274:4.0313001 3279:4.0313001 3287:4.5811 3307:5.6805 3316:4.0313001 3327:4.9475999 3337:4.0313001 3344:4.2146001 3360:4.0313001 3366:4.0313001 3377:4.0313001 3385:4.0313001 3386:5.3140998 3395:6.5967999 3426:4.0313001 3435:4.3978 3440:4.2146001 3453:4.3978 3458:4.0313001 3461:5.3140998 3462:4.9475999 3468:7.6961999 3513:4.9475999 3530:4.0313001 3531:4.0313001 3536:4.0313001 3543:4.3978 3547:4.0313001 3563:4.2146001 3576:4.9475999 3585:4.0313001 3591:5.8638 3595:4.0313001 3619:4.0313001 3644:4.2146001 3658:4.3978 3665:4.0313001 3668:4.0313001 3672:4.2146001 3675:4.0313001 3687:4.0313001 3692:4.2146001 3700:4.0313001 3741:4.0313001 3762:4.2146001 3796:4.0313001 3853:7.1465001 3868:4.2146001 3869:4.0313001 3871:4.0313001 3893:4.0313001 3912:4.2146001 3913:4.0313001 3927:5.1307998 3960:4.0313001 3967:4.2146001 3971:4.0313001 4032:4.0313001 4053:4.0313001 4056:4.0313001 4065:4.2146001 4084:4.2146001 4088:4.2146001 4102:4.2146001 4156:4.0313001 4167:4.0313001 4170:4.2146001 4187:4.0313001 4199:4.0313001 4215:5.1307998 4228:4.0313001 4263:4.0313001 # seizures/00000343_s04.txt
0.00027215051873982575416158202763484 25:4.0313001 30:4.0313001 43:4.0313001 51:4.3978 79:4.0313001 103:4.0313001 121:4.0313001 228:4.2146001 245:6.5967999 255:5.8638 259:4.0313001 300:4.0313001 312:4.5811 314:4.5811 316:4.2146001 317:4.2146001 318:4.0313001 322:4.0313001 324:4.5811 326:4.0313001 337:4.0313001 342:4.0313001 346:4.0313001 348:4.0313001 352:4.0313001 375:4.0313001 394:4.0313001 404:4.0313001 463:4.0313001 535:4.7642999 589:4.2146001 600:4.0313001 608:4.0313001 610:4.5811 631:4.3978 654:4.5811 687:4.0313001 694:4.0313001 700:4.7642999 702:4.5811 711:5.6805 717:4.0313001 726:4.3978 732:4.0313001 752:4.0313001 768:4.5811 779:4.9475999 781:4.2146001 787:4.0313001 789:4.2146001 813:4.0313001 815:4.0313001 819:4.7642999 821:4.5811 837:4.0313001 868:4.0313001 882:4.0313001 899:4.0313001 942:4.0313001 981:4.0313001 1008:4.0313001 1026:4.0313001 1027:4.3978 1032:4.3978 1039:4.0313001 1041:4.0313001 1072:4.3978 1076:4.2146001 1124:4.0313001 1140:4.7642999 1183:4.5811 1202:4.2146001 1212:4.3978 1226:4.2146001 1281:4.0313001 1285:4.0313001 1289:4.3978 1311:4.2146001 1318:4.0313001 1320:4.5811 1326:4.0313001 1346:4.0313001 1347:4.2146001 1353:4.3978 1397:4.0313001 1413:4.2146001 1436:4.0313001 1452:4.5811 1453:4.0313001 1467:4.0313001 1478:4.0313001 1488:4.5811 1498:4.0313001 1499:4.5811 1512:4.0313001 1516:4.2146001 1517:4.0313001 1533:6.0469999 1548:4.3978 1560:4.3978 1566:4.0313001 1600:4.2146001 1607:4.0313001 1624:4.3978 1662:4.2146001 1663:4.3978 1672:4.2146001 1709:4.3978 1722:4.2146001 1745:4.0313001 1751:4.2146001 1770:4.0313001 1775:4.5811 1783:4.0313001 1786:4.0313001 1791:5.6805 1812:4.0313001 1818:4.0313001 1824:4.5811 1837:4.0313001 1849:4.0313001 1861:4.0313001 1878:4.5811 1904:4.0313001 1907:4.0313001 1947:4.3978 1967:4.0313001 1982:4.0313001 1999:4.0313001 2008:4.3978 2015:4.5811 2036:4.0313001 2037:4.2146001 2039:4.0313001 2081:4.3978 2091:4.7642999 2097:4.3978 2111:4.0313001 2117:4.2146001 2125:4.0313001 2131:4.3978 2137:4.2146001 2145:4.0313001 2164:4.2146001 2179:4.0313001 2189:4.0313001 2198:4.0313001 2214:4.3978 2236:4.0313001 2308:4.0313001 2320:4.0313001 2322:4.2146001 2339:6.5967999 2386:4.0313001 2406:4.2146001 2410:4.7642999 2449:4.0313001 2484:4.0313001 2491:4.0313001 2500:4.0313001 2581:4.0313001 2584:4.2146001 2611:4.7642999 2621:4.2146001 2622:4.0313001 2629:4.2146001 2634:5.3140998 2723:4.0313001 2736:4.0313001 2773:4.0313001 2774:4.2146001 2790:4.3978 2801:4.0313001 2802:4.0313001 2835:4.0313001 2845:5.1307998 2860:4.0313001 2861:4.2146001 2880:4.7642999 2881:4.0313001 2910:4.0313001 2941:4.0313001 2949:6.0469999 2954:4.3978 2979:4.3978 2981:4.0313001 2982:4.0313001 3020:4.2146001 3032:4.3978 3048:4.2146001 3064:4.0313001 3067:4.0313001 3074:4.0313001 3078:4.0313001 3080:4.0313001 3124:4.0313001 3135:4.0313001 3142:4.2146001 3156:4.0313001 3205:4.0313001 3206:4.0313001 3240:4.0313001 3243:4.2146001 3250:4.0313001 3251:4.2146001 3263:4.0313001 3279:4.2146001 3287:5.3140998 3307:4.7642999 3316:4.0313001 3327:4.0313001 3329:4.0313001 3347:4.2146001 3365:4.0313001 3380:4.5811 3385:4.0313001 3386:4.2146001 3395:4.3978 3435:4.0313001 3436:4.0313001 3453:4.0313001 3458:4.2146001 3460:4.0313001 3461:5.6805 3462:5.3140998 3468:7.6961999 3494:4.2146001 3513:4.2146001 3536:4.7642999 3541:4.2146001 3543:4.0313001 3547:4.0313001 3574:4.2146001 3576:5.6805 3591:4.5811 3612:4.0313001 3644:5.6805 3649:4.2146001 3658:4.0313001 3665:4.3978 3668:4.3978 3672:4.2146001 3738:4.3978 3749:4.2146001 3789:4.0313001 3796:4.3978 3807:4.2146001 3813:4.2146001 3851:4.0313001 3853:4.7642999 3859:4.0313001 3868:4.0313001 3912:4.0313001 3927:4.9475999 3955:4.0313001 3978:4.3978 4026:4.3978 4048:4.0313001 4072:4.2146001 4085:4.0313001 4088:4.2146001 4102:4.7642999 4156:4.0313001 4161:4.2146001 4170:4.9475999 4174:4.0313001 4199:4.9475999 4200:4.0313001 4215:5.3140998 4220:4.0313001 4228:4.2146001 4233:4.0313001 4288:4.0313001 # seizures/00004557_s02.txt
0.00036904072341791628640919609161131 7:4.2757001 10:4.7031999 16:4.7031999 19:4.2757001 25:4.2757001 30:4.2757001 51:4.2757001 79:4.7031999 245:4.2757001 278:4.2757001 300:4.2757001 314:4.2757001 485:4.2757001 505:4.2757001 535:5.5584002 549:4.2757001 571:4.2757001 600:4.2757001 647:4.2757001 650:4.2757001 680:4.7031999 685:4.2757001 693:4.2757001 711:4.2757001 717:4.2757001 726:4.2757001 738:4.2757001 748:4.2757001 781:4.2757001 787:4.2757001 789:5.1307998 794:4.2757001 810:4.7031999 813:4.2757001 839:4.2757001 899:4.2757001 939:4.7031999 992:4.2757001 1008:4.7031999 1026:4.7031999 1027:4.2757001 1039:4.2757001 1072:4.2757001 1076:5.5584002 1125:4.2757001 1142:4.2757001 1161:4.2757001 1186:4.2757001 1212:4.2757001 1236:4.7031999 1281:4.7031999 1326:4.2757001 1347:4.2757001 1375:4.2757001 1392:4.2757001 1397:4.2757001 1434:4.2757001 1478:4.7031999 1488:4.2757001 1492:4.2757001 1533:7.6961999 1548:4.7031999 1560:4.7031999 1600:4.2757001 1650:4.2757001 1663:4.2757001 1674:4.2757001 1698:4.2757001 1709:4.2757001 1739:4.2757001 1740:4.2757001 1745:4.2757001 1770:4.2757001 1818:4.7031999 1824:4.2757001 1859:4.7031999 1861:4.7031999 1868:4.2757001 1907:4.2757001 1995:4.2757001 2009:4.2757001 2039:4.2757001 2087:4.2757001 2089:4.2757001 2117:4.2757001 2125:4.2757001 2131:5.1307998 2137:4.2757001 2182:4.2757001 2201:4.2757001 2214:4.2757001 2349:4.2757001 2367:4.2757001 2376:4.7031999 2398:4.2757001 2454:4.2757001 2495:4.2757001 2500:4.2757001 2584:4.2757001 2621:4.2757001 2777:4.2757001 2802:4.7031999 2818:5.1307998 2845:4.2757001 2856:4.2757001 2865:4.2757001 2880:4.2757001 2949:6.8411002 2954:4.2757001 2979:5.1307998 2982:4.2757001 2995:4.2757001 3032:4.2757001 3262:4.2757001 3287:4.2757001 3307:4.2757001 3316:4.2757001 3365:4.2757001 3366:4.2757001 3379:4.2757001 3380:4.7031999 3385:4.2757001 3386:4.2757001 3395:6.4134998 3435:4.7031999 3461:4.7031999 3462:4.7031999 3468:5.1307998 3474:4.2757001 3513:5.1307998 3516:4.2757001 3576:5.5584002 3591:4.7031999 3618:4.2757001 3619:4.2757001 3627:4.2757001 3649:4.2757001 3657:4.2757001 3658:4.2757001 3665:4.2757001 3668:4.2757001 3758:4.2757001 3796:4.7031999 3819:4.2757001 3831:4.2757001 3835:4.2757001 3839:5.9858999 3853:5.9858999 3871:4.7031999 3893:5.1307998 3978:4.2757001 3993:4.2757001 4026:4.2757001 4032:4.2757001 4065:4.2757001 4092:4.2757001 4102:4.2757001 4156:4.2757001 4170:4.2757001 4215:5.1307998 4228:4.2757001 4263:4.2757001 4271:4.2757001 # seizures/00010841_s01.txt
0.00030861849635169783965735201824998 7:4.0745001 17:4.0745001 25:4.0745001 30:4.5272002 43:4.0745001 121:4.0745001 145:5.2062998 155:6.7908001 167:4.3007998 174:4.9798999 179:5.4326 208:4.9798999 239:5.8853002 245:4.0745001 259:4.5272002 265:4.0745001 282:4.3007998 285:5.2062998 312:4.0745001 314:4.0745001 317:4.0745001 337:4.0745001 345:4.0745001 348:4.0745001 350:4.0745001 352:4.0745001 354:4.0745001 375:4.0745001 386:4.0745001 505:4.0745001 535:5.8853002 541:4.3007998 571:4.0745001 600:4.5272002 610:4.3007998 625:4.0745001 631:4.0745001 680:4.9798999 732:4.0745001 779:4.7535 781:4.0745001 787:4.0745001 789:4.3007998 811:4.0745001 862:4.0745001 915:4.0745001 930:4.3007998 939:4.5272002 942:5.4326 1026:4.5272002 1034:4.0745001 1072:5.4326 1076:4.0745001 1133:4.3007998 1140:4.3007998 1183:4.5272002 1186:4.5272002 1212:4.3007998 1320:4.5272002 1326:4.7535 1347:4.0745001 1360:4.0745001 1362:4.0745001 1375:4.0745001 1386:4.0745001 1387:4.0745001 1412:4.0745001 1413:4.0745001 1452:4.0745001 1478:4.0745001 1492:4.0745001 1498:4.0745001 1499:4.0745001 1533:5.6589999 1600:4.3007998 1618:4.0745001 1624:4.0745001 1650:4.0745001 1662:4.0745001 1663:6.5644002 1664:4.0745001 1671:4.3007998 1739:4.5272002 1768:4.0745001 1844:4.0745001 1861:4.3007998 1948:4.0745001 1967:4.0745001 1977:4.0745001 1995:4.7535 2015:4.0745001 2027:4.0745001 2091:4.3007998 2097:4.3007998 2125:4.0745001 2137:4.5272002 2140:4.3007998 2164:4.5272002 2182:4.0745001 2194:4.0745001 2287:4.0745001 2299:4.3007998 2314:4.0745001 2318:4.0745001 2322:4.0745001 2339:7.0170999 2343:4.0745001 2348:4.0745001 2367:4.0745001 2368:4.0745001 2398:4.3007998 2406:4.0745001 2407:4.0745001 2422:4.0745001 2475:4.0745001 2484:4.3007998 2495:4.0745001 2571:4.0745001 2592:4.0745001 2611:4.3007998 2621:4.9798999 2626:4.5272002 2628:4.5272002 2633:4.3007998 2649:4.0745001 2652:4.0745001 2675:4.0745001 2712:4.3007998 2766:4.0745001 2774:4.3007998 2790:4.9798999 2802:4.0745001 2810:4.0745001 2845:4.0745001 2851:4.0745001 2852:4.3007998 2855:4.0745001 2875:4.3007998 2880:4.9798999 2881:4.5272002 2935:4.3007998 2937:4.5272002 2949:7.6961999 2954:4.5272002 3020:4.3007998 3064:4.3007998 3068:4.0745001 3200:4.0745001 3206:5.4326 3243:4.0745001 3250:4.0745001 3287:4.9798999 3307:5.4326 3316:4.5272002 3344:4.0745001 3385:4.3007998 3386:4.7535 3395:4.9798999 3415:4.0745001 3426:4.0745001 3435:4.0745001 3453:4.7535 3454:4.0745001 3458:4.3007998 3461:4.0745001 3462:4.5272002 3468:6.1117001 3503:4.0745001 3508:4.0745001 3509:4.0745001 3513:4.3007998 3516:4.5272002 3521:4.0745001 3541:4.0745001 3563:4.0745001 3576:5.4326 3591:4.3007998 3599:4.3007998 3619:4.0745001 3635:4.3007998 3644:4.3007998 3649:4.0745001 3665:4.3007998 3675:4.0745001 3693:4.0745001 3714:4.0745001 3715:4.0745001 3738:4.5272002 3778:4.0745001 3787:4.0745001 3789:4.0745001 3815:4.7535 3846:4.0745001 3853:6.7908001 3893:6.1117001 3927:6.3381 3986:4.0745001 4032:4.3007998 4048:4.0745001 4074:4.0745001 4088:5.2062998 4102:4.0745001 4170:4.0745001 4199:4.0745001 4215:4.7535 4220:4.0745001 4285:4.5272002 # seizures/00005535_s03.txt
0.00045384564011221667978110416719062 16:4.0153999 18:5.3539 25:4.0153999 51:4.3499999 208:4.1827002 259:4.0153999 261:4.5173001 270:4.0153999 271:4.0153999 278:4.0153999 279:4.0153999 282:4.0153999 285:4.0153999 288:4.0153999 300:4.5173001 311:4.0153999 312:4.0153999 316:4.0153999 317:4.0153999 326:4.0153999 337:4.1827002 345:4.0153999 348:4.0153999 388:4.1827002 404:4.5173001 509:4.0153999 511:4.0153999 514:4.0153999 535:4.8520002 600:4.3499999 610:4.0153999 711:4.5173001 717:4.0153999 718:4.0153999 731:4.0153999 748:4.0153999 764:4.0153999 779:4.3499999 780:4.1827002 787:4.0153999 789:4.0153999 810:4.0153999 811:4.1827002 815:4.0153999 821:4.5173001 868:4.0153999 887:4.3499999 899:4.5173001 942:4.3499999 971:4.0153999 1027:4.3499999 1062:4.0153999 1072:4.0153999 1076:5.3539 1126:4.0153999 1167:4.0153999 1183:5.0193 1201:4.3499999 1212:4.8520002 1304:4.0153999 1326:4.5173001 1339:4.0153999 1346:4.1827002 1347:4.6847 1353:4.6847 1356:4.0153999 1384:4.0153999 1397:4.0153999 1424:4.0153999 1434:4.0153999 1443:4.0153999 1453:4.0153999 1488:4.6847 1499:4.1827002 1533:7.6961999 1548:4.3499999 1560:5.0193 1585:4.0153999 1587:4.0153999 1588:4.0153999 1607:4.0153999 1624:5.0193 1663:5.3539 1696:4.0153999 1730:4.0153999 1740:4.0153999 1745:4.1827002 1751:4.1827002 1777:4.0153999 1818:5.0193 1824:4.0153999 1829:4.0153999 1861:4.0153999 1862:4.0153999 1878:4.0153999 1881:4.0153999 1911:4.1827002 1933:4.1827002 1936:4.0153999 1967:4.5173001 1977:4.0153999 1982:4.5173001 1995:4.5173001 2015:4.0153999 2028:4.0153999 2037:4.0153999 2081:4.1827002 2091:4.1827002 2097:4.3499999 2125:4.5173001 2131:4.5173001 2144:4.0153999 2169:4.0153999 2182:4.0153999 2189:4.0153999 2194:4.1827002 2198:4.0153999 2214:4.6847 2339:4.6847 2348:4.0153999 2368:4.0153999 2376:4.0153999 2378:4.0153999 2386:4.0153999 2406:4.0153999 2410:4.1827002 2444:4.0153999 2493:4.0153999 2500:4.0153999 2584:4.0153999 2611:5.8558002 2621:4.1827002 2622:4.3499999 2629:4.0153999 2633:4.0153999 2634:4.1827002 2642:4.1827002 2682:4.0153999 2755:4.1827002 2757:4.0153999 2766:4.3499999 2774:5.1866002 2780:4.0153999 2788:4.0153999 2790:4.5173001 2802:4.0153999 2821:4.8520002 2845:4.5173001 2875:4.1827002 2941:4.3499999 2944:4.0153999 2947:4.0153999 2949:6.6924 2954:4.3499999 2979:4.5173001 3020:4.0153999 3032:4.3499999 3055:4.0153999 3068:4.0153999 3074:4.0153999 3084:4.0153999 3135:4.3499999 3149:4.3499999 3164:4.0153999 3168:4.0153999 3170:4.0153999 3205:4.0153999 3206:4.3499999 3208:4.5173001 3221:4.0153999 3235:4.0153999 3243:4.0153999 3249:4.0153999 3251:4.5173001 3266:4.1827002 3287:5.5212002 3311:4.0153999 3325:4.0153999 3329:4.1827002 3347:4.0153999 3360:4.0153999 3377:4.0153999 3385:4.5173001 3386:4.1827002 3395:5.0193 3411:5.6884999 3440:4.0153999 3453:4.0153999 3458:4.6847 3461:4.0153999 3462:4.0153999 3468:5.5212002 3503:4.1827002 3511:4.0153999 3537:4.0153999 3539:4.0153999 3541:4.1827002 3543:4.0153999 3576:6.0230999 3580:4.0153999 3585:4.0153999 3591:5.3539 3605:4.0153999 3618:4.0153999 3635:4.0153999 3644:4.0153999 3649:4.6847 3663:4.0153999 3665:4.8520002 3668:4.3499999 3672:4.0153999 3702:4.5173001 3713:4.0153999 3743:4.0153999 3749:4.0153999 3787:4.1827002 3796:4.3499999 3815:4.0153999 3821:4.0153999 3832:4.0153999 3835:4.0153999 3846:4.0153999 3861:4.0153999 3912:4.1827002 3927:4.1827002 3978:4.1827002 3992:4.0153999 4021:4.0153999 4030:4.0153999 4032:4.5173001 4037:4.1827002 4072:4.3499999 4102:4.5173001 4161:4.5173001 4170:5.1866002 4199:5.1866002 4215:4.6847 4227:4.0153999 4232:4.0153999 4233:4.0153999 4263:4.1827002 # seizures/00001732_s05.txt
-0.00045384564011221667978110416719062 7:3.9122 13:3.9122 15:4.0405002 16:3.9122 17:3.9122 30:3.9122 43:4.2329001 51:3.9763999 58:3.9122 79:4.2329001 100:4.1687999 109:3.9122 145:3.9122 155:3.9122 167:3.9122 179:3.9763999 199:4.0405002 207:3.9122 234:4.1687999 239:3.9122 246:3.9122 247:3.9122 254:3.9763999 255:4.1046 258:4.1687999 259:4.1046 264:3.9763999 265:3.9122 270:3.9122 278:3.9763999 282:3.9763999 285:3.9122 291:3.9122 298:3.9122 305:3.9122 317:3.9122 318:3.9122 323:3.9763999 324:3.9122 328:3.9122 346:4.0405002 351:4.0405002 352:3.9122 358:3.9763999 375:3.9763999 383:4.0405002 384:3.9122 388:4.0405002 393:3.9122 396:4.0405002 404:3.9122 416:3.9122 468:3.9122 505:3.9122 509:3.9122 535:4.2329001 549:4.2329001 551:3.9122 571:4.1687999 600:4.3611999 625:3.9122 647:4.3611999 650:3.9122 680:3.9122 685:3.9122 687:3.9122 701:3.9763999 702:3.9763999 718:3.9122 726:3.9122 732:4.0405002 738:3.9122 779:4.0405002 781:4.0405002 789:3.9763999 810:3.9122 819:3.9122 839:3.9763999 844:3.9122 862:3.9763999 868:4.0405002 899:4.0405002 915:4.2329001 916:3.9122 939:3.9122 942:4.1046 1027:3.9122 1032:3.9763999 1034:3.9122 1039:3.9763999 1041:3.9122 1076:3.9763999 1124:3.9122 1132:3.9763999 1140:3.9122 1158:3.9122 1161:3.9122 1164:3.9122 1167:3.9122 1175:3.9122 1183:4.3611999 1199:3.9763999 1212:3.9122 1281:3.9122 1283:3.9122 1285:3.9122 1289:3.9122 1310:3.9122 1326:3.9122 1346:4.1046 1347:4.0405002 1356:3.9122 1384:3.9122 1397:3.9122 1413:4.3611999 1414:3.9763999 1424:3.9122 1425:3.9122 1434:4.0405002 1440:4.0405002 1467:3.9122 1478:4.1687999 1486:3.9122 1488:3.9122 1492:3.9122 1498:3.9122 1499:4.1046 1516:3.9122 1533:4.2971001 1548:3.9122 1560:4.1046 1566:3.9122 1624:4.0405002 1630:3.9122 1662:3.9122 1663:3.9122 1671:3.9122 1679:3.9122 1693:3.9122 1730:3.9122 1740:3.9122 1770:3.9122 1776:3.9763999 1788:3.9122 1818:4.0405002 1833:3.9122 1861:3.9763999 1936:3.9122 1947:3.9122 1964:4.0405002 1982:4.0405002 1988:3.9122 2013:3.9122 2026:3.9122 2034:3.9122 2037:4.0405002 2038:3.9122 2087:3.9122 2089:3.9122 2091:3.9122 2104:3.9122 2125:3.9122 2126:3.9122 2131:4.0405002 2137:3.9763999 2144:3.9122 2159:3.9122 2164:4.0405002 2194:4.4253001 2214:4.0405002 2273:3.9122 2280:3.9122 2318:3.9763999 2320:3.9122 2334:3.9122 2335:3.9122 2339:4.1687999 2355:3.9122 2386:3.9122 2403:4.0405002 2406:3.9122 2441:3.9122 2452:3.9122 2458:3.9122 2484:3.9122 2490:3.9122 2495:3.9122 2500:3.9122 2522:3.9122 2546:3.9763999 2584:4.0405002 2611:4.1687999 2621:4.1687999 2622:4.1046 2642:3.9763999 2649:3.9763999 2676:3.9122 2712:4.0405002 2722:4.0405002 2755:3.9122 2766:3.9122 2774:5.1949 2780:3.9122 2790:4.2971001 2810:3.9122 2812:4.6819 2829:3.9122 2845:4.1687999 2852:3.9763999 2861:3.9122 2875:3.9122 2885:3.9122 2936:3.9122 2937:4.0405002 2949:6.0286999 2954:4.1687999 2975:3.9122 2979:4.0405002 3005:3.9763999 3020:3.9763999 3030:3.9122 3032:3.9763999 3048:3.9122 3074:4.0405002 3077:3.9122 3120:3.9122 3131:3.9122 3164:3.9122 3168:3.9122 3170:3.9763999 3187:3.9122 3206:4.1046 3208:3.9763999 3218:3.9763999 3227:3.9122 3235:3.9122 3251:4.0405002 3274:3.9122 3279:4.0405002 3280:4.0405002 3287:4.8101001 3291:3.9122 3292:3.9763999 3307:4.3611999 3313:3.9122 3329:3.9122 3333:3.9122 3343:3.9763999 3344:3.9122 3347:3.9122 3350:3.9122 3353:3.9122 3360:3.9122 3380:3.9122 3385:4.1687999 3386:3.9122 3395:4.9383998 3406:3.9122 3435:3.9763999 3458:4.1687999 3460:3.9122 3461:4.2329001 3466:3.9122 3468:7.6961999 3492:3.9122 3494:4.3611999 3513:3.9122 3543:3.9763999 3548:3.9763999 3576:4.6819 3585:3.9122 3591:4.1687999 3599:3.9122 3642:3.9122 3644:4.2329001 3649:3.9122 3654:3.9122 3658:3.9763999 3665:4.0405002 3668:3.9763999 3672:3.9763999 3693:3.9763999 3702:3.9763999 3720:3.9122 3729:3.9122 3734:4.0405002 3738:4.1046 3762:3.9122 3787:3.9763999 3789:3.9122 3796:3.9763999 3853:3.9122 3868:3.9763999 3871:3.9122 3893:3.9763999 3927:4.1687999 3978:3.9122 4032:4.0405002 4056:3.9763999 4072:4.0405002 4084:3.9763999 4088:4.0405002 4102:4.0405002 4106:3.9122 4116:3.9763999 4155:3.9122 4156:4.1046 4161:3.9763999 4170:4.1046 4181:4.1687999 4192:3.9122 4193:3.9122 4199:3.9122 4202:3.9763999 4215:4.1687999 4219:3.9763999 4228:3.9763999 4229:4.1046 4232:3.9763999 # none/00006642_s04.txt
-0.00045384564011221667978110416719062 10:4.0745001 16:4.7535 17:4.0745001 18:4.3007998 19:4.9798999 30:4.3007998 43:4.7535 51:4.0745001 133:4.0745001 145:4.0745001 155:5.2062998 208:4.3007998 229:4.3007998 259:4.0745001 265:4.5272002 270:4.3007998 278:4.3007998 300:4.0745001 323:4.0745001 324:4.3007998 326:4.3007998 337:4.0745001 342:4.9798999 349:4.0745001 352:4.0745001 354:4.0745001 379:4.0745001 394:4.3007998 404:4.0745001 505:4.0745001 535:5.6589999 561:4.0745001 571:4.0745001 610:4.0745001 631:4.3007998 647:4.3007998 651:4.0745001 680:5.2062998 704:4.5272002 711:4.5272002 726:4.3007998 755:4.0745001 768:4.5272002 781:4.0745001 787:4.3007998 789:5.8853002 811:4.0745001 815:4.0745001 821:4.3007998 893:4.3007998 899:4.3007998 932:4.0745001 965:4.0745001 973:4.0745001 1026:4.0745001 1027:4.3007998 1072:4.0745001 1073:4.0745001 1076:4.5272002 1124:4.5272002 1133:4.0745001 1134:4.0745001 1140:4.7535 1152:4.0745001 1183:4.7535 1212:4.5272002 1238:4.0745001 1281:4.0745001 1285:4.0745001 1301:4.3007998 1305:4.0745001 1311:4.0745001 1320:4.9798999 1326:6.1117001 1347:4.3007998 1356:4.0745001 1357:4.0745001 1375:4.0745001 1397:4.0745001 1421:4.0745001 1484:4.0745001 1488:4.3007998 1492:4.0745001 1499:4.5272002 1533:5.8853002 1543:4.0745001 1548:4.9798999 1560:4.7535 1581:4.0745001 1588:4.0745001 1600:4.0745001 1607:4.0745001 1618:4.0745001 1624:4.5272002 1662:4.0745001 1666:4.0745001 1671:4.0745001 1707:4.0745001 1724:4.0745001 1732:4.5272002 1745:4.0745001 1775:4.0745001 1783:4.0745001 1818:4.9798999 1824:4.0745001 1844:4.0745001 1861:4.0745001 1878:4.0745001 1897:4.0745001 1933:4.0745001 1965:4.0745001 1967:4.0745001 1980:4.0745001 1995:4.0745001 2008:4.0745001 2015:4.3007998 2037:4.0745001 2039:4.3007998 2064:4.0745001 2081:4.0745001 2087:4.3007998 2091:4.3007998 2097:4.0745001 2125:4.3007998 2126:4.0745001 2131:5.6589999 2134:4.0745001 2145:4.3007998 2182:4.0745001 2194:4.3007998 2214:4.3007998 2262:4.0745001 2270:4.3007998 2273:4.0745001 2320:4.0745001 2322:4.0745001 2339:6.3381 2367:4.0745001 2376:4.0745001 2403:4.0745001 2406:4.3007998 2420:4.0745001 2433:4.0745001 2444:4.0745001 2455:4.0745001 2459:4.0745001 2484:4.0745001 2500:4.0745001 2515:4.3007998 2601:4.0745001 2611:4.9798999 2621:4.3007998 2627:4.3007998 2633:4.3007998 2634:4.0745001 2638:4.0745001 2642:4.7535 2675:4.0745001 2734:4.0745001 2776:4.0745001 2790:4.7535 2802:5.8853002 2809:4.3007998 2810:4.0745001 2818:4.5272002 2838:4.0745001 2845:4.5272002 2855:4.0745001 2865:4.3007998 2880:4.0745001 2881:4.0745001 2936:4.0745001 2937:4.5272002 2949:7.6961999 2954:4.5272002 2979:4.3007998 3007:4.3007998 3031:4.0745001 3032:4.3007998 3064:5.2062998 3067:4.0745001 3078:4.3007998 3131:4.0745001 3135:4.0745001 3164:4.0745001 3170:4.3007998 3206:4.0745001 3227:4.0745001 3243:4.3007998 3285:4.3007998 3287:7.0170999 3307:5.2062998 3316:4.0745001 3344:4.7535 3349:4.0745001 3366:4.0745001 3376:4.0745001 3380:4.5272002 3386:5.2062998 3395:4.3007998 3415:4.7535 3435:4.0745001 3458:4.5272002 3461:4.7535 3462:4.5272002 3468:7.6961999 3488:4.3007998 3513:5.8853002 3536:4.0745001 3563:4.3007998 3576:6.1117001 3585:4.0745001 3591:6.5644002 3597:4.0745001 3613:4.0745001 3618:4.0745001 3627:4.0745001 3635:4.3007998 3639:4.0745001 3642:4.0745001 3644:4.7535 3649:4.0745001 3658:4.0745001 3665:4.3007998 3668:4.3007998 3672:4.3007998 3702:4.0745001 3796:4.3007998 3807:4.0745001 3815:4.3007998 3831:4.0745001 3833:4.3007998 3845:4.0745001 3850:4.0745001 3853:6.3381 3868:4.0745001 3871:4.0745001 3893:4.7535 3927:5.6589999 3933:4.3007998 3971:4.0745001 3978:4.3007998 3986:4.5272002 4026:4.0745001 4072:4.0745001 4084:4.0745001 4088:4.0745001 4102:4.5272002 4161:4.0745001 4170:4.7535 4188:4.3007998 4199:5.2062998 4215:6.5644002 4228:4.7535 4233:4.5272002 4242:4.0745001 4263:4.3007998 4279:4.0745001 # none/00000303_s02.txt
-0.00045384564011221667978110416719062 10:4.1978998 27:4.1978998 30:4.5478001 43:4.1978998 51:4.1978998 100:4.8976002 145:4.1978998 208:4.1978998 232:4.5478001 239:4.1978998 255:4.1978998 259:4.5478001 285:4.1978998 300:4.1978998 354:4.1978998 375:4.1978998 394:4.1978998 468:4.1978998 505:4.1978998 535:5.2473998 571:4.1978998 631:5.9471002 651:4.1978998 680:4.1978998 701:4.1978998 705:4.1978998 711:4.1978998 726:4.5478001 764:4.8976002 789:5.2473998 810:4.1978998 813:4.1978998 839:5.2473998 868:4.1978998 893:4.1978998 899:4.1978998 932:4.5478001 939:4.5478001 942:4.1978998 943:4.5478001 965:4.1978998 1008:4.1978998 1027:4.1978998 1072:4.1978998 1076:6.2968998 1082:4.1978998 1140:4.5478001 1212:4.8976002 1285:4.1978998 1320:4.8976002 1326:4.1978998 1347:4.5478001 1360:4.1978998 1385:4.1978998 1386:4.5478001 1392:4.5478001 1397:4.1978998 1499:4.5478001 1533:6.6466999 1548:4.1978998 1560:4.1978998 1624:4.1978998 1630:4.1978998 1663:5.2473998 1672:4.1978998 1745:4.1978998 1777:4.1978998 1783:4.1978998 1818:4.5478001 1834:4.1978998 1861:4.1978998 1862:4.5478001 1904:4.1978998 1991:4.1978998 1995:5.9471002 2015:6.2968998 2039:4.1978998 2068:4.1978998 2089:4.1978998 2091:4.1978998 2125:4.1978998 2131:4.8976002 2214:4.5478001 2230:4.1978998 2240:4.1978998 2251:4.1978998 2262:5.5971999 2339:7.6961999 2380:4.1978998 2382:4.1978998 2386:4.1978998 2403:4.5478001 2410:4.1978998 2415:4.1978998 2436:4.1978998 2449:4.1978998 2458:4.1978998 2500:4.1978998 2611:5.2473998 2621:4.5478001 2633:4.1978998 2642:4.1978998 2660:4.1978998 2774:4.8976002 2802:4.5478001 2810:4.1978998 2930:5.5971999 2941:4.5478001 2949:5.5971999 2954:4.5478001 2979:4.8976002 3005:4.1978998 3010:4.1978998 3054:4.1978998 3074:4.5478001 3084:4.1978998 3102:4.1978998 3135:4.8976002 3142:4.1978998 3149:4.1978998 3155:4.1978998 3168:4.5478001 3183:4.1978998 3206:4.1978998 3287:5.9471002 3307:4.1978998 3316:4.1978998 3327:4.1978998 3329:4.5478001 3347:4.5478001 3349:4.1978998 3386:4.5478001 3395:5.9471002 3436:4.1978998 3458:5.2473998 3461:4.5478001 3462:4.8976002 3468:4.5478001 3503:4.5478001 3513:4.5478001 3543:4.5478001 3547:4.1978998 3576:4.8976002 3591:5.9471002 3618:4.1978998 3619:4.1978998 3644:5.5971999 3649:4.1978998 3695:4.1978998 3758:4.1978998 3762:4.1978998 3790:4.1978998 3796:4.1978998 3853:4.8976002 3868:4.5478001 3893:4.8976002 3908:4.1978998 3927:4.5478001 3954:4.1978998 4026:4.1978998 4043:4.1978998 4068:4.1978998 4071:4.1978998 4072:4.1978998 4102:4.1978998 4170:5.5971999 4199:4.1978998 4215:5.5971999 4263:4.8976002 # none/00001731_s05.txt
-0.00045384564011221667978110416719062 10:5.2911 15:5.7722001 19:4.3291001 51:4.3291001 100:6.2532001 121:4.3291001 133:4.8101001 145:4.3291001 167:5.7722001 239:4.3291001 245:4.3291001 261:4.3291001 300:4.8101001 312:4.3291001 383:4.3291001 440:4.3291001 443:4.3291001 510:4.3291001 527:4.3291001 535:6.7342 549:4.3291001 600:4.3291001 610:4.3291001 625:4.8101001 680:4.8101001 711:4.3291001 726:4.3291001 752:4.3291001 779:5.7722001 788:4.3291001 789:6.2532001 813:4.3291001 821:4.3291001 839:5.7722001 887:4.3291001 899:4.3291001 1021:4.3291001 1026:4.8101001 1027:4.3291001 1032:4.3291001 1076:4.3291001 1134:4.3291001 1143:4.3291001 1305:4.3291001 1326:4.8101001 1353:4.3291001 1392:4.3291001 1434:4.3291001 1452:4.3291001 1453:4.3291001 1488:4.3291001 1499:4.3291001 1516:4.3291001 1533:7.2151999 1548:4.3291001 1560:4.8101001 1600:4.3291001 1607:4.3291001 1624:4.3291001 1663:7.2151999 1698:4.3291001 1745:4.3291001 1824:4.3291001 1878:4.3291001 1883:4.3291001 1904:5.2911 1907:5.7722001 1977:4.3291001 1979:4.3291001 2039:4.3291001 2081:4.3291001 2091:4.3291001 2097:4.3291001 2111:4.3291001 2125:4.3291001 2145:4.3291001 2164:4.3291001 2198:4.3291001 2214:4.3291001 2280:4.3291001 2322:4.3291001 2339:4.8101001 2376:4.3291001 2402:4.3291001 2406:4.8101001 2428:4.3291001 2500:4.3291001 2584:4.3291001 2611:4.8101001 2629:5.2911 2737:4.3291001 2743:4.3291001 2766:5.2911 2774:4.3291001 2790:5.2911 2818:4.3291001 2845:4.8101001 2852:4.3291001 2861:4.3291001 2865:4.8101001 2880:4.3291001 2949:6.2532001 2954:5.2911 2979:4.3291001 2982:4.3291001 2999:4.3291001 3020:4.8101001 3032:4.3291001 3047:4.3291001 3064:6.2532001 3074:4.3291001 3078:4.3291001 3135:4.3291001 3147:4.3291001 3149:4.3291001 3243:5.2911 3287:6.7342 3307:4.3291001 3327:4.3291001 3329:4.3291001 3347:4.3291001 3367:4.3291001 3373:4.3291001 3385:4.8101001 3411:4.3291001 3458:4.8101001 3468:5.2911 3511:5.2911 3531:4.3291001 3536:4.8101001 3543:4.3291001 3576:6.7342 3591:4.8101001 3599:4.3291001 3604:4.3291001 3619:4.3291001 3649:4.3291001 3665:4.8101001 3668:4.3291001 3672:4.3291001 3702:4.3291001 3796:5.2911 3815:4.3291001 3831:4.3291001 3833:4.3291001 3835:4.3291001 3853:4.3291001 3893:4.3291001 3913:4.3291001 3927:7.6961999 4026:4.3291001 4048:4.3291001 4065:4.3291001 4078:4.8101001 4084:4.8101001 4088:4.8101001 4102:4.3291001 4123:4.3291001 4155:4.3291001 4161:4.3291001 4170:4.8101001 4187:4.3291001 4190:4.3291001 4199:6.2532001 4215:4.3291001 4228:4.8101001 4271:4.3291001 # none/00010189_s01.txt
-0.00045384564011221667978110416719062 7:4.0313001 13:4.3978 18:4.0313001 30:4.0313001 43:4.2146001 51:4.2146001 61:4.0313001 62:4.0313001 63:4.0313001 75:4.0313001 79:4.0313001 121:4.0313001 208:4.0313001 224:4.2146001 240:4.0313001 247:4.0313001 265:4.0313001 272:4.0313001 282:4.0313001 314:4.2146001 337:4.2146001 358:4.0313001 384:4.0313001 394:4.2146001 395:4.7642999 396:4.0313001 404:4.0313001 439:4.0313001 468:4.0313001 505:4.0313001 519:4.0313001 535:5.3140998 571:4.2146001 581:4.0313001 582:4.0313001 589:4.0313001 596:4.0313001 600:4.0313001 610:4.3978 625:4.7642999 631:4.9475999 651:5.4973001 678:4.0313001 680:4.0313001 687:4.5811 700:4.3978 702:4.0313001 705:4.0313001 711:4.7642999 718:4.0313001 752:4.2146001 768:4.0313001 779:4.2146001 781:4.0313001 789:4.7642999 790:4.0313001 810:4.3978 818:4.0313001 819:4.0313001 821:4.2146001 899:4.0313001 928:4.0313001 942:4.0313001 1008:4.3978 1027:4.2146001 1032:4.0313001 1033:4.0313001 1034:4.0313001 1072:4.5811 1076:4.3978 1089:4.0313001 1129:4.0313001 1132:4.0313001 1136:4.0313001 1140:4.5811 1183:4.3978 1191:4.3978 1212:4.0313001 1224:4.0313001 1266:4.0313001 1278:4.0313001 1285:4.0313001 1318:4.0313001 1320:4.0313001 1333:4.2146001 1344:4.0313001 1347:4.3978 1349:4.0313001 1352:4.0313001 1353:4.2146001 1357:4.0313001 1375:4.0313001 1387:4.0313001 1388:4.0313001 1392:4.0313001 1397:4.2146001 1421:4.0313001 1453:4.3978 1488:4.9475999 1492:4.0313001 1499:4.0313001 1500:4.0313001 1516:4.0313001 1533:5.4973001 1534:4.0313001 1535:4.0313001 1541:4.0313001 1542:4.2146001 1548:4.2146001 1560:4.2146001 1566:4.0313001 1581:4.0313001 1608:4.0313001 1618:4.0313001 1624:4.0313001 1633:4.0313001 1651:4.0313001 1662:4.0313001 1663:4.2146001 1671:4.0313001 1672:4.0313001 1686:4.0313001 1693:4.0313001 1700:4.0313001 1720:4.0313001 1722:4.3978 1724:4.0313001 1745:4.0313001 1769:4.0313001 1770:4.3978 1775:4.2146001 1783:4.2146001 1818:4.9475999 1824:4.3978 1861:4.0313001 1862:4.0313001 1878:4.0313001 1907:4.2146001 1977:4.3978 1995:4.2146001 2015:4.0313001 2018:4.3978 2037:4.0313001 2039:4.0313001 2081:4.3978 2089:4.0313001 2091:5.1307998 2094:4.0313001 2097:5.1307998 2124:4.0313001 2126:4.0313001 2131:4.0313001 2163:4.0313001 2164:4.3978 2194:4.2146001 2214:4.2146001 2220:4.2146001 2236:4.0313001 2255:4.0313001 2277:4.0313001 2322:4.3978 2332:4.0313001 2338:4.0313001 2339:6.9632001 2348:4.0313001 2353:4.2146001 2398:4.0313001 2406:4.7642999 2410:4.0313001 2422:4.0313001 2428:4.2146001 2468:4.0313001 2470:4.0313001 2495:4.0313001 2500:4.7642999 2554:4.0313001 2557:4.0313001 2584:4.0313001 2592:4.0313001 2611:4.7642999 2621:5.1307998 2622:4.2146001 2627:4.0313001 2629:4.0313001 2631:4.0313001 2633:4.5811 2634:4.9475999 2652:4.3978 2713:4.0313001 2722:4.0313001 2733:4.0313001 2774:4.0313001 2801:4.0313001 2802:4.0313001 2809:4.2146001 2810:4.2146001 2816:4.0313001 2818:4.0313001 2821:4.2146001 2845:4.2146001 2852:4.0313001 2864:4.0313001 2865:4.2146001 2875:4.3978 2880:4.0313001 2891:4.0313001 2904:4.0313001 2935:4.0313001 2937:4.0313001 2949:5.1307998 2954:4.3978 2979:4.2146001 2982:4.0313001 2992:4.0313001 2995:4.2146001 3007:4.3978 3015:4.0313001 3032:4.2146001 3047:4.0313001 3064:4.3978 3067:4.0313001 3074:4.3978 3078:4.2146001 3132:4.0313001 3135:4.2146001 3206:4.0313001 3243:4.7642999 3250:4.5811 3253:4.0313001 3257:4.3978 3266:4.3978 3287:6.7800002 3300:4.0313001 3307:4.9475999 3316:4.0313001 3347:4.5811 3360:4.0313001 3379:4.2146001 3384:4.0313001 3385:4.5811 3386:4.9475999 3395:5.1307998 3423:4.0313001 3424:4.0313001 3426:4.0313001 3435:4.0313001 3436:4.0313001 3453:4.9475999 3458:4.7642999 3460:4.0313001 3461:4.5811 3462:5.1307998 3465:4.0313001 3467:4.0313001 3468:7.6961999 3470:4.0313001 3513:5.6805 3531:4.2146001 3536:4.2146001 3543:4.9475999 3556:4.0313001 3573:4.0313001 3576:7.1465001 3591:6.2302999 3599:4.0313001 3619:4.0313001 3644:4.5811 3649:4.2146001 3658:4.7642999 3665:5.1307998 3668:4.2146001 3672:4.2146001 3675:4.2146001 3693:4.0313001 3702:4.0313001 3738:4.0313001 3749:4.0313001 3787:4.5811 3796:4.2146001 3804:4.2146001 3830:4.0313001 3853:6.4134998 3873:4.0313001 3893:4.5811 3900:4.0313001 3921:4.0313001 3926:4.0313001 3927:4.3978 3951:4.2146001 3962:4.0313001 4017:4.3978 4025:4.2146001 4026:4.2146001 4072:4.2146001 4083:4.0313001 4088:4.0313001 4102:4.0313001 4103:4.0313001 4161:4.2146001 4170:4.3978 4190:4.0313001 4196:4.3978 4198:4.2146001 4199:6.0469999 4215:6.7800002 4220:4.0313001 4228:4.5811 4246:4.0313001 4293:4.0313001 4297:4.0313001 4313:4.0313001 # none/00005914_s01.txt
0.00045384564011221667978110416719062 51:4.6177001 208:4.6177001 337:4.6177001 505:5.3873 509:4.6177001 535:5.3873 549:4.6177001 631:4.6177001 651:5.3873 726:4.6177001 752:6.1570001 789:6.1570001 813:4.6177001 815:4.6177001 839:4.6177001 903:4.6177001 939:6.1570001 1072:4.6177001 1076:4.6177001 1119:4.6177001 1175:6.1570001 1212:6.1570001 1216:4.6177001 1333:4.6177001 1347:4.6177001 1387:4.6177001 1388:6.1570001 1392:4.6177001 1413:5.3873 1453:4.6177001 1492:4.6177001 1499:6.1570001 1506:4.6177001 1533:6.9266 1548:4.6177001 1560:5.3873 1586:5.3873 1648:4.6177001 1668:4.6177001 1675:5.3873 1707:4.6177001 1777:4.6177001 1861:4.6177001 1878:4.6177001 1904:5.3873 2077:4.6177001 2081:4.6177001 2125:4.6177001 2126:4.6177001 2159:4.6177001 2166:4.6177001 2194:4.6177001 2195:4.6177001 2214:4.6177001 2230:4.6177001 2433:4.6177001 2481:4.6177001 2500:4.6177001 2552:5.3873 2652:6.1570001 2661:7.6961999 2755:4.6177001 2781:4.6177001 2856:4.6177001 2949:5.3873 2979:4.6177001 3032:4.6177001 3054:5.3873 3055:4.6177001 3074:4.6177001 3142:4.6177001 3153:4.6177001 3161:4.6177001 3276:4.6177001 3287:6.9266 3378:4.6177001 3385:4.6177001 3460:4.6177001 3462:6.1570001 3468:4.6177001 3504:4.6177001 3509:4.6177001 3558:4.6177001 3591:6.1570001 3618:5.3873 3627:4.6177001 3644:4.6177001 3668:4.6177001 3695:5.3873 3696:5.3873 3720:4.6177001 3749:4.6177001 3764:4.6177001 3796:4.6177001 3835:4.6177001 3853:4.6177001 3927:4.6177001 4025:4.6177001 4102:4.6177001 4129:5.3873 4170:5.3873 4215:4.6177001 # seizures/00004976_s02.txt
0.00045384564011221667978110416719062 51:4.6177001 53:4.6177001 200:4.6177001 208:4.6177001 505:5.3873 535:5.3873 549:4.6177001 610:4.6177001 631:4.6177001 651:4.6177001 680:5.3873 692:4.6177001 699:4.6177001 738:4.6177001 813:4.6177001 839:4.6177001 1018:5.3873 1026:4.6177001 1072:5.3873 1076:5.3873 1135:4.6177001 1175:4.6177001 1183:5.3873 1212:5.3873 1347:4.6177001 1374:4.6177001 1387:4.6177001 1388:5.3873 1392:4.6177001 1413:5.3873 1453:4.6177001 1492:4.6177001 1499:4.6177001 1506:5.3873 1533:7.6961999 1548:4.6177001 1560:5.3873 1618:4.6177001 1624:4.6177001 1658:4.6177001 1668:5.3873 1672:4.6177001 1709:4.6177001 1818:5.3873 1878:4.6177001 1904:5.3873 2000:4.6177001 2081:5.3873 2125:4.6177001 2214:4.6177001 2280:4.6177001 2318:4.6177001 2322:4.6177001 2347:4.6177001 2350:4.6177001 2398:4.6177001 2447:4.6177001 2500:4.6177001 2520:4.6177001 2552:4.6177001 2634:4.6177001 2750:4.6177001 2755:4.6177001 2766:4.6177001 2856:4.6177001 2949:4.6177001 2979:6.9266 2982:4.6177001 3032:4.6177001 3042:5.3873 3067:4.6177001 3074:6.9266 3153:5.3873 3218:6.1570001 3276:4.6177001 3287:5.3873 3306:4.6177001 3307:5.3873 3316:4.6177001 3385:4.6177001 3386:4.6177001 3395:5.3873 3462:6.9266 3468:6.1570001 3576:4.6177001 3591:6.1570001 3668:4.6177001 3679:4.6177001 3720:4.6177001 3796:4.6177001 3833:4.6177001 3835:4.6177001 3853:4.6177001 3871:4.6177001 3927:4.6177001 4016:4.6177001 4078:4.6177001 4102:4.6177001 4157:4.6177001 4170:5.3873 4176:4.6177001 4215:5.3873 # seizures/00000743_s05.txt
0.00045384564011221667978110416719062 51:4.2329001 200:4.2329001 208:4.2329001 209:4.2329001 218:4.2329001 369:4.2329001 505:4.6177001 535:4.6177001 543:4.2329001 549:4.6177001 631:5.0025001 651:4.2329001 680:4.6177001 711:4.2329001 837:4.2329001 839:4.2329001 939:4.2329001 1008:5.0025001 1018:4.2329001 1026:4.2329001 1076:4.6177001 1124:4.2329001 1165:4.2329001 1175:5.0025001 1183:5.0025001 1212:4.6177001 1301:4.2329001 1347:4.2329001 1366:4.2329001 1387:4.2329001 1388:4.6177001 1392:4.2329001 1413:4.6177001 1453:4.2329001 1492:4.6177001 1499:4.6177001 1506:4.6177001 1533:5.0025001 1537:4.2329001 1548:4.2329001 1560:4.6177001 1566:5.0025001 1624:4.2329001 1658:4.2329001 1668:4.6177001 1672:4.2329001 1709:4.2329001 1818:4.6177001 1861:4.2329001 1868:5.3873 1876:4.2329001 1904:4.6177001 1961:4.2329001 2045:4.2329001 2081:5.3873 2125:4.2329001 2137:4.2329001 2159:4.2329001 2175:4.2329001 2214:4.2329001 2230:4.2329001 2280:4.2329001 2289:4.2329001 2299:4.2329001 2322:4.2329001 2331:4.2329001 2350:4.2329001 2415:4.2329001 2473:4.2329001 2500:4.6177001 2520:4.2329001 2584:4.2329001 2634:4.2329001 2656:4.6177001 2760:4.2329001 2766:4.2329001 2845:5.0025001 2856:4.6177001 2936:4.2329001 2949:4.6177001 2979:5.0025001 2982:4.2329001 3032:4.2329001 3042:5.0025001 3048:4.2329001 3074:4.2329001 3153:4.6177001 3263:4.2329001 3266:4.2329001 3276:4.2329001 3287:7.6961999 3306:4.2329001 3307:4.6177001 3378:4.2329001 3385:4.2329001 3386:4.6177001 3395:5.0025001 3453:4.2329001 3462:5.7722001 3468:5.3873 3513:4.2329001 3556:4.6177001 3591:5.3873 3668:4.2329001 3679:4.2329001 3716:4.2329001 3720:4.2329001 3796:4.2329001 3835:4.2329001 3853:4.2329001 3913:5.0025001 3927:4.2329001 4102:4.2329001 4170:4.6177001 4199:4.6177001 4215:5.3873 # seizures/00002330_s01.txt
0.00045384564011221667978110416719062 51:4.6177001 208:4.6177001 434:4.6177001 505:5.3873 509:4.6177001 521:4.6177001 535:4.6177001 549:5.3873 610:4.6177001 612:4.6177001 631:4.6177001 651:4.6177001 678:4.6177001 692:4.6177001 699:4.6177001 752:4.6177001 789:4.6177001 798:4.6177001 813:4.6177001 839:4.6177001 1018:4.6177001 1026:4.6177001 1072:5.3873 1076:5.3873 1119:4.6177001 1175:5.3873 1183:4.6177001 1212:5.3873 1216:4.6177001 1347:5.3873 1387:4.6177001 1388:5.3873 1392:4.6177001 1397:4.6177001 1413:6.1570001 1453:4.6177001 1492:5.3873 1499:4.6177001 1506:4.6177001 1513:4.6177001 1533:6.1570001 1537:4.6177001 1548:4.6177001 1560:5.3873 1624:4.6177001 1658:4.6177001 1668:4.6177001 1818:6.9266 1834:4.6177001 1861:4.6177001 1868:5.3873 1878:4.6177001 1904:5.3873 1910:4.6177001 1997:4.6177001 2081:5.3873 2125:4.6177001 2166:4.6177001 2194:4.6177001 2214:4.6177001 2280:4.6177001 2322:4.6177001 2339:5.3873 2500:5.3873 2552:4.6177001 2563:4.6177001 2629:6.1570001 2724:4.6177001 2755:4.6177001 2760:4.6177001 2766:4.6177001 2856:4.6177001 2936:4.6177001 2949:5.3873 2979:5.3873 2982:5.3873 3032:4.6177001 3042:6.1570001 3074:4.6177001 3153:4.6177001 3276:4.6177001 3287:6.9266 3306:4.6177001 3307:4.6177001 3349:4.6177001 3378:4.6177001 3385:4.6177001 3395:5.3873 3461:4.6177001 3462:5.3873 3468:7.6961999 3513:4.6177001 3530:5.3873 3558:4.6177001 3576:4.6177001 3591:6.1570001 3668:4.6177001 3695:5.3873 3720:4.6177001 3723:4.6177001 3796:4.6177001 3835:4.6177001 3853:4.6177001 4025:5.3873 4102:4.6177001 4170:4.6177001 4215:6.9266 # seizures/00002276_s01.txt
-0.00045384564011221667978110416719062 51:4.8101001 109:4.8101001 200:4.8101001 213:4.8101001 505:5.7722001 535:4.8101001 549:4.8101001 600:4.8101001 631:5.7722001 651:4.8101001 655:4.8101001 711:4.8101001 738:4.8101001 789:5.7722001 815:4.8101001 839:6.7342 939:5.7722001 1008:4.8101001 1018:4.8101001 1072:4.8101001 1076:4.8101001 1175:4.8101001 1212:4.8101001 1320:4.8101001 1347:4.8101001 1387:4.8101001 1388:4.8101001 1413:6.7342 1453:4.8101001 1492:5.7722001 1506:4.8101001 1533:5.7722001 1537:4.8101001 1548:4.8101001 1560:5.7722001 1564:4.8101001 1624:4.8101001 1658:4.8101001 1668:4.8101001 1861:4.8101001 1862:4.8101001 1878:4.8101001 1904:5.7722001 1982:4.8101001 2081:4.8101001 2125:4.8101001 2195:4.8101001 2214:4.8101001 2318:4.8101001 2331:4.8101001 2415:4.8101001 2428:4.8101001 2470:4.8101001 2500:5.7722001 2552:4.8101001 2602:4.8101001 2755:4.8101001 2760:4.8101001 2856:4.8101001 2875:4.8101001 2880:4.8101001 2881:4.8101001 2936:4.8101001 2949:4.8101001 2979:5.7722001 3032:4.8101001 3074:4.8101001 3103:4.8101001 3153:4.8101001 3251:4.8101001 3276:4.8101001 3287:6.7342 3306:4.8101001 3378:4.8101001 3385:4.8101001 3421:4.8101001 3427:4.8101001 3453:4.8101001 3462:6.7342 3468:7.6961999 3556:4.8101001 3591:7.6961999 3668:4.8101001 3675:4.8101001 3720:4.8101001 3749:4.8101001 3796:4.8101001 3835:4.8101001 3853:4.8101001 4078:4.8101001 4102:4.8101001 4156:4.8101001 # none/00003784_s01.txt
-0.00045384564011221667978110416719062 38:4.4895 51:4.4895 135:4.4895 200:5.1307998 214:4.4895 218:5.1307998 505:5.1307998 535:5.1307998 549:5.1307998 631:6.4134998 651:4.4895 680:4.4895 692:4.4895 738:4.4895 789:4.4895 839:4.4895 939:4.4895 1008:4.4895 1018:4.4895 1072:4.4895 1076:4.4895 1152:4.4895 1175:5.1307998 1183:5.1307998 1212:4.4895 1246:4.4895 1347:4.4895 1387:4.4895 1388:6.4134998 1392:4.4895 1413:6.4134998 1428:4.4895 1453:4.4895 1492:5.1307998 1499:4.4895 1506:5.1307998 1533:5.7722001 1537:4.4895 1548:4.4895 1560:5.1307998 1624:4.4895 1658:4.4895 1661:4.4895 1668:5.1307998 1671:4.4895 1770:4.4895 1818:5.7722001 1861:5.1307998 1868:4.4895 1894:4.4895 1904:5.7722001 1995:5.7722001 2081:6.4134998 2125:4.4895 2194:5.1307998 2195:4.4895 2214:4.4895 2230:4.4895 2280:4.4895 2289:4.4895 2322:4.4895 2331:4.4895 2347:4.4895 2350:4.4895 2428:4.4895 2481:6.4134998 2500:5.1307998 2611:4.4895 2656:5.7722001 2755:5.1307998 2760:4.4895 2766:4.4895 2774:4.4895 2819:4.4895 2856:4.4895 2930:5.1307998 2936:4.4895 2949:5.1307998 2956:4.4895 2979:5.7722001 2982:5.1307998 3032:4.4895 3042:5.1307998 3074:4.4895 3153:5.1307998 3276:4.4895 3286:4.4895 3287:7.0549002 3306:4.4895 3378:4.4895 3385:4.4895 3395:5.7722001 3421:4.4895 3453:4.4895 3462:7.6961999 3468:6.4134998 3513:4.4895 3556:4.4895 3576:4.4895 3591:7.6961999 3649:5.1307998 3668:4.4895 3716:4.4895 3720:4.4895 3749:4.4895 3796:4.4895 3835:4.4895 3853:4.4895 3897:4.4895 3913:4.4895 4102:4.4895 4170:4.4895 4215:5.7722001 4244:4.4895 # none/00003596_s01.txt
-6.8384912005039313377414283978695e-06 17:4.4895 22:4.4895 25:4.4895 43:5.1307998 208:5.1307998 229:4.4895 421:4.4895 485:4.4895 505:4.4895 535:6.4134998 549:5.1307998 625:5.1307998 685:4.4895 711:5.7722001 738:4.4895 789:7.6961999 813:5.1307998 839:6.4134998 862:4.4895 899:5.1307998 1026:4.4895 1027:5.1307998 1072:4.4895 1076:5.7722001 1114:4.4895 1182:4.4895 1183:7.0549002 1212:4.4895 1301:4.4895 1315:4.4895 1320:4.4895 1326:4.4895 1347:5.1307998 1392:4.4895 1397:4.4895 1418:5.1307998 1492:4.4895 1533:7.6961999 1548:5.1307998 1560:5.1307998 1585:5.1307998 1621:4.4895 1624:5.1307998 1709:5.1307998 1745:5.1307998 1861:7.0549002 1868:4.4895 1919:5.1307998 1970:4.4895 2039:5.1307998 2088:5.1307998 2096:4.4895 2125:5.1307998 2126:5.1307998 2144:4.4895 2164:5.1307998 2214:5.1307998 2217:5.1307998 2403:4.4895 2470:4.4895 2500:5.7722001 2591:4.4895 2611:5.1307998 2628:4.4895 2634:5.7722001 2652:4.4895 2766:4.4895 2774:4.4895 2802:7.0549002 2818:4.4895 2845:5.1307998 2880:4.4895 2908:4.4895 2941:4.4895 2949:5.7722001 2954:7.0549002 2979:5.1307998 3031:4.4895 3032:5.1307998 3135:4.4895 3156:4.4895 3287:7.0549002 3316:5.1307998 3327:4.4895 3329:4.4895 3345:4.4895 3389:5.1307998 3414:4.4895 3421:4.4895 3459:5.1307998 3468:5.7722001 3503:4.4895 3591:4.4895 3599:5.1307998 3668:5.1307998 3679:4.4895 3695:5.1307998 3749:4.4895 3796:5.1307998 3868:4.4895 3893:6.4134998 3927:5.7722001 4102:5.7722001 4156:4.4895 4170:5.7722001 4228:4.4895 4294:4.4895 # none/00004433_s01.txt
-6.5627203872350710171790222346999e-05 51:4.4895 440:4.4895 505:4.4895 535:6.4134998 600:5.1307998 601:4.4895 705:5.1307998 713:4.4895 731:4.4895 732:5.7722001 752:4.4895 789:4.4895 813:4.4895 839:5.7722001 860:4.4895 899:4.4895 939:4.4895 1027:4.4895 1032:4.4895 1076:4.4895 1186:5.1307998 1189:4.4895 1212:4.4895 1216:4.4895 1320:5.1307998 1326:5.7722001 1347:4.4895 1392:4.4895 1434:5.1307998 1443:4.4895 1488:4.4895 1492:4.4895 1505:4.4895 1533:6.4134998 1548:4.4895 1560:4.4895 1680:4.4895 1740:5.1307998 1809:5.1307998 1861:5.7722001 1967:4.4895 1995:5.1307998 2039:4.4895 2068:4.4895 2081:4.4895 2091:5.1307998 2125:4.4895 2137:5.1307998 2186:4.4895 2214:4.4895 2247:4.4895 2339:5.7722001 2382:4.4895 2500:4.4895 2621:5.7722001 2633:4.4895 2642:4.4895 2768:4.4895 2941:4.4895 2949:4.4895 2979:5.1307998 3010:4.4895 3032:4.4895 3155:4.4895 3170:4.4895 3287:5.7722001 3329:4.4895 3368:4.4895 3385:4.4895 3395:7.6961999 3458:5.1307998 3468:4.4895 3513:4.4895 3516:5.1307998 3543:4.4895 3591:4.4895 3618:5.1307998 3668:4.4895 3695:4.4895 3743:4.4895 3749:4.4895 3762:4.4895 3787:4.4895 3796:4.4895 3927:4.4895 3973:4.4895 4048:5.1307998 4053:4.4895 4102:4.4895 4156:4.4895 4170:4.4895 4215:5.1307998 # none/00003591_s01.txt
-0.00029439135862033760301925688906977 51:4.4895 218:4.4895 333:4.4895 505:5.1307998 535:5.1307998 549:4.4895 631:4.4895 651:4.4895 692:4.4895 713:4.4895 752:5.1307998 813:4.4895 839:4.4895 844:4.4895 939:4.4895 1008:4.4895 1018:4.4895 1076:4.4895 1119:4.4895 1175:5.1307998 1186:4.4895 1212:4.4895 1216:4.4895 1347:4.4895 1387:4.4895 1388:7.0549002 1392:4.4895 1413:5.7722001 1453:4.4895 1492:4.4895 1506:4.4895 1533:7.6961999 1548:4.4895 1560:5.1307998 1668:4.4895 1675:4.4895 1760:4.4895 1878:4.4895 1904:5.7722001 2077:4.4895 2081:4.4895 2125:4.4895 2166:4.4895 2194:5.1307998 2214:4.4895 2289:4.4895 2318:4.4895 2331:4.4895 2380:4.4895 2481:4.4895 2500:4.4895 2552:4.4895 2624:4.4895 2755:4.4895 2766:5.1307998 2856:4.4895 2875:4.4895 2949:4.4895 2979:5.7722001 2982:5.1307998 3032:4.4895 3037:4.4895 3074:4.4895 3153:5.1307998 3276:4.4895 3281:4.4895 3287:5.1307998 3385:4.4895 3427:4.4895 3453:4.4895 3462:6.4134998 3468:5.1307998 3516:4.4895 3556:4.4895 3576:4.4895 3591:5.7722001 3668:4.4895 3702:4.4895 3796:4.4895 3835:4.4895 3853:4.4895 3927:5.1307998 4004:4.4895 4088:4.4895 4102:4.4895 4126:4.4895 4170:4.4895 4215:5.1307998 4312:4.4895 # none/00000817_s01.txt
0.00040168619022813289044099294144985 30:4.6177001 31:4.2329001 32:4.2329001 51:4.2329001 79:4.6177001 109:4.2329001 133:4.6177001 167:5.0025001 208:4.6177001 245:4.2329001 255:4.2329001 259:5.0025001 265:4.2329001 269:4.2329001 317:4.2329001 323:4.2329001 326:4.2329001 346:4.2329001 351:4.2329001 358:4.2329001 391:4.2329001 468:4.6177001 495:4.2329001 514:4.2329001 535:4.2329001 549:5.3873 579:4.2329001 582:4.2329001 600:4.2329001 608:4.6177001 625:4.2329001 680:4.2329001 704:4.2329001 779:5.0025001 787:4.2329001 789:4.6177001 811:5.0025001 813:4.2329001 821:6.1570001 839:4.2329001 899:5.0025001 942:4.2329001 981:4.2329001 1026:4.2329001 1027:4.2329001 1032:4.2329001 1034:4.2329001 1040:4.2329001 1062:4.6177001 1124:4.2329001 1140:4.6177001 1183:4.2329001 1285:4.2329001 1326:5.0025001 1347:5.0025001 1392:4.2329001 1397:4.2329001 1399:4.2329001 1443:4.2329001 1453:4.6177001 1488:4.2329001 1498:4.2329001 1499:5.7722001 1533:7.6961999 1548:4.2329001 1560:4.6177001 1620:4.2329001 1624:4.2329001 1663:6.5418 1668:4.2329001 1692:4.2329001 1707:4.2329001 1727:4.2329001 1760:4.2329001 1777:4.2329001 1818:4.2329001 1824:4.6177001 1848:4.2329001 1878:4.2329001 1933:4.2329001 1967:4.6177001 2037:4.2329001 2039:5.0025001 2060:4.6177001 2081:4.2329001 2087:4.2329001 2091:4.2329001 2125:5.0025001 2131:4.6177001 2164:4.2329001 2178:4.2329001 2182:4.6177001 2194:4.6177001 2214:4.2329001 2262:4.2329001 2273:4.2329001 2280:4.2329001 2307:4.2329001 2343:4.6177001 2403:4.6177001 2406:4.2329001 2426:4.2329001 2428:4.2329001 2433:4.2329001 2500:4.2329001 2584:4.6177001 2611:5.0025001 2621:4.2329001 2627:4.2329001 2634:6.1570001 2649:4.2329001 2677:4.2329001 2682:4.6177001 2738:4.2329001 2756:4.2329001 2766:6.1570001 2774:4.6177001 2778:4.2329001 2790:4.2329001 2802:4.2329001 2818:4.2329001 2865:4.2329001 2880:4.2329001 2949:5.7722001 2954:5.0025001 2968:4.2329001 2979:4.2329001 3032:4.2329001 3068:4.6177001 3074:4.6177001 3168:4.2329001 3181:4.2329001 3183:4.2329001 3205:4.2329001 3206:4.2329001 3210:4.2329001 3243:4.2329001 3266:4.2329001 3287:5.7722001 3316:4.2329001 3329:4.2329001 3362:4.2329001 3385:5.0025001 3386:4.6177001 3395:4.2329001 3448:4.2329001 3458:4.2329001 3461:4.2329001 3468:5.3873 3474:4.2329001 3503:4.2329001 3576:5.7722001 3591:4.6177001 3599:4.2329001 3619:4.2329001 3635:4.2329001 3649:5.0025001 3665:4.6177001 3668:4.2329001 3671:5.3873 3672:5.0025001 3702:4.2329001 3787:4.2329001 3796:4.2329001 3868:4.6177001 3914:4.6177001 3927:4.2329001 3960:4.2329001 4048:4.2329001 4102:4.2329001 4161:5.0025001 4170:4.2329001 4190:4.2329001 4199:5.7722001 4215:5.0025001 4228:4.2329001 4229:4.2329001 4263:4.2329001 # seizures/00000952_s01.txt
