SVM-light Version V6.02
0 # kernel type
3 # kernel parameter -d 
1 # kernel parameter -g 
1 # kernel parameter -s 
1 # kernel parameter -r 
empty# kernel parameter -u 
3462 # highest feature index 
480 # number of training documents 
237 # number of support vectors plus 1 
1.1652714 # threshold b, each following line is a SV (starting with alpha*y)
2.4821050218524842663524523911356e-05 7:10.8309 34:10.8309 51:10.8309 106:10.8309 139:10.8309 172:10.8309 253:10.8309 257:10.8309 307:10.8309 405:10.8309 407:10.8309 426:13.4247 449:17.8587 468:10.8309 503:10.8309 631:10.8309 653:10.8309 683:10.8309 711:13.4247 757:10.8309 797:10.8309 844:10.8309 845:10.8309 890:16.6924 901:10.8309 972:15.265 983:15.265 986:10.8309 1005:13.4247 1093:10.8309 1103:10.8309 1108:10.8309 1126:10.8309 1144:10.8309 1160:13.4247 1184:10.8309 1227:13.4247 1229:10.8309 1254:13.4247 1266:10.8309 1275:10.8309 1279:13.4247 1305:10.8309 1320:10.8309 1324:15.265 1330:10.8309 1359:10.8309 1392:10.8309 1431:10.8309 1479:13.4247 1484:13.4247 1530:10.8309 1599:10.8309 1628:10.8309 1657:13.4247 1677:10.8309 1689:10.8309 1690:10.8309 1702:13.4247 1735:10.8309 1752:10.8309 1771:10.8309 1805:10.8309 1837:10.8309 1863:10.8309 1884:10.8309 1888:15.265 1898:22.804701 1905:10.8309 1906:10.8309 1932:10.8309 1953:10.8309 1962:10.8309 2019:13.4247 2028:10.8309 2043:10.8309 2085:10.8309 2106:10.8309 2235:15.265 2260:15.265 2279:10.8309 2285:10.8309 2301:10.8309 2358:13.4247 2368:13.4247 2389:10.8309 2392:13.4247 2397:15.265 2417:10.8309 2433:10.8309 2443:10.8309 2475:10.8309 2479:19.698999 2483:10.8309 2590:19.698999 2637:10.8309 2638:15.265 2653:17.8587 2696:10.8309 2727:10.8309 2780:15.265 2787:10.8309 2793:17.8587 2824:10.8309 2828:10.8309 2830:10.8309 2834:10.8309 2844:10.8309 2891:15.265 2952:10.8309 2962:10.8309 2968:10.8309 2973:10.8309 2988:10.8309 3004:10.8309 3008:13.4247 3069:10.8309 3129:10.8309 3181:10.8309 3228:10.8309 3296:10.8309 3316:10.8309 3355:13.4247 # seizures/00001721_s01.txt
3.5114666110474575125635632311116e-05 28:13.4247 34:10.8309 51:10.8309 84:10.8309 182:10.8309 216:10.8309 257:10.8309 273:13.4247 292:10.8309 315:10.8309 365:10.8309 426:10.8309 428:10.8309 449:13.4247 453:10.8309 487:10.8309 503:10.8309 508:10.8309 524:10.8309 586:15.265 596:10.8309 619:10.8309 646:10.8309 648:10.8309 657:13.4247 681:10.8309 683:10.8309 684:10.8309 698:10.8309 746:10.8309 833:16.6924 843:10.8309 844:10.8309 845:10.8309 847:15.265 849:13.4247 878:10.8309 890:13.4247 898:10.8309 983:10.8309 994:10.8309 1005:10.8309 1016:10.8309 1043:10.8309 1096:10.8309 1108:10.8309 1120:10.8309 1122:10.8309 1144:10.8309 1146:10.8309 1193:10.8309 1227:10.8309 1229:10.8309 1254:19.698999 1266:10.8309 1275:10.8309 1279:10.8309 1305:13.4247 1324:10.8309 1359:13.4247 1360:13.4247 1392:10.8309 1396:10.8309 1421:10.8309 1448:10.8309 1454:10.8309 1513:15.265 1590:10.8309 1605:10.8309 1611:13.4247 1657:10.8309 1671:10.8309 1672:10.8309 1702:15.265 1713:10.8309 1735:10.8309 1739:10.8309 1742:13.4247 1763:10.8309 1782:10.8309 1786:13.4247 1805:10.8309 1808:10.8309 1898:15.265 1957:10.8309 1965:10.8309 1987:10.8309 2004:10.8309 2028:10.8309 2106:13.4247 2111:10.8309 2126:15.265 2140:10.8309 2228:10.8309 2241:10.8309 2254:10.8309 2274:10.8309 2284:10.8309 2299:10.8309 2304:13.4247 2306:10.8309 2356:10.8309 2368:17.8587 2373:10.8309 2392:10.8309 2426:10.8309 2433:10.8309 2472:10.8309 2479:10.8309 2483:10.8309 2549:10.8309 2580:10.8309 2604:13.4247 2638:10.8309 2643:10.8309 2653:15.265 2658:10.8309 2669:10.8309 2697:10.8309 2717:13.4247 2718:15.265 2727:17.8587 2787:10.8309 2788:10.8309 2793:20.4524 2837:13.4247 2881:15.265 2899:10.8309 2910:10.8309 2952:10.8309 2959:10.8309 2962:10.8309 2964:10.8309 2965:10.8309 3011:10.8309 3069:10.8309 3098:10.8309 3129:16.6924 3156:10.8309 3173:10.8309 3199:10.8309 3219:10.8309 3229:13.4247 3238:15.265 3286:10.8309 3296:10.8309 3346:10.8309 3355:10.8309 3380:13.4247 3390:10.8309 3402:10.8309 3440:10.8309 # seizures/00006340_s01.txt
3.150122645233859280770871702515e-05 18:15.265 20:10.8309 28:10.8309 34:10.8309 62:10.8309 139:10.8309 164:13.4247 218:10.8309 340:10.8309 414:10.8309 426:13.4247 449:13.4247 459:16.6924 546:10.8309 568:13.4247 579:10.8309 585:13.4247 596:13.4247 619:10.8309 631:15.265 657:13.4247 693:10.8309 698:10.8309 701:10.8309 733:10.8309 750:10.8309 752:10.8309 779:15.265 837:13.4247 886:13.4247 890:18.844801 972:17.8587 983:15.265 986:10.8309 1005:15.265 1024:13.4247 1027:10.8309 1093:15.265 1096:10.8309 1108:10.8309 1115:13.4247 1141:10.8309 1142:15.265 1146:10.8309 1160:17.8587 1169:10.8309 1193:10.8309 1227:13.4247 1229:10.8309 1235:13.4247 1254:16.6924 1257:10.8309 1266:10.8309 1275:13.4247 1292:10.8309 1295:13.4247 1315:13.4247 1323:13.4247 1330:10.8309 1347:10.8309 1358:13.4247 1360:13.4247 1407:10.8309 1415:10.8309 1448:13.4247 1454:10.8309 1479:16.6924 1481:13.4247 1513:15.265 1514:10.8309 1523:10.8309 1533:10.8309 1546:13.4247 1616:10.8309 1628:20.4524 1633:10.8309 1657:10.8309 1671:15.265 1735:10.8309 1756:10.8309 1786:10.8309 1787:13.4247 1805:10.8309 1815:10.8309 1850:10.8309 1860:13.4247 1884:15.265 1898:13.4247 1906:10.8309 1953:10.8309 1970:10.8309 1990:10.8309 1998:10.8309 2018:15.265 2028:13.4247 2058:10.8309 2092:13.4247 2113:16.6924 2116:10.8309 2140:10.8309 2219:10.8309 2222:10.8309 2228:13.4247 2235:10.8309 2246:10.8309 2263:16.6924 2289:10.8309 2311:15.265 2312:10.8309 2350:13.4247 2357:10.8309 2368:13.4247 2392:15.265 2433:10.8309 2472:10.8309 2479:10.8309 2529:10.8309 2539:13.4247 2615:10.8309 2616:10.8309 2631:10.8309 2638:15.265 2652:10.8309 2653:15.265 2667:10.8309 2680:16.6924 2712:10.8309 2714:10.8309 2717:10.8309 2727:21.1264 2780:10.8309 2788:15.265 2793:19.698999 2828:10.8309 2833:17.8587 2834:10.8309 2868:10.8309 2881:10.8309 2891:17.8587 2904:10.8309 2910:10.8309 2937:10.8309 2962:10.8309 2973:15.265 2987:10.8309 3008:10.8309 3011:10.8309 3019:10.8309 3069:10.8309 3092:10.8309 3095:10.8309 3108:10.8309 3129:13.4247 3146:10.8309 3156:16.6924 3179:10.8309 3237:15.265 3278:10.8309 3296:10.8309 3300:10.8309 3341:10.8309 3355:13.4247 3370:10.8309 3390:18.844801 3402:15.265 # seizures/00001318_s01.txt
-5.9169564829330139894402601496992e-05 34:10.8309 109:10.8309 365:10.8309 373:10.8309 426:13.4247 427:10.8309 449:10.8309 459:10.8309 465:10.8309 543:10.8309 546:15.265 549:10.8309 568:10.8309 579:10.8309 590:10.8309 596:10.8309 607:10.8309 641:10.8309 657:10.8309 698:10.8309 729:10.8309 750:10.8309 779:15.265 809:10.8309 890:13.4247 909:10.8309 943:10.8309 972:13.4247 983:10.8309 1005:10.8309 1008:10.8309 1019:10.8309 1099:10.8309 1107:10.8309 1108:10.8309 1141:10.8309 1142:13.4247 1160:10.8309 1193:10.8309 1227:10.8309 1229:10.8309 1235:10.8309 1240:10.8309 1254:17.8587 1266:10.8309 1275:13.4247 1291:10.8309 1295:10.8309 1358:10.8309 1485:10.8309 1492:10.8309 1513:13.4247 1523:10.8309 1546:13.4247 1616:10.8309 1657:13.4247 1689:10.8309 1699:10.8309 1702:13.4247 1735:10.8309 1760:10.8309 1761:13.4247 1786:13.4247 1787:13.4247 1805:10.8309 1807:10.8309 1815:10.8309 1836:10.8309 1837:13.4247 1893:10.8309 2028:13.4247 2149:10.8309 2219:13.4247 2228:13.4247 2263:13.4247 2279:13.4247 2289:10.8309 2364:10.8309 2368:10.8309 2380:10.8309 2392:13.4247 2433:10.8309 2463:10.8309 2472:15.265 2479:10.8309 2501:13.4247 2539:10.8309 2544:10.8309 2616:10.8309 2631:10.8309 2638:16.6924 2712:10.8309 2717:10.8309 2752:10.8309 2788:13.4247 2793:13.4247 2824:10.8309 2867:10.8309 2881:10.8309 2937:17.8587 2962:10.8309 2973:15.265 3011:10.8309 3043:15.265 3069:10.8309 3095:10.8309 3108:10.8309 3146:10.8309 3156:10.8309 3157:10.8309 3278:10.8309 3296:10.8309 3342:10.8309 3350:10.8309 3390:16.6924 3427:10.8309 # none/00000102_s08.txt
-4.7641138729498104151770243586128e-05 34:10.8309 144:10.8309 292:10.8309 365:10.8309 426:13.4247 449:13.4247 524:10.8309 527:10.8309 546:10.8309 579:10.8309 585:10.8309 596:10.8309 657:10.8309 683:10.8309 697:10.8309 698:10.8309 834:13.4247 844:13.4247 890:13.4247 972:10.8309 1005:10.8309 1108:10.8309 1122:10.8309 1141:10.8309 1142:13.4247 1144:10.8309 1160:10.8309 1193:10.8309 1227:10.8309 1229:10.8309 1254:15.265 1266:10.8309 1275:13.4247 1320:10.8309 1390:13.4247 1433:10.8309 1444:10.8309 1479:10.8309 1491:10.8309 1514:10.8309 1518:13.4247 1543:13.4247 1546:13.4247 1605:10.8309 1628:10.8309 1657:10.8309 1678:10.8309 1702:13.4247 1735:10.8309 1742:10.8309 1805:10.8309 1850:10.8309 1882:10.8309 1883:10.8309 1893:10.8309 1898:16.6924 1947:10.8309 1973:13.4247 1998:10.8309 2028:10.8309 2043:13.4247 2083:10.8309 2143:10.8309 2219:10.8309 2274:10.8309 2289:10.8309 2311:10.8309 2368:10.8309 2392:15.265 2433:10.8309 2471:10.8309 2479:10.8309 2539:13.4247 2615:10.8309 2623:10.8309 2631:10.8309 2638:17.8587 2653:13.4247 2658:10.8309 2717:10.8309 2727:15.265 2788:16.6924 2793:15.265 2830:13.4247 2833:10.8309 2867:10.8309 2881:13.4247 2891:16.6924 2910:10.8309 2962:10.8309 2973:13.4247 3011:10.8309 3069:10.8309 3095:10.8309 3108:13.4247 3146:13.4247 3291:13.4247 3296:10.8309 3355:10.8309 3380:10.8309 3390:15.265 3440:10.8309 # none/00000572_s03.txt
5.9169564829330139894402601496992e-05 28:10.8309 36:10.8309 139:10.8309 356:10.8309 426:10.8309 449:10.8309 459:10.8309 486:15.265 573:10.8309 596:10.8309 645:10.8309 657:13.4247 680:10.8309 683:10.8309 746:10.8309 764:10.8309 794:10.8309 833:10.8309 845:10.8309 886:10.8309 890:13.4247 971:10.8309 983:10.8309 1005:10.8309 1083:10.8309 1096:13.4247 1144:10.8309 1146:10.8309 1159:10.8309 1175:10.8309 1214:10.8309 1227:10.8309 1254:21.736099 1266:10.8309 1275:10.8309 1285:10.8309 1324:10.8309 1390:10.8309 1484:10.8309 1513:10.8309 1518:10.8309 1546:10.8309 1657:10.8309 1672:10.8309 1688:10.8309 1690:10.8309 1735:10.8309 1742:10.8309 1786:10.8309 1805:10.8309 1814:10.8309 1945:10.8309 2000:10.8309 2009:10.8309 2028:10.8309 2113:10.8309 2125:10.8309 2146:10.8309 2274:10.8309 2368:15.265 2372:13.4247 2392:13.4247 2393:10.8309 2417:10.8309 2433:10.8309 2525:10.8309 2530:10.8309 2548:10.8309 2629:10.8309 2638:15.265 2727:10.8309 2793:13.4247 2833:13.4247 2859:10.8309 2862:10.8309 2881:10.8309 2891:13.4247 2962:10.8309 2965:10.8309 3011:10.8309 3033:10.8309 3067:10.8309 3069:10.8309 3129:15.265 3146:10.8309 3257:10.8309 3292:10.8309 3296:10.8309 3346:10.8309 3355:10.8309 3390:15.265 3427:10.8309 3440:13.4247 # seizures/00000005_s06.txt
5.9169564829330139894402601496992e-05 12:10.8309 34:10.8309 45:10.8309 94:13.4247 182:10.8309 229:10.8309 391:10.8309 426:10.8309 427:10.8309 449:15.265 468:10.8309 568:10.8309 612:10.8309 657:10.8309 683:10.8309 698:10.8309 746:10.8309 779:15.265 845:10.8309 886:10.8309 890:16.6924 969:10.8309 981:10.8309 998:10.8309 1005:13.4247 1033:10.8309 1096:15.265 1107:10.8309 1108:10.8309 1144:10.8309 1146:10.8309 1160:10.8309 1178:10.8309 1227:10.8309 1228:10.8309 1229:10.8309 1254:16.6924 1266:10.8309 1275:10.8309 1279:10.8309 1301:10.8309 1323:10.8309 1324:10.8309 1342:10.8309 1401:10.8309 1415:13.4247 1421:10.8309 1448:10.8309 1472:10.8309 1479:10.8309 1501:10.8309 1513:13.4247 1514:10.8309 1627:10.8309 1628:15.265 1641:10.8309 1657:10.8309 1672:10.8309 1735:10.8309 1739:13.4247 1741:10.8309 1742:10.8309 1805:10.8309 1815:10.8309 1850:10.8309 1898:15.265 1905:10.8309 2009:10.8309 2028:10.8309 2031:10.8309 2125:10.8309 2235:13.4247 2241:10.8309 2258:10.8309 2274:10.8309 2279:10.8309 2339:10.8309 2368:15.265 2372:13.4247 2392:13.4247 2433:10.8309 2530:10.8309 2541:10.8309 2542:10.8309 2638:10.8309 2658:10.8309 2714:10.8309 2727:16.6924 2780:10.8309 2788:10.8309 2793:15.265 2833:10.8309 2848:10.8309 2854:10.8309 2867:10.8309 2891:13.4247 2912:10.8309 2934:10.8309 2937:10.8309 2962:10.8309 2973:10.8309 2988:10.8309 3069:10.8309 3117:10.8309 3129:10.8309 3247:10.8309 3296:10.8309 3355:10.8309 3390:10.8309 3398:10.8309 3427:10.8309 3440:10.8309 # seizures/00000018_s02.txt
2.4212696457241661494429879608603e-05 4:10.8309 7:13.4247 13:13.4247 16:10.8309 18:10.8309 20:10.8309 34:10.8309 51:13.4247 172:10.8309 200:13.4247 218:10.8309 232:10.8309 407:10.8309 426:10.8309 449:16.6924 459:10.8309 481:10.8309 503:10.8309 542:10.8309 545:10.8309 565:10.8309 568:13.4247 573:10.8309 580:10.8309 596:10.8309 601:10.8309 607:10.8309 619:10.8309 627:10.8309 648:10.8309 656:10.8309 657:15.265 663:10.8309 680:13.4247 683:10.8309 698:10.8309 746:10.8309 779:13.4247 822:10.8309 833:13.4247 844:13.4247 845:10.8309 853:10.8309 886:10.8309 890:17.8587 898:10.8309 929:10.8309 945:10.8309 946:10.8309 960:10.8309 986:10.8309 1005:10.8309 1026:13.4247 1040:10.8309 1058:13.4247 1096:10.8309 1108:10.8309 1129:10.8309 1144:10.8309 1146:10.8309 1178:10.8309 1214:13.4247 1224:10.8309 1227:10.8309 1254:21.1264 1266:13.4247 1275:13.4247 1305:10.8309 1342:10.8309 1354:10.8309 1362:10.8309 1382:10.8309 1392:10.8309 1414:10.8309 1415:10.8309 1421:10.8309 1444:10.8309 1479:13.4247 1484:10.8309 1512:13.4247 1513:13.4247 1518:13.4247 1548:10.8309 1628:10.8309 1633:10.8309 1643:10.8309 1657:10.8309 1669:10.8309 1672:10.8309 1689:10.8309 1708:10.8309 1711:10.8309 1727:10.8309 1735:10.8309 1739:15.265 1742:10.8309 1778:10.8309 1792:10.8309 1805:10.8309 1907:10.8309 1918:10.8309 1927:13.4247 1947:10.8309 1996:10.8309 2025:10.8309 2028:13.4247 2085:10.8309 2113:10.8309 2238:10.8309 2254:13.4247 2263:15.265 2279:10.8309 2289:10.8309 2299:10.8309 2309:10.8309 2311:10.8309 2368:20.4524 2372:10.8309 2392:15.265 2397:10.8309 2409:10.8309 2433:10.8309 2508:10.8309 2622:10.8309 2638:10.8309 2653:10.8309 2658:10.8309 2696:10.8309 2697:10.8309 2713:10.8309 2714:13.4247 2717:10.8309 2718:10.8309 2727:19.698999 2763:13.4247 2787:13.4247 2788:13.4247 2793:16.6924 2798:10.8309 2833:15.265 2834:10.8309 2881:16.6924 2891:13.4247 2910:10.8309 2911:10.8309 2921:10.8309 2944:10.8309 2951:10.8309 2952:10.8309 2959:10.8309 2962:10.8309 3017:10.8309 3038:10.8309 3069:13.4247 3084:10.8309 3092:10.8309 3095:10.8309 3098:17.8587 3108:17.8587 3117:13.4247 3129:15.265 3173:10.8309 3192:10.8309 3195:10.8309 3209:10.8309 3238:10.8309 3243:10.8309 3267:10.8309 3290:10.8309 3296:10.8309 3341:10.8309 3355:10.8309 3372:10.8309 3390:15.265 3402:10.8309 3425:10.8309 3427:10.8309 3429:10.8309 3441:10.8309 # seizures/00010841_s01.txt
5.9169564829330139894402601496992e-05 34:10.8309 94:10.8309 135:10.8309 136:10.8309 142:10.8309 213:10.8309 267:10.8309 321:10.8309 395:10.8309 426:13.4247 449:13.4247 459:15.265 495:10.8309 508:10.8309 527:13.4247 546:10.8309 568:13.4247 657:10.8309 673:10.8309 680:10.8309 698:10.8309 709:10.8309 740:10.8309 777:10.8309 837:13.4247 844:13.4247 886:10.8309 890:15.265 949:10.8309 972:10.8309 983:13.4247 1005:13.4247 1093:10.8309 1108:10.8309 1115:13.4247 1141:10.8309 1142:13.4247 1146:10.8309 1160:15.265 1193:10.8309 1227:13.4247 1235:13.4247 1254:16.6924 1257:10.8309 1266:10.8309 1275:13.4247 1279:13.4247 1324:13.4247 1347:10.8309 1350:10.8309 1358:10.8309 1360:10.8309 1415:10.8309 1479:10.8309 1481:10.8309 1513:15.265 1523:10.8309 1546:13.4247 1600:10.8309 1616:10.8309 1623:10.8309 1657:10.8309 1662:10.8309 1702:15.265 1735:10.8309 1786:10.8309 1805:10.8309 1815:10.8309 1850:10.8309 1860:10.8309 1884:10.8309 1888:13.4247 1893:10.8309 1898:13.4247 1905:10.8309 1906:10.8309 1908:10.8309 1930:10.8309 1953:10.8309 1990:10.8309 1998:10.8309 2028:13.4247 2043:10.8309 2085:10.8309 2143:10.8309 2184:10.8309 2219:10.8309 2222:10.8309 2228:10.8309 2235:16.6924 2246:10.8309 2263:13.4247 2279:13.4247 2289:10.8309 2299:10.8309 2312:10.8309 2350:13.4247 2357:10.8309 2368:15.265 2392:15.265 2397:16.6924 2433:10.8309 2443:15.265 2479:15.265 2539:13.4247 2612:10.8309 2616:10.8309 2631:10.8309 2638:16.6924 2652:10.8309 2653:13.4247 2658:10.8309 2711:10.8309 2712:10.8309 2714:10.8309 2717:10.8309 2718:13.4247 2759:10.8309 2788:10.8309 2793:18.844801 2833:13.4247 2844:10.8309 2867:10.8309 2886:10.8309 2891:15.265 2898:10.8309 2904:10.8309 2937:10.8309 2959:10.8309 2962:10.8309 2964:10.8309 2973:10.8309 2996:10.8309 3011:10.8309 3019:10.8309 3031:10.8309 3069:10.8309 3095:10.8309 3108:15.265 3156:10.8309 3286:10.8309 3296:13.4247 3359:10.8309 3390:16.6924 3402:15.265 3420:10.8309 # seizures/00000032_s05.txt
-5.9169564829330139894402601496992e-05 4:13.4247 11:13.4247 14:13.4247 15:13.4247 16:15.265 18:17.8587 28:23.278799 34:13.4247 51:15.265 62:20.4524 75:19.698999 84:16.6924 94:13.4247 100:24.132999 106:10.8309 110:23.278799 114:10.8309 139:10.8309 157:20.4524 182:15.265 185:10.8309 188:15.265 200:10.8309 206:16.6924 210:13.4247 218:10.8309 232:10.8309 234:15.265 238:15.265 241:10.8309 242:10.8309 248:10.8309 257:13.4247 261:10.8309 270:10.8309 272:15.265 273:13.4247 275:10.8309 279:10.8309 309:16.6924 312:13.4247 322:10.8309 325:10.8309 329:10.8309 422:10.8309 428:10.8309 435:10.8309 449:26.9879 453:13.4247 459:15.265 480:10.8309 481:13.4247 503:20.4524 508:13.4247 524:18.844801 527:15.265 545:10.8309 546:15.265 568:13.4247 574:10.8309 586:10.8309 591:10.8309 596:20.4524 602:13.4247 607:10.8309 611:10.8309 629:10.8309 631:10.8309 640:13.4247 646:13.4247 648:10.8309 657:22.804701 658:10.8309 677:13.4247 681:18.844801 683:10.8309 686:10.8309 687:13.4247 688:10.8309 697:10.8309 698:13.4247 713:10.8309 719:16.6924 740:13.4247 779:17.8587 783:18.844801 796:17.8587 801:10.8309 814:13.4247 819:10.8309 837:10.8309 838:10.8309 842:10.8309 844:17.8587 845:15.265 847:10.8309 878:13.4247 886:21.1264 890:21.1264 898:10.8309 936:10.8309 943:10.8309 944:13.4247 946:10.8309 962:13.4247 983:15.265 986:10.8309 989:10.8309 1005:10.8309 1039:10.8309 1060:13.4247 1065:10.8309 1082:10.8309 1093:16.6924 1096:20.4524 1107:10.8309 1108:16.6924 1115:16.6924 1119:13.4247 1138:10.8309 1140:15.265 1141:10.8309 1158:10.8309 1160:16.6924 1193:10.8309 1224:13.4247 1228:13.4247 1229:10.8309 1254:21.736099 1266:16.6924 1275:16.6924 1305:13.4247 1314:16.6924 1315:10.8309 1324:10.8309 1333:10.8309 1354:13.4247 1358:10.8309 1359:15.265 1375:10.8309 1382:10.8309 1406:16.6924 1407:13.4247 1414:10.8309 1415:10.8309 1444:10.8309 1445:13.4247 1446:10.8309 1454:15.265 1472:10.8309 1479:18.844801 1484:10.8309 1502:10.8309 1513:22.2927 1514:10.8309 1518:10.8309 1546:13.4247 1572:10.8309 1586:13.4247 1605:19.698999 1611:10.8309 1615:10.8309 1621:13.4247 1628:15.265 1648:15.265 1661:10.8309 1702:17.8587 1708:15.265 1713:21.1264 1717:13.4247 1725:10.8309 1727:10.8309 1739:16.6924 1744:10.8309 1746:15.265 1747:17.8587 1760:13.4247 1786:15.265 1805:13.4247 1814:10.8309 1837:10.8309 1858:10.8309 1886:10.8309 1888:15.265 1893:13.4247 1895:10.8309 1896:10.8309 1898:27.712799 1902:10.8309 1906:10.8309 1918:17.8587 1936:10.8309 1947:10.8309 1953:17.8587 1957:10.8309 1965:10.8309 1970:10.8309 1977:10.8309 1992:10.8309 2000:10.8309 2006:20.4524 2028:10.8309 2029:13.4247 2066:10.8309 2067:10.8309 2085:16.6924 2092:10.8309 2106:18.844801 2113:20.4524 2114:10.8309 2120:10.8309 2125:10.8309 2126:20.4524 2128:13.4247 2133:16.6924 2137:10.8309 2140:15.265 2160:10.8309 2169:10.8309 2196:10.8309 2212:10.8309 2214:10.8309 2228:13.4247 2232:10.8309 2235:22.2927 2246:21.736099 2253:17.8587 2254:13.4247 2258:10.8309 2259:17.8587 2277:10.8309 2279:17.8587 2285:13.4247 2297:10.8309 2306:13.4247 2311:15.265 2312:13.4247 2316:13.4247 2356:13.4247 2357:10.8309 2358:13.4247 2362:15.265 2367:13.4247 2368:27.712799 2372:15.265 2376:10.8309 2392:13.4247 2397:13.4247 2401:10.8309 2426:15.265 2433:13.4247 2468:17.8587 2471:10.8309 2479:15.265 2483:15.265 2493:10.8309 2498:15.265 2515:10.8309 2525:16.6924 2530:13.4247 2533:13.4247 2542:10.8309 2543:10.8309 2549:18.844801 2550:13.4247 2579:18.844801 2599:10.8309 2611:16.6924 2614:10.8309 2615:13.4247 2623:10.8309 2638:25.872499 2639:10.8309 2653:22.804701 2658:13.4247 2667:13.4247 2669:13.4247 2678:15.265 2687:10.8309 2714:17.8587 2717:13.4247 2718:20.4524 2727:25.5604 2748:13.4247 2764:10.8309 2767:10.8309 2780:15.265 2784:19.698999 2787:24.132999 2788:23.7201 2793:25.872499 2816:10.8309 2824:13.4247 2833:23.7201 2834:10.8309 2836:10.8309 2840:10.8309 2848:18.844801 2854:10.8309 2859:10.8309 2867:10.8309 2872:15.265 2881:20.4524 2885:10.8309 2891:27.238701 2894:10.8309 2896:10.8309 2899:10.8309 2904:10.8309 2909:13.4247 2911:13.4247 2937:22.2927 2944:13.4247 2948:10.8309 2950:10.8309 2952:13.4247 2959:13.4247 2962:13.4247 2965:17.8587 2968:10.8309 2977:15.265 3016:10.8309 3025:10.8309 3033:10.8309 3049:10.8309 3053:10.8309 3055:10.8309 3069:13.4247 3079:10.8309 3092:15.265 3108:26.4545 3111:13.4247 3117:10.8309 3129:16.6924 3136:10.8309 3142:10.8309 3146:10.8309 3156:22.804701 3173:10.8309 3174:16.6924 3178:10.8309 3179:13.4247 3190:16.6924 3206:10.8309 3208:10.8309 3209:13.4247 3238:10.8309 3257:10.8309 3267:10.8309 3270:10.8309 3273:13.4247 3286:18.844801 3296:16.6924 3298:10.8309 3309:10.8309 3346:13.4247 3355:16.6924 3357:10.8309 3367:10.8309 3370:10.8309 3380:18.844801 3388:10.8309 3390:25.872499 3402:10.8309 3435:10.8309 # none/00001092_s03.txt
-5.9169564829330139894402601496992e-05 4:10.8309 11:15.265 15:10.8309 20:10.8309 28:13.4247 34:13.4247 38:10.8309 39:10.8309 40:10.8309 47:10.8309 51:10.8309 75:10.8309 139:10.8309 153:13.4247 168:10.8309 173:10.8309 188:10.8309 196:10.8309 206:10.8309 232:13.4247 235:10.8309 257:13.4247 282:10.8309 304:10.8309 317:13.4247 320:17.8587 322:10.8309 329:10.8309 363:10.8309 395:10.8309 426:10.8309 439:10.8309 449:20.4524 481:13.4247 494:10.8309 495:10.8309 499:10.8309 501:10.8309 503:10.8309 508:15.265 524:17.8587 527:18.844801 546:21.1264 566:10.8309 568:10.8309 574:16.6924 586:15.265 588:10.8309 591:10.8309 596:17.8587 602:10.8309 631:13.4247 640:10.8309 646:13.4247 648:10.8309 657:17.8587 658:10.8309 680:15.265 685:10.8309 686:10.8309 687:13.4247 746:10.8309 773:10.8309 783:10.8309 833:15.265 845:13.4247 847:10.8309 848:10.8309 849:10.8309 886:16.6924 890:17.8587 901:10.8309 934:10.8309 936:10.8309 940:10.8309 944:18.844801 983:15.265 989:15.265 1005:10.8309 1014:10.8309 1047:10.8309 1056:10.8309 1061:10.8309 1089:10.8309 1093:10.8309 1099:13.4247 1105:10.8309 1108:15.265 1109:10.8309 1111:10.8309 1112:13.4247 1116:10.8309 1129:10.8309 1141:10.8309 1142:10.8309 1144:10.8309 1146:13.4247 1167:10.8309 1193:15.265 1224:18.844801 1227:10.8309 1229:10.8309 1230:10.8309 1242:10.8309 1254:21.1264 1255:10.8309 1256:10.8309 1261:10.8309 1262:13.4247 1266:13.4247 1275:13.4247 1279:10.8309 1292:10.8309 1315:10.8309 1320:10.8309 1324:10.8309 1333:10.8309 1343:10.8309 1353:10.8309 1354:13.4247 1359:10.8309 1360:10.8309 1372:10.8309 1377:10.8309 1384:10.8309 1396:10.8309 1398:15.265 1401:10.8309 1421:10.8309 1443:10.8309 1444:15.265 1446:13.4247 1454:13.4247 1456:13.4247 1479:18.844801 1484:15.265 1513:10.8309 1514:10.8309 1523:10.8309 1548:13.4247 1611:15.265 1628:13.4247 1648:10.8309 1651:15.265 1657:10.8309 1671:10.8309 1672:10.8309 1702:15.265 1711:10.8309 1713:19.698999 1715:10.8309 1716:10.8309 1717:19.698999 1734:10.8309 1736:10.8309 1739:10.8309 1759:10.8309 1760:15.265 1786:13.4247 1805:13.4247 1809:13.4247 1821:10.8309 1831:10.8309 1847:10.8309 1888:15.265 1894:10.8309 1897:10.8309 1898:24.8864 1906:10.8309 1910:13.4247 1947:10.8309 1953:17.8587 1957:10.8309 1967:10.8309 1970:13.4247 2008:10.8309 2009:10.8309 2025:10.8309 2028:17.8587 2064:10.8309 2065:10.8309 2085:10.8309 2093:10.8309 2106:17.8587 2111:13.4247 2113:19.698999 2114:13.4247 2118:10.8309 2120:10.8309 2123:10.8309 2125:16.6924 2126:18.844801 2140:15.265 2190:10.8309 2196:10.8309 2202:10.8309 2235:10.8309 2253:10.8309 2254:10.8309 2258:13.4247 2259:13.4247 2262:10.8309 2263:10.8309 2264:13.4247 2279:13.4247 2285:10.8309 2298:10.8309 2299:13.4247 2306:15.265 2311:10.8309 2318:10.8309 2328:10.8309 2356:10.8309 2358:15.265 2368:19.698999 2372:15.265 2389:13.4247 2392:13.4247 2397:10.8309 2406:10.8309 2409:13.4247 2415:15.265 2421:10.8309 2433:13.4247 2447:10.8309 2468:15.265 2471:10.8309 2479:15.265 2483:13.4247 2527:10.8309 2530:13.4247 2579:10.8309 2611:17.8587 2615:16.6924 2617:10.8309 2619:15.265 2625:15.265 2638:24.5208 2649:10.8309 2650:13.4247 2653:18.844801 2658:10.8309 2680:16.6924 2691:10.8309 2713:13.4247 2715:10.8309 2717:16.6924 2718:18.844801 2727:19.698999 2754:10.8309 2755:10.8309 2757:10.8309 2763:10.8309 2764:10.8309 2780:18.844801 2784:17.8587 2786:10.8309 2787:16.6924 2788:19.698999 2790:13.4247 2792:10.8309 2793:26.4545 2795:10.8309 2833:21.736099 2844:13.4247 2848:13.4247 2854:18.844801 2867:10.8309 2878:10.8309 2881:25.2323 2891:23.278799 2899:10.8309 2911:10.8309 2937:16.6924 2944:13.4247 2952:17.8587 2959:19.698999 2962:13.4247 2965:13.4247 2968:13.4247 2987:10.8309 2996:10.8309 3027:10.8309 3033:10.8309 3061:16.6924 3069:13.4247 3074:13.4247 3091:10.8309 3108:23.7201 3119:10.8309 3129:16.6924 3135:10.8309 3152:10.8309 3155:10.8309 3156:15.265 3174:13.4247 3181:10.8309 3229:15.265 3237:13.4247 3238:13.4247 3273:13.4247 3282:10.8309 3286:10.8309 3296:10.8309 3297:10.8309 3346:13.4247 3355:15.265 3370:10.8309 3374:15.265 3379:13.4247 3380:22.804701 3390:24.5208 3393:10.8309 3402:16.6924 3416:10.8309 3427:13.4247 3447:10.8309 3450:10.8309 3460:13.4247 # none/00005914_s01.txt
-5.9169564829330139894402601496992e-05 4:10.8309 34:13.4247 36:10.8309 43:10.8309 94:10.8309 329:10.8309 426:13.4247 449:20.4524 459:10.8309 565:10.8309 574:10.8309 586:13.4247 588:10.8309 619:10.8309 657:16.6924 683:13.4247 686:10.8309 709:10.8309 719:10.8309 740:10.8309 746:13.4247 779:10.8309 833:10.8309 837:10.8309 845:13.4247 846:10.8309 847:10.8309 858:10.8309 886:10.8309 890:18.844801 983:16.6924 986:10.8309 1005:13.4247 1096:15.265 1099:10.8309 1108:13.4247 1112:10.8309 1120:10.8309 1144:13.4247 1146:13.4247 1164:15.265 1183:10.8309 1185:10.8309 1216:10.8309 1227:13.4247 1254:21.1264 1260:10.8309 1266:13.4247 1275:13.4247 1323:10.8309 1324:13.4247 1354:10.8309 1360:13.4247 1375:10.8309 1385:10.8309 1390:10.8309 1398:10.8309 1414:15.265 1444:10.8309 1479:10.8309 1517:10.8309 1518:18.844801 1530:10.8309 1548:10.8309 1628:13.4247 1648:10.8309 1657:10.8309 1672:13.4247 1689:10.8309 1720:10.8309 1735:13.4247 1736:13.4247 1739:10.8309 1760:10.8309 1786:10.8309 1791:10.8309 1805:13.4247 1807:10.8309 1808:10.8309 1809:10.8309 1823:10.8309 1888:10.8309 1898:18.844801 1944:10.8309 1995:10.8309 1999:10.8309 2009:17.8587 2019:10.8309 2022:10.8309 2028:10.8309 2046:10.8309 2093:10.8309 2106:10.8309 2113:10.8309 2126:15.265 2137:10.8309 2162:10.8309 2235:10.8309 2254:10.8309 2259:10.8309 2274:10.8309 2312:10.8309 2329:10.8309 2346:10.8309 2364:10.8309 2368:17.8587 2372:18.844801 2389:10.8309 2392:13.4247 2397:13.4247 2432:10.8309 2433:13.4247 2443:13.4247 2445:10.8309 2496:10.8309 2550:10.8309 2552:13.4247 2625:10.8309 2629:10.8309 2634:10.8309 2638:16.6924 2653:13.4247 2667:13.4247 2678:10.8309 2694:13.4247 2696:10.8309 2727:15.265 2780:10.8309 2784:10.8309 2788:10.8309 2793:22.2927 2833:17.8587 2834:10.8309 2891:13.4247 2937:13.4247 2948:10.8309 2952:13.4247 2962:13.4247 2973:10.8309 2989:10.8309 3004:10.8309 3043:15.265 3069:13.4247 3146:10.8309 3186:10.8309 3237:10.8309 3296:15.265 3355:13.4247 3390:15.265 3440:10.8309 # none/00001269_s02.txt
-4.3934855762432911273525359963088e-05 17:10.8309 18:10.8309 28:10.8309 34:10.8309 36:10.8309 51:10.8309 75:10.8309 139:10.8309 158:10.8309 218:10.8309 232:10.8309 426:10.8309 434:10.8309 449:17.8587 459:13.4247 468:13.4247 474:10.8309 481:10.8309 499:10.8309 503:13.4247 506:10.8309 580:10.8309 607:10.8309 612:16.6924 619:10.8309 646:13.4247 657:16.6924 679:10.8309 698:10.8309 713:15.265 740:10.8309 746:10.8309 845:13.4247 886:10.8309 890:15.265 937:10.8309 938:10.8309 962:10.8309 965:10.8309 983:13.4247 1005:13.4247 1015:15.265 1093:13.4247 1096:17.8587 1108:13.4247 1144:10.8309 1146:10.8309 1156:13.4247 1158:10.8309 1168:10.8309 1175:10.8309 1193:10.8309 1211:10.8309 1217:10.8309 1224:13.4247 1227:10.8309 1233:10.8309 1254:17.8587 1266:13.4247 1275:13.4247 1277:10.8309 1287:10.8309 1294:13.4247 1323:10.8309 1327:10.8309 1358:10.8309 1364:10.8309 1369:10.8309 1392:10.8309 1414:10.8309 1415:13.4247 1421:10.8309 1444:13.4247 1448:10.8309 1461:10.8309 1463:10.8309 1479:10.8309 1504:10.8309 1513:15.265 1518:22.2927 1628:10.8309 1657:10.8309 1668:10.8309 1669:10.8309 1671:10.8309 1672:10.8309 1702:10.8309 1709:10.8309 1713:16.6924 1735:13.4247 1736:16.6924 1739:13.4247 1742:15.265 1751:10.8309 1760:15.265 1766:10.8309 1784:10.8309 1786:10.8309 1799:15.265 1805:13.4247 1807:10.8309 1843:10.8309 1862:10.8309 1884:10.8309 1898:23.278799 1953:10.8309 1995:10.8309 2019:15.265 2028:10.8309 2043:10.8309 2061:10.8309 2093:10.8309 2106:13.4247 2110:10.8309 2112:10.8309 2113:13.4247 2114:10.8309 2126:13.4247 2129:13.4247 2143:10.8309 2196:10.8309 2235:13.4247 2254:13.4247 2258:10.8309 2259:17.8587 2279:10.8309 2306:10.8309 2311:16.6924 2312:10.8309 2350:10.8309 2357:10.8309 2368:17.8587 2392:13.4247 2401:10.8309 2417:13.4247 2426:13.4247 2433:13.4247 2468:10.8309 2479:10.8309 2483:10.8309 2488:10.8309 2515:10.8309 2516:10.8309 2525:10.8309 2530:13.4247 2550:10.8309 2615:10.8309 2638:21.736099 2644:10.8309 2653:22.2927 2658:10.8309 2669:10.8309 2696:13.4247 2717:13.4247 2727:21.736099 2784:10.8309 2788:10.8309 2793:10.8309 2833:19.698999 2854:10.8309 2891:16.6924 2910:10.8309 2911:10.8309 2952:13.4247 2962:13.4247 2968:10.8309 2973:13.4247 2987:13.4247 2988:13.4247 3011:10.8309 3033:10.8309 3069:13.4247 3129:13.4247 3156:10.8309 3159:10.8309 3198:10.8309 3273:10.8309 3285:13.4247 3286:13.4247 3296:13.4247 3355:15.265 3380:15.265 3390:19.698999 3398:10.8309 3402:13.4247 # none/00008641_s01.txt
-5.9169564829330139894402601496992e-05 34:10.8309 106:10.8309 182:15.265 279:10.8309 365:10.8309 449:15.265 459:10.8309 480:13.4247 524:10.8309 546:13.4247 587:10.8309 588:10.8309 596:16.6924 602:13.4247 619:10.8309 646:13.4247 657:16.6924 683:10.8309 685:10.8309 686:10.8309 713:13.4247 719:10.8309 746:10.8309 779:16.6924 845:10.8309 886:13.4247 890:18.844801 928:13.4247 936:10.8309 962:10.8309 983:13.4247 1005:13.4247 1061:10.8309 1075:10.8309 1093:17.8587 1096:13.4247 1108:10.8309 1129:10.8309 1144:10.8309 1146:10.8309 1204:13.4247 1224:10.8309 1228:10.8309 1229:16.6924 1242:10.8309 1254:17.8587 1266:13.4247 1275:16.6924 1320:10.8309 1324:10.8309 1359:10.8309 1377:10.8309 1396:13.4247 1406:10.8309 1422:10.8309 1448:10.8309 1454:13.4247 1479:10.8309 1513:13.4247 1518:20.4524 1605:13.4247 1657:10.8309 1671:15.265 1672:10.8309 1735:10.8309 1736:10.8309 1775:10.8309 1782:13.4247 1786:13.4247 1805:10.8309 1809:10.8309 1822:10.8309 1888:13.4247 1898:15.265 1918:10.8309 1954:10.8309 1966:10.8309 1972:13.4247 1995:10.8309 2006:13.4247 2025:10.8309 2028:10.8309 2085:13.4247 2106:13.4247 2113:15.265 2125:10.8309 2126:10.8309 2137:10.8309 2140:10.8309 2162:10.8309 2235:16.6924 2246:10.8309 2258:10.8309 2259:10.8309 2274:10.8309 2279:10.8309 2306:10.8309 2312:13.4247 2316:10.8309 2368:18.844801 2372:10.8309 2409:10.8309 2411:10.8309 2432:10.8309 2433:10.8309 2496:10.8309 2505:10.8309 2516:13.4247 2550:15.265 2636:10.8309 2638:21.1264 2653:18.844801 2658:10.8309 2669:13.4247 2713:10.8309 2718:10.8309 2727:20.4524 2780:10.8309 2784:16.6924 2787:17.8587 2788:10.8309 2793:22.804701 2828:10.8309 2833:17.8587 2848:10.8309 2881:18.844801 2911:10.8309 2937:10.8309 2962:10.8309 2965:13.4247 3069:10.8309 3092:10.8309 3101:10.8309 3108:17.8587 3117:10.8309 3129:10.8309 3145:10.8309 3156:13.4247 3217:10.8309 3267:13.4247 3296:10.8309 3355:10.8309 3380:13.4247 3390:16.6924 3425:10.8309 3440:10.8309 # none/00000366_s06.txt
5.9169564829330139894402601496992e-05 34:10.8309 41:10.8309 136:10.8309 144:10.8309 271:10.8309 426:15.265 449:13.4247 459:13.4247 527:10.8309 546:15.265 560:10.8309 568:10.8309 585:13.4247 602:10.8309 646:10.8309 690:10.8309 698:10.8309 797:10.8309 833:15.265 837:13.4247 839:10.8309 890:13.4247 935:10.8309 972:15.265 986:10.8309 1005:13.4247 1008:10.8309 1046:10.8309 1108:10.8309 1135:10.8309 1141:10.8309 1160:15.265 1193:10.8309 1227:10.8309 1235:10.8309 1254:15.265 1266:10.8309 1275:13.4247 1358:13.4247 1360:10.8309 1392:10.8309 1479:17.8587 1513:10.8309 1523:10.8309 1613:10.8309 1616:10.8309 1657:13.4247 1660:10.8309 1702:13.4247 1735:10.8309 1739:13.4247 1742:10.8309 1744:10.8309 1751:10.8309 1786:10.8309 1805:10.8309 1850:10.8309 1860:10.8309 1898:13.4247 1902:10.8309 1905:13.4247 2028:10.8309 2063:10.8309 2064:10.8309 2137:13.4247 2219:10.8309 2263:13.4247 2289:13.4247 2306:10.8309 2358:15.265 2368:13.4247 2392:10.8309 2397:10.8309 2417:13.4247 2433:10.8309 2440:10.8309 2479:10.8309 2516:10.8309 2539:13.4247 2542:10.8309 2616:10.8309 2623:10.8309 2625:10.8309 2631:10.8309 2638:18.844801 2653:17.8587 2680:10.8309 2712:10.8309 2717:13.4247 2727:10.8309 2730:10.8309 2752:10.8309 2758:10.8309 2786:10.8309 2788:13.4247 2793:18.844801 2833:10.8309 2834:10.8309 2860:15.265 2867:10.8309 2881:10.8309 2891:15.265 2910:10.8309 2952:10.8309 2959:10.8309 2962:10.8309 2988:13.4247 3011:10.8309 3069:10.8309 3092:10.8309 3095:10.8309 3108:15.265 3146:13.4247 3156:10.8309 3237:10.8309 3296:10.8309 3380:10.8309 3390:15.265 3394:10.8309 3402:10.8309 3427:10.8309 3432:10.8309 # seizures/00000447_s01.txt
5.9169564829330139894402601496992e-05 34:10.8309 136:10.8309 144:10.8309 317:10.8309 374:10.8309 426:15.265 449:13.4247 521:13.4247 527:10.8309 546:15.265 637:10.8309 698:10.8309 801:10.8309 833:10.8309 837:10.8309 844:10.8309 886:10.8309 890:13.4247 1005:15.265 1108:10.8309 1141:10.8309 1144:10.8309 1160:15.265 1193:10.8309 1224:13.4247 1227:10.8309 1229:13.4247 1235:10.8309 1254:19.698999 1266:10.8309 1275:13.4247 1320:10.8309 1324:10.8309 1330:10.8309 1347:10.8309 1358:10.8309 1392:10.8309 1426:10.8309 1479:15.265 1513:10.8309 1518:10.8309 1657:13.4247 1681:10.8309 1689:10.8309 1690:13.4247 1702:13.4247 1735:10.8309 1739:13.4247 1805:10.8309 1850:10.8309 1884:10.8309 1893:10.8309 1898:13.4247 1998:10.8309 2028:10.8309 2063:10.8309 2064:13.4247 2219:10.8309 2222:10.8309 2228:13.4247 2259:10.8309 2263:10.8309 2274:10.8309 2279:10.8309 2289:13.4247 2358:10.8309 2368:16.6924 2392:10.8309 2417:13.4247 2433:10.8309 2479:10.8309 2539:13.4247 2542:10.8309 2623:10.8309 2625:10.8309 2631:10.8309 2638:17.8587 2652:10.8309 2653:10.8309 2667:10.8309 2680:13.4247 2682:10.8309 2712:10.8309 2717:10.8309 2752:10.8309 2788:13.4247 2793:16.6924 2860:10.8309 2891:13.4247 2901:13.4247 2962:10.8309 2988:13.4247 3011:10.8309 3029:10.8309 3069:10.8309 3095:10.8309 3108:17.8587 3156:15.265 3277:10.8309 3286:10.8309 3296:10.8309 3355:10.8309 3380:13.4247 3390:10.8309 3403:10.8309 3440:10.8309 # seizures/00005770_s01.txt
5.9169564829330139894402601496992e-05 34:10.8309 51:10.8309 268:10.8309 272:10.8309 426:13.4247 449:10.8309 459:13.4247 508:10.8309 524:10.8309 546:10.8309 566:10.8309 568:10.8309 571:10.8309 574:10.8309 585:13.4247 596:13.4247 656:10.8309 673:10.8309 684:10.8309 698:10.8309 713:10.8309 733:13.4247 833:10.8309 837:10.8309 886:16.6924 890:13.4247 972:10.8309 1005:10.8309 1108:10.8309 1128:10.8309 1140:10.8309 1141:10.8309 1160:13.4247 1193:10.8309 1227:13.4247 1228:10.8309 1229:13.4247 1235:10.8309 1246:10.8309 1254:15.265 1266:10.8309 1275:15.265 1320:10.8309 1353:10.8309 1358:10.8309 1392:10.8309 1413:10.8309 1479:15.265 1481:10.8309 1628:17.8587 1650:10.8309 1657:13.4247 1702:10.8309 1713:10.8309 1735:10.8309 1742:10.8309 1751:10.8309 1786:10.8309 1805:10.8309 1875:10.8309 1884:10.8309 1893:13.4247 1898:13.4247 1927:10.8309 1947:13.4247 1953:10.8309 1966:13.4247 1993:10.8309 1998:10.8309 2018:10.8309 2028:10.8309 2064:10.8309 2085:10.8309 2113:10.8309 2133:10.8309 2140:13.4247 2241:10.8309 2285:13.4247 2289:10.8309 2311:15.265 2368:16.6924 2392:13.4247 2433:10.8309 2479:10.8309 2525:10.8309 2539:10.8309 2623:10.8309 2625:10.8309 2631:10.8309 2638:15.265 2643:10.8309 2653:13.4247 2658:10.8309 2717:10.8309 2718:10.8309 2727:19.698999 2780:10.8309 2788:19.698999 2793:22.804701 2848:13.4247 2867:13.4247 2881:10.8309 2891:13.4247 2962:10.8309 2965:10.8309 3004:10.8309 3011:10.8309 3069:10.8309 3095:10.8309 3107:10.8309 3108:13.4247 3146:10.8309 3237:10.8309 3253:10.8309 3296:10.8309 3355:13.4247 3380:10.8309 3391:10.8309 # seizures/00001915_s09.txt
5.9169564829330139894402601496992e-05 34:10.8309 218:10.8309 292:10.8309 319:10.8309 426:10.8309 449:13.4247 459:15.265 527:13.4247 546:10.8309 568:16.6924 585:13.4247 633:10.8309 652:10.8309 698:10.8309 757:10.8309 797:10.8309 833:10.8309 886:10.8309 890:13.4247 962:10.8309 972:13.4247 983:13.4247 1005:10.8309 1061:10.8309 1075:10.8309 1093:13.4247 1108:10.8309 1122:10.8309 1128:10.8309 1141:10.8309 1142:13.4247 1160:13.4247 1193:10.8309 1204:10.8309 1224:13.4247 1227:10.8309 1229:10.8309 1254:17.8587 1266:10.8309 1275:13.4247 1320:10.8309 1347:10.8309 1354:10.8309 1358:10.8309 1369:10.8309 1394:10.8309 1448:10.8309 1513:13.4247 1518:16.6924 1523:10.8309 1543:10.8309 1575:10.8309 1611:10.8309 1628:10.8309 1648:10.8309 1657:13.4247 1660:10.8309 1702:13.4247 1735:10.8309 1742:10.8309 1787:10.8309 1805:10.8309 1884:13.4247 1898:13.4247 1921:10.8309 1943:10.8309 1947:10.8309 1957:10.8309 1969:10.8309 1990:15.265 2018:10.8309 2028:10.8309 2057:10.8309 2076:10.8309 2085:10.8309 2100:13.4247 2219:10.8309 2222:10.8309 2285:10.8309 2289:10.8309 2306:10.8309 2311:10.8309 2368:16.6924 2392:15.265 2433:10.8309 2479:10.8309 2539:13.4247 2560:10.8309 2623:10.8309 2625:10.8309 2631:10.8309 2635:10.8309 2638:18.844801 2652:10.8309 2653:15.265 2658:10.8309 2667:10.8309 2680:10.8309 2717:10.8309 2727:18.844801 2752:10.8309 2758:10.8309 2780:10.8309 2788:16.6924 2793:19.698999 2833:10.8309 2848:10.8309 2868:10.8309 2891:13.4247 2932:10.8309 2935:13.4247 2952:10.8309 2962:10.8309 2964:10.8309 3011:10.8309 3069:10.8309 3095:10.8309 3108:10.8309 3129:13.4247 3146:15.265 3156:10.8309 3181:10.8309 3278:10.8309 3286:13.4247 3296:10.8309 3355:10.8309 3380:13.4247 3390:10.8309 3427:10.8309 # seizures/00009662_s01.txt
5.9169564829330139894402601496992e-05 34:10.8309 309:10.8309 374:10.8309 426:16.6924 449:13.4247 459:13.4247 502:10.8309 546:10.8309 568:13.4247 586:15.265 631:15.265 698:10.8309 710:10.8309 733:10.8309 778:13.4247 779:10.8309 801:10.8309 837:10.8309 844:10.8309 863:10.8309 890:13.4247 941:13.4247 968:10.8309 972:13.4247 1005:15.265 1008:10.8309 1082:10.8309 1107:10.8309 1108:10.8309 1141:10.8309 1142:10.8309 1144:10.8309 1160:13.4247 1178:13.4247 1193:15.265 1227:13.4247 1229:18.844801 1235:13.4247 1254:19.698999 1266:15.265 1275:13.4247 1294:10.8309 1315:10.8309 1330:10.8309 1347:10.8309 1354:13.4247 1358:13.4247 1369:10.8309 1431:10.8309 1453:13.4247 1479:13.4247 1513:13.4247 1546:10.8309 1605:10.8309 1625:10.8309 1628:20.4524 1657:13.4247 1675:10.8309 1690:13.4247 1702:10.8309 1735:10.8309 1739:13.4247 1786:13.4247 1805:10.8309 1860:10.8309 1862:10.8309 1884:13.4247 1893:13.4247 1898:18.844801 1958:10.8309 2028:10.8309 2076:15.265 2219:10.8309 2222:10.8309 2235:10.8309 2243:10.8309 2274:10.8309 2289:10.8309 2311:15.265 2331:10.8309 2358:10.8309 2368:20.4524 2392:13.4247 2417:10.8309 2433:10.8309 2440:10.8309 2479:15.265 2539:13.4247 2542:10.8309 2631:10.8309 2635:10.8309 2637:10.8309 2638:19.698999 2652:10.8309 2712:10.8309 2717:15.265 2727:19.698999 2748:10.8309 2767:10.8309 2780:13.4247 2788:18.844801 2793:16.6924 2848:10.8309 2860:10.8309 2867:10.8309 2891:10.8309 2962:10.8309 2965:10.8309 2988:10.8309 3011:10.8309 3069:10.8309 3080:10.8309 3095:10.8309 3101:10.8309 3108:10.8309 3129:10.8309 3146:13.4247 3156:10.8309 3243:10.8309 3286:10.8309 3296:10.8309 3355:10.8309 3380:16.6924 3402:10.8309 3440:10.8309 # seizures/00001136_s06.txt
-2.4090576710141821913102599950207e-05 34:10.8309 272:10.8309 413:10.8309 426:13.4247 433:10.8309 449:10.8309 459:13.4247 527:13.4247 546:13.4247 568:15.265 579:10.8309 607:10.8309 609:10.8309 611:10.8309 631:13.4247 657:10.8309 698:10.8309 837:13.4247 886:10.8309 890:13.4247 1005:10.8309 1008:10.8309 1052:10.8309 1075:10.8309 1108:10.8309 1122:10.8309 1141:10.8309 1142:15.265 1144:10.8309 1160:13.4247 1227:13.4247 1229:10.8309 1235:13.4247 1254:15.265 1257:10.8309 1266:10.8309 1275:13.4247 1324:10.8309 1347:10.8309 1352:10.8309 1358:13.4247 1364:10.8309 1383:10.8309 1415:15.265 1479:13.4247 1501:13.4247 1513:16.6924 1523:10.8309 1543:10.8309 1546:13.4247 1549:10.8309 1628:19.698999 1633:13.4247 1657:13.4247 1690:10.8309 1735:10.8309 1742:10.8309 1801:10.8309 1804:10.8309 1805:10.8309 1850:10.8309 1862:10.8309 1867:10.8309 1898:15.265 1908:10.8309 1916:10.8309 1965:10.8309 1970:10.8309 1998:10.8309 2009:10.8309 2018:16.6924 2028:13.4247 2219:13.4247 2222:10.8309 2228:13.4247 2241:13.4247 2274:10.8309 2289:10.8309 2306:10.8309 2311:15.265 2331:10.8309 2357:13.4247 2368:13.4247 2392:15.265 2417:10.8309 2432:10.8309 2433:10.8309 2539:10.8309 2560:10.8309 2625:15.265 2631:10.8309 2638:13.4247 2652:10.8309 2653:13.4247 2658:10.8309 2712:10.8309 2727:18.844801 2758:10.8309 2788:17.8587 2793:15.265 2868:10.8309 2881:10.8309 2891:19.698999 2962:10.8309 2988:13.4247 3008:10.8309 3011:10.8309 3024:10.8309 3069:10.8309 3095:10.8309 3106:10.8309 3108:15.265 3278:10.8309 3296:10.8309 3355:10.8309 3440:10.8309 # none/00001534_s01.txt
5.9169564829330139894402601496992e-05 34:10.8309 135:10.8309 136:10.8309 144:10.8309 274:10.8309 292:13.4247 426:13.4247 427:10.8309 449:13.4247 459:15.265 527:10.8309 546:10.8309 579:10.8309 585:10.8309 591:10.8309 644:10.8309 657:10.8309 679:10.8309 680:10.8309 698:10.8309 720:10.8309 771:10.8309 779:13.4247 833:10.8309 866:10.8309 886:13.4247 890:16.6924 893:10.8309 955:15.265 962:10.8309 972:10.8309 983:13.4247 1005:15.265 1070:10.8309 1107:10.8309 1108:10.8309 1128:10.8309 1141:10.8309 1142:15.265 1146:10.8309 1160:13.4247 1193:10.8309 1227:13.4247 1254:15.265 1257:10.8309 1266:10.8309 1275:13.4247 1279:15.265 1320:10.8309 1330:10.8309 1358:10.8309 1360:13.4247 1390:10.8309 1431:10.8309 1448:10.8309 1454:10.8309 1479:10.8309 1513:10.8309 1514:10.8309 1518:10.8309 1546:10.8309 1657:10.8309 1702:15.265 1735:10.8309 1805:10.8309 1893:10.8309 1898:15.265 1908:10.8309 1947:10.8309 1952:10.8309 2028:13.4247 2045:10.8309 2085:13.4247 2100:13.4247 2106:10.8309 2107:10.8309 2143:10.8309 2219:10.8309 2228:10.8309 2235:10.8309 2289:10.8309 2311:10.8309 2357:10.8309 2368:15.265 2392:15.265 2432:10.8309 2433:10.8309 2471:10.8309 2479:16.6924 2529:10.8309 2539:13.4247 2623:10.8309 2638:17.8587 2653:10.8309 2658:10.8309 2680:10.8309 2717:10.8309 2718:13.4247 2752:10.8309 2788:16.6924 2793:18.844801 2830:10.8309 2833:17.8587 2867:10.8309 2881:10.8309 2891:17.8587 2962:10.8309 2965:10.8309 2996:13.4247 3031:13.4247 3069:10.8309 3092:10.8309 3095:10.8309 3108:16.6924 3114:10.8309 3146:15.265 3156:15.265 3172:10.8309 3204:10.8309 3278:10.8309 3296:10.8309 3390:17.8587 # seizures/00000068_s01.txt
-3.1716747560597903271735475971838e-05 34:10.8309 136:13.4247 143:10.8309 144:10.8309 310:10.8309 377:10.8309 426:13.4247 449:10.8309 459:15.265 481:10.8309 527:15.265 546:15.265 568:16.6924 588:10.8309 602:10.8309 680:13.4247 740:10.8309 833:10.8309 837:10.8309 844:13.4247 886:13.4247 890:13.4247 947:10.8309 983:10.8309 986:10.8309 1005:10.8309 1099:10.8309 1108:10.8309 1141:13.4247 1142:10.8309 1160:13.4247 1193:10.8309 1227:13.4247 1228:10.8309 1229:15.265 1235:13.4247 1254:15.265 1266:13.4247 1275:18.844801 1320:10.8309 1324:10.8309 1332:10.8309 1347:13.4247 1358:10.8309 1360:10.8309 1369:13.4247 1406:10.8309 1407:10.8309 1454:10.8309 1479:17.8587 1513:13.4247 1514:10.8309 1518:10.8309 1546:10.8309 1575:10.8309 1616:10.8309 1628:10.8309 1648:13.4247 1657:13.4247 1702:15.265 1717:10.8309 1728:13.4247 1735:10.8309 1744:10.8309 1786:10.8309 1805:10.8309 1850:10.8309 1893:10.8309 1898:15.265 1927:15.265 1970:10.8309 1990:13.4247 2028:10.8309 2043:13.4247 2049:10.8309 2064:13.4247 2076:15.265 2143:13.4247 2219:10.8309 2222:13.4247 2260:10.8309 2279:10.8309 2289:10.8309 2311:10.8309 2312:10.8309 2368:17.8587 2392:13.4247 2433:10.8309 2452:10.8309 2479:10.8309 2539:10.8309 2600:10.8309 2616:10.8309 2623:10.8309 2631:10.8309 2635:10.8309 2638:18.844801 2652:13.4247 2653:13.4247 2655:10.8309 2712:10.8309 2717:15.265 2718:10.8309 2727:16.6924 2752:10.8309 2773:10.8309 2774:10.8309 2788:16.6924 2793:15.265 2824:10.8309 2834:10.8309 2840:10.8309 2844:10.8309 2867:10.8309 2881:15.265 2891:16.6924 2910:10.8309 2959:15.265 2962:10.8309 2973:13.4247 3011:15.265 3069:10.8309 3095:10.8309 3108:18.844801 3129:13.4247 3146:10.8309 3156:10.8309 3296:10.8309 3341:16.6924 3380:17.8587 3390:10.8309 3402:10.8309 3427:10.8309 # none/00006018_s02.txt
-3.403036413038986683068584659928e-05 28:10.8309 139:13.4247 313:10.8309 361:10.8309 426:13.4247 449:15.265 459:10.8309 546:10.8309 568:10.8309 579:10.8309 596:10.8309 611:10.8309 631:10.8309 657:10.8309 698:10.8309 701:10.8309 751:10.8309 833:10.8309 836:10.8309 837:10.8309 844:10.8309 886:10.8309 890:10.8309 972:10.8309 1005:10.8309 1108:10.8309 1126:10.8309 1141:10.8309 1142:17.8587 1160:10.8309 1227:10.8309 1229:10.8309 1235:10.8309 1254:16.6924 1266:10.8309 1275:15.265 1324:10.8309 1347:10.8309 1513:10.8309 1518:10.8309 1628:10.8309 1633:10.8309 1657:10.8309 1689:10.8309 1702:13.4247 1735:10.8309 1771:10.8309 1786:13.4247 1805:10.8309 1863:10.8309 1898:13.4247 1906:10.8309 1990:10.8309 1995:10.8309 2028:13.4247 2063:10.8309 2185:10.8309 2217:10.8309 2222:10.8309 2228:13.4247 2235:10.8309 2242:10.8309 2289:10.8309 2311:10.8309 2372:10.8309 2392:16.6924 2397:10.8309 2433:10.8309 2539:15.265 2560:10.8309 2638:13.4247 2652:10.8309 2653:10.8309 2717:10.8309 2727:10.8309 2752:10.8309 2780:10.8309 2788:16.6924 2793:13.4247 2881:10.8309 2891:15.265 2962:10.8309 2988:10.8309 3069:10.8309 3095:10.8309 3096:10.8309 3108:10.8309 3129:10.8309 3156:10.8309 3238:10.8309 3296:10.8309 3340:10.8309 3390:13.4247 3402:10.8309 # none/00004340_s01.txt
4.8459741472591717791930376879606e-05 25:10.8309 34:10.8309 214:10.8309 257:10.8309 291:10.8309 310:10.8309 332:10.8309 426:10.8309 427:10.8309 449:18.844801 466:10.8309 505:10.8309 506:10.8309 543:10.8309 631:10.8309 657:15.265 678:10.8309 713:10.8309 750:13.4247 797:10.8309 801:10.8309 819:10.8309 837:15.265 844:10.8309 845:10.8309 847:10.8309 890:16.6924 925:13.4247 972:10.8309 983:10.8309 986:13.4247 1005:13.4247 1093:13.4247 1099:10.8309 1108:10.8309 1142:13.4247 1144:10.8309 1152:10.8309 1160:15.265 1227:17.8587 1229:10.8309 1235:10.8309 1254:13.4247 1257:10.8309 1266:10.8309 1275:10.8309 1279:15.265 1303:10.8309 1323:13.4247 1324:13.4247 1326:10.8309 1330:10.8309 1359:10.8309 1479:10.8309 1484:10.8309 1513:13.4247 1514:13.4247 1552:10.8309 1616:10.8309 1628:15.265 1652:10.8309 1657:13.4247 1684:10.8309 1690:10.8309 1702:15.265 1709:10.8309 1735:10.8309 1742:10.8309 1753:10.8309 1760:10.8309 1787:13.4247 1805:10.8309 1850:10.8309 1884:10.8309 1888:13.4247 1898:10.8309 1905:10.8309 1970:10.8309 1976:10.8309 1980:10.8309 2028:13.4247 2043:10.8309 2045:10.8309 2051:10.8309 2054:10.8309 2085:10.8309 2218:13.4247 2301:10.8309 2350:10.8309 2358:13.4247 2368:10.8309 2372:10.8309 2389:10.8309 2392:13.4247 2397:13.4247 2417:10.8309 2433:10.8309 2443:13.4247 2516:10.8309 2612:10.8309 2616:10.8309 2637:10.8309 2638:15.265 2653:13.4247 2680:10.8309 2727:19.698999 2780:13.4247 2788:10.8309 2793:19.698999 2824:10.8309 2828:13.4247 2834:13.4247 2891:15.265 2937:10.8309 2952:10.8309 2962:10.8309 2968:13.4247 2973:15.265 2988:10.8309 3008:10.8309 3029:10.8309 3033:10.8309 3069:10.8309 3108:10.8309 3110:10.8309 3129:13.4247 3183:10.8309 3228:10.8309 3257:15.265 3286:10.8309 3296:10.8309 3342:13.4247 3355:10.8309 3370:10.8309 3390:10.8309 # seizures/00002277_s02.txt
4.343721060836020343796232134892e-05 2:10.8309 14:13.4247 16:13.4247 34:10.8309 62:16.6924 238:13.4247 309:13.4247 365:10.8309 386:10.8309 426:13.4247 428:13.4247 449:21.736099 453:13.4247 459:10.8309 503:10.8309 568:10.8309 574:15.265 591:10.8309 646:16.6924 657:10.8309 683:10.8309 686:13.4247 740:10.8309 746:10.8309 819:10.8309 833:10.8309 835:13.4247 844:10.8309 845:10.8309 886:15.265 890:16.6924 901:10.8309 914:10.8309 986:13.4247 1005:10.8309 1072:10.8309 1093:15.265 1096:10.8309 1107:10.8309 1108:10.8309 1138:10.8309 1140:10.8309 1144:10.8309 1160:10.8309 1217:10.8309 1224:10.8309 1227:10.8309 1228:10.8309 1248:10.8309 1254:15.265 1259:10.8309 1266:10.8309 1275:10.8309 1305:10.8309 1324:10.8309 1354:10.8309 1359:13.4247 1407:10.8309 1414:10.8309 1421:10.8309 1426:10.8309 1484:13.4247 1513:13.4247 1518:10.8309 1546:10.8309 1575:10.8309 1657:10.8309 1672:10.8309 1676:15.265 1690:16.6924 1702:15.265 1713:10.8309 1735:10.8309 1742:15.265 1805:10.8309 1814:10.8309 1850:10.8309 1875:10.8309 1888:10.8309 1898:13.4247 1936:10.8309 1945:10.8309 1947:13.4247 1957:10.8309 1995:10.8309 2009:10.8309 2028:10.8309 2071:10.8309 2085:13.4247 2110:10.8309 2113:13.4247 2170:10.8309 2184:10.8309 2241:10.8309 2258:10.8309 2259:13.4247 2279:16.6924 2311:10.8309 2312:10.8309 2356:13.4247 2362:10.8309 2367:10.8309 2368:21.1264 2392:16.6924 2417:13.4247 2426:13.4247 2433:10.8309 2470:10.8309 2474:10.8309 2479:10.8309 2525:10.8309 2530:10.8309 2542:10.8309 2549:13.4247 2550:13.4247 2595:10.8309 2615:10.8309 2638:13.4247 2650:10.8309 2653:16.6924 2658:10.8309 2680:10.8309 2696:13.4247 2717:10.8309 2718:15.265 2727:16.6924 2780:10.8309 2784:10.8309 2787:13.4247 2788:18.844801 2793:19.698999 2833:15.265 2834:13.4247 2837:10.8309 2848:10.8309 2874:10.8309 2881:13.4247 2891:10.8309 2962:10.8309 2965:10.8309 2988:10.8309 2996:10.8309 3068:10.8309 3069:10.8309 3081:10.8309 3084:10.8309 3094:10.8309 3108:16.6924 3115:10.8309 3128:10.8309 3129:15.265 3178:10.8309 3179:10.8309 3194:10.8309 3238:13.4247 3243:10.8309 3286:13.4247 3296:13.4247 3341:13.4247 3346:15.265 3355:10.8309 3383:10.8309 3390:15.265 3392:10.8309 3393:10.8309 3402:15.265 # seizures/00002106_s01.txt
-5.5110953794624673691363719862935e-05 34:10.8309 349:10.8309 365:10.8309 426:10.8309 449:16.6924 527:10.8309 565:10.8309 591:13.4247 612:13.4247 625:10.8309 631:15.265 657:13.4247 683:10.8309 698:13.4247 735:10.8309 746:10.8309 750:10.8309 759:10.8309 822:10.8309 845:10.8309 890:13.4247 972:10.8309 1005:10.8309 1017:10.8309 1075:10.8309 1079:10.8309 1093:13.4247 1108:10.8309 1144:10.8309 1145:10.8309 1193:10.8309 1227:15.265 1254:13.4247 1266:10.8309 1275:10.8309 1287:10.8309 1303:10.8309 1320:10.8309 1369:10.8309 1460:10.8309 1546:10.8309 1628:20.4524 1633:10.8309 1657:13.4247 1672:10.8309 1700:10.8309 1702:10.8309 1735:10.8309 1742:10.8309 1781:10.8309 1796:10.8309 1799:10.8309 1805:10.8309 1814:10.8309 1850:10.8309 1898:20.4524 1947:10.8309 1973:10.8309 2028:13.4247 2051:10.8309 2113:15.265 2222:10.8309 2235:10.8309 2274:10.8309 2277:10.8309 2279:13.4247 2368:10.8309 2392:10.8309 2433:10.8309 2479:10.8309 2638:18.844801 2686:10.8309 2688:10.8309 2696:10.8309 2717:15.265 2727:10.8309 2782:10.8309 2788:19.698999 2793:10.8309 2833:15.265 2877:10.8309 2891:13.4247 2894:13.4247 2962:10.8309 2965:10.8309 3068:10.8309 3069:10.8309 3156:10.8309 3183:10.8309 3192:10.8309 3296:10.8309 3355:10.8309 3390:15.265 3394:10.8309 3402:13.4247 3425:10.8309 3427:10.8309 3440:10.8309 3451:10.8309 # none/00003968_s01.txt
-3.3486493947440110349137581957635e-05 34:10.8309 136:10.8309 144:10.8309 271:10.8309 365:10.8309 405:10.8309 426:15.265 449:10.8309 454:10.8309 459:10.8309 527:10.8309 546:15.265 565:10.8309 619:10.8309 680:10.8309 697:13.4247 698:10.8309 833:10.8309 844:10.8309 886:13.4247 890:13.4247 917:10.8309 972:10.8309 983:10.8309 1005:10.8309 1008:10.8309 1108:10.8309 1141:10.8309 1160:13.4247 1193:10.8309 1224:15.265 1227:10.8309 1229:10.8309 1235:10.8309 1254:15.265 1266:10.8309 1275:13.4247 1358:10.8309 1360:10.8309 1479:16.6924 1513:10.8309 1518:10.8309 1560:10.8309 1616:10.8309 1628:16.6924 1657:13.4247 1686:10.8309 1689:10.8309 1702:13.4247 1735:10.8309 1739:10.8309 1786:10.8309 1805:10.8309 1815:10.8309 1860:10.8309 1898:16.6924 2018:13.4247 2028:13.4247 2063:10.8309 2219:13.4247 2289:10.8309 2311:17.8587 2364:10.8309 2368:13.4247 2392:13.4247 2417:13.4247 2433:10.8309 2479:10.8309 2489:10.8309 2516:10.8309 2539:10.8309 2542:10.8309 2560:10.8309 2616:10.8309 2623:10.8309 2631:10.8309 2638:16.6924 2653:13.4247 2712:10.8309 2716:10.8309 2717:10.8309 2718:10.8309 2727:13.4247 2752:10.8309 2788:17.8587 2793:15.265 2833:15.265 2868:10.8309 2891:13.4247 2962:10.8309 2988:13.4247 3004:13.4247 3008:10.8309 3011:10.8309 3069:10.8309 3095:10.8309 3108:15.265 3156:13.4247 3296:10.8309 3380:15.265 3390:15.265 3427:10.8309 # none/00006962_s01.txt
-5.9169564829330139894402601496992e-05 15:13.4247 16:10.8309 34:10.8309 51:10.8309 62:10.8309 84:10.8309 94:19.698999 100:13.4247 106:17.8587 109:10.8309 110:15.265 113:13.4247 114:13.4247 129:10.8309 139:16.6924 157:20.4524 166:10.8309 167:10.8309 172:10.8309 178:10.8309 182:13.4247 194:13.4247 200:10.8309 244:10.8309 257:10.8309 270:10.8309 304:13.4247 306:10.8309 312:10.8309 315:10.8309 322:10.8309 361:10.8309 432:10.8309 436:10.8309 439:10.8309 449:17.8587 459:13.4247 480:10.8309 503:10.8309 542:10.8309 548:10.8309 563:13.4247 568:16.6924 591:10.8309 596:16.6924 612:10.8309 631:10.8309 646:15.265 648:10.8309 673:10.8309 681:10.8309 687:10.8309 698:10.8309 713:10.8309 719:10.8309 746:10.8309 783:24.5208 835:10.8309 841:10.8309 844:10.8309 845:15.265 847:10.8309 886:13.4247 890:10.8309 936:10.8309 944:13.4247 952:10.8309 953:10.8309 955:10.8309 968:10.8309 972:10.8309 983:17.8587 1053:10.8309 1061:10.8309 1065:13.4247 1096:10.8309 1108:10.8309 1112:10.8309 1115:13.4247 1136:13.4247 1195:10.8309 1221:10.8309 1224:15.265 1227:10.8309 1229:10.8309 1242:15.265 1254:18.844801 1266:10.8309 1270:10.8309 1275:16.6924 1279:10.8309 1305:10.8309 1324:10.8309 1330:10.8309 1353:10.8309 1354:20.4524 1367:10.8309 1381:10.8309 1389:10.8309 1398:10.8309 1401:10.8309 1406:10.8309 1454:13.4247 1479:19.698999 1484:10.8309 1513:10.8309 1586:13.4247 1612:10.8309 1628:13.4247 1671:10.8309 1672:10.8309 1702:15.265 1708:10.8309 1713:18.844801 1717:16.6924 1718:10.8309 1725:10.8309 1735:10.8309 1739:15.265 1747:13.4247 1786:16.6924 1805:17.8587 1833:20.4524 1888:13.4247 1898:10.8309 1906:10.8309 1936:10.8309 1947:13.4247 1953:17.8587 1965:10.8309 1998:10.8309 2106:21.1264 2114:15.265 2119:10.8309 2125:10.8309 2126:13.4247 2133:10.8309 2140:13.4247 2235:17.8587 2244:10.8309 2259:16.6924 2260:10.8309 2279:13.4247 2285:10.8309 2304:10.8309 2306:10.8309 2311:10.8309 2312:10.8309 2358:13.4247 2368:23.7201 2373:10.8309 2392:13.4247 2428:10.8309 2433:10.8309 2468:15.265 2471:10.8309 2493:13.4247 2525:10.8309 2536:13.4247 2550:10.8309 2574:10.8309 2579:24.5208 2593:16.6924 2604:10.8309 2611:10.8309 2615:15.265 2633:10.8309 2636:10.8309 2638:23.278799 2653:13.4247 2667:10.8309 2669:15.265 2683:10.8309 2698:10.8309 2718:10.8309 2727:19.698999 2780:10.8309 2784:20.4524 2786:10.8309 2787:16.6924 2788:16.6924 2793:20.4524 2830:10.8309 2833:10.8309 2837:10.8309 2852:10.8309 2854:10.8309 2856:10.8309 2867:15.265 2881:16.6924 2891:20.4524 2926:10.8309 2930:13.4247 2944:10.8309 2959:15.265 2962:10.8309 3021:10.8309 3027:13.4247 3033:10.8309 3069:17.8587 3081:10.8309 3095:10.8309 3108:10.8309 3114:10.8309 3117:10.8309 3129:17.8587 3146:10.8309 3156:16.6924 3237:10.8309 3238:10.8309 3243:10.8309 3267:10.8309 3273:10.8309 3286:10.8309 3289:10.8309 3296:10.8309 3341:10.8309 3355:17.8587 3380:13.4247 3390:10.8309 3402:10.8309 3425:10.8309 3428:10.8309 # none/00001857_s02.txt
-5.9169564829330139894402601496992e-05 20:18.844801 34:10.8309 65:10.8309 84:15.265 94:10.8309 99:10.8309 100:10.8309 110:10.8309 161:16.6924 210:10.8309 218:10.8309 232:15.265 234:13.4247 236:10.8309 241:10.8309 244:13.4247 386:10.8309 422:10.8309 426:13.4247 449:18.844801 459:10.8309 481:10.8309 503:10.8309 527:10.8309 546:17.8587 603:10.8309 613:10.8309 614:10.8309 646:10.8309 648:10.8309 657:13.4247 681:10.8309 683:10.8309 687:13.4247 695:10.8309 697:10.8309 709:13.4247 713:13.4247 740:10.8309 746:13.4247 779:10.8309 783:10.8309 843:10.8309 845:10.8309 886:13.4247 890:18.844801 898:13.4247 907:10.8309 928:10.8309 944:15.265 972:10.8309 983:13.4247 994:13.4247 1005:13.4247 1096:15.265 1108:13.4247 1140:10.8309 1144:10.8309 1159:10.8309 1184:10.8309 1214:10.8309 1224:10.8309 1227:10.8309 1229:10.8309 1242:10.8309 1254:19.698999 1266:10.8309 1275:10.8309 1292:10.8309 1305:10.8309 1320:10.8309 1324:10.8309 1342:10.8309 1401:10.8309 1437:13.4247 1479:10.8309 1514:10.8309 1518:10.8309 1570:10.8309 1605:10.8309 1643:10.8309 1657:10.8309 1672:13.4247 1690:10.8309 1713:10.8309 1735:10.8309 1739:15.265 1756:10.8309 1767:10.8309 1805:10.8309 1837:10.8309 1850:10.8309 1867:10.8309 1875:10.8309 1898:17.8587 1947:13.4247 1952:10.8309 1957:10.8309 1995:10.8309 2028:10.8309 2030:10.8309 2106:15.265 2113:15.265 2114:13.4247 2116:10.8309 2117:10.8309 2126:10.8309 2219:10.8309 2235:10.8309 2254:10.8309 2259:10.8309 2260:20.4524 2263:10.8309 2264:10.8309 2274:10.8309 2279:10.8309 2299:10.8309 2312:10.8309 2346:10.8309 2362:10.8309 2368:21.1264 2372:16.6924 2392:13.4247 2401:10.8309 2417:10.8309 2423:10.8309 2426:10.8309 2433:10.8309 2452:10.8309 2483:13.4247 2533:10.8309 2547:10.8309 2550:10.8309 2579:10.8309 2604:10.8309 2623:10.8309 2634:10.8309 2638:21.1264 2650:10.8309 2653:15.265 2658:13.4247 2667:10.8309 2669:10.8309 2678:10.8309 2680:10.8309 2693:10.8309 2717:10.8309 2718:10.8309 2727:23.278799 2784:16.6924 2787:13.4247 2788:13.4247 2793:21.736099 2833:21.736099 2843:10.8309 2848:10.8309 2859:10.8309 2881:10.8309 2886:10.8309 2891:17.8587 2910:13.4247 2937:17.8587 2962:10.8309 2968:10.8309 2985:10.8309 2988:10.8309 3011:10.8309 3064:10.8309 3069:10.8309 3092:10.8309 3108:18.844801 3114:13.4247 3156:13.4247 3173:13.4247 3190:16.6924 3195:15.265 3208:13.4247 3238:10.8309 3286:10.8309 3296:10.8309 3341:10.8309 3345:10.8309 3355:10.8309 3380:10.8309 3390:23.278799 3402:10.8309 3405:10.8309 3425:10.8309 3440:10.8309 # none/00001600_s04.txt
-5.9169564829330139894402601496992e-05 34:10.8309 342:10.8309 414:10.8309 426:13.4247 449:19.698999 459:10.8309 508:10.8309 527:16.6924 590:10.8309 591:13.4247 657:15.265 683:10.8309 698:10.8309 746:10.8309 833:10.8309 845:10.8309 890:13.4247 920:10.8309 937:10.8309 944:10.8309 993:10.8309 1005:10.8309 1083:10.8309 1093:13.4247 1096:10.8309 1107:10.8309 1108:10.8309 1144:10.8309 1146:10.8309 1160:10.8309 1227:10.8309 1254:17.8587 1266:10.8309 1275:10.8309 1324:13.4247 1360:10.8309 1444:10.8309 1454:10.8309 1484:13.4247 1513:13.4247 1514:13.4247 1524:13.4247 1546:10.8309 1560:10.8309 1608:10.8309 1611:10.8309 1628:15.265 1648:16.6924 1657:13.4247 1672:10.8309 1709:13.4247 1713:10.8309 1735:10.8309 1742:10.8309 1805:10.8309 1807:10.8309 1898:17.8587 1970:10.8309 1995:10.8309 2019:13.4247 2028:10.8309 2085:10.8309 2092:10.8309 2113:13.4247 2160:10.8309 2258:10.8309 2277:10.8309 2279:10.8309 2368:13.4247 2372:10.8309 2389:10.8309 2392:10.8309 2397:10.8309 2433:10.8309 2525:10.8309 2550:10.8309 2638:15.265 2653:15.265 2667:10.8309 2727:10.8309 2780:13.4247 2787:10.8309 2788:10.8309 2793:15.265 2891:16.6924 2910:13.4247 2937:15.265 2952:10.8309 2962:13.4247 2987:10.8309 2988:10.8309 3011:10.8309 3012:10.8309 3038:10.8309 3043:10.8309 3069:10.8309 3129:10.8309 3199:10.8309 3238:10.8309 3286:10.8309 3296:13.4247 3303:10.8309 3319:10.8309 3355:10.8309 3370:10.8309 3371:10.8309 3390:15.265 3402:10.8309 3425:10.8309 # none/00001987_s03.txt
-5.9169564829330139894402601496992e-05 4:16.6924 16:10.8309 20:10.8309 28:10.8309 34:10.8309 75:13.4247 84:10.8309 100:10.8309 106:10.8309 110:13.4247 114:13.4247 133:10.8309 139:13.4247 149:10.8309 167:13.4247 238:10.8309 242:10.8309 248:10.8309 257:10.8309 272:10.8309 273:10.8309 312:10.8309 322:10.8309 414:10.8309 426:13.4247 430:13.4247 449:20.4524 459:17.8587 483:10.8309 527:10.8309 568:13.4247 574:15.265 576:10.8309 588:10.8309 612:10.8309 656:10.8309 657:13.4247 687:10.8309 728:10.8309 746:10.8309 763:10.8309 779:17.8587 783:13.4247 796:10.8309 819:15.265 845:10.8309 886:15.265 890:17.8587 922:10.8309 944:13.4247 952:10.8309 986:10.8309 1005:15.265 1040:10.8309 1058:13.4247 1083:13.4247 1099:10.8309 1108:10.8309 1144:10.8309 1160:13.4247 1193:10.8309 1227:10.8309 1228:10.8309 1229:13.4247 1236:10.8309 1254:17.8587 1266:10.8309 1275:13.4247 1310:10.8309 1314:10.8309 1320:15.265 1353:10.8309 1354:10.8309 1370:10.8309 1376:10.8309 1392:13.4247 1396:10.8309 1398:10.8309 1408:10.8309 1421:10.8309 1449:10.8309 1484:10.8309 1513:10.8309 1518:18.844801 1546:13.4247 1560:13.4247 1621:10.8309 1648:10.8309 1657:10.8309 1671:15.265 1672:10.8309 1702:15.265 1712:10.8309 1713:16.6924 1717:10.8309 1735:10.8309 1736:10.8309 1739:16.6924 1747:10.8309 1756:10.8309 1760:13.4247 1805:10.8309 1823:10.8309 1850:13.4247 1862:10.8309 1879:10.8309 1884:10.8309 1906:10.8309 1912:10.8309 1927:15.265 1945:10.8309 1954:10.8309 1965:10.8309 1992:10.8309 2028:10.8309 2085:10.8309 2114:10.8309 2117:13.4247 2137:16.6924 2160:10.8309 2184:10.8309 2228:13.4247 2246:10.8309 2259:10.8309 2263:10.8309 2277:10.8309 2279:16.6924 2289:10.8309 2299:10.8309 2312:10.8309 2341:10.8309 2368:19.698999 2389:15.265 2392:10.8309 2400:10.8309 2433:10.8309 2435:10.8309 2463:10.8309 2468:13.4247 2471:10.8309 2479:10.8309 2501:15.265 2536:10.8309 2541:10.8309 2542:10.8309 2579:13.4247 2625:10.8309 2634:10.8309 2638:19.698999 2650:13.4247 2653:10.8309 2690:13.4247 2714:10.8309 2717:10.8309 2729:10.8309 2767:10.8309 2775:10.8309 2780:13.4247 2784:10.8309 2788:16.6924 2793:18.844801 2798:10.8309 2834:10.8309 2854:10.8309 2872:10.8309 2881:16.6924 2891:17.8587 2910:10.8309 2931:10.8309 2935:10.8309 2937:16.6924 2944:10.8309 2959:10.8309 2962:10.8309 2996:10.8309 3010:10.8309 3027:10.8309 3033:10.8309 3061:13.4247 3062:10.8309 3067:10.8309 3069:10.8309 3114:10.8309 3156:10.8309 3195:10.8309 3205:10.8309 3237:10.8309 3273:10.8309 3296:10.8309 3298:10.8309 3340:10.8309 3346:10.8309 3355:15.265 3380:15.265 3390:17.8587 3402:10.8309 3425:10.8309 # none/00002835_s02.txt
5.9169564829330139894402601496992e-05 34:10.8309 267:10.8309 407:10.8309 619:13.4247 746:10.8309 845:10.8309 847:10.8309 890:13.4247 1005:10.8309 1099:10.8309 1108:10.8309 1144:10.8309 1146:10.8309 1159:10.8309 1217:10.8309 1224:10.8309 1254:17.8587 1266:10.8309 1275:10.8309 1320:10.8309 1533:10.8309 1605:10.8309 1611:10.8309 1657:10.8309 1672:10.8309 1735:10.8309 1739:10.8309 1747:10.8309 1755:10.8309 1805:10.8309 1846:10.8309 1862:10.8309 1992:10.8309 1995:10.8309 2009:10.8309 2028:10.8309 2106:10.8309 2126:10.8309 2165:10.8309 2169:10.8309 2228:13.4247 2235:10.8309 2244:10.8309 2274:10.8309 2368:13.4247 2392:10.8309 2417:10.8309 2433:10.8309 2472:10.8309 2516:10.8309 2530:10.8309 2542:10.8309 2638:10.8309 2696:10.8309 2727:10.8309 2744:10.8309 2780:10.8309 2793:13.4247 2881:15.265 2944:10.8309 2959:13.4247 2962:10.8309 2988:10.8309 3069:10.8309 3204:10.8309 3296:10.8309 3346:10.8309 3355:10.8309 3390:10.8309 3440:10.8309 # seizures/00000185_s02.txt
5.9169564829330139894402601496992e-05 28:10.8309 34:10.8309 35:10.8309 139:10.8309 167:10.8309 395:10.8309 468:10.8309 483:10.8309 503:10.8309 619:10.8309 646:10.8309 657:13.4247 683:10.8309 698:13.4247 746:10.8309 845:10.8309 847:10.8309 890:13.4247 938:10.8309 1005:10.8309 1040:10.8309 1107:10.8309 1108:10.8309 1144:10.8309 1146:10.8309 1224:15.265 1254:16.6924 1257:10.8309 1266:10.8309 1275:10.8309 1320:10.8309 1324:10.8309 1392:10.8309 1421:13.4247 1479:10.8309 1548:13.4247 1657:10.8309 1672:10.8309 1708:10.8309 1725:10.8309 1735:10.8309 1739:13.4247 1805:10.8309 1850:10.8309 1884:10.8309 1927:10.8309 1962:10.8309 2028:13.4247 2059:10.8309 2085:10.8309 2126:10.8309 2228:10.8309 2235:10.8309 2254:10.8309 2368:10.8309 2392:10.8309 2433:10.8309 2472:10.8309 2508:10.8309 2638:15.265 2685:10.8309 2717:10.8309 2730:10.8309 2747:10.8309 2793:13.4247 2891:10.8309 2962:10.8309 3069:10.8309 3296:10.8309 3355:10.8309 3380:13.4247 3394:10.8309 3398:10.8309 3424:10.8309 3427:10.8309 3441:10.8309 # seizures/00003371_s02.txt
5.9169564829330139894402601496992e-05 28:10.8309 34:10.8309 62:10.8309 262:10.8309 365:10.8309 426:13.4247 449:16.6924 503:13.4247 546:10.8309 602:10.8309 612:10.8309 646:13.4247 648:10.8309 683:10.8309 746:10.8309 750:10.8309 752:10.8309 835:10.8309 844:10.8309 845:10.8309 890:13.4247 1005:10.8309 1024:10.8309 1093:10.8309 1107:10.8309 1108:10.8309 1129:10.8309 1144:10.8309 1146:10.8309 1169:10.8309 1224:10.8309 1227:10.8309 1229:10.8309 1242:10.8309 1254:15.265 1266:10.8309 1275:10.8309 1320:10.8309 1324:10.8309 1479:15.265 1513:10.8309 1627:10.8309 1628:10.8309 1657:13.4247 1672:10.8309 1702:10.8309 1735:10.8309 1781:10.8309 1805:10.8309 1837:10.8309 1898:13.4247 1901:10.8309 1911:10.8309 1947:10.8309 1995:10.8309 2019:10.8309 2025:10.8309 2028:10.8309 2064:10.8309 2228:10.8309 2279:13.4247 2358:10.8309 2368:13.4247 2392:13.4247 2417:10.8309 2423:10.8309 2433:10.8309 2516:10.8309 2550:13.4247 2606:10.8309 2638:15.265 2646:10.8309 2653:15.265 2678:10.8309 2686:10.8309 2704:10.8309 2717:10.8309 2727:17.8587 2788:13.4247 2793:17.8587 2794:10.8309 2827:13.4247 2833:10.8309 2874:10.8309 2891:15.265 2937:10.8309 2962:10.8309 2975:10.8309 2988:10.8309 3008:10.8309 3016:10.8309 3069:10.8309 3108:13.4247 3114:10.8309 3129:13.4247 3179:10.8309 3228:10.8309 3238:10.8309 3242:10.8309 3296:10.8309 3319:10.8309 3355:10.8309 3380:10.8309 3390:13.4247 3402:10.8309 3425:10.8309 3440:10.8309 # seizures/00004784_s01.txt
5.9169564829330139894402601496992e-05 34:10.8309 81:10.8309 206:10.8309 426:10.8309 449:10.8309 543:10.8309 546:13.4247 586:10.8309 657:10.8309 683:10.8309 709:10.8309 711:10.8309 746:10.8309 845:10.8309 890:13.4247 925:10.8309 983:13.4247 986:10.8309 1005:10.8309 1096:10.8309 1108:10.8309 1138:13.4247 1144:10.8309 1185:10.8309 1227:10.8309 1254:18.844801 1266:10.8309 1275:10.8309 1279:10.8309 1305:10.8309 1323:13.4247 1359:10.8309 1392:10.8309 1513:10.8309 1514:10.8309 1518:10.8309 1597:10.8309 1657:10.8309 1671:10.8309 1672:10.8309 1708:10.8309 1735:10.8309 1739:10.8309 1761:10.8309 1805:10.8309 1898:13.4247 1906:10.8309 1947:10.8309 1973:10.8309 1995:10.8309 2009:10.8309 2064:10.8309 2106:10.8309 2126:10.8309 2137:10.8309 2235:10.8309 2274:10.8309 2284:10.8309 2299:10.8309 2311:10.8309 2368:13.4247 2372:10.8309 2392:10.8309 2433:10.8309 2463:10.8309 2472:10.8309 2479:13.4247 2638:13.4247 2691:10.8309 2718:10.8309 2727:13.4247 2784:10.8309 2791:10.8309 2793:16.6924 2828:10.8309 2834:10.8309 2891:10.8309 2962:10.8309 2973:15.265 3041:10.8309 3069:10.8309 3108:16.6924 3242:10.8309 3296:10.8309 3355:10.8309 3433:10.8309 3440:10.8309 # seizures/00000825_s02.txt
5.9169564829330139894402601496992e-05 26:10.8309 34:10.8309 136:10.8309 267:10.8309 426:13.4247 449:13.4247 459:13.4247 546:15.265 568:10.8309 579:10.8309 585:10.8309 607:10.8309 612:10.8309 657:10.8309 680:10.8309 698:13.4247 750:10.8309 759:13.4247 833:10.8309 890:13.4247 898:10.8309 935:10.8309 972:15.265 983:10.8309 1005:10.8309 1099:10.8309 1108:10.8309 1128:10.8309 1141:10.8309 1142:15.265 1144:10.8309 1160:10.8309 1193:10.8309 1227:10.8309 1229:10.8309 1235:10.8309 1254:17.8587 1266:10.8309 1275:13.4247 1279:15.265 1320:10.8309 1358:10.8309 1360:10.8309 1415:10.8309 1448:10.8309 1479:13.4247 1513:10.8309 1518:13.4247 1546:13.4247 1628:10.8309 1657:10.8309 1702:16.6924 1735:10.8309 1742:10.8309 1786:10.8309 1805:10.8309 1815:10.8309 1860:10.8309 1862:10.8309 1893:10.8309 1898:10.8309 1947:10.8309 1995:10.8309 2028:10.8309 2033:10.8309 2050:10.8309 2113:13.4247 2219:10.8309 2228:13.4247 2274:10.8309 2289:10.8309 2311:10.8309 2372:10.8309 2392:16.6924 2433:10.8309 2472:10.8309 2479:10.8309 2516:10.8309 2539:15.265 2631:10.8309 2638:17.8587 2653:10.8309 2658:10.8309 2717:10.8309 2718:10.8309 2727:15.265 2788:18.844801 2793:17.8587 2824:10.8309 2833:15.265 2867:10.8309 2881:10.8309 2891:17.8587 2899:10.8309 2915:10.8309 2962:10.8309 2965:10.8309 2973:10.8309 2996:10.8309 3008:10.8309 3047:10.8309 3069:10.8309 3092:10.8309 3095:10.8309 3108:15.265 3146:13.4247 3156:15.265 3173:10.8309 3228:10.8309 3296:10.8309 3355:10.8309 3390:17.8587 3440:10.8309 # seizures/00001970_s01.txt
-5.9169564829330139894402601496992e-05 34:10.8309 51:10.8309 361:10.8309 372:10.8309 406:10.8309 407:10.8309 426:10.8309 449:10.8309 508:10.8309 568:10.8309 586:10.8309 596:10.8309 619:10.8309 646:10.8309 647:13.4247 657:10.8309 679:13.4247 680:10.8309 683:10.8309 746:10.8309 779:10.8309 886:10.8309 890:10.8309 901:10.8309 925:10.8309 942:10.8309 983:10.8309 986:13.4247 1005:10.8309 1015:10.8309 1041:10.8309 1076:10.8309 1093:10.8309 1115:10.8309 1140:10.8309 1144:10.8309 1146:10.8309 1164:13.4247 1227:10.8309 1254:17.8587 1266:10.8309 1283:10.8309 1298:10.8309 1303:10.8309 1353:10.8309 1389:10.8309 1582:13.4247 1628:10.8309 1657:10.8309 1672:10.8309 1735:10.8309 1736:15.265 1742:13.4247 1747:10.8309 1760:13.4247 1786:15.265 1814:10.8309 1898:17.8587 1953:13.4247 1970:13.4247 1972:10.8309 2009:13.4247 2012:10.8309 2022:10.8309 2028:10.8309 2125:13.4247 2137:10.8309 2140:10.8309 2244:10.8309 2254:13.4247 2257:10.8309 2274:10.8309 2306:10.8309 2311:15.265 2316:10.8309 2362:10.8309 2368:15.265 2372:17.8587 2392:10.8309 2409:10.8309 2479:13.4247 2516:10.8309 2525:10.8309 2542:10.8309 2634:10.8309 2638:17.8587 2658:13.4247 2667:10.8309 2691:10.8309 2713:10.8309 2727:16.6924 2793:16.6924 2834:13.4247 2891:15.265 2937:10.8309 2962:10.8309 2965:10.8309 2970:10.8309 3032:10.8309 3033:10.8309 3041:10.8309 3043:16.6924 3108:13.4247 3129:17.8587 3138:10.8309 3156:10.8309 3262:10.8309 3296:10.8309 3341:15.265 3355:10.8309 3368:10.8309 3370:13.4247 3427:10.8309 3440:10.8309 # none/00009034_s02.txt
-4.7333072785914017039689272170477e-05 426:10.8309 631:10.8309 1108:10.8309 1142:10.8309 1628:10.8309 2727:10.8309 2793:10.8309 2891:13.4247 # none/00001147_s06x.txt
-5.9169564829330139894402601496992e-05 34:10.8309 361:10.8309 377:10.8309 426:13.4247 449:13.4247 471:10.8309 503:10.8309 524:10.8309 634:10.8309 657:10.8309 683:10.8309 746:10.8309 833:13.4247 845:10.8309 890:15.265 944:13.4247 983:10.8309 999:10.8309 1005:10.8309 1093:10.8309 1095:10.8309 1108:10.8309 1144:10.8309 1146:10.8309 1227:10.8309 1254:16.6924 1266:10.8309 1275:10.8309 1353:10.8309 1360:10.8309 1415:10.8309 1448:10.8309 1479:10.8309 1481:10.8309 1501:10.8309 1513:13.4247 1546:10.8309 1548:10.8309 1611:10.8309 1623:10.8309 1628:13.4247 1633:10.8309 1657:10.8309 1672:10.8309 1713:13.4247 1735:10.8309 1742:10.8309 1761:10.8309 1771:10.8309 1805:10.8309 1815:10.8309 1898:13.4247 1901:10.8309 1995:10.8309 2019:10.8309 2028:10.8309 2076:10.8309 2093:10.8309 2274:10.8309 2338:10.8309 2350:13.4247 2368:15.265 2392:10.8309 2397:13.4247 2433:10.8309 2459:13.4247 2541:10.8309 2542:10.8309 2638:15.265 2653:13.4247 2680:10.8309 2727:16.6924 2793:10.8309 2830:10.8309 2833:13.4247 2887:10.8309 2891:15.265 2900:10.8309 2910:10.8309 2911:10.8309 2952:10.8309 2962:10.8309 2988:13.4247 3015:10.8309 3041:10.8309 3069:10.8309 3077:10.8309 3092:10.8309 3129:10.8309 3199:10.8309 3296:10.8309 3355:10.8309 3390:13.4247 3402:10.8309 3440:10.8309 # none/00008621_s01.txt
-5.9169564829330139894402601496992e-05 34:10.8309 51:10.8309 94:10.8309 161:10.8309 297:10.8309 395:10.8309 426:10.8309 430:10.8309 446:10.8309 449:15.265 503:10.8309 512:10.8309 518:10.8309 622:10.8309 683:10.8309 746:10.8309 779:13.4247 837:10.8309 845:10.8309 890:13.4247 909:10.8309 964:10.8309 1005:10.8309 1108:10.8309 1144:10.8309 1170:10.8309 1227:10.8309 1228:10.8309 1254:15.265 1266:10.8309 1275:10.8309 1306:10.8309 1405:10.8309 1421:10.8309 1439:10.8309 1616:10.8309 1638:10.8309 1657:13.4247 1660:10.8309 1672:10.8309 1735:10.8309 1739:13.4247 1805:10.8309 1952:10.8309 1995:10.8309 2028:13.4247 2085:10.8309 2274:10.8309 2364:10.8309 2368:10.8309 2372:13.4247 2392:10.8309 2397:13.4247 2433:10.8309 2463:10.8309 2472:10.8309 2545:10.8309 2625:10.8309 2638:15.265 2674:10.8309 2718:10.8309 2780:13.4247 2793:13.4247 2962:10.8309 2973:10.8309 2988:10.8309 3043:15.265 3069:10.8309 3129:10.8309 3286:10.8309 3296:10.8309 3310:10.8309 3319:10.8309 3355:10.8309 3440:10.8309 # none/00002058_s05.txt
-5.9169564829330139894402601496992e-05 34:10.8309 51:10.8309 65:10.8309 84:10.8309 100:10.8309 257:10.8309 362:10.8309 426:10.8309 493:10.8309 619:10.8309 620:10.8309 657:16.6924 683:13.4247 686:10.8309 713:10.8309 741:10.8309 746:10.8309 844:10.8309 845:10.8309 890:13.4247 983:13.4247 1005:10.8309 1108:10.8309 1192:10.8309 1227:10.8309 1254:15.265 1266:10.8309 1275:10.8309 1305:10.8309 1415:10.8309 1501:10.8309 1513:13.4247 1524:10.8309 1560:10.8309 1587:10.8309 1657:10.8309 1672:10.8309 1678:10.8309 1708:10.8309 1709:10.8309 1735:10.8309 1742:10.8309 1751:10.8309 1805:10.8309 1807:10.8309 1886:10.8309 1898:10.8309 1917:10.8309 1995:10.8309 2000:10.8309 2019:10.8309 2028:10.8309 2106:10.8309 2274:10.8309 2279:10.8309 2284:13.4247 2312:10.8309 2329:10.8309 2368:15.265 2372:13.4247 2392:10.8309 2433:10.8309 2443:16.6924 2463:13.4247 2483:10.8309 2542:10.8309 2549:10.8309 2629:10.8309 2638:15.265 2653:10.8309 2696:13.4247 2727:13.4247 2784:10.8309 2793:10.8309 2844:10.8309 2960:10.8309 2962:10.8309 2988:10.8309 3043:10.8309 3069:10.8309 3114:10.8309 3129:10.8309 3178:10.8309 3296:10.8309 3319:10.8309 3355:10.8309 3389:10.8309 # none/00004595_s02.txt
5.9169564829330139894402601496992e-05 34:10.8309 219:10.8309 253:10.8309 257:10.8309 377:10.8309 426:15.265 427:13.4247 449:15.265 459:13.4247 546:10.8309 568:13.4247 596:15.265 607:10.8309 611:10.8309 624:10.8309 657:15.265 683:10.8309 701:15.265 733:10.8309 779:16.6924 886:13.4247 890:15.265 909:10.8309 972:13.4247 1005:10.8309 1008:10.8309 1099:10.8309 1107:13.4247 1108:10.8309 1119:10.8309 1140:10.8309 1141:10.8309 1142:15.265 1144:10.8309 1160:15.265 1227:10.8309 1228:10.8309 1229:13.4247 1254:15.265 1266:10.8309 1270:10.8309 1274:10.8309 1275:13.4247 1294:10.8309 1324:10.8309 1330:10.8309 1358:10.8309 1447:10.8309 1513:10.8309 1514:10.8309 1518:10.8309 1546:13.4247 1657:10.8309 1678:10.8309 1699:10.8309 1702:10.8309 1735:10.8309 1742:10.8309 1761:13.4247 1782:10.8309 1805:10.8309 1815:10.8309 1837:15.265 1883:10.8309 1884:10.8309 1931:10.8309 1993:13.4247 2009:13.4247 2028:10.8309 2085:13.4247 2126:10.8309 2133:10.8309 2137:13.4247 2148:16.6924 2149:13.4247 2189:10.8309 2241:10.8309 2274:10.8309 2338:10.8309 2340:10.8309 2368:13.4247 2372:10.8309 2380:10.8309 2392:13.4247 2397:13.4247 2433:10.8309 2460:10.8309 2463:10.8309 2472:10.8309 2501:10.8309 2515:10.8309 2539:10.8309 2544:10.8309 2549:10.8309 2631:10.8309 2638:15.265 2712:10.8309 2718:10.8309 2748:10.8309 2780:10.8309 2793:16.6924 2824:10.8309 2830:13.4247 2833:10.8309 2868:10.8309 2886:10.8309 2891:10.8309 2962:10.8309 2973:10.8309 3011:10.8309 3033:10.8309 3043:13.4247 3057:10.8309 3061:10.8309 3069:10.8309 3095:10.8309 3108:10.8309 3156:13.4247 3237:10.8309 3278:10.8309 3296:10.8309 3298:10.8309 3341:10.8309 3355:10.8309 3390:10.8309 3402:10.8309 3427:10.8309 3440:10.8309 # seizures/00000247_s01.txt
1.6318779394380762421800507011582e-05 4:10.8309 14:10.8309 18:10.8309 20:15.265 28:10.8309 75:10.8309 94:18.844801 100:23.278799 106:13.4247 110:17.8587 114:19.698999 139:17.8587 167:21.1264 172:10.8309 182:15.265 188:10.8309 206:13.4247 210:18.844801 229:10.8309 232:10.8309 236:10.8309 257:10.8309 265:10.8309 270:10.8309 272:10.8309 275:10.8309 279:10.8309 297:10.8309 306:10.8309 426:10.8309 449:21.1264 453:13.4247 481:10.8309 503:15.265 508:13.4247 524:10.8309 527:10.8309 568:17.8587 612:10.8309 646:16.6924 648:10.8309 656:10.8309 657:13.4247 681:10.8309 713:10.8309 762:10.8309 774:13.4247 779:15.265 783:19.698999 844:15.265 849:10.8309 886:19.698999 890:10.8309 937:13.4247 944:13.4247 983:15.265 986:15.265 1005:13.4247 1093:15.265 1096:16.6924 1108:10.8309 1119:10.8309 1120:10.8309 1129:10.8309 1140:10.8309 1141:10.8309 1159:10.8309 1160:10.8309 1192:10.8309 1214:10.8309 1227:10.8309 1228:10.8309 1229:10.8309 1254:20.4524 1305:13.4247 1320:10.8309 1324:10.8309 1342:10.8309 1353:10.8309 1354:22.804701 1355:10.8309 1359:13.4247 1414:15.265 1441:10.8309 1502:10.8309 1513:13.4247 1587:10.8309 1605:10.8309 1611:10.8309 1628:16.6924 1648:10.8309 1661:10.8309 1713:13.4247 1717:13.4247 1735:10.8309 1742:15.265 1744:13.4247 1760:15.265 1778:10.8309 1786:10.8309 1857:10.8309 1867:13.4247 1880:10.8309 1884:10.8309 1888:10.8309 1898:23.7201 1902:10.8309 1906:10.8309 1918:10.8309 1921:10.8309 1947:13.4247 1953:10.8309 1954:10.8309 1967:10.8309 2014:10.8309 2019:13.4247 2025:10.8309 2076:10.8309 2093:10.8309 2106:13.4247 2113:17.8587 2117:15.265 2119:15.265 2125:13.4247 2137:10.8309 2140:10.8309 2160:10.8309 2189:13.4247 2228:10.8309 2235:13.4247 2246:17.8587 2254:10.8309 2259:10.8309 2279:10.8309 2284:10.8309 2285:13.4247 2286:10.8309 2306:13.4247 2311:17.8587 2312:15.265 2356:13.4247 2358:15.265 2368:24.8864 2372:15.265 2426:13.4247 2468:13.4247 2472:10.8309 2574:10.8309 2579:19.698999 2611:10.8309 2615:10.8309 2638:17.8587 2653:19.698999 2658:15.265 2678:10.8309 2717:13.4247 2718:16.6924 2727:17.8587 2748:10.8309 2757:10.8309 2763:10.8309 2780:16.6924 2781:10.8309 2784:13.4247 2787:10.8309 2788:15.265 2793:21.736099 2823:10.8309 2827:10.8309 2828:10.8309 2833:13.4247 2834:15.265 2837:10.8309 2853:10.8309 2872:10.8309 2881:19.698999 2891:13.4247 2899:13.4247 2911:10.8309 2930:13.4247 2937:13.4247 2944:10.8309 2959:13.4247 2968:10.8309 2987:10.8309 3006:10.8309 3007:10.8309 3027:15.265 3053:10.8309 3061:10.8309 3062:10.8309 3081:16.6924 3103:10.8309 3108:23.278799 3129:21.736099 3156:22.2927 3202:10.8309 3243:13.4247 3257:10.8309 3275:10.8309 3286:18.844801 3296:10.8309 3355:10.8309 3380:10.8309 3390:16.6924 3393:10.8309 3438:15.265 # seizures/00005535_s03.txt
2.5437400966814723804899217585174e-05 13:10.8309 15:21.1264 18:10.8309 34:15.265 139:13.4247 182:10.8309 185:16.6924 194:10.8309 195:10.8309 200:10.8309 201:10.8309 206:10.8309 210:10.8309 212:10.8309 218:16.6924 228:10.8309 229:10.8309 234:10.8309 236:10.8309 248:10.8309 257:13.4247 265:10.8309 270:10.8309 300:10.8309 309:13.4247 329:16.6924 426:10.8309 427:10.8309 430:10.8309 432:10.8309 449:18.844801 503:15.265 508:10.8309 596:16.6924 601:10.8309 602:10.8309 611:10.8309 627:10.8309 637:10.8309 646:15.265 647:13.4247 656:10.8309 657:10.8309 680:10.8309 681:13.4247 684:10.8309 687:16.6924 719:10.8309 733:15.265 746:16.6924 783:15.265 801:10.8309 845:15.265 878:10.8309 886:10.8309 890:21.736099 930:10.8309 965:10.8309 983:19.698999 996:16.6924 1005:18.844801 1050:10.8309 1077:10.8309 1096:16.6924 1104:10.8309 1107:13.4247 1108:17.8587 1112:17.8587 1115:10.8309 1138:10.8309 1146:10.8309 1169:10.8309 1178:10.8309 1185:10.8309 1193:10.8309 1224:17.8587 1229:13.4247 1254:26.7267 1266:15.265 1275:19.698999 1294:10.8309 1296:10.8309 1298:10.8309 1314:10.8309 1324:19.698999 1354:21.1264 1380:10.8309 1407:10.8309 1415:10.8309 1421:13.4247 1426:13.4247 1448:10.8309 1479:19.698999 1484:10.8309 1488:10.8309 1513:10.8309 1514:10.8309 1523:10.8309 1524:10.8309 1551:13.4247 1572:13.4247 1575:10.8309 1605:16.6924 1611:10.8309 1616:16.6924 1627:10.8309 1628:16.6924 1648:10.8309 1657:10.8309 1663:10.8309 1671:10.8309 1702:13.4247 1713:13.4247 1717:15.265 1735:16.6924 1739:16.6924 1746:10.8309 1763:10.8309 1778:10.8309 1782:10.8309 1786:13.4247 1789:10.8309 1805:17.8587 1898:18.844801 1906:10.8309 1921:10.8309 1927:10.8309 1929:10.8309 1936:10.8309 1953:10.8309 1957:13.4247 1988:10.8309 1995:10.8309 2024:10.8309 2028:10.8309 2085:10.8309 2106:22.804701 2113:13.4247 2114:15.265 2120:10.8309 2125:10.8309 2126:13.4247 2133:13.4247 2167:10.8309 2219:13.4247 2221:10.8309 2228:15.265 2235:20.4524 2241:10.8309 2244:10.8309 2246:16.6924 2254:10.8309 2264:18.844801 2279:16.6924 2306:13.4247 2307:10.8309 2362:15.265 2364:10.8309 2367:10.8309 2368:25.2323 2372:15.265 2392:16.6924 2426:10.8309 2433:15.265 2463:10.8309 2472:10.8309 2479:10.8309 2493:10.8309 2525:10.8309 2530:15.265 2536:15.265 2546:10.8309 2549:10.8309 2550:10.8309 2578:10.8309 2579:15.265 2580:16.6924 2593:10.8309 2604:10.8309 2611:10.8309 2614:10.8309 2616:16.6924 2625:13.4247 2638:21.736099 2657:10.8309 2665:10.8309 2669:13.4247 2680:13.4247 2691:10.8309 2711:10.8309 2717:16.6924 2718:13.4247 2727:19.698999 2730:10.8309 2744:22.2927 2767:10.8309 2780:10.8309 2784:17.8587 2787:10.8309 2788:10.8309 2793:21.736099 2810:10.8309 2823:13.4247 2830:10.8309 2849:10.8309 2852:10.8309 2853:13.4247 2854:10.8309 2881:23.278799 2882:10.8309 2886:10.8309 2891:21.1264 2904:10.8309 2910:10.8309 2930:10.8309 2937:10.8309 2944:17.8587 2958:10.8309 2959:18.844801 2962:15.265 2965:10.8309 2996:16.6924 3004:13.4247 3029:10.8309 3033:10.8309 3061:13.4247 3069:15.265 3081:10.8309 3085:10.8309 3093:10.8309 3095:10.8309 3103:10.8309 3113:10.8309 3145:13.4247 3156:13.4247 3195:13.4247 3208:10.8309 3233:10.8309 3242:10.8309 3243:16.6924 3247:13.4247 3273:15.265 3296:16.6924 3346:16.6924 3355:20.4524 3380:20.4524 3390:17.8587 3401:10.8309 3404:10.8309 3405:10.8309 3425:13.4247 # seizures/00001732_s05.txt
3.4082270536649739958896809799427e-05 20:13.4247 21:10.8309 22:10.8309 34:10.8309 51:13.4247 65:10.8309 84:13.4247 106:15.265 139:13.4247 172:10.8309 178:10.8309 182:15.265 188:10.8309 193:10.8309 206:10.8309 236:10.8309 242:10.8309 248:10.8309 267:10.8309 273:10.8309 282:10.8309 312:10.8309 395:13.4247 417:10.8309 432:10.8309 449:10.8309 459:16.6924 490:10.8309 495:10.8309 503:10.8309 506:13.4247 524:10.8309 568:10.8309 590:10.8309 646:15.265 656:10.8309 657:13.4247 681:15.265 683:10.8309 687:18.844801 698:10.8309 746:15.265 783:10.8309 813:10.8309 844:10.8309 845:10.8309 847:13.4247 849:10.8309 857:10.8309 870:10.8309 878:13.4247 890:10.8309 928:10.8309 944:13.4247 968:10.8309 983:10.8309 1061:10.8309 1096:15.265 1103:10.8309 1108:15.265 1144:10.8309 1146:10.8309 1149:10.8309 1185:10.8309 1193:13.4247 1224:10.8309 1227:10.8309 1228:10.8309 1229:17.8587 1254:21.736099 1266:10.8309 1275:13.4247 1320:10.8309 1322:10.8309 1324:10.8309 1354:19.698999 1358:10.8309 1376:10.8309 1390:10.8309 1404:10.8309 1433:10.8309 1448:10.8309 1479:10.8309 1484:13.4247 1506:10.8309 1515:10.8309 1523:10.8309 1572:10.8309 1605:13.4247 1657:13.4247 1669:10.8309 1671:10.8309 1672:15.265 1685:13.4247 1702:10.8309 1708:10.8309 1710:10.8309 1713:10.8309 1735:15.265 1739:13.4247 1760:10.8309 1763:10.8309 1775:10.8309 1778:13.4247 1786:13.4247 1805:10.8309 1837:10.8309 1846:10.8309 1850:10.8309 1873:10.8309 1902:13.4247 1952:13.4247 1953:10.8309 1965:10.8309 1969:10.8309 1970:10.8309 1973:10.8309 1995:10.8309 2028:10.8309 2085:13.4247 2106:15.265 2113:10.8309 2118:10.8309 2126:18.844801 2137:13.4247 2163:10.8309 2167:13.4247 2206:10.8309 2220:10.8309 2228:18.844801 2235:13.4247 2239:10.8309 2246:10.8309 2254:10.8309 2263:10.8309 2274:10.8309 2285:10.8309 2299:10.8309 2311:10.8309 2331:10.8309 2368:18.844801 2372:15.265 2385:10.8309 2392:10.8309 2433:10.8309 2472:13.4247 2479:13.4247 2483:10.8309 2549:10.8309 2558:10.8309 2560:10.8309 2569:10.8309 2578:10.8309 2579:10.8309 2582:10.8309 2611:10.8309 2625:10.8309 2635:10.8309 2638:17.8587 2643:10.8309 2658:13.4247 2669:10.8309 2693:10.8309 2717:15.265 2718:13.4247 2727:10.8309 2776:10.8309 2784:10.8309 2787:10.8309 2793:16.6924 2798:10.8309 2823:10.8309 2830:13.4247 2881:17.8587 2891:13.4247 2899:10.8309 2911:10.8309 2930:10.8309 2935:13.4247 2944:15.265 2959:13.4247 2962:10.8309 2964:16.6924 2965:15.265 2968:10.8309 2996:10.8309 3034:10.8309 3061:10.8309 3069:10.8309 3114:13.4247 3147:13.4247 3156:10.8309 3179:10.8309 3192:10.8309 3257:10.8309 3296:10.8309 3346:15.265 3355:10.8309 3370:10.8309 3380:17.8587 3390:15.265 3402:10.8309 3403:10.8309 3425:15.265 3440:10.8309 # seizures/00000952_s01.txt
5.9169564829330139894402601496992e-05 34:10.8309 58:10.8309 62:10.8309 105:10.8309 296:10.8309 302:10.8309 426:13.4247 449:21.1264 459:10.8309 468:10.8309 481:10.8309 483:10.8309 527:16.6924 573:10.8309 586:10.8309 588:10.8309 631:10.8309 643:10.8309 646:13.4247 649:10.8309 657:15.265 697:10.8309 719:10.8309 746:10.8309 796:10.8309 845:10.8309 854:10.8309 862:17.8587 890:15.265 928:10.8309 944:16.6924 955:13.4247 959:10.8309 988:10.8309 996:10.8309 1005:13.4247 1096:10.8309 1108:10.8309 1138:10.8309 1144:10.8309 1146:10.8309 1160:10.8309 1193:10.8309 1204:10.8309 1214:15.265 1224:10.8309 1227:10.8309 1254:16.6924 1266:10.8309 1275:10.8309 1281:10.8309 1287:10.8309 1320:10.8309 1324:17.8587 1363:10.8309 1375:10.8309 1407:10.8309 1414:10.8309 1428:10.8309 1444:13.4247 1448:10.8309 1456:10.8309 1479:10.8309 1499:10.8309 1518:13.4247 1523:15.265 1546:10.8309 1548:10.8309 1587:10.8309 1611:10.8309 1628:16.6924 1648:16.6924 1657:10.8309 1672:10.8309 1690:10.8309 1702:13.4247 1713:13.4247 1722:10.8309 1735:10.8309 1739:13.4247 1760:10.8309 1805:10.8309 1809:10.8309 1814:10.8309 1837:13.4247 1844:10.8309 1862:10.8309 1866:10.8309 1884:10.8309 1898:17.8587 1918:10.8309 1936:10.8309 1992:10.8309 1995:10.8309 2009:10.8309 2018:10.8309 2019:10.8309 2028:10.8309 2065:10.8309 2085:10.8309 2110:10.8309 2113:16.6924 2116:10.8309 2117:13.4247 2133:10.8309 2254:10.8309 2279:10.8309 2299:10.8309 2330:10.8309 2339:10.8309 2362:10.8309 2367:10.8309 2372:10.8309 2389:10.8309 2392:13.4247 2417:10.8309 2426:13.4247 2433:10.8309 2468:10.8309 2479:10.8309 2501:13.4247 2525:10.8309 2541:10.8309 2550:16.6924 2609:10.8309 2625:10.8309 2638:17.8587 2646:10.8309 2653:17.8587 2669:10.8309 2703:10.8309 2717:10.8309 2727:10.8309 2762:10.8309 2780:10.8309 2784:10.8309 2787:17.8587 2793:10.8309 2848:10.8309 2874:10.8309 2881:21.1264 2886:10.8309 2891:19.698999 2894:10.8309 2910:10.8309 2934:10.8309 2937:18.844801 2952:10.8309 2960:10.8309 2962:10.8309 2988:10.8309 3022:10.8309 3028:10.8309 3061:10.8309 3069:10.8309 3138:10.8309 3181:13.4247 3238:10.8309 3241:10.8309 3243:10.8309 3285:10.8309 3286:15.265 3296:10.8309 3319:10.8309 3355:10.8309 3357:10.8309 3371:10.8309 3380:10.8309 3390:18.844801 3414:10.8309 # seizures/00000804_s02.txt
-5.9169564829330139894402601496992e-05 20:13.4247 28:10.8309 34:10.8309 61:10.8309 62:10.8309 74:10.8309 75:10.8309 83:10.8309 139:10.8309 188:10.8309 213:10.8309 215:10.8309 241:10.8309 426:10.8309 432:10.8309 449:15.265 490:10.8309 503:10.8309 524:10.8309 542:10.8309 545:10.8309 546:10.8309 553:10.8309 574:10.8309 588:18.844801 607:13.4247 640:10.8309 646:10.8309 657:10.8309 677:13.4247 681:10.8309 687:15.265 690:10.8309 698:10.8309 762:10.8309 840:13.4247 845:10.8309 886:13.4247 890:17.8587 930:13.4247 944:10.8309 983:13.4247 1005:10.8309 1015:10.8309 1059:10.8309 1061:13.4247 1081:10.8309 1108:10.8309 1115:13.4247 1138:10.8309 1161:10.8309 1178:13.4247 1185:10.8309 1213:10.8309 1240:13.4247 1242:10.8309 1254:17.8587 1266:13.4247 1270:10.8309 1275:10.8309 1320:10.8309 1324:17.8587 1330:10.8309 1354:13.4247 1421:13.4247 1448:13.4247 1479:10.8309 1484:15.265 1514:10.8309 1523:10.8309 1561:10.8309 1572:10.8309 1657:13.4247 1671:10.8309 1702:10.8309 1735:10.8309 1736:10.8309 1745:10.8309 1778:15.265 1782:10.8309 1786:10.8309 1805:10.8309 1875:10.8309 1898:15.265 1970:10.8309 2018:10.8309 2019:10.8309 2028:15.265 2049:10.8309 2096:10.8309 2106:15.265 2114:10.8309 2173:13.4247 2193:10.8309 2196:10.8309 2216:10.8309 2219:10.8309 2235:17.8587 2246:10.8309 2258:17.8587 2263:10.8309 2282:15.265 2299:10.8309 2306:10.8309 2311:10.8309 2312:10.8309 2331:13.4247 2358:10.8309 2362:10.8309 2366:10.8309 2368:19.698999 2389:10.8309 2392:13.4247 2433:10.8309 2471:10.8309 2472:10.8309 2525:10.8309 2615:10.8309 2638:15.265 2650:10.8309 2653:10.8309 2665:10.8309 2666:10.8309 2669:10.8309 2680:10.8309 2682:10.8309 2717:10.8309 2718:10.8309 2774:10.8309 2787:10.8309 2788:10.8309 2793:16.6924 2823:13.4247 2828:10.8309 2833:15.265 2839:10.8309 2853:10.8309 2859:10.8309 2873:13.4247 2881:21.736099 2891:13.4247 2899:10.8309 2904:10.8309 2910:10.8309 2935:10.8309 2937:16.6924 2959:13.4247 2962:10.8309 2968:10.8309 2988:15.265 3011:10.8309 3040:10.8309 3069:10.8309 3081:10.8309 3108:15.265 3117:10.8309 3137:10.8309 3145:10.8309 3156:13.4247 3190:13.4247 3243:10.8309 3273:10.8309 3286:15.265 3296:10.8309 3298:10.8309 3300:10.8309 3305:13.4247 3355:13.4247 3359:10.8309 3370:10.8309 3380:15.265 3388:10.8309 3390:15.265 3402:10.8309 3403:10.8309 3407:10.8309 3425:10.8309 3426:10.8309 # none/00000730_s12.txt
-5.9169564829330139894402601496992e-05 34:10.8309 135:10.8309 141:10.8309 248:10.8309 426:13.4247 427:10.8309 433:10.8309 449:13.4247 459:10.8309 495:13.4247 538:10.8309 542:10.8309 546:10.8309 586:10.8309 596:10.8309 646:10.8309 680:13.4247 683:10.8309 684:10.8309 687:10.8309 698:10.8309 733:10.8309 801:10.8309 833:10.8309 890:13.4247 968:10.8309 972:13.4247 983:10.8309 1005:15.265 1082:10.8309 1107:13.4247 1108:10.8309 1115:13.4247 1141:10.8309 1142:13.4247 1144:10.8309 1160:16.6924 1193:13.4247 1229:15.265 1254:19.698999 1266:10.8309 1275:13.4247 1324:13.4247 1330:16.6924 1354:18.844801 1396:10.8309 1464:13.4247 1467:10.8309 1518:10.8309 1588:10.8309 1605:10.8309 1656:10.8309 1657:13.4247 1671:10.8309 1735:10.8309 1805:10.8309 1850:10.8309 1884:10.8309 1952:10.8309 1957:10.8309 1965:10.8309 1995:10.8309 2028:10.8309 2085:10.8309 2106:10.8309 2140:10.8309 2157:10.8309 2219:15.265 2220:10.8309 2228:16.6924 2235:10.8309 2241:10.8309 2246:10.8309 2274:10.8309 2279:10.8309 2289:10.8309 2331:10.8309 2368:16.6924 2392:13.4247 2433:10.8309 2479:13.4247 2488:13.4247 2518:10.8309 2533:10.8309 2539:13.4247 2542:10.8309 2570:10.8309 2631:10.8309 2638:16.6924 2667:13.4247 2714:10.8309 2717:13.4247 2727:13.4247 2763:10.8309 2780:10.8309 2788:10.8309 2793:16.6924 2830:10.8309 2859:10.8309 2881:15.265 2904:13.4247 2910:10.8309 2937:10.8309 2962:10.8309 2984:10.8309 3011:10.8309 3031:10.8309 3069:10.8309 3095:10.8309 3108:10.8309 3114:10.8309 3147:10.8309 3257:10.8309 3278:13.4247 3296:13.4247 3341:10.8309 3355:10.8309 3380:13.4247 3402:15.265 3440:10.8309 # none/00008618_s01.txt
-5.9169564829330139894402601496992e-05 34:13.4247 162:10.8309 172:10.8309 200:10.8309 329:10.8309 349:10.8309 426:15.265 430:10.8309 436:10.8309 449:19.698999 468:10.8309 470:10.8309 481:10.8309 487:10.8309 503:10.8309 508:10.8309 527:10.8309 568:10.8309 596:10.8309 619:10.8309 637:10.8309 657:16.6924 683:10.8309 698:17.8587 719:13.4247 720:10.8309 746:13.4247 779:10.8309 783:13.4247 844:10.8309 845:13.4247 847:15.265 886:10.8309 888:10.8309 890:13.4247 900:10.8309 962:10.8309 968:10.8309 983:10.8309 989:10.8309 1005:13.4247 1061:10.8309 1108:13.4247 1144:13.4247 1170:10.8309 1217:10.8309 1224:10.8309 1227:10.8309 1242:10.8309 1254:19.698999 1266:13.4247 1275:15.265 1287:10.8309 1294:10.8309 1320:10.8309 1323:10.8309 1324:10.8309 1335:10.8309 1354:13.4247 1360:10.8309 1369:13.4247 1382:10.8309 1426:10.8309 1448:10.8309 1494:10.8309 1513:10.8309 1518:18.844801 1546:10.8309 1548:10.8309 1552:10.8309 1587:10.8309 1605:13.4247 1611:13.4247 1648:10.8309 1654:10.8309 1657:10.8309 1669:10.8309 1672:13.4247 1690:13.4247 1713:10.8309 1735:10.8309 1739:10.8309 1742:10.8309 1747:15.265 1786:10.8309 1805:13.4247 1850:10.8309 1862:10.8309 1898:15.265 1906:10.8309 1936:10.8309 1957:10.8309 1965:10.8309 1976:15.265 2000:10.8309 2009:10.8309 2028:10.8309 2090:10.8309 2093:10.8309 2113:15.265 2137:10.8309 2167:10.8309 2173:10.8309 2228:13.4247 2235:13.4247 2274:10.8309 2277:10.8309 2309:10.8309 2356:13.4247 2362:10.8309 2368:10.8309 2372:10.8309 2392:16.6924 2411:10.8309 2417:13.4247 2433:13.4247 2463:10.8309 2479:15.265 2488:13.4247 2501:15.265 2525:13.4247 2579:13.4247 2604:10.8309 2638:16.6924 2643:10.8309 2650:10.8309 2653:15.265 2679:10.8309 2696:13.4247 2717:10.8309 2718:10.8309 2727:20.4524 2748:10.8309 2787:13.4247 2793:16.6924 2807:10.8309 2814:10.8309 2832:10.8309 2833:16.6924 2859:10.8309 2881:13.4247 2937:10.8309 2962:13.4247 2973:10.8309 2988:15.265 3011:10.8309 3027:10.8309 3051:10.8309 3069:13.4247 3108:10.8309 3129:18.844801 3172:10.8309 3211:10.8309 3229:15.265 3243:10.8309 3296:13.4247 3305:10.8309 3341:10.8309 3355:13.4247 3359:10.8309 3390:18.844801 3393:10.8309 3402:13.4247 3440:10.8309 # none/00000440_s14.txt
5.9169564829330139894402601496992e-05 34:10.8309 58:10.8309 218:10.8309 310:10.8309 365:10.8309 366:10.8309 407:10.8309 426:13.4247 449:16.6924 543:10.8309 619:10.8309 657:13.4247 683:10.8309 713:10.8309 746:10.8309 750:10.8309 779:15.265 837:10.8309 844:10.8309 845:10.8309 890:17.8587 901:10.8309 1005:13.4247 1052:10.8309 1061:10.8309 1093:16.6924 1099:10.8309 1108:10.8309 1142:13.4247 1144:10.8309 1146:10.8309 1160:10.8309 1227:10.8309 1235:10.8309 1254:18.844801 1266:10.8309 1275:10.8309 1303:10.8309 1323:13.4247 1324:10.8309 1579:13.4247 1611:10.8309 1657:10.8309 1671:10.8309 1672:10.8309 1702:13.4247 1709:10.8309 1713:10.8309 1735:10.8309 1760:10.8309 1761:10.8309 1786:16.6924 1805:10.8309 1807:10.8309 1830:10.8309 1884:10.8309 1886:10.8309 1888:10.8309 1953:10.8309 1970:15.265 1995:10.8309 2028:10.8309 2106:10.8309 2120:10.8309 2259:16.6924 2279:10.8309 2368:10.8309 2372:16.6924 2392:10.8309 2397:15.265 2409:10.8309 2411:10.8309 2433:10.8309 2443:13.4247 2454:13.4247 2483:10.8309 2552:13.4247 2636:10.8309 2638:10.8309 2780:10.8309 2788:10.8309 2793:15.265 2828:10.8309 2891:15.265 2937:15.265 2962:10.8309 2973:13.4247 2975:10.8309 3029:10.8309 3033:10.8309 3043:15.265 3069:10.8309 3138:10.8309 3278:10.8309 3296:10.8309 3355:13.4247 3370:15.265 3390:10.8309 3402:10.8309 3425:13.4247 # seizures/00003798_s05.txt
5.9169564829330139894402601496992e-05 34:10.8309 339:10.8309 386:10.8309 422:10.8309 425:10.8309 426:13.4247 449:19.698999 454:10.8309 459:10.8309 468:10.8309 498:10.8309 683:10.8309 701:10.8309 713:10.8309 746:10.8309 762:10.8309 779:13.4247 797:10.8309 833:10.8309 837:10.8309 845:10.8309 890:13.4247 905:10.8309 972:10.8309 1005:10.8309 1046:10.8309 1067:10.8309 1093:10.8309 1108:10.8309 1144:10.8309 1146:10.8309 1227:13.4247 1229:10.8309 1254:17.8587 1266:10.8309 1275:10.8309 1305:10.8309 1323:10.8309 1324:15.265 1414:10.8309 1433:10.8309 1444:10.8309 1523:10.8309 1548:10.8309 1605:10.8309 1623:10.8309 1628:10.8309 1657:15.265 1672:10.8309 1690:10.8309 1735:10.8309 1739:10.8309 1742:10.8309 1805:10.8309 1807:10.8309 1898:16.6924 1995:10.8309 2009:10.8309 2028:10.8309 2092:10.8309 2153:10.8309 2258:10.8309 2274:10.8309 2364:10.8309 2368:13.4247 2372:13.4247 2392:15.265 2397:10.8309 2414:10.8309 2417:10.8309 2433:10.8309 2459:13.4247 2460:13.4247 2487:10.8309 2542:10.8309 2550:13.4247 2555:10.8309 2638:15.265 2643:10.8309 2653:13.4247 2658:10.8309 2669:10.8309 2678:10.8309 2691:10.8309 2727:13.4247 2793:15.265 2862:10.8309 2952:10.8309 2962:10.8309 2973:10.8309 2988:13.4247 3019:10.8309 3033:10.8309 3043:10.8309 3069:10.8309 3129:10.8309 3203:10.8309 3296:13.4247 3349:10.8309 3355:10.8309 3440:10.8309 # seizures/00002477_s02.txt
5.9169564829330139894402601496992e-05 20:13.4247 34:10.8309 50:10.8309 65:10.8309 75:10.8309 164:10.8309 222:10.8309 342:10.8309 426:15.265 449:13.4247 489:10.8309 574:10.8309 590:13.4247 596:15.265 619:10.8309 631:10.8309 657:15.265 672:10.8309 683:10.8309 686:10.8309 740:10.8309 746:10.8309 809:10.8309 845:10.8309 890:15.265 925:10.8309 1005:10.8309 1093:10.8309 1096:13.4247 1099:10.8309 1108:10.8309 1144:10.8309 1199:10.8309 1227:10.8309 1254:17.8587 1266:10.8309 1275:13.4247 1279:10.8309 1292:10.8309 1324:10.8309 1359:10.8309 1398:13.4247 1444:10.8309 1484:10.8309 1513:10.8309 1616:10.8309 1657:10.8309 1696:10.8309 1709:10.8309 1735:10.8309 1760:13.4247 1786:13.4247 1805:10.8309 1807:10.8309 1814:10.8309 1837:13.4247 1884:10.8309 1898:13.4247 1947:10.8309 1953:10.8309 1970:10.8309 2009:13.4247 2028:10.8309 2106:10.8309 2114:10.8309 2137:10.8309 2140:15.265 2227:10.8309 2241:10.8309 2368:13.4247 2372:15.265 2392:10.8309 2433:10.8309 2472:10.8309 2542:10.8309 2549:10.8309 2616:10.8309 2638:13.4247 2643:10.8309 2752:10.8309 2767:10.8309 2780:10.8309 2793:13.4247 2833:10.8309 2854:10.8309 2937:10.8309 2962:10.8309 2973:10.8309 2988:10.8309 3004:10.8309 3011:10.8309 3043:15.265 3069:10.8309 3077:10.8309 3125:10.8309 3237:13.4247 3259:10.8309 3296:10.8309 3342:10.8309 3355:13.4247 3370:10.8309 3390:10.8309 3427:10.8309 # seizures/00001734_s03.txt
5.9169564829330139894402601496992e-05 34:10.8309 54:10.8309 343:10.8309 426:10.8309 427:10.8309 449:13.4247 459:10.8309 542:10.8309 568:10.8309 607:15.265 619:13.4247 657:10.8309 683:10.8309 687:10.8309 689:10.8309 709:10.8309 746:10.8309 779:10.8309 820:10.8309 845:10.8309 847:10.8309 858:10.8309 890:13.4247 938:13.4247 1005:10.8309 1093:13.4247 1096:10.8309 1107:10.8309 1108:10.8309 1122:13.4247 1144:10.8309 1146:10.8309 1160:13.4247 1170:10.8309 1216:10.8309 1227:10.8309 1254:17.8587 1266:10.8309 1275:10.8309 1320:10.8309 1323:13.4247 1336:10.8309 1359:10.8309 1392:13.4247 1414:13.4247 1421:10.8309 1501:10.8309 1513:13.4247 1518:13.4247 1523:13.4247 1548:10.8309 1657:13.4247 1660:10.8309 1672:10.8309 1708:10.8309 1713:10.8309 1717:10.8309 1735:10.8309 1739:10.8309 1786:13.4247 1805:10.8309 1807:10.8309 1818:10.8309 1898:13.4247 1953:10.8309 1995:10.8309 2016:10.8309 2019:10.8309 2028:13.4247 2092:10.8309 2106:10.8309 2126:10.8309 2137:10.8309 2257:10.8309 2259:10.8309 2274:10.8309 2367:10.8309 2368:16.6924 2372:15.265 2392:13.4247 2432:10.8309 2433:10.8309 2463:10.8309 2629:10.8309 2638:10.8309 2643:10.8309 2653:15.265 2678:10.8309 2682:10.8309 2683:10.8309 2696:10.8309 2718:16.6924 2727:16.6924 2768:10.8309 2793:16.6924 2812:10.8309 2844:10.8309 2891:10.8309 2910:13.4247 2962:10.8309 2973:13.4247 3027:10.8309 3053:10.8309 3069:10.8309 3129:10.8309 3251:10.8309 3296:10.8309 3355:10.8309 3412:10.8309 3440:10.8309 # seizures/00002938_s04.txt
4.5941346449137904911497187754321e-05 34:10.8309 65:10.8309 99:10.8309 105:10.8309 261:13.4247 315:10.8309 422:10.8309 426:10.8309 449:16.6924 459:13.4247 481:10.8309 503:10.8309 619:10.8309 649:10.8309 657:10.8309 683:10.8309 686:13.4247 746:10.8309 779:10.8309 796:10.8309 833:15.265 845:10.8309 890:13.4247 944:13.4247 971:10.8309 983:10.8309 986:10.8309 1015:10.8309 1023:10.8309 1099:10.8309 1107:10.8309 1108:10.8309 1129:10.8309 1140:10.8309 1144:10.8309 1146:10.8309 1181:10.8309 1204:10.8309 1227:10.8309 1232:10.8309 1254:16.6924 1266:10.8309 1275:10.8309 1305:10.8309 1323:13.4247 1324:10.8309 1376:10.8309 1396:10.8309 1398:10.8309 1414:10.8309 1437:10.8309 1454:10.8309 1479:10.8309 1484:10.8309 1513:10.8309 1514:10.8309 1517:10.8309 1546:13.4247 1552:10.8309 1582:13.4247 1627:10.8309 1637:10.8309 1657:10.8309 1671:13.4247 1672:10.8309 1690:10.8309 1735:10.8309 1736:10.8309 1739:10.8309 1747:10.8309 1760:10.8309 1805:10.8309 1898:10.8309 1906:10.8309 1973:10.8309 2009:10.8309 2028:10.8309 2133:10.8309 2137:10.8309 2274:10.8309 2279:10.8309 2311:10.8309 2312:10.8309 2358:13.4247 2362:10.8309 2368:15.265 2372:13.4247 2392:13.4247 2397:13.4247 2417:10.8309 2433:10.8309 2550:10.8309 2638:16.6924 2643:13.4247 2653:15.265 2678:13.4247 2718:10.8309 2727:13.4247 2786:10.8309 2791:10.8309 2793:17.8587 2828:10.8309 2833:10.8309 2834:10.8309 2854:10.8309 2862:10.8309 2891:20.4524 2937:10.8309 2961:10.8309 2962:10.8309 2973:13.4247 2997:10.8309 3027:10.8309 3062:10.8309 3069:10.8309 3108:10.8309 3186:10.8309 3195:13.4247 3237:10.8309 3296:10.8309 3355:13.4247 3370:10.8309 3440:10.8309 # seizures/00000717_s06.txt
-5.9169564829330139894402601496992e-05 34:10.8309 316:10.8309 416:10.8309 426:10.8309 524:10.8309 596:10.8309 619:10.8309 657:13.4247 683:10.8309 686:10.8309 698:15.265 713:10.8309 746:10.8309 779:10.8309 845:10.8309 847:10.8309 890:13.4247 983:16.6924 1005:10.8309 1041:10.8309 1075:13.4247 1093:15.265 1108:10.8309 1144:10.8309 1146:10.8309 1227:10.8309 1254:16.6924 1266:10.8309 1275:10.8309 1320:13.4247 1323:13.4247 1324:10.8309 1337:10.8309 1421:10.8309 1479:10.8309 1518:10.8309 1533:10.8309 1546:10.8309 1548:10.8309 1657:10.8309 1672:10.8309 1713:10.8309 1735:10.8309 1805:10.8309 1807:10.8309 1954:10.8309 1995:10.8309 2028:10.8309 2113:10.8309 2125:10.8309 2140:10.8309 2228:10.8309 2279:10.8309 2368:15.265 2372:13.4247 2392:10.8309 2426:10.8309 2433:10.8309 2472:10.8309 2501:10.8309 2638:15.265 2643:10.8309 2677:10.8309 2679:10.8309 2729:10.8309 2793:10.8309 2962:10.8309 2973:13.4247 3011:10.8309 3069:10.8309 3109:10.8309 3186:10.8309 3257:10.8309 3286:10.8309 3296:10.8309 3313:10.8309 3355:10.8309 # none/00000424_s04.txt
