SVM-light Version V6.02
0 # kernel type
3 # kernel parameter -d 
1 # kernel parameter -g 
1 # kernel parameter -s 
1 # kernel parameter -r 
empty# kernel parameter -u 
2964 # highest feature index 
480 # number of training documents 
250 # number of support vectors plus 1 
0.79748028 # threshold b, each following line is a SV (starting with alpha*y)
-0.00021431091306768612885641500653833 10:3.9981 16:3.9981 35:5.5973001 45:3.9981 54:3.9981 110:3.9981 196:3.9981 228:3.9981 238:4.7976999 259:3.9981 404:4.7976999 410:3.9981 420:3.9981 422:3.9981 460:4.7976999 475:3.9981 512:3.9981 557:3.9981 579:3.9981 680:3.9981 710:3.9981 712:3.9981 714:3.9981 755:3.9981 790:3.9981 794:3.9981 826:6.3969002 835:3.9981 844:3.9981 886:3.9981 891:4.7976999 933:3.9981 1051:3.9981 1086:4.7976999 1097:3.9981 1118:3.9981 1193:3.9981 1220:3.9981 1227:3.9981 1239:3.9981 1301:3.9981 1302:3.9981 1305:5.5973001 1372:3.9981 1412:3.9981 1451:5.5973001 1589:3.9981 1667:4.7976999 1668:3.9981 1755:3.9981 1825:4.7976999 1837:3.9981 1847:3.9981 1924:4.7976999 1926:4.7976999 1945:3.9981 1975:3.9981 2006:3.9981 2130:3.9981 2136:3.9981 2147:5.5973001 2173:6.3969002 2177:3.9981 2187:3.9981 2261:4.7976999 2318:5.5973001 2359:5.5973001 2360:3.9981 2401:4.7976999 2409:3.9981 2460:3.9981 2474:4.7976999 2477:3.9981 2522:4.7976999 2554:3.9981 2582:3.9981 2645:4.7976999 2806:3.9981 2819:3.9981 2868:3.9981 2901:4.7976999 2939:3.9981 # none/00000005_s02.txt
-0.0003290102346642517034888686389138 10:3.5538001 17:3.5538001 19:3.5538001 35:4.2645998 81:3.5538001 149:3.5538001 167:3.5538001 173:3.5538001 190:3.5538001 196:3.5538001 238:3.9092 259:3.5538001 277:4.2645998 279:3.5538001 287:3.5538001 290:3.5538001 298:3.5538001 332:4.9754 420:3.5538001 460:3.9092 506:3.5538001 557:3.5538001 579:3.5538001 598:3.5538001 613:3.5538001 662:3.5538001 665:3.5538001 680:3.5538001 712:3.5538001 714:3.5538001 794:3.5538001 810:3.5538001 826:4.6199999 835:3.9092 844:3.5538001 955:3.5538001 978:3.5538001 1081:3.9092 1124:3.5538001 1148:3.5538001 1177:3.5538001 1186:3.5538001 1227:3.9092 1239:3.5538001 1281:3.5538001 1301:3.5538001 1372:3.5538001 1373:3.5538001 1378:3.5538001 1451:4.9754 1492:3.5538001 1529:3.5538001 1589:3.5538001 1667:4.9754 1668:3.5538001 1677:3.5538001 1678:3.5538001 1755:3.9092 1792:3.5538001 1837:3.5538001 1863:3.5538001 1920:3.5538001 1924:4.2645998 1926:4.2645998 1945:3.5538001 1975:3.5538001 2073:3.5538001 2085:4.2645998 2169:3.5538001 2173:3.9092 2210:3.5538001 2251:4.6199999 2261:6.3969002 2315:3.9092 2318:4.2645998 2359:4.2645998 2360:3.5538001 2363:3.5538001 2375:3.5538001 2401:3.5538001 2403:3.5538001 2409:4.2645998 2477:3.5538001 2482:3.5538001 2499:3.5538001 2554:3.5538001 2582:3.5538001 2668:3.5538001 2707:3.5538001 2801:3.5538001 2819:3.5538001 2868:3.5538001 2887:3.5538001 2901:4.2645998 2912:3.5538001 # none/00000011_s01.txt
0.00014357653864655473691103182432016 6:3.5983 10:3.5983 35:4.7976999 45:3.9981 67:3.5983 88:3.5983 196:3.5983 231:3.5983 238:3.5983 259:3.5983 264:3.9981 355:3.9981 373:3.5983 404:4.3979001 420:3.5983 460:3.9981 513:3.9981 541:3.5983 553:3.5983 557:3.5983 579:3.5983 590:3.5983 597:3.5983 669:3.5983 679:3.5983 680:3.5983 701:3.5983 708:3.5983 712:3.5983 714:3.5983 750:3.5983 774:3.5983 794:3.5983 800:3.5983 826:4.7976999 835:3.5983 844:3.5983 874:3.5983 889:3.9981 891:3.9981 940:3.5983 960:3.5983 961:3.5983 977:3.5983 1001:3.5983 1018:3.5983 1046:3.5983 1051:3.5983 1081:3.5983 1082:3.5983 1085:3.5983 1118:3.9981 1124:3.5983 1153:3.9981 1200:3.5983 1208:3.5983 1227:3.5983 1239:3.5983 1259:3.5983 1301:3.5983 1302:3.5983 1305:3.5983 1312:3.5983 1327:3.5983 1372:3.5983 1451:3.5983 1459:3.5983 1529:3.5983 1565:3.5983 1589:3.5983 1685:3.5983 1691:3.5983 1837:3.5983 1842:3.5983 1867:3.5983 1868:3.5983 1915:3.9981 1918:3.5983 1924:4.3979001 1926:3.9981 1945:3.9981 1950:3.9981 1963:3.5983 1975:3.5983 2085:3.5983 2173:4.7976999 2177:3.9981 2187:4.3979001 2210:3.9981 2252:3.5983 2261:3.9981 2314:3.5983 2317:3.5983 2318:5.1975002 2355:3.5983 2359:3.5983 2360:3.5983 2381:3.5983 2388:3.5983 2409:6.3969002 2455:3.5983 2476:3.5983 2477:3.5983 2484:3.9981 2507:3.5983 2537:3.5983 2575:3.5983 2582:3.5983 2622:3.5983 2698:3.5983 2707:3.9981 2749:3.5983 2819:3.5983 2868:3.9981 2887:3.5983 # seizures/00000717_s04.txt
-0.00045121926557089745779896561295175 10:4.7976999 35:4.7976999 45:3.9981 94:3.9981 110:3.9981 164:3.9981 187:3.9981 238:4.7976999 256:3.9981 267:3.9981 355:5.5973001 392:3.9981 419:3.9981 420:3.9981 460:4.7976999 477:3.9981 500:3.9981 535:3.9981 570:3.9981 579:3.9981 662:5.5973001 672:3.9981 679:4.7976999 680:3.9981 712:3.9981 755:3.9981 774:3.9981 790:3.9981 794:4.7976999 826:4.7976999 835:3.9981 844:3.9981 872:3.9981 978:3.9981 1011:3.9981 1017:3.9981 1051:4.7976999 1069:3.9981 1081:3.9981 1086:5.5973001 1118:3.9981 1174:3.9981 1177:3.9981 1217:3.9981 1227:3.9981 1239:3.9981 1301:3.9981 1302:3.9981 1305:3.9981 1307:3.9981 1372:3.9981 1405:3.9981 1423:3.9981 1424:3.9981 1454:3.9981 1565:3.9981 1589:3.9981 1597:3.9981 1607:4.7976999 1614:3.9981 1651:3.9981 1666:3.9981 1755:3.9981 1788:3.9981 1791:3.9981 1813:3.9981 1816:3.9981 1837:3.9981 1868:3.9981 1889:3.9981 1913:4.7976999 1924:6.3969002 1926:3.9981 1945:3.9981 1963:3.9981 1975:3.9981 2085:3.9981 2095:3.9981 2173:5.5973001 2232:3.9981 2252:4.7976999 2261:3.9981 2292:3.9981 2316:3.9981 2318:3.9981 2409:4.7976999 2464:3.9981 2477:3.9981 2484:4.7976999 2499:3.9981 2522:3.9981 2580:3.9981 2582:3.9981 2645:3.9981 2757:3.9981 2806:3.9981 2819:3.9981 2831:3.9981 2856:3.9981 2868:3.9981 2939:3.9981 # none/00000027_s01.txt
-0.00058309709562798630114177633743111 10:4.7976999 11:4.7976999 35:3.7314999 45:3.7314999 66:3.7314999 67:3.7314999 87:3.7314999 131:3.7314999 146:3.7314999 161:4.2645998 164:4.2645998 179:3.7314999 228:3.7314999 238:3.7314999 256:3.7314999 265:3.7314999 277:3.7314999 290:4.2645998 316:3.7314999 370:3.7314999 377:4.2645998 404:3.7314999 410:3.7314999 460:4.2645998 498:3.7314999 500:3.7314999 542:3.7314999 553:5.3308001 579:5.3308001 583:3.7314999 679:3.7314999 680:3.7314999 687:4.2645998 698:3.7314999 709:3.7314999 727:4.2645998 765:3.7314999 794:3.7314999 798:4.2645998 804:3.7314999 826:6.3969002 835:3.7314999 844:4.2645998 881:3.7314999 891:4.7976999 895:5.3308001 918:5.3308001 923:3.7314999 955:3.7314999 970:3.7314999 1046:3.7314999 1048:3.7314999 1184:3.7314999 1227:4.2645998 1284:3.7314999 1285:3.7314999 1301:3.7314999 1310:4.2645998 1345:3.7314999 1366:4.2645998 1372:3.7314999 1378:3.7314999 1394:3.7314999 1442:4.2645998 1446:3.7314999 1451:3.7314999 1507:3.7314999 1589:3.7314999 1608:4.2645998 1628:3.7314999 1691:3.7314999 1706:3.7314999 1749:3.7314999 1755:5.8639002 1765:3.7314999 1773:4.2645998 1779:3.7314999 1784:3.7314999 1788:4.2645998 1797:3.7314999 1805:3.7314999 1806:3.7314999 1824:3.7314999 1842:3.7314999 1849:4.2645998 1924:5.3308001 1945:4.2645998 1950:3.7314999 1975:3.7314999 2013:3.7314999 2070:3.7314999 2157:4.2645998 2159:3.7314999 2166:3.7314999 2173:5.8639002 2177:3.7314999 2186:3.7314999 2187:3.7314999 2200:3.7314999 2220:3.7314999 2245:4.2645998 2247:3.7314999 2251:3.7314999 2261:4.2645998 2314:3.7314999 2316:4.2645998 2318:5.8639002 2356:3.7314999 2392:3.7314999 2401:4.7976999 2409:4.2645998 2424:4.2645998 2455:3.7314999 2474:3.7314999 2477:3.7314999 2479:4.2645998 2484:3.7314999 2496:3.7314999 2522:3.7314999 2533:3.7314999 2541:3.7314999 2594:3.7314999 2608:3.7314999 2622:4.2645998 2661:3.7314999 2662:4.2645998 2703:3.7314999 2717:3.7314999 2741:3.7314999 2795:3.7314999 2811:3.7314999 2819:4.2645998 2855:3.7314999 2881:3.7314999 2894:3.7314999 2901:4.2645998 2912:3.7314999 2913:3.7314999 2939:3.7314999 # none/00000041_s06.txt
0.00058309709562798630114177633743111 10:3.5183001 35:3.5183001 45:3.5183001 71:4.158 153:3.5183001 173:3.5183001 226:3.5183001 238:3.8382001 256:3.5183001 259:3.5183001 343:3.5183001 371:3.5183001 404:3.5183001 420:3.5183001 456:3.5183001 460:3.8382001 541:3.5183001 553:3.5183001 579:3.5183001 654:3.5183001 665:3.8382001 712:3.5183001 714:3.5183001 726:3.5183001 742:3.5183001 781:3.5183001 794:3.5183001 826:6.3969002 835:3.5183001 844:3.5183001 853:3.5183001 891:3.5183001 953:3.5183001 1051:3.5183001 1081:3.5183001 1086:3.5183001 1118:3.5183001 1227:3.5183001 1239:3.5183001 1256:3.5183001 1259:3.5183001 1301:3.5183001 1307:3.5183001 1354:3.5183001 1372:3.5183001 1378:3.5183001 1499:3.5183001 1556:3.5183001 1565:3.5183001 1589:3.5183001 1667:3.5183001 1677:3.5183001 1697:3.5183001 1837:3.5183001 1924:4.158 1926:3.8382001 1945:3.8382001 1947:3.5183001 1963:3.5183001 1975:3.5183001 2056:3.5183001 2059:3.5183001 2081:3.5183001 2164:3.5183001 2173:4.158 2261:3.5183001 2318:3.8382001 2359:3.8382001 2384:3.5183001 2388:3.5183001 2401:3.5183001 2409:3.8382001 2477:3.5183001 2479:3.5183001 2522:3.5183001 2544:3.5183001 2580:3.5183001 2582:3.5183001 2645:4.158 2662:3.5183001 2768:3.5183001 2813:3.5183001 2819:3.5183001 2861:3.5183001 2868:3.5183001 2901:4.158 2939:3.5183001 # seizures/00000005_s06.txt
0.00053897216571894548606258545930814 10:3.9981 11:3.9981 35:5.5973001 54:3.9981 149:3.9981 190:3.9981 238:3.9981 259:3.9981 277:3.9981 355:5.5973001 420:3.9981 456:3.9981 460:6.3969002 539:3.9981 552:3.9981 568:3.9981 579:4.7976999 606:3.9981 665:5.5973001 679:3.9981 680:3.9981 712:3.9981 714:3.9981 727:3.9981 746:3.9981 794:3.9981 797:3.9981 798:3.9981 826:6.3969002 835:3.9981 844:3.9981 848:3.9981 870:3.9981 889:3.9981 891:3.9981 908:3.9981 964:3.9981 978:4.7976999 982:3.9981 1011:3.9981 1036:3.9981 1046:3.9981 1069:3.9981 1081:4.7976999 1082:3.9981 1200:3.9981 1202:5.5973001 1212:3.9981 1227:3.9981 1239:3.9981 1301:3.9981 1305:4.7976999 1306:3.9981 1307:3.9981 1372:3.9981 1379:3.9981 1412:3.9981 1451:5.5973001 1458:3.9981 1565:3.9981 1589:3.9981 1595:3.9981 1677:3.9981 1755:3.9981 1788:3.9981 1792:4.7976999 1797:3.9981 1823:3.9981 1837:3.9981 1842:3.9981 1894:3.9981 1924:5.5973001 1926:4.7976999 1945:4.7976999 1975:3.9981 2059:3.9981 2072:3.9981 2073:3.9981 2173:3.9981 2192:3.9981 2247:3.9981 2261:6.3969002 2316:3.9981 2318:5.5973001 2359:3.9981 2375:3.9981 2381:3.9981 2392:3.9981 2409:4.7976999 2433:3.9981 2450:3.9981 2455:3.9981 2477:3.9981 2484:3.9981 2499:3.9981 2582:3.9981 2633:3.9981 2645:3.9981 2757:3.9981 2819:3.9981 2868:3.9981 2901:3.9981 2939:3.9981 # seizures/00000018_s02.txt
0.00058309709562798630114177633743111 10:3.6554 35:3.6554 45:3.6554 56:3.6554 65:3.6554 94:3.6554 154:3.6554 167:3.6554 185:3.6554 238:3.6554 247:4.1122999 259:3.6554 322:3.6554 341:3.6554 375:3.6554 417:3.6554 420:3.6554 423:3.6554 460:4.5692 535:3.6554 553:3.6554 579:3.6554 630:4.1122999 662:3.6554 665:3.6554 680:3.6554 701:3.6554 708:3.6554 712:3.6554 714:3.6554 794:3.6554 813:3.6554 826:6.3969002 835:3.6554 838:3.6554 844:4.1122999 870:3.6554 925:3.6554 934:3.6554 1036:3.6554 1046:4.1122999 1069:3.6554 1074:3.6554 1081:3.6554 1082:3.6554 1132:3.6554 1136:3.6554 1148:3.6554 1227:3.6554 1239:3.6554 1301:3.6554 1357:3.6554 1372:3.6554 1412:3.6554 1451:5.0261998 1507:3.6554 1585:3.6554 1589:3.6554 1607:3.6554 1663:4.1122999 1668:3.6554 1674:3.6554 1709:3.6554 1755:3.6554 1818:3.6554 1827:3.6554 1837:3.6554 1924:5.4830999 1945:3.6554 1950:4.1122999 1975:3.6554 1991:3.6554 2000:3.6554 2005:3.6554 2124:3.6554 2173:4.5692 2187:4.1122999 2313:3.6554 2315:3.6554 2316:3.6554 2318:5.0261998 2349:3.6554 2359:5.0261998 2378:3.6554 2409:4.1122999 2455:3.6554 2477:3.6554 2484:3.6554 2575:3.6554 2582:3.6554 2594:3.6554 2622:5.0261998 2750:3.6554 2819:3.6554 2856:3.6554 2860:3.6554 2868:4.1122999 2901:5.0261998 2936:4.1122999 2939:3.6554 # seizures/00000018_s04.txt
0.00023154727794715555030252707169325 10:3.4892001 35:3.78 38:3.4892001 54:3.4892001 94:3.4892001 144:3.4892001 175:3.4892001 203:3.4892001 238:3.4892001 261:3.4892001 263:3.4892001 269:3.4892001 420:3.4892001 422:3.4892001 423:3.4892001 460:4.0707998 491:3.4892001 498:3.4892001 505:3.78 513:3.78 535:4.0707998 553:3.4892001 579:3.4892001 606:3.4892001 653:3.4892001 657:3.4892001 662:3.4892001 665:3.4892001 680:3.4892001 701:3.4892001 712:3.4892001 714:3.4892001 716:3.4892001 765:3.4892001 794:3.4892001 797:3.4892001 798:4.0707998 826:4.3614998 835:3.4892001 844:3.78 889:3.4892001 917:3.4892001 925:3.4892001 982:3.4892001 1046:3.78 1081:3.4892001 1082:3.4892001 1091:3.4892001 1177:3.78 1184:3.4892001 1202:3.78 1227:3.4892001 1239:3.4892001 1301:3.4892001 1302:3.4892001 1305:4.0707998 1318:3.4892001 1372:3.4892001 1375:3.4892001 1423:3.4892001 1438:3.4892001 1442:3.4892001 1451:4.6522999 1492:3.4892001 1507:3.4892001 1532:3.4892001 1548:3.4892001 1581:3.4892001 1589:3.4892001 1595:3.4892001 1607:3.4892001 1663:3.4892001 1667:3.4892001 1676:3.4892001 1691:3.4892001 1749:3.4892001 1784:3.4892001 1788:3.4892001 1843:3.4892001 1867:3.78 1915:3.78 1924:4.6522999 1945:3.4892001 1963:3.4892001 1975:3.4892001 1979:3.4892001 2002:3.4892001 2013:3.4892001 2017:3.78 2046:3.4892001 2059:3.4892001 2136:3.78 2173:4.6522999 2176:3.4892001 2177:4.0707998 2210:3.78 2244:3.4892001 2247:3.4892001 2251:3.4892001 2252:3.4892001 2261:3.4892001 2312:3.4892001 2315:4.6522999 2318:6.3969002 2409:4.0707998 2477:3.4892001 2484:3.78 2499:3.4892001 2573:3.4892001 2574:3.4892001 2582:3.4892001 2611:3.4892001 2645:3.4892001 2668:3.4892001 2719:3.4892001 2741:3.4892001 2806:3.78 2819:3.4892001 2838:3.4892001 2868:3.4892001 2904:3.4892001 2939:3.4892001 # seizures/00002947_s01.txt
0.00058309709562798630114177633743111 10:4.2645998 35:4.2645998 45:4.7976999 77:3.7314999 94:3.7314999 110:4.2645998 131:3.7314999 149:4.2645998 238:3.7314999 247:3.7314999 256:3.7314999 277:3.7314999 285:3.7314999 322:3.7314999 353:3.7314999 410:4.2645998 419:4.2645998 456:3.7314999 460:4.7976999 519:3.7314999 542:3.7314999 553:4.2645998 579:4.2645998 662:3.7314999 680:3.7314999 687:4.2645998 709:3.7314999 710:4.2645998 714:3.7314999 727:4.7976999 765:3.7314999 794:4.2645998 804:4.2645998 826:5.3308001 827:3.7314999 835:3.7314999 844:4.2645998 848:4.2645998 891:4.2645998 912:3.7314999 915:3.7314999 923:3.7314999 926:3.7314999 978:3.7314999 1046:3.7314999 1048:3.7314999 1081:4.7976999 1090:3.7314999 1118:4.2645998 1172:3.7314999 1189:3.7314999 1195:3.7314999 1227:3.7314999 1231:3.7314999 1301:3.7314999 1354:3.7314999 1372:3.7314999 1379:3.7314999 1412:3.7314999 1422:3.7314999 1439:3.7314999 1442:4.2645998 1446:3.7314999 1451:4.2645998 1458:3.7314999 1459:3.7314999 1461:3.7314999 1486:3.7314999 1507:3.7314999 1545:3.7314999 1554:3.7314999 1589:4.2645998 1607:3.7314999 1738:3.7314999 1755:4.2645998 1773:3.7314999 1779:3.7314999 1784:3.7314999 1788:4.2645998 1792:5.3308001 1805:3.7314999 1827:4.2645998 1842:4.2645998 1849:3.7314999 1854:3.7314999 1868:3.7314999 1906:4.2645998 1914:3.7314999 1924:4.7976999 1945:4.7976999 1950:5.3308001 1975:3.7314999 1984:4.7976999 2013:4.7976999 2070:4.2645998 2144:3.7314999 2148:3.7314999 2166:3.7314999 2173:5.3308001 2186:3.7314999 2187:4.2645998 2192:3.7314999 2244:3.7314999 2245:3.7314999 2247:3.7314999 2251:3.7314999 2252:4.2645998 2287:3.7314999 2316:3.7314999 2318:6.3969002 2359:4.2645998 2371:3.7314999 2392:3.7314999 2405:3.7314999 2409:4.7976999 2417:3.7314999 2424:3.7314999 2455:3.7314999 2474:3.7314999 2477:3.7314999 2478:3.7314999 2484:3.7314999 2506:3.7314999 2522:3.7314999 2529:3.7314999 2541:3.7314999 2582:3.7314999 2608:3.7314999 2622:4.7976999 2668:3.7314999 2806:3.7314999 2819:4.2645998 2873:3.7314999 2901:5.3308001 2912:4.7976999 2928:3.7314999 # seizures/00000032_s05.txt
-0.00058309709562798630114177633743111 10:3.3375001 35:4.3109999 56:3.3375001 67:3.3375001 94:3.3375001 110:3.4765999 127:3.4765999 131:3.3375001 149:4.0328002 166:3.6157 173:3.6157 185:3.4765999 210:3.3375001 217:3.6157 230:3.3375001 237:3.4765999 238:4.4499998 257:3.3375001 261:3.3375001 265:3.4765999 322:3.4765999 351:3.3375001 373:3.3375001 379:3.3375001 419:3.3375001 420:3.4765999 456:3.3375001 457:3.3375001 460:3.8938 498:3.6157 507:3.3375001 508:3.3375001 513:3.8938 522:3.3375001 525:3.3375001 553:3.7546999 579:3.6157 602:3.3375001 630:3.3375001 645:3.4765999 648:3.3375001 654:3.3375001 662:3.8938 665:4.5890999 680:3.4765999 687:3.3375001 688:3.3375001 701:3.3375001 714:3.3375001 735:3.3375001 788:3.3375001 790:3.4765999 794:3.3375001 798:3.8938 826:4.4499998 830:3.3375001 835:3.8938 844:3.7546999 852:3.3375001 860:3.3375001 867:3.3375001 874:3.3375001 880:3.3375001 886:3.3375001 891:3.6157 917:3.3375001 921:3.3375001 925:3.3375001 953:3.3375001 964:3.3375001 972:3.6157 982:3.3375001 1009:3.3375001 1018:3.3375001 1046:3.8938 1051:3.3375001 1070:3.3375001 1081:3.3375001 1090:3.3375001 1104:3.3375001 1141:3.3375001 1145:3.3375001 1175:3.3375001 1177:3.3375001 1187:3.3375001 1202:3.3375001 1213:3.3375001 1217:3.4765999 1227:3.4765999 1239:3.4765999 1254:3.3375001 1256:3.3375001 1258:3.3375001 1276:3.4765999 1281:3.4765999 1284:3.3375001 1301:3.4765999 1302:3.3375001 1305:4.3109999 1306:3.3375001 1312:3.4765999 1343:3.3375001 1354:3.4765999 1372:3.4765999 1399:3.3375001 1403:3.4765999 1406:3.3375001 1440:3.3375001 1442:3.3375001 1451:4.8671999 1472:3.3375001 1482:3.3375001 1499:3.3375001 1506:3.3375001 1507:3.4765999 1520:3.3375001 1529:3.3375001 1543:3.3375001 1554:3.3375001 1557:3.3375001 1579:3.3375001 1589:3.3375001 1601:3.4765999 1655:3.3375001 1663:3.8938 1667:3.4765999 1672:3.4765999 1677:3.4765999 1678:3.3375001 1681:3.3375001 1685:3.7546999 1709:3.3375001 1755:3.6157 1756:3.3375001 1788:4.0328002 1794:3.3375001 1805:3.8938 1816:4.5890999 1823:3.4765999 1824:3.3375001 1827:3.7546999 1838:3.3375001 1842:3.6157 1848:3.3375001 1854:3.4765999 1867:3.3375001 1868:3.3375001 1914:3.3375001 1915:3.7546999 1924:5.8407001 1926:3.6157 1945:3.4765999 1962:3.4765999 1974:3.3375001 1975:3.4765999 2002:4.0328002 2005:3.3375001 2017:3.4765999 2056:3.3375001 2059:3.3375001 2066:3.3375001 2079:3.3375001 2085:3.4765999 2113:3.3375001 2130:3.3375001 2142:3.4765999 2171:3.4765999 2173:5.4235001 2184:3.3375001 2187:4.0328002 2192:3.3375001 2210:3.7546999 2215:3.3375001 2230:3.3375001 2243:3.3375001 2247:3.7546999 2252:4.0328002 2261:3.4765999 2277:3.7546999 2292:3.3375001 2312:3.7546999 2315:3.7546999 2316:3.6157 2318:6.3969002 2333:3.4765999 2359:4.4499998 2375:3.3375001 2395:3.4765999 2401:4.5890999 2405:3.3375001 2409:4.8671999 2414:3.3375001 2427:3.3375001 2431:3.3375001 2437:3.3375001 2446:3.4765999 2449:3.3375001 2452:3.3375001 2455:3.7546999 2460:3.3375001 2468:3.3375001 2474:3.4765999 2477:3.4765999 2479:3.4765999 2506:3.3375001 2532:3.3375001 2582:3.4765999 2590:3.3375001 2596:3.4765999 2605:3.3375001 2607:3.4765999 2614:3.3375001 2619:3.3375001 2622:4.8671999 2631:3.3375001 2633:3.3375001 2645:3.7546999 2668:4.3109999 2672:3.4765999 2701:3.3375001 2707:3.4765999 2713:3.6157 2750:3.3375001 2789:3.3375001 2801:3.3375001 2806:3.3375001 2819:3.6157 2861:3.3375001 2868:3.7546999 2885:3.4765999 2894:4.0328002 2901:4.8671999 2912:3.7546999 2913:3.3375001 2915:3.6157 2920:3.3375001 2936:3.4765999 2939:3.3375001 2949:3.3375001 # none/00000303_s02.txt
-0.00058309709562798630114177633743111 10:4.7976999 35:3.7314999 45:4.7976999 61:3.7314999 77:3.7314999 110:3.7314999 131:3.7314999 149:4.2645998 158:3.7314999 173:3.7314999 207:4.2645998 238:5.3308001 277:3.7314999 355:3.7314999 410:4.2645998 460:4.2645998 542:4.2645998 553:4.2645998 579:3.7314999 679:3.7314999 680:3.7314999 687:4.2645998 709:3.7314999 710:5.3308001 727:5.3308001 731:3.7314999 765:3.7314999 794:4.7976999 798:3.7314999 804:4.2645998 826:6.3969002 835:3.7314999 844:4.7976999 891:4.2645998 912:3.7314999 923:4.2645998 978:3.7314999 1011:3.7314999 1046:4.2645998 1081:4.2645998 1090:3.7314999 1118:3.7314999 1189:3.7314999 1202:3.7314999 1227:4.2645998 1301:3.7314999 1354:3.7314999 1355:3.7314999 1372:3.7314999 1379:3.7314999 1412:3.7314999 1422:3.7314999 1426:3.7314999 1439:3.7314999 1442:4.2645998 1507:3.7314999 1525:3.7314999 1554:3.7314999 1577:3.7314999 1589:4.2645998 1617:3.7314999 1656:3.7314999 1668:3.7314999 1693:3.7314999 1755:4.7976999 1773:3.7314999 1779:3.7314999 1784:4.2645998 1788:3.7314999 1792:3.7314999 1805:3.7314999 1825:4.2645998 1849:3.7314999 1863:3.7314999 1867:4.7976999 1868:4.2645998 1914:3.7314999 1924:5.3308001 1927:3.7314999 1945:4.2645998 1950:4.2645998 1975:3.7314999 1984:4.2645998 2013:4.7976999 2047:3.7314999 2058:4.2645998 2070:3.7314999 2148:3.7314999 2159:3.7314999 2166:3.7314999 2173:5.3308001 2186:3.7314999 2187:3.7314999 2213:4.2645998 2245:4.2645998 2247:3.7314999 2251:3.7314999 2252:3.7314999 2261:5.3308001 2286:3.7314999 2316:4.7976999 2318:6.3969002 2355:3.7314999 2359:3.7314999 2394:3.7314999 2401:3.7314999 2409:4.2645998 2424:3.7314999 2455:3.7314999 2477:3.7314999 2484:3.7314999 2499:3.7314999 2506:3.7314999 2518:3.7314999 2522:3.7314999 2526:3.7314999 2555:3.7314999 2582:3.7314999 2605:4.2645998 2608:3.7314999 2622:5.3308001 2662:4.2645998 2668:3.7314999 2739:4.2645998 2795:3.7314999 2819:4.2645998 2856:3.7314999 2857:3.7314999 2901:4.2645998 2912:3.7314999 # none/00002277_s08.txt
-0.00058309709562798630114177633743111 10:4.1122999 17:3.6554 35:4.1122999 40:3.6554 45:4.5692 81:3.6554 94:3.6554 110:3.6554 131:4.1122999 149:4.5692 158:3.6554 160:3.6554 173:3.6554 238:4.1122999 277:4.1122999 355:4.1122999 404:4.5692 410:3.6554 456:4.1122999 460:4.1122999 542:4.1122999 553:4.1122999 579:3.6554 680:3.6554 693:3.6554 700:3.6554 709:3.6554 710:5.0261998 714:3.6554 727:4.1122999 765:3.6554 794:4.1122999 798:3.6554 804:4.1122999 826:4.5692 827:3.6554 835:3.6554 844:4.1122999 886:3.6554 891:3.6554 912:3.6554 923:4.1122999 926:3.6554 953:3.6554 955:3.6554 1046:4.1122999 1081:5.0261998 1086:4.1122999 1118:4.1122999 1202:5.0261998 1227:4.1122999 1301:3.6554 1307:4.1122999 1327:3.6554 1354:3.6554 1372:3.6554 1379:3.6554 1439:3.6554 1442:3.6554 1446:3.6554 1451:5.4830999 1501:3.6554 1506:3.6554 1554:3.6554 1565:4.1122999 1577:3.6554 1589:4.1122999 1693:3.6554 1720:3.6554 1739:3.6554 1755:5.4830999 1773:4.1122999 1779:3.6554 1784:4.1122999 1788:3.6554 1792:3.6554 1819:3.6554 1828:4.1122999 1847:3.6554 1849:3.6554 1867:4.1122999 1868:3.6554 1914:3.6554 1924:4.5692 1945:4.5692 1950:4.1122999 1975:3.6554 1984:4.1122999 2013:4.1122999 2070:4.1122999 2159:3.6554 2166:3.6554 2173:5.0261998 2186:3.6554 2187:3.6554 2192:3.6554 2251:3.6554 2252:3.6554 2261:3.6554 2287:3.6554 2292:3.6554 2316:6.3969002 2318:5.9400001 2356:3.6554 2359:4.1122999 2392:3.6554 2401:3.6554 2405:3.6554 2409:5.4830999 2431:3.6554 2477:3.6554 2499:3.6554 2518:3.6554 2522:3.6554 2582:3.6554 2608:3.6554 2622:4.1122999 2631:3.6554 2645:3.6554 2662:3.6554 2668:5.0261998 2693:3.6554 2712:3.6554 2811:3.6554 2819:3.6554 2894:3.6554 2901:4.5692 # none/00000286_s05.txt
-0.0004885863407937924380794458834032 10:4.7976999 35:4.2645998 45:3.7314999 54:3.7314999 56:3.7314999 92:3.7314999 94:3.7314999 149:3.7314999 179:3.7314999 228:4.2645998 229:3.7314999 238:3.7314999 247:3.7314999 259:3.7314999 264:3.7314999 298:3.7314999 355:4.7976999 420:3.7314999 421:3.7314999 460:4.2645998 542:3.7314999 553:4.7976999 579:3.7314999 662:4.2645998 680:3.7314999 683:3.7314999 724:4.2645998 732:4.2645998 778:3.7314999 798:3.7314999 813:3.7314999 826:5.8639002 835:3.7314999 844:4.2645998 917:3.7314999 923:3.7314999 955:3.7314999 978:3.7314999 1081:3.7314999 1189:3.7314999 1227:3.7314999 1277:3.7314999 1301:3.7314999 1302:3.7314999 1327:3.7314999 1354:4.2645998 1372:3.7314999 1373:3.7314999 1412:3.7314999 1451:3.7314999 1459:3.7314999 1520:3.7314999 1550:3.7314999 1565:4.2645998 1589:3.7314999 1607:3.7314999 1611:3.7314999 1614:3.7314999 1651:3.7314999 1663:3.7314999 1667:6.3969002 1668:3.7314999 1670:4.2645998 1678:3.7314999 1755:3.7314999 1792:4.2645998 1825:3.7314999 1842:4.2645998 1868:3.7314999 1872:3.7314999 1906:4.2645998 1924:5.3308001 1926:5.8639002 1945:3.7314999 1950:3.7314999 1975:3.7314999 2013:4.2645998 2046:3.7314999 2056:3.7314999 2058:3.7314999 2067:3.7314999 2085:3.7314999 2148:3.7314999 2164:3.7314999 2173:5.8639002 2187:4.2645998 2203:3.7314999 2252:4.2645998 2315:3.7314999 2316:3.7314999 2318:3.7314999 2339:3.7314999 2349:3.7314999 2359:3.7314999 2477:3.7314999 2482:3.7314999 2484:3.7314999 2544:4.2645998 2582:3.7314999 2645:4.7976999 2704:3.7314999 2707:3.7314999 2727:6.3969002 2819:3.7314999 2868:4.2645998 2901:5.8639002 2904:3.7314999 # none/00008003_s03.txt
-0.00058309709562798630114177633743111 35:3.9092 45:3.5538001 92:3.5538001 173:3.5538001 190:3.5538001 207:3.5538001 238:3.5538001 244:3.5538001 256:3.5538001 259:3.9092 290:3.5538001 341:3.9092 355:4.9754 410:3.5538001 420:3.9092 460:4.9754 488:3.5538001 494:3.5538001 553:4.9754 579:3.9092 598:3.5538001 665:4.2645998 680:3.9092 712:3.9092 732:3.9092 813:3.5538001 826:6.0415001 835:4.2645998 844:3.9092 855:3.5538001 935:3.5538001 964:3.5538001 996:3.5538001 1010:3.5538001 1011:3.5538001 1086:3.9092 1132:3.5538001 1181:3.5538001 1184:3.5538001 1227:4.2645998 1239:3.9092 1298:3.5538001 1301:3.9092 1307:3.9092 1312:3.5538001 1322:3.5538001 1327:3.5538001 1360:3.5538001 1372:3.9092 1373:3.5538001 1412:3.5538001 1439:3.9092 1442:3.5538001 1451:4.9754 1459:3.9092 1506:3.5538001 1507:3.5538001 1550:3.5538001 1565:3.5538001 1589:3.5538001 1663:5.3308001 1667:4.6199999 1668:3.9092 1736:3.5538001 1755:4.2645998 1788:3.9092 1792:3.5538001 1837:3.5538001 1842:3.5538001 1846:3.5538001 1872:3.5538001 1924:4.2645998 1926:4.9754 1940:3.5538001 1945:3.9092 1950:3.9092 1975:3.9092 2056:3.5538001 2059:3.5538001 2085:3.5538001 2088:3.5538001 2097:3.9092 2173:4.9754 2187:3.9092 2192:3.5538001 2203:3.5538001 2261:4.2645998 2312:3.9092 2318:3.5538001 2349:3.5538001 2359:3.9092 2409:3.5538001 2431:3.5538001 2477:3.9092 2499:3.5538001 2555:6.3969002 2582:3.9092 2605:3.5538001 2627:3.5538001 2631:3.5538001 2710:3.5538001 2806:3.5538001 2807:3.9092 2819:3.9092 2822:3.5538001 2857:3.5538001 2868:3.9092 2896:3.5538001 2901:3.9092 2903:3.5538001 # none/00000901_s08.txt
0.00058309709562798630114177633743111 10:3.5538001 35:4.2645998 45:3.5538001 58:3.5538001 88:3.5538001 110:3.5538001 131:3.5538001 191:3.5538001 238:3.5538001 290:3.5538001 298:3.5538001 339:3.9092 344:3.5538001 377:3.5538001 420:3.5538001 460:3.9092 506:3.5538001 557:3.5538001 579:3.5538001 662:3.5538001 680:3.5538001 712:3.5538001 746:3.5538001 784:3.5538001 794:3.5538001 826:4.9754 835:3.5538001 844:3.5538001 854:3.5538001 892:3.5538001 917:3.9092 918:3.5538001 978:3.9092 982:3.5538001 993:3.9092 1046:3.9092 1081:3.5538001 1082:3.9092 1177:3.5538001 1193:3.5538001 1227:3.5538001 1239:3.5538001 1259:3.5538001 1284:3.5538001 1301:3.5538001 1305:3.5538001 1307:3.5538001 1372:3.5538001 1412:3.5538001 1423:3.5538001 1451:6.3969002 1492:3.5538001 1500:3.5538001 1524:3.5538001 1579:3.5538001 1589:3.5538001 1628:3.5538001 1667:3.5538001 1691:3.5538001 1792:3.9092 1824:3.5538001 1825:3.9092 1827:3.5538001 1837:3.5538001 1863:3.5538001 1920:3.9092 1924:3.9092 1945:3.9092 1963:3.9092 1975:3.5538001 2006:3.5538001 2013:3.5538001 2017:3.5538001 2019:3.5538001 2073:3.5538001 2085:3.9092 2095:3.5538001 2136:3.5538001 2144:3.9092 2173:4.6199999 2187:4.2645998 2229:3.5538001 2251:4.2645998 2261:3.5538001 2300:3.5538001 2312:3.9092 2315:3.9092 2318:3.5538001 2359:5.3308001 2360:3.5538001 2401:4.9754 2405:3.5538001 2409:3.9092 2412:3.5538001 2432:3.5538001 2460:3.5538001 2474:3.5538001 2477:3.5538001 2482:3.5538001 2499:4.2645998 2554:3.5538001 2582:3.5538001 2622:4.9754 2645:3.5538001 2668:3.5538001 2688:3.5538001 2693:3.5538001 2701:3.5538001 2707:3.9092 2768:3.9092 2819:3.5538001 2851:3.5538001 2861:3.9092 2868:3.5538001 2873:3.5538001 2901:6.0415001 2904:3.9092 2912:3.9092 2959:3.5538001 # seizures/00000327_s03.txt
0.00058309709562798630114177633743111 5:3.78 10:3.4892001 35:5.2339001 54:3.4892001 67:3.4892001 68:3.4892001 107:3.78 110:3.4892001 161:3.78 173:3.4892001 179:3.4892001 228:3.78 259:3.4892001 277:3.4892001 280:3.4892001 358:4.6522999 392:3.4892001 419:3.78 420:3.4892001 422:4.0707998 460:4.0707998 510:3.4892001 553:3.4892001 579:4.6522999 662:3.4892001 669:3.4892001 680:3.4892001 712:3.4892001 759:3.4892001 765:3.4892001 794:3.4892001 798:3.78 826:5.8154001 835:3.4892001 844:3.4892001 897:3.4892001 918:4.6522999 955:3.4892001 988:3.4892001 990:3.4892001 992:3.4892001 1018:3.4892001 1051:3.4892001 1070:3.4892001 1081:3.4892001 1090:3.4892001 1101:3.4892001 1124:3.4892001 1145:3.4892001 1177:3.78 1217:3.4892001 1227:3.4892001 1228:3.4892001 1239:3.4892001 1259:3.4892001 1281:4.0707998 1285:3.4892001 1301:3.4892001 1307:3.78 1322:3.4892001 1372:3.4892001 1394:3.4892001 1421:3.4892001 1439:3.78 1451:3.4892001 1454:3.4892001 1507:4.0707998 1525:3.4892001 1585:3.4892001 1589:3.4892001 1650:3.4892001 1663:4.0707998 1667:3.4892001 1678:3.78 1693:3.4892001 1755:4.9431 1784:3.4892001 1788:3.4892001 1805:3.4892001 1827:4.3614998 1842:3.4892001 1847:3.4892001 1860:3.4892001 1915:3.4892001 1924:6.3969002 1945:3.78 1975:3.4892001 2006:3.4892001 2013:3.4892001 2073:3.4892001 2113:4.6522999 2147:3.78 2173:3.4892001 2245:3.4892001 2251:3.4892001 2261:4.6522999 2276:3.4892001 2316:4.3614998 2318:5.5246 2356:4.0707998 2359:4.0707998 2381:3.4892001 2401:4.3614998 2409:3.4892001 2418:3.4892001 2460:3.4892001 2474:3.78 2477:3.4892001 2482:3.78 2582:3.4892001 2596:3.4892001 2622:4.0707998 2645:3.4892001 2652:3.4892001 2658:3.4892001 2662:3.4892001 2668:3.4892001 2718:3.4892001 2719:3.78 2742:3.4892001 2789:3.4892001 2819:3.4892001 2861:3.4892001 2868:3.78 2887:3.4892001 2894:3.4892001 2900:3.4892001 2901:3.78 # seizures/00002318_s02.txt
0.00058309709562798630114177633743111 54:3.9981 68:3.9981 88:3.9981 196:3.9981 228:3.9981 238:4.7976999 259:3.9981 277:4.7976999 420:3.9981 422:3.9981 460:4.7976999 508:3.9981 613:3.9981 679:3.9981 680:3.9981 712:3.9981 714:3.9981 790:5.5973001 826:6.3969002 827:3.9981 835:3.9981 844:3.9981 886:3.9981 891:3.9981 955:3.9981 982:4.7976999 1046:3.9981 1120:4.7976999 1227:3.9981 1239:3.9981 1276:3.9981 1293:3.9981 1301:3.9981 1305:4.7976999 1372:3.9981 1412:3.9981 1439:3.9981 1482:3.9981 1517:3.9981 1589:4.7976999 1678:3.9981 1755:3.9981 1782:3.9981 1784:3.9981 1792:3.9981 1816:3.9981 1924:3.9981 1945:3.9981 1975:3.9981 2006:3.9981 2041:3.9981 2173:5.5973001 2218:3.9981 2251:3.9981 2263:3.9981 2276:3.9981 2318:4.7976999 2409:3.9981 2477:3.9981 2582:3.9981 2819:3.9981 2868:3.9981 2894:4.7976999 2905:3.9981 2935:3.9981 2939:3.9981 # seizures/00003371_s01.txt
0.00058309709562798630114177633743111 54:3.9981 68:3.9981 88:3.9981 196:3.9981 228:3.9981 238:4.7976999 259:3.9981 277:4.7976999 420:3.9981 422:3.9981 460:4.7976999 508:3.9981 613:3.9981 679:3.9981 680:3.9981 712:3.9981 714:3.9981 790:5.5973001 826:6.3969002 827:3.9981 835:3.9981 844:3.9981 886:3.9981 891:3.9981 955:3.9981 982:4.7976999 1046:3.9981 1120:4.7976999 1227:3.9981 1239:3.9981 1276:3.9981 1293:3.9981 1301:3.9981 1305:4.7976999 1372:3.9981 1412:3.9981 1439:3.9981 1482:3.9981 1517:3.9981 1589:4.7976999 1678:3.9981 1755:3.9981 1782:3.9981 1784:3.9981 1792:3.9981 1816:3.9981 1924:3.9981 1945:3.9981 1975:3.9981 2006:3.9981 2041:3.9981 2173:4.7976999 2218:3.9981 2251:3.9981 2263:3.9981 2276:3.9981 2318:4.7976999 2409:3.9981 2477:3.9981 2582:3.9981 2819:3.9981 2868:3.9981 2894:4.7976999 2905:3.9981 2935:3.9981 2939:3.9981 # seizures/00003371_s03.txt
0.00058309709562798630114177633743111 10:4.4779 35:4.4779 48:3.8382001 154:3.8382001 167:4.4779 182:3.8382001 185:3.8382001 190:3.8382001 238:5.1174998 396:3.8382001 410:3.8382001 420:3.8382001 433:3.8382001 460:4.4779 538:3.8382001 557:3.8382001 579:3.8382001 584:3.8382001 604:3.8382001 662:4.4779 664:3.8382001 680:3.8382001 698:3.8382001 710:3.8382001 712:3.8382001 714:3.8382001 755:3.8382001 765:3.8382001 788:3.8382001 790:3.8382001 794:3.8382001 826:6.3969002 835:3.8382001 844:3.8382001 895:3.8382001 978:3.8382001 982:3.8382001 1081:3.8382001 1091:3.8382001 1097:4.4779 1138:3.8382001 1170:3.8382001 1184:3.8382001 1227:3.8382001 1239:3.8382001 1258:3.8382001 1281:3.8382001 1296:3.8382001 1301:3.8382001 1305:3.8382001 1307:3.8382001 1335:3.8382001 1354:3.8382001 1367:3.8382001 1372:3.8382001 1423:3.8382001 1439:4.4779 1451:5.7571998 1520:3.8382001 1525:3.8382001 1589:3.8382001 1640:3.8382001 1691:3.8382001 1753:3.8382001 1786:3.8382001 1788:3.8382001 1824:4.4779 1842:4.4779 1863:3.8382001 1924:5.7571998 1945:4.4779 1963:4.4779 1975:3.8382001 2005:3.8382001 2013:3.8382001 2047:3.8382001 2099:3.8382001 2139:3.8382001 2147:3.8382001 2173:4.4779 2187:4.4779 2251:3.8382001 2285:3.8382001 2298:3.8382001 2318:3.8382001 2359:5.1174998 2360:3.8382001 2409:5.7571998 2432:3.8382001 2460:3.8382001 2477:3.8382001 2499:4.4779 2518:3.8382001 2551:3.8382001 2554:3.8382001 2582:3.8382001 2597:3.8382001 2611:3.8382001 2622:4.4779 2645:3.8382001 2662:3.8382001 2668:3.8382001 2819:3.8382001 2861:3.8382001 2868:3.8382001 2887:3.8382001 2894:3.8382001 2901:5.7571998 2939:3.8382001 2943:3.8382001 # seizures/00000207_s02.txt
-0.00022581998400040450137964131993584 10:4.7976999 14:3.9981 35:6.3969002 45:3.9981 84:3.9981 93:3.9981 110:3.9981 128:3.9981 131:3.9981 173:3.9981 199:3.9981 238:5.5973001 253:3.9981 259:3.9981 290:3.9981 308:3.9981 318:3.9981 374:3.9981 377:3.9981 410:3.9981 422:3.9981 460:6.3969002 471:3.9981 513:3.9981 542:3.9981 579:4.7976999 678:3.9981 680:3.9981 700:3.9981 710:5.5973001 712:3.9981 765:4.7976999 774:3.9981 790:5.5973001 794:4.7976999 798:3.9981 804:3.9981 826:5.5973001 827:3.9981 835:3.9981 844:4.7976999 872:3.9981 886:3.9981 891:4.7976999 895:3.9981 955:4.7976999 1002:3.9981 1036:3.9981 1069:3.9981 1081:4.7976999 1101:3.9981 1124:3.9981 1189:3.9981 1193:3.9981 1227:5.5973001 1281:3.9981 1301:3.9981 1311:3.9981 1320:3.9981 1354:3.9981 1372:3.9981 1378:6.3969002 1412:3.9981 1439:3.9981 1446:3.9981 1545:3.9981 1589:5.5973001 1614:3.9981 1616:3.9981 1627:3.9981 1663:3.9981 1693:3.9981 1739:3.9981 1755:5.5973001 1788:4.7976999 1792:3.9981 1825:3.9981 1847:3.9981 1863:3.9981 1915:3.9981 1920:3.9981 1924:4.7976999 1942:3.9981 1945:4.7976999 1975:3.9981 1981:3.9981 2013:4.7976999 2017:3.9981 2047:3.9981 2070:3.9981 2091:3.9981 2148:3.9981 2172:3.9981 2173:6.3969002 2187:3.9981 2251:5.5973001 2286:3.9981 2316:4.7976999 2318:6.3969002 2381:3.9981 2392:3.9981 2409:6.3969002 2477:3.9981 2482:4.7976999 2522:3.9981 2544:3.9981 2582:3.9981 2589:3.9981 2622:3.9981 2695:3.9981 2746:3.9981 2795:4.7976999 2819:3.9981 2868:3.9981 2894:4.7976999 2897:3.9981 # none/00005306_s01.txt
-0.00044693910187537069962637747977396 17:3.9981 29:3.9981 30:3.9981 35:3.9981 81:3.9981 88:3.9981 107:3.9981 238:4.7976999 265:3.9981 277:6.3969002 377:3.9981 420:3.9981 422:3.9981 456:3.9981 460:4.7976999 478:3.9981 512:3.9981 541:3.9981 579:3.9981 637:3.9981 665:3.9981 680:3.9981 712:3.9981 784:3.9981 790:3.9981 798:3.9981 826:5.5973001 835:3.9981 844:3.9981 854:3.9981 886:3.9981 955:3.9981 961:3.9981 1011:3.9981 1049:3.9981 1090:3.9981 1120:5.5973001 1177:3.9981 1227:4.7976999 1239:3.9981 1259:4.7976999 1298:3.9981 1301:3.9981 1307:3.9981 1372:3.9981 1412:3.9981 1423:3.9981 1439:3.9981 1451:3.9981 1525:3.9981 1550:3.9981 1589:3.9981 1627:3.9981 1667:3.9981 1755:3.9981 1784:4.7976999 1788:3.9981 1792:3.9981 1837:3.9981 1842:3.9981 1868:3.9981 1920:3.9981 1945:3.9981 1963:4.7976999 1975:3.9981 1990:3.9981 2006:3.9981 2081:3.9981 2083:3.9981 2173:4.7976999 2251:3.9981 2261:3.9981 2300:3.9981 2318:3.9981 2381:3.9981 2401:3.9981 2446:3.9981 2451:3.9981 2460:3.9981 2474:3.9981 2477:3.9981 2499:4.7976999 2522:3.9981 2544:3.9981 2575:3.9981 2582:3.9981 2749:4.7976999 2803:3.9981 2819:3.9981 2868:3.9981 2887:4.7976999 2894:3.9981 2912:3.9981 # none/00002699_s01.txt
-0.00058309709562798630114177633743111 16:3.8382001 72:3.5183001 88:4.158 107:3.5183001 179:3.5183001 185:3.8382001 228:3.5183001 229:3.5183001 238:3.5183001 259:3.8382001 263:3.5183001 277:3.5183001 358:5.1174998 420:3.8382001 460:6.3969002 522:3.5183001 553:4.7976999 579:4.158 673:3.5183001 674:3.5183001 679:3.5183001 680:4.158 687:3.8382001 691:3.5183001 712:3.5183001 798:3.8382001 826:5.4373999 835:3.8382001 844:4.158 848:3.8382001 886:3.5183001 891:3.5183001 918:4.4779 982:3.8382001 1090:3.5183001 1099:3.5183001 1119:3.5183001 1177:3.8382001 1185:3.8382001 1227:4.158 1239:4.158 1259:3.5183001 1281:3.5183001 1284:4.158 1301:4.158 1305:3.5183001 1307:3.5183001 1360:3.5183001 1372:4.158 1406:4.158 1430:3.8382001 1479:3.5183001 1506:4.158 1525:3.5183001 1589:3.8382001 1605:3.5183001 1627:3.5183001 1663:4.158 1685:3.8382001 1691:3.8382001 1732:3.8382001 1755:5.1174998 1784:4.158 1792:4.4779 1805:3.5183001 1837:4.158 1854:3.5183001 1924:4.7976999 1945:4.7976999 1950:3.5183001 1963:3.5183001 1975:4.158 2005:3.8382001 2006:4.158 2027:3.8382001 2083:3.5183001 2113:5.1174998 2173:4.7976999 2174:3.5183001 2177:3.5183001 2193:3.5183001 2200:3.5183001 2203:3.5183001 2217:3.5183001 2251:4.158 2261:3.8382001 2318:5.4373999 2349:3.5183001 2401:5.1174998 2418:3.5183001 2420:3.8382001 2451:4.158 2452:3.5183001 2455:3.8382001 2460:4.158 2474:4.158 2477:4.158 2499:3.5183001 2509:3.5183001 2575:3.5183001 2579:3.8382001 2582:4.158 2605:3.5183001 2631:4.158 2668:4.158 2717:3.5183001 2742:3.5183001 2751:3.5183001 2753:3.5183001 2789:3.5183001 2819:4.158 2822:3.5183001 2861:4.158 2868:4.7976999 2887:3.5183001 2894:4.7976999 2900:3.5183001 2901:4.158 2912:3.8382001 2939:4.158 # none/00006151_s01.txt
-0.00015553830983388975978815027545465 10:3.5983 45:3.5983 110:4.3979001 131:3.5983 136:3.5983 158:3.9981 238:3.5983 259:3.5983 331:3.5983 377:3.9981 410:3.9981 420:3.5983 460:3.9981 505:3.5983 525:3.5983 542:3.5983 553:3.5983 579:3.5983 645:3.5983 662:3.9981 664:3.5983 665:3.5983 680:3.5983 691:3.5983 710:4.3979001 712:3.5983 765:3.5983 794:3.5983 804:3.5983 826:3.9981 835:3.9981 844:3.5983 889:3.5983 912:3.5983 978:3.5983 1011:4.3979001 1046:4.3979001 1069:3.5983 1081:3.9981 1082:3.5983 1152:3.5983 1177:3.5983 1202:4.7976999 1227:3.9981 1245:3.5983 1259:3.5983 1301:3.5983 1311:3.5983 1335:3.5983 1372:3.5983 1378:3.5983 1395:3.5983 1434:3.5983 1446:3.5983 1451:5.1975002 1524:3.5983 1527:3.5983 1529:3.5983 1554:3.5983 1581:3.5983 1589:3.5983 1591:3.5983 1607:3.5983 1651:3.5983 1656:3.9981 1667:3.5983 1681:3.5983 1755:6.3969002 1772:3.5983 1779:3.5983 1784:3.9981 1788:3.5983 1797:3.5983 1816:3.5983 1824:3.5983 1837:3.5983 1867:4.7976999 1893:3.5983 1923:3.5983 1924:3.5983 1945:3.9981 1963:3.5983 1975:3.5983 1979:3.5983 1994:3.9981 2013:3.9981 2058:3.5983 2086:3.5983 2116:3.5983 2148:3.5983 2173:3.9981 2201:3.5983 2251:3.5983 2257:3.5983 2261:3.5983 2318:3.9981 2392:3.5983 2401:3.9981 2405:3.5983 2409:4.7976999 2477:3.5983 2484:3.9981 2499:3.5983 2514:3.9981 2544:3.5983 2575:3.5983 2582:3.5983 2605:3.5983 2645:3.5983 2768:3.9981 2819:3.5983 2868:3.5983 # none/00001638_s01.txt
-0.00058309709562798630114177633743111 10:3.6554 19:4.1122999 30:3.6554 35:3.6554 45:3.6554 68:3.6554 88:3.6554 110:3.6554 161:3.6554 196:3.6554 238:3.6554 256:4.1122999 277:4.1122999 299:3.6554 339:3.6554 362:3.6554 420:3.6554 460:4.1122999 506:4.1122999 513:3.6554 579:3.6554 662:3.6554 680:3.6554 712:3.6554 742:3.6554 784:3.6554 790:4.1122999 794:3.6554 826:4.5692 835:3.6554 844:3.6554 854:3.6554 886:4.1122999 982:3.6554 1000:3.6554 1006:3.6554 1011:3.6554 1046:3.6554 1050:3.6554 1086:3.6554 1120:3.6554 1220:3.6554 1227:3.6554 1239:3.6554 1281:3.6554 1301:3.6554 1305:3.6554 1307:3.6554 1372:3.6554 1412:3.6554 1423:3.6554 1439:3.6554 1451:6.3969002 1454:3.6554 1486:3.6554 1500:3.6554 1517:3.6554 1589:3.6554 1650:3.6554 1667:3.6554 1755:3.6554 1797:4.1122999 1816:4.1122999 1824:3.6554 1837:3.6554 1915:3.6554 1924:4.5692 1945:4.1122999 1963:4.1122999 1975:3.6554 2006:4.1122999 2013:4.5692 2016:3.6554 2041:3.6554 2043:3.6554 2056:3.6554 2085:5.0261998 2169:3.6554 2173:3.6554 2187:4.5692 2229:4.1122999 2251:4.1122999 2252:3.6554 2261:3.6554 2318:3.6554 2359:5.0261998 2388:3.6554 2401:3.6554 2409:4.1122999 2432:4.1122999 2451:3.6554 2460:3.6554 2468:3.6554 2474:3.6554 2477:3.6554 2478:3.6554 2484:3.6554 2499:3.6554 2522:3.6554 2582:3.6554 2622:5.9400001 2645:3.6554 2668:3.6554 2688:3.6554 2749:3.6554 2753:3.6554 2819:3.6554 2838:3.6554 2861:3.6554 2868:3.6554 2879:3.6554 2901:5.4830999 # none/00000327_s01.txt
0.00039782356713176641061641136687399 10:3.9092 17:3.5538001 35:3.9092 40:3.5538001 45:4.2645998 81:3.5538001 110:3.5538001 131:3.5538001 149:4.6199999 158:3.5538001 207:3.5538001 238:3.5538001 277:4.6199999 355:4.2645998 404:6.0415001 410:3.5538001 460:4.6199999 542:3.9092 553:4.6199999 579:5.3308001 662:3.5538001 680:3.5538001 691:3.5538001 693:3.5538001 700:3.5538001 709:3.5538001 710:4.9754 714:3.5538001 727:4.9754 765:3.5538001 794:3.9092 798:3.5538001 804:3.9092 826:4.9754 827:3.5538001 835:3.5538001 844:4.2645998 848:4.2645998 886:3.5538001 891:3.5538001 923:3.9092 953:3.5538001 955:3.5538001 960:3.5538001 961:3.5538001 1011:3.5538001 1046:4.6199999 1081:4.6199999 1086:6.0415001 1118:3.9092 1202:3.9092 1227:3.9092 1301:3.5538001 1307:4.2645998 1323:3.5538001 1372:3.5538001 1379:3.5538001 1439:3.9092 1442:3.5538001 1446:3.5538001 1451:6.3969002 1459:3.5538001 1501:3.5538001 1506:3.5538001 1545:3.5538001 1554:3.5538001 1577:3.5538001 1580:3.5538001 1589:3.9092 1664:3.5538001 1667:4.2645998 1674:3.9092 1677:3.9092 1739:3.5538001 1755:4.6199999 1773:3.5538001 1779:3.5538001 1784:3.9092 1788:3.9092 1827:3.5538001 1828:3.9092 1842:3.9092 1847:3.5538001 1849:3.5538001 1867:4.6199999 1868:3.5538001 1873:3.9092 1914:3.5538001 1924:3.9092 1945:4.2645998 1950:3.5538001 1975:3.5538001 1984:3.9092 2013:4.2645998 2037:3.5538001 2058:3.5538001 2070:3.9092 2166:3.5538001 2173:4.6199999 2187:3.5538001 2192:3.5538001 2201:3.9092 2213:3.5538001 2229:3.5538001 2245:3.5538001 2247:3.5538001 2251:3.5538001 2252:3.9092 2261:4.6199999 2316:4.2645998 2318:6.0415001 2352:3.5538001 2356:3.5538001 2359:3.5538001 2384:3.5538001 2392:3.5538001 2401:3.5538001 2405:3.5538001 2409:4.2645998 2468:3.5538001 2477:3.5538001 2506:3.5538001 2518:3.5538001 2522:3.5538001 2533:3.5538001 2541:3.9092 2555:3.5538001 2582:3.5538001 2605:3.5538001 2608:3.5538001 2622:3.5538001 2631:3.5538001 2645:3.5538001 2662:3.5538001 2668:4.2645998 2693:3.5538001 2749:3.5538001 2750:3.9092 2811:3.5538001 2819:3.5538001 2901:3.9092 2912:3.5538001 # seizures/00000286_s06.txt
-0.00058309709562798630114177633743111 10:4.4779 35:6.3969002 88:3.8382001 128:3.8382001 134:3.8382001 166:3.8382001 238:5.1174998 259:3.8382001 322:3.8382001 382:3.8382001 404:3.8382001 410:3.8382001 420:3.8382001 433:3.8382001 460:4.4779 553:4.4779 579:3.8382001 581:3.8382001 648:3.8382001 670:3.8382001 680:3.8382001 710:4.4779 712:3.8382001 714:3.8382001 742:4.4779 765:3.8382001 794:3.8382001 798:3.8382001 804:3.8382001 826:5.7571998 827:3.8382001 835:3.8382001 844:3.8382001 872:3.8382001 918:3.8382001 968:4.4779 1046:3.8382001 1082:3.8382001 1086:4.4779 1158:3.8382001 1227:4.4779 1239:3.8382001 1277:3.8382001 1281:3.8382001 1301:3.8382001 1311:3.8382001 1333:3.8382001 1372:3.8382001 1373:3.8382001 1375:3.8382001 1379:3.8382001 1451:3.8382001 1574:3.8382001 1589:4.4779 1614:3.8382001 1636:3.8382001 1755:3.8382001 1784:3.8382001 1788:4.4779 1800:3.8382001 1824:3.8382001 1842:3.8382001 1924:5.1174998 1926:3.8382001 1945:3.8382001 1975:3.8382001 2013:3.8382001 2037:4.4779 2073:3.8382001 2109:3.8382001 2159:3.8382001 2173:4.4779 2187:3.8382001 2207:3.8382001 2227:3.8382001 2251:3.8382001 2316:4.4779 2318:4.4779 2355:3.8382001 2359:5.7571998 2409:5.1174998 2455:5.1174998 2477:3.8382001 2499:3.8382001 2518:3.8382001 2544:3.8382001 2582:3.8382001 2695:3.8382001 2698:3.8382001 2727:5.1174998 2795:3.8382001 2819:3.8382001 2849:3.8382001 2868:3.8382001 2901:4.4779 2912:4.4779 2922:3.8382001 2939:3.8382001 # none/00004796_s01.txt
0.00058309709562798630114177633743111 10:3.9981 35:3.9981 45:4.7976999 110:3.9981 131:3.5983 149:4.7976999 158:3.5983 160:3.5983 238:3.9981 264:3.5983 275:3.5983 277:3.5983 404:3.5983 410:3.9981 419:3.5983 429:3.5983 460:4.3979001 501:3.5983 542:3.9981 553:6.3969002 579:3.9981 631:3.5983 669:3.5983 680:3.5983 687:3.9981 700:3.5983 709:3.5983 710:3.5983 714:3.5983 727:3.9981 765:3.5983 794:3.9981 798:3.9981 804:3.9981 813:3.5983 826:4.7976999 827:3.5983 835:3.5983 844:3.9981 848:3.9981 886:3.9981 923:3.9981 1011:3.5983 1046:3.9981 1081:5.1975002 1086:3.9981 1118:3.9981 1189:3.5983 1202:5.1975002 1227:4.3979001 1301:3.5983 1302:3.9981 1307:3.9981 1354:3.5983 1372:3.5983 1422:3.5983 1439:3.9981 1451:5.5973001 1501:3.9981 1507:3.5983 1545:3.5983 1548:3.5983 1554:3.5983 1577:3.9981 1589:3.9981 1627:3.5983 1640:3.9981 1691:3.5983 1755:3.9981 1773:3.5983 1788:3.5983 1792:3.9981 1805:3.5983 1825:4.7976999 1847:3.5983 1867:4.3979001 1914:3.5983 1918:3.5983 1920:3.5983 1924:3.9981 1945:4.3979001 1975:3.5983 2013:3.5983 2056:3.5983 2058:3.5983 2070:3.9981 2138:3.5983 2148:3.5983 2166:3.5983 2173:5.9970999 2187:3.9981 2192:3.9981 2201:3.5983 2213:3.9981 2219:3.9981 2244:3.5983 2247:3.5983 2251:3.5983 2261:3.5983 2316:5.9970999 2318:5.9970999 2359:3.5983 2392:3.9981 2394:3.5983 2401:3.9981 2405:3.5983 2409:5.5973001 2413:3.5983 2424:3.5983 2455:3.5983 2477:3.5983 2479:3.5983 2482:3.5983 2518:3.5983 2522:3.9981 2582:3.5983 2605:3.5983 2608:3.5983 2622:3.5983 2642:3.5983 2645:3.9981 2662:3.9981 2668:3.5983 2691:3.5983 2739:3.9981 2819:3.9981 2868:3.5983 2873:3.5983 2894:3.5983 2901:3.9981 2912:4.7976999 # seizures/00000264_s16.txt
0.00058309709562798630114177633743111 10:3.9092 35:3.9092 45:4.6199999 110:4.6199999 131:3.5538001 149:6.0415001 158:3.5538001 159:3.5538001 160:4.2645998 238:3.9092 264:3.9092 274:3.5538001 277:3.9092 340:3.5538001 404:4.2645998 460:4.2645998 506:3.5538001 542:4.2645998 553:4.9754 579:3.5538001 605:3.5538001 622:3.9092 662:3.5538001 680:3.5538001 700:3.5538001 709:3.5538001 727:3.9092 765:3.5538001 774:3.9092 794:3.5538001 804:3.5538001 826:4.2645998 835:3.5538001 844:3.9092 874:3.5538001 889:3.5538001 923:3.5538001 955:3.5538001 1011:3.5538001 1046:4.6199999 1076:3.5538001 1081:4.2645998 1082:4.2645998 1086:3.5538001 1090:3.5538001 1118:3.5538001 1189:3.5538001 1227:3.5538001 1301:3.5538001 1307:3.9092 1354:3.5538001 1372:3.5538001 1439:3.5538001 1446:3.9092 1451:3.5538001 1506:3.5538001 1525:3.5538001 1545:3.9092 1589:3.5538001 1627:3.9092 1676:3.5538001 1678:3.9092 1691:3.5538001 1707:3.5538001 1755:4.2645998 1773:3.5538001 1784:3.5538001 1788:3.5538001 1825:4.6199999 1827:3.9092 1849:3.5538001 1856:3.5538001 1867:3.9092 1868:3.5538001 1924:4.2645998 1942:3.9092 1945:4.2645998 1975:3.5538001 2013:3.5538001 2058:3.5538001 2061:3.5538001 2070:3.9092 2148:3.5538001 2166:3.5538001 2173:6.0415001 2177:3.5538001 2187:6.3969002 2201:3.5538001 2213:3.5538001 2251:3.9092 2261:5.6862001 2292:3.5538001 2316:4.9754 2318:6.0415001 2359:4.2645998 2392:3.5538001 2401:3.9092 2409:5.6862001 2468:3.5538001 2477:3.5538001 2484:3.5538001 2518:3.5538001 2522:3.5538001 2582:3.5538001 2605:3.5538001 2608:3.5538001 2622:3.5538001 2631:3.5538001 2662:3.9092 2668:3.9092 2693:3.9092 2795:3.5538001 2819:3.5538001 2856:3.5538001 2894:3.5538001 2901:4.6199999 2961:3.5538001 # seizures/00000231_s03.txt
-0.00021428384514476456418688443683607 10:4.3979001 35:3.9981 45:4.3979001 107:3.5983 110:3.5983 131:5.1975002 158:3.5983 275:3.9981 277:3.5983 410:3.9981 419:3.5983 460:3.9981 542:3.5983 553:3.5983 579:3.5983 645:3.5983 662:4.3979001 680:3.5983 706:3.5983 709:3.5983 710:3.5983 712:3.5983 727:3.5983 765:3.5983 794:3.9981 798:3.5983 804:4.3979001 826:5.1975002 827:3.5983 835:3.5983 844:3.9981 912:3.9981 923:3.9981 978:3.5983 1017:3.9981 1046:4.3979001 1081:3.5983 1082:3.5983 1086:3.5983 1090:3.5983 1118:3.9981 1202:4.3979001 1227:3.5983 1290:3.5983 1301:3.5983 1310:4.3979001 1354:4.3979001 1372:3.5983 1412:3.5983 1422:3.5983 1423:3.5983 1439:3.5983 1451:4.7976999 1458:3.5983 1459:3.5983 1520:3.5983 1554:3.5983 1589:3.9981 1607:3.5983 1614:3.5983 1627:3.5983 1638:3.5983 1755:4.7976999 1773:3.9981 1779:3.5983 1792:3.5983 1797:3.5983 1819:3.5983 1837:3.5983 1849:3.5983 1867:4.3979001 1914:3.5983 1924:3.5983 1945:4.7976999 1975:3.5983 1981:3.5983 2013:3.5983 2065:3.5983 2070:3.9981 2157:3.5983 2166:3.5983 2169:3.5983 2173:3.9981 2186:3.5983 2187:3.9981 2245:3.5983 2251:3.5983 2252:3.5983 2261:4.3979001 2316:6.3969002 2318:4.7976999 2359:3.5983 2394:3.5983 2401:3.5983 2405:3.5983 2409:4.3979001 2477:3.5983 2484:3.5983 2518:3.5983 2582:3.5983 2608:3.5983 2622:5.1975002 2710:3.5983 2819:3.5983 2868:3.5983 2896:3.5983 2901:4.7976999 2903:3.5983 # none/00006926_s04.txt
-0.00058309709562798630114177633743111 10:3.6554 11:3.4268999 35:3.6554 45:3.8838999 66:3.4268999 87:3.4268999 110:3.4268999 131:3.8838999 149:4.1122999 158:3.4268999 160:3.4268999 173:3.8838999 196:3.4268999 223:3.4268999 238:3.8838999 277:4.3407998 355:3.4268999 366:3.4268999 410:3.4268999 419:3.4268999 456:3.8838999 460:3.8838999 478:3.4268999 505:3.4268999 542:3.6554 553:3.6554 558:3.4268999 570:3.4268999 579:3.8838999 631:3.4268999 645:3.4268999 662:3.4268999 679:3.4268999 680:3.4268999 687:3.6554 691:3.4268999 700:3.4268999 709:3.4268999 710:4.1122999 714:3.4268999 727:3.6554 748:3.4268999 765:3.4268999 770:3.4268999 794:3.6554 798:3.6554 804:3.4268999 811:3.4268999 826:4.7976999 827:3.4268999 835:3.4268999 844:4.1122999 848:3.4268999 889:3.4268999 912:3.6554 923:3.4268999 1011:3.4268999 1018:3.4268999 1046:3.8838999 1081:3.4268999 1082:3.4268999 1118:3.4268999 1146:3.4268999 1173:3.4268999 1181:3.4268999 1202:3.6554 1227:3.4268999 1301:3.4268999 1325:3.4268999 1360:3.4268999 1372:3.4268999 1439:3.8838999 1451:4.3407998 1507:3.4268999 1545:4.1122999 1554:3.4268999 1589:3.6554 1607:3.4268999 1627:3.4268999 1667:3.6554 1691:3.6554 1693:3.6554 1749:3.4268999 1755:4.3407998 1779:3.6554 1784:3.4268999 1788:3.4268999 1792:4.1122999 1805:3.4268999 1815:3.4268999 1847:3.6554 1849:3.4268999 1867:3.6554 1868:3.4268999 1873:3.4268999 1914:3.4268999 1924:3.6554 1942:3.6554 1945:3.8838999 1958:3.4268999 1975:3.4268999 1981:3.4268999 2005:3.6554 2013:3.4268999 2040:3.8838999 2047:3.4268999 2058:3.4268999 2070:3.6554 2085:3.4268999 2088:3.4268999 2132:3.4268999 2166:3.4268999 2173:4.3407998 2177:4.1122999 2186:3.6554 2187:4.1122999 2201:3.6554 2247:3.4268999 2251:3.4268999 2292:3.4268999 2302:3.4268999 2314:3.4268999 2315:3.4268999 2316:4.3407998 2318:6.3969002 2394:3.4268999 2401:3.4268999 2405:3.4268999 2409:4.1122999 2424:3.4268999 2455:3.4268999 2468:3.4268999 2477:3.4268999 2484:3.6554 2506:3.6554 2522:3.6554 2555:3.4268999 2582:3.4268999 2605:3.4268999 2608:3.4268999 2622:3.8838999 2661:3.4268999 2662:3.4268999 2668:3.4268999 2691:3.4268999 2763:3.6554 2768:3.4268999 2772:3.4268999 2795:3.4268999 2801:3.4268999 2819:3.8838999 2836:3.4268999 2866:3.4268999 2868:3.4268999 2901:3.6554 2912:3.4268999 # none/00001217_s04.txt
-0.00058309709562798630114177633743111 10:3.6554 35:3.6554 45:3.6554 67:3.6554 110:3.6554 131:3.6554 149:4.5692 163:3.6554 189:3.6554 238:4.1122999 264:3.6554 277:3.6554 306:3.6554 355:6.3969002 390:3.6554 404:3.6554 410:3.6554 456:4.1122999 460:4.1122999 542:3.6554 553:5.0261998 557:4.1122999 579:3.6554 662:3.6554 669:3.6554 680:3.6554 709:3.6554 710:4.5692 727:3.6554 765:3.6554 774:3.6554 794:4.1122999 804:3.6554 826:5.0261998 827:3.6554 835:3.6554 844:4.1122999 889:3.6554 891:3.6554 912:3.6554 923:3.6554 925:3.6554 1051:3.6554 1081:3.6554 1086:5.0261998 1090:3.6554 1118:3.6554 1189:3.6554 1209:3.6554 1227:3.6554 1301:3.6554 1302:4.1122999 1344:3.6554 1354:3.6554 1360:3.6554 1372:3.6554 1439:3.6554 1446:4.1122999 1451:3.6554 1507:3.6554 1508:3.6554 1554:3.6554 1577:3.6554 1589:4.1122999 1626:3.6554 1667:4.1122999 1691:3.6554 1743:3.6554 1755:5.0261998 1773:3.6554 1779:3.6554 1784:3.6554 1788:4.1122999 1827:4.1122999 1849:3.6554 1868:3.6554 1906:3.6554 1914:3.6554 1924:3.6554 1926:5.4830999 1945:4.1122999 1958:3.6554 1975:3.6554 2006:3.6554 2013:3.6554 2040:3.6554 2047:3.6554 2070:3.6554 2088:4.1122999 2138:3.6554 2148:3.6554 2173:5.4830999 2177:3.6554 2186:3.6554 2187:4.1122999 2219:3.6554 2245:3.6554 2251:3.6554 2313:3.6554 2316:5.4830999 2318:4.5692 2360:4.1122999 2369:3.6554 2381:3.6554 2392:3.6554 2405:3.6554 2409:4.5692 2413:3.6554 2431:3.6554 2477:3.6554 2479:3.6554 2484:4.1122999 2555:4.5692 2582:3.6554 2599:3.6554 2608:3.6554 2622:3.6554 2631:3.6554 2645:4.1122999 2662:3.6554 2668:3.6554 2675:3.6554 2739:3.6554 2763:3.6554 2795:3.6554 2819:3.6554 2857:3.6554 2873:3.6554 # none/00000264_s33.txt
-0.00058309709562798630114177633743111 10:3.9981 21:3.5983 35:3.9981 40:3.5983 45:4.7976999 67:3.5983 110:3.5983 131:3.9981 158:3.5983 173:3.9981 207:3.5983 238:3.9981 275:4.3979001 277:3.5983 283:3.5983 404:4.3979001 410:3.5983 419:3.5983 460:3.5983 500:3.5983 535:3.5983 542:3.9981 553:4.7976999 562:3.9981 579:3.5983 622:3.5983 680:3.5983 687:3.9981 709:3.5983 710:4.3979001 714:3.5983 727:4.3979001 765:3.5983 794:3.9981 804:3.9981 826:4.7976999 827:3.5983 835:3.5983 844:4.7976999 891:3.9981 906:3.5983 912:3.5983 918:3.5983 923:3.9981 955:3.5983 1011:3.5983 1046:5.1975002 1051:3.5983 1081:3.5983 1086:3.5983 1118:4.3979001 1189:3.5983 1202:4.3979001 1205:3.9981 1227:3.9981 1301:3.5983 1302:3.5983 1354:4.3979001 1372:3.5983 1379:3.5983 1422:3.5983 1439:3.9981 1442:3.9981 1446:3.5983 1451:4.3979001 1507:3.5983 1554:3.5983 1589:3.9981 1627:3.5983 1656:3.9981 1667:3.5983 1755:3.9981 1768:3.5983 1773:3.5983 1784:3.5983 1788:4.3979001 1792:3.9981 1805:3.5983 1824:3.5983 1827:3.5983 1849:3.9981 1867:5.1975002 1914:3.5983 1924:3.9981 1926:3.5983 1945:4.3979001 1950:3.9981 1975:3.5983 1984:3.5983 2013:3.5983 2058:3.5983 2070:3.9981 2101:3.5983 2148:3.5983 2157:3.5983 2159:3.5983 2166:3.5983 2173:5.5973001 2186:3.5983 2187:3.9981 2213:3.5983 2245:3.5983 2247:3.5983 2251:3.5983 2261:4.7976999 2292:3.5983 2316:6.3969002 2318:5.1975002 2359:4.3979001 2392:3.5983 2401:4.3979001 2405:4.3979001 2409:5.1975002 2424:3.5983 2455:3.5983 2474:3.5983 2477:3.5983 2518:3.5983 2522:3.5983 2525:3.5983 2582:3.5983 2605:3.5983 2608:3.5983 2622:4.3979001 2662:3.9981 2668:3.5983 2684:3.5983 2711:3.5983 2750:3.5983 2819:3.9981 2857:3.5983 2894:3.9981 2901:5.5973001 2912:4.3979001 # none/00000538_s03.txt
-0.00029921487117924388220158160578421 10:4.2645998 35:4.2645998 45:4.7976999 110:3.7314999 131:6.3969002 149:3.7314999 158:3.7314999 207:3.7314999 238:3.7314999 256:3.7314999 275:3.7314999 277:3.7314999 404:3.7314999 410:4.2645998 456:3.7314999 460:4.2645998 542:3.7314999 553:4.2645998 579:3.7314999 662:3.7314999 669:3.7314999 680:3.7314999 709:3.7314999 710:4.2645998 727:3.7314999 765:3.7314999 790:3.7314999 794:3.7314999 804:4.2645998 826:4.7976999 835:3.7314999 844:4.2645998 881:3.7314999 891:3.7314999 912:4.2645998 923:3.7314999 958:3.7314999 1046:3.7314999 1086:3.7314999 1118:4.2645998 1189:3.7314999 1202:5.8639002 1227:4.2645998 1301:3.7314999 1372:3.7314999 1375:3.7314999 1422:3.7314999 1426:3.7314999 1439:4.2645998 1446:3.7314999 1451:5.8639002 1545:3.7314999 1554:3.7314999 1567:3.7314999 1577:4.7976999 1589:3.7314999 1627:3.7314999 1640:4.2645998 1656:4.2645998 1664:3.7314999 1667:4.7976999 1755:4.2645998 1773:3.7314999 1779:4.2645998 1784:4.2645998 1788:4.7976999 1849:3.7314999 1867:4.7976999 1906:3.7314999 1914:3.7314999 1924:3.7314999 1945:4.7976999 1975:3.7314999 1994:4.2645998 2013:4.2645998 2047:3.7314999 2070:4.2645998 2121:3.7314999 2138:3.7314999 2148:3.7314999 2157:3.7314999 2173:5.3308001 2186:4.2645998 2187:3.7314999 2192:3.7314999 2219:4.2645998 2251:3.7314999 2252:3.7314999 2261:4.2645998 2283:3.7314999 2316:6.3969002 2318:4.2645998 2392:3.7314999 2401:3.7314999 2409:6.3969002 2477:3.7314999 2582:3.7314999 2608:3.7314999 2622:4.2645998 2642:3.7314999 2662:3.7314999 2668:4.2645998 2739:3.7314999 2819:3.7314999 2873:3.7314999 # none/00000264_s10.txt
0.0001496993022051471282536649898276 12:3.6249001 35:3.6249001 45:3.8382001 66:3.4117 70:3.4117 71:3.4117 110:4.2645998 131:4.0514002 149:3.6249001 161:3.4117 164:4.0514002 179:3.8382001 212:3.4117 217:3.4117 228:3.4117 237:3.6249001 238:4.0514002 253:3.6249001 257:3.4117 259:3.6249001 264:3.4117 265:3.6249001 341:3.4117 355:3.4117 379:3.4117 419:3.4117 420:3.4117 422:3.4117 456:3.8382001 460:3.6249001 467:3.4117 499:3.4117 508:3.4117 513:3.8382001 535:3.6249001 541:3.4117 553:3.8382001 579:3.4117 590:3.4117 654:3.4117 662:3.4117 665:3.4117 680:3.4117 683:3.4117 710:3.4117 712:3.4117 714:3.4117 736:3.4117 781:3.4117 798:3.4117 813:3.4117 826:4.6911001 835:3.4117 844:3.8382001 848:3.4117 852:3.4117 880:3.4117 883:3.4117 891:3.4117 908:3.4117 918:4.2645998 964:3.4117 1051:3.4117 1065:3.4117 1145:3.4117 1189:3.4117 1202:3.4117 1217:4.0514002 1227:3.4117 1239:3.4117 1276:3.6249001 1284:3.6249001 1295:3.4117 1300:3.4117 1302:3.6249001 1305:3.6249001 1312:3.4117 1323:3.4117 1327:3.4117 1338:3.4117 1346:3.4117 1372:3.4117 1403:3.4117 1406:3.4117 1451:3.4117 1484:3.4117 1521:3.4117 1529:3.4117 1585:3.4117 1589:3.6249001 1667:3.4117 1668:3.4117 1671:3.8382001 1674:3.4117 1677:3.8382001 1685:3.4117 1693:3.4117 1755:3.6249001 1771:3.4117 1784:3.4117 1788:3.4117 1816:4.0514002 1847:3.4117 1863:3.4117 1867:3.4117 1915:3.6249001 1924:4.9043002 1926:3.8382001 1942:3.6249001 1945:3.6249001 1975:3.4117 1991:3.4117 2017:3.4117 2022:3.4117 2047:3.8382001 2071:3.4117 2142:3.4117 2144:3.4117 2148:3.4117 2157:3.4117 2173:4.4779 2177:3.4117 2187:3.4117 2201:3.4117 2244:3.4117 2252:3.6249001 2261:4.0514002 2315:3.4117 2318:4.2645998 2359:4.2645998 2371:3.4117 2375:3.6249001 2379:3.4117 2401:6.3969002 2409:4.4779 2432:3.6249001 2433:3.4117 2448:3.6249001 2455:3.8382001 2460:3.4117 2464:3.4117 2474:3.6249001 2477:3.4117 2479:3.6249001 2498:3.6249001 2532:3.6249001 2582:3.4117 2602:3.4117 2622:4.2645998 2645:3.4117 2668:3.4117 2683:3.4117 2698:3.4117 2707:3.4117 2784:3.4117 2806:3.4117 2810:3.4117 2819:3.4117 2856:3.4117 2861:3.4117 2868:3.4117 2894:3.4117 2901:4.6911001 2936:3.6249001 # seizures/00007597_s01.txt
0.00058309709562798630114177633743111 196:4.4779 420:3.8382001 422:3.8382001 460:4.4779 579:3.8382001 669:3.8382001 680:3.8382001 712:3.8382001 714:3.8382001 726:3.8382001 784:3.8382001 790:3.8382001 826:6.3969002 835:3.8382001 844:3.8382001 886:3.8382001 1101:3.8382001 1177:3.8382001 1184:3.8382001 1227:3.8382001 1239:3.8382001 1301:3.8382001 1305:3.8382001 1312:3.8382001 1322:3.8382001 1372:3.8382001 1406:3.8382001 1423:3.8382001 1547:3.8382001 1550:3.8382001 1565:3.8382001 1589:3.8382001 1663:3.8382001 1678:3.8382001 1715:3.8382001 1719:3.8382001 1784:4.4779 1792:3.8382001 1803:3.8382001 1837:3.8382001 1924:4.4779 1945:3.8382001 1963:3.8382001 1975:3.8382001 2006:3.8382001 2047:3.8382001 2059:3.8382001 2073:3.8382001 2173:3.8382001 2229:3.8382001 2261:3.8382001 2273:3.8382001 2318:4.4779 2401:5.1174998 2460:3.8382001 2474:4.4779 2477:3.8382001 2499:3.8382001 2582:3.8382001 2715:3.8382001 2819:3.8382001 2861:3.8382001 2868:3.8382001 2901:3.8382001 # seizures/00000185_s02.txt
7.7747633263002311572106850512398e-05 16:3.5183001 35:3.5183001 45:4.4779 75:3.5183001 77:3.5183001 88:3.5183001 93:3.8382001 107:3.5183001 149:3.5183001 166:3.5183001 228:4.158 237:3.5183001 238:3.8382001 257:4.158 259:3.5183001 265:5.1174998 277:3.5183001 358:3.5183001 386:3.5183001 419:3.5183001 420:3.5183001 422:3.8382001 423:3.5183001 430:3.5183001 441:3.5183001 447:3.8382001 460:3.5183001 498:3.5183001 513:3.8382001 538:3.5183001 553:3.5183001 665:4.158 672:3.5183001 680:4.158 712:3.5183001 714:3.5183001 716:3.5183001 755:3.5183001 765:3.8382001 790:3.5183001 794:3.5183001 797:3.5183001 798:4.7976999 826:6.3969002 835:3.5183001 844:3.8382001 886:3.5183001 888:3.5183001 891:3.5183001 918:5.4373999 923:3.5183001 940:3.5183001 953:3.5183001 967:3.5183001 996:3.5183001 1011:3.5183001 1046:3.5183001 1051:3.8382001 1074:3.5183001 1083:3.5183001 1090:3.5183001 1145:3.5183001 1177:3.8382001 1227:3.8382001 1237:3.5183001 1239:4.158 1252:3.8382001 1276:3.5183001 1278:3.5183001 1281:3.5183001 1301:4.158 1305:3.8382001 1327:3.5183001 1331:3.5183001 1338:3.5183001 1343:3.8382001 1354:3.8382001 1372:3.5183001 1399:3.5183001 1406:3.5183001 1412:3.5183001 1430:3.5183001 1454:3.8382001 1506:3.8382001 1507:3.5183001 1520:3.5183001 1524:3.5183001 1525:3.5183001 1529:3.5183001 1550:3.5183001 1589:3.5183001 1663:4.158 1667:3.5183001 1672:3.5183001 1678:5.1174998 1691:3.8382001 1713:3.5183001 1717:3.8382001 1755:3.8382001 1762:3.5183001 1774:3.5183001 1784:5.1174998 1788:3.5183001 1792:3.8382001 1796:3.5183001 1805:3.5183001 1816:3.5183001 1827:3.5183001 1837:3.5183001 1847:3.5183001 1854:3.5183001 1867:3.5183001 1887:3.5183001 1924:5.1174998 1926:4.158 1937:3.5183001 1945:3.5183001 1975:3.5183001 2006:3.8382001 2013:3.8382001 2017:3.5183001 2083:3.5183001 2093:3.5183001 2095:3.5183001 2103:3.5183001 2112:3.5183001 2113:3.5183001 2115:3.5183001 2142:3.5183001 2159:3.5183001 2169:3.5183001 2173:4.7976999 2177:3.5183001 2192:3.8382001 2203:3.5183001 2226:3.5183001 2251:4.158 2252:3.8382001 2261:3.5183001 2305:3.5183001 2312:3.5183001 2315:3.5183001 2318:4.4779 2323:3.5183001 2349:3.5183001 2356:3.8382001 2401:4.7976999 2409:3.8382001 2418:3.5183001 2432:3.5183001 2446:3.5183001 2451:3.8382001 2460:4.158 2474:3.8382001 2477:3.5183001 2478:4.4779 2479:4.158 2482:3.5183001 2506:3.5183001 2545:3.5183001 2574:3.5183001 2582:3.5183001 2631:3.8382001 2663:3.8382001 2668:3.5183001 2691:3.5183001 2703:3.5183001 2768:3.5183001 2819:3.5183001 2861:4.158 2868:3.5183001 2887:3.5183001 2894:4.7976999 2901:4.158 2912:3.5183001 2913:3.5183001 2936:4.158 # seizures/00000952_s01.txt
0.00058309709562798630114177633743111 10:3.4445 12:3.4445 35:3.6905 65:3.4445 67:3.6905 71:3.4445 88:3.4445 110:3.4445 127:3.4445 173:3.6905 185:3.6905 196:4.1826 228:4.4285998 231:3.4445 238:3.4445 259:3.6905 265:4.6746998 277:4.4285998 355:3.4445 373:3.4445 419:3.9366 420:3.6905 436:3.4445 460:3.6905 471:3.4445 498:3.4445 553:3.6905 568:3.4445 579:3.6905 653:3.6905 665:3.9366 679:3.4445 680:3.6905 698:3.4445 709:3.4445 712:3.6905 758:3.4445 783:3.4445 790:3.6905 794:3.4445 813:3.4445 826:6.3969002 835:3.6905 844:4.1826 848:3.4445 886:3.4445 891:3.9366 895:3.4445 908:3.4445 918:4.1826 923:3.4445 933:3.6905 953:3.4445 982:3.6905 1003:3.4445 1120:3.9366 1132:3.4445 1171:3.6905 1184:4.1826 1220:3.4445 1227:3.4445 1239:3.6905 1281:3.4445 1301:3.6905 1305:3.4445 1307:3.6905 1312:3.6905 1327:3.4445 1328:3.4445 1368:3.4445 1372:3.6905 1410:3.4445 1412:3.4445 1431:3.4445 1506:3.4445 1512:3.4445 1550:3.4445 1589:3.6905 1663:4.1826 1668:4.1826 1674:3.4445 1691:3.4445 1693:3.4445 1755:4.4285998 1774:3.4445 1784:3.4445 1788:3.4445 1792:4.4285998 1816:3.4445 1837:3.4445 1846:3.4445 1860:3.4445 1913:3.4445 1924:5.9049001 1926:4.1826 1945:3.6905 1958:4.1826 1975:3.6905 2017:3.4445 2072:3.4445 2073:3.6905 2083:3.4445 2136:3.4445 2168:3.4445 2173:4.6746998 2192:3.4445 2201:3.4445 2203:3.4445 2213:3.4445 2232:3.4445 2247:3.4445 2251:3.4445 2261:3.6905 2273:3.6905 2312:3.4445 2318:3.9366 2349:3.4445 2356:3.4445 2409:3.4445 2433:3.4445 2477:3.6905 2479:3.9366 2496:3.4445 2499:3.4445 2501:3.4445 2506:3.4445 2532:3.4445 2554:3.4445 2582:3.6905 2592:3.4445 2661:3.4445 2668:3.4445 2741:3.4445 2787:3.4445 2819:3.6905 2868:4.4285998 2894:3.4445 2912:3.6905 2936:3.6905 # seizures/00001274_s04.txt
0.00058309709562798630114177633743111 10:4.1122999 17:3.6554 35:6.3969002 81:3.6554 84:4.1122999 94:3.6554 110:3.6554 173:3.6554 207:3.6554 228:3.6554 238:3.6554 265:3.6554 322:3.6554 355:4.1122999 420:3.6554 460:4.1122999 557:4.1122999 579:4.1122999 654:3.6554 662:4.5692 665:3.6554 680:3.6554 683:3.6554 712:3.6554 714:3.6554 794:3.6554 826:5.0261998 835:3.6554 844:3.6554 855:3.6554 886:3.6554 891:4.5692 892:3.6554 916:3.6554 926:4.5692 930:3.6554 1006:3.6554 1044:3.6554 1051:3.6554 1120:3.6554 1202:4.1122999 1208:3.6554 1217:3.6554 1227:4.1122999 1239:3.6554 1259:3.6554 1301:3.6554 1305:3.6554 1343:3.6554 1349:3.6554 1372:3.6554 1423:3.6554 1451:4.1122999 1547:3.6554 1550:3.6554 1565:3.6554 1579:3.6554 1589:3.6554 1650:3.6554 1651:3.6554 1663:3.6554 1667:3.6554 1678:3.6554 1693:3.6554 1788:4.1122999 1823:4.1122999 1842:4.1122999 1846:3.6554 1914:4.5692 1918:3.6554 1924:4.5692 1926:5.4830999 1935:3.6554 1945:4.1122999 1950:4.1122999 1963:3.6554 1975:3.6554 2073:4.1122999 2075:3.6554 2163:3.6554 2173:3.6554 2187:4.1122999 2193:3.6554 2229:4.1122999 2261:3.6554 2315:3.6554 2318:4.1122999 2320:3.6554 2359:5.0261998 2360:4.1122999 2409:3.6554 2468:3.6554 2477:3.6554 2499:5.0261998 2501:3.6554 2526:4.1122999 2582:3.6554 2611:3.6554 2622:4.1122999 2645:5.4830999 2662:3.6554 2750:3.6554 2819:3.6554 2838:3.6554 2868:3.6554 2894:3.6554 2898:3.6554 2901:4.5692 2936:3.6554 # seizures/00002394_s02.txt
0.00014987488672897500505826196004477 10:3.4268999 38:3.4268999 88:3.4268999 110:3.4268999 130:3.6554 131:3.4268999 149:3.4268999 161:3.4268999 173:3.4268999 178:3.4268999 217:4.1122999 238:3.4268999 256:3.4268999 264:3.6554 265:3.6554 290:3.4268999 308:3.4268999 350:3.4268999 355:3.6554 419:3.6554 420:3.4268999 445:3.4268999 447:3.4268999 460:3.6554 471:3.4268999 499:3.4268999 513:3.8838999 535:3.4268999 579:3.4268999 662:3.4268999 680:3.4268999 686:3.4268999 701:3.4268999 708:3.4268999 712:3.4268999 714:3.4268999 794:3.4268999 797:3.4268999 798:3.6554 808:3.4268999 813:3.4268999 826:4.5692 835:3.4268999 844:3.4268999 874:3.6554 886:3.4268999 926:3.4268999 945:3.4268999 955:3.4268999 1000:3.4268999 1004:3.4268999 1018:3.8838999 1046:3.4268999 1078:3.4268999 1086:3.4268999 1177:4.3407998 1184:3.4268999 1217:3.4268999 1218:3.4268999 1227:3.4268999 1239:3.4268999 1259:3.8838999 1301:3.4268999 1305:3.4268999 1327:3.4268999 1343:3.4268999 1346:3.6554 1357:3.4268999 1372:3.4268999 1401:3.4268999 1423:3.4268999 1439:3.4268999 1440:3.4268999 1442:3.6554 1451:5.0261998 1454:3.6554 1499:3.4268999 1503:3.4268999 1585:3.4268999 1589:3.4268999 1667:3.4268999 1676:3.4268999 1678:3.6554 1693:3.4268999 1709:3.4268999 1755:3.4268999 1788:3.8838999 1816:3.4268999 1836:3.4268999 1863:3.4268999 1867:3.4268999 1914:3.4268999 1915:3.4268999 1924:4.1122999 1945:3.8838999 1963:3.6554 1975:3.4268999 1991:3.4268999 2002:3.4268999 2022:3.6554 2085:3.4268999 2173:3.6554 2210:3.6554 2229:3.4268999 2230:3.4268999 2232:3.4268999 2251:3.4268999 2261:4.1122999 2315:3.8838999 2316:3.4268999 2318:6.3969002 2359:3.4268999 2405:3.4268999 2409:3.6554 2446:3.6554 2455:3.8838999 2477:3.4268999 2479:3.8838999 2499:3.6554 2582:3.4268999 2607:4.3407998 2611:3.4268999 2622:4.1122999 2691:3.4268999 2701:3.8838999 2741:3.4268999 2757:3.4268999 2775:3.4268999 2795:3.4268999 2806:3.4268999 2819:3.4268999 2856:3.4268999 2868:3.4268999 2894:3.4268999 2901:3.6554 2939:3.4268999 # seizures/00008626_s01.txt
-0.00058309709562798630114177633743111 22:3.4892001 34:3.78 35:4.6522999 45:3.4892001 48:3.4892001 77:3.4892001 94:3.4892001 147:3.4892001 149:3.4892001 163:3.4892001 173:3.78 178:3.4892001 179:3.4892001 228:3.4892001 231:3.78 237:3.4892001 238:3.4892001 257:4.9431 264:3.4892001 265:4.6522999 298:3.4892001 322:3.4892001 358:4.3614998 373:3.4892001 419:4.9431 420:3.4892001 422:3.4892001 423:3.4892001 456:4.6522999 498:3.78 513:3.4892001 539:3.4892001 553:3.78 575:3.4892001 614:3.78 665:3.4892001 669:3.4892001 680:3.4892001 683:3.4892001 708:3.4892001 746:3.4892001 765:3.4892001 774:3.4892001 790:3.4892001 798:3.78 814:3.4892001 826:5.2339001 874:3.78 881:3.4892001 891:3.4892001 908:3.4892001 918:4.0707998 922:3.4892001 946:3.4892001 955:3.4892001 960:3.78 1009:3.4892001 1011:3.4892001 1018:4.0707998 1027:3.4892001 1046:3.4892001 1048:3.4892001 1065:3.4892001 1077:3.4892001 1081:3.4892001 1091:3.4892001 1145:3.4892001 1177:3.78 1276:3.4892001 1327:3.4892001 1339:3.4892001 1372:3.4892001 1435:3.4892001 1447:3.4892001 1451:4.9431 1454:3.78 1459:3.4892001 1472:3.78 1501:3.4892001 1512:3.4892001 1543:3.4892001 1548:3.4892001 1572:3.4892001 1575:3.4892001 1577:3.4892001 1589:3.4892001 1591:3.4892001 1663:3.4892001 1674:3.4892001 1677:3.4892001 1678:3.78 1685:3.4892001 1693:3.4892001 1755:4.3614998 1788:4.0707998 1805:4.0707998 1816:3.4892001 1836:3.4892001 1842:3.78 1863:3.78 1866:3.4892001 1868:3.4892001 1924:4.9431 1945:3.4892001 1956:3.78 1967:3.4892001 2000:3.4892001 2002:4.0707998 2005:3.78 2013:3.4892001 2017:3.78 2027:3.4892001 2056:3.4892001 2112:3.78 2113:5.2339001 2115:3.78 2142:3.4892001 2157:3.4892001 2164:3.4892001 2167:3.4892001 2173:5.5246 2187:3.78 2198:3.4892001 2201:3.4892001 2229:3.4892001 2246:3.4892001 2251:3.4892001 2252:4.0707998 2261:4.0707998 2305:3.4892001 2312:3.4892001 2314:3.78 2315:5.5246 2316:4.9431 2318:6.3969002 2321:3.4892001 2375:3.4892001 2392:3.4892001 2401:3.4892001 2409:3.78 2412:3.4892001 2455:3.78 2479:3.78 2498:3.4892001 2520:3.4892001 2588:3.78 2595:3.4892001 2622:4.6522999 2645:4.3614998 2650:3.4892001 2662:3.4892001 2668:3.78 2689:3.4892001 2693:3.4892001 2707:3.4892001 2713:3.4892001 2768:4.0707998 2789:3.4892001 2806:4.0707998 2819:3.4892001 2868:3.4892001 2894:3.4892001 2895:3.4892001 2896:3.4892001 2901:3.4892001 # none/00000317_s05.txt
-0.00058309709562798630114177633743111 10:3.6554 35:5.9400001 45:3.6554 67:3.6554 88:4.5692 154:3.6554 185:4.5692 190:3.6554 220:3.6554 237:3.6554 238:4.1122999 259:3.6554 277:4.5692 290:3.6554 316:3.6554 326:3.6554 331:3.6554 355:3.6554 420:3.6554 460:4.5692 494:3.6554 506:3.6554 507:3.6554 552:3.6554 579:3.6554 658:3.6554 680:3.6554 706:3.6554 708:3.6554 710:3.6554 712:3.6554 714:3.6554 727:3.6554 794:3.6554 826:6.3969002 835:3.6554 844:3.6554 846:4.1122999 892:3.6554 895:3.6554 955:3.6554 977:5.0261998 1081:4.5692 1086:6.3969002 1093:3.6554 1118:3.6554 1160:4.1122999 1184:3.6554 1202:3.6554 1227:4.1122999 1239:3.6554 1276:3.6554 1281:3.6554 1301:3.6554 1305:3.6554 1307:3.6554 1372:3.6554 1373:3.6554 1399:5.4830999 1451:4.5692 1589:3.6554 1691:3.6554 1715:3.6554 1755:4.5692 1784:3.6554 1792:4.5692 1816:3.6554 1823:3.6554 1824:4.1122999 1825:3.6554 1827:3.6554 1842:4.5692 1863:3.6554 1894:3.6554 1924:4.1122999 1926:4.5692 1945:3.6554 1947:3.6554 1954:3.6554 1958:3.6554 1975:3.6554 2056:3.6554 2059:3.6554 2073:3.6554 2173:4.1122999 2179:3.6554 2187:3.6554 2211:3.6554 2229:5.0261998 2247:3.6554 2261:5.9400001 2273:3.6554 2276:3.6554 2313:3.6554 2315:3.6554 2316:4.1122999 2318:3.6554 2356:3.6554 2359:5.4830999 2370:5.0261998 2405:4.5692 2412:3.6554 2431:3.6554 2432:3.6554 2449:3.6554 2450:3.6554 2477:3.6554 2499:4.5692 2554:3.6554 2567:3.6554 2582:3.6554 2592:4.1122999 2633:3.6554 2662:3.6554 2750:4.1122999 2819:4.1122999 2857:3.6554 2868:4.1122999 2871:4.1122999 2901:5.4830999 2936:3.6554 # none/00002600_s01.txt
-0.00058309709562798630114177633743111 6:3.7314999 35:3.7314999 66:4.2645998 83:3.7314999 88:3.7314999 149:3.7314999 161:3.7314999 173:3.7314999 215:3.7314999 228:4.7976999 238:3.7314999 257:3.7314999 259:3.7314999 265:4.2645998 316:3.7314999 338:3.7314999 374:3.7314999 419:3.7314999 420:3.7314999 436:3.7314999 460:4.2645998 479:3.7314999 505:3.7314999 542:3.7314999 579:3.7314999 665:3.7314999 712:3.7314999 714:3.7314999 716:3.7314999 765:3.7314999 774:3.7314999 798:4.2645998 826:6.3969002 835:3.7314999 844:3.7314999 886:3.7314999 918:4.2645998 941:3.7314999 960:3.7314999 988:3.7314999 1099:3.7314999 1118:4.2645998 1132:3.7314999 1145:3.7314999 1177:3.7314999 1191:3.7314999 1227:4.2645998 1239:3.7314999 1258:3.7314999 1301:3.7314999 1327:3.7314999 1400:3.7314999 1442:3.7314999 1451:4.2645998 1476:3.7314999 1492:3.7314999 1589:3.7314999 1625:3.7314999 1669:3.7314999 1674:3.7314999 1678:5.8639002 1693:3.7314999 1755:3.7314999 1765:3.7314999 1784:4.2645998 1788:3.7314999 1797:3.7314999 1842:4.2645998 1867:3.7314999 1924:5.8639002 1926:3.7314999 1936:3.7314999 1945:3.7314999 1975:3.7314999 2013:3.7314999 2056:3.7314999 2112:3.7314999 2113:3.7314999 2130:3.7314999 2173:3.7314999 2201:3.7314999 2203:4.2645998 2204:3.7314999 2229:3.7314999 2251:4.2645998 2252:3.7314999 2261:5.3308001 2318:4.7976999 2379:3.7314999 2384:3.7314999 2432:3.7314999 2451:4.2645998 2477:3.7314999 2522:3.7314999 2582:3.7314999 2607:5.3308001 2613:3.7314999 2615:3.7314999 2640:3.7314999 2659:3.7314999 2661:3.7314999 2663:3.7314999 2684:3.7314999 2753:3.7314999 2806:3.7314999 2819:3.7314999 2868:3.7314999 2875:3.7314999 2894:3.7314999 2922:3.7314999 2936:3.7314999 2941:3.7314999 # none/00002494_s01.txt
-0.00052391268460512114939209293851263 10:4.1122999 35:3.6554 45:3.6554 54:3.6554 67:3.6554 71:3.6554 107:3.6554 110:3.6554 131:4.5692 173:5.4830999 196:3.6554 238:4.1122999 259:3.6554 277:3.6554 322:4.1122999 417:3.6554 420:3.6554 460:5.0261998 505:3.6554 557:3.6554 579:3.6554 665:3.6554 680:3.6554 712:3.6554 788:3.6554 794:3.6554 822:4.1122999 826:5.0261998 835:3.6554 844:3.6554 855:3.6554 886:3.6554 889:4.1122999 913:3.6554 923:3.6554 955:3.6554 969:3.6554 1006:3.6554 1082:4.1122999 1086:3.6554 1091:3.6554 1120:3.6554 1227:4.1122999 1239:3.6554 1277:3.6554 1281:4.5692 1295:3.6554 1301:3.6554 1305:3.6554 1327:4.1122999 1357:3.6554 1372:3.6554 1373:3.6554 1438:3.6554 1451:5.0261998 1492:3.6554 1503:3.6554 1525:4.1122999 1550:3.6554 1585:3.6554 1589:3.6554 1592:3.6554 1678:4.5692 1693:5.0261998 1755:4.1122999 1824:3.6554 1842:3.6554 1863:3.6554 1868:3.6554 1915:3.6554 1924:4.5692 1926:4.1122999 1945:3.6554 1975:3.6554 2000:3.6554 2002:4.5692 2056:3.6554 2059:3.6554 2073:3.6554 2112:3.6554 2173:6.3969002 2187:3.6554 2201:3.6554 2203:3.6554 2229:4.5692 2238:3.6554 2316:3.6554 2318:4.1122999 2359:4.5692 2360:3.6554 2381:3.6554 2432:3.6554 2464:3.6554 2468:3.6554 2477:3.6554 2484:4.1122999 2499:3.6554 2514:3.6554 2554:3.6554 2568:3.6554 2582:3.6554 2605:3.6554 2608:3.6554 2622:4.5692 2645:3.6554 2662:3.6554 2668:3.6554 2698:3.6554 2819:3.6554 2832:3.6554 2856:3.6554 2868:3.6554 2887:4.1122999 2901:4.5692 2912:3.6554 # none/00007745_s01.txt
-0.00058309709562798630114177633743111 10:3.6554 11:3.6554 35:5.9400001 149:4.5692 161:3.6554 185:3.6554 186:3.6554 196:3.6554 238:4.1122999 247:3.6554 259:3.6554 265:3.6554 358:4.1122999 373:3.6554 419:3.6554 420:3.6554 460:4.1122999 507:3.6554 538:3.6554 553:3.6554 579:3.6554 645:3.6554 662:4.1122999 679:3.6554 680:3.6554 689:3.6554 708:3.6554 774:3.6554 781:3.6554 794:3.6554 798:4.1122999 826:5.0261998 835:3.6554 844:3.6554 848:3.6554 918:4.5692 925:3.6554 930:3.6554 960:3.6554 970:3.6554 982:4.1122999 1046:4.5692 1081:3.6554 1118:4.1122999 1124:3.6554 1146:3.6554 1171:3.6554 1177:3.6554 1202:3.6554 1227:3.6554 1230:3.6554 1239:3.6554 1281:4.1122999 1301:3.6554 1305:3.6554 1354:4.1122999 1372:3.6554 1396:3.6554 1411:3.6554 1459:3.6554 1461:3.6554 1492:3.6554 1520:3.6554 1579:3.6554 1589:3.6554 1607:3.6554 1633:3.6554 1663:5.0261998 1667:3.6554 1674:3.6554 1685:4.1122999 1691:3.6554 1693:3.6554 1755:5.9400001 1788:3.6554 1805:3.6554 1825:4.1122999 1842:3.6554 1854:3.6554 1867:3.6554 1924:4.5692 1926:3.6554 1945:3.6554 1975:3.6554 1991:3.6554 2000:3.6554 2002:4.1122999 2013:3.6554 2056:4.5692 2085:3.6554 2113:4.5692 2121:3.6554 2130:3.6554 2142:3.6554 2173:5.0261998 2187:4.1122999 2201:3.6554 2247:3.6554 2252:4.1122999 2261:5.0261998 2315:3.6554 2318:5.0261998 2359:3.6554 2371:3.6554 2384:3.6554 2401:5.4830999 2409:6.3969002 2432:4.1122999 2455:3.6554 2475:3.6554 2477:3.6554 2484:3.6554 2522:4.1122999 2551:3.6554 2574:3.6554 2582:3.6554 2645:3.6554 2655:3.6554 2668:3.6554 2784:3.6554 2819:3.6554 2861:3.6554 2868:3.6554 2878:3.6554 2894:3.6554 2901:4.5692 2912:3.6554 # none/00004200_s03.txt
0.00058309709562798630114177633743111 10:4.7976999 11:3.9981 35:3.9981 45:3.9981 87:4.7976999 131:4.7976999 149:4.7976999 173:5.5973001 185:3.9981 207:3.9981 238:3.9981 277:3.9981 355:5.5973001 410:3.9981 419:3.9981 460:6.3969002 479:4.7976999 542:5.5973001 579:3.9981 680:3.9981 709:3.9981 710:6.3969002 712:3.9981 727:6.3969002 765:3.9981 770:3.9981 774:4.7976999 794:3.9981 798:4.7976999 804:3.9981 826:6.3969002 835:3.9981 844:4.7976999 923:3.9981 955:4.7976999 996:3.9981 1051:4.7976999 1069:4.7976999 1086:4.7976999 1090:3.9981 1118:4.7976999 1207:3.9981 1227:3.9981 1270:3.9981 1301:3.9981 1328:3.9981 1355:3.9981 1372:3.9981 1379:3.9981 1422:3.9981 1439:3.9981 1506:3.9981 1554:3.9981 1565:4.7976999 1589:3.9981 1634:3.9981 1693:5.5973001 1699:5.5973001 1755:4.7976999 1773:3.9981 1783:3.9981 1784:4.7976999 1788:4.7976999 1837:3.9981 1849:5.5973001 1924:5.5973001 1926:4.7976999 1932:4.7976999 1945:4.7976999 1950:3.9981 1975:3.9981 2000:3.9981 2006:4.7976999 2013:3.9981 2037:5.5973001 2070:3.9981 2077:3.9981 2166:3.9981 2173:5.5973001 2229:3.9981 2245:3.9981 2251:3.9981 2314:3.9981 2316:3.9981 2318:3.9981 2394:3.9981 2405:3.9981 2409:5.5973001 2455:6.3969002 2477:3.9981 2484:4.7976999 2522:4.7976999 2540:3.9981 2544:3.9981 2555:6.3969002 2582:3.9981 2608:3.9981 2622:3.9981 2668:5.5973001 2717:4.7976999 2790:3.9981 2795:3.9981 2819:3.9981 2857:3.9981 2868:3.9981 2901:5.5973001 2962:3.9981 # seizures/00005133_s01.txt
0.00058309709562798630114177633743111 10:4.2645998 11:3.7314999 21:3.7314999 35:4.2645998 45:3.7314999 110:3.7314999 131:4.2645998 166:3.7314999 185:3.7314999 207:4.7976999 238:4.7976999 259:3.7314999 261:3.7314999 277:3.7314999 331:3.7314999 338:3.7314999 355:4.7976999 456:3.7314999 460:4.2645998 487:3.7314999 495:3.7314999 542:4.7976999 553:3.7314999 579:4.7976999 582:3.7314999 601:3.7314999 669:3.7314999 680:3.7314999 698:3.7314999 709:3.7314999 710:4.7976999 712:3.7314999 727:4.2645998 765:3.7314999 794:3.7314999 798:4.7976999 804:3.7314999 826:5.8639002 835:3.7314999 844:4.2645998 864:3.7314999 865:4.2645998 906:3.7314999 923:3.7314999 929:4.2645998 953:3.7314999 992:3.7314999 1011:3.7314999 1081:3.7314999 1090:3.7314999 1118:4.2645998 1205:3.7314999 1227:3.7314999 1232:3.7314999 1258:3.7314999 1270:3.7314999 1301:3.7314999 1302:3.7314999 1323:3.7314999 1328:3.7314999 1354:3.7314999 1355:3.7314999 1365:3.7314999 1372:3.7314999 1379:3.7314999 1529:3.7314999 1554:3.7314999 1577:3.7314999 1589:3.7314999 1627:4.2645998 1674:3.7314999 1693:4.7976999 1699:6.3969002 1755:5.3308001 1773:3.7314999 1788:3.7314999 1797:3.7314999 1798:3.7314999 1837:3.7314999 1849:3.7314999 1924:4.2645998 1945:3.7314999 1975:3.7314999 1997:4.2645998 2000:3.7314999 2013:3.7314999 2065:4.2645998 2070:3.7314999 2077:3.7314999 2166:3.7314999 2173:5.3308001 2245:3.7314999 2251:3.7314999 2277:3.7314999 2314:3.7314999 2316:4.7976999 2318:3.7314999 2350:3.7314999 2355:3.7314999 2366:3.7314999 2394:3.7314999 2409:4.7976999 2431:4.2645998 2437:3.7314999 2455:3.7314999 2477:3.7314999 2499:4.2645998 2500:4.2645998 2522:3.7314999 2532:3.7314999 2544:3.7314999 2555:3.7314999 2582:3.7314999 2595:3.7314999 2608:3.7314999 2622:3.7314999 2668:3.7314999 2749:3.7314999 2819:3.7314999 2838:4.2645998 2846:3.7314999 2868:4.2645998 2901:3.7314999 # seizures/00004976_s02.txt
0.00058309709562798630114177633743111 10:4.4779 11:3.8382001 17:3.8382001 23:3.8382001 32:3.8382001 35:3.8382001 40:3.8382001 45:4.4779 81:3.8382001 94:3.8382001 95:3.8382001 110:3.8382001 119:3.8382001 131:3.8382001 147:3.8382001 158:3.8382001 160:3.8382001 161:3.8382001 207:3.8382001 238:3.8382001 246:3.8382001 259:3.8382001 277:3.8382001 410:3.8382001 419:3.8382001 456:4.4779 460:5.1174998 483:3.8382001 495:3.8382001 542:4.4779 553:3.8382001 579:4.4779 582:3.8382001 680:4.4779 698:3.8382001 709:3.8382001 710:4.4779 712:3.8382001 714:3.8382001 727:5.1174998 765:3.8382001 774:3.8382001 794:4.4779 798:3.8382001 804:3.8382001 810:3.8382001 826:5.1174998 827:3.8382001 835:3.8382001 844:4.4779 891:3.8382001 912:3.8382001 923:3.8382001 960:3.8382001 1046:5.7571998 1060:3.8382001 1069:3.8382001 1081:3.8382001 1086:5.1174998 1090:3.8382001 1118:4.4779 1122:3.8382001 1172:3.8382001 1185:3.8382001 1205:3.8382001 1227:4.4779 1258:3.8382001 1301:3.8382001 1328:3.8382001 1354:3.8382001 1372:3.8382001 1412:3.8382001 1442:3.8382001 1451:5.1174998 1454:3.8382001 1589:5.1174998 1627:3.8382001 1635:3.8382001 1674:5.1174998 1751:3.8382001 1755:5.7571998 1773:3.8382001 1779:3.8382001 1784:3.8382001 1788:3.8382001 1792:3.8382001 1837:3.8382001 1847:3.8382001 1849:3.8382001 1914:3.8382001 1915:3.8382001 1920:3.8382001 1924:4.4779 1945:4.4779 1950:4.4779 1975:3.8382001 1984:5.1174998 2006:3.8382001 2013:3.8382001 2020:3.8382001 2070:3.8382001 2166:3.8382001 2173:5.7571998 2186:3.8382001 2187:3.8382001 2215:3.8382001 2245:3.8382001 2251:3.8382001 2261:4.4779 2315:3.8382001 2316:4.4779 2318:6.3969002 2359:3.8382001 2370:4.4779 2381:3.8382001 2394:3.8382001 2401:3.8382001 2409:5.1174998 2477:3.8382001 2484:3.8382001 2499:4.4779 2522:3.8382001 2525:4.4779 2582:3.8382001 2608:3.8382001 2622:3.8382001 2749:5.1174998 2819:3.8382001 2868:3.8382001 2901:5.7571998 2939:3.8382001 # seizures/00002276_s01.txt
0.00058309709562798630114177633743111 10:3.8382001 35:3.5183001 45:4.158 110:4.158 131:4.4779 149:4.158 158:3.5183001 160:4.4779 161:3.5183001 238:3.8382001 259:3.5183001 275:3.5183001 277:3.5183001 282:3.5183001 294:3.5183001 298:3.5183001 322:3.5183001 404:3.8382001 410:3.8382001 419:3.5183001 460:3.8382001 505:3.5183001 542:3.5183001 553:3.8382001 579:3.8382001 622:3.5183001 645:3.5183001 672:3.5183001 680:3.5183001 687:3.8382001 698:3.5183001 709:3.5183001 710:3.8382001 712:3.5183001 727:3.8382001 765:3.5183001 794:3.8382001 798:3.8382001 804:4.158 826:4.4779 827:3.5183001 835:3.5183001 844:3.8382001 895:3.5183001 906:3.5183001 912:3.5183001 918:3.5183001 923:4.4779 955:3.5183001 993:3.5183001 1011:3.5183001 1018:3.8382001 1046:5.1174998 1081:3.5183001 1082:3.5183001 1086:3.5183001 1090:3.5183001 1145:3.5183001 1217:3.5183001 1227:4.158 1258:3.5183001 1301:3.5183001 1307:3.5183001 1310:3.5183001 1372:3.5183001 1379:3.5183001 1422:3.5183001 1439:3.8382001 1451:5.1174998 1492:3.5183001 1499:3.5183001 1507:3.5183001 1567:3.5183001 1589:4.158 1627:3.8382001 1663:3.5183001 1667:3.5183001 1676:3.5183001 1678:3.5183001 1691:4.158 1755:3.5183001 1773:3.5183001 1779:3.5183001 1784:3.8382001 1788:4.158 1792:4.158 1797:3.5183001 1805:3.5183001 1837:3.5183001 1849:3.8382001 1856:3.5183001 1914:3.5183001 1918:3.5183001 1920:3.5183001 1924:4.158 1945:3.8382001 1972:3.5183001 1975:3.5183001 2006:3.5183001 2013:3.5183001 2058:3.5183001 2070:3.5183001 2157:3.5183001 2159:3.5183001 2166:3.5183001 2173:5.1174998 2177:3.5183001 2186:3.5183001 2187:5.1174998 2201:3.5183001 2219:3.8382001 2230:3.5183001 2245:3.5183001 2247:3.5183001 2251:3.5183001 2252:3.5183001 2261:3.8382001 2292:3.5183001 2316:5.1174998 2318:6.3969002 2359:3.8382001 2394:3.5183001 2401:4.158 2409:4.7976999 2424:3.5183001 2431:3.5183001 2455:3.5183001 2474:3.5183001 2477:3.5183001 2478:3.5183001 2484:3.5183001 2497:3.5183001 2518:3.5183001 2522:3.5183001 2561:3.5183001 2582:3.5183001 2605:3.5183001 2608:3.5183001 2622:4.7976999 2645:3.5183001 2668:3.8382001 2739:3.5183001 2795:3.5183001 2819:3.8382001 2820:3.5183001 2868:3.5183001 2873:3.5183001 2894:3.5183001 2901:3.8382001 2912:4.158 2960:3.5183001 # seizures/00001884_s02.txt
0.00058309709562798630114177633743111 10:4.7976999 35:3.9981 45:3.9981 87:3.5983 131:3.5983 149:3.9981 161:4.3979001 207:4.3979001 277:3.5983 286:3.5983 316:3.5983 354:3.9981 355:3.5983 377:3.5983 410:3.5983 419:3.5983 436:3.5983 460:3.9981 510:3.9981 538:3.5983 542:3.9981 579:4.3979001 582:3.5983 653:3.5983 679:3.5983 680:3.5983 709:3.5983 710:3.5983 712:3.5983 727:3.9981 746:3.9981 765:4.3979001 794:3.9981 798:5.5973001 804:3.9981 826:5.9970999 835:4.3979001 844:3.9981 864:3.5983 881:3.5983 895:3.5983 912:3.5983 918:3.9981 923:3.9981 933:3.5983 993:3.5983 1017:3.9981 1046:3.9981 1081:3.9981 1118:3.5983 1177:3.5983 1197:3.5983 1202:6.3969002 1227:3.9981 1242:3.5983 1259:3.9981 1301:3.5983 1305:3.9981 1354:3.9981 1372:3.5983 1422:3.5983 1423:3.5983 1439:3.9981 1446:3.9981 1451:5.5973001 1513:3.5983 1589:3.5983 1640:4.3979001 1755:3.9981 1773:3.5983 1779:3.5983 1788:4.3979001 1792:3.5983 1802:3.5983 1837:3.5983 1849:3.5983 1867:4.3979001 1887:3.5983 1915:3.5983 1924:6.3969002 1945:3.9981 1963:3.5983 1975:3.5983 1981:3.5983 2013:4.3979001 2070:3.9981 2073:3.5983 2166:3.5983 2169:3.5983 2172:3.5983 2173:5.9970999 2186:3.5983 2245:3.5983 2251:4.3979001 2261:5.9970999 2277:3.5983 2298:3.5983 2316:5.5973001 2318:4.7976999 2375:3.5983 2386:3.5983 2392:3.5983 2409:3.5983 2477:3.5983 2479:3.5983 2499:3.5983 2522:3.5983 2582:3.5983 2595:3.5983 2608:3.5983 2613:3.5983 2622:3.5983 2645:3.5983 2662:3.9981 2668:3.5983 2753:3.5983 2806:3.5983 2819:3.5983 2868:3.5983 2894:4.7976999 2912:3.5983 # seizures/00001136_s06.txt
-0.00058309709562798630114177633743111 10:4.2645998 35:3.7314999 45:3.7314999 110:3.7314999 114:3.7314999 131:3.7314999 149:4.7976999 158:3.7314999 173:3.7314999 238:3.7314999 277:3.7314999 355:3.7314999 378:3.7314999 410:4.2645998 419:3.7314999 460:4.2645998 479:3.7314999 490:3.7314999 579:3.7314999 662:3.7314999 680:3.7314999 709:3.7314999 710:5.3308001 712:3.7314999 727:4.2645998 765:3.7314999 794:4.2645998 797:3.7314999 798:4.2645998 804:3.7314999 826:5.8639002 827:3.7314999 835:3.7314999 844:4.2645998 891:3.7314999 912:3.7314999 923:3.7314999 973:3.7314999 1090:3.7314999 1118:4.2645998 1227:4.2645998 1228:3.7314999 1258:3.7314999 1269:3.7314999 1301:3.7314999 1328:3.7314999 1335:3.7314999 1354:4.2645998 1372:3.7314999 1554:3.7314999 1589:4.7976999 1607:3.7314999 1627:3.7314999 1674:3.7314999 1691:3.7314999 1693:3.7314999 1755:5.3308001 1773:3.7314999 1779:3.7314999 1784:4.2645998 1788:3.7314999 1827:3.7314999 1837:3.7314999 1849:3.7314999 1889:3.7314999 1914:3.7314999 1920:3.7314999 1924:4.2645998 1932:3.7314999 1945:4.2645998 1975:3.7314999 1991:3.7314999 2006:3.7314999 2070:3.7314999 2157:3.7314999 2159:3.7314999 2166:3.7314999 2173:6.3969002 2186:3.7314999 2245:3.7314999 2251:3.7314999 2316:3.7314999 2318:3.7314999 2394:3.7314999 2401:3.7314999 2409:4.7976999 2431:3.7314999 2477:3.7314999 2484:4.2645998 2499:4.2645998 2522:3.7314999 2555:4.2645998 2582:3.7314999 2608:3.7314999 2622:3.7314999 2790:3.7314999 2795:3.7314999 2819:3.7314999 2838:3.7314999 2846:3.7314999 2868:3.7314999 2894:3.7314999 2901:3.7314999 2936:3.7314999 # none/00007926_s01.txt
-0.00049172943775912083055890100524721 10:4.5692 35:4.5692 45:4.1122999 68:3.6554 107:3.6554 110:4.1122999 131:5.0261998 160:3.6554 256:3.6554 277:3.6554 322:3.6554 460:4.1122999 542:4.1122999 579:3.6554 662:3.6554 680:3.6554 700:3.6554 709:3.6554 712:3.6554 727:4.1122999 765:3.6554 794:3.6554 798:3.6554 826:4.5692 835:3.6554 844:4.1122999 886:3.6554 916:3.6554 955:3.6554 993:3.6554 1046:4.5692 1081:3.6554 1082:4.1122999 1090:3.6554 1177:3.6554 1209:3.6554 1227:3.6554 1259:3.6554 1284:3.6554 1301:3.6554 1305:3.6554 1307:3.6554 1323:3.6554 1354:3.6554 1372:3.6554 1412:3.6554 1423:3.6554 1451:3.6554 1499:3.6554 1501:3.6554 1517:3.6554 1540:3.6554 1589:3.6554 1627:4.1122999 1755:4.1122999 1773:3.6554 1784:3.6554 1797:3.6554 1837:3.6554 1849:4.1122999 1877:3.6554 1924:4.1122999 1945:4.1122999 1963:3.6554 1975:3.6554 2013:3.6554 2052:3.6554 2070:4.1122999 2073:3.6554 2147:4.1122999 2159:3.6554 2166:3.6554 2173:5.4830999 2192:3.6554 2251:3.6554 2252:4.1122999 2261:4.1122999 2316:5.4830999 2318:5.4830999 2359:4.5692 2375:3.6554 2394:3.6554 2401:4.1122999 2409:5.0261998 2474:4.1122999 2477:3.6554 2499:3.6554 2522:3.6554 2582:3.6554 2608:3.6554 2622:5.4830999 2668:3.6554 2672:3.6554 2819:3.6554 2856:3.6554 2868:3.6554 2894:4.1122999 2901:6.3969002 2913:3.6554 2961:3.6554 # none/00003453_s02.txt
-0.00058309709562798630114177633743111 10:3.9092 35:3.9092 45:4.6199999 110:4.2645998 131:4.2645998 149:3.9092 158:3.5538001 160:3.5538001 207:4.2645998 238:3.9092 256:4.9754 264:3.9092 277:3.9092 285:3.5538001 290:4.2645998 331:3.5538001 410:3.5538001 460:3.9092 542:3.5538001 579:3.5538001 582:3.5538001 630:3.5538001 654:3.5538001 680:3.5538001 710:4.2645998 714:3.5538001 727:4.9754 765:3.5538001 794:3.9092 797:3.5538001 798:3.5538001 804:3.5538001 826:4.6199999 827:3.5538001 835:3.5538001 840:3.5538001 844:3.9092 848:4.2645998 874:3.9092 923:3.9092 926:3.9092 986:3.5538001 1037:3.5538001 1048:3.5538001 1069:3.5538001 1081:3.5538001 1086:4.2645998 1090:3.5538001 1118:3.9092 1141:3.5538001 1217:3.5538001 1227:3.5538001 1253:3.5538001 1301:3.5538001 1310:3.5538001 1335:3.5538001 1354:4.2645998 1355:3.5538001 1372:3.5538001 1379:4.2645998 1439:4.6199999 1442:3.9092 1446:3.5538001 1451:3.5538001 1480:3.5538001 1506:3.5538001 1508:3.5538001 1529:3.5538001 1545:3.5538001 1565:3.5538001 1589:3.5538001 1627:3.9092 1667:4.2645998 1685:3.5538001 1699:3.5538001 1755:4.9754 1784:3.9092 1788:3.5538001 1792:3.5538001 1825:5.6862001 1849:3.5538001 1867:3.5538001 1868:3.5538001 1924:3.9092 1945:4.2645998 1975:3.5538001 1981:3.5538001 2005:3.5538001 2013:3.5538001 2070:3.9092 2080:3.5538001 2173:6.3969002 2187:5.3308001 2245:3.5538001 2251:3.5538001 2252:3.5538001 2261:3.5538001 2316:4.6199999 2318:5.3308001 2355:3.5538001 2359:4.2645998 2367:3.9092 2369:3.9092 2389:3.9092 2392:3.5538001 2401:3.5538001 2409:4.2645998 2477:3.5538001 2479:3.5538001 2506:3.9092 2533:3.9092 2555:3.9092 2582:3.5538001 2621:3.5538001 2631:3.5538001 2668:4.9754 2749:3.5538001 2765:3.5538001 2795:3.5538001 2816:3.5538001 2819:3.5538001 2868:3.5538001 2901:4.6199999 2912:3.5538001 2939:3.5538001 2962:3.5538001 # none/00000459_s03.txt
-0.00020771537106127274468179988442529 10:3.9092 35:3.9092 45:3.9092 48:3.5538001 68:3.9092 88:3.5538001 110:3.5538001 149:3.5538001 167:3.5538001 179:3.5538001 190:3.5538001 228:3.5538001 238:3.9092 259:3.5538001 277:3.5538001 279:3.5538001 322:3.9092 332:4.2645998 420:3.5538001 435:3.9092 460:3.9092 513:3.5538001 557:4.2645998 579:3.5538001 598:3.5538001 662:4.6199999 665:3.5538001 679:3.5538001 680:3.5538001 693:3.5538001 712:3.5538001 742:4.2645998 765:3.9092 787:3.5538001 794:3.5538001 826:4.6199999 835:3.5538001 844:3.5538001 886:3.5538001 955:3.5538001 961:3.5538001 982:3.9092 1046:3.5538001 1051:3.5538001 1081:3.5538001 1086:3.9092 1090:3.5538001 1097:3.5538001 1158:3.5538001 1200:3.5538001 1202:3.9092 1217:3.5538001 1227:3.5538001 1239:3.5538001 1246:3.5538001 1284:3.5538001 1301:3.5538001 1305:4.6199999 1367:3.5538001 1372:3.5538001 1375:3.5538001 1439:3.5538001 1451:6.3969002 1550:3.5538001 1574:3.5538001 1585:3.5538001 1589:3.5538001 1667:3.5538001 1739:3.5538001 1755:3.5538001 1842:3.9092 1847:3.5538001 1854:3.9092 1915:3.5538001 1918:3.5538001 1924:3.5538001 1945:3.5538001 1975:3.5538001 1986:3.5538001 2013:3.9092 2056:3.5538001 2173:4.2645998 2187:4.2645998 2251:4.6199999 2261:4.6199999 2318:3.9092 2350:3.9092 2360:4.2645998 2381:3.5538001 2401:3.9092 2409:3.9092 2432:3.5538001 2460:3.5538001 2474:3.5538001 2477:3.5538001 2518:3.5538001 2544:3.5538001 2550:3.5538001 2554:3.5538001 2582:3.5538001 2684:3.5538001 2750:3.5538001 2819:3.5538001 2835:3.5538001 2861:3.5538001 2868:3.5538001 2901:3.5538001 2912:3.5538001 2922:3.5538001 # none/00005475_s01.txt
-0.00018721923848582085149125364686995 10:4.2645998 35:4.2645998 45:4.2645998 110:4.2645998 131:3.7314999 160:3.7314999 238:4.2645998 239:3.7314999 259:3.7314999 275:3.7314999 410:3.7314999 419:4.2645998 456:3.7314999 460:4.2645998 542:3.7314999 569:3.7314999 579:3.7314999 680:3.7314999 698:3.7314999 700:3.7314999 709:3.7314999 710:4.2645998 712:3.7314999 727:3.7314999 765:3.7314999 775:3.7314999 794:3.7314999 804:3.7314999 826:4.7976999 835:3.7314999 844:4.2645998 886:3.7314999 895:3.7314999 912:3.7314999 923:3.7314999 961:3.7314999 1046:4.2645998 1082:3.7314999 1086:4.2645998 1118:4.2645998 1227:4.2645998 1232:3.7314999 1301:3.7314999 1372:3.7314999 1412:3.7314999 1434:3.7314999 1501:3.7314999 1515:3.7314999 1550:3.7314999 1589:4.2645998 1607:3.7314999 1621:3.7314999 1627:4.2645998 1691:3.7314999 1755:5.3308001 1773:4.2645998 1779:3.7314999 1837:3.7314999 1849:3.7314999 1902:3.7314999 1920:3.7314999 1924:3.7314999 1945:4.2645998 1975:3.7314999 2013:3.7314999 2040:4.2645998 2070:4.2645998 2157:3.7314999 2159:3.7314999 2166:3.7314999 2173:4.7976999 2186:3.7314999 2187:4.2645998 2192:3.7314999 2251:3.7314999 2261:4.2645998 2263:3.7314999 2304:3.7314999 2316:4.7976999 2318:6.3969002 2356:3.7314999 2359:4.2645998 2394:3.7314999 2409:4.7976999 2477:3.7314999 2482:3.7314999 2484:3.7314999 2522:3.7314999 2582:3.7314999 2608:3.7314999 2622:3.7314999 2630:3.7314999 2749:3.7314999 2819:3.7314999 2868:3.7314999 2873:3.7314999 2894:3.7314999 2901:4.7976999 # none/00007054_s02.txt
0.00058309709562798630114177633743111 22:3.4892001 35:5.2339001 67:3.4892001 71:3.4892001 107:3.4892001 110:3.4892001 149:3.4892001 173:3.4892001 190:3.4892001 207:3.4892001 217:3.4892001 227:3.4892001 228:3.4892001 237:3.4892001 238:3.4892001 247:3.4892001 256:3.4892001 259:3.4892001 265:4.3614998 298:4.0707998 308:3.4892001 322:3.4892001 358:3.4892001 373:3.4892001 394:3.4892001 419:3.78 420:3.4892001 456:4.0707998 460:4.0707998 506:3.4892001 507:3.4892001 511:3.4892001 532:3.4892001 553:3.4892001 579:3.4892001 602:3.4892001 635:3.4892001 658:3.4892001 665:3.4892001 669:3.4892001 680:3.4892001 683:3.4892001 703:3.78 714:3.4892001 798:3.4892001 826:4.0707998 835:3.4892001 844:3.78 874:3.4892001 886:3.4892001 891:3.78 918:4.3614998 930:3.4892001 941:3.4892001 955:3.4892001 969:3.4892001 970:3.4892001 1009:3.78 1010:3.4892001 1029:3.78 1082:3.4892001 1118:3.4892001 1159:3.4892001 1177:3.4892001 1184:3.4892001 1202:3.4892001 1220:3.4892001 1223:3.4892001 1227:3.4892001 1239:3.4892001 1276:3.78 1281:4.0707998 1301:3.4892001 1339:3.4892001 1372:3.4892001 1375:3.4892001 1383:3.4892001 1442:3.4892001 1451:5.2339001 1453:3.4892001 1459:3.4892001 1472:3.4892001 1492:3.4892001 1510:3.4892001 1512:3.4892001 1550:3.4892001 1589:3.4892001 1607:3.4892001 1663:3.4892001 1667:4.6522999 1674:3.4892001 1678:3.4892001 1693:4.0707998 1730:3.4892001 1755:3.4892001 1784:3.4892001 1788:4.0707998 1791:3.4892001 1797:3.4892001 1802:3.4892001 1842:3.78 1868:3.4892001 1872:3.4892001 1903:3.4892001 1914:3.4892001 1924:6.3969002 1926:3.4892001 1945:3.4892001 1966:3.4892001 1975:3.4892001 2004:3.78 2017:3.4892001 2047:3.4892001 2067:3.4892001 2113:3.4892001 2143:3.4892001 2155:3.4892001 2173:3.4892001 2184:3.4892001 2187:4.0707998 2261:4.3614998 2277:3.4892001 2315:3.4892001 2316:3.78 2318:4.6522999 2321:3.4892001 2363:3.78 2381:3.4892001 2401:3.4892001 2409:3.4892001 2446:3.4892001 2477:3.4892001 2479:3.4892001 2484:3.4892001 2537:3.78 2574:3.4892001 2582:3.4892001 2605:3.4892001 2622:4.0707998 2633:3.4892001 2645:3.78 2668:4.0707998 2683:3.78 2684:3.4892001 2741:3.4892001 2753:3.4892001 2768:3.4892001 2771:3.4892001 2784:4.0707998 2789:3.4892001 2792:3.78 2794:3.4892001 2819:3.4892001 2868:3.4892001 2894:3.78 2895:3.4892001 2904:3.4892001 2961:3.4892001 # seizures/00000670_s02.txt
-0.00023281126938789337144086744046945 10:4.1122999 35:4.1122999 45:4.5692 107:3.6554 110:5.4830999 131:3.6554 149:5.4830999 190:3.6554 239:3.6554 259:3.6554 277:4.1122999 279:3.6554 410:4.1122999 456:3.6554 460:4.1122999 542:3.6554 553:3.6554 557:3.6554 579:3.6554 597:3.6554 627:3.6554 645:4.5692 680:3.6554 693:3.6554 709:3.6554 712:3.6554 727:4.1122999 765:3.6554 794:3.6554 798:3.6554 804:4.1122999 826:5.0261998 835:3.6554 844:4.1122999 891:4.1122999 912:3.6554 923:4.1122999 932:3.6554 955:4.1122999 978:4.1122999 992:3.6554 1046:5.9400001 1081:5.0261998 1090:3.6554 1168:3.6554 1177:3.6554 1184:4.1122999 1202:5.4830999 1227:4.1122999 1301:3.6554 1328:3.6554 1354:4.1122999 1372:3.6554 1396:3.6554 1412:3.6554 1422:3.6554 1451:5.0261998 1458:3.6554 1550:3.6554 1577:4.5692 1589:3.6554 1638:4.1122999 1669:3.6554 1755:4.5692 1773:4.1122999 1779:3.6554 1784:4.1122999 1788:3.6554 1837:3.6554 1849:4.1122999 1867:5.4830999 1906:4.5692 1923:3.6554 1924:4.1122999 1926:4.1122999 1945:4.5692 1975:3.6554 2006:3.6554 2013:3.6554 2047:3.6554 2065:3.6554 2070:4.1122999 2159:3.6554 2166:3.6554 2173:4.5692 2186:3.6554 2187:6.3969002 2245:3.6554 2251:3.6554 2261:5.4830999 2316:5.9400001 2318:5.9400001 2360:3.6554 2364:3.6554 2394:3.6554 2401:4.1122999 2405:4.1122999 2409:5.0261998 2474:3.6554 2477:3.6554 2482:3.6554 2484:3.6554 2582:3.6554 2608:3.6554 2622:3.6554 2741:3.6554 2750:3.6554 2801:3.6554 2819:3.6554 2868:3.6554 2894:3.6554 2901:5.0261998 2933:3.6554 2946:3.6554 # none/00001036_s02.txt
0.00058309709562798630114177633743111 10:3.5983 35:6.3969002 45:3.5983 67:3.9981 88:3.5983 107:3.5983 161:3.9981 166:3.5983 238:3.9981 256:3.5983 259:3.5983 264:3.5983 355:3.9981 419:3.9981 420:3.5983 422:3.5983 460:5.1975002 471:3.5983 488:3.5983 502:3.5983 526:3.5983 553:3.5983 579:3.5983 582:3.5983 665:3.9981 680:3.5983 683:3.5983 714:3.5983 727:4.7976999 794:3.5983 797:3.9981 813:3.5983 826:5.5973001 835:3.5983 844:3.5983 891:3.9981 918:3.5983 923:3.5983 925:3.5983 964:3.5983 978:3.5983 1069:3.5983 1081:4.3979001 1181:3.5983 1184:3.5983 1202:5.1975002 1227:3.5983 1239:3.5983 1277:3.5983 1301:3.5983 1305:3.5983 1309:3.5983 1327:3.5983 1372:3.5983 1373:3.5983 1399:3.5983 1439:3.9981 1442:3.5983 1451:4.7976999 1459:3.5983 1550:3.5983 1589:3.9981 1667:3.5983 1674:3.9981 1693:3.5983 1755:4.3979001 1788:3.9981 1815:3.5983 1824:3.5983 1842:4.3979001 1846:3.5983 1868:3.5983 1914:3.5983 1915:3.5983 1924:3.9981 1926:4.3979001 1945:3.5983 1950:3.5983 1975:3.5983 2002:4.3979001 2083:3.9981 2085:3.5983 2173:6.3969002 2186:3.5983 2210:3.5983 2252:3.5983 2261:5.5973001 2316:3.9981 2318:4.7976999 2359:3.5983 2369:3.5983 2371:3.9981 2378:3.5983 2384:3.9981 2418:3.5983 2468:3.5983 2477:3.5983 2537:3.9981 2555:4.3979001 2563:3.5983 2582:3.5983 2645:3.9981 2668:3.9981 2710:3.5983 2768:3.5983 2795:3.5983 2806:3.5983 2819:3.5983 2823:3.5983 2868:3.5983 2901:3.5983 2936:3.5983 # seizures/00001987_s02.txt
0.00058309709562798630114177633743111 10:3.8382001 12:3.8382001 35:6.3969002 38:3.8382001 45:3.5183001 88:3.5183001 149:3.5183001 154:4.158 167:3.5183001 228:4.4779 238:3.5183001 259:3.5183001 264:3.8382001 322:3.5183001 390:3.5183001 404:3.5183001 408:3.8382001 419:3.5183001 420:3.5183001 456:4.158 460:4.4779 471:3.5183001 482:3.5183001 557:3.8382001 579:3.5183001 641:3.5183001 662:4.158 665:3.5183001 679:3.5183001 680:3.5183001 706:3.5183001 708:3.5183001 712:3.5183001 727:3.5183001 784:3.5183001 790:3.5183001 794:3.5183001 797:3.5183001 819:3.5183001 826:4.158 828:3.5183001 835:3.5183001 844:3.5183001 874:3.5183001 891:3.5183001 918:3.5183001 925:3.8382001 970:3.5183001 977:3.5183001 982:3.5183001 988:3.5183001 1051:3.8382001 1081:3.8382001 1086:3.5183001 1118:3.5183001 1148:3.5183001 1227:3.5183001 1239:3.5183001 1243:4.158 1259:4.4779 1281:3.5183001 1301:3.5183001 1307:4.158 1372:3.5183001 1378:3.5183001 1412:3.5183001 1431:3.5183001 1442:3.5183001 1451:3.8382001 1492:3.5183001 1499:3.5183001 1501:3.8382001 1512:3.5183001 1550:3.5183001 1565:3.5183001 1589:3.5183001 1636:3.5183001 1665:3.5183001 1667:3.8382001 1720:3.5183001 1738:3.5183001 1755:3.5183001 1788:3.8382001 1797:3.5183001 1823:3.5183001 1824:3.8382001 1842:4.4779 1867:3.5183001 1868:3.5183001 1913:3.8382001 1918:3.5183001 1923:3.5183001 1924:6.0770998 1945:4.4779 1963:3.8382001 1967:3.8382001 1975:3.5183001 2004:3.5183001 2008:3.5183001 2013:3.5183001 2056:3.5183001 2059:3.5183001 2073:3.5183001 2083:3.8382001 2085:3.8382001 2127:3.5183001 2147:3.5183001 2173:3.8382001 2184:3.5183001 2187:4.4779 2192:3.5183001 2213:3.5183001 2229:3.8382001 2251:3.5183001 2252:4.158 2261:4.4779 2312:3.5183001 2315:3.8382001 2316:5.1174998 2318:5.4373999 2359:4.158 2360:3.8382001 2363:3.5183001 2375:3.5183001 2396:3.5183001 2401:3.8382001 2409:3.5183001 2477:3.5183001 2479:3.5183001 2499:3.5183001 2506:3.5183001 2581:3.5183001 2582:3.5183001 2596:3.5183001 2598:3.5183001 2607:3.5183001 2622:4.4779 2632:3.5183001 2644:3.5183001 2645:4.158 2689:3.5183001 2691:3.5183001 2706:3.5183001 2750:3.8382001 2753:3.5183001 2806:3.8382001 2819:3.8382001 2856:3.8382001 2861:4.158 2868:3.5183001 2896:3.5183001 2901:4.158 2903:3.5183001 2904:3.5183001 2912:4.158 # seizures/00002106_s01.txt
