SVM-light Version V6.02
0 # kernel type
3 # kernel parameter -d 
1 # kernel parameter -g 
1 # kernel parameter -s 
1 # kernel parameter -r 
empty# kernel parameter -u 
5411 # highest feature index 
1760 # number of training documents 
298 # number of support vectors plus 1 
1.2014057 # threshold b, each following line is a SV (starting with alpha*y)
-5.0920348194398634331363923122282e-05 12:15.3924 80:7.6961999 122:15.3924 132:7.6961999 146:15.3924 171:7.6961999 418:7.6961999 478:15.3924 523:7.6961999 612:7.6961999 641:7.6961999 649:7.6961999 682:23.0886 691:7.6961999 790:7.6961999 840:7.6961999 897:7.6961999 912:15.3924 930:7.6961999 936:7.6961999 943:30.784901 949:7.6961999 1001:15.3924 1037:7.6961999 1041:7.6961999 1046:7.6961999 1069:23.0886 1138:15.3924 1148:7.6961999 1195:7.6961999 1305:7.6961999 1315:7.6961999 1381:23.0886 1398:15.3924 1412:7.6961999 1462:7.6961999 1474:7.6961999 1479:7.6961999 1504:7.6961999 1514:38.481098 1547:15.3924 1596:7.6961999 1662:15.3924 1693:23.0886 1716:7.6961999 1764:7.6961999 1767:7.6961999 1772:7.6961999 1871:15.3924 1884:7.6961999 1891:7.6961999 1939:46.177299 2044:15.3924 2190:7.6961999 2504:7.6961999 2516:30.784901 2559:15.3924 2576:7.6961999 2647:23.0886 2648:7.6961999 2652:7.6961999 2666:7.6961999 2689:7.6961999 2696:7.6961999 2731:7.6961999 2767:7.6961999 2792:7.6961999 2799:7.6961999 2939:15.3924 3010:7.6961999 3043:23.0886 3048:7.6961999 3086:7.6961999 3130:7.6961999 3137:15.3924 3273:15.3924 3285:23.0886 3292:7.6961999 3323:7.6961999 3495:7.6961999 3610:7.6961999 3618:15.3924 3699:7.6961999 3712:15.3924 3717:30.784901 3750:7.6961999 3758:7.6961999 3780:7.6961999 3838:7.6961999 3864:15.3924 3866:7.6961999 3881:7.6961999 3942:7.6961999 3949:7.6961999 4093:7.6961999 4130:7.6961999 4134:46.177299 4159:7.6961999 4170:15.3924 4183:7.6961999 4264:15.3924 4348:7.6961999 4362:7.6961999 4363:7.6961999 4369:23.0886 4428:7.6961999 4436:7.6961999 4477:7.6961999 4512:7.6961999 4548:7.6961999 4626:15.3924 4654:15.3924 4728:7.6961999 4730:23.0886 4767:7.6961999 4798:7.6961999 4809:7.6961999 4832:7.6961999 4880:7.6961999 4927:7.6961999 4968:7.6961999 4975:7.6961999 5107:7.6961999 5125:15.3924 5237:15.3924 5260:38.481098 5293:7.6961999 5310:7.6961999 # none/00000340_s03.txt
3.5642481959084290773186187717414e-05 21:7.6961999 52:7.6961999 184:7.6961999 196:7.6961999 221:7.6961999 228:7.6961999 393:7.6961999 411:7.6961999 426:7.6961999 624:7.6961999 641:7.6961999 682:7.6961999 746:7.6961999 795:15.3924 882:7.6961999 903:7.6961999 919:7.6961999 943:7.6961999 975:15.3924 1001:15.3924 1037:7.6961999 1041:7.6961999 1044:7.6961999 1046:23.0886 1118:7.6961999 1148:7.6961999 1195:7.6961999 1381:30.784901 1462:7.6961999 1486:7.6961999 1547:7.6961999 1686:15.3924 1702:7.6961999 1716:7.6961999 1762:7.6961999 1764:7.6961999 1767:7.6961999 1789:15.3924 1884:7.6961999 1890:15.3924 1891:15.3924 1919:7.6961999 1939:46.177299 1969:15.3924 1975:7.6961999 2041:15.3924 2047:7.6961999 2125:7.6961999 2144:23.0886 2189:7.6961999 2215:7.6961999 2277:15.3924 2286:7.6961999 2389:7.6961999 2400:7.6961999 2433:7.6961999 2516:7.6961999 2552:7.6961999 2559:15.3924 2576:7.6961999 2638:15.3924 2689:7.6961999 2696:7.6961999 2703:7.6961999 2731:7.6961999 2792:7.6961999 2830:7.6961999 2915:7.6961999 2939:7.6961999 3008:7.6961999 3048:7.6961999 3076:7.6961999 3098:15.3924 3117:7.6961999 3137:15.3924 3241:7.6961999 3283:7.6961999 3285:7.6961999 3290:7.6961999 3463:7.6961999 3465:7.6961999 3523:15.3924 3539:7.6961999 3564:7.6961999 3591:15.3924 3610:15.3924 3617:15.3924 3699:7.6961999 3707:7.6961999 3712:30.784901 3717:15.3924 3750:7.6961999 3815:7.6961999 3885:30.784901 3993:7.6961999 4058:7.6961999 4073:7.6961999 4117:7.6961999 4125:7.6961999 4134:7.6961999 4159:15.3924 4200:15.3924 4204:7.6961999 4223:7.6961999 4253:15.3924 4264:30.784901 4291:7.6961999 4354:15.3924 4369:69.2659 4428:7.6961999 4512:38.481098 4550:7.6961999 4615:7.6961999 4650:7.6961999 4730:7.6961999 4767:7.6961999 4822:7.6961999 4832:23.0886 4880:7.6961999 4975:7.6961999 5079:7.6961999 5145:7.6961999 5220:7.6961999 5237:7.6961999 5260:7.6961999 5262:7.6961999 5293:7.6961999 5335:7.6961999 5376:7.6961999 # seizures/00000366_s05.txt
-1.6619072232132626630238259046735e-05 52:7.6961999 222:7.6961999 234:7.6961999 256:7.6961999 301:7.6961999 348:7.6961999 455:7.6961999 589:7.6961999 641:15.3924 646:7.6961999 682:15.3924 696:7.6961999 723:23.0886 768:7.6961999 795:7.6961999 830:7.6961999 832:7.6961999 874:23.0886 943:7.6961999 984:15.3924 999:7.6961999 1003:7.6961999 1034:7.6961999 1069:7.6961999 1074:7.6961999 1160:7.6961999 1263:7.6961999 1375:7.6961999 1381:23.0886 1398:7.6961999 1413:7.6961999 1445:7.6961999 1547:15.3924 1705:7.6961999 1715:7.6961999 1716:7.6961999 1789:23.0886 1836:7.6961999 1875:23.0886 1891:15.3924 1939:38.481098 1944:7.6961999 1956:7.6961999 1969:15.3924 2047:7.6961999 2053:46.177299 2095:7.6961999 2113:7.6961999 2144:23.0886 2156:15.3924 2158:15.3924 2280:7.6961999 2286:7.6961999 2322:7.6961999 2329:7.6961999 2340:7.6961999 2490:15.3924 2496:7.6961999 2511:7.6961999 2551:7.6961999 2559:15.3924 2607:7.6961999 2614:7.6961999 2617:7.6961999 2638:15.3924 2689:7.6961999 2696:7.6961999 2767:7.6961999 2792:7.6961999 2875:7.6961999 2915:15.3924 2939:7.6961999 3024:7.6961999 3075:7.6961999 3084:7.6961999 3104:7.6961999 3137:7.6961999 3160:7.6961999 3190:7.6961999 3206:7.6961999 3241:7.6961999 3290:7.6961999 3401:7.6961999 3449:7.6961999 3480:23.0886 3586:23.0886 3650:7.6961999 3699:7.6961999 3712:30.784901 3718:7.6961999 3750:7.6961999 3789:7.6961999 3815:7.6961999 3840:7.6961999 3881:7.6961999 3956:7.6961999 3975:15.3924 3978:7.6961999 4022:7.6961999 4066:7.6961999 4095:7.6961999 4105:7.6961999 4108:7.6961999 4119:7.6961999 4134:38.481098 4181:15.3924 4206:15.3924 4211:7.6961999 4222:7.6961999 4223:23.0886 4252:7.6961999 4264:38.481098 4299:7.6961999 4304:7.6961999 4354:7.6961999 4363:15.3924 4369:23.0886 4425:23.0886 4461:7.6961999 4470:7.6961999 4480:7.6961999 4506:15.3924 4615:7.6961999 4619:23.0886 4644:15.3924 4645:7.6961999 4654:7.6961999 4678:7.6961999 4704:7.6961999 4708:7.6961999 4750:7.6961999 4767:7.6961999 4791:7.6961999 4832:7.6961999 4958:7.6961999 5114:23.0886 5145:7.6961999 5273:15.3924 5354:7.6961999 5357:7.6961999 5399:7.6961999 # none/00004718_s01.txt
-2.6746452172105833586419898484365e-05 44:7.6961999 52:7.6961999 70:7.6961999 348:7.6961999 466:7.6961999 641:7.6961999 682:53.873501 696:7.6961999 790:7.6961999 830:7.6961999 874:7.6961999 984:7.6961999 1001:7.6961999 1069:15.3924 1148:7.6961999 1166:7.6961999 1315:7.6961999 1318:7.6961999 1381:15.3924 1454:7.6961999 1460:7.6961999 1547:7.6961999 1585:7.6961999 1700:7.6961999 1716:7.6961999 1763:7.6961999 1767:7.6961999 1772:7.6961999 1789:7.6961999 1836:7.6961999 1881:23.0886 1884:7.6961999 1891:7.6961999 1919:7.6961999 1939:23.0886 1956:7.6961999 1969:7.6961999 1986:7.6961999 2041:7.6961999 2047:15.3924 2095:7.6961999 2169:7.6961999 2188:7.6961999 2286:15.3924 2329:38.481098 2340:7.6961999 2389:7.6961999 2559:7.6961999 2576:7.6961999 2617:38.481098 2638:15.3924 2652:7.6961999 2689:7.6961999 2696:7.6961999 2703:15.3924 2711:7.6961999 2792:7.6961999 2884:15.3924 2939:7.6961999 2942:7.6961999 3022:7.6961999 3043:7.6961999 3077:7.6961999 3081:7.6961999 3137:7.6961999 3285:7.6961999 3489:15.3924 3495:7.6961999 3504:7.6961999 3529:15.3924 3573:7.6961999 3712:30.784901 3717:7.6961999 3750:30.784901 3789:23.0886 3815:7.6961999 3881:7.6961999 3919:15.3924 3953:7.6961999 3991:7.6961999 3993:7.6961999 4093:7.6961999 4134:38.481098 4153:7.6961999 4159:7.6961999 4182:7.6961999 4252:7.6961999 4264:7.6961999 4363:7.6961999 4369:15.3924 4374:7.6961999 4512:23.0886 4523:7.6961999 4582:38.481098 4615:7.6961999 4644:23.0886 4654:7.6961999 4754:15.3924 4767:7.6961999 4817:7.6961999 4927:7.6961999 5145:7.6961999 5151:7.6961999 5226:7.6961999 5237:7.6961999 5260:7.6961999 5273:7.6961999 5293:46.177299 5405:7.6961999 # none/00000670_s01.txt
-3.4517156139589561057029465374058e-05 52:7.6961999 560:7.6961999 624:7.6961999 641:7.6961999 732:7.6961999 762:7.6961999 832:7.6961999 874:15.3924 898:7.6961999 904:7.6961999 930:7.6961999 936:7.6961999 942:7.6961999 980:7.6961999 984:7.6961999 1001:15.3924 1041:7.6961999 1063:7.6961999 1074:7.6961999 1103:7.6961999 1104:7.6961999 1138:7.6961999 1148:7.6961999 1154:15.3924 1305:7.6961999 1315:7.6961999 1381:15.3924 1398:7.6961999 1513:7.6961999 1523:7.6961999 1547:7.6961999 1565:7.6961999 1686:15.3924 1693:7.6961999 1716:7.6961999 1764:15.3924 1767:7.6961999 1772:7.6961999 1825:7.6961999 1884:7.6961999 1900:7.6961999 1939:30.784901 1956:7.6961999 1969:7.6961999 2156:7.6961999 2280:7.6961999 2322:23.0886 2329:23.0886 2353:7.6961999 2389:15.3924 2400:7.6961999 2516:23.0886 2522:7.6961999 2559:23.0886 2572:7.6961999 2576:7.6961999 2666:7.6961999 2689:7.6961999 2690:15.3924 2711:7.6961999 2778:7.6961999 2780:7.6961999 2792:7.6961999 2795:7.6961999 2799:15.3924 2901:7.6961999 2939:38.481098 2947:7.6961999 2991:7.6961999 3008:7.6961999 3101:7.6961999 3137:7.6961999 3285:23.0886 3292:7.6961999 3319:15.3924 3564:7.6961999 3595:7.6961999 3615:7.6961999 3686:15.3924 3707:15.3924 3712:15.3924 3717:30.784901 3750:7.6961999 3815:7.6961999 3856:7.6961999 3881:7.6961999 3885:7.6961999 3977:7.6961999 3988:7.6961999 4134:23.0886 4159:23.0886 4210:7.6961999 4252:23.0886 4264:38.481098 4324:7.6961999 4363:7.6961999 4369:30.784901 4428:23.0886 4463:7.6961999 4512:15.3924 4615:7.6961999 4619:7.6961999 4670:7.6961999 4728:7.6961999 4767:7.6961999 4831:7.6961999 4832:23.0886 4880:15.3924 4950:7.6961999 4953:7.6961999 4966:7.6961999 4983:7.6961999 5145:15.3924 5179:7.6961999 5237:7.6961999 5293:23.0886 5310:7.6961999 5376:7.6961999 # none/00010488_s01.txt
5.0920348194398634331363923122282e-05 9:15.3924 52:7.6961999 122:7.6961999 132:15.3924 145:7.6961999 585:7.6961999 624:7.6961999 641:7.6961999 682:7.6961999 696:7.6961999 709:7.6961999 721:7.6961999 770:7.6961999 882:7.6961999 904:7.6961999 930:7.6961999 1001:7.6961999 1020:15.3924 1041:7.6961999 1138:7.6961999 1148:7.6961999 1166:7.6961999 1313:7.6961999 1315:7.6961999 1320:7.6961999 1381:23.0886 1492:7.6961999 1514:7.6961999 1547:7.6961999 1637:15.3924 1686:7.6961999 1693:7.6961999 1716:7.6961999 1746:7.6961999 1762:7.6961999 1767:7.6961999 1772:7.6961999 1884:7.6961999 1919:7.6961999 1939:53.873501 1956:7.6961999 1960:7.6961999 1969:15.3924 2008:7.6961999 2104:7.6961999 2117:7.6961999 2266:7.6961999 2280:15.3924 2306:7.6961999 2312:7.6961999 2322:7.6961999 2323:7.6961999 2410:7.6961999 2417:7.6961999 2433:7.6961999 2559:7.6961999 2574:7.6961999 2576:7.6961999 2689:7.6961999 2770:7.6961999 2792:7.6961999 2864:7.6961999 2939:30.784901 3019:7.6961999 3130:7.6961999 3137:7.6961999 3163:7.6961999 3273:15.3924 3286:7.6961999 3292:7.6961999 3360:7.6961999 3522:7.6961999 3539:7.6961999 3564:7.6961999 3712:38.481098 3750:7.6961999 3758:15.3924 3815:7.6961999 3840:7.6961999 3856:7.6961999 3867:7.6961999 4058:7.6961999 4134:23.0886 4159:15.3924 4360:7.6961999 4362:7.6961999 4363:7.6961999 4369:30.784901 4413:7.6961999 4428:30.784901 4459:7.6961999 4512:15.3924 4582:7.6961999 4615:7.6961999 4626:7.6961999 4756:7.6961999 4767:7.6961999 4789:7.6961999 4832:30.784901 5051:7.6961999 5145:7.6961999 5220:7.6961999 5224:7.6961999 5237:15.3924 5293:30.784901 5350:15.3924 5354:7.6961999 5376:7.6961999 # seizures/00000018_s04.txt
4.1099515721963487133519543625937e-05 9:7.6961999 44:7.6961999 52:7.6961999 80:23.0886 100:7.6961999 101:7.6961999 122:15.3924 132:7.6961999 228:7.6961999 261:7.6961999 266:7.6961999 292:7.6961999 295:7.6961999 307:7.6961999 348:7.6961999 401:7.6961999 449:7.6961999 458:7.6961999 461:7.6961999 465:7.6961999 495:7.6961999 624:15.3924 641:15.3924 646:7.6961999 682:107.747 688:7.6961999 696:15.3924 709:7.6961999 721:7.6961999 723:7.6961999 732:7.6961999 750:7.6961999 770:7.6961999 832:7.6961999 901:23.0886 930:15.3924 943:30.784901 953:7.6961999 957:15.3924 1001:38.481098 1038:7.6961999 1087:7.6961999 1092:15.3924 1103:30.784901 1138:7.6961999 1148:15.3924 1187:23.0886 1195:38.481098 1308:7.6961999 1315:7.6961999 1320:7.6961999 1375:23.0886 1381:15.3924 1398:7.6961999 1456:7.6961999 1462:30.784901 1492:7.6961999 1514:15.3924 1624:7.6961999 1672:15.3924 1673:15.3924 1693:15.3924 1715:7.6961999 1716:15.3924 1723:7.6961999 1731:7.6961999 1762:15.3924 1772:15.3924 1787:7.6961999 1789:23.0886 1848:7.6961999 1890:7.6961999 1891:23.0886 1939:38.481098 1956:7.6961999 1969:7.6961999 2009:7.6961999 2044:15.3924 2047:69.2659 2094:7.6961999 2095:7.6961999 2104:30.784901 2144:7.6961999 2181:7.6961999 2182:38.481098 2192:7.6961999 2224:15.3924 2239:7.6961999 2306:7.6961999 2322:76.962097 2329:7.6961999 2410:7.6961999 2490:7.6961999 2496:15.3924 2508:7.6961999 2516:30.784901 2559:15.3924 2574:7.6961999 2648:7.6961999 2689:7.6961999 2696:7.6961999 2703:30.784901 2711:7.6961999 2734:7.6961999 2753:15.3924 2767:61.569698 2792:15.3924 2799:7.6961999 2864:15.3924 2910:7.6961999 2917:23.0886 2939:69.2659 3024:7.6961999 3043:7.6961999 3098:15.3924 3117:7.6961999 3137:7.6961999 3195:15.3924 3241:7.6961999 3273:15.3924 3285:38.481098 3286:23.0886 3309:15.3924 3360:7.6961999 3489:61.569698 3507:7.6961999 3523:7.6961999 3528:7.6961999 3556:7.6961999 3573:15.3924 3581:7.6961999 3586:7.6961999 3607:7.6961999 3610:15.3924 3618:15.3924 3666:7.6961999 3686:7.6961999 3703:15.3924 3712:69.2659 3717:53.873501 3750:7.6961999 3758:38.481098 3815:7.6961999 3850:7.6961999 3884:7.6961999 3958:7.6961999 3978:30.784901 4073:7.6961999 4095:15.3924 4117:15.3924 4124:15.3924 4125:7.6961999 4134:23.0886 4159:23.0886 4164:7.6961999 4170:23.0886 4181:38.481098 4183:7.6961999 4206:7.6961999 4223:23.0886 4242:7.6961999 4264:38.481098 4359:15.3924 4362:15.3924 4369:69.2659 4403:7.6961999 4413:7.6961999 4428:7.6961999 4447:7.6961999 4459:7.6961999 4463:15.3924 4512:30.784901 4516:15.3924 4548:23.0886 4549:7.6961999 4550:7.6961999 4577:7.6961999 4582:7.6961999 4601:15.3924 4615:7.6961999 4619:15.3924 4626:15.3924 4644:23.0886 4654:15.3924 4684:15.3924 4689:7.6961999 4730:7.6961999 4743:15.3924 4767:7.6961999 4832:15.3924 4880:15.3924 4907:7.6961999 4927:7.6961999 4988:7.6961999 5058:15.3924 5073:7.6961999 5145:7.6961999 5237:7.6961999 5260:7.6961999 5277:15.3924 5293:7.6961999 5297:7.6961999 5310:7.6961999 5350:23.0886 # seizures/00000032_s02.txt
5.0920348194398634331363923122282e-05 52:7.6961999 146:7.6961999 221:7.6961999 222:7.6961999 234:7.6961999 337:7.6961999 413:7.6961999 482:7.6961999 589:7.6961999 641:15.3924 682:15.3924 696:23.0886 742:7.6961999 770:7.6961999 795:15.3924 832:7.6961999 874:15.3924 1001:7.6961999 1020:7.6961999 1037:7.6961999 1069:7.6961999 1087:7.6961999 1138:7.6961999 1192:7.6961999 1305:15.3924 1314:15.3924 1375:7.6961999 1381:23.0886 1471:7.6961999 1504:7.6961999 1514:15.3924 1547:15.3924 1686:7.6961999 1716:7.6961999 1727:15.3924 1763:7.6961999 1764:15.3924 1772:7.6961999 1789:23.0886 1836:7.6961999 1884:15.3924 1902:15.3924 1939:30.784901 1943:7.6961999 1956:7.6961999 1969:15.3924 1975:15.3924 2047:15.3924 2087:7.6961999 2091:7.6961999 2100:7.6961999 2105:7.6961999 2182:7.6961999 2280:7.6961999 2283:7.6961999 2322:23.0886 2340:7.6961999 2389:15.3924 2467:7.6961999 2496:7.6961999 2508:7.6961999 2559:7.6961999 2566:7.6961999 2638:23.0886 2689:7.6961999 2767:7.6961999 2792:7.6961999 2811:7.6961999 2864:7.6961999 2880:7.6961999 2915:7.6961999 2919:15.3924 2930:7.6961999 2939:15.3924 2947:7.6961999 2948:7.6961999 2950:7.6961999 2990:7.6961999 3019:7.6961999 3075:7.6961999 3086:7.6961999 3137:15.3924 3163:7.6961999 3241:7.6961999 3328:7.6961999 3410:7.6961999 3465:7.6961999 3474:7.6961999 3480:7.6961999 3489:30.784901 3507:7.6961999 3539:15.3924 3573:15.3924 3586:7.6961999 3595:7.6961999 3618:7.6961999 3686:15.3924 3697:7.6961999 3712:23.0886 3750:23.0886 3758:30.784901 3815:7.6961999 3825:23.0886 3881:23.0886 3975:15.3924 4089:7.6961999 4095:7.6961999 4119:7.6961999 4134:30.784901 4158:7.6961999 4159:15.3924 4170:7.6961999 4239:7.6961999 4240:7.6961999 4242:7.6961999 4252:7.6961999 4253:15.3924 4311:7.6961999 4363:7.6961999 4369:46.177299 4428:15.3924 4447:7.6961999 4477:7.6961999 4506:7.6961999 4512:23.0886 4522:7.6961999 4536:7.6961999 4582:7.6961999 4610:7.6961999 4615:7.6961999 4618:7.6961999 4626:7.6961999 4654:7.6961999 4678:7.6961999 4689:7.6961999 4708:7.6961999 4767:7.6961999 4813:7.6961999 4832:23.0886 4927:7.6961999 5128:7.6961999 5145:15.3924 5245:7.6961999 5293:30.784901 5310:23.0886 5335:7.6961999 # seizures/00000032_s05.txt
5.0920348194398634331363923122282e-05 52:7.6961999 228:15.3924 348:7.6961999 449:7.6961999 617:7.6961999 641:7.6961999 682:15.3924 696:7.6961999 795:23.0886 804:7.6961999 832:7.6961999 874:23.0886 890:7.6961999 912:15.3924 914:7.6961999 935:7.6961999 957:7.6961999 979:7.6961999 1001:7.6961999 1041:7.6961999 1069:15.3924 1314:7.6961999 1322:7.6961999 1375:7.6961999 1381:7.6961999 1468:7.6961999 1473:7.6961999 1514:15.3924 1538:7.6961999 1662:7.6961999 1686:15.3924 1692:7.6961999 1716:7.6961999 1733:7.6961999 1763:7.6961999 1764:7.6961999 1767:7.6961999 1789:7.6961999 1836:7.6961999 1884:7.6961999 1890:7.6961999 1891:7.6961999 1939:15.3924 1956:7.6961999 1969:23.0886 1994:7.6961999 2015:7.6961999 2105:30.784901 2322:38.481098 2329:7.6961999 2342:7.6961999 2389:15.3924 2516:69.2659 2559:15.3924 2614:7.6961999 2647:7.6961999 2768:7.6961999 2792:7.6961999 2864:7.6961999 2915:7.6961999 2939:23.0886 2993:7.6961999 3043:7.6961999 3075:7.6961999 3077:7.6961999 3114:7.6961999 3137:15.3924 3182:7.6961999 3206:15.3924 3208:7.6961999 3227:7.6961999 3241:15.3924 3285:7.6961999 3323:15.3924 3465:7.6961999 3480:7.6961999 3523:7.6961999 3564:7.6961999 3581:7.6961999 3586:7.6961999 3610:7.6961999 3617:15.3924 3712:15.3924 3750:23.0886 3800:7.6961999 3815:7.6961999 3868:7.6961999 3881:15.3924 3975:15.3924 4119:7.6961999 4134:23.0886 4159:15.3924 4252:7.6961999 4264:46.177299 4310:7.6961999 4363:46.177299 4369:46.177299 4498:7.6961999 4512:30.784901 4644:7.6961999 4654:7.6961999 4678:7.6961999 4708:7.6961999 4767:15.3924 4813:7.6961999 4832:15.3924 4880:7.6961999 5051:7.6961999 5128:7.6961999 5145:7.6961999 5237:7.6961999 5293:7.6961999 5311:7.6961999 5328:7.6961999 5376:7.6961999 # seizures/00000043_s01.txt
4.875338493570612551607224016692e-06 52:7.6961999 319:7.6961999 442:7.6961999 641:15.3924 682:30.784901 707:7.6961999 790:7.6961999 874:7.6961999 898:23.0886 930:7.6961999 943:7.6961999 1001:15.3924 1019:7.6961999 1041:7.6961999 1048:7.6961999 1069:7.6961999 1195:15.3924 1248:7.6961999 1315:7.6961999 1318:7.6961999 1381:23.0886 1547:15.3924 1686:7.6961999 1715:7.6961999 1716:7.6961999 1746:7.6961999 1760:7.6961999 1767:7.6961999 1772:7.6961999 1789:15.3924 1802:7.6961999 1884:7.6961999 1890:7.6961999 1939:53.873501 1956:7.6961999 1969:7.6961999 1975:15.3924 1983:7.6961999 2041:7.6961999 2044:15.3924 2181:23.0886 2190:7.6961999 2239:7.6961999 2258:15.3924 2297:7.6961999 2322:7.6961999 2323:15.3924 2329:15.3924 2389:15.3924 2400:7.6961999 2559:7.6961999 2576:7.6961999 2689:7.6961999 2696:7.6961999 2711:7.6961999 2731:7.6961999 2753:7.6961999 2762:7.6961999 2792:7.6961999 2828:7.6961999 2872:7.6961999 2939:15.3924 3017:7.6961999 3043:7.6961999 3091:7.6961999 3098:15.3924 3112:7.6961999 3137:15.3924 3148:7.6961999 3249:7.6961999 3253:7.6961999 3273:7.6961999 3411:15.3924 3523:7.6961999 3564:7.6961999 3615:7.6961999 3696:23.0886 3712:30.784901 3717:15.3924 3750:7.6961999 3775:7.6961999 3814:7.6961999 3815:7.6961999 3890:7.6961999 3907:7.6961999 3919:7.6961999 3953:15.3924 4042:7.6961999 4134:15.3924 4142:7.6961999 4153:7.6961999 4206:7.6961999 4232:7.6961999 4264:15.3924 4319:7.6961999 4354:15.3924 4369:38.481098 4512:7.6961999 4526:7.6961999 4582:7.6961999 4615:7.6961999 4626:15.3924 4640:15.3924 4645:7.6961999 4767:7.6961999 4848:7.6961999 4891:7.6961999 4952:7.6961999 4958:7.6961999 5058:15.3924 5123:7.6961999 5145:7.6961999 5237:15.3924 5245:7.6961999 5260:7.6961999 5293:7.6961999 5376:15.3924 # seizures/00000048_s08.txt
-4.175190831245874253886338212105e-05 52:7.6961999 477:7.6961999 626:7.6961999 641:7.6961999 790:7.6961999 912:7.6961999 943:7.6961999 1001:15.3924 1041:7.6961999 1046:7.6961999 1069:23.0886 1092:7.6961999 1148:7.6961999 1195:7.6961999 1315:7.6961999 1318:7.6961999 1381:15.3924 1514:30.784901 1547:7.6961999 1606:7.6961999 1662:15.3924 1686:23.0886 1716:7.6961999 1767:7.6961999 1772:7.6961999 1884:7.6961999 1939:30.784901 1956:7.6961999 1969:7.6961999 2041:15.3924 2044:15.3924 2047:7.6961999 2064:7.6961999 2189:7.6961999 2280:7.6961999 2329:7.6961999 2359:7.6961999 2389:7.6961999 2393:7.6961999 2559:7.6961999 2576:7.6961999 2652:7.6961999 2689:7.6961999 2792:7.6961999 2795:7.6961999 3020:7.6961999 3081:7.6961999 3137:7.6961999 3285:7.6961999 3298:7.6961999 3323:7.6961999 3480:7.6961999 3573:7.6961999 3712:23.0886 3717:15.3924 3750:7.6961999 3800:7.6961999 3815:7.6961999 3868:7.6961999 3919:7.6961999 4134:23.0886 4142:7.6961999 4199:7.6961999 4201:7.6961999 4266:7.6961999 4369:7.6961999 4615:7.6961999 4626:15.3924 4678:7.6961999 4767:7.6961999 4834:7.6961999 4975:7.6961999 5080:7.6961999 5128:7.6961999 5145:7.6961999 5171:7.6961999 5237:7.6961999 # none/00000424_s04.txt
5.0920348194398634331363923122282e-05 44:7.6961999 52:7.6961999 53:7.6961999 228:7.6961999 266:7.6961999 589:7.6961999 707:7.6961999 725:7.6961999 760:7.6961999 943:7.6961999 984:7.6961999 1001:15.3924 1041:7.6961999 1069:15.3924 1148:7.6961999 1315:7.6961999 1318:7.6961999 1381:15.3924 1456:7.6961999 1602:7.6961999 1715:7.6961999 1716:7.6961999 1767:7.6961999 1772:7.6961999 1881:23.0886 1939:30.784901 1943:7.6961999 1956:7.6961999 1969:7.6961999 2041:7.6961999 2047:7.6961999 2144:7.6961999 2189:15.3924 2280:7.6961999 2393:15.3924 2559:7.6961999 2576:7.6961999 2647:7.6961999 2674:7.6961999 2689:7.6961999 2696:15.3924 2792:7.6961999 2864:7.6961999 2915:7.6961999 2986:7.6961999 3030:7.6961999 3137:15.3924 3195:7.6961999 3241:7.6961999 3299:7.6961999 3480:7.6961999 3489:7.6961999 3520:7.6961999 3712:7.6961999 3750:7.6961999 3815:7.6961999 3868:7.6961999 3928:7.6961999 4134:23.0886 4210:7.6961999 4252:7.6961999 4267:7.6961999 4291:7.6961999 4369:15.3924 4512:7.6961999 4615:7.6961999 4767:7.6961999 5145:7.6961999 5237:7.6961999 5273:15.3924 5300:7.6961999 5306:7.6961999 5348:7.6961999 5354:7.6961999 5377:7.6961999 # seizures/00003371_s01.txt
-3.2318978149520579995664093519991e-05 9:15.3924 15:15.3924 21:15.3924 22:15.3924 24:23.0886 28:38.481098 44:100.0508 52:15.3924 80:23.0886 101:61.569698 123:53.873501 133:30.784901 146:15.3924 159:115.4432 171:7.6961999 178:100.0508 184:7.6961999 228:7.6961999 253:61.569698 292:23.0886 295:7.6961999 301:23.0886 319:7.6961999 325:30.784901 331:15.3924 348:7.6961999 363:7.6961999 366:23.0886 371:23.0886 375:7.6961999 378:7.6961999 384:7.6961999 401:15.3924 407:7.6961999 415:7.6961999 418:23.0886 420:15.3924 422:7.6961999 426:7.6961999 468:30.784901 472:15.3924 483:7.6961999 486:7.6961999 495:7.6961999 636:7.6961999 647:7.6961999 656:7.6961999 682:184.70911 688:15.3924 696:23.0886 722:7.6961999 723:15.3924 760:61.569698 770:15.3924 790:46.177299 795:23.0886 830:7.6961999 832:23.0886 874:15.3924 882:7.6961999 898:7.6961999 904:7.6961999 912:61.569698 921:15.3924 930:7.6961999 935:7.6961999 955:7.6961999 957:7.6961999 975:15.3924 984:15.3924 987:7.6961999 1001:92.354599 1002:7.6961999 1026:15.3924 1038:46.177299 1041:7.6961999 1046:7.6961999 1048:15.3924 1049:7.6961999 1067:7.6961999 1069:15.3924 1092:7.6961999 1103:30.784901 1138:15.3924 1195:38.481098 1198:46.177299 1228:38.481098 1236:7.6961999 1254:15.3924 1263:7.6961999 1305:7.6961999 1308:7.6961999 1312:7.6961999 1314:38.481098 1315:23.0886 1318:7.6961999 1360:15.3924 1375:69.2659 1381:69.2659 1393:7.6961999 1454:7.6961999 1461:7.6961999 1462:15.3924 1466:7.6961999 1492:15.3924 1514:23.0886 1518:7.6961999 1523:7.6961999 1547:7.6961999 1600:7.6961999 1640:15.3924 1647:7.6961999 1672:7.6961999 1686:30.784901 1693:61.569698 1715:7.6961999 1716:30.784901 1727:30.784901 1731:15.3924 1760:7.6961999 1762:23.0886 1763:7.6961999 1787:7.6961999 1789:30.784901 1836:7.6961999 1881:15.3924 1890:15.3924 1891:7.6961999 1939:76.962097 1956:30.784901 1969:30.784901 2015:15.3924 2027:30.784901 2028:7.6961999 2047:7.6961999 2057:7.6961999 2095:15.3924 2100:7.6961999 2104:23.0886 2124:7.6961999 2133:7.6961999 2168:30.784901 2169:15.3924 2181:7.6961999 2182:7.6961999 2224:7.6961999 2228:15.3924 2230:7.6961999 2239:23.0886 2266:7.6961999 2280:46.177299 2286:7.6961999 2307:7.6961999 2322:84.658302 2323:7.6961999 2329:7.6961999 2389:15.3924 2430:7.6961999 2448:15.3924 2476:53.873501 2490:7.6961999 2495:7.6961999 2504:15.3924 2516:23.0886 2549:23.0886 2565:7.6961999 2638:38.481098 2647:23.0886 2652:69.2659 2659:15.3924 2674:7.6961999 2680:7.6961999 2696:30.784901 2706:7.6961999 2710:23.0886 2711:38.481098 2731:15.3924 2767:23.0886 2792:15.3924 2808:7.6961999 2843:7.6961999 2878:7.6961999 2917:7.6961999 2919:23.0886 2930:15.3924 2935:7.6961999 2937:7.6961999 2939:207.7977 2943:7.6961999 2948:7.6961999 2971:38.481098 2997:7.6961999 3010:7.6961999 3019:38.481098 3024:7.6961999 3034:7.6961999 3043:7.6961999 3056:7.6961999 3077:7.6961999 3089:7.6961999 3095:61.569698 3137:7.6961999 3139:15.3924 3213:7.6961999 3214:7.6961999 3241:30.784901 3253:7.6961999 3273:46.177299 3285:61.569698 3286:7.6961999 3292:7.6961999 3298:7.6961999 3299:61.569698 3301:15.3924 3309:30.784901 3319:7.6961999 3323:23.0886 3360:7.6961999 3370:7.6961999 3426:7.6961999 3456:7.6961999 3460:7.6961999 3480:15.3924 3486:7.6961999 3489:84.658302 3507:76.962097 3519:38.481098 3520:15.3924 3528:7.6961999 3529:38.481098 3571:7.6961999 3573:38.481098 3581:15.3924 3593:7.6961999 3610:15.3924 3617:23.0886 3618:15.3924 3623:15.3924 3696:15.3924 3697:7.6961999 3699:15.3924 3703:23.0886 3710:15.3924 3712:207.7977 3717:23.0886 3721:7.6961999 3750:15.3924 3758:15.3924 3765:7.6961999 3800:23.0886 3815:15.3924 3864:38.481098 3867:7.6961999 3881:23.0886 3885:23.0886 3896:7.6961999 3913:23.0886 3941:7.6961999 3953:30.784901 3958:15.3924 3963:15.3924 3978:7.6961999 3980:7.6961999 3991:46.177299 3993:15.3924 4043:46.177299 4066:7.6961999 4087:30.784901 4092:7.6961999 4093:15.3924 4105:7.6961999 4134:153.9243 4136:7.6961999 4159:92.354599 4170:15.3924 4181:15.3924 4183:15.3924 4200:23.0886 4212:7.6961999 4242:38.481098 4252:15.3924 4253:61.569698 4264:146.228 4293:15.3924 4325:7.6961999 4332:7.6961999 4354:23.0886 4359:53.873501 4362:115.4432 4363:107.747 4369:153.9243 4401:7.6961999 4414:15.3924 4428:107.747 4430:7.6961999 4432:7.6961999 4441:7.6961999 4455:46.177299 4463:7.6961999 4468:7.6961999 4477:7.6961999 4484:23.0886 4498:61.569698 4505:7.6961999 4512:192.4053 4516:7.6961999 4519:7.6961999 4523:7.6961999 4536:7.6961999 4547:15.3924 4549:15.3924 4582:84.658302 4590:15.3924 4597:7.6961999 4599:7.6961999 4601:15.3924 4610:15.3924 4615:15.3924 4619:38.481098 4621:7.6961999 4631:23.0886 4684:7.6961999 4698:7.6961999 4711:7.6961999 4738:7.6961999 4743:7.6961999 4746:7.6961999 4767:15.3924 4789:7.6961999 4809:23.0886 4832:169.3167 4838:15.3924 4854:7.6961999 4880:30.784901 4889:7.6961999 4897:7.6961999 4907:7.6961999 4927:92.354599 4952:7.6961999 4953:30.784901 4959:7.6961999 4964:15.3924 4980:30.784901 5004:7.6961999 5007:7.6961999 5008:15.3924 5051:7.6961999 5080:7.6961999 5098:7.6961999 5102:7.6961999 5105:15.3924 5128:46.177299 5145:30.784901 5147:7.6961999 5165:7.6961999 5226:15.3924 5237:30.784901 5241:7.6961999 5257:7.6961999 5260:7.6961999 5273:46.177299 5291:7.6961999 5293:153.9243 5310:7.6961999 5366:7.6961999 # none/00001092_s03.txt
-5.0920348194398634331363923122282e-05 9:7.6961999 15:7.6961999 21:7.6961999 22:7.6961999 24:7.6961999 33:7.6961999 44:7.6961999 52:7.6961999 80:7.6961999 101:15.3924 123:7.6961999 133:7.6961999 146:7.6961999 228:23.0886 261:7.6961999 275:7.6961999 295:7.6961999 348:15.3924 359:7.6961999 368:7.6961999 426:7.6961999 641:38.481098 646:7.6961999 647:7.6961999 682:30.784901 696:15.3924 722:15.3924 723:38.481098 731:7.6961999 738:7.6961999 742:7.6961999 758:15.3924 770:7.6961999 790:7.6961999 832:15.3924 874:123.1394 892:7.6961999 897:7.6961999 898:53.873501 901:7.6961999 912:23.0886 921:23.0886 930:7.6961999 957:30.784901 998:15.3924 1037:30.784901 1038:7.6961999 1046:7.6961999 1069:15.3924 1087:7.6961999 1092:7.6961999 1130:23.0886 1138:69.2659 1195:15.3924 1236:7.6961999 1294:7.6961999 1372:7.6961999 1375:30.784901 1381:23.0886 1393:23.0886 1398:7.6961999 1462:15.3924 1514:38.481098 1518:7.6961999 1547:23.0886 1641:53.873501 1662:23.0886 1664:7.6961999 1672:7.6961999 1716:61.569698 1727:15.3924 1746:15.3924 1764:38.481098 1767:7.6961999 1789:38.481098 1836:15.3924 1853:7.6961999 1884:7.6961999 1890:7.6961999 1891:84.658302 1912:30.784901 1939:69.2659 1956:7.6961999 1969:15.3924 1975:15.3924 2015:53.873501 2028:7.6961999 2041:7.6961999 2043:15.3924 2047:7.6961999 2095:53.873501 2105:23.0886 2142:7.6961999 2144:53.873501 2180:15.3924 2182:7.6961999 2197:7.6961999 2203:7.6961999 2224:7.6961999 2239:15.3924 2250:7.6961999 2280:15.3924 2286:30.784901 2303:23.0886 2322:61.569698 2323:7.6961999 2329:76.962097 2340:7.6961999 2389:46.177299 2430:7.6961999 2457:7.6961999 2476:46.177299 2516:38.481098 2538:7.6961999 2559:23.0886 2638:15.3924 2647:15.3924 2659:23.0886 2660:15.3924 2689:15.3924 2703:23.0886 2767:7.6961999 2792:7.6961999 2808:7.6961999 2843:46.177299 2850:7.6961999 2864:7.6961999 2904:7.6961999 2910:7.6961999 2915:38.481098 2919:23.0886 2925:30.784901 2939:76.962097 2943:7.6961999 2975:15.3924 3008:30.784901 3010:7.6961999 3019:15.3924 3048:15.3924 3075:23.0886 3114:30.784901 3118:7.6961999 3137:15.3924 3241:23.0886 3259:23.0886 3273:15.3924 3285:76.962097 3286:30.784901 3290:7.6961999 3298:38.481098 3299:15.3924 3309:7.6961999 3316:23.0886 3319:7.6961999 3323:23.0886 3465:15.3924 3466:15.3924 3480:23.0886 3489:7.6961999 3505:7.6961999 3507:7.6961999 3519:23.0886 3539:46.177299 3564:7.6961999 3573:23.0886 3581:38.481098 3586:46.177299 3617:23.0886 3699:7.6961999 3712:84.658302 3750:38.481098 3815:7.6961999 3851:23.0886 3867:7.6961999 3881:23.0886 3884:7.6961999 3890:7.6961999 3919:30.784901 3925:7.6961999 3942:7.6961999 3953:7.6961999 3975:15.3924 3993:7.6961999 4027:7.6961999 4067:15.3924 4093:7.6961999 4105:7.6961999 4108:7.6961999 4119:7.6961999 4125:7.6961999 4134:84.658302 4153:7.6961999 4159:46.177299 4170:7.6961999 4180:7.6961999 4181:15.3924 4199:7.6961999 4242:7.6961999 4252:15.3924 4264:115.4432 4267:7.6961999 4291:7.6961999 4354:69.2659 4363:84.658302 4369:215.494 4416:23.0886 4421:7.6961999 4425:15.3924 4428:46.177299 4430:7.6961999 4436:7.6961999 4455:61.569698 4468:7.6961999 4498:46.177299 4506:61.569698 4512:30.784901 4515:7.6961999 4517:7.6961999 4523:7.6961999 4536:15.3924 4548:15.3924 4549:7.6961999 4574:7.6961999 4578:7.6961999 4582:15.3924 4598:7.6961999 4601:38.481098 4610:46.177299 4615:7.6961999 4619:38.481098 4621:15.3924 4639:7.6961999 4642:7.6961999 4654:23.0886 4664:7.6961999 4666:23.0886 4678:7.6961999 4704:7.6961999 4708:30.784901 4767:7.6961999 4832:61.569698 4854:15.3924 4906:7.6961999 4927:46.177299 4952:23.0886 4953:15.3924 4964:7.6961999 4966:7.6961999 5051:7.6961999 5075:7.6961999 5080:7.6961999 5105:7.6961999 5114:15.3924 5123:15.3924 5128:23.0886 5145:15.3924 5147:7.6961999 5237:30.784901 5252:7.6961999 5293:46.177299 5310:38.481098 5311:7.6961999 5376:7.6961999 5405:7.6961999 # none/00001422_s10.txt
-5.0920348194398634331363923122282e-05 39:7.6961999 52:7.6961999 80:7.6961999 101:23.0886 109:15.3924 170:7.6961999 186:7.6961999 348:7.6961999 351:7.6961999 363:7.6961999 371:7.6961999 380:7.6961999 420:7.6961999 449:7.6961999 465:7.6961999 530:7.6961999 641:7.6961999 646:7.6961999 692:7.6961999 696:38.481098 723:15.3924 725:7.6961999 731:7.6961999 874:15.3924 1001:15.3924 1037:7.6961999 1041:15.3924 1045:7.6961999 1069:23.0886 1103:15.3924 1148:7.6961999 1166:15.3924 1315:7.6961999 1381:30.784901 1406:7.6961999 1456:7.6961999 1504:15.3924 1514:23.0886 1547:7.6961999 1686:7.6961999 1698:7.6961999 1700:7.6961999 1716:7.6961999 1723:7.6961999 1734:7.6961999 1745:7.6961999 1785:7.6961999 1789:7.6961999 1884:7.6961999 1890:15.3924 1939:30.784901 1956:15.3924 1969:38.481098 1975:7.6961999 2041:7.6961999 2044:7.6961999 2047:15.3924 2053:7.6961999 2094:7.6961999 2126:7.6961999 2136:7.6961999 2216:7.6961999 2280:7.6961999 2286:7.6961999 2353:7.6961999 2496:15.3924 2559:7.6961999 2574:15.3924 2652:30.784901 2689:7.6961999 2690:7.6961999 2703:15.3924 2706:15.3924 2748:15.3924 2767:23.0886 2792:7.6961999 2795:15.3924 2828:7.6961999 2829:7.6961999 2901:7.6961999 2915:7.6961999 2930:7.6961999 2939:46.177299 2948:7.6961999 2997:7.6961999 3020:7.6961999 3098:7.6961999 3137:7.6961999 3241:7.6961999 3273:15.3924 3285:23.0886 3286:15.3924 3489:92.354599 3505:15.3924 3539:38.481098 3610:30.784901 3623:7.6961999 3712:46.177299 3717:7.6961999 3750:7.6961999 3758:7.6961999 3780:7.6961999 3796:7.6961999 3815:7.6961999 3840:7.6961999 3856:7.6961999 3885:7.6961999 3942:7.6961999 3971:7.6961999 3978:7.6961999 3991:15.3924 3993:7.6961999 4095:15.3924 4101:7.6961999 4108:7.6961999 4134:15.3924 4142:7.6961999 4144:7.6961999 4159:23.0886 4183:7.6961999 4223:7.6961999 4224:7.6961999 4253:7.6961999 4264:53.873501 4354:15.3924 4360:7.6961999 4369:161.6205 4390:7.6961999 4413:7.6961999 4441:7.6961999 4512:7.6961999 4516:7.6961999 4615:7.6961999 4621:7.6961999 4626:7.6961999 4645:7.6961999 4695:7.6961999 4767:7.6961999 4782:15.3924 4809:15.3924 4832:53.873501 4840:7.6961999 4846:7.6961999 4880:7.6961999 4927:7.6961999 5002:7.6961999 5058:7.6961999 5080:7.6961999 5098:7.6961999 5105:7.6961999 5114:7.6961999 5123:7.6961999 5136:7.6961999 5145:15.3924 5221:23.0886 5237:15.3924 5354:7.6961999 # none/00001789_s05.txt
-5.0920348194398634331363923122282e-05 9:7.6961999 52:15.3924 56:7.6961999 70:7.6961999 146:7.6961999 495:7.6961999 641:15.3924 682:61.569698 696:7.6961999 868:7.6961999 882:7.6961999 898:15.3924 901:7.6961999 943:7.6961999 1001:30.784901 1041:15.3924 1046:7.6961999 1087:7.6961999 1103:7.6961999 1138:7.6961999 1148:15.3924 1195:7.6961999 1294:7.6961999 1305:7.6961999 1315:15.3924 1317:7.6961999 1318:7.6961999 1331:7.6961999 1375:7.6961999 1381:46.177299 1514:30.784901 1518:7.6961999 1547:15.3924 1693:23.0886 1700:7.6961999 1716:15.3924 1723:7.6961999 1733:7.6961999 1767:15.3924 1772:15.3924 1795:23.0886 1823:7.6961999 1825:7.6961999 1871:7.6961999 1884:15.3924 1939:69.2659 1946:7.6961999 1956:15.3924 1969:15.3924 2044:7.6961999 2047:15.3924 2095:7.6961999 2105:15.3924 2124:7.6961999 2136:7.6961999 2142:7.6961999 2158:7.6961999 2181:23.0886 2224:7.6961999 2280:7.6961999 2327:7.6961999 2329:46.177299 2353:7.6961999 2393:7.6961999 2516:15.3924 2549:7.6961999 2559:7.6961999 2576:15.3924 2614:7.6961999 2663:7.6961999 2689:15.3924 2690:15.3924 2696:7.6961999 2731:7.6961999 2767:7.6961999 2774:7.6961999 2792:15.3924 2795:7.6961999 2797:7.6961999 2799:7.6961999 2821:7.6961999 2919:7.6961999 2939:46.177299 3007:7.6961999 3017:7.6961999 3081:7.6961999 3087:7.6961999 3098:38.481098 3117:7.6961999 3121:7.6961999 3137:7.6961999 3169:7.6961999 3254:7.6961999 3273:15.3924 3285:7.6961999 3299:23.0886 3319:7.6961999 3363:7.6961999 3489:7.6961999 3520:7.6961999 3529:7.6961999 3564:7.6961999 3618:7.6961999 3646:7.6961999 3678:7.6961999 3707:7.6961999 3712:38.481098 3717:46.177299 3745:7.6961999 3750:15.3924 3758:15.3924 3814:7.6961999 3815:15.3924 3825:15.3924 3828:7.6961999 3911:7.6961999 3993:7.6961999 3997:15.3924 4108:7.6961999 4117:7.6961999 4124:7.6961999 4134:30.784901 4159:15.3924 4181:15.3924 4200:7.6961999 4221:15.3924 4223:7.6961999 4264:23.0886 4354:7.6961999 4359:7.6961999 4363:7.6961999 4369:84.658302 4428:38.481098 4430:7.6961999 4512:15.3924 4582:15.3924 4597:7.6961999 4601:15.3924 4615:15.3924 4626:7.6961999 4645:7.6961999 4670:7.6961999 4730:23.0886 4767:15.3924 4848:7.6961999 4907:7.6961999 4975:7.6961999 5050:7.6961999 5145:23.0886 5237:15.3924 5293:23.0886 5376:7.6961999 # none/00001269_s01.txt
5.0920348194398634331363923122282e-05 52:7.6961999 94:7.6961999 101:7.6961999 170:7.6961999 448:7.6961999 458:7.6961999 641:15.3924 682:69.2659 696:7.6961999 707:7.6961999 723:7.6961999 725:7.6961999 795:30.784901 880:7.6961999 898:7.6961999 901:7.6961999 957:7.6961999 979:7.6961999 984:15.3924 988:7.6961999 1001:23.0886 1067:7.6961999 1103:7.6961999 1148:7.6961999 1228:7.6961999 1315:7.6961999 1326:7.6961999 1337:38.481098 1381:23.0886 1442:7.6961999 1462:30.784901 1478:15.3924 1486:7.6961999 1522:7.6961999 1532:7.6961999 1547:15.3924 1693:7.6961999 1716:7.6961999 1760:7.6961999 1767:7.6961999 1772:7.6961999 1789:7.6961999 1836:7.6961999 1853:7.6961999 1869:23.0886 1881:7.6961999 1884:7.6961999 1939:30.784901 1956:7.6961999 1969:7.6961999 1979:7.6961999 1986:7.6961999 2041:7.6961999 2047:38.481098 2108:7.6961999 2124:7.6961999 2169:7.6961999 2181:7.6961999 2200:7.6961999 2224:15.3924 2232:7.6961999 2245:7.6961999 2280:7.6961999 2303:7.6961999 2329:15.3924 2340:23.0886 2389:7.6961999 2393:7.6961999 2449:7.6961999 2490:7.6961999 2516:30.784901 2549:30.784901 2559:7.6961999 2576:7.6961999 2617:7.6961999 2638:15.3924 2652:15.3924 2666:7.6961999 2689:7.6961999 2696:15.3924 2731:7.6961999 2792:7.6961999 2799:7.6961999 2808:7.6961999 2843:15.3924 2854:7.6961999 2884:7.6961999 2888:7.6961999 2915:7.6961999 2939:38.481098 2971:7.6961999 2997:7.6961999 3077:7.6961999 3081:7.6961999 3098:7.6961999 3114:7.6961999 3117:7.6961999 3137:7.6961999 3212:7.6961999 3241:7.6961999 3282:7.6961999 3285:30.784901 3288:7.6961999 3289:15.3924 3309:7.6961999 3520:7.6961999 3573:7.6961999 3595:7.6961999 3649:7.6961999 3666:7.6961999 3703:7.6961999 3710:7.6961999 3717:7.6961999 3745:7.6961999 3750:15.3924 3789:7.6961999 3800:15.3924 3815:7.6961999 3864:7.6961999 3881:7.6961999 3919:15.3924 3953:7.6961999 3977:7.6961999 3993:30.784901 4083:7.6961999 4108:7.6961999 4134:38.481098 4147:7.6961999 4159:38.481098 4183:7.6961999 4231:7.6961999 4252:7.6961999 4264:7.6961999 4320:7.6961999 4354:7.6961999 4359:7.6961999 4362:38.481098 4369:7.6961999 4455:7.6961999 4487:7.6961999 4498:69.2659 4506:7.6961999 4512:53.873501 4516:7.6961999 4548:7.6961999 4577:7.6961999 4582:46.177299 4601:7.6961999 4611:7.6961999 4615:7.6961999 4644:7.6961999 4695:7.6961999 4702:7.6961999 4754:7.6961999 4767:7.6961999 4891:7.6961999 4966:15.3924 5051:7.6961999 5055:7.6961999 5058:7.6961999 5125:7.6961999 5128:23.0886 5145:7.6961999 5180:7.6961999 5237:7.6961999 5241:7.6961999 5262:7.6961999 5273:7.6961999 5293:46.177299 5328:7.6961999 # seizures/00000804_s02.txt
5.0920348194398634331363923122282e-05 39:7.6961999 52:7.6961999 222:7.6961999 413:7.6961999 641:15.3924 682:15.3924 696:15.3924 832:23.0886 874:7.6961999 890:7.6961999 897:7.6961999 930:7.6961999 936:7.6961999 1001:7.6961999 1037:7.6961999 1069:15.3924 1152:7.6961999 1163:15.3924 1294:7.6961999 1381:15.3924 1393:7.6961999 1451:7.6961999 1504:23.0886 1514:7.6961999 1547:7.6961999 1700:7.6961999 1716:7.6961999 1745:7.6961999 1763:7.6961999 1764:23.0886 1767:7.6961999 1789:7.6961999 1836:7.6961999 1884:7.6961999 1891:7.6961999 1902:7.6961999 1939:38.481098 1956:7.6961999 1969:15.3924 1975:23.0886 2041:7.6961999 2100:7.6961999 2105:7.6961999 2182:7.6961999 2232:7.6961999 2280:15.3924 2322:7.6961999 2329:15.3924 2389:15.3924 2516:7.6961999 2559:7.6961999 2638:30.784901 2689:7.6961999 2703:7.6961999 2767:7.6961999 2792:7.6961999 2811:7.6961999 2880:7.6961999 2884:7.6961999 2930:7.6961999 2939:7.6961999 3010:7.6961999 3081:7.6961999 3137:7.6961999 3149:7.6961999 3175:7.6961999 3285:15.3924 3465:7.6961999 3480:15.3924 3564:7.6961999 3586:7.6961999 3617:7.6961999 3717:7.6961999 3750:30.784901 3815:7.6961999 3868:7.6961999 3881:7.6961999 3942:7.6961999 3975:23.0886 4119:7.6961999 4134:38.481098 4159:7.6961999 4170:7.6961999 4252:7.6961999 4253:7.6961999 4264:23.0886 4363:46.177299 4369:38.481098 4414:7.6961999 4428:23.0886 4477:7.6961999 4498:7.6961999 4512:38.481098 4523:7.6961999 4553:7.6961999 4615:7.6961999 4619:7.6961999 4626:7.6961999 4654:7.6961999 4674:7.6961999 4736:7.6961999 4767:7.6961999 4809:7.6961999 4813:7.6961999 4832:23.0886 4907:15.3924 4927:23.0886 4952:7.6961999 5038:7.6961999 5145:7.6961999 5237:7.6961999 5293:38.481098 5376:7.6961999 # seizures/00001970_s01.txt
5.0920348194398634331363923122282e-05 52:7.6961999 222:7.6961999 228:7.6961999 229:7.6961999 238:7.6961999 442:7.6961999 596:7.6961999 641:15.3924 682:15.3924 690:7.6961999 696:15.3924 795:23.0886 815:7.6961999 832:7.6961999 874:15.3924 912:7.6961999 1067:7.6961999 1069:7.6961999 1195:7.6961999 1294:23.0886 1305:7.6961999 1314:7.6961999 1381:23.0886 1442:7.6961999 1492:15.3924 1504:23.0886 1514:23.0886 1547:15.3924 1662:7.6961999 1716:7.6961999 1737:7.6961999 1763:7.6961999 1764:15.3924 1767:7.6961999 1789:15.3924 1836:7.6961999 1853:7.6961999 1884:15.3924 1891:15.3924 1897:7.6961999 1902:15.3924 1939:23.0886 1943:7.6961999 1956:7.6961999 1969:15.3924 1975:23.0886 2047:7.6961999 2074:7.6961999 2087:7.6961999 2100:15.3924 2105:7.6961999 2144:7.6961999 2280:15.3924 2306:7.6961999 2322:7.6961999 2329:38.481098 2338:7.6961999 2389:15.3924 2465:7.6961999 2559:15.3924 2587:7.6961999 2614:7.6961999 2638:30.784901 2689:7.6961999 2703:7.6961999 2726:7.6961999 2744:7.6961999 2792:7.6961999 2811:7.6961999 2864:7.6961999 2880:7.6961999 2889:7.6961999 2919:7.6961999 2930:7.6961999 2950:7.6961999 3030:7.6961999 3086:7.6961999 3101:15.3924 3137:15.3924 3163:7.6961999 3241:7.6961999 3299:7.6961999 3328:15.3924 3474:7.6961999 3480:7.6961999 3495:7.6961999 3564:7.6961999 3573:23.0886 3586:15.3924 3697:7.6961999 3712:15.3924 3729:7.6961999 3750:23.0886 3758:7.6961999 3815:7.6961999 3825:23.0886 3840:7.6961999 3881:7.6961999 3975:15.3924 4105:7.6961999 4108:7.6961999 4119:7.6961999 4134:76.962097 4158:7.6961999 4159:15.3924 4240:7.6961999 4252:7.6961999 4253:15.3924 4264:30.784901 4354:7.6961999 4363:38.481098 4369:30.784901 4428:7.6961999 4477:15.3924 4512:30.784901 4551:7.6961999 4615:7.6961999 4626:7.6961999 4674:7.6961999 4678:7.6961999 4767:7.6961999 4813:7.6961999 4832:7.6961999 4907:23.0886 4927:7.6961999 5063:7.6961999 5145:7.6961999 5237:15.3924 5273:15.3924 5293:30.784901 5376:7.6961999 # seizures/00002330_s01.txt
5.0920348194398634331363923122282e-05 52:7.6961999 80:15.3924 450:7.6961999 458:7.6961999 461:7.6961999 481:7.6961999 537:7.6961999 641:7.6961999 682:15.3924 723:7.6961999 760:7.6961999 795:7.6961999 900:7.6961999 936:15.3924 1041:7.6961999 1130:7.6961999 1148:7.6961999 1185:7.6961999 1315:7.6961999 1381:15.3924 1504:15.3924 1514:7.6961999 1547:23.0886 1700:7.6961999 1716:7.6961999 1767:7.6961999 1772:7.6961999 1789:7.6961999 1884:7.6961999 1891:15.3924 1939:23.0886 1956:7.6961999 1969:7.6961999 2047:7.6961999 2053:7.6961999 2158:15.3924 2159:7.6961999 2182:15.3924 2232:7.6961999 2283:7.6961999 2322:7.6961999 2516:7.6961999 2559:7.6961999 2576:7.6961999 2689:7.6961999 2703:15.3924 2792:7.6961999 2864:7.6961999 2915:15.3924 2939:15.3924 2942:7.6961999 3013:7.6961999 3137:7.6961999 3208:7.6961999 3241:15.3924 3328:7.6961999 3480:7.6961999 3495:7.6961999 3532:23.0886 3564:7.6961999 3750:7.6961999 3758:30.784901 3815:7.6961999 3881:7.6961999 3988:7.6961999 4068:7.6961999 4089:7.6961999 4134:69.2659 4159:23.0886 4252:7.6961999 4264:46.177299 4363:69.2659 4369:23.0886 4425:7.6961999 4428:23.0886 4512:15.3924 4615:7.6961999 4670:7.6961999 4684:15.3924 4832:15.3924 4927:7.6961999 5050:15.3924 5123:7.6961999 5128:7.6961999 5145:7.6961999 5237:23.0886 5293:23.0886 5354:7.6961999 5376:7.6961999 # seizures/00001363_s04.txt
2.0819578711732538724675511954132e-05 44:7.6961999 52:7.6961999 56:7.6961999 80:7.6961999 123:7.6961999 159:7.6961999 286:38.481098 292:15.3924 323:7.6961999 430:7.6961999 468:15.3924 600:7.6961999 636:7.6961999 682:61.569698 696:38.481098 723:15.3924 770:15.3924 772:7.6961999 795:15.3924 930:30.784901 943:23.0886 975:7.6961999 1001:23.0886 1046:7.6961999 1148:7.6961999 1166:23.0886 1195:53.873501 1228:7.6961999 1315:7.6961999 1318:23.0886 1381:53.873501 1399:7.6961999 1514:23.0886 1547:7.6961999 1562:7.6961999 1563:15.3924 1577:7.6961999 1641:7.6961999 1693:7.6961999 1716:7.6961999 1727:7.6961999 1767:7.6961999 1772:7.6961999 1789:30.784901 1891:7.6961999 1939:23.0886 1956:7.6961999 1969:15.3924 1973:7.6961999 2047:38.481098 2053:7.6961999 2094:7.6961999 2095:23.0886 2110:7.6961999 2156:7.6961999 2158:46.177299 2198:7.6961999 2215:7.6961999 2322:7.6961999 2323:7.6961999 2400:7.6961999 2408:7.6961999 2410:7.6961999 2508:7.6961999 2516:15.3924 2549:15.3924 2559:7.6961999 2576:7.6961999 2652:7.6961999 2689:7.6961999 2690:7.6961999 2696:7.6961999 2748:7.6961999 2792:7.6961999 2814:7.6961999 2843:7.6961999 2884:7.6961999 2915:7.6961999 2939:15.3924 2948:23.0886 3017:7.6961999 3020:23.0886 3035:7.6961999 3043:7.6961999 3053:7.6961999 3098:7.6961999 3137:7.6961999 3190:7.6961999 3241:15.3924 3253:7.6961999 3273:15.3924 3285:15.3924 3286:15.3924 3292:7.6961999 3298:7.6961999 3309:7.6961999 3360:7.6961999 3426:7.6961999 3489:15.3924 3520:7.6961999 3539:23.0886 3564:7.6961999 3591:7.6961999 3593:7.6961999 3617:7.6961999 3649:7.6961999 3696:7.6961999 3712:23.0886 3717:15.3924 3750:7.6961999 3775:15.3924 3780:7.6961999 3800:7.6961999 3815:7.6961999 3851:7.6961999 3868:7.6961999 3953:7.6961999 3991:15.3924 3993:15.3924 4124:7.6961999 4134:38.481098 4142:7.6961999 4170:15.3924 4183:7.6961999 4258:7.6961999 4359:15.3924 4362:7.6961999 4363:7.6961999 4369:53.873501 4398:46.177299 4459:7.6961999 4512:15.3924 4536:7.6961999 4582:23.0886 4615:7.6961999 4619:7.6961999 4626:7.6961999 4689:7.6961999 4730:7.6961999 4743:15.3924 4767:7.6961999 4848:7.6961999 4907:7.6961999 4927:7.6961999 4966:15.3924 5050:38.481098 5080:7.6961999 5128:7.6961999 5145:15.3924 5237:23.0886 5243:7.6961999 5260:7.6961999 5298:7.6961999 5376:7.6961999 # seizures/00003737_s01.txt
1.2580550431647867293044260050827e-05 9:38.481098 22:7.6961999 44:7.6961999 52:30.784901 95:15.3924 146:15.3924 253:53.873501 286:7.6961999 295:7.6961999 313:7.6961999 319:7.6961999 325:15.3924 330:7.6961999 331:15.3924 348:15.3924 647:7.6961999 682:46.177299 696:7.6961999 721:15.3924 722:7.6961999 723:7.6961999 742:7.6961999 760:7.6961999 770:7.6961999 795:7.6961999 874:23.0886 898:15.3924 912:38.481098 930:15.3924 943:23.0886 977:7.6961999 979:7.6961999 998:7.6961999 1001:15.3924 1041:30.784901 1063:7.6961999 1069:7.6961999 1148:15.3924 1154:15.3924 1198:30.784901 1271:7.6961999 1313:7.6961999 1315:30.784901 1318:30.784901 1320:7.6961999 1371:7.6961999 1375:30.784901 1381:30.784901 1406:7.6961999 1456:7.6961999 1459:7.6961999 1503:7.6961999 1514:30.784901 1547:38.481098 1637:15.3924 1647:30.784901 1662:7.6961999 1686:7.6961999 1715:7.6961999 1716:38.481098 1723:7.6961999 1762:15.3924 1772:7.6961999 1789:7.6961999 1792:7.6961999 1853:7.6961999 1884:7.6961999 1890:7.6961999 1891:30.784901 1939:123.1394 1956:30.784901 1969:46.177299 2015:7.6961999 2041:7.6961999 2047:23.0886 2095:38.481098 2097:7.6961999 2134:7.6961999 2156:7.6961999 2181:23.0886 2215:7.6961999 2245:30.784901 2280:23.0886 2307:7.6961999 2322:7.6961999 2323:7.6961999 2329:23.0886 2393:15.3924 2441:7.6961999 2443:7.6961999 2448:30.784901 2476:15.3924 2490:15.3924 2559:7.6961999 2565:7.6961999 2574:46.177299 2576:15.3924 2648:30.784901 2652:15.3924 2687:7.6961999 2689:15.3924 2690:15.3924 2696:23.0886 2703:7.6961999 2711:15.3924 2731:38.481098 2748:15.3924 2767:7.6961999 2774:7.6961999 2792:30.784901 2843:7.6961999 2872:23.0886 2901:23.0886 2910:7.6961999 2915:7.6961999 2919:15.3924 2939:30.784901 2948:15.3924 3010:15.3924 3016:7.6961999 3019:38.481098 3034:7.6961999 3035:7.6961999 3043:7.6961999 3078:7.6961999 3137:30.784901 3227:7.6961999 3241:30.784901 3273:76.962097 3285:15.3924 3288:7.6961999 3290:7.6961999 3292:7.6961999 3299:7.6961999 3309:15.3924 3319:15.3924 3323:30.784901 3396:30.784901 3489:7.6961999 3495:7.6961999 3539:15.3924 3544:53.873501 3573:53.873501 3580:7.6961999 3617:15.3924 3618:7.6961999 3623:7.6961999 3632:23.0886 3650:7.6961999 3699:30.784901 3712:61.569698 3717:15.3924 3718:7.6961999 3745:15.3924 3750:30.784901 3758:7.6961999 3785:15.3924 3800:7.6961999 3815:30.784901 3864:7.6961999 3867:7.6961999 3953:7.6961999 3958:15.3924 3971:7.6961999 3977:7.6961999 3991:7.6961999 4043:30.784901 4061:7.6961999 4062:7.6961999 4117:7.6961999 4124:15.3924 4134:130.8356 4153:15.3924 4159:7.6961999 4170:7.6961999 4183:7.6961999 4211:7.6961999 4217:7.6961999 4225:7.6961999 4252:23.0886 4264:53.873501 4332:23.0886 4354:15.3924 4359:69.2659 4361:7.6961999 4369:107.747 4425:7.6961999 4447:23.0886 4470:30.784901 4489:7.6961999 4498:38.481098 4512:61.569698 4540:7.6961999 4578:7.6961999 4615:30.784901 4619:15.3924 4628:7.6961999 4767:30.784901 4848:7.6961999 4849:7.6961999 4927:23.0886 4953:7.6961999 5017:23.0886 5040:15.3924 5050:15.3924 5058:7.6961999 5076:7.6961999 5098:7.6961999 5102:7.6961999 5128:7.6961999 5145:38.481098 5164:23.0886 5237:30.784901 5311:7.6961999 5350:23.0886 5354:7.6961999 # seizures/00002942_s04.txt
-5.0920348194398634331363923122282e-05 52:7.6961999 104:7.6961999 292:7.6961999 303:7.6961999 348:7.6961999 426:7.6961999 594:7.6961999 641:7.6961999 682:7.6961999 696:7.6961999 723:7.6961999 795:7.6961999 832:7.6961999 874:23.0886 900:7.6961999 935:7.6961999 1001:15.3924 1046:7.6961999 1069:7.6961999 1116:7.6961999 1195:53.873501 1263:7.6961999 1294:7.6961999 1305:7.6961999 1375:15.3924 1381:15.3924 1504:7.6961999 1514:30.784901 1518:15.3924 1547:7.6961999 1686:7.6961999 1700:7.6961999 1716:7.6961999 1763:7.6961999 1764:23.0886 1789:7.6961999 1836:7.6961999 1853:7.6961999 1884:15.3924 1902:7.6961999 1939:30.784901 1943:7.6961999 1956:7.6961999 1969:15.3924 2044:7.6961999 2047:7.6961999 2087:7.6961999 2100:7.6961999 2104:7.6961999 2286:7.6961999 2322:7.6961999 2329:30.784901 2340:7.6961999 2389:7.6961999 2496:7.6961999 2533:7.6961999 2559:7.6961999 2574:15.3924 2689:7.6961999 2690:15.3924 2754:7.6961999 2767:7.6961999 2774:7.6961999 2792:7.6961999 2915:7.6961999 2930:15.3924 2939:7.6961999 3019:7.6961999 3020:7.6961999 3086:7.6961999 3114:7.6961999 3137:15.3924 3199:7.6961999 3285:15.3924 3319:7.6961999 3415:7.6961999 3465:7.6961999 3474:7.6961999 3480:7.6961999 3539:15.3924 3586:7.6961999 3618:7.6961999 3686:7.6961999 3697:7.6961999 3712:7.6961999 3717:38.481098 3750:15.3924 3780:7.6961999 3815:7.6961999 3868:7.6961999 3881:7.6961999 3925:7.6961999 3942:7.6961999 3975:7.6961999 3997:15.3924 4076:7.6961999 4095:7.6961999 4134:38.481098 4142:7.6961999 4158:7.6961999 4159:15.3924 4211:7.6961999 4240:7.6961999 4252:7.6961999 4354:15.3924 4360:7.6961999 4363:38.481098 4369:23.0886 4430:15.3924 4444:7.6961999 4463:7.6961999 4477:7.6961999 4506:7.6961999 4512:23.0886 4517:7.6961999 4548:7.6961999 4615:7.6961999 4619:7.6961999 4626:15.3924 4730:23.0886 4767:7.6961999 4798:7.6961999 4813:7.6961999 4832:7.6961999 4848:7.6961999 4880:15.3924 4907:7.6961999 4927:7.6961999 4937:7.6961999 5038:7.6961999 5075:7.6961999 5114:7.6961999 5145:7.6961999 5221:7.6961999 5245:7.6961999 # none/00000264_s33.txt
-1.754329234186338860737933154077e-05 52:7.6961999 292:7.6961999 554:7.6961999 641:7.6961999 665:7.6961999 682:30.784901 696:15.3924 795:15.3924 832:23.0886 874:7.6961999 890:7.6961999 912:7.6961999 954:7.6961999 961:7.6961999 1001:30.784901 1236:15.3924 1305:7.6961999 1314:7.6961999 1362:7.6961999 1381:7.6961999 1504:15.3924 1514:7.6961999 1518:7.6961999 1686:23.0886 1716:7.6961999 1728:15.3924 1747:7.6961999 1764:30.784901 1772:7.6961999 1789:30.784901 1795:7.6961999 1802:7.6961999 1836:7.6961999 1884:7.6961999 1891:23.0886 1902:7.6961999 1939:15.3924 1956:7.6961999 1969:7.6961999 1975:23.0886 2000:7.6961999 2011:7.6961999 2015:7.6961999 2016:7.6961999 2044:7.6961999 2047:15.3924 2048:7.6961999 2057:7.6961999 2087:15.3924 2232:15.3924 2297:84.658302 2306:7.6961999 2315:15.3924 2322:23.0886 2389:38.481098 2440:7.6961999 2467:15.3924 2528:7.6961999 2549:7.6961999 2559:15.3924 2574:7.6961999 2617:7.6961999 2689:7.6961999 2703:30.784901 2710:15.3924 2767:7.6961999 2792:7.6961999 2864:7.6961999 2896:7.6961999 2930:7.6961999 2956:7.6961999 3114:7.6961999 3137:15.3924 3163:7.6961999 3176:7.6961999 3254:15.3924 3263:30.784901 3273:7.6961999 3285:7.6961999 3397:7.6961999 3464:7.6961999 3474:7.6961999 3480:7.6961999 3489:15.3924 3495:7.6961999 3507:7.6961999 3520:46.177299 3529:23.0886 3712:15.3924 3750:15.3924 3758:23.0886 3789:7.6961999 3849:15.3924 3881:23.0886 3892:7.6961999 3942:7.6961999 3958:7.6961999 3994:7.6961999 4069:15.3924 4134:46.177299 4193:7.6961999 4206:15.3924 4242:15.3924 4252:7.6961999 4354:15.3924 4363:7.6961999 4369:30.784901 4421:15.3924 4430:7.6961999 4463:15.3924 4477:7.6961999 4498:7.6961999 4512:15.3924 4582:15.3924 4609:15.3924 4615:7.6961999 4626:15.3924 4644:23.0886 4695:7.6961999 4767:7.6961999 4880:15.3924 4907:7.6961999 4969:7.6961999 5020:53.873501 5185:7.6961999 5220:7.6961999 5237:7.6961999 5273:15.3924 5293:69.2659 5354:7.6961999 5363:7.6961999 # none/00005368_s04.txt
-5.0920348194398634331363923122282e-05 52:7.6961999 415:7.6961999 546:7.6961999 657:7.6961999 682:61.569698 696:7.6961999 719:7.6961999 723:7.6961999 764:7.6961999 790:7.6961999 795:15.3924 912:7.6961999 930:7.6961999 935:7.6961999 936:7.6961999 1001:23.0886 1037:7.6961999 1103:15.3924 1148:7.6961999 1166:7.6961999 1195:15.3924 1315:7.6961999 1338:7.6961999 1381:15.3924 1455:7.6961999 1461:7.6961999 1462:7.6961999 1467:7.6961999 1504:7.6961999 1547:7.6961999 1680:7.6961999 1716:7.6961999 1734:7.6961999 1767:7.6961999 1789:7.6961999 1836:7.6961999 1881:7.6961999 1891:15.3924 1919:7.6961999 1939:23.0886 1956:7.6961999 1969:7.6961999 2041:7.6961999 2283:7.6961999 2286:15.3924 2322:7.6961999 2323:7.6961999 2329:23.0886 2389:15.3924 2476:7.6961999 2490:7.6961999 2549:15.3924 2559:7.6961999 2576:7.6961999 2617:30.784901 2638:38.481098 2642:7.6961999 2689:7.6961999 2792:7.6961999 2808:7.6961999 2884:7.6961999 2904:7.6961999 2939:23.0886 2997:7.6961999 3081:7.6961999 3117:7.6961999 3137:7.6961999 3227:7.6961999 3285:15.3924 3360:7.6961999 3385:7.6961999 3489:15.3924 3528:15.3924 3564:7.6961999 3573:7.6961999 3712:30.784901 3750:23.0886 3752:7.6961999 3789:15.3924 3815:7.6961999 3851:38.481098 3881:7.6961999 3919:23.0886 3953:7.6961999 3957:7.6961999 3978:15.3924 3991:7.6961999 3993:7.6961999 4089:15.3924 4134:23.0886 4183:7.6961999 4204:7.6961999 4206:7.6961999 4223:7.6961999 4252:7.6961999 4264:15.3924 4356:7.6961999 4362:7.6961999 4369:15.3924 4436:7.6961999 4471:7.6961999 4506:7.6961999 4512:7.6961999 4516:15.3924 4523:7.6961999 4549:7.6961999 4571:7.6961999 4582:76.962097 4615:7.6961999 4644:23.0886 4678:15.3924 4754:15.3924 4767:7.6961999 4854:7.6961999 4880:7.6961999 4994:7.6961999 5145:7.6961999 5155:7.6961999 5237:7.6961999 5273:7.6961999 5293:84.658302 5376:7.6961999 5405:7.6961999 # none/00005728_s02.txt
-5.0920348194398634331363923122282e-05 52:7.6961999 89:7.6961999 569:7.6961999 641:15.3924 682:38.481098 690:7.6961999 795:15.3924 898:7.6961999 904:7.6961999 912:7.6961999 930:7.6961999 943:7.6961999 957:7.6961999 1001:15.3924 1041:7.6961999 1045:7.6961999 1069:15.3924 1148:7.6961999 1195:15.3924 1315:7.6961999 1318:7.6961999 1381:15.3924 1462:15.3924 1467:7.6961999 1492:7.6961999 1514:7.6961999 1522:7.6961999 1547:7.6961999 1677:7.6961999 1686:15.3924 1693:7.6961999 1716:7.6961999 1733:7.6961999 1764:7.6961999 1767:7.6961999 1772:7.6961999 1862:7.6961999 1884:7.6961999 1891:7.6961999 1939:46.177299 1956:7.6961999 1959:7.6961999 1969:7.6961999 2047:7.6961999 2156:7.6961999 2200:7.6961999 2280:7.6961999 2283:7.6961999 2286:7.6961999 2322:7.6961999 2340:15.3924 2393:15.3924 2430:15.3924 2508:15.3924 2516:23.0886 2549:15.3924 2559:7.6961999 2576:7.6961999 2648:7.6961999 2652:15.3924 2689:7.6961999 2731:7.6961999 2792:7.6961999 2808:7.6961999 2811:7.6961999 2939:23.0886 3089:7.6961999 3117:15.3924 3137:7.6961999 3266:7.6961999 3285:7.6961999 3299:7.6961999 3323:7.6961999 3360:7.6961999 3489:7.6961999 3573:7.6961999 3586:7.6961999 3618:7.6961999 3712:15.3924 3750:7.6961999 3758:15.3924 3780:7.6961999 3815:7.6961999 3843:7.6961999 3864:7.6961999 3963:7.6961999 3993:15.3924 4089:7.6961999 4134:38.481098 4159:15.3924 4223:7.6961999 4258:7.6961999 4264:15.3924 4363:7.6961999 4369:15.3924 4425:7.6961999 4512:53.873501 4582:30.784901 4601:7.6961999 4615:7.6961999 4619:7.6961999 4644:7.6961999 4689:15.3924 4728:7.6961999 4743:7.6961999 4767:7.6961999 4975:7.6961999 5050:7.6961999 5051:7.6961999 5145:7.6961999 5237:7.6961999 5293:38.481098 5306:7.6961999 5354:7.6961999 # none/00000724_s01.txt
-1.3928414518120613109150585096074e-05 38:7.6961999 44:7.6961999 52:7.6961999 154:7.6961999 228:7.6961999 236:7.6961999 295:7.6961999 408:7.6961999 437:7.6961999 456:7.6961999 462:7.6961999 578:7.6961999 641:23.0886 682:30.784901 696:7.6961999 708:7.6961999 790:15.3924 795:23.0886 832:15.3924 957:15.3924 960:7.6961999 1001:15.3924 1003:7.6961999 1032:7.6961999 1041:7.6961999 1069:15.3924 1236:30.784901 1315:7.6961999 1318:30.784901 1381:38.481098 1462:7.6961999 1478:7.6961999 1504:15.3924 1514:7.6961999 1547:15.3924 1641:15.3924 1662:7.6961999 1665:7.6961999 1686:7.6961999 1716:7.6961999 1745:7.6961999 1764:7.6961999 1836:15.3924 1848:7.6961999 1881:7.6961999 1884:7.6961999 1890:7.6961999 1891:30.784901 1939:30.784901 1956:7.6961999 1969:7.6961999 2041:7.6961999 2047:7.6961999 2087:7.6961999 2092:7.6961999 2095:23.0886 2114:7.6961999 2144:7.6961999 2203:7.6961999 2280:7.6961999 2286:7.6961999 2297:7.6961999 2340:15.3924 2353:7.6961999 2359:7.6961999 2389:7.6961999 2490:7.6961999 2496:7.6961999 2504:7.6961999 2559:15.3924 2638:7.6961999 2689:7.6961999 2703:7.6961999 2757:7.6961999 2767:15.3924 2792:7.6961999 2864:15.3924 2889:7.6961999 2915:15.3924 2939:15.3924 2943:7.6961999 3019:7.6961999 3043:7.6961999 3046:7.6961999 3137:7.6961999 3206:15.3924 3208:7.6961999 3241:15.3924 3263:7.6961999 3273:30.784901 3285:7.6961999 3299:7.6961999 3319:15.3924 3433:7.6961999 3529:15.3924 3575:7.6961999 3586:7.6961999 3610:7.6961999 3636:7.6961999 3745:7.6961999 3750:15.3924 3815:7.6961999 3867:7.6961999 3881:15.3924 3993:7.6961999 4042:7.6961999 4095:7.6961999 4133:7.6961999 4134:30.784901 4142:15.3924 4159:15.3924 4162:7.6961999 4181:7.6961999 4252:15.3924 4310:7.6961999 4323:7.6961999 4343:15.3924 4354:7.6961999 4369:46.177299 4428:7.6961999 4436:7.6961999 4498:30.784901 4512:23.0886 4568:7.6961999 4578:7.6961999 4590:7.6961999 4610:23.0886 4615:7.6961999 4674:7.6961999 4678:7.6961999 4711:7.6961999 4754:7.6961999 4832:23.0886 4953:7.6961999 5047:15.3924 5080:7.6961999 5114:7.6961999 5145:7.6961999 5226:7.6961999 5237:15.3924 5273:15.3924 5293:7.6961999 5310:7.6961999 5369:7.6961999 # none/00000228_s05.txt
-3.6348611885316948946073045689786e-05 44:7.6961999 52:7.6961999 184:7.6961999 222:15.3924 238:15.3924 253:7.6961999 348:7.6961999 641:15.3924 682:15.3924 696:23.0886 790:7.6961999 795:38.481098 832:7.6961999 874:38.481098 936:7.6961999 1003:7.6961999 1041:7.6961999 1069:15.3924 1073:7.6961999 1305:15.3924 1375:7.6961999 1381:15.3924 1504:7.6961999 1514:7.6961999 1518:7.6961999 1547:7.6961999 1578:7.6961999 1629:7.6961999 1662:23.0886 1716:7.6961999 1735:7.6961999 1763:7.6961999 1767:7.6961999 1789:15.3924 1836:7.6961999 1884:7.6961999 1891:7.6961999 1902:15.3924 1939:30.784901 1956:7.6961999 1969:15.3924 2047:15.3924 2087:7.6961999 2100:15.3924 2113:7.6961999 2144:15.3924 2182:15.3924 2202:7.6961999 2280:46.177299 2322:30.784901 2340:7.6961999 2461:7.6961999 2476:7.6961999 2490:15.3924 2516:38.481098 2559:15.3924 2638:15.3924 2689:7.6961999 2734:7.6961999 2767:15.3924 2792:7.6961999 2838:7.6961999 2864:7.6961999 2880:7.6961999 2939:30.784901 2947:7.6961999 3081:7.6961999 3114:23.0886 3137:7.6961999 3222:15.3924 3241:7.6961999 3287:7.6961999 3328:15.3924 3465:15.3924 3474:7.6961999 3480:15.3924 3564:7.6961999 3586:15.3924 3617:38.481098 3686:23.0886 3710:7.6961999 3712:15.3924 3717:15.3924 3750:23.0886 3815:7.6961999 3868:7.6961999 3881:7.6961999 3942:7.6961999 3963:7.6961999 3975:15.3924 4108:7.6961999 4119:7.6961999 4134:23.0886 4158:7.6961999 4159:53.873501 4240:7.6961999 4252:7.6961999 4264:38.481098 4363:46.177299 4369:46.177299 4430:7.6961999 4438:7.6961999 4480:7.6961999 4498:15.3924 4506:15.3924 4512:30.784901 4610:7.6961999 4615:7.6961999 4621:7.6961999 4626:7.6961999 4767:7.6961999 4813:7.6961999 4832:7.6961999 5040:7.6961999 5051:7.6961999 5123:7.6961999 5145:7.6961999 5237:7.6961999 5273:7.6961999 5293:30.784901 5343:7.6961999 5364:7.6961999 5376:7.6961999 # none/00001036_s02.txt
5.0920348194398634331363923122282e-05 52:7.6961999 501:7.6961999 503:7.6961999 624:7.6961999 636:7.6961999 641:7.6961999 682:84.658302 696:15.3924 705:7.6961999 746:7.6961999 750:7.6961999 760:15.3924 827:7.6961999 901:7.6961999 904:7.6961999 936:15.3924 943:15.3924 1001:23.0886 1041:7.6961999 1073:7.6961999 1103:7.6961999 1148:7.6961999 1172:15.3924 1294:7.6961999 1315:7.6961999 1318:7.6961999 1375:23.0886 1381:46.177299 1398:15.3924 1442:7.6961999 1456:7.6961999 1462:7.6961999 1467:7.6961999 1503:7.6961999 1515:7.6961999 1547:23.0886 1562:7.6961999 1686:7.6961999 1693:23.0886 1716:7.6961999 1767:7.6961999 1772:7.6961999 1789:15.3924 1800:15.3924 1813:15.3924 1824:7.6961999 1884:7.6961999 1890:7.6961999 1891:7.6961999 1939:53.873501 1956:7.6961999 1969:7.6961999 1975:7.6961999 2015:7.6961999 2041:15.3924 2047:7.6961999 2053:15.3924 2095:7.6961999 2158:38.481098 2181:7.6961999 2182:15.3924 2286:7.6961999 2297:7.6961999 2322:30.784901 2410:7.6961999 2508:7.6961999 2516:30.784901 2559:15.3924 2576:7.6961999 2648:7.6961999 2652:7.6961999 2689:7.6961999 2690:7.6961999 2696:7.6961999 2731:7.6961999 2767:23.0886 2784:15.3924 2792:7.6961999 2818:7.6961999 2864:7.6961999 2939:30.784901 2957:7.6961999 3017:7.6961999 3078:7.6961999 3081:7.6961999 3137:15.3924 3195:7.6961999 3241:7.6961999 3273:7.6961999 3285:15.3924 3323:7.6961999 3360:15.3924 3495:7.6961999 3539:7.6961999 3573:15.3924 3610:7.6961999 3618:15.3924 3666:7.6961999 3686:7.6961999 3700:7.6961999 3712:15.3924 3717:7.6961999 3750:7.6961999 3758:53.873501 3815:7.6961999 3843:7.6961999 3881:15.3924 3963:7.6961999 3993:7.6961999 4055:15.3924 4108:7.6961999 4124:7.6961999 4134:23.0886 4142:7.6961999 4159:7.6961999 4170:7.6961999 4183:15.3924 4252:7.6961999 4264:53.873501 4324:7.6961999 4354:7.6961999 4362:7.6961999 4369:23.0886 4461:7.6961999 4512:30.784901 4516:23.0886 4523:7.6961999 4577:7.6961999 4582:7.6961999 4615:7.6961999 4689:7.6961999 4734:7.6961999 4767:7.6961999 4880:7.6961999 5050:38.481098 5058:7.6961999 5080:7.6961999 5145:7.6961999 5180:7.6961999 5237:7.6961999 5285:7.6961999 5346:7.6961999 5350:15.3924 # seizures/00000255_s03.txt
5.0920348194398634331363923122282e-05 52:7.6961999 80:7.6961999 261:15.3924 295:7.6961999 348:7.6961999 426:7.6961999 468:7.6961999 624:7.6961999 646:7.6961999 682:30.784901 746:7.6961999 770:7.6961999 912:15.3924 930:7.6961999 943:7.6961999 984:30.784901 1001:23.0886 1041:7.6961999 1048:7.6961999 1054:7.6961999 1069:7.6961999 1073:7.6961999 1092:7.6961999 1148:7.6961999 1166:7.6961999 1195:15.3924 1229:7.6961999 1309:7.6961999 1315:7.6961999 1356:7.6961999 1362:7.6961999 1381:23.0886 1393:7.6961999 1514:7.6961999 1518:15.3924 1547:7.6961999 1563:15.3924 1641:7.6961999 1654:7.6961999 1693:7.6961999 1715:7.6961999 1716:7.6961999 1723:7.6961999 1763:7.6961999 1767:7.6961999 1919:7.6961999 1939:38.481098 1956:7.6961999 1969:23.0886 1975:7.6961999 2053:15.3924 2105:7.6961999 2231:7.6961999 2280:7.6961999 2389:7.6961999 2516:15.3924 2559:7.6961999 2563:7.6961999 2574:15.3924 2576:7.6961999 2647:7.6961999 2689:7.6961999 2690:15.3924 2703:15.3924 2731:23.0886 2792:7.6961999 2864:7.6961999 3017:7.6961999 3043:7.6961999 3087:7.6961999 3095:15.3924 3137:7.6961999 3273:15.3924 3285:15.3924 3286:15.3924 3292:7.6961999 3323:23.0886 3489:23.0886 3523:7.6961999 3528:7.6961999 3539:7.6961999 3564:7.6961999 3573:7.6961999 3617:30.784901 3703:7.6961999 3710:7.6961999 3712:30.784901 3750:7.6961999 3758:15.3924 3815:7.6961999 3890:23.0886 3972:7.6961999 4058:7.6961999 4073:15.3924 4134:38.481098 4183:7.6961999 4200:7.6961999 4242:7.6961999 4264:23.0886 4354:7.6961999 4359:15.3924 4362:15.3924 4369:15.3924 4413:15.3924 4428:23.0886 4430:15.3924 4459:7.6961999 4463:7.6961999 4512:38.481098 4548:7.6961999 4550:7.6961999 4574:7.6961999 4615:7.6961999 4767:7.6961999 4789:7.6961999 4813:7.6961999 4834:7.6961999 4848:7.6961999 4952:7.6961999 5055:7.6961999 5058:7.6961999 5123:7.6961999 5145:7.6961999 5180:7.6961999 5237:23.0886 5260:7.6961999 5293:23.0886 5354:7.6961999 5376:7.6961999 # seizures/00001508_s01.txt
5.0920348194398634331363923122282e-05 52:7.6961999 101:7.6961999 319:7.6961999 324:7.6961999 325:7.6961999 331:7.6961999 495:7.6961999 577:7.6961999 682:7.6961999 700:15.3924 722:7.6961999 723:7.6961999 770:15.3924 874:7.6961999 884:7.6961999 900:7.6961999 953:7.6961999 1019:7.6961999 1032:7.6961999 1038:7.6961999 1151:7.6961999 1195:7.6961999 1315:7.6961999 1318:7.6961999 1375:7.6961999 1381:30.784901 1462:7.6961999 1514:15.3924 1547:7.6961999 1637:7.6961999 1638:7.6961999 1641:7.6961999 1686:7.6961999 1716:7.6961999 1728:23.0886 1746:7.6961999 1762:15.3924 1763:7.6961999 1884:15.3924 1939:23.0886 1956:7.6961999 1969:38.481098 2041:7.6961999 2047:15.3924 2134:7.6961999 2280:7.6961999 2433:7.6961999 2490:7.6961999 2496:7.6961999 2549:7.6961999 2559:7.6961999 2652:7.6961999 2689:7.6961999 2696:7.6961999 2748:15.3924 2762:15.3924 2792:7.6961999 2828:15.3924 2864:7.6961999 2971:7.6961999 3010:15.3924 3078:7.6961999 3130:7.6961999 3137:7.6961999 3241:7.6961999 3273:15.3924 3298:15.3924 3489:7.6961999 3522:7.6961999 3556:7.6961999 3573:15.3924 3581:7.6961999 3697:7.6961999 3699:7.6961999 3703:7.6961999 3712:30.784901 3745:7.6961999 3750:7.6961999 3815:7.6961999 3943:7.6961999 3946:7.6961999 3949:7.6961999 3958:7.6961999 3971:7.6961999 3993:7.6961999 4066:7.6961999 4095:7.6961999 4134:15.3924 4159:7.6961999 4176:7.6961999 4183:7.6961999 4204:7.6961999 4253:7.6961999 4264:15.3924 4332:7.6961999 4359:15.3924 4363:7.6961999 4369:84.658302 4383:7.6961999 4428:15.3924 4455:7.6961999 4498:7.6961999 4580:7.6961999 4582:30.784901 4590:7.6961999 4615:7.6961999 4678:7.6961999 4684:15.3924 4741:7.6961999 4767:7.6961999 4813:15.3924 4825:7.6961999 4832:7.6961999 4906:7.6961999 4927:7.6961999 4958:7.6961999 5008:7.6961999 5015:15.3924 5098:15.3924 5105:7.6961999 5145:7.6961999 5220:7.6961999 5226:7.6961999 5237:23.0886 5293:23.0886 5365:7.6961999 # seizures/00000544_s09.txt
5.0920348194398634331363923122282e-05 52:7.6961999 170:7.6961999 298:7.6961999 353:7.6961999 371:7.6961999 422:7.6961999 612:7.6961999 641:15.3924 682:7.6961999 696:23.0886 707:7.6961999 770:7.6961999 832:15.3924 842:7.6961999 855:7.6961999 874:15.3924 898:7.6961999 903:7.6961999 1001:30.784901 1045:15.3924 1048:7.6961999 1063:7.6961999 1069:7.6961999 1148:7.6961999 1166:7.6961999 1185:7.6961999 1195:23.0886 1314:15.3924 1315:7.6961999 1375:7.6961999 1381:30.784901 1398:7.6961999 1492:15.3924 1514:7.6961999 1532:7.6961999 1547:15.3924 1590:7.6961999 1686:7.6961999 1716:7.6961999 1731:7.6961999 1762:7.6961999 1767:7.6961999 1789:7.6961999 1807:7.6961999 1884:7.6961999 1939:46.177299 1956:7.6961999 1969:7.6961999 1975:15.3924 2044:7.6961999 2094:7.6961999 2105:7.6961999 2286:7.6961999 2298:7.6961999 2393:7.6961999 2490:7.6961999 2496:7.6961999 2516:7.6961999 2559:7.6961999 2647:7.6961999 2648:7.6961999 2689:7.6961999 2696:7.6961999 2711:7.6961999 2731:7.6961999 2753:7.6961999 2792:7.6961999 2864:7.6961999 2884:7.6961999 2939:23.0886 2997:7.6961999 3010:7.6961999 3024:7.6961999 3081:7.6961999 3098:23.0886 3117:7.6961999 3137:7.6961999 3144:7.6961999 3163:7.6961999 3285:7.6961999 3290:7.6961999 3297:7.6961999 3298:7.6961999 3489:46.177299 3523:7.6961999 3528:7.6961999 3573:15.3924 3580:7.6961999 3595:7.6961999 3712:46.177299 3717:15.3924 3750:15.3924 3815:7.6961999 3856:7.6961999 3958:7.6961999 3993:15.3924 4095:7.6961999 4117:7.6961999 4125:7.6961999 4134:46.177299 4159:23.0886 4200:7.6961999 4264:46.177299 4369:46.177299 4425:7.6961999 4428:46.177299 4459:7.6961999 4463:7.6961999 4512:7.6961999 4582:15.3924 4615:7.6961999 4626:15.3924 4756:7.6961999 4767:7.6961999 4832:53.873501 4854:7.6961999 4880:15.3924 4907:7.6961999 4953:7.6961999 4975:7.6961999 5040:7.6961999 5128:7.6961999 5145:7.6961999 5220:7.6961999 5237:15.3924 5245:7.6961999 5293:46.177299 5310:7.6961999 5319:7.6961999 5350:7.6961999 # seizures/00000976_s01.txt
-2.8161544908655104091496287899155e-05 12:7.6961999 17:30.784901 21:7.6961999 22:15.3924 24:38.481098 33:15.3924 44:30.784901 52:7.6961999 133:7.6961999 146:7.6961999 159:46.177299 228:15.3924 254:15.3924 292:15.3924 301:23.0886 307:15.3924 319:15.3924 348:7.6961999 378:7.6961999 380:15.3924 384:15.3924 401:7.6961999 407:38.481098 417:7.6961999 422:7.6961999 426:7.6961999 453:7.6961999 478:15.3924 495:7.6961999 641:7.6961999 682:61.569698 709:7.6961999 723:7.6961999 770:7.6961999 795:15.3924 827:15.3924 832:7.6961999 874:46.177299 903:23.0886 912:23.0886 930:15.3924 961:7.6961999 975:23.0886 987:7.6961999 998:15.3924 1001:69.2659 1038:7.6961999 1044:7.6961999 1048:15.3924 1138:15.3924 1148:15.3924 1187:7.6961999 1228:7.6961999 1239:7.6961999 1314:7.6961999 1315:15.3924 1375:7.6961999 1376:7.6961999 1381:38.481098 1442:23.0886 1455:7.6961999 1456:7.6961999 1462:38.481098 1474:7.6961999 1478:7.6961999 1514:30.784901 1547:23.0886 1585:7.6961999 1637:7.6961999 1641:7.6961999 1662:15.3924 1665:7.6961999 1673:7.6961999 1686:38.481098 1693:76.962097 1716:15.3924 1727:7.6961999 1728:7.6961999 1746:7.6961999 1772:7.6961999 1798:7.6961999 1876:7.6961999 1881:15.3924 1884:7.6961999 1891:38.481098 1939:69.2659 1949:7.6961999 1956:38.481098 1969:30.784901 1983:7.6961999 1994:7.6961999 2003:7.6961999 2015:7.6961999 2027:7.6961999 2041:7.6961999 2047:23.0886 2094:7.6961999 2098:7.6961999 2104:7.6961999 2142:7.6961999 2161:7.6961999 2172:23.0886 2189:7.6961999 2230:7.6961999 2239:7.6961999 2280:38.481098 2286:7.6961999 2307:7.6961999 2322:7.6961999 2340:7.6961999 2366:7.6961999 2423:7.6961999 2430:7.6961999 2472:7.6961999 2476:7.6961999 2494:7.6961999 2516:7.6961999 2538:7.6961999 2549:15.3924 2559:15.3924 2574:15.3924 2576:15.3924 2607:7.6961999 2613:7.6961999 2614:7.6961999 2638:7.6961999 2647:15.3924 2652:15.3924 2659:7.6961999 2689:15.3924 2690:7.6961999 2696:61.569698 2700:7.6961999 2711:15.3924 2753:7.6961999 2767:15.3924 2792:15.3924 2843:7.6961999 2853:15.3924 2856:7.6961999 2917:7.6961999 2919:7.6961999 2939:92.354599 2971:7.6961999 2986:7.6961999 3008:7.6961999 3017:7.6961999 3019:15.3924 3034:7.6961999 3048:7.6961999 3071:7.6961999 3086:7.6961999 3090:7.6961999 3117:7.6961999 3137:7.6961999 3154:15.3924 3262:7.6961999 3273:38.481098 3285:15.3924 3290:15.3924 3298:15.3924 3299:7.6961999 3302:7.6961999 3309:30.784901 3360:7.6961999 3438:7.6961999 3491:7.6961999 3507:38.481098 3520:76.962097 3528:15.3924 3529:7.6961999 3539:30.784901 3565:7.6961999 3573:23.0886 3583:7.6961999 3595:15.3924 3617:7.6961999 3618:7.6961999 3697:7.6961999 3699:30.784901 3712:146.228 3717:23.0886 3750:15.3924 3786:15.3924 3814:7.6961999 3815:15.3924 3864:46.177299 3867:7.6961999 3885:15.3924 3953:7.6961999 3958:7.6961999 3968:7.6961999 3987:7.6961999 3993:15.3924 4043:7.6961999 4066:7.6961999 4087:15.3924 4130:15.3924 4134:123.1394 4153:7.6961999 4159:46.177299 4170:7.6961999 4200:30.784901 4206:7.6961999 4224:7.6961999 4238:7.6961999 4242:30.784901 4253:46.177299 4264:15.3924 4293:30.784901 4324:7.6961999 4359:30.784901 4362:30.784901 4363:23.0886 4369:177.01289 4391:15.3924 4428:69.2659 4455:7.6961999 4484:15.3924 4498:76.962097 4506:7.6961999 4512:92.354599 4519:7.6961999 4544:7.6961999 4548:7.6961999 4559:7.6961999 4571:15.3924 4576:7.6961999 4579:7.6961999 4582:30.784901 4590:7.6961999 4601:7.6961999 4610:15.3924 4615:15.3924 4619:15.3924 4654:7.6961999 4695:7.6961999 4767:15.3924 4782:7.6961999 4791:15.3924 4809:7.6961999 4811:15.3924 4824:7.6961999 4829:7.6961999 4832:92.354599 4848:7.6961999 4854:7.6961999 4880:30.784901 4927:61.569698 4934:15.3924 4980:7.6961999 4988:15.3924 4999:23.0886 5051:7.6961999 5105:7.6961999 5123:7.6961999 5128:7.6961999 5145:23.0886 5226:7.6961999 5237:30.784901 5258:15.3924 5273:46.177299 5293:92.354599 5310:30.784901 5311:7.6961999 5315:23.0886 5323:7.6961999 5350:15.3924 5354:7.6961999 5367:7.6961999 # none/00000303_s02.txt
5.0920348194398634331363923122282e-05 33:15.3924 52:7.6961999 79:7.6961999 109:7.6961999 123:7.6961999 262:7.6961999 351:7.6961999 512:7.6961999 641:23.0886 682:15.3924 735:7.6961999 882:7.6961999 903:15.3924 912:23.0886 943:7.6961999 957:7.6961999 1001:23.0886 1019:7.6961999 1041:7.6961999 1046:7.6961999 1138:7.6961999 1148:7.6961999 1245:7.6961999 1315:7.6961999 1381:23.0886 1438:7.6961999 1547:7.6961999 1686:7.6961999 1693:15.3924 1700:7.6961999 1716:7.6961999 1767:7.6961999 1845:7.6961999 1884:7.6961999 1939:38.481098 1956:7.6961999 1969:15.3924 1975:7.6961999 1994:7.6961999 2047:7.6961999 2104:7.6961999 2158:15.3924 2224:7.6961999 2286:7.6961999 2322:7.6961999 2496:7.6961999 2559:7.6961999 2628:7.6961999 2648:7.6961999 2689:7.6961999 2731:15.3924 2767:15.3924 2792:7.6961999 2795:7.6961999 2808:7.6961999 2843:15.3924 2915:7.6961999 2939:15.3924 3010:7.6961999 3019:7.6961999 3043:7.6961999 3098:15.3924 3137:7.6961999 3273:7.6961999 3286:7.6961999 3319:7.6961999 3323:23.0886 3479:7.6961999 3495:7.6961999 3712:15.3924 3717:23.0886 3750:7.6961999 3815:7.6961999 3868:7.6961999 3978:7.6961999 3991:7.6961999 4095:7.6961999 4134:15.3924 4142:7.6961999 4299:7.6961999 4332:7.6961999 4354:7.6961999 4369:15.3924 4428:7.6961999 4463:7.6961999 4582:7.6961999 4615:7.6961999 4626:7.6961999 4644:7.6961999 4670:7.6961999 4678:7.6961999 4730:23.0886 4767:7.6961999 4787:7.6961999 4873:7.6961999 5050:15.3924 5084:7.6961999 5145:7.6961999 5221:7.6961999 5237:15.3924 5260:7.6961999 5293:7.6961999 5354:7.6961999 # seizures/00001734_s03.txt
5.0920348194398634331363923122282e-05 52:7.6961999 495:7.6961999 537:7.6961999 641:7.6961999 682:23.0886 696:7.6961999 732:7.6961999 842:7.6961999 892:7.6961999 912:7.6961999 936:7.6961999 1001:7.6961999 1069:7.6961999 1103:30.784901 1148:7.6961999 1195:15.3924 1305:7.6961999 1313:7.6961999 1315:7.6961999 1381:15.3924 1443:7.6961999 1518:15.3924 1534:7.6961999 1547:7.6961999 1686:15.3924 1716:7.6961999 1764:7.6961999 1767:7.6961999 1772:7.6961999 1825:7.6961999 1869:7.6961999 1884:7.6961999 1939:38.481098 1956:15.3924 1969:7.6961999 2047:7.6961999 2144:7.6961999 2189:15.3924 2280:15.3924 2286:15.3924 2329:30.784901 2353:7.6961999 2389:15.3924 2559:7.6961999 2576:7.6961999 2689:7.6961999 2696:7.6961999 2725:7.6961999 2792:7.6961999 2808:7.6961999 2884:7.6961999 2939:30.784901 2997:23.0886 3010:7.6961999 3046:7.6961999 3081:7.6961999 3137:7.6961999 3285:30.784901 3299:7.6961999 3370:7.6961999 3489:15.3924 3564:7.6961999 3696:7.6961999 3712:30.784901 3717:7.6961999 3750:7.6961999 3752:7.6961999 3765:7.6961999 3789:7.6961999 3815:7.6961999 3868:7.6961999 3892:7.6961999 4066:7.6961999 4089:7.6961999 4134:15.3924 4159:7.6961999 4224:7.6961999 4253:23.0886 4264:15.3924 4369:15.3924 4428:15.3924 4430:15.3924 4498:15.3924 4512:7.6961999 4550:7.6961999 4615:7.6961999 4626:7.6961999 4644:7.6961999 4711:7.6961999 4728:7.6961999 4741:7.6961999 4767:7.6961999 4880:23.0886 4953:7.6961999 5119:7.6961999 5128:7.6961999 5145:7.6961999 5226:7.6961999 5237:7.6961999 5293:23.0886 5376:7.6961999 # seizures/00010766_s01.txt
5.0920348194398634331363923122282e-05 44:7.6961999 101:7.6961999 228:7.6961999 424:7.6961999 641:7.6961999 654:7.6961999 665:7.6961999 682:7.6961999 696:23.0886 746:7.6961999 795:23.0886 832:7.6961999 861:7.6961999 890:7.6961999 1001:7.6961999 1005:7.6961999 1019:30.784901 1041:7.6961999 1083:7.6961999 1172:30.784901 1236:15.3924 1294:7.6961999 1305:7.6961999 1314:7.6961999 1381:7.6961999 1462:7.6961999 1478:7.6961999 1504:7.6961999 1514:15.3924 1686:7.6961999 1693:7.6961999 1716:7.6961999 1764:23.0886 1772:7.6961999 1789:7.6961999 1802:7.6961999 1836:7.6961999 1884:7.6961999 1902:7.6961999 1939:7.6961999 1956:15.3924 1969:23.0886 1973:7.6961999 1975:23.0886 2047:7.6961999 2048:7.6961999 2087:15.3924 2166:7.6961999 2232:15.3924 2322:7.6961999 2323:7.6961999 2389:15.3924 2440:7.6961999 2549:7.6961999 2559:15.3924 2574:15.3924 2617:7.6961999 2689:7.6961999 2703:7.6961999 2710:7.6961999 2792:7.6961999 2896:7.6961999 2930:15.3924 2944:7.6961999 2999:7.6961999 3043:7.6961999 3086:7.6961999 3137:7.6961999 3159:7.6961999 3163:7.6961999 3190:7.6961999 3241:7.6961999 3254:7.6961999 3263:23.0886 3288:23.0886 3411:7.6961999 3474:7.6961999 3480:7.6961999 3489:7.6961999 3520:15.3924 3529:30.784901 3581:7.6961999 3617:23.0886 3712:23.0886 3750:23.0886 3758:7.6961999 3776:15.3924 3789:7.6961999 3881:15.3924 3892:7.6961999 3931:7.6961999 3942:7.6961999 3994:15.3924 4008:7.6961999 4053:7.6961999 4069:7.6961999 4134:23.0886 4159:7.6961999 4193:7.6961999 4206:15.3924 4241:15.3924 4252:7.6961999 4369:30.784901 4428:30.784901 4477:15.3924 4482:7.6961999 4498:7.6961999 4512:15.3924 4615:7.6961999 4626:7.6961999 4644:7.6961999 4670:7.6961999 4767:7.6961999 4782:7.6961999 4880:7.6961999 4971:7.6961999 5020:38.481098 5027:15.3924 5075:7.6961999 5293:30.784901 5294:46.177299 # seizures/00004507_s02.txt
-6.1847584016502704073992534306026e-06 9:30.784901 12:30.784901 22:30.784901 33:7.6961999 44:15.3924 52:7.6961999 101:15.3924 102:7.6961999 109:7.6961999 146:7.6961999 261:23.0886 331:7.6961999 348:7.6961999 558:7.6961999 682:61.569698 721:15.3924 770:7.6961999 842:7.6961999 882:15.3924 900:7.6961999 912:30.784901 1020:7.6961999 1041:7.6961999 1044:7.6961999 1069:7.6961999 1092:15.3924 1103:7.6961999 1148:7.6961999 1166:15.3924 1195:115.4432 1305:15.3924 1314:7.6961999 1381:15.3924 1409:15.3924 1437:23.0886 1441:7.6961999 1456:7.6961999 1514:30.784901 1518:15.3924 1547:7.6961999 1577:15.3924 1693:23.0886 1715:7.6961999 1716:15.3924 1767:7.6961999 1795:7.6961999 1884:7.6961999 1890:15.3924 1939:100.0508 1969:23.0886 2028:7.6961999 2094:7.6961999 2128:7.6961999 2181:7.6961999 2182:7.6961999 2286:7.6961999 2312:15.3924 2329:7.6961999 2490:7.6961999 2516:7.6961999 2559:7.6961999 2576:7.6961999 2619:7.6961999 2638:15.3924 2646:7.6961999 2689:7.6961999 2696:7.6961999 2703:15.3924 2726:7.6961999 2731:38.481098 2745:7.6961999 2748:7.6961999 2767:7.6961999 2770:7.6961999 2792:7.6961999 2838:30.784901 2915:7.6961999 2939:23.0886 2948:7.6961999 2997:7.6961999 3017:7.6961999 3043:7.6961999 3048:7.6961999 3081:7.6961999 3098:23.0886 3137:7.6961999 3241:30.784901 3253:23.0886 3267:7.6961999 3273:23.0886 3285:30.784901 3299:7.6961999 3323:7.6961999 3465:7.6961999 3489:7.6961999 3520:7.6961999 3529:7.6961999 3564:7.6961999 3573:7.6961999 3696:7.6961999 3703:7.6961999 3712:7.6961999 3717:76.962097 3741:38.481098 3745:15.3924 3750:7.6961999 3758:15.3924 3775:7.6961999 3815:7.6961999 3840:15.3924 3868:7.6961999 3914:7.6961999 3953:7.6961999 3977:7.6961999 3993:7.6961999 4073:15.3924 4095:7.6961999 4117:7.6961999 4118:7.6961999 4134:38.481098 4141:7.6961999 4181:15.3924 4264:7.6961999 4354:30.784901 4359:15.3924 4360:7.6961999 4363:7.6961999 4369:15.3924 4421:23.0886 4428:7.6961999 4430:15.3924 4516:7.6961999 4548:15.3924 4619:7.6961999 4626:7.6961999 4698:7.6961999 4730:146.228 4743:7.6961999 4767:7.6961999 4848:7.6961999 4880:7.6961999 4882:15.3924 4906:15.3924 4927:7.6961999 4988:7.6961999 4994:7.6961999 5051:7.6961999 5058:7.6961999 5098:7.6961999 5123:7.6961999 5145:7.6961999 5237:7.6961999 5260:7.6961999 5293:7.6961999 5348:7.6961999 5376:7.6961999 # none/00000901_s02.txt
-1.0825782680746106885309731904243e-05 52:7.6961999 307:7.6961999 416:7.6961999 604:7.6961999 641:15.3924 682:15.3924 696:7.6961999 742:15.3924 830:15.3924 832:7.6961999 874:7.6961999 984:30.784901 1034:7.6961999 1038:7.6961999 1069:7.6961999 1227:7.6961999 1294:7.6961999 1338:7.6961999 1381:15.3924 1445:23.0886 1504:7.6961999 1514:23.0886 1547:15.3924 1588:15.3924 1665:7.6961999 1672:7.6961999 1716:7.6961999 1727:15.3924 1745:7.6961999 1763:7.6961999 1767:7.6961999 1789:15.3924 1833:7.6961999 1836:7.6961999 1891:30.784901 1939:53.873501 1956:7.6961999 1969:15.3924 2015:7.6961999 2028:7.6961999 2047:7.6961999 2052:7.6961999 2095:61.569698 2144:7.6961999 2231:7.6961999 2232:7.6961999 2329:7.6961999 2559:15.3924 2638:7.6961999 2659:7.6961999 2689:7.6961999 2792:7.6961999 2864:7.6961999 2897:7.6961999 2930:7.6961999 3137:7.6961999 3241:7.6961999 3286:7.6961999 3292:7.6961999 3465:23.0886 3466:7.6961999 3480:30.784901 3495:15.3924 3507:7.6961999 3586:15.3924 3712:53.873501 3750:23.0886 3815:7.6961999 3881:7.6961999 3944:7.6961999 3975:15.3924 4027:7.6961999 4105:7.6961999 4108:7.6961999 4119:7.6961999 4134:30.784901 4142:7.6961999 4181:7.6961999 4242:7.6961999 4252:7.6961999 4363:7.6961999 4369:53.873501 4477:7.6961999 4498:30.784901 4512:7.6961999 4536:7.6961999 4582:7.6961999 4610:23.0886 4615:7.6961999 4619:7.6961999 4664:7.6961999 4678:7.6961999 4704:7.6961999 4767:7.6961999 4813:7.6961999 4832:7.6961999 4854:15.3924 4983:7.6961999 5114:30.784901 5128:7.6961999 5145:15.3924 5219:7.6961999 5237:7.6961999 5273:7.6961999 5293:7.6961999 5310:15.3924 5354:7.6961999 # none/00000293_s06.txt
-1.0480583857872417113954455203384e-05 16:7.6961999 52:7.6961999 222:23.0886 234:7.6961999 236:7.6961999 240:7.6961999 261:7.6961999 275:7.6961999 301:7.6961999 331:7.6961999 641:15.3924 682:15.3924 696:15.3924 795:23.0886 832:7.6961999 890:7.6961999 927:7.6961999 930:7.6961999 1001:7.6961999 1133:7.6961999 1154:15.3924 1294:15.3924 1303:15.3924 1314:15.3924 1375:7.6961999 1381:15.3924 1504:7.6961999 1514:15.3924 1527:7.6961999 1547:7.6961999 1580:7.6961999 1659:7.6961999 1716:7.6961999 1763:7.6961999 1764:23.0886 1767:7.6961999 1789:15.3924 1836:7.6961999 1862:7.6961999 1884:7.6961999 1891:7.6961999 1902:15.3924 1939:23.0886 1956:7.6961999 1969:15.3924 2047:7.6961999 2100:15.3924 2136:7.6961999 2250:7.6961999 2280:15.3924 2329:7.6961999 2342:7.6961999 2389:15.3924 2516:15.3924 2559:7.6961999 2638:30.784901 2689:7.6961999 2734:15.3924 2767:7.6961999 2792:7.6961999 2864:7.6961999 2880:15.3924 2930:7.6961999 2939:30.784901 2951:7.6961999 3081:7.6961999 3137:7.6961999 3163:15.3924 3206:23.0886 3465:15.3924 3480:7.6961999 3564:7.6961999 3586:7.6961999 3617:7.6961999 3712:7.6961999 3750:23.0886 3789:15.3924 3814:7.6961999 3815:7.6961999 3868:7.6961999 3881:7.6961999 3942:7.6961999 3975:15.3924 4105:7.6961999 4119:7.6961999 4134:23.0886 4159:7.6961999 4240:7.6961999 4252:7.6961999 4264:30.784901 4361:7.6961999 4363:30.784901 4369:23.0886 4463:7.6961999 4477:7.6961999 4498:7.6961999 4512:61.569698 4574:7.6961999 4615:7.6961999 4626:23.0886 4678:7.6961999 4767:7.6961999 4813:7.6961999 4832:23.0886 5145:7.6961999 5213:7.6961999 5220:7.6961999 5237:7.6961999 5293:23.0886 5310:15.3924 5350:7.6961999 5376:7.6961999 # none/00000901_s10.txt
-5.0920348194398634331363923122282e-05 9:7.6961999 52:7.6961999 80:7.6961999 94:7.6961999 418:7.6961999 422:7.6961999 434:7.6961999 641:7.6961999 682:46.177299 696:15.3924 782:7.6961999 828:23.0886 903:7.6961999 912:7.6961999 928:7.6961999 930:7.6961999 943:15.3924 957:7.6961999 1001:15.3924 1041:7.6961999 1148:7.6961999 1166:7.6961999 1195:46.177299 1258:7.6961999 1315:7.6961999 1381:23.0886 1413:7.6961999 1438:7.6961999 1514:7.6961999 1547:15.3924 1641:7.6961999 1693:7.6961999 1700:15.3924 1716:15.3924 1762:7.6961999 1764:7.6961999 1767:7.6961999 1795:30.784901 1845:7.6961999 1871:7.6961999 1884:7.6961999 1939:69.2659 1956:7.6961999 1969:7.6961999 2047:7.6961999 2105:7.6961999 2133:7.6961999 2158:23.0886 2181:46.177299 2209:7.6961999 2232:7.6961999 2286:30.784901 2559:7.6961999 2576:15.3924 2679:7.6961999 2689:15.3924 2727:7.6961999 2745:15.3924 2767:15.3924 2792:7.6961999 2795:7.6961999 2831:15.3924 2853:7.6961999 2960:7.6961999 2969:7.6961999 3081:7.6961999 3098:7.6961999 3137:7.6961999 3323:15.3924 3341:7.6961999 3489:15.3924 3495:7.6961999 3529:15.3924 3564:7.6961999 3712:23.0886 3717:30.784901 3730:7.6961999 3750:23.0886 3815:7.6961999 3868:15.3924 3869:7.6961999 3984:7.6961999 4093:7.6961999 4124:7.6961999 4134:46.177299 4183:7.6961999 4223:7.6961999 4242:7.6961999 4324:7.6961999 4363:15.3924 4369:15.3924 4517:7.6961999 4549:15.3924 4599:7.6961999 4615:7.6961999 4626:7.6961999 4654:7.6961999 4767:7.6961999 4874:7.6961999 5050:23.0886 5051:7.6961999 5123:7.6961999 5145:7.6961999 5152:7.6961999 5176:7.6961999 5237:7.6961999 5361:15.3924 5376:7.6961999 5407:7.6961999 # none/00002867_s02.txt
5.0920348194398634331363923122282e-05 52:7.6961999 101:7.6961999 146:7.6961999 184:7.6961999 222:7.6961999 234:7.6961999 266:7.6961999 292:7.6961999 341:7.6961999 384:7.6961999 455:7.6961999 495:7.6961999 641:15.3924 682:15.3924 690:7.6961999 696:15.3924 733:7.6961999 745:7.6961999 783:7.6961999 795:7.6961999 803:7.6961999 832:7.6961999 874:15.3924 890:7.6961999 912:7.6961999 943:7.6961999 998:7.6961999 1001:23.0886 1034:7.6961999 1044:7.6961999 1069:7.6961999 1087:23.0886 1149:7.6961999 1229:7.6961999 1294:7.6961999 1305:15.3924 1314:7.6961999 1343:7.6961999 1344:7.6961999 1375:23.0886 1381:23.0886 1413:23.0886 1504:23.0886 1514:15.3924 1547:15.3924 1569:7.6961999 1620:7.6961999 1686:7.6961999 1715:7.6961999 1716:7.6961999 1763:7.6961999 1764:30.784901 1789:15.3924 1797:7.6961999 1801:7.6961999 1836:7.6961999 1884:7.6961999 1902:15.3924 1908:7.6961999 1939:38.481098 1956:7.6961999 1969:23.0886 1975:30.784901 1999:7.6961999 2087:7.6961999 2100:7.6961999 2232:7.6961999 2280:15.3924 2322:7.6961999 2323:7.6961999 2329:30.784901 2340:7.6961999 2389:15.3924 2430:15.3924 2559:7.6961999 2632:7.6961999 2638:23.0886 2689:7.6961999 2734:7.6961999 2744:7.6961999 2792:7.6961999 2880:7.6961999 2919:7.6961999 2930:7.6961999 3019:7.6961999 3072:7.6961999 3075:7.6961999 3101:7.6961999 3114:23.0886 3137:7.6961999 3163:7.6961999 3206:7.6961999 3241:15.3924 3273:7.6961999 3474:7.6961999 3480:7.6961999 3581:7.6961999 3586:7.6961999 3618:7.6961999 3633:7.6961999 3712:15.3924 3717:15.3924 3750:23.0886 3814:7.6961999 3815:7.6961999 3840:7.6961999 3868:7.6961999 3881:7.6961999 3925:23.0886 3975:15.3924 3988:7.6961999 4008:7.6961999 4119:7.6961999 4124:7.6961999 4134:53.873501 4158:7.6961999 4159:23.0886 4170:7.6961999 4191:7.6961999 4225:7.6961999 4240:7.6961999 4252:7.6961999 4253:7.6961999 4299:7.6961999 4363:30.784901 4369:38.481098 4428:23.0886 4477:7.6961999 4498:7.6961999 4512:61.569698 4533:7.6961999 4548:7.6961999 4615:7.6961999 4619:7.6961999 4626:15.3924 4654:15.3924 4678:7.6961999 4708:7.6961999 4736:7.6961999 4767:7.6961999 4809:7.6961999 4813:7.6961999 4832:7.6961999 4907:15.3924 4913:7.6961999 4927:15.3924 5055:7.6961999 5114:15.3924 5123:7.6961999 5145:7.6961999 5176:7.6961999 5255:7.6961999 5293:23.0886 5310:15.3924 5350:7.6961999 5354:7.6961999 5376:7.6961999 5400:7.6961999 5407:7.6961999 # seizures/00000691_s01.txt
9.4111644128502015555891996312354e-06 28:7.6961999 33:7.6961999 44:7.6961999 52:23.0886 80:7.6961999 103:7.6961999 123:7.6961999 245:7.6961999 253:15.3924 275:115.4432 286:84.658302 292:7.6961999 348:7.6961999 359:30.784901 363:30.784901 366:15.3924 368:15.3924 371:7.6961999 375:7.6961999 380:30.784901 384:7.6961999 401:7.6961999 407:7.6961999 413:7.6961999 415:7.6961999 422:7.6961999 449:7.6961999 478:7.6961999 495:7.6961999 579:7.6961999 682:38.481098 750:15.3924 760:7.6961999 768:7.6961999 770:30.784901 795:23.0886 835:30.784901 882:7.6961999 893:7.6961999 898:38.481098 901:30.784901 912:76.962097 920:7.6961999 930:23.0886 936:7.6961999 957:7.6961999 975:30.784901 984:46.177299 987:15.3924 998:7.6961999 1001:15.3924 1041:7.6961999 1044:7.6961999 1046:38.481098 1048:30.784901 1067:7.6961999 1103:7.6961999 1122:7.6961999 1148:7.6961999 1198:7.6961999 1253:7.6961999 1294:7.6961999 1314:7.6961999 1315:23.0886 1318:23.0886 1325:7.6961999 1331:7.6961999 1375:23.0886 1381:23.0886 1442:7.6961999 1462:38.481098 1514:30.784901 1533:15.3924 1547:23.0886 1564:15.3924 1637:7.6961999 1641:7.6961999 1647:23.0886 1673:15.3924 1682:7.6961999 1686:30.784901 1693:7.6961999 1715:7.6961999 1716:15.3924 1723:23.0886 1772:7.6961999 1789:15.3924 1816:7.6961999 1835:30.784901 1836:7.6961999 1853:7.6961999 1869:7.6961999 1881:30.784901 1890:7.6961999 1891:30.784901 1912:7.6961999 1919:15.3924 1920:7.6961999 1939:92.354599 1944:7.6961999 1956:23.0886 1969:23.0886 1975:7.6961999 1987:7.6961999 2015:15.3924 2027:7.6961999 2041:7.6961999 2047:23.0886 2094:15.3924 2095:23.0886 2105:15.3924 2144:23.0886 2158:15.3924 2189:7.6961999 2197:15.3924 2224:7.6961999 2230:30.784901 2239:7.6961999 2245:7.6961999 2250:76.962097 2274:7.6961999 2280:7.6961999 2286:30.784901 2301:7.6961999 2313:7.6961999 2322:7.6961999 2340:30.784901 2389:7.6961999 2393:7.6961999 2448:23.0886 2476:7.6961999 2496:7.6961999 2525:7.6961999 2538:23.0886 2549:30.784901 2559:7.6961999 2573:7.6961999 2574:15.3924 2576:7.6961999 2638:23.0886 2652:38.481098 2659:23.0886 2674:7.6961999 2680:15.3924 2689:7.6961999 2696:23.0886 2703:15.3924 2711:7.6961999 2731:15.3924 2749:7.6961999 2762:7.6961999 2770:7.6961999 2792:23.0886 2818:7.6961999 2900:7.6961999 2917:7.6961999 2919:15.3924 2939:115.4432 2997:7.6961999 3019:15.3924 3024:38.481098 3077:7.6961999 3117:7.6961999 3126:7.6961999 3137:7.6961999 3238:7.6961999 3241:15.3924 3273:38.481098 3285:15.3924 3286:7.6961999 3292:15.3924 3299:61.569698 3427:7.6961999 3440:7.6961999 3488:7.6961999 3489:15.3924 3507:23.0886 3519:7.6961999 3520:7.6961999 3562:7.6961999 3573:53.873501 3581:7.6961999 3590:7.6961999 3591:15.3924 3610:7.6961999 3617:38.481098 3618:7.6961999 3651:7.6961999 3703:7.6961999 3712:107.747 3717:23.0886 3750:23.0886 3752:7.6961999 3758:7.6961999 3800:15.3924 3815:23.0886 3840:15.3924 3864:7.6961999 3867:7.6961999 3881:7.6961999 3885:7.6961999 3890:7.6961999 3945:7.6961999 3958:7.6961999 3963:15.3924 3978:7.6961999 4042:7.6961999 4043:7.6961999 4083:7.6961999 4086:7.6961999 4087:15.3924 4093:7.6961999 4095:15.3924 4105:7.6961999 4120:7.6961999 4123:15.3924 4125:7.6961999 4134:61.569698 4159:38.481098 4170:7.6961999 4181:7.6961999 4183:7.6961999 4204:15.3924 4223:7.6961999 4242:30.784901 4252:7.6961999 4253:15.3924 4264:23.0886 4324:7.6961999 4325:7.6961999 4354:7.6961999 4359:15.3924 4361:7.6961999 4362:76.962097 4363:61.569698 4369:177.01289 4398:15.3924 4428:15.3924 4455:38.481098 4461:15.3924 4463:7.6961999 4468:7.6961999 4487:7.6961999 4497:15.3924 4498:76.962097 4512:30.784901 4543:7.6961999 4582:76.962097 4590:15.3924 4601:7.6961999 4610:23.0886 4615:23.0886 4619:15.3924 4701:23.0886 4711:15.3924 4756:7.6961999 4767:23.0886 4782:15.3924 4789:15.3924 4830:7.6961999 4832:38.481098 4838:7.6961999 4848:7.6961999 4906:7.6961999 4927:46.177299 4959:7.6961999 4988:23.0886 5051:23.0886 5080:7.6961999 5105:15.3924 5125:7.6961999 5128:15.3924 5145:38.481098 5220:7.6961999 5226:15.3924 5237:46.177299 5243:7.6961999 5273:46.177299 5274:7.6961999 5293:61.569698 5298:7.6961999 5310:15.3924 5315:7.6961999 5354:7.6961999 5380:7.6961999 # seizures/00004557_s02.txt
-5.0920348194398634331363923122282e-05 9:7.6961999 15:7.6961999 16:23.0886 17:7.6961999 21:7.6961999 33:7.6961999 44:46.177299 52:15.3924 60:7.6961999 80:46.177299 101:38.481098 109:7.6961999 146:7.6961999 159:7.6961999 171:7.6961999 184:15.3924 221:23.0886 227:7.6961999 261:38.481098 266:7.6961999 276:7.6961999 277:7.6961999 285:15.3924 286:30.784901 291:38.481098 292:30.784901 300:15.3924 301:7.6961999 307:7.6961999 319:15.3924 325:15.3924 331:7.6961999 337:7.6961999 346:7.6961999 352:7.6961999 368:7.6961999 371:7.6961999 378:15.3924 380:7.6961999 389:7.6961999 413:23.0886 420:23.0886 422:7.6961999 430:15.3924 449:15.3924 458:23.0886 461:7.6961999 468:23.0886 476:7.6961999 483:23.0886 495:7.6961999 510:15.3924 589:7.6961999 641:7.6961999 646:7.6961999 682:46.177299 696:46.177299 699:15.3924 723:38.481098 760:61.569698 790:7.6961999 827:61.569698 830:7.6961999 854:7.6961999 874:7.6961999 880:7.6961999 882:7.6961999 900:15.3924 901:15.3924 921:7.6961999 930:7.6961999 936:23.0886 943:7.6961999 984:23.0886 987:30.784901 1001:15.3924 1037:7.6961999 1046:7.6961999 1069:15.3924 1074:7.6961999 1092:15.3924 1103:23.0886 1148:23.0886 1166:53.873501 1167:7.6961999 1195:7.6961999 1198:30.784901 1315:7.6961999 1318:15.3924 1320:7.6961999 1325:15.3924 1331:7.6961999 1381:23.0886 1442:7.6961999 1454:15.3924 1462:7.6961999 1486:7.6961999 1488:7.6961999 1491:7.6961999 1497:7.6961999 1504:7.6961999 1514:61.569698 1529:15.3924 1547:7.6961999 1637:7.6961999 1638:7.6961999 1641:7.6961999 1647:7.6961999 1672:7.6961999 1693:7.6961999 1715:30.784901 1716:23.0886 1727:7.6961999 1760:7.6961999 1772:7.6961999 1789:61.569698 1790:15.3924 1801:7.6961999 1802:15.3924 1813:23.0886 1822:30.784901 1853:7.6961999 1869:38.481098 1878:7.6961999 1881:7.6961999 1884:7.6961999 1890:7.6961999 1891:38.481098 1919:7.6961999 1939:53.873501 1956:7.6961999 1969:30.784901 1975:7.6961999 1982:7.6961999 2047:23.0886 2053:7.6961999 2094:7.6961999 2095:7.6961999 2104:7.6961999 2112:7.6961999 2126:7.6961999 2169:7.6961999 2182:7.6961999 2197:7.6961999 2224:7.6961999 2231:15.3924 2247:7.6961999 2280:23.0886 2296:7.6961999 2297:7.6961999 2322:15.3924 2433:7.6961999 2448:7.6961999 2470:38.481098 2496:23.0886 2508:15.3924 2547:7.6961999 2559:23.0886 2571:7.6961999 2574:23.0886 2575:7.6961999 2647:7.6961999 2650:7.6961999 2652:7.6961999 2666:7.6961999 2680:7.6961999 2689:7.6961999 2690:7.6961999 2696:30.784901 2703:15.3924 2710:7.6961999 2726:7.6961999 2731:23.0886 2767:69.2659 2792:23.0886 2856:7.6961999 2864:7.6961999 2915:30.784901 2917:7.6961999 2933:7.6961999 2935:7.6961999 2939:38.481098 2957:7.6961999 2997:7.6961999 3017:23.0886 3019:7.6961999 3065:15.3924 3081:15.3924 3089:15.3924 3117:7.6961999 3125:7.6961999 3130:7.6961999 3137:7.6961999 3165:7.6961999 3195:15.3924 3241:30.784901 3273:38.481098 3285:46.177299 3286:30.784901 3309:15.3924 3319:15.3924 3363:7.6961999 3415:23.0886 3426:23.0886 3465:7.6961999 3480:7.6961999 3489:161.6205 3495:7.6961999 3507:53.873501 3529:7.6961999 3532:100.0508 3554:7.6961999 3573:38.481098 3581:15.3924 3591:7.6961999 3610:7.6961999 3623:7.6961999 3697:7.6961999 3699:23.0886 3707:7.6961999 3712:277.06369 3717:38.481098 3745:7.6961999 3750:23.0886 3758:7.6961999 3781:7.6961999 3785:15.3924 3800:15.3924 3812:15.3924 3815:15.3924 3840:7.6961999 3856:7.6961999 3881:23.0886 3884:7.6961999 3942:15.3924 3953:7.6961999 3987:7.6961999 3991:7.6961999 3993:15.3924 4012:7.6961999 4043:30.784901 4045:15.3924 4055:15.3924 4066:7.6961999 4073:7.6961999 4095:23.0886 4117:7.6961999 4123:23.0886 4124:23.0886 4134:115.4432 4141:7.6961999 4142:15.3924 4159:61.569698 4167:7.6961999 4183:7.6961999 4187:7.6961999 4199:15.3924 4200:7.6961999 4204:15.3924 4207:7.6961999 4210:7.6961999 4218:7.6961999 4242:7.6961999 4252:38.481098 4253:7.6961999 4264:130.8356 4282:7.6961999 4324:15.3924 4359:38.481098 4361:15.3924 4362:46.177299 4367:7.6961999 4369:461.7728 4396:7.6961999 4398:61.569698 4428:7.6961999 4463:15.3924 4470:15.3924 4498:100.0508 4506:7.6961999 4512:38.481098 4523:15.3924 4578:7.6961999 4579:7.6961999 4582:46.177299 4590:7.6961999 4597:7.6961999 4601:15.3924 4610:23.0886 4615:15.3924 4619:15.3924 4642:15.3924 4654:15.3924 4678:7.6961999 4689:15.3924 4695:23.0886 4701:30.784901 4704:7.6961999 4728:7.6961999 4754:15.3924 4756:7.6961999 4767:15.3924 4832:7.6961999 4848:15.3924 4854:7.6961999 4880:15.3924 4903:7.6961999 4927:46.177299 4988:7.6961999 5058:23.0886 5087:15.3924 5105:23.0886 5123:15.3924 5128:23.0886 5145:23.0886 5150:7.6961999 5164:15.3924 5219:7.6961999 5220:30.784901 5226:15.3924 5237:30.784901 5252:61.569698 5262:7.6961999 5263:7.6961999 5273:7.6961999 5277:15.3924 5293:38.481098 5297:15.3924 5310:15.3924 5311:30.784901 5314:23.0886 # none/00006642_s04.txt
-5.0920348194398634331363923122282e-05 52:7.6961999 358:15.3924 546:7.6961999 641:7.6961999 682:84.658302 709:7.6961999 760:7.6961999 770:30.784901 904:30.784901 943:7.6961999 957:7.6961999 984:30.784901 1001:15.3924 1038:7.6961999 1048:7.6961999 1092:15.3924 1148:7.6961999 1315:7.6961999 1375:7.6961999 1381:23.0886 1445:15.3924 1492:30.784901 1504:15.3924 1514:38.481098 1547:7.6961999 1563:15.3924 1686:46.177299 1693:23.0886 1716:7.6961999 1727:7.6961999 1772:7.6961999 1800:23.0886 1884:7.6961999 1900:7.6961999 1939:53.873501 1956:7.6961999 1969:7.6961999 1999:7.6961999 2015:15.3924 2047:23.0886 2094:7.6961999 2105:7.6961999 2181:23.0886 2203:7.6961999 2224:7.6961999 2286:15.3924 2306:7.6961999 2389:7.6961999 2393:7.6961999 2454:7.6961999 2496:7.6961999 2516:23.0886 2559:7.6961999 2574:7.6961999 2689:7.6961999 2690:23.0886 2703:15.3924 2731:7.6961999 2753:7.6961999 2767:7.6961999 2792:7.6961999 2799:7.6961999 2864:7.6961999 2939:38.481098 3043:7.6961999 3117:7.6961999 3137:7.6961999 3273:30.784901 3285:15.3924 3286:7.6961999 3363:7.6961999 3489:23.0886 3573:7.6961999 3580:7.6961999 3610:7.6961999 3617:23.0886 3618:7.6961999 3712:30.784901 3717:46.177299 3750:7.6961999 3758:23.0886 3765:7.6961999 3782:7.6961999 3815:7.6961999 3885:7.6961999 3993:15.3924 4095:7.6961999 4118:7.6961999 4134:38.481098 4159:7.6961999 4170:7.6961999 4181:15.3924 4252:7.6961999 4264:15.3924 4293:7.6961999 4324:7.6961999 4369:46.177299 4413:7.6961999 4428:15.3924 4463:7.6961999 4498:30.784901 4512:23.0886 4536:7.6961999 4549:7.6961999 4582:23.0886 4601:7.6961999 4615:7.6961999 4655:7.6961999 4767:7.6961999 4832:7.6961999 4927:7.6961999 4953:7.6961999 5058:7.6961999 5105:7.6961999 5145:7.6961999 5150:7.6961999 5220:7.6961999 5237:15.3924 5260:7.6961999 5273:7.6961999 5293:7.6961999 # none/00001413_s02.txt
-5.0920348194398634331363923122282e-05 15:7.6961999 101:7.6961999 146:7.6961999 184:7.6961999 275:7.6961999 286:7.6961999 292:23.0886 301:7.6961999 319:7.6961999 348:7.6961999 418:7.6961999 422:7.6961999 461:46.177299 465:38.481098 472:15.3924 478:7.6961999 481:15.3924 661:7.6961999 681:15.3924 682:38.481098 696:7.6961999 700:7.6961999 742:7.6961999 770:7.6961999 872:7.6961999 874:7.6961999 900:7.6961999 912:15.3924 920:7.6961999 921:7.6961999 984:7.6961999 988:15.3924 998:7.6961999 1001:7.6961999 1038:46.177299 1046:7.6961999 1048:38.481098 1103:7.6961999 1138:7.6961999 1198:30.784901 1228:7.6961999 1314:46.177299 1315:7.6961999 1318:7.6961999 1320:7.6961999 1375:38.481098 1442:15.3924 1462:7.6961999 1501:7.6961999 1514:15.3924 1542:7.6961999 1603:15.3924 1693:7.6961999 1700:7.6961999 1716:7.6961999 1723:7.6961999 1762:7.6961999 1813:7.6961999 1836:7.6961999 1853:7.6961999 1881:7.6961999 1891:15.3924 1920:7.6961999 1939:53.873501 2015:15.3924 2028:7.6961999 2047:7.6961999 2077:7.6961999 2095:23.0886 2099:7.6961999 2133:7.6961999 2144:7.6961999 2156:15.3924 2230:7.6961999 2232:7.6961999 2239:23.0886 2253:7.6961999 2280:7.6961999 2283:7.6961999 2303:7.6961999 2317:7.6961999 2322:7.6961999 2342:7.6961999 2430:7.6961999 2476:15.3924 2647:7.6961999 2731:7.6961999 2749:7.6961999 2792:7.6961999 2908:7.6961999 2932:7.6961999 2939:46.177299 2943:15.3924 2948:7.6961999 2971:15.3924 3010:7.6961999 3024:7.6961999 3071:7.6961999 3078:7.6961999 3107:7.6961999 3111:7.6961999 3114:7.6961999 3137:7.6961999 3139:7.6961999 3241:23.0886 3273:7.6961999 3292:7.6961999 3298:7.6961999 3299:15.3924 3309:7.6961999 3323:7.6961999 3507:23.0886 3520:7.6961999 3562:7.6961999 3573:15.3924 3610:15.3924 3615:7.6961999 3618:7.6961999 3712:46.177299 3750:7.6961999 3776:15.3924 3800:7.6961999 3856:7.6961999 3864:23.0886 3867:15.3924 3881:7.6961999 3885:15.3924 3896:7.6961999 3953:7.6961999 4042:15.3924 4043:53.873501 4047:15.3924 4087:7.6961999 4105:7.6961999 4117:7.6961999 4123:7.6961999 4134:61.569698 4159:15.3924 4178:7.6961999 4181:7.6961999 4223:7.6961999 4241:7.6961999 4252:7.6961999 4253:23.0886 4264:23.0886 4347:7.6961999 4354:7.6961999 4359:7.6961999 4361:15.3924 4362:61.569698 4363:46.177299 4369:84.658302 4374:7.6961999 4455:7.6961999 4477:7.6961999 4498:7.6961999 4512:15.3924 4516:7.6961999 4582:15.3924 4619:15.3924 4642:7.6961999 4676:7.6961999 4780:15.3924 4790:7.6961999 4832:38.481098 4880:30.784901 4889:7.6961999 4907:7.6961999 4927:15.3924 4959:7.6961999 4966:7.6961999 4988:7.6961999 4999:7.6961999 5080:23.0886 5105:7.6961999 5128:23.0886 5145:7.6961999 5237:7.6961999 5273:7.6961999 5275:7.6961999 5277:7.6961999 5293:7.6961999 # none/00000317_s05.txt
