SVM-light Version V6.02
0 # kernel type
3 # kernel parameter -d 
1 # kernel parameter -g 
1 # kernel parameter -s 
1 # kernel parameter -r 
empty# kernel parameter -u 
2958 # highest feature index 
320 # number of training documents 
189 # number of support vectors plus 1 
0.8740295 # threshold b, each following line is a SV (starting with alpha*y)
3.5891348153175192908607982200664e-05 24:12.5738 31:10.1444 45:10.1444 75:10.1444 155:10.1444 190:10.1444 229:10.1444 244:12.5738 261:10.1444 282:10.1444 328:10.1444 385:10.1444 388:10.1444 405:12.5738 407:10.1444 435:10.1444 447:10.1444 451:10.1444 462:10.1444 517:14.2974 526:10.1444 549:10.1444 572:10.1444 574:10.1444 582:12.5738 604:10.1444 606:10.1444 607:10.1444 619:10.1444 657:10.1444 726:15.6344 737:10.1444 738:10.1444 739:10.1444 740:14.2974 741:12.5738 764:10.1444 774:12.5738 781:10.1444 850:10.1444 859:10.1444 869:10.1444 881:10.1444 904:10.1444 949:10.1444 957:10.1444 966:10.1444 968:10.1444 982:10.1444 984:10.1444 1028:10.1444 1053:10.1444 1055:10.1444 1077:18.450399 1084:10.1444 1091:10.1444 1095:10.1444 1117:12.5738 1131:10.1444 1163:12.5738 1164:12.5738 1188:10.1444 1193:10.1444 1213:10.1444 1240:10.1444 1246:10.1444 1295:14.2974 1363:10.1444 1376:10.1444 1382:12.5738 1426:10.1444 1437:10.1444 1439:10.1444 1472:14.2974 1480:10.1444 1498:10.1444 1502:10.1444 1504:12.5738 1527:10.1444 1543:10.1444 1548:12.5738 1562:10.1444 1564:10.1444 1626:14.2974 1678:10.1444 1685:10.1444 1706:10.1444 1722:10.1444 1744:10.1444 1809:12.5738 1813:10.1444 1826:14.2974 1839:10.1444 1913:10.1444 1924:10.1444 1938:10.1444 1955:10.1444 1963:10.1444 1973:10.1444 1978:12.5738 1980:10.1444 2021:10.1444 2031:16.7267 2035:10.1444 2047:10.1444 2072:10.1444 2079:10.1444 2104:10.1444 2109:10.1444 2113:10.1444 2165:10.1444 2191:10.1444 2206:12.5738 2240:10.1444 2244:10.1444 2253:14.2974 2259:10.1444 2268:10.1444 2295:10.1444 2313:12.5738 2314:14.2974 2322:16.7267 2373:10.1444 2374:10.1444 2376:19.156099 2417:12.5738 2455:14.2974 2471:10.1444 2485:10.1444 2518:10.1444 2525:10.1444 2528:10.1444 2529:10.1444 2530:10.1444 2573:10.1444 2629:10.1444 2652:10.1444 2678:15.6344 2700:10.1444 2708:10.1444 2729:10.1444 2745:10.1444 2754:12.5738 2763:14.2974 2809:10.1444 2817:10.1444 2858:10.1444 2864:10.1444 2885:12.5738 2895:10.1444 2907:10.1444 2941:10.1444 # seizures/00006340_s01.txt
-6.3204440473799036433535936119199e-05 31:10.1444 116:10.1444 124:10.1444 330:10.1444 385:12.5738 387:10.1444 405:12.5738 412:14.2974 464:10.1444 481:10.1444 502:10.1444 511:10.1444 519:10.1444 526:10.1444 582:12.5738 619:10.1444 626:10.1444 638:10.1444 656:10.1444 683:10.1444 731:10.1444 760:10.1444 774:12.5738 835:10.1444 843:10.1444 869:10.1444 947:10.1444 956:10.1444 957:10.1444 962:12.5738 971:10.1444 981:15.6344 984:10.1444 996:12.5738 1005:10.1444 1019:10.1444 1028:10.1444 1053:12.5738 1055:10.1444 1057:10.1444 1060:10.1444 1077:15.6344 1078:10.1444 1084:10.1444 1091:12.5738 1131:10.1444 1156:10.1444 1161:10.1444 1261:10.1444 1286:10.1444 1295:10.1444 1296:10.1444 1305:10.1444 1326:12.5738 1400:10.1444 1426:12.5738 1459:10.1444 1472:12.5738 1498:10.1444 1503:10.1444 1548:10.1444 1562:10.1444 1622:10.1444 1637:10.1444 1683:10.1444 1710:10.1444 1744:10.1444 1762:12.5738 1772:10.1444 1804:10.1444 1815:10.1444 1817:10.1444 1839:10.1444 1906:10.1444 1913:10.1444 1920:10.1444 1929:10.1444 1967:10.1444 1985:10.1444 2022:10.1444 2031:14.2974 2041:10.1444 2047:14.2974 2079:10.1444 2109:10.1444 2129:10.1444 2156:12.5738 2240:14.2974 2273:10.1444 2307:10.1444 2309:10.1444 2313:10.1444 2314:10.1444 2341:10.1444 2374:15.6344 2376:14.2974 2408:10.1444 2439:10.1444 2455:10.1444 2464:14.2974 2477:10.1444 2485:10.1444 2506:10.1444 2528:10.1444 2620:10.1444 2629:10.1444 2661:10.1444 2678:10.1444 2700:10.1444 2743:14.2974 2817:12.5738 2895:15.6344 2927:10.1444 # none/00000045_s03.txt
-9.9898891843518189458204364905569e-06 24:10.1444 31:10.1444 120:10.1444 143:10.1444 144:10.1444 284:10.1444 293:10.1444 385:14.2974 398:10.1444 405:12.5738 412:10.1444 464:10.1444 481:10.1444 619:10.1444 731:10.1444 774:12.5738 797:10.1444 843:10.1444 850:10.1444 869:10.1444 957:10.1444 980:10.1444 982:10.1444 996:14.2974 1028:10.1444 1050:12.5738 1053:10.1444 1055:10.1444 1060:10.1444 1077:14.2974 1084:10.1444 1091:12.5738 1131:10.1444 1161:10.1444 1188:10.1444 1268:14.2974 1295:10.1444 1307:12.5738 1376:10.1444 1403:10.1444 1426:12.5738 1460:12.5738 1472:12.5738 1498:10.1444 1502:12.5738 1558:10.1444 1562:10.1444 1567:10.1444 1581:10.1444 1591:10.1444 1597:10.1444 1626:12.5738 1633:10.1444 1657:10.1444 1681:10.1444 1716:10.1444 1744:10.1444 1772:10.1444 1822:10.1444 1837:10.1444 1906:12.5738 1913:10.1444 1915:10.1444 1923:10.1444 1955:10.1444 1967:12.5738 2031:14.2974 2047:10.1444 2065:12.5738 2079:10.1444 2104:10.1444 2109:10.1444 2156:12.5738 2158:10.1444 2225:10.1444 2227:10.1444 2233:10.1444 2240:15.6344 2253:14.2974 2279:10.1444 2307:10.1444 2313:10.1444 2322:10.1444 2341:10.1444 2374:12.5738 2376:15.6344 2386:10.1444 2441:10.1444 2464:12.5738 2528:10.1444 2536:10.1444 2550:12.5738 2573:10.1444 2629:10.1444 2649:10.1444 2661:10.1444 2817:10.1444 2843:10.1444 2864:10.1444 2885:12.5738 2895:10.1444 2908:10.1444 2941:10.1444 2950:10.1444 # none/00001158_s01.txt
-5.2805461153762508737588565743692e-05 31:10.1444 116:12.5738 126:10.1444 127:10.1444 332:10.1444 366:10.1444 385:12.5738 405:12.5738 412:14.2974 451:10.1444 464:12.5738 481:14.2974 516:10.1444 526:10.1444 559:14.2974 606:10.1444 618:10.1444 619:10.1444 731:12.5738 770:10.1444 774:12.5738 835:10.1444 850:10.1444 869:10.1444 872:10.1444 957:10.1444 980:10.1444 982:10.1444 984:10.1444 996:10.1444 1028:12.5738 1050:12.5738 1053:10.1444 1060:12.5738 1077:15.6344 1084:10.1444 1091:12.5738 1136:10.1444 1150:10.1444 1161:12.5738 1188:10.1444 1210:10.1444 1268:16.7267 1273:10.1444 1295:12.5738 1305:10.1444 1376:10.1444 1399:14.2974 1426:12.5738 1472:12.5738 1498:10.1444 1519:12.5738 1562:10.1444 1622:12.5738 1626:16.7267 1628:10.1444 1690:10.1444 1710:10.1444 1744:10.1444 1772:12.5738 1774:10.1444 1826:10.1444 1900:10.1444 1906:10.1444 1944:10.1444 1955:10.1444 1967:12.5738 1984:16.7267 2031:12.5738 2047:14.2974 2079:10.1444 2109:12.5738 2156:12.5738 2218:10.1444 2225:10.1444 2227:10.1444 2233:10.1444 2240:15.6344 2252:10.1444 2253:14.2974 2307:10.1444 2313:12.5738 2322:15.6344 2374:19.156099 2376:14.2974 2412:12.5738 2439:10.1444 2464:15.6344 2501:10.1444 2528:10.1444 2570:10.1444 2573:10.1444 2629:10.1444 2649:10.1444 2661:17.650299 2761:10.1444 2762:10.1444 2764:10.1444 2809:10.1444 2817:10.1444 2854:10.1444 2864:10.1444 2885:12.5738 2895:14.2974 2900:10.1444 2927:10.1444 2941:10.1444 # none/00000111_s04.txt
-6.3204440473799036433535936119199e-05 7:12.5738 10:10.1444 12:15.6344 31:10.1444 75:10.1444 89:10.1444 93:12.5738 148:12.5738 155:10.1444 202:10.1444 205:10.1444 209:10.1444 211:10.1444 233:10.1444 268:10.1444 273:10.1444 279:10.1444 284:10.1444 385:10.1444 395:10.1444 405:20.8797 412:10.1444 447:10.1444 500:10.1444 502:12.5738 522:10.1444 526:10.1444 582:12.5738 594:10.1444 606:12.5738 609:10.1444 629:12.5738 662:12.5738 671:10.1444 683:10.1444 737:10.1444 739:10.1444 770:14.2974 774:14.2974 807:10.1444 819:14.2974 850:10.1444 869:10.1444 910:10.1444 947:10.1444 957:10.1444 959:12.5738 974:10.1444 977:12.5738 984:10.1444 1027:10.1444 1053:10.1444 1055:12.5738 1077:15.6344 1084:10.1444 1091:10.1444 1098:10.1444 1127:10.1444 1163:12.5738 1164:10.1444 1203:12.5738 1209:10.1444 1210:12.5738 1237:10.1444 1246:10.1444 1268:16.7267 1273:10.1444 1295:18.450399 1300:15.6344 1305:18.450399 1326:10.1444 1340:10.1444 1354:10.1444 1417:10.1444 1426:10.1444 1437:10.1444 1476:10.1444 1480:12.5738 1483:10.1444 1498:10.1444 1502:12.5738 1523:10.1444 1562:10.1444 1615:10.1444 1626:19.156099 1636:12.5738 1667:10.1444 1673:14.2974 1715:10.1444 1718:10.1444 1735:12.5738 1742:10.1444 1744:10.1444 1809:14.2974 1815:12.5738 1826:10.1444 1836:10.1444 1839:10.1444 1860:10.1444 1920:12.5738 1924:10.1444 1944:10.1444 1959:10.1444 1963:10.1444 1964:12.5738 1984:10.1444 2023:15.6344 2031:16.7267 2034:14.2974 2047:10.1444 2060:10.1444 2079:10.1444 2096:10.1444 2100:10.1444 2126:10.1444 2129:10.1444 2146:10.1444 2165:10.1444 2213:10.1444 2236:10.1444 2240:17.650299 2253:19.156099 2294:10.1444 2306:10.1444 2313:12.5738 2314:14.2974 2337:10.1444 2365:10.1444 2373:12.5738 2374:10.1444 2376:22.2167 2412:14.2974 2423:10.1444 2428:10.1444 2455:15.6344 2464:16.7267 2486:12.5738 2513:10.1444 2518:10.1444 2525:12.5738 2528:10.1444 2610:10.1444 2629:10.1444 2678:14.2974 2692:10.1444 2700:12.5738 2817:10.1444 2818:10.1444 2837:10.1444 2858:10.1444 2864:12.5738 2885:12.5738 2888:10.1444 2895:14.2974 2907:12.5738 2925:10.1444 # none/00000126_s04.txt
6.3204440473799036433535936119199e-05 24:10.1444 33:10.1444 120:10.1444 318:10.1444 385:10.1444 405:10.1444 412:10.1444 434:14.2974 506:10.1444 526:10.1444 570:10.1444 582:12.5738 603:10.1444 606:10.1444 657:10.1444 673:10.1444 696:10.1444 726:10.1444 739:10.1444 770:10.1444 774:12.5738 842:10.1444 850:10.1444 869:10.1444 941:10.1444 949:12.5738 982:10.1444 984:10.1444 995:10.1444 1008:10.1444 1043:10.1444 1053:10.1444 1077:20.3584 1084:10.1444 1091:10.1444 1100:10.1444 1131:10.1444 1187:10.1444 1273:10.1444 1295:10.1444 1300:10.1444 1326:10.1444 1426:10.1444 1439:10.1444 1458:10.1444 1460:10.1444 1498:10.1444 1504:10.1444 1548:10.1444 1562:10.1444 1568:10.1444 1665:10.1444 1718:10.1444 1724:10.1444 1744:10.1444 1815:10.1444 1825:10.1444 1844:10.1444 1955:10.1444 2031:14.2974 2034:12.5738 2047:12.5738 2048:10.1444 2065:10.1444 2079:10.1444 2146:10.1444 2149:10.1444 2164:10.1444 2231:10.1444 2240:14.2974 2322:10.1444 2376:12.5738 2412:12.5738 2433:10.1444 2436:10.1444 2455:10.1444 2464:12.5738 2528:10.1444 2530:10.1444 2573:10.1444 2596:10.1444 2627:10.1444 2629:10.1444 2678:14.2974 2693:10.1444 2778:10.1444 2813:10.1444 2817:10.1444 2858:10.1444 2864:10.1444 2895:14.2974 2927:10.1444 2941:12.5738 # seizures/00000005_s06.txt
-3.9028522155238541376312544350924e-05 31:10.1444 351:10.1444 368:10.1444 385:10.1444 405:15.6344 445:10.1444 447:10.1444 462:10.1444 522:12.5738 543:12.5738 606:12.5738 619:10.1444 657:10.1444 737:10.1444 739:10.1444 774:12.5738 822:10.1444 864:10.1444 869:12.5738 902:12.5738 947:12.5738 949:10.1444 957:10.1444 980:10.1444 982:10.1444 1008:10.1444 1011:12.5738 1053:10.1444 1077:14.2974 1084:10.1444 1091:12.5738 1155:10.1444 1211:12.5738 1240:10.1444 1339:10.1444 1358:10.1444 1386:10.1444 1399:15.6344 1403:10.1444 1426:10.1444 1472:10.1444 1476:10.1444 1480:10.1444 1494:12.5738 1498:10.1444 1502:10.1444 1557:10.1444 1559:10.1444 1562:10.1444 1565:10.1444 1568:10.1444 1577:10.1444 1591:10.1444 1626:18.450399 1628:10.1444 1724:14.2974 1732:10.1444 1735:10.1444 1744:10.1444 1764:10.1444 1815:12.5738 1855:10.1444 1920:10.1444 1943:12.5738 1944:10.1444 1945:10.1444 1959:10.1444 2031:12.5738 2034:10.1444 2038:10.1444 2047:10.1444 2050:12.5738 2079:10.1444 2112:12.5738 2146:10.1444 2149:10.1444 2151:10.1444 2157:10.1444 2219:10.1444 2240:12.5738 2253:10.1444 2301:10.1444 2313:10.1444 2322:16.7267 2376:12.5738 2412:14.2974 2415:10.1444 2464:18.450399 2472:10.1444 2528:10.1444 2565:10.1444 2604:10.1444 2629:10.1444 2649:10.1444 2678:10.1444 2706:10.1444 2766:10.1444 2774:10.1444 2817:10.1444 2835:10.1444 2854:10.1444 2864:10.1444 2895:14.2974 2907:10.1444 2915:10.1444 2927:10.1444 2950:10.1444 # none/00000380_s01.txt
6.3204440473799036433535936119199e-05 31:10.1444 115:10.1444 116:10.1444 126:10.1444 245:10.1444 261:12.5738 385:12.5738 387:10.1444 405:12.5738 412:14.2974 464:10.1444 481:10.1444 511:10.1444 516:10.1444 522:10.1444 569:10.1444 582:10.1444 601:10.1444 603:10.1444 619:10.1444 635:10.1444 676:10.1444 683:12.5738 726:10.1444 757:10.1444 770:12.5738 774:15.6344 778:10.1444 827:14.2974 835:10.1444 843:10.1444 850:12.5738 869:14.2974 926:10.1444 956:10.1444 957:10.1444 973:10.1444 980:10.1444 981:14.2974 984:10.1444 996:12.5738 1028:10.1444 1053:12.5738 1077:14.2974 1078:10.1444 1084:10.1444 1091:12.5738 1095:14.2974 1127:10.1444 1136:10.1444 1161:10.1444 1164:12.5738 1187:10.1444 1223:10.1444 1240:10.1444 1246:10.1444 1268:10.1444 1295:10.1444 1296:10.1444 1300:10.1444 1326:10.1444 1426:10.1444 1472:14.2974 1498:10.1444 1562:10.1444 1622:10.1444 1626:14.2974 1636:10.1444 1667:10.1444 1672:10.1444 1744:12.5738 1756:10.1444 1791:12.5738 1804:12.5738 1809:10.1444 1811:10.1444 1842:10.1444 1906:10.1444 1913:10.1444 1920:10.1444 1967:10.1444 1984:10.1444 2022:10.1444 2031:14.2974 2047:14.2974 2078:10.1444 2079:10.1444 2103:10.1444 2109:15.6344 2148:10.1444 2156:12.5738 2225:10.1444 2240:16.7267 2253:10.1444 2259:10.1444 2279:10.1444 2313:10.1444 2314:12.5738 2341:10.1444 2374:15.6344 2376:17.650299 2409:10.1444 2412:16.7267 2439:10.1444 2455:10.1444 2464:16.7267 2528:10.1444 2530:10.1444 2555:12.5738 2594:12.5738 2629:10.1444 2645:10.1444 2649:10.1444 2661:15.6344 2668:10.1444 2693:14.2974 2700:14.2974 2707:10.1444 2733:10.1444 2800:10.1444 2817:10.1444 2895:16.7267 # seizures/00000068_s01.txt
2.6931757205335322437594197664268e-05 12:10.1444 31:10.1444 96:12.5738 101:10.1444 144:10.1444 147:10.1444 230:10.1444 301:10.1444 374:10.1444 381:10.1444 405:18.450399 429:10.1444 447:12.5738 451:10.1444 502:10.1444 522:10.1444 549:12.5738 606:10.1444 610:12.5738 653:10.1444 657:10.1444 661:10.1444 662:10.1444 678:10.1444 683:12.5738 739:10.1444 748:10.1444 770:15.6344 774:14.2974 794:10.1444 835:14.2974 850:10.1444 852:12.5738 869:12.5738 932:10.1444 940:10.1444 947:12.5738 949:12.5738 956:10.1444 957:10.1444 965:12.5738 979:12.5738 982:10.1444 984:10.1444 996:12.5738 1011:10.1444 1055:10.1444 1075:10.1444 1077:19.7873 1084:10.1444 1091:10.1444 1095:10.1444 1117:10.1444 1130:10.1444 1131:10.1444 1161:10.1444 1209:14.2974 1210:10.1444 1213:10.1444 1234:10.1444 1241:10.1444 1268:10.1444 1278:10.1444 1286:10.1444 1295:10.1444 1300:14.2974 1305:15.6344 1307:14.2974 1325:10.1444 1328:10.1444 1337:10.1444 1364:10.1444 1382:10.1444 1386:10.1444 1399:12.5738 1408:10.1444 1426:10.1444 1460:10.1444 1472:10.1444 1476:10.1444 1480:14.2974 1498:10.1444 1502:14.2974 1509:14.2974 1523:10.1444 1548:10.1444 1562:10.1444 1569:10.1444 1575:10.1444 1616:10.1444 1626:20.8797 1634:10.1444 1715:10.1444 1726:10.1444 1735:12.5738 1744:10.1444 1781:10.1444 1809:10.1444 1838:10.1444 1920:12.5738 1943:10.1444 1944:12.5738 1952:12.5738 1959:10.1444 1964:12.5738 2021:16.7267 2026:10.1444 2031:12.5738 2034:10.1444 2047:10.1444 2050:10.1444 2065:10.1444 2079:10.1444 2096:10.1444 2103:10.1444 2104:10.1444 2146:10.1444 2151:10.1444 2208:10.1444 2219:10.1444 2240:12.5738 2253:16.7267 2261:10.1444 2279:10.1444 2285:10.1444 2301:10.1444 2313:14.2974 2322:10.1444 2358:10.1444 2370:10.1444 2373:12.5738 2376:15.6344 2408:10.1444 2412:12.5738 2414:12.5738 2464:10.1444 2518:12.5738 2520:10.1444 2528:10.1444 2529:12.5738 2536:12.5738 2546:10.1444 2550:12.5738 2604:10.1444 2629:10.1444 2645:10.1444 2693:12.5738 2754:10.1444 2809:10.1444 2822:10.1444 2854:10.1444 2864:10.1444 2895:12.5738 2926:12.5738 # seizures/00008867_s02.txt
5.7350141013527526634430131480258e-05 10:10.1444 13:10.1444 19:12.5738 31:10.1444 101:10.1444 148:10.1444 149:10.1444 151:10.1444 211:10.1444 289:10.1444 374:10.1444 385:12.5738 393:10.1444 405:20.8797 408:10.1444 443:10.1444 447:10.1444 486:10.1444 512:10.1444 523:10.1444 545:10.1444 582:10.1444 606:10.1444 607:10.1444 619:10.1444 653:10.1444 657:10.1444 683:10.1444 706:10.1444 709:10.1444 731:10.1444 739:10.1444 741:12.5738 765:10.1444 774:14.2974 803:10.1444 811:10.1444 869:10.1444 947:12.5738 949:12.5738 957:10.1444 981:15.6344 982:10.1444 984:10.1444 1019:10.1444 1032:10.1444 1053:10.1444 1055:10.1444 1077:18.450399 1083:10.1444 1084:10.1444 1091:10.1444 1176:10.1444 1187:10.1444 1200:10.1444 1248:10.1444 1273:10.1444 1296:10.1444 1313:10.1444 1358:10.1444 1399:10.1444 1401:10.1444 1408:10.1444 1426:12.5738 1439:10.1444 1460:10.1444 1472:10.1444 1476:10.1444 1480:10.1444 1498:10.1444 1502:12.5738 1504:10.1444 1523:10.1444 1562:10.1444 1563:10.1444 1565:10.1444 1582:10.1444 1626:10.1444 1661:12.5738 1690:12.5738 1732:10.1444 1744:12.5738 1791:12.5738 1836:12.5738 1839:14.2974 1924:12.5738 1959:10.1444 2028:10.1444 2031:15.6344 2034:10.1444 2047:12.5738 2065:10.1444 2079:10.1444 2148:10.1444 2240:15.6344 2273:10.1444 2275:10.1444 2303:10.1444 2313:10.1444 2322:10.1444 2365:12.5738 2374:10.1444 2375:10.1444 2376:18.450399 2395:10.1444 2408:12.5738 2418:10.1444 2431:10.1444 2433:10.1444 2464:14.2974 2482:10.1444 2506:10.1444 2528:10.1444 2536:10.1444 2537:10.1444 2550:10.1444 2576:10.1444 2584:10.1444 2585:10.1444 2590:10.1444 2596:10.1444 2629:10.1444 2645:10.1444 2661:10.1444 2681:10.1444 2760:10.1444 2762:10.1444 2763:10.1444 2801:10.1444 2817:10.1444 2864:10.1444 2880:12.5738 2895:10.1444 2915:10.1444 2927:10.1444 # seizures/00008961_s01.txt
-6.3204440473799036433535936119199e-05 31:10.1444 155:12.5738 158:10.1444 309:10.1444 385:10.1444 400:10.1444 401:10.1444 405:12.5738 412:10.1444 425:12.5738 435:10.1444 462:10.1444 464:12.5738 482:10.1444 507:14.2974 511:10.1444 543:10.1444 582:12.5738 683:10.1444 701:10.1444 702:14.2974 731:12.5738 738:10.1444 774:10.1444 812:10.1444 831:10.1444 843:12.5738 850:16.7267 861:10.1444 862:10.1444 870:10.1444 916:10.1444 923:10.1444 932:10.1444 944:10.1444 947:10.1444 957:10.1444 981:16.7267 996:14.2974 1000:15.6344 1028:10.1444 1044:10.1444 1053:10.1444 1060:12.5738 1077:12.5738 1078:10.1444 1084:10.1444 1091:10.1444 1095:12.5738 1105:10.1444 1131:14.2974 1150:12.5738 1240:12.5738 1268:15.6344 1295:10.1444 1326:10.1444 1353:10.1444 1399:15.6344 1420:10.1444 1426:12.5738 1437:12.5738 1460:10.1444 1472:12.5738 1498:10.1444 1504:10.1444 1508:12.5738 1513:10.1444 1542:10.1444 1548:10.1444 1591:10.1444 1622:12.5738 1626:21.359301 1634:10.1444 1744:14.2974 1755:10.1444 1761:10.1444 1799:10.1444 1804:12.5738 1809:10.1444 1836:10.1444 1905:10.1444 1909:10.1444 1913:10.1444 1920:12.5738 1924:10.1444 1929:10.1444 1938:10.1444 1943:10.1444 1944:10.1444 1946:10.1444 1984:15.6344 1985:10.1444 2017:12.5738 2031:12.5738 2047:14.2974 2050:17.650299 2060:10.1444 2065:10.1444 2084:15.6344 2092:10.1444 2103:10.1444 2109:17.650299 2138:10.1444 2148:10.1444 2151:10.1444 2163:12.5738 2167:14.2974 2195:16.7267 2200:12.5738 2237:10.1444 2240:19.7873 2259:14.2974 2285:12.5738 2309:12.5738 2313:10.1444 2322:10.1444 2376:15.6344 2382:14.2974 2412:12.5738 2423:10.1444 2439:10.1444 2455:10.1444 2464:19.7873 2466:10.1444 2513:10.1444 2524:12.5738 2528:10.1444 2536:10.1444 2550:10.1444 2570:10.1444 2584:10.1444 2629:10.1444 2645:10.1444 2678:12.5738 2693:12.5738 2753:10.1444 2787:10.1444 2855:14.2974 2864:12.5738 2895:15.6344 2896:12.5738 2900:10.1444 2903:10.1444 2927:10.1444 # none/00000482_s07.txt
-6.3204440473799036433535936119199e-05 26:10.1444 31:10.1444 76:10.1444 85:10.1444 172:10.1444 191:10.1444 385:10.1444 397:10.1444 405:18.450399 407:10.1444 431:16.7267 448:10.1444 462:10.1444 464:10.1444 517:10.1444 582:10.1444 606:10.1444 610:10.1444 652:10.1444 657:10.1444 677:10.1444 683:14.2974 693:10.1444 726:10.1444 739:12.5738 754:14.2974 757:10.1444 774:12.5738 869:10.1444 947:10.1444 957:10.1444 982:10.1444 1000:14.2974 1053:10.1444 1055:10.1444 1077:16.7267 1084:10.1444 1086:10.1444 1091:10.1444 1131:10.1444 1171:10.1444 1174:10.1444 1176:10.1444 1177:10.1444 1209:10.1444 1214:10.1444 1223:10.1444 1295:10.1444 1333:15.6344 1352:14.2974 1360:10.1444 1382:10.1444 1399:12.5738 1403:10.1444 1414:10.1444 1417:10.1444 1426:10.1444 1439:10.1444 1484:10.1444 1498:10.1444 1499:10.1444 1502:10.1444 1504:10.1444 1506:10.1444 1511:12.5738 1548:10.1444 1561:10.1444 1562:10.1444 1579:10.1444 1626:14.2974 1672:10.1444 1690:12.5738 1694:10.1444 1744:10.1444 1791:10.1444 1798:10.1444 1818:10.1444 1819:10.1444 1826:12.5738 1827:10.1444 1839:10.1444 1882:10.1444 1913:10.1444 1924:10.1444 1938:12.5738 1943:10.1444 1944:10.1444 2034:15.6344 2047:10.1444 2050:10.1444 2060:10.1444 2079:10.1444 2102:10.1444 2215:10.1444 2237:10.1444 2240:10.1444 2253:10.1444 2259:12.5738 2286:10.1444 2322:12.5738 2365:10.1444 2376:15.6344 2412:16.7267 2471:10.1444 2486:10.1444 2522:12.5738 2528:10.1444 2596:10.1444 2605:10.1444 2614:10.1444 2629:10.1444 2661:10.1444 2678:10.1444 2700:10.1444 2809:10.1444 2817:10.1444 2864:10.1444 2880:14.2974 2895:15.6344 2932:10.1444 # none/00007941_s01.txt
-6.3204440473799036433535936119199e-05 13:10.1444 16:10.1444 17:10.1444 24:12.5738 36:10.1444 120:12.5738 139:10.1444 310:10.1444 368:10.1444 385:10.1444 405:15.6344 412:12.5738 462:12.5738 506:10.1444 526:14.2974 549:10.1444 582:17.650299 606:12.5738 619:15.6344 629:10.1444 657:12.5738 738:10.1444 739:12.5738 770:10.1444 774:15.6344 799:10.1444 849:10.1444 850:16.7267 869:10.1444 932:10.1444 944:10.1444 947:10.1444 949:10.1444 957:12.5738 982:10.1444 984:10.1444 1000:12.5738 1053:10.1444 1077:17.650299 1084:12.5738 1091:12.5738 1107:14.2974 1130:12.5738 1131:12.5738 1188:12.5738 1213:12.5738 1295:16.7267 1300:10.1444 1337:12.5738 1379:10.1444 1426:10.1444 1439:12.5738 1476:12.5738 1482:10.1444 1498:12.5738 1499:12.5738 1508:10.1444 1523:12.5738 1562:12.5738 1563:12.5738 1672:10.1444 1715:10.1444 1724:10.1444 1744:14.2974 1798:10.1444 1809:12.5738 1821:10.1444 1826:14.2974 1839:10.1444 1913:10.1444 1920:10.1444 1938:16.7267 1946:10.1444 1959:12.5738 1984:10.1444 1999:10.1444 2026:10.1444 2031:14.2974 2034:16.7267 2047:12.5738 2078:10.1444 2079:12.5738 2138:10.1444 2149:10.1444 2158:10.1444 2240:16.7267 2259:12.5738 2266:10.1444 2268:10.1444 2277:10.1444 2317:12.5738 2336:10.1444 2337:10.1444 2341:10.1444 2371:12.5738 2376:14.2974 2404:10.1444 2464:10.1444 2471:12.5738 2528:12.5738 2536:12.5738 2550:12.5738 2596:10.1444 2629:12.5738 2658:10.1444 2668:10.1444 2678:15.6344 2700:14.2974 2796:10.1444 2817:14.2974 2854:10.1444 2864:14.2974 2907:10.1444 2947:10.1444 # none/00004433_s01.txt
-6.3204440473799036433535936119199e-05 31:10.1444 155:10.1444 282:10.1444 325:10.1444 385:10.1444 405:10.1444 407:10.1444 543:10.1444 582:12.5738 606:10.1444 671:10.1444 683:10.1444 726:10.1444 728:10.1444 739:10.1444 774:14.2974 803:10.1444 850:12.5738 869:12.5738 949:10.1444 957:10.1444 982:10.1444 984:10.1444 1000:10.1444 1053:10.1444 1077:14.2974 1084:10.1444 1091:10.1444 1240:10.1444 1246:10.1444 1295:10.1444 1305:10.1444 1382:10.1444 1426:12.5738 1437:10.1444 1439:10.1444 1460:10.1444 1498:10.1444 1525:10.1444 1548:10.1444 1562:10.1444 1563:10.1444 1626:14.2974 1715:10.1444 1744:10.1444 1798:10.1444 1920:12.5738 1938:12.5738 1944:10.1444 1955:10.1444 2031:10.1444 2034:10.1444 2047:12.5738 2065:10.1444 2079:10.1444 2146:10.1444 2168:10.1444 2240:15.6344 2253:10.1444 2322:10.1444 2370:10.1444 2376:10.1444 2408:10.1444 2412:14.2974 2417:10.1444 2436:10.1444 2464:10.1444 2466:10.1444 2467:10.1444 2518:10.1444 2528:10.1444 2596:10.1444 2629:10.1444 2668:10.1444 2700:10.1444 2730:10.1444 2817:10.1444 2835:10.1444 2864:10.1444 2895:14.2974 2941:10.1444 # none/00000251_s05.txt
-6.3204440473799036433535936119199e-05 11:10.1444 24:14.2974 31:10.1444 67:10.1444 89:10.1444 101:10.1444 110:10.1444 120:10.1444 122:12.5738 144:14.2974 147:15.6344 151:10.1444 168:10.1444 209:10.1444 213:10.1444 216:10.1444 219:10.1444 227:10.1444 269:12.5738 367:10.1444 368:10.1444 390:10.1444 399:10.1444 405:14.2974 412:10.1444 428:12.5738 431:10.1444 441:10.1444 447:12.5738 451:12.5738 478:10.1444 502:12.5738 507:10.1444 518:10.1444 526:17.650299 540:10.1444 559:10.1444 572:12.5738 582:14.2974 604:14.2974 606:10.1444 610:14.2974 619:10.1444 620:10.1444 631:10.1444 643:10.1444 657:10.1444 671:10.1444 683:16.7267 685:10.1444 737:10.1444 739:10.1444 755:10.1444 774:12.5738 850:10.1444 859:10.1444 869:15.6344 883:16.7267 904:12.5738 916:10.1444 947:10.1444 949:12.5738 952:10.1444 956:10.1444 957:12.5738 962:10.1444 977:10.1444 979:10.1444 980:10.1444 982:10.1444 1005:10.1444 1011:10.1444 1019:10.1444 1050:10.1444 1054:10.1444 1055:14.2974 1070:10.1444 1077:19.7873 1084:12.5738 1091:10.1444 1107:10.1444 1116:10.1444 1127:10.1444 1131:15.6344 1136:10.1444 1155:10.1444 1156:12.5738 1174:10.1444 1182:10.1444 1188:10.1444 1193:10.1444 1213:10.1444 1216:10.1444 1243:10.1444 1246:10.1444 1273:10.1444 1296:10.1444 1300:10.1444 1326:10.1444 1334:10.1444 1426:10.1444 1435:10.1444 1439:10.1444 1472:10.1444 1477:10.1444 1480:12.5738 1490:12.5738 1498:10.1444 1502:14.2974 1509:10.1444 1543:10.1444 1562:10.1444 1589:10.1444 1593:10.1444 1634:10.1444 1672:10.1444 1678:10.1444 1717:10.1444 1723:12.5738 1725:10.1444 1744:10.1444 1809:15.6344 1814:12.5738 1816:12.5738 1825:14.2974 1826:10.1444 1833:10.1444 1855:12.5738 1889:10.1444 1913:10.1444 1916:10.1444 1920:12.5738 1924:10.1444 1929:12.5738 1934:12.5738 1937:10.1444 1946:10.1444 1955:10.1444 1959:14.2974 2021:10.1444 2031:20.3584 2034:12.5738 2047:10.1444 2079:10.1444 2089:12.5738 2103:10.1444 2104:10.1444 2120:10.1444 2129:10.1444 2138:10.1444 2149:10.1444 2189:12.5738 2191:16.7267 2201:10.1444 2240:14.2974 2251:10.1444 2266:10.1444 2268:10.1444 2271:10.1444 2279:15.6344 2313:12.5738 2314:10.1444 2344:12.5738 2352:10.1444 2370:10.1444 2372:10.1444 2373:10.1444 2376:19.7873 2384:10.1444 2399:10.1444 2404:10.1444 2431:12.5738 2445:12.5738 2455:16.7267 2456:12.5738 2464:14.2974 2471:10.1444 2500:10.1444 2503:10.1444 2504:10.1444 2525:12.5738 2528:10.1444 2530:10.1444 2561:10.1444 2596:10.1444 2597:10.1444 2611:10.1444 2622:12.5738 2623:12.5738 2629:10.1444 2636:10.1444 2638:10.1444 2655:12.5738 2668:10.1444 2692:10.1444 2700:15.6344 2763:10.1444 2766:10.1444 2782:10.1444 2807:10.1444 2809:10.1444 2817:10.1444 2864:10.1444 2885:12.5738 2910:10.1444 2911:10.1444 2927:10.1444 2941:10.1444 # none/00000470_s03.txt
6.3204440473799036433535936119199e-05 31:10.1444 36:10.1444 116:10.1444 126:10.1444 241:10.1444 385:14.2974 405:12.5738 412:12.5738 464:10.1444 481:14.2974 494:10.1444 502:10.1444 516:12.5738 531:10.1444 572:10.1444 613:10.1444 619:10.1444 699:10.1444 726:14.2974 731:12.5738 733:10.1444 774:12.5738 811:10.1444 843:14.2974 852:10.1444 869:12.5738 872:10.1444 905:10.1444 957:10.1444 975:10.1444 980:10.1444 996:14.2974 1028:10.1444 1053:10.1444 1060:10.1444 1077:14.2974 1084:10.1444 1091:12.5738 1161:12.5738 1164:10.1444 1188:10.1444 1268:16.7267 1295:10.1444 1305:10.1444 1383:10.1444 1386:10.1444 1426:12.5738 1428:10.1444 1472:12.5738 1498:10.1444 1502:12.5738 1504:10.1444 1506:10.1444 1513:10.1444 1548:10.1444 1562:10.1444 1591:10.1444 1597:10.1444 1626:12.5738 1629:10.1444 1633:12.5738 1744:10.1444 1772:10.1444 1774:10.1444 1836:12.5738 1906:10.1444 1946:12.5738 1967:12.5738 1980:10.1444 2023:14.2974 2031:12.5738 2047:10.1444 2050:10.1444 2065:12.5738 2079:10.1444 2082:10.1444 2109:10.1444 2138:10.1444 2156:12.5738 2158:10.1444 2219:10.1444 2225:10.1444 2227:10.1444 2233:10.1444 2240:17.650299 2253:16.7267 2279:10.1444 2307:10.1444 2313:12.5738 2322:10.1444 2325:10.1444 2341:10.1444 2345:10.1444 2372:10.1444 2374:12.5738 2376:17.650299 2412:10.1444 2414:10.1444 2434:14.2974 2439:10.1444 2455:10.1444 2464:14.2974 2485:10.1444 2518:10.1444 2525:10.1444 2528:10.1444 2550:12.5738 2573:10.1444 2629:10.1444 2645:10.1444 2649:10.1444 2661:14.2974 2693:12.5738 2700:10.1444 2762:10.1444 2817:10.1444 2885:10.1444 2895:14.2974 2900:10.1444 2907:10.1444 2927:10.1444 2934:10.1444 # seizures/00000447_s01.txt
6.3204440473799036433535936119199e-05 31:10.1444 116:10.1444 126:10.1444 284:10.1444 336:10.1444 385:14.2974 405:12.5738 460:12.5738 464:10.1444 481:14.2974 564:10.1444 619:10.1444 702:10.1444 726:10.1444 731:10.1444 738:10.1444 770:10.1444 774:12.5738 869:14.2974 957:10.1444 980:10.1444 982:10.1444 996:14.2974 1028:10.1444 1050:12.5738 1053:10.1444 1055:12.5738 1060:10.1444 1077:18.450399 1084:10.1444 1091:12.5738 1127:10.1444 1131:10.1444 1136:10.1444 1150:10.1444 1161:10.1444 1188:10.1444 1218:10.1444 1268:14.2974 1295:10.1444 1300:10.1444 1426:12.5738 1448:10.1444 1459:10.1444 1460:12.5738 1472:12.5738 1498:10.1444 1502:12.5738 1562:10.1444 1591:10.1444 1615:10.1444 1622:10.1444 1626:12.5738 1716:10.1444 1744:10.1444 1772:10.1444 1774:12.5738 1906:10.1444 1909:10.1444 1913:12.5738 1944:10.1444 1946:10.1444 1955:10.1444 1959:10.1444 1967:12.5738 2023:10.1444 2031:15.6344 2047:10.1444 2065:12.5738 2079:10.1444 2109:10.1444 2156:12.5738 2158:10.1444 2225:10.1444 2227:10.1444 2233:10.1444 2240:16.7267 2252:10.1444 2253:10.1444 2266:10.1444 2279:12.5738 2281:10.1444 2307:10.1444 2313:10.1444 2341:10.1444 2374:12.5738 2376:15.6344 2434:10.1444 2464:12.5738 2473:12.5738 2528:10.1444 2550:12.5738 2573:10.1444 2592:10.1444 2629:10.1444 2649:10.1444 2661:16.7267 2700:14.2974 2799:10.1444 2809:10.1444 2817:10.1444 2864:10.1444 2885:12.5738 2895:10.1444 2908:10.1444 2941:10.1444 # seizures/00005770_s01.txt
6.3204440473799036433535936119199e-05 31:10.1444 276:10.1444 336:10.1444 385:15.6344 405:12.5738 412:12.5738 446:10.1444 481:10.1444 502:12.5738 517:14.2974 559:14.2974 619:10.1444 627:10.1444 649:10.1444 682:12.5738 683:10.1444 702:10.1444 731:10.1444 738:10.1444 755:10.1444 774:12.5738 816:12.5738 839:10.1444 843:12.5738 869:14.2974 872:10.1444 940:10.1444 956:10.1444 957:10.1444 980:10.1444 981:10.1444 982:10.1444 996:12.5738 1011:12.5738 1028:14.2974 1053:12.5738 1055:17.650299 1060:12.5738 1077:18.450399 1084:14.2974 1091:12.5738 1107:10.1444 1124:10.1444 1136:10.1444 1150:10.1444 1156:12.5738 1161:12.5738 1171:10.1444 1223:10.1444 1244:12.5738 1268:12.5738 1295:12.5738 1326:10.1444 1376:10.1444 1395:10.1444 1399:19.156099 1426:12.5738 1443:10.1444 1460:12.5738 1472:10.1444 1498:10.1444 1502:12.5738 1548:12.5738 1562:10.1444 1597:10.1444 1598:10.1444 1615:12.5738 1622:12.5738 1626:17.650299 1679:10.1444 1744:10.1444 1785:14.2974 1906:10.1444 1909:10.1444 1920:10.1444 1926:10.1444 1955:10.1444 1967:10.1444 1984:14.2974 2000:10.1444 2023:10.1444 2031:19.156099 2047:12.5738 2065:10.1444 2079:10.1444 2082:10.1444 2109:14.2974 2156:12.5738 2158:10.1444 2233:10.1444 2237:10.1444 2239:10.1444 2240:18.450399 2252:10.1444 2307:10.1444 2313:14.2974 2322:18.450399 2337:10.1444 2355:10.1444 2365:12.5738 2374:17.650299 2376:15.6344 2425:10.1444 2434:10.1444 2439:10.1444 2464:10.1444 2528:10.1444 2530:10.1444 2550:10.1444 2573:10.1444 2629:10.1444 2637:10.1444 2649:10.1444 2654:10.1444 2661:10.1444 2678:10.1444 2693:12.5738 2700:10.1444 2766:10.1444 2809:10.1444 2817:10.1444 2864:10.1444 2885:15.6344 2907:10.1444 2941:10.1444 # seizures/00001136_s06.txt
6.3204440473799036433535936119199e-05 7:10.1444 24:10.1444 31:10.1444 120:10.1444 144:10.1444 175:10.1444 229:10.1444 310:10.1444 385:12.5738 387:10.1444 398:10.1444 405:12.5738 412:10.1444 464:10.1444 481:12.5738 521:10.1444 537:10.1444 559:14.2974 582:14.2974 606:10.1444 607:10.1444 619:10.1444 661:10.1444 668:10.1444 683:14.2974 770:10.1444 774:12.5738 798:10.1444 803:10.1444 843:14.2974 850:10.1444 869:14.2974 872:10.1444 890:10.1444 952:10.1444 957:10.1444 971:10.1444 980:10.1444 981:14.2974 982:10.1444 996:12.5738 1028:10.1444 1053:10.1444 1055:14.2974 1060:10.1444 1077:16.7267 1084:10.1444 1091:12.5738 1107:10.1444 1108:12.5738 1146:10.1444 1161:10.1444 1167:12.5738 1187:10.1444 1222:10.1444 1240:10.1444 1295:10.1444 1305:10.1444 1326:12.5738 1403:10.1444 1426:10.1444 1431:10.1444 1459:10.1444 1470:10.1444 1472:10.1444 1498:10.1444 1499:10.1444 1519:10.1444 1525:10.1444 1548:10.1444 1549:10.1444 1558:10.1444 1562:10.1444 1569:10.1444 1694:10.1444 1716:10.1444 1734:10.1444 1744:10.1444 1772:12.5738 1791:10.1444 1822:10.1444 1839:14.2974 1846:17.650299 1906:10.1444 1924:10.1444 1925:10.1444 1955:10.1444 1967:10.1444 2031:12.5738 2047:10.1444 2079:10.1444 2095:12.5738 2096:10.1444 2109:10.1444 2151:12.5738 2156:10.1444 2160:10.1444 2233:10.1444 2240:15.6344 2307:10.1444 2313:10.1444 2337:10.1444 2372:10.1444 2374:14.2974 2376:10.1444 2405:10.1444 2408:10.1444 2419:10.1444 2441:10.1444 2464:14.2974 2485:12.5738 2490:10.1444 2506:10.1444 2528:10.1444 2550:12.5738 2551:12.5738 2573:10.1444 2584:10.1444 2596:10.1444 2605:10.1444 2629:10.1444 2637:10.1444 2649:10.1444 2661:10.1444 2700:10.1444 2762:10.1444 2817:10.1444 2835:12.5738 2843:10.1444 2864:12.5738 2895:10.1444 2941:10.1444 # seizures/00004976_s02.txt
6.3204440473799036433535936119199e-05 24:10.1444 31:10.1444 83:10.1444 116:12.5738 126:10.1444 127:10.1444 193:10.1444 286:10.1444 385:12.5738 405:10.1444 412:14.2974 464:14.2974 481:15.6344 502:14.2974 511:10.1444 516:15.6344 517:10.1444 582:12.5738 606:10.1444 618:10.1444 619:10.1444 623:10.1444 631:10.1444 634:10.1444 653:10.1444 726:12.5738 731:12.5738 738:10.1444 774:12.5738 811:10.1444 843:10.1444 850:12.5738 869:12.5738 905:10.1444 932:10.1444 954:10.1444 957:10.1444 962:12.5738 971:10.1444 980:10.1444 981:12.5738 982:10.1444 996:12.5738 1028:10.1444 1053:12.5738 1055:12.5738 1060:14.2974 1077:15.6344 1078:10.1444 1084:10.1444 1091:12.5738 1136:10.1444 1146:10.1444 1150:10.1444 1156:10.1444 1161:15.6344 1188:10.1444 1223:10.1444 1240:10.1444 1246:12.5738 1268:17.650299 1295:10.1444 1296:10.1444 1300:10.1444 1305:10.1444 1346:10.1444 1417:10.1444 1426:14.2974 1437:14.2974 1459:10.1444 1472:14.2974 1498:10.1444 1504:10.1444 1506:10.1444 1562:10.1444 1569:10.1444 1597:10.1444 1615:12.5738 1626:17.650299 1660:10.1444 1665:10.1444 1673:10.1444 1726:10.1444 1744:14.2974 1772:12.5738 1809:10.1444 1815:10.1444 1824:10.1444 1826:10.1444 1836:14.2974 1906:10.1444 1909:10.1444 1913:12.5738 1920:14.2974 1924:10.1444 1929:10.1444 1955:10.1444 1967:12.5738 1975:10.1444 2022:10.1444 2026:10.1444 2028:10.1444 2031:14.2974 2047:12.5738 2076:10.1444 2079:10.1444 2104:10.1444 2109:10.1444 2148:10.1444 2156:10.1444 2225:10.1444 2227:10.1444 2233:10.1444 2240:17.650299 2244:10.1444 2252:10.1444 2253:17.650299 2266:10.1444 2285:12.5738 2295:10.1444 2307:10.1444 2309:10.1444 2313:10.1444 2314:10.1444 2322:12.5738 2351:10.1444 2365:10.1444 2374:17.650299 2376:20.3584 2412:12.5738 2441:10.1444 2455:14.2974 2464:16.7267 2477:10.1444 2485:10.1444 2506:10.1444 2525:10.1444 2528:10.1444 2529:10.1444 2536:10.1444 2548:10.1444 2570:10.1444 2573:10.1444 2610:10.1444 2629:10.1444 2645:10.1444 2649:10.1444 2661:16.7267 2678:10.1444 2700:12.5738 2753:10.1444 2800:10.1444 2817:12.5738 2818:10.1444 2864:10.1444 2871:10.1444 2885:10.1444 2895:12.5738 2907:14.2974 2941:10.1444 2954:10.1444 # seizures/00001884_s02.txt
-6.1453618783251061233677270401188e-05 31:10.1444 116:12.5738 125:10.1444 126:10.1444 277:10.1444 342:10.1444 385:12.5738 405:10.1444 412:14.2974 429:10.1444 464:14.2974 481:14.2974 502:15.6344 519:10.1444 531:10.1444 603:12.5738 653:10.1444 726:10.1444 731:10.1444 738:12.5738 770:12.5738 774:12.5738 821:10.1444 850:10.1444 852:10.1444 869:10.1444 952:10.1444 957:10.1444 980:12.5738 981:10.1444 996:12.5738 1028:10.1444 1053:12.5738 1054:10.1444 1055:14.2974 1060:12.5738 1077:14.2974 1084:12.5738 1091:17.650299 1127:10.1444 1131:10.1444 1137:10.1444 1150:12.5738 1161:10.1444 1164:10.1444 1171:12.5738 1201:10.1444 1202:10.1444 1246:10.1444 1268:16.7267 1295:12.5738 1296:10.1444 1300:10.1444 1326:10.1444 1348:10.1444 1386:10.1444 1399:10.1444 1417:12.5738 1426:12.5738 1472:14.2974 1483:10.1444 1494:12.5738 1498:10.1444 1506:10.1444 1548:10.1444 1562:10.1444 1591:10.1444 1622:10.1444 1626:14.2974 1652:14.2974 1690:10.1444 1710:12.5738 1744:10.1444 1755:12.5738 1760:10.1444 1774:12.5738 1785:14.2974 1842:12.5738 1906:10.1444 1909:12.5738 1945:10.1444 1959:10.1444 1967:10.1444 1984:10.1444 1985:10.1444 2031:16.7267 2047:12.5738 2079:10.1444 2089:10.1444 2109:10.1444 2156:10.1444 2202:10.1444 2219:10.1444 2225:10.1444 2233:10.1444 2237:10.1444 2240:17.650299 2252:12.5738 2253:12.5738 2256:10.1444 2307:10.1444 2313:14.2974 2314:10.1444 2322:15.6344 2341:10.1444 2358:10.1444 2359:10.1444 2374:15.6344 2376:14.2974 2405:10.1444 2414:10.1444 2419:10.1444 2423:10.1444 2439:10.1444 2455:14.2974 2464:15.6344 2485:10.1444 2525:14.2974 2528:10.1444 2536:12.5738 2573:14.2974 2629:10.1444 2649:10.1444 2661:17.650299 2678:12.5738 2693:10.1444 2700:10.1444 2817:10.1444 2854:15.6344 2885:16.7267 2895:10.1444 2907:10.1444 2927:10.1444 # none/00006018_s02.txt
-6.3204440473799036433535936119199e-05 31:10.1444 116:10.1444 124:10.1444 134:10.1444 261:10.1444 284:10.1444 385:12.5738 405:12.5738 412:12.5738 464:10.1444 481:15.6344 511:10.1444 516:10.1444 526:10.1444 582:10.1444 609:10.1444 619:10.1444 667:10.1444 699:10.1444 714:10.1444 731:12.5738 774:12.5738 843:12.5738 850:10.1444 869:10.1444 957:10.1444 973:10.1444 980:10.1444 981:12.5738 982:10.1444 996:10.1444 1028:10.1444 1053:12.5738 1060:12.5738 1077:14.2974 1078:10.1444 1084:10.1444 1091:14.2974 1127:10.1444 1150:10.1444 1161:12.5738 1202:10.1444 1210:10.1444 1223:10.1444 1268:14.2974 1295:12.5738 1296:10.1444 1305:10.1444 1326:12.5738 1381:10.1444 1399:15.6344 1403:10.1444 1426:14.2974 1454:10.1444 1459:10.1444 1468:10.1444 1472:12.5738 1498:10.1444 1562:10.1444 1569:10.1444 1591:10.1444 1597:10.1444 1615:10.1444 1626:12.5738 1633:10.1444 1669:10.1444 1728:10.1444 1734:12.5738 1744:14.2974 1772:10.1444 1783:14.2974 1836:10.1444 1906:10.1444 1909:10.1444 1913:12.5738 1955:10.1444 1967:10.1444 1984:12.5738 2022:10.1444 2028:10.1444 2031:10.1444 2047:14.2974 2079:10.1444 2104:12.5738 2109:10.1444 2138:10.1444 2146:10.1444 2156:12.5738 2215:10.1444 2233:10.1444 2240:16.7267 2252:10.1444 2253:14.2974 2313:10.1444 2322:16.7267 2341:10.1444 2374:18.450399 2376:16.7267 2412:12.5738 2441:10.1444 2455:14.2974 2464:16.7267 2512:10.1444 2528:10.1444 2536:12.5738 2566:10.1444 2570:10.1444 2573:10.1444 2574:12.5738 2622:10.1444 2628:10.1444 2629:10.1444 2649:10.1444 2661:16.7267 2678:10.1444 2693:10.1444 2700:14.2974 2709:10.1444 2817:10.1444 2852:10.1444 2864:10.1444 2885:12.5738 2895:14.2974 2941:10.1444 # none/00000894_s01.txt
3.4931908461126652770765282918219e-05 7:10.1444 8:10.1444 31:10.1444 101:10.1444 116:10.1444 120:10.1444 126:10.1444 148:10.1444 236:10.1444 244:10.1444 356:10.1444 385:14.2974 393:10.1444 405:12.5738 412:14.2974 435:10.1444 464:12.5738 481:10.1444 502:17.650299 512:10.1444 526:14.2974 534:10.1444 559:10.1444 619:10.1444 655:10.1444 680:10.1444 731:10.1444 738:10.1444 772:10.1444 774:15.6344 784:10.1444 817:10.1444 835:10.1444 839:10.1444 843:10.1444 850:15.6344 869:10.1444 932:10.1444 957:10.1444 968:14.2974 973:10.1444 980:10.1444 981:10.1444 996:14.2974 1021:10.1444 1028:12.5738 1050:10.1444 1051:10.1444 1053:10.1444 1055:10.1444 1060:10.1444 1077:16.7267 1084:10.1444 1091:12.5738 1095:12.5738 1117:12.5738 1124:10.1444 1127:10.1444 1161:10.1444 1164:12.5738 1188:16.7267 1218:10.1444 1268:14.2974 1273:10.1444 1295:14.2974 1299:10.1444 1300:10.1444 1305:10.1444 1319:10.1444 1376:10.1444 1382:15.6344 1386:12.5738 1399:12.5738 1408:10.1444 1426:12.5738 1460:10.1444 1472:12.5738 1498:10.1444 1502:10.1444 1504:10.1444 1548:15.6344 1549:10.1444 1562:10.1444 1569:10.1444 1615:10.1444 1622:12.5738 1626:15.6344 1655:12.5738 1667:10.1444 1684:10.1444 1685:10.1444 1689:10.1444 1744:10.1444 1765:10.1444 1825:12.5738 1826:12.5738 1838:10.1444 1839:12.5738 1842:10.1444 1931:10.1444 1937:10.1444 1945:14.2974 1946:10.1444 1959:10.1444 1964:10.1444 1967:12.5738 1975:12.5738 1984:10.1444 2016:10.1444 2031:17.650299 2047:12.5738 2079:10.1444 2109:12.5738 2117:10.1444 2138:10.1444 2156:12.5738 2158:10.1444 2202:10.1444 2207:10.1444 2219:10.1444 2225:10.1444 2227:10.1444 2233:10.1444 2240:16.7267 2253:12.5738 2259:10.1444 2266:12.5738 2313:10.1444 2314:10.1444 2322:18.450399 2341:10.1444 2374:12.5738 2376:19.7873 2410:10.1444 2412:12.5738 2439:14.2974 2464:14.2974 2470:12.5738 2518:12.5738 2528:10.1444 2529:10.1444 2530:12.5738 2547:10.1444 2555:10.1444 2570:10.1444 2573:10.1444 2594:14.2974 2615:10.1444 2629:10.1444 2649:10.1444 2661:10.1444 2678:10.1444 2693:12.5738 2715:12.5738 2742:10.1444 2754:10.1444 2773:12.5738 2805:12.5738 2817:10.1444 2885:10.1444 2895:12.5738 2903:10.1444 2927:10.1444 2941:10.1444 2955:10.1444 # seizures/00010474_s01.txt
-6.3204440473799036433535936119199e-05 22:10.1444 31:10.1444 155:10.1444 189:10.1444 385:12.5738 387:10.1444 405:12.5738 412:14.2974 481:10.1444 502:15.6344 511:10.1444 526:10.1444 549:10.1444 607:10.1444 619:10.1444 726:10.1444 774:12.5738 835:10.1444 850:14.2974 869:10.1444 947:12.5738 956:10.1444 957:10.1444 968:10.1444 971:10.1444 979:10.1444 980:10.1444 981:10.1444 982:10.1444 984:10.1444 996:12.5738 1028:10.1444 1053:10.1444 1055:14.2974 1060:12.5738 1077:17.650299 1084:10.1444 1091:12.5738 1117:12.5738 1129:10.1444 1161:10.1444 1195:10.1444 1210:14.2974 1223:10.1444 1240:10.1444 1244:14.2974 1246:10.1444 1268:14.2974 1295:14.2974 1296:10.1444 1300:12.5738 1305:10.1444 1324:10.1444 1326:12.5738 1399:17.650299 1407:10.1444 1426:12.5738 1437:14.2974 1459:10.1444 1472:12.5738 1498:10.1444 1499:16.7267 1531:10.1444 1548:18.450399 1562:10.1444 1569:10.1444 1615:10.1444 1617:12.5738 1637:10.1444 1652:10.1444 1656:10.1444 1657:10.1444 1665:10.1444 1673:10.1444 1687:10.1444 1713:10.1444 1724:10.1444 1734:15.6344 1744:10.1444 1783:10.1444 1815:10.1444 1816:10.1444 1839:10.1444 1856:10.1444 1885:10.1444 1906:12.5738 1913:14.2974 1915:10.1444 1945:15.6344 1964:10.1444 1984:15.6344 2000:10.1444 2031:10.1444 2034:12.5738 2047:12.5738 2050:10.1444 2051:10.1444 2079:10.1444 2084:12.5738 2089:10.1444 2109:10.1444 2156:10.1444 2166:10.1444 2233:10.1444 2240:18.450399 2244:10.1444 2253:14.2974 2307:10.1444 2313:10.1444 2314:10.1444 2322:20.3584 2325:10.1444 2374:12.5738 2376:14.2974 2409:10.1444 2412:14.2974 2441:10.1444 2455:12.5738 2464:17.650299 2528:10.1444 2530:10.1444 2570:10.1444 2573:10.1444 2594:10.1444 2601:10.1444 2629:10.1444 2649:10.1444 2661:12.5738 2693:10.1444 2805:10.1444 2817:10.1444 2864:10.1444 2874:12.5738 2882:10.1444 2885:12.5738 2895:14.2974 # none/00002433_s01.txt
-1.6501336229371632222367310971478e-05 24:10.1444 31:10.1444 120:12.5738 143:10.1444 274:10.1444 293:12.5738 342:10.1444 385:14.2974 405:10.1444 412:12.5738 464:12.5738 481:16.7267 502:10.1444 516:10.1444 559:10.1444 563:10.1444 619:10.1444 629:10.1444 653:10.1444 731:10.1444 774:12.5738 843:10.1444 869:10.1444 957:10.1444 973:10.1444 980:10.1444 996:12.5738 1012:10.1444 1028:10.1444 1030:10.1444 1053:10.1444 1055:12.5738 1060:10.1444 1077:16.7267 1084:10.1444 1091:12.5738 1127:10.1444 1150:10.1444 1161:10.1444 1188:12.5738 1268:14.2974 1275:10.1444 1295:12.5738 1296:14.2974 1305:10.1444 1386:10.1444 1399:10.1444 1426:12.5738 1472:14.2974 1498:10.1444 1502:10.1444 1506:15.6344 1562:10.1444 1591:10.1444 1626:12.5738 1667:10.1444 1710:10.1444 1712:10.1444 1744:10.1444 1772:12.5738 1906:12.5738 1909:10.1444 1913:10.1444 1920:10.1444 1944:10.1444 1967:14.2974 1984:14.2974 2031:12.5738 2047:10.1444 2065:12.5738 2079:10.1444 2082:10.1444 2109:10.1444 2156:10.1444 2158:10.1444 2219:10.1444 2225:10.1444 2227:10.1444 2233:10.1444 2240:15.6344 2244:10.1444 2252:10.1444 2253:14.2974 2256:10.1444 2259:10.1444 2279:10.1444 2313:10.1444 2314:10.1444 2322:10.1444 2341:10.1444 2374:16.7267 2376:17.650299 2412:15.6344 2441:10.1444 2455:17.650299 2464:12.5738 2528:10.1444 2550:12.5738 2573:10.1444 2629:10.1444 2649:10.1444 2654:10.1444 2661:16.7267 2687:10.1444 2700:12.5738 2817:10.1444 2854:12.5738 2885:17.650299 2895:16.7267 2907:12.5738 2927:10.1444 # none/00003064_s01.txt
3.5026641783021020650542437513408e-05 24:10.1444 31:10.1444 83:10.1444 120:10.1444 191:10.1444 229:12.5738 328:10.1444 360:10.1444 385:10.1444 405:16.7267 408:10.1444 419:10.1444 447:10.1444 464:10.1444 549:10.1444 582:10.1444 606:10.1444 608:10.1444 621:10.1444 657:10.1444 679:10.1444 698:10.1444 717:10.1444 726:12.5738 739:10.1444 774:14.2974 811:10.1444 852:10.1444 869:10.1444 902:10.1444 948:10.1444 957:10.1444 974:10.1444 980:10.1444 981:10.1444 982:12.5738 984:10.1444 996:10.1444 1007:10.1444 1008:10.1444 1053:10.1444 1054:10.1444 1055:14.2974 1066:10.1444 1077:17.650299 1084:10.1444 1091:10.1444 1129:10.1444 1130:10.1444 1156:10.1444 1188:10.1444 1268:12.5738 1273:10.1444 1296:10.1444 1300:15.6344 1361:10.1444 1426:10.1444 1439:10.1444 1460:10.1444 1472:12.5738 1476:10.1444 1498:10.1444 1504:10.1444 1523:10.1444 1562:10.1444 1615:10.1444 1626:16.7267 1636:10.1444 1651:10.1444 1667:10.1444 1719:10.1444 1744:10.1444 1791:14.2974 1825:10.1444 1875:10.1444 1959:12.5738 1967:10.1444 2016:15.6344 2031:15.6344 2047:12.5738 2065:10.1444 2079:10.1444 2100:10.1444 2148:10.1444 2218:12.5738 2227:10.1444 2240:18.450399 2253:10.1444 2276:10.1444 2301:10.1444 2313:10.1444 2322:14.2974 2365:12.5738 2374:12.5738 2376:15.6344 2412:16.7267 2414:10.1444 2425:10.1444 2433:10.1444 2464:14.2974 2498:10.1444 2528:10.1444 2536:10.1444 2550:14.2974 2565:10.1444 2596:10.1444 2629:10.1444 2645:10.1444 2678:10.1444 2714:10.1444 2809:12.5738 2817:10.1444 2835:10.1444 2864:12.5738 2885:10.1444 2895:10.1444 2901:10.1444 2907:10.1444 2927:10.1444 # seizures/00007649_s01.txt
2.9683504693000404498891969806706e-05 12:10.1444 14:19.7873 17:10.1444 31:14.2974 120:12.5738 155:10.1444 158:15.6344 168:10.1444 169:10.1444 175:10.1444 176:10.1444 180:10.1444 184:10.1444 186:10.1444 191:15.6344 201:10.1444 202:10.1444 207:10.1444 209:10.1444 219:10.1444 229:12.5738 235:10.1444 240:10.1444 268:10.1444 276:12.5738 293:15.6344 385:10.1444 387:10.1444 390:10.1444 392:10.1444 405:17.650299 447:14.2974 451:10.1444 526:15.6344 530:10.1444 531:10.1444 542:10.1444 556:10.1444 564:10.1444 572:14.2974 573:12.5738 581:10.1444 582:10.1444 603:10.1444 604:12.5738 607:10.1444 610:15.6344 634:10.1444 649:14.2974 657:15.6344 685:14.2974 702:10.1444 739:14.2974 764:10.1444 770:10.1444 774:20.3584 807:10.1444 837:10.1444 850:18.450399 862:15.6344 869:17.650299 906:10.1444 933:10.1444 949:15.6344 955:10.1444 956:12.5738 957:16.7267 959:16.7267 962:10.1444 977:10.1444 984:10.1444 1004:10.1444 1011:10.1444 1019:10.1444 1028:10.1444 1050:16.7267 1055:12.5738 1077:25.0327 1084:14.2974 1091:18.450399 1107:10.1444 1109:10.1444 1111:10.1444 1123:10.1444 1131:18.450399 1156:19.7873 1180:10.1444 1202:10.1444 1210:10.1444 1213:12.5738 1218:12.5738 1240:10.1444 1268:18.450399 1273:10.1444 1277:10.1444 1295:10.1444 1296:10.1444 1305:10.1444 1307:10.1444 1330:12.5738 1346:12.5738 1348:10.1444 1376:15.6344 1382:10.1444 1386:15.6344 1398:10.1444 1399:15.6344 1417:10.1444 1426:10.1444 1431:10.1444 1437:10.1444 1472:12.5738 1480:12.5738 1483:14.2974 1498:15.6344 1502:15.6344 1508:10.1444 1527:10.1444 1539:10.1444 1543:10.1444 1548:12.5738 1551:10.1444 1562:16.7267 1626:17.650299 1634:10.1444 1648:10.1444 1652:10.1444 1654:10.1444 1660:10.1444 1673:10.1444 1678:12.5738 1707:10.1444 1715:10.1444 1741:10.1444 1744:10.1444 1791:10.1444 1809:21.359301 1815:12.5738 1816:14.2974 1822:10.1444 1825:10.1444 1826:12.5738 1833:12.5738 1861:10.1444 1906:12.5738 1908:10.1444 1913:14.2974 1920:19.156099 1924:10.1444 1927:10.1444 1929:15.6344 1938:10.1444 1948:17.650299 1959:15.6344 1980:12.5738 1981:10.1444 2026:14.2974 2028:10.1444 2030:10.1444 2031:23.632999 2034:14.2974 2047:15.6344 2072:10.1444 2079:14.2974 2096:10.1444 2104:10.1444 2109:10.1444 2120:10.1444 2146:10.1444 2149:14.2974 2153:14.2974 2162:10.1444 2165:10.1444 2166:10.1444 2188:10.1444 2189:14.2974 2191:15.6344 2197:10.1444 2206:10.1444 2213:10.1444 2217:10.1444 2219:15.6344 2227:12.5738 2240:20.3584 2258:10.1444 2264:10.1444 2268:12.5738 2279:12.5738 2289:10.1444 2306:10.1444 2313:15.6344 2314:12.5738 2322:18.450399 2325:10.1444 2334:20.8797 2355:10.1444 2365:10.1444 2370:16.7267 2373:10.1444 2374:10.1444 2376:20.3584 2390:10.1444 2404:12.5738 2409:10.1444 2426:10.1444 2428:10.1444 2429:12.5738 2431:10.1444 2455:21.803301 2457:10.1444 2460:10.1444 2464:19.7873 2477:10.1444 2485:10.1444 2498:10.1444 2506:10.1444 2512:16.7267 2524:10.1444 2525:17.650299 2528:14.2974 2530:10.1444 2555:15.6344 2565:12.5738 2592:10.1444 2596:10.1444 2620:12.5738 2629:14.2974 2638:10.1444 2641:10.1444 2646:10.1444 2649:10.1444 2655:10.1444 2666:10.1444 2692:12.5738 2700:12.5738 2727:12.5738 2737:10.1444 2757:10.1444 2765:10.1444 2766:15.6344 2770:12.5738 2795:14.2974 2817:15.6344 2858:15.6344 2864:19.156099 2885:19.156099 2895:16.7267 2906:10.1444 2909:10.1444 2910:10.1444 2926:12.5738 # seizures/00001732_s05.txt
2.1804734249140263405825589104747e-06 19:12.5738 20:10.1444 21:10.1444 31:10.1444 45:12.5738 60:10.1444 75:12.5738 93:14.2974 120:12.5738 151:10.1444 153:10.1444 155:14.2974 163:10.1444 167:10.1444 180:10.1444 209:10.1444 215:10.1444 219:10.1444 237:10.1444 244:10.1444 253:10.1444 279:10.1444 356:12.5738 377:10.1444 392:10.1444 405:10.1444 412:15.6344 439:10.1444 441:10.1444 447:10.1444 450:12.5738 462:10.1444 502:10.1444 521:10.1444 572:14.2974 581:10.1444 582:12.5738 604:14.2974 606:10.1444 610:17.650299 619:10.1444 657:14.2974 685:10.1444 709:10.1444 738:10.1444 739:10.1444 740:12.5738 741:10.1444 749:10.1444 760:10.1444 764:12.5738 774:10.1444 805:10.1444 819:12.5738 839:10.1444 850:10.1444 916:10.1444 949:14.2974 954:10.1444 957:14.2974 982:10.1444 984:10.1444 986:10.1444 1019:10.1444 1028:12.5738 1050:10.1444 1053:10.1444 1054:10.1444 1055:16.7267 1077:20.3584 1084:10.1444 1091:12.5738 1127:10.1444 1129:10.1444 1131:10.1444 1156:18.450399 1161:10.1444 1175:10.1444 1187:10.1444 1199:10.1444 1225:10.1444 1240:10.1444 1268:10.1444 1273:12.5738 1290:10.1444 1297:10.1444 1305:10.1444 1346:10.1444 1376:12.5738 1426:12.5738 1435:10.1444 1437:10.1444 1439:14.2974 1452:12.5738 1472:10.1444 1475:10.1444 1477:10.1444 1480:10.1444 1498:14.2974 1502:12.5738 1523:10.1444 1527:10.1444 1534:10.1444 1539:12.5738 1548:12.5738 1562:10.1444 1583:10.1444 1588:10.1444 1591:10.1444 1606:10.1444 1629:12.5738 1672:12.5738 1673:10.1444 1685:10.1444 1689:10.1444 1690:10.1444 1694:10.1444 1715:10.1444 1744:10.1444 1791:12.5738 1809:14.2974 1815:10.1444 1820:10.1444 1826:17.650299 1836:12.5738 1858:10.1444 1861:12.5738 1895:10.1444 1907:10.1444 1913:17.650299 1920:12.5738 1923:10.1444 1929:10.1444 1938:10.1444 1946:10.1444 1955:10.1444 1964:10.1444 1973:10.1444 1984:10.1444 2000:10.1444 2031:17.650299 2034:14.2974 2044:10.1444 2047:10.1444 2079:10.1444 2104:12.5738 2109:12.5738 2113:10.1444 2165:10.1444 2172:10.1444 2174:10.1444 2181:10.1444 2188:10.1444 2189:10.1444 2192:10.1444 2213:10.1444 2227:10.1444 2237:10.1444 2240:16.7267 2244:10.1444 2259:12.5738 2268:10.1444 2291:10.1444 2313:14.2974 2314:12.5738 2322:10.1444 2360:10.1444 2370:10.1444 2373:10.1444 2376:15.6344 2381:10.1444 2404:10.1444 2409:12.5738 2455:16.7267 2464:12.5738 2471:10.1444 2486:10.1444 2498:10.1444 2503:12.5738 2512:14.2974 2525:12.5738 2528:10.1444 2529:15.6344 2530:14.2974 2533:10.1444 2555:10.1444 2597:10.1444 2620:10.1444 2629:10.1444 2668:12.5738 2694:12.5738 2700:10.1444 2714:10.1444 2725:10.1444 2778:10.1444 2817:10.1444 2858:14.2974 2864:10.1444 2880:10.1444 2885:16.7267 2895:14.2974 2907:10.1444 2908:10.1444 2926:14.2974 2941:10.1444 # seizures/00000952_s01.txt
3.9822596391163104492718488591763e-05 4:10.1444 10:16.7267 12:10.1444 19:12.5738 24:10.1444 31:10.1444 45:10.1444 93:18.450399 101:12.5738 120:12.5738 207:10.1444 211:10.1444 242:10.1444 274:10.1444 399:10.1444 405:18.450399 429:10.1444 434:10.1444 462:10.1444 464:10.1444 502:10.1444 526:10.1444 543:10.1444 559:10.1444 566:10.1444 571:10.1444 572:10.1444 581:10.1444 582:10.1444 594:10.1444 603:10.1444 606:10.1444 610:15.6344 634:14.2974 643:10.1444 653:10.1444 657:10.1444 685:10.1444 698:10.1444 718:10.1444 738:12.5738 739:10.1444 770:14.2974 774:14.2974 812:10.1444 813:10.1444 817:10.1444 832:10.1444 850:10.1444 869:10.1444 892:10.1444 916:10.1444 920:10.1444 945:10.1444 949:10.1444 952:10.1444 957:10.1444 959:10.1444 975:12.5738 984:10.1444 1055:10.1444 1077:14.2974 1084:10.1444 1091:12.5738 1117:10.1444 1127:10.1444 1131:12.5738 1156:15.6344 1168:10.1444 1176:10.1444 1188:10.1444 1201:10.1444 1202:10.1444 1238:12.5738 1239:10.1444 1255:12.5738 1296:10.1444 1326:10.1444 1359:10.1444 1376:10.1444 1382:10.1444 1399:10.1444 1420:10.1444 1423:10.1444 1426:10.1444 1439:10.1444 1472:10.1444 1475:12.5738 1480:14.2974 1498:10.1444 1535:10.1444 1562:10.1444 1565:10.1444 1573:10.1444 1617:10.1444 1626:18.450399 1628:10.1444 1634:10.1444 1645:10.1444 1660:10.1444 1676:10.1444 1678:10.1444 1715:10.1444 1744:10.1444 1755:10.1444 1809:10.1444 1815:16.7267 1822:10.1444 1826:10.1444 1839:14.2974 1875:10.1444 1913:10.1444 1919:10.1444 1924:10.1444 1926:10.1444 1959:12.5738 1985:10.1444 1988:10.1444 2014:10.1444 2022:10.1444 2031:20.8797 2034:10.1444 2047:10.1444 2069:10.1444 2079:10.1444 2102:12.5738 2113:10.1444 2138:10.1444 2153:10.1444 2189:10.1444 2214:10.1444 2224:10.1444 2240:10.1444 2251:10.1444 2253:14.2974 2322:15.6344 2337:10.1444 2373:10.1444 2374:12.5738 2376:16.7267 2379:10.1444 2417:12.5738 2431:10.1444 2455:10.1444 2464:10.1444 2498:10.1444 2528:10.1444 2530:10.1444 2536:10.1444 2590:12.5738 2620:10.1444 2629:10.1444 2645:10.1444 2661:14.2974 2671:10.1444 2678:12.5738 2700:14.2974 2708:12.5738 2709:10.1444 2754:10.1444 2766:10.1444 2778:10.1444 2781:10.1444 2791:14.2974 2795:10.1444 2798:12.5738 2799:10.1444 2817:10.1444 2864:10.1444 2885:12.5738 2887:10.1444 2898:10.1444 2955:10.1444 # seizures/00000670_s02.txt
5.9985698224990468803777265982546e-05 13:10.1444 31:10.1444 60:10.1444 67:10.1444 75:10.1444 132:10.1444 199:10.1444 246:10.1444 263:10.1444 264:10.1444 385:10.1444 388:10.1444 390:10.1444 405:20.8797 412:12.5738 429:10.1444 431:10.1444 464:19.156099 502:10.1444 506:10.1444 531:10.1444 559:15.6344 579:10.1444 582:14.2974 596:10.1444 610:10.1444 653:10.1444 657:10.1444 683:10.1444 738:10.1444 739:10.1444 740:10.1444 741:10.1444 754:18.450399 774:18.450399 819:10.1444 869:14.2974 916:10.1444 945:10.1444 949:12.5738 956:10.1444 957:10.1444 967:12.5738 982:10.1444 996:10.1444 1000:12.5738 1050:10.1444 1053:10.1444 1055:10.1444 1077:19.156099 1084:10.1444 1091:10.1444 1130:12.5738 1131:10.1444 1141:10.1444 1154:10.1444 1176:10.1444 1188:12.5738 1202:10.1444 1213:10.1444 1240:10.1444 1266:12.5738 1273:12.5738 1284:10.1444 1287:10.1444 1305:10.1444 1399:12.5738 1417:18.450399 1425:10.1444 1426:10.1444 1439:10.1444 1480:12.5738 1487:10.1444 1490:12.5738 1498:10.1444 1502:12.5738 1506:10.1444 1512:12.5738 1548:10.1444 1562:10.1444 1568:10.1444 1583:10.1444 1598:10.1444 1626:10.1444 1632:12.5738 1646:10.1444 1715:10.1444 1744:10.1444 1775:10.1444 1788:10.1444 1802:10.1444 1813:10.1444 1819:10.1444 1833:10.1444 1836:10.1444 1913:10.1444 1920:14.2974 1938:10.1444 1945:10.1444 1957:10.1444 1959:10.1444 1964:10.1444 1967:10.1444 1985:10.1444 2031:12.5738 2034:14.2974 2047:10.1444 2060:10.1444 2074:10.1444 2079:10.1444 2091:19.7873 2111:10.1444 2146:10.1444 2215:10.1444 2240:15.6344 2244:10.1444 2253:14.2974 2306:10.1444 2309:10.1444 2314:12.5738 2322:14.2974 2351:10.1444 2365:10.1444 2370:10.1444 2373:10.1444 2376:17.650299 2388:10.1444 2428:10.1444 2464:19.156099 2479:10.1444 2495:12.5738 2506:23.309 2528:10.1444 2536:12.5738 2627:14.2974 2629:10.1444 2647:12.5738 2652:10.1444 2678:12.5738 2712:10.1444 2713:10.1444 2720:10.1444 2733:10.1444 2774:10.1444 2808:10.1444 2817:10.1444 2820:10.1444 2864:10.1444 2895:21.803301 2898:10.1444 2936:10.1444 # seizures/00006214_s02.txt
-6.3204440473799036433535936119199e-05 4:12.5738 10:12.5738 13:12.5738 14:12.5738 15:14.2974 17:16.7267 24:21.803301 31:12.5738 45:14.2974 56:19.156099 67:18.450399 75:15.6344 83:12.5738 89:22.6033 93:10.1444 96:21.803301 101:10.1444 120:10.1444 138:19.156099 155:14.2974 158:10.1444 163:14.2974 175:10.1444 180:15.6344 184:12.5738 191:10.1444 205:10.1444 207:14.2974 211:14.2974 213:10.1444 215:10.1444 219:10.1444 229:12.5738 233:10.1444 240:10.1444 242:14.2974 244:12.5738 246:10.1444 250:10.1444 276:15.6344 279:12.5738 288:10.1444 291:10.1444 293:10.1444 381:10.1444 388:10.1444 395:10.1444 405:25.277201 407:12.5738 412:14.2974 428:10.1444 429:12.5738 447:19.156099 451:12.5738 462:17.650299 464:14.2974 480:10.1444 481:14.2974 502:12.5738 507:10.1444 517:10.1444 522:10.1444 526:19.156099 531:12.5738 537:10.1444 542:10.1444 558:10.1444 559:10.1444 566:12.5738 572:12.5738 574:10.1444 582:21.359301 583:10.1444 599:12.5738 604:17.650299 606:10.1444 609:10.1444 610:12.5738 611:10.1444 618:10.1444 619:12.5738 629:10.1444 634:15.6344 653:12.5738 683:16.7267 685:17.650299 698:16.7267 702:10.1444 710:12.5738 714:10.1444 731:10.1444 732:10.1444 736:10.1444 738:16.7267 739:14.2974 740:10.1444 764:12.5738 770:19.7873 774:19.7873 781:10.1444 812:10.1444 818:10.1444 819:12.5738 820:10.1444 835:12.5738 850:14.2974 852:10.1444 855:10.1444 869:10.1444 900:10.1444 915:12.5738 920:10.1444 940:10.1444 947:15.6344 949:19.156099 956:10.1444 957:15.6344 962:15.6344 965:12.5738 977:10.1444 979:14.2974 980:10.1444 994:10.1444 996:15.6344 1028:10.1444 1050:12.5738 1054:12.5738 1055:10.1444 1077:20.3584 1084:15.6344 1091:15.6344 1117:12.5738 1123:15.6344 1124:10.1444 1131:10.1444 1138:10.1444 1156:12.5738 1161:10.1444 1163:14.2974 1174:10.1444 1182:10.1444 1201:15.6344 1202:12.5738 1209:10.1444 1210:10.1444 1234:10.1444 1236:12.5738 1238:10.1444 1246:14.2974 1261:10.1444 1268:17.650299 1273:10.1444 1287:10.1444 1295:20.8797 1296:10.1444 1300:10.1444 1326:12.5738 1346:10.1444 1359:12.5738 1376:18.450399 1382:10.1444 1385:10.1444 1390:12.5738 1399:14.2974 1417:14.2974 1430:10.1444 1472:16.7267 1475:14.2974 1480:19.7873 1483:12.5738 1490:10.1444 1493:10.1444 1502:15.6344 1506:10.1444 1508:14.2974 1509:16.7267 1523:12.5738 1548:14.2974 1562:12.5738 1568:10.1444 1583:10.1444 1596:10.1444 1616:10.1444 1617:14.2974 1622:12.5738 1624:10.1444 1625:10.1444 1626:25.9562 1629:10.1444 1634:10.1444 1645:16.7267 1660:10.1444 1667:10.1444 1673:16.7267 1678:10.1444 1685:10.1444 1690:10.1444 1699:10.1444 1712:10.1444 1718:10.1444 1723:19.156099 1744:10.1444 1745:12.5738 1776:10.1444 1777:10.1444 1791:15.6344 1798:10.1444 1809:17.650299 1815:19.156099 1816:10.1444 1822:10.1444 1825:10.1444 1826:19.156099 1827:12.5738 1833:15.6344 1836:10.1444 1839:14.2974 1855:10.1444 1863:10.1444 1889:10.1444 1900:10.1444 1902:10.1444 1913:12.5738 1917:10.1444 1920:20.8797 1929:20.3584 1937:16.7267 1938:12.5738 1943:10.1444 1944:16.7267 1957:10.1444 1959:16.7267 1964:12.5738 1972:10.1444 1980:12.5738 1984:14.2974 1985:12.5738 1988:12.5738 2021:12.5738 2022:10.1444 2023:12.5738 2026:14.2974 2030:12.5738 2031:25.9562 2034:14.2974 2037:10.1444 2047:12.5738 2050:12.5738 2052:10.1444 2072:14.2974 2079:12.5738 2100:16.7267 2103:10.1444 2109:14.2974 2113:14.2974 2120:10.1444 2126:14.2974 2137:10.1444 2146:15.6344 2149:12.5738 2151:12.5738 2158:10.1444 2159:10.1444 2165:17.650299 2166:12.5738 2189:17.650299 2201:10.1444 2213:15.6344 2217:10.1444 2218:12.5738 2225:10.1444 2240:24.232599 2241:10.1444 2253:21.359301 2259:12.5738 2266:12.5738 2268:12.5738 2276:14.2974 2286:10.1444 2309:16.7267 2313:12.5738 2314:19.156099 2322:23.9403 2337:12.5738 2352:10.1444 2355:10.1444 2365:14.2974 2370:18.450399 2373:22.6033 2374:22.2167 2376:24.232599 2396:10.1444 2405:12.5738 2412:22.2167 2414:10.1444 2416:10.1444 2419:10.1444 2425:17.650299 2431:10.1444 2433:10.1444 2439:10.1444 2445:14.2974 2455:19.156099 2459:10.1444 2464:25.512199 2466:10.1444 2468:10.1444 2471:10.1444 2477:10.1444 2484:12.5738 2486:12.5738 2506:20.8797 2512:12.5738 2515:10.1444 2517:10.1444 2518:12.5738 2525:12.5738 2528:12.5738 2530:16.7267 2533:10.1444 2540:14.2974 2575:10.1444 2587:10.1444 2596:10.1444 2611:10.1444 2614:10.1444 2615:10.1444 2629:12.5738 2636:10.1444 2645:14.2974 2661:24.7777 2664:12.5738 2671:10.1444 2678:15.6344 2682:10.1444 2687:10.1444 2693:10.1444 2700:21.359301 2708:10.1444 2709:15.6344 2713:10.1444 2714:12.5738 2723:15.6344 2735:10.1444 2737:10.1444 2738:12.5738 2763:10.1444 2778:10.1444 2791:10.1444 2793:10.1444 2795:12.5738 2809:17.650299 2817:15.6344 2818:10.1444 2827:10.1444 2858:12.5738 2864:15.6344 2868:10.1444 2878:10.1444 2880:10.1444 2885:17.650299 2894:10.1444 2895:24.232599 2907:10.1444 2937:10.1444 # none/00001092_s03.txt
-6.3204440473799036433535936119199e-05 11:10.1444 24:12.5738 31:10.1444 45:12.5738 56:10.1444 89:10.1444 93:10.1444 145:12.5738 177:10.1444 279:10.1444 377:10.1444 385:10.1444 387:10.1444 405:12.5738 412:10.1444 419:10.1444 428:10.1444 429:15.6344 462:10.1444 481:10.1444 502:14.2974 517:12.5738 518:15.6344 531:12.5738 561:10.1444 572:15.6344 581:10.1444 582:12.5738 604:10.1444 610:10.1444 619:10.1444 685:10.1444 770:12.5738 774:14.2974 869:12.5738 878:10.1444 934:10.1444 956:10.1444 957:10.1444 980:10.1444 996:12.5738 1028:10.1444 1055:16.7267 1077:18.450399 1084:10.1444 1091:14.2974 1124:10.1444 1131:10.1444 1136:15.6344 1141:10.1444 1156:14.2974 1171:10.1444 1188:10.1444 1347:12.5738 1426:10.1444 1431:10.1444 1437:12.5738 1498:10.1444 1562:10.1444 1568:14.2974 1591:10.1444 1615:12.5738 1622:10.1444 1673:10.1444 1744:10.1444 1791:12.5738 1825:10.1444 1836:12.5738 1906:10.1444 1907:10.1444 1913:15.6344 1920:10.1444 1929:10.1444 1967:12.5738 2031:18.450399 2047:14.2974 2079:10.1444 2082:10.1444 2109:10.1444 2140:10.1444 2156:12.5738 2182:10.1444 2185:10.1444 2225:10.1444 2227:10.1444 2240:18.450399 2244:10.1444 2279:10.1444 2307:12.5738 2313:10.1444 2374:10.1444 2376:15.6344 2409:14.2974 2423:10.1444 2439:10.1444 2455:17.650299 2525:14.2974 2528:10.1444 2530:14.2974 2555:12.5738 2562:10.1444 2594:10.1444 2596:10.1444 2629:10.1444 2649:10.1444 2661:10.1444 2690:12.5738 2693:10.1444 2700:10.1444 2800:16.7267 2809:12.5738 2817:10.1444 2854:10.1444 2864:12.5738 2885:17.650299 2908:10.1444 2916:10.1444 # none/00008540_s01.txt
-6.3204440473799036433535936119199e-05 11:10.1444 31:10.1444 33:10.1444 86:10.1444 135:10.1444 148:10.1444 181:10.1444 301:10.1444 349:10.1444 385:10.1444 387:10.1444 405:17.650299 502:14.2974 517:10.1444 537:10.1444 539:10.1444 549:10.1444 582:12.5738 594:10.1444 606:10.1444 610:10.1444 657:10.1444 685:12.5738 698:10.1444 738:10.1444 739:10.1444 774:12.5738 813:10.1444 839:10.1444 850:10.1444 869:10.1444 932:10.1444 947:12.5738 956:10.1444 957:10.1444 965:10.1444 979:10.1444 1036:10.1444 1043:10.1444 1053:10.1444 1055:12.5738 1077:15.6344 1084:10.1444 1091:10.1444 1095:10.1444 1156:14.2974 1163:10.1444 1168:10.1444 1193:10.1444 1202:10.1444 1213:12.5738 1268:14.2974 1295:10.1444 1326:12.5738 1331:10.1444 1347:10.1444 1370:10.1444 1376:10.1444 1399:10.1444 1426:10.1444 1430:10.1444 1437:10.1444 1439:10.1444 1480:12.5738 1498:10.1444 1502:10.1444 1548:12.5738 1562:10.1444 1581:10.1444 1590:10.1444 1634:10.1444 1636:10.1444 1660:10.1444 1685:10.1444 1735:10.1444 1744:10.1444 1755:10.1444 1778:10.1444 1809:15.6344 1815:10.1444 1822:10.1444 1833:12.5738 1836:10.1444 1839:10.1444 1929:10.1444 1945:12.5738 1959:10.1444 1973:10.1444 1984:10.1444 2031:14.2974 2034:10.1444 2047:10.1444 2079:10.1444 2089:10.1444 2096:10.1444 2100:12.5738 2109:10.1444 2146:14.2974 2166:10.1444 2189:14.2974 2195:10.1444 2201:10.1444 2213:10.1444 2240:15.6344 2253:12.5738 2266:10.1444 2309:10.1444 2314:12.5738 2322:15.6344 2373:10.1444 2376:15.6344 2412:10.1444 2423:10.1444 2433:10.1444 2455:16.7267 2464:18.450399 2486:12.5738 2506:10.1444 2526:10.1444 2528:10.1444 2536:10.1444 2573:12.5738 2601:10.1444 2620:10.1444 2629:10.1444 2678:10.1444 2686:10.1444 2700:10.1444 2791:10.1444 2817:10.1444 2858:10.1444 2864:10.1444 2874:10.1444 2885:10.1444 2895:14.2974 2907:10.1444 # none/00004200_s03.txt
-5.8136203132662438121044945482652e-05 12:10.1444 13:12.5738 14:10.1444 31:12.5738 45:12.5738 56:10.1444 83:10.1444 144:10.1444 148:10.1444 155:15.6344 158:12.5738 202:10.1444 235:10.1444 237:10.1444 282:10.1444 328:10.1444 368:10.1444 399:10.1444 428:10.1444 433:10.1444 447:10.1444 451:10.1444 502:14.2974 519:10.1444 526:10.1444 545:12.5738 572:16.7267 582:16.7267 606:12.5738 621:12.5738 634:10.1444 657:12.5738 683:18.450399 731:10.1444 739:12.5738 750:10.1444 774:15.6344 844:12.5738 850:14.2974 869:12.5738 920:10.1444 957:15.6344 982:14.2974 990:10.1444 996:12.5738 1011:10.1444 1043:10.1444 1050:12.5738 1055:12.5738 1070:12.5738 1077:19.156099 1084:12.5738 1091:12.5738 1112:10.1444 1131:15.6344 1176:10.1444 1213:12.5738 1229:10.1444 1246:14.2974 1278:10.1444 1296:12.5738 1359:10.1444 1376:10.1444 1412:10.1444 1426:10.1444 1437:14.2974 1439:12.5738 1472:10.1444 1480:12.5738 1483:14.2974 1493:12.5738 1498:14.2974 1502:15.6344 1562:12.5738 1568:15.6344 1588:12.5738 1624:10.1444 1660:10.1444 1672:14.2974 1673:10.1444 1703:12.5738 1744:10.1444 1809:19.7873 1815:14.2974 1833:10.1444 1889:12.5738 1913:12.5738 1920:15.6344 1924:10.1444 1929:14.2974 1943:10.1444 1944:15.6344 1955:10.1444 1973:14.2974 1980:15.6344 2021:17.650299 2031:19.7873 2034:14.2974 2047:10.1444 2079:12.5738 2120:14.2974 2191:17.650299 2201:12.5738 2213:10.1444 2218:10.1444 2229:10.1444 2240:17.650299 2244:10.1444 2268:12.5738 2281:12.5738 2313:10.1444 2322:10.1444 2370:14.2974 2374:10.1444 2376:14.2974 2412:10.1444 2417:10.1444 2445:10.1444 2455:23.309 2464:14.2974 2486:14.2974 2503:10.1444 2506:12.5738 2512:12.5738 2525:15.6344 2528:12.5738 2565:10.1444 2614:10.1444 2629:12.5738 2666:10.1444 2668:14.2974 2700:17.650299 2712:10.1444 2727:16.7267 2809:10.1444 2817:12.5738 2826:10.1444 2857:10.1444 2858:12.5738 2864:14.2974 2885:19.7873 2895:14.2974 2907:15.6344 2912:12.5738 2927:10.1444 2931:10.1444 2941:10.1444 # none/00002536_s07.txt
-6.3204440473799036433535936119199e-05 24:12.5738 53:10.1444 120:10.1444 137:10.1444 237:10.1444 412:10.1444 423:10.1444 449:10.1444 464:10.1444 559:12.5738 572:12.5738 582:10.1444 606:14.2974 657:10.1444 697:10.1444 739:10.1444 774:15.6344 799:14.2974 869:10.1444 877:10.1444 949:10.1444 957:10.1444 982:10.1444 984:10.1444 1028:10.1444 1050:10.1444 1053:10.1444 1055:10.1444 1077:12.5738 1084:10.1444 1091:12.5738 1093:10.1444 1127:10.1444 1202:10.1444 1213:10.1444 1240:10.1444 1337:10.1444 1379:14.2974 1382:12.5738 1426:12.5738 1439:10.1444 1472:10.1444 1476:10.1444 1483:10.1444 1498:10.1444 1500:10.1444 1502:10.1444 1509:12.5738 1525:10.1444 1562:10.1444 1588:10.1444 1598:10.1444 1652:10.1444 1715:10.1444 1718:10.1444 1734:10.1444 1744:12.5738 1833:10.1444 1836:10.1444 1913:10.1444 1940:10.1444 1944:10.1444 1980:10.1444 2031:12.5738 2034:10.1444 2047:10.1444 2079:12.5738 2099:10.1444 2102:10.1444 2109:10.1444 2225:10.1444 2227:10.1444 2240:16.7267 2244:10.1444 2259:10.1444 2268:10.1444 2313:10.1444 2322:12.5738 2376:15.6344 2431:10.1444 2455:10.1444 2512:10.1444 2523:10.1444 2525:10.1444 2528:10.1444 2533:10.1444 2550:10.1444 2596:10.1444 2620:12.5738 2629:10.1444 2729:12.5738 2773:10.1444 2795:10.1444 2805:10.1444 2817:10.1444 2858:10.1444 2864:10.1444 2866:10.1444 2867:10.1444 2889:10.1444 2895:10.1444 2910:10.1444 2941:10.1444 2942:10.1444 # none/00005503_s01.txt
1.016849670901237594937763231151e-05 24:10.1444 56:10.1444 67:15.6344 83:10.1444 93:10.1444 103:10.1444 120:12.5738 155:10.1444 191:10.1444 197:10.1444 211:10.1444 215:10.1444 242:10.1444 246:10.1444 250:12.5738 264:10.1444 269:10.1444 286:10.1444 287:10.1444 385:12.5738 400:10.1444 412:10.1444 480:10.1444 487:10.1444 502:14.2974 530:12.5738 537:10.1444 572:10.1444 574:10.1444 582:12.5738 592:10.1444 609:12.5738 633:10.1444 657:10.1444 740:12.5738 770:10.1444 774:15.6344 781:10.1444 784:10.1444 787:10.1444 864:10.1444 869:12.5738 892:10.1444 913:10.1444 957:10.1444 974:10.1444 982:10.1444 984:10.1444 996:12.5738 1011:10.1444 1028:10.1444 1050:10.1444 1053:10.1444 1055:14.2974 1067:10.1444 1077:15.6344 1084:10.1444 1091:10.1444 1095:12.5738 1117:10.1444 1127:10.1444 1164:10.1444 1268:12.5738 1319:10.1444 1354:10.1444 1426:10.1444 1439:10.1444 1459:10.1444 1460:12.5738 1472:14.2974 1480:10.1444 1493:10.1444 1496:10.1444 1498:10.1444 1503:10.1444 1518:12.5738 1523:10.1444 1528:10.1444 1543:10.1444 1562:10.1444 1596:12.5738 1598:10.1444 1617:10.1444 1622:10.1444 1626:15.6344 1627:10.1444 1667:10.1444 1723:10.1444 1742:10.1444 1744:10.1444 1772:10.1444 1850:10.1444 1938:10.1444 1948:10.1444 1984:10.1444 2031:12.5738 2047:15.6344 2065:15.6344 2079:10.1444 2082:10.1444 2109:10.1444 2113:10.1444 2240:16.7267 2253:10.1444 2259:10.1444 2276:12.5738 2313:10.1444 2314:10.1444 2322:10.1444 2365:10.1444 2369:10.1444 2373:12.5738 2376:19.156099 2412:16.7267 2445:10.1444 2455:10.1444 2464:12.5738 2528:10.1444 2550:17.650299 2588:10.1444 2590:14.2974 2629:10.1444 2647:10.1444 2652:12.5738 2654:10.1444 2661:15.6344 2692:10.1444 2708:10.1444 2715:10.1444 2723:12.5738 2766:10.1444 2817:10.1444 2854:12.5738 2864:10.1444 2885:10.1444 2895:16.7267 2903:12.5738 2926:10.1444 2927:12.5738 # seizures/00000303_s01.txt
6.3204440473799036433535936119199e-05 31:10.1444 116:10.1444 120:10.1444 121:10.1444 126:10.1444 261:10.1444 361:10.1444 385:12.5738 405:12.5738 408:10.1444 412:12.5738 464:14.2974 473:10.1444 481:10.1444 502:12.5738 526:10.1444 618:10.1444 619:10.1444 683:10.1444 726:14.2974 731:10.1444 738:10.1444 774:14.2974 805:10.1444 835:12.5738 843:14.2974 850:14.2974 869:12.5738 932:10.1444 957:10.1444 970:10.1444 980:10.1444 981:12.5738 982:10.1444 996:12.5738 1028:10.1444 1036:10.1444 1053:12.5738 1055:12.5738 1057:10.1444 1060:12.5738 1077:14.2974 1078:10.1444 1084:10.1444 1091:12.5738 1095:14.2974 1131:10.1444 1145:10.1444 1150:10.1444 1161:12.5738 1164:10.1444 1188:10.1444 1268:12.5738 1286:10.1444 1295:10.1444 1300:16.7267 1303:10.1444 1326:12.5738 1370:10.1444 1426:12.5738 1446:10.1444 1459:10.1444 1472:15.6344 1498:10.1444 1504:10.1444 1519:10.1444 1531:10.1444 1562:10.1444 1569:10.1444 1591:10.1444 1597:10.1444 1602:10.1444 1617:10.1444 1622:10.1444 1636:10.1444 1683:10.1444 1716:10.1444 1726:12.5738 1744:12.5738 1755:10.1444 1791:10.1444 1826:10.1444 1842:12.5738 1909:10.1444 1913:10.1444 1924:10.1444 1955:10.1444 1959:14.2974 1967:12.5738 2022:10.1444 2031:12.5738 2041:10.1444 2047:14.2974 2050:10.1444 2079:10.1444 2084:14.2974 2089:10.1444 2109:10.1444 2156:12.5738 2225:10.1444 2227:10.1444 2233:10.1444 2240:20.3584 2252:10.1444 2253:12.5738 2307:10.1444 2313:10.1444 2314:12.5738 2322:15.6344 2365:10.1444 2374:16.7267 2376:15.6344 2412:10.1444 2439:12.5738 2464:15.6344 2488:10.1444 2528:10.1444 2536:10.1444 2570:10.1444 2573:10.1444 2629:10.1444 2649:10.1444 2661:10.1444 2693:14.2974 2700:10.1444 2769:10.1444 2817:10.1444 2864:12.5738 2885:12.5738 2895:15.6344 2941:10.1444 # seizures/00002330_s01.txt
3.61456873993035689087045814194e-05 31:10.1444 89:12.5738 129:10.1444 229:10.1444 259:10.1444 309:10.1444 385:10.1444 401:10.1444 405:16.7267 412:10.1444 425:14.2974 464:17.650299 481:10.1444 483:10.1444 507:17.650299 511:10.1444 543:10.1444 561:10.1444 582:15.6344 591:10.1444 603:10.1444 606:10.1444 617:10.1444 619:12.5738 671:10.1444 683:10.1444 694:10.1444 701:10.1444 702:12.5738 731:12.5738 738:10.1444 774:10.1444 843:15.6344 850:16.7267 852:12.5738 861:10.1444 862:10.1444 923:10.1444 932:16.7267 944:12.5738 947:14.2974 952:10.1444 957:10.1444 981:17.650299 984:10.1444 996:14.2974 1000:12.5738 1028:10.1444 1053:10.1444 1060:12.5738 1077:10.1444 1078:10.1444 1084:10.1444 1091:12.5738 1095:14.2974 1106:10.1444 1131:12.5738 1150:12.5738 1164:12.5738 1171:10.1444 1210:10.1444 1240:14.2974 1263:10.1444 1268:12.5738 1278:10.1444 1295:18.450399 1353:10.1444 1399:16.7267 1417:10.1444 1426:14.2974 1472:15.6344 1498:10.1444 1504:10.1444 1508:12.5738 1562:10.1444 1575:10.1444 1591:10.1444 1622:10.1444 1626:21.359301 1634:10.1444 1692:10.1444 1702:10.1444 1735:10.1444 1744:15.6344 1755:10.1444 1763:10.1444 1798:10.1444 1799:14.2974 1804:10.1444 1809:10.1444 1864:10.1444 1909:10.1444 1913:10.1444 1920:12.5738 1924:10.1444 1929:10.1444 1938:10.1444 1944:14.2974 1984:15.6344 2018:10.1444 2031:15.6344 2047:12.5738 2050:16.7267 2060:10.1444 2084:10.1444 2092:12.5738 2109:17.650299 2138:10.1444 2148:10.1444 2163:16.7267 2167:10.1444 2195:16.7267 2200:10.1444 2217:10.1444 2237:12.5738 2240:19.7873 2271:10.1444 2285:10.1444 2309:10.1444 2313:10.1444 2314:14.2974 2322:10.1444 2355:10.1444 2365:10.1444 2367:10.1444 2376:19.156099 2382:10.1444 2383:12.5738 2408:10.1444 2412:14.2974 2414:12.5738 2425:10.1444 2439:10.1444 2455:10.1444 2464:17.650299 2518:10.1444 2524:12.5738 2528:10.1444 2530:10.1444 2536:10.1444 2570:10.1444 2592:10.1444 2629:10.1444 2645:10.1444 2678:14.2974 2693:12.5738 2753:10.1444 2778:10.1444 2779:10.1444 2817:10.1444 2854:10.1444 2855:10.1444 2864:10.1444 2895:18.450399 2907:10.1444 2927:10.1444 # seizures/00000482_s05.txt
6.3204440473799036433535936119199e-05 31:10.1444 33:10.1444 116:10.1444 120:10.1444 168:10.1444 385:12.5738 405:12.5738 412:10.1444 431:10.1444 451:10.1444 464:10.1444 481:10.1444 498:10.1444 502:12.5738 511:10.1444 516:10.1444 549:10.1444 594:10.1444 606:10.1444 619:10.1444 661:10.1444 731:12.5738 738:10.1444 770:12.5738 774:14.2974 815:10.1444 843:10.1444 850:12.5738 869:12.5738 957:10.1444 973:10.1444 980:10.1444 981:12.5738 982:10.1444 996:12.5738 1028:10.1444 1053:10.1444 1055:10.1444 1060:12.5738 1077:17.650299 1084:10.1444 1091:12.5738 1127:10.1444 1131:10.1444 1150:10.1444 1161:12.5738 1164:10.1444 1180:10.1444 1188:10.1444 1223:10.1444 1268:12.5738 1274:10.1444 1305:10.1444 1326:12.5738 1376:10.1444 1407:10.1444 1426:14.2974 1472:12.5738 1498:10.1444 1562:10.1444 1591:10.1444 1615:10.1444 1617:10.1444 1633:12.5738 1636:10.1444 1667:10.1444 1703:10.1444 1710:10.1444 1744:10.1444 1755:10.1444 1772:10.1444 1826:10.1444 1867:10.1444 1901:10.1444 1906:10.1444 1913:10.1444 1955:10.1444 1967:10.1444 2031:10.1444 2047:15.6344 2050:10.1444 2079:10.1444 2084:12.5738 2103:10.1444 2109:15.6344 2156:12.5738 2195:14.2974 2233:10.1444 2240:12.5738 2252:10.1444 2253:12.5738 2259:10.1444 2290:10.1444 2313:10.1444 2314:10.1444 2322:14.2974 2359:10.1444 2374:15.6344 2376:15.6344 2455:10.1444 2464:14.2974 2528:10.1444 2536:10.1444 2573:10.1444 2629:10.1444 2647:10.1444 2649:10.1444 2661:10.1444 2671:10.1444 2700:10.1444 2751:10.1444 2753:10.1444 2800:10.1444 2817:10.1444 2855:10.1444 2864:12.5738 2871:10.1444 2895:12.5738 2941:10.1444 # seizures/00000743_s05.txt
6.3204440473799036433535936119199e-05 31:10.1444 113:10.1444 173:10.1444 191:10.1444 277:10.1444 385:10.1444 405:14.2974 419:10.1444 445:10.1444 522:12.5738 582:12.5738 606:12.5738 619:10.1444 661:10.1444 683:12.5738 774:12.5738 791:10.1444 852:10.1444 869:10.1444 947:14.2974 957:10.1444 982:10.1444 984:10.1444 1044:10.1444 1053:10.1444 1077:14.2974 1084:10.1444 1091:10.1444 1117:10.1444 1209:12.5738 1275:10.1444 1295:10.1444 1426:10.1444 1464:10.1444 1498:10.1444 1524:10.1444 1562:10.1444 1604:10.1444 1615:10.1444 1617:10.1444 1626:12.5738 1744:10.1444 1798:10.1444 1815:12.5738 1924:10.1444 1938:10.1444 1961:10.1444 1963:10.1444 1975:10.1444 2028:10.1444 2029:10.1444 2042:10.1444 2047:10.1444 2073:10.1444 2079:10.1444 2119:10.1444 2215:10.1444 2219:10.1444 2227:10.1444 2239:10.1444 2240:15.6344 2294:10.1444 2322:15.6344 2365:10.1444 2373:10.1444 2376:12.5738 2408:10.1444 2413:10.1444 2414:10.1444 2464:12.5738 2466:12.5738 2528:10.1444 2536:10.1444 2550:10.1444 2596:10.1444 2629:10.1444 2678:10.1444 2700:10.1444 2817:10.1444 2835:10.1444 2854:12.5738 2855:10.1444 2864:10.1444 2870:10.1444 # seizures/00003922_s01.txt
-6.3204440473799036433535936119199e-05 22:10.1444 31:10.1444 116:10.1444 126:10.1444 323:10.1444 385:12.5738 405:12.5738 408:10.1444 412:14.2974 453:12.5738 464:10.1444 481:10.1444 511:10.1444 516:10.1444 526:10.1444 527:10.1444 582:12.5738 603:12.5738 619:10.1444 722:10.1444 730:10.1444 770:10.1444 774:12.5738 835:10.1444 843:12.5738 869:12.5738 903:10.1444 947:10.1444 948:10.1444 957:10.1444 980:10.1444 981:12.5738 982:10.1444 996:14.2974 1005:10.1444 1028:10.1444 1053:10.1444 1060:12.5738 1077:14.2974 1084:10.1444 1091:14.2974 1131:12.5738 1136:10.1444 1150:10.1444 1161:12.5738 1164:10.1444 1187:10.1444 1268:14.2974 1278:10.1444 1295:10.1444 1300:10.1444 1305:10.1444 1306:10.1444 1326:12.5738 1376:10.1444 1382:10.1444 1407:10.1444 1417:10.1444 1426:12.5738 1446:10.1444 1454:10.1444 1459:10.1444 1472:12.5738 1498:10.1444 1562:10.1444 1569:10.1444 1591:10.1444 1617:12.5738 1626:12.5738 1634:10.1444 1683:10.1444 1744:10.1444 1766:10.1444 1772:10.1444 1811:10.1444 1826:10.1444 1906:10.1444 1909:10.1444 1913:10.1444 1955:10.1444 1967:10.1444 1985:10.1444 2016:10.1444 2022:10.1444 2031:10.1444 2047:14.2974 2050:14.2974 2079:10.1444 2084:10.1444 2096:10.1444 2109:10.1444 2138:10.1444 2156:12.5738 2174:10.1444 2233:10.1444 2240:15.6344 2252:10.1444 2253:14.2974 2259:10.1444 2294:10.1444 2307:10.1444 2313:10.1444 2314:10.1444 2322:12.5738 2325:10.1444 2341:10.1444 2374:10.1444 2376:14.2974 2409:10.1444 2412:10.1444 2438:10.1444 2441:10.1444 2455:10.1444 2464:16.7267 2528:10.1444 2570:10.1444 2573:10.1444 2629:10.1444 2649:10.1444 2661:10.1444 2693:10.1444 2700:10.1444 2754:10.1444 2800:10.1444 2817:10.1444 2818:10.1444 2854:12.5738 2864:10.1444 2895:16.7267 2900:10.1444 2907:10.1444 2927:10.1444 2941:10.1444 2950:10.1444 # none/00003804_s01.txt
-6.3204440473799036433535936119199e-05 31:10.1444 83:10.1444 120:10.1444 269:10.1444 293:10.1444 385:12.5738 405:10.1444 412:14.2974 464:10.1444 481:14.2974 502:10.1444 516:10.1444 582:10.1444 606:10.1444 619:10.1444 731:10.1444 738:12.5738 774:12.5738 850:12.5738 868:10.1444 869:10.1444 947:10.1444 957:10.1444 963:10.1444 980:10.1444 981:12.5738 982:10.1444 996:10.1444 1028:10.1444 1053:10.1444 1060:10.1444 1077:15.6344 1084:10.1444 1091:12.5738 1127:10.1444 1150:10.1444 1156:10.1444 1161:12.5738 1286:10.1444 1295:12.5738 1296:10.1444 1305:10.1444 1326:12.5738 1376:10.1444 1426:12.5738 1437:10.1444 1455:10.1444 1472:10.1444 1498:10.1444 1499:10.1444 1562:10.1444 1622:10.1444 1626:10.1444 1636:10.1444 1665:10.1444 1667:10.1444 1672:10.1444 1716:10.1444 1744:10.1444 1755:12.5738 1772:10.1444 1809:10.1444 1815:10.1444 1906:12.5738 1909:10.1444 1920:10.1444 1924:10.1444 1955:10.1444 1967:10.1444 2031:10.1444 2047:12.5738 2079:10.1444 2103:10.1444 2109:10.1444 2156:10.1444 2215:10.1444 2218:10.1444 2233:10.1444 2240:12.5738 2252:10.1444 2259:10.1444 2266:10.1444 2307:10.1444 2313:10.1444 2322:12.5738 2358:10.1444 2374:14.2974 2376:15.6344 2412:14.2974 2439:10.1444 2460:10.1444 2464:14.2974 2477:12.5738 2506:10.1444 2528:10.1444 2536:12.5738 2573:10.1444 2629:10.1444 2649:10.1444 2661:14.2974 2668:10.1444 2700:10.1444 2817:12.5738 2818:10.1444 2832:10.1444 2864:10.1444 2895:16.7267 2941:10.1444 # none/00001485_s03.txt
3.7139430106348185868861411229602e-05 24:10.1444 31:10.1444 143:10.1444 148:10.1444 242:10.1444 306:10.1444 328:10.1444 385:10.1444 405:10.1444 412:10.1444 434:10.1444 447:10.1444 464:10.1444 481:19.156099 511:10.1444 516:12.5738 531:10.1444 559:10.1444 572:12.5738 582:10.1444 604:10.1444 618:10.1444 738:10.1444 740:10.1444 770:10.1444 774:12.5738 850:12.5738 869:10.1444 902:10.1444 931:10.1444 947:10.1444 957:10.1444 959:10.1444 1050:10.1444 1053:10.1444 1055:14.2974 1060:10.1444 1077:12.5738 1084:10.1444 1091:14.2974 1095:15.6344 1130:10.1444 1161:10.1444 1188:10.1444 1223:10.1444 1240:10.1444 1268:12.5738 1273:10.1444 1296:14.2974 1399:14.2974 1426:10.1444 1439:10.1444 1441:10.1444 1460:10.1444 1472:10.1444 1474:12.5738 1504:12.5738 1550:10.1444 1551:10.1444 1569:10.1444 1591:12.5738 1597:10.1444 1615:10.1444 1626:19.7873 1636:10.1444 1667:10.1444 1734:10.1444 1735:10.1444 1744:10.1444 1755:12.5738 1791:10.1444 1913:10.1444 1945:10.1444 1967:10.1444 1984:10.1444 2031:10.1444 2047:10.1444 2058:10.1444 2065:10.1444 2087:10.1444 2092:12.5738 2113:10.1444 2138:14.2974 2165:10.1444 2184:12.5738 2240:10.1444 2253:16.7267 2259:10.1444 2266:10.1444 2307:10.1444 2308:10.1444 2313:10.1444 2314:10.1444 2322:12.5738 2365:10.1444 2371:10.1444 2374:10.1444 2376:15.6344 2412:12.5738 2424:10.1444 2455:14.2974 2464:10.1444 2491:10.1444 2518:10.1444 2528:10.1444 2533:10.1444 2536:14.2974 2550:10.1444 2555:10.1444 2570:10.1444 2600:10.1444 2620:10.1444 2629:10.1444 2651:10.1444 2661:19.156099 2698:10.1444 2700:10.1444 2765:10.1444 2770:10.1444 2809:10.1444 2864:10.1444 2871:12.5738 2883:10.1444 2885:12.5738 2895:12.5738 2917:10.1444 # seizures/00007935_s01.txt
-1.1077106022388496142563191204644e-05 31:10.1444 41:10.1444 120:10.1444 126:10.1444 264:10.1444 360:10.1444 385:14.2974 405:10.1444 462:10.1444 464:14.2974 481:14.2974 526:12.5738 619:10.1444 662:10.1444 726:10.1444 774:10.1444 843:12.5738 850:10.1444 869:10.1444 888:10.1444 905:10.1444 948:10.1444 957:10.1444 996:12.5738 1028:10.1444 1053:10.1444 1055:10.1444 1060:10.1444 1061:10.1444 1077:14.2974 1084:10.1444 1091:16.7267 1131:10.1444 1136:10.1444 1153:10.1444 1161:10.1444 1188:10.1444 1268:12.5738 1295:12.5738 1300:10.1444 1403:10.1444 1426:12.5738 1459:10.1444 1460:12.5738 1472:10.1444 1498:10.1444 1504:10.1444 1562:10.1444 1591:10.1444 1597:10.1444 1626:12.5738 1744:12.5738 1772:12.5738 1920:10.1444 1967:12.5738 2028:10.1444 2047:15.6344 2065:12.5738 2079:10.1444 2104:10.1444 2109:10.1444 2138:10.1444 2153:10.1444 2158:10.1444 2227:10.1444 2240:15.6344 2253:10.1444 2307:10.1444 2313:10.1444 2341:10.1444 2374:14.2974 2376:10.1444 2455:10.1444 2464:12.5738 2471:10.1444 2525:12.5738 2528:10.1444 2536:10.1444 2550:12.5738 2570:10.1444 2580:12.5738 2626:10.1444 2629:10.1444 2649:10.1444 2661:14.2974 2763:10.1444 2817:10.1444 2885:10.1444 # none/00007038_s01.txt
-6.3204440473799036433535936119199e-05 17:15.6344 22:10.1444 31:10.1444 145:16.7267 155:10.1444 174:10.1444 180:12.5738 184:12.5738 191:10.1444 310:10.1444 324:10.1444 385:12.5738 387:10.1444 391:10.1444 405:14.2974 412:12.5738 446:10.1444 464:10.1444 481:10.1444 499:10.1444 502:14.2974 511:10.1444 526:12.5738 559:10.1444 563:10.1444 582:12.5738 621:10.1444 643:10.1444 661:10.1444 726:10.1444 731:10.1444 751:10.1444 770:10.1444 774:12.5738 791:10.1444 796:10.1444 818:10.1444 843:12.5738 850:14.2974 869:10.1444 913:10.1444 952:10.1444 956:10.1444 957:10.1444 981:14.2974 984:10.1444 996:18.450399 1028:10.1444 1036:10.1444 1053:10.1444 1060:10.1444 1077:14.2974 1084:10.1444 1091:12.5738 1131:15.6344 1161:12.5738 1195:10.1444 1300:10.1444 1326:15.6344 1347:10.1444 1350:10.1444 1386:10.1444 1410:10.1444 1426:14.2974 1437:10.1444 1459:10.1444 1467:12.5738 1470:10.1444 1472:10.1444 1498:10.1444 1525:10.1444 1562:10.1444 1568:10.1444 1569:10.1444 1597:10.1444 1612:10.1444 1622:10.1444 1673:10.1444 1716:10.1444 1734:10.1444 1744:12.5738 1791:10.1444 1818:10.1444 1826:10.1444 1839:10.1444 1913:12.5738 1924:10.1444 1939:10.1444 1946:10.1444 1967:10.1444 1973:10.1444 1985:10.1444 2028:10.1444 2031:10.1444 2034:10.1444 2042:10.1444 2047:14.2974 2050:15.6344 2079:10.1444 2095:10.1444 2104:10.1444 2109:10.1444 2156:12.5738 2173:10.1444 2219:10.1444 2233:10.1444 2240:16.7267 2253:10.1444 2307:10.1444 2313:10.1444 2372:10.1444 2374:14.2974 2376:10.1444 2408:14.2974 2439:10.1444 2455:12.5738 2464:10.1444 2528:10.1444 2536:10.1444 2573:12.5738 2605:10.1444 2629:10.1444 2661:10.1444 2693:12.5738 2700:12.5738 2714:10.1444 2800:10.1444 2817:10.1444 2855:10.1444 2864:10.1444 # none/00000589_s05.txt
6.3204440473799036433535936119199e-05 31:10.1444 237:10.1444 368:10.1444 549:12.5738 657:10.1444 739:10.1444 740:10.1444 774:12.5738 869:10.1444 952:10.1444 957:10.1444 982:10.1444 984:10.1444 995:10.1444 1045:10.1444 1050:10.1444 1077:16.7267 1084:10.1444 1091:10.1444 1127:10.1444 1316:10.1444 1376:10.1444 1382:10.1444 1426:10.1444 1439:10.1444 1498:10.1444 1502:10.1444 1509:10.1444 1518:10.1444 1562:10.1444 1588:10.1444 1598:10.1444 1712:10.1444 1715:10.1444 1724:10.1444 1744:10.1444 1809:10.1444 1826:10.1444 1859:10.1444 1863:10.1444 1913:12.5738 1920:10.1444 1927:10.1444 1955:10.1444 2031:12.5738 2047:10.1444 2065:10.1444 2079:10.1444 2104:10.1444 2138:10.1444 2149:10.1444 2158:10.1444 2240:10.1444 2294:10.1444 2322:10.1444 2334:10.1444 2365:10.1444 2376:12.5738 2455:14.2974 2512:10.1444 2525:12.5738 2528:10.1444 2550:10.1444 2629:10.1444 2733:10.1444 2817:10.1444 2858:10.1444 2864:10.1444 2895:10.1444 2941:10.1444 # seizures/00000185_s02.txt
6.3204440473799036433535936119199e-05 11:12.5738 12:10.1444 13:10.1444 31:10.1444 145:12.5738 310:10.1444 405:10.1444 447:10.1444 451:10.1444 518:12.5738 543:10.1444 556:10.1444 582:10.1444 603:12.5738 629:10.1444 649:10.1444 657:10.1444 683:10.1444 685:10.1444 706:10.1444 739:10.1444 774:14.2974 850:10.1444 852:10.1444 913:10.1444 952:10.1444 957:12.5738 995:10.1444 1050:10.1444 1053:10.1444 1077:12.5738 1084:10.1444 1091:10.1444 1127:10.1444 1136:10.1444 1156:12.5738 1210:10.1444 1273:10.1444 1295:10.1444 1386:10.1444 1426:10.1444 1497:10.1444 1513:10.1444 1562:10.1444 1591:10.1444 1626:16.7267 1737:10.1444 1744:10.1444 1782:10.1444 1809:10.1444 1815:12.5738 1882:10.1444 1920:14.2974 1959:10.1444 2030:10.1444 2031:14.2974 2047:10.1444 2079:10.1444 2189:10.1444 2219:10.1444 2235:10.1444 2240:10.1444 2251:10.1444 2253:10.1444 2259:10.1444 2268:10.1444 2313:12.5738 2314:10.1444 2322:14.2974 2370:10.1444 2372:10.1444 2374:12.5738 2376:10.1444 2409:10.1444 2412:12.5738 2414:10.1444 2464:10.1444 2528:10.1444 2573:10.1444 2596:10.1444 2605:10.1444 2620:10.1444 2629:10.1444 2654:10.1444 2678:10.1444 2692:10.1444 2700:10.1444 2737:10.1444 2795:10.1444 2804:10.1444 2817:10.1444 2864:12.5738 2885:10.1444 2895:12.5738 2945:10.1444 # seizures/00000735_s04.txt
6.3204440473799036433535936119199e-05 4:10.1444 7:10.1444 11:12.5738 12:12.5738 15:10.1444 17:10.1444 31:10.1444 39:10.1444 96:12.5738 148:10.1444 202:14.2974 215:10.1444 233:10.1444 238:10.1444 282:10.1444 385:12.5738 394:10.1444 405:21.803301 526:12.5738 549:15.6344 569:10.1444 582:14.2974 606:10.1444 619:14.2974 643:10.1444 657:10.1444 669:10.1444 702:10.1444 731:10.1444 739:10.1444 774:14.2974 869:10.1444 947:15.6344 949:10.1444 957:10.1444 981:12.5738 982:10.1444 984:10.1444 1008:10.1444 1053:10.1444 1060:10.1444 1077:17.650299 1084:10.1444 1091:10.1444 1096:10.1444 1117:10.1444 1131:12.5738 1153:10.1444 1156:10.1444 1188:12.5738 1278:10.1444 1326:12.5738 1331:10.1444 1336:10.1444 1399:14.2974 1403:12.5738 1420:12.5738 1426:10.1444 1439:10.1444 1460:10.1444 1476:10.1444 1480:14.2974 1498:10.1444 1502:10.1444 1562:10.1444 1626:17.650299 1690:10.1444 1724:10.1444 1737:10.1444 1744:12.5738 1799:10.1444 1809:10.1444 1815:14.2974 1826:10.1444 1839:10.1444 1913:10.1444 1959:10.1444 1973:10.1444 2031:12.5738 2047:12.5738 2065:10.1444 2079:10.1444 2096:10.1444 2166:10.1444 2213:10.1444 2236:10.1444 2240:14.2974 2279:10.1444 2294:10.1444 2307:10.1444 2313:10.1444 2322:12.5738 2374:10.1444 2376:14.2974 2408:10.1444 2423:10.1444 2455:10.1444 2460:12.5738 2464:14.2974 2466:12.5738 2503:10.1444 2528:10.1444 2530:10.1444 2538:10.1444 2550:10.1444 2574:10.1444 2580:10.1444 2629:10.1444 2678:15.6344 2700:14.2974 2763:10.1444 2807:10.1444 2817:10.1444 2864:10.1444 2880:14.2974 2885:10.1444 # seizures/00001552_s02.txt
6.3204440473799036433535936119199e-05 24:10.1444 31:10.1444 32:10.1444 120:10.1444 148:10.1444 356:10.1444 419:10.1444 431:10.1444 447:10.1444 549:10.1444 572:10.1444 582:12.5738 606:10.1444 619:12.5738 657:10.1444 739:10.1444 740:10.1444 774:12.5738 814:10.1444 901:10.1444 956:10.1444 957:10.1444 982:10.1444 984:10.1444 1050:14.2974 1077:15.6344 1078:10.1444 1084:10.1444 1091:10.1444 1127:10.1444 1131:10.1444 1188:10.1444 1213:12.5738 1268:10.1444 1328:12.5738 1426:10.1444 1439:10.1444 1475:10.1444 1490:10.1444 1498:10.1444 1502:12.5738 1562:10.1444 1591:10.1444 1615:10.1444 1652:10.1444 1683:10.1444 1744:12.5738 1767:10.1444 1791:10.1444 1826:10.1444 1913:10.1444 1920:10.1444 1938:10.1444 2031:10.1444 2047:10.1444 2079:10.1444 2104:10.1444 2134:10.1444 2240:14.2974 2284:10.1444 2313:10.1444 2325:10.1444 2336:10.1444 2376:12.5738 2464:10.1444 2528:10.1444 2629:10.1444 2817:10.1444 2864:10.1444 2885:12.5738 2900:10.1444 2903:10.1444 2925:10.1444 2927:10.1444 2942:10.1444 # seizures/00003371_s01.txt
2.2155497290390981947588028289076e-05 31:10.1444 61:10.1444 246:10.1444 370:10.1444 385:10.1444 405:14.2974 412:10.1444 420:10.1444 502:10.1444 537:10.1444 549:10.1444 582:14.2974 606:10.1444 609:10.1444 629:12.5738 645:10.1444 657:10.1444 671:10.1444 726:10.1444 731:10.1444 738:10.1444 739:10.1444 770:14.2974 774:16.7267 819:10.1444 850:10.1444 869:14.2974 885:10.1444 902:10.1444 947:10.1444 949:10.1444 957:10.1444 965:10.1444 982:10.1444 996:14.2974 1005:10.1444 1019:10.1444 1035:10.1444 1053:10.1444 1077:16.7267 1084:10.1444 1091:10.1444 1095:14.2974 1118:10.1444 1131:10.1444 1156:10.1444 1240:10.1444 1270:10.1444 1286:10.1444 1313:10.1444 1343:10.1444 1399:12.5738 1426:10.1444 1439:10.1444 1476:10.1444 1480:12.5738 1498:10.1444 1531:10.1444 1543:10.1444 1562:10.1444 1563:10.1444 1569:10.1444 1678:10.1444 1694:10.1444 1715:10.1444 1724:14.2974 1735:12.5738 1744:12.5738 1798:10.1444 1809:10.1444 1826:10.1444 1836:10.1444 1855:10.1444 1868:10.1444 1920:10.1444 1941:12.5738 1943:12.5738 1955:10.1444 1959:10.1444 1963:10.1444 2031:15.6344 2034:10.1444 2047:10.1444 2048:10.1444 2050:14.2974 2072:10.1444 2079:10.1444 2138:10.1444 2149:10.1444 2153:10.1444 2158:10.1444 2174:10.1444 2206:10.1444 2240:12.5738 2253:10.1444 2268:10.1444 2273:10.1444 2283:10.1444 2294:10.1444 2314:10.1444 2322:17.650299 2365:12.5738 2373:12.5738 2376:15.6344 2388:10.1444 2408:12.5738 2412:15.6344 2528:10.1444 2550:10.1444 2552:10.1444 2585:10.1444 2590:10.1444 2604:10.1444 2605:12.5738 2614:10.1444 2629:10.1444 2661:10.1444 2675:10.1444 2685:10.1444 2714:10.1444 2720:10.1444 2809:10.1444 2817:10.1444 2854:10.1444 2864:14.2974 2880:10.1444 2895:14.2974 2908:10.1444 2926:10.1444 2941:10.1444 2956:10.1444 # seizures/00001483_s06.txt
-6.3204440473799036433535936119199e-05 31:10.1444 101:10.1444 375:10.1444 385:10.1444 390:10.1444 405:12.5738 447:10.1444 451:10.1444 519:10.1444 549:10.1444 582:12.5738 603:10.1444 606:10.1444 619:14.2974 620:10.1444 683:10.1444 685:10.1444 726:10.1444 738:10.1444 739:10.1444 774:14.2974 814:10.1444 820:10.1444 869:10.1444 949:10.1444 957:10.1444 981:10.1444 982:10.1444 984:10.1444 1028:10.1444 1053:10.1444 1077:15.6344 1084:10.1444 1091:15.6344 1095:10.1444 1156:10.1444 1236:10.1444 1268:10.1444 1295:14.2974 1337:10.1444 1399:10.1444 1426:10.1444 1439:10.1444 1460:10.1444 1462:10.1444 1480:10.1444 1498:10.1444 1508:10.1444 1518:10.1444 1534:12.5738 1548:12.5738 1562:10.1444 1591:10.1444 1602:10.1444 1715:10.1444 1744:12.5738 1815:12.5738 1911:10.1444 1913:10.1444 1938:10.1444 1955:10.1444 1987:10.1444 1988:10.1444 2021:10.1444 2031:14.2974 2034:14.2974 2047:12.5738 2062:10.1444 2065:10.1444 2079:10.1444 2096:10.1444 2109:12.5738 2137:10.1444 2149:10.1444 2153:12.5738 2175:10.1444 2189:10.1444 2195:10.1444 2197:12.5738 2215:10.1444 2231:10.1444 2240:15.6344 2244:10.1444 2253:10.1444 2277:10.1444 2313:10.1444 2314:14.2974 2322:14.2974 2371:10.1444 2376:14.2974 2436:10.1444 2464:14.2974 2528:10.1444 2596:10.1444 2627:10.1444 2629:10.1444 2661:10.1444 2678:14.2974 2700:10.1444 2817:10.1444 2864:10.1444 2941:10.1444 # none/00000968_s02.txt
-6.3204440473799036433535936119199e-05 31:10.1444 45:10.1444 83:10.1444 142:10.1444 264:10.1444 356:10.1444 385:10.1444 390:10.1444 404:10.1444 405:14.2974 447:10.1444 455:10.1444 458:10.1444 551:10.1444 606:10.1444 657:10.1444 683:12.5738 731:10.1444 739:10.1444 774:12.5738 791:10.1444 836:10.1444 869:10.1444 957:10.1444 982:10.1444 1005:10.1444 1053:10.1444 1054:10.1444 1077:14.2974 1084:10.1444 1091:10.1444 1118:10.1444 1200:10.1444 1213:10.1444 1231:10.1444 1386:10.1444 1409:10.1444 1426:12.5738 1428:10.1444 1439:10.1444 1498:10.1444 1502:12.5738 1562:10.1444 1672:10.1444 1715:10.1444 1744:12.5738 1791:10.1444 1955:10.1444 2028:10.1444 2031:10.1444 2034:12.5738 2047:10.1444 2050:12.5738 2079:10.1444 2096:10.1444 2104:10.1444 2161:10.1444 2227:10.1444 2240:14.2974 2273:10.1444 2314:10.1444 2365:12.5738 2376:12.5738 2528:10.1444 2536:10.1444 2550:10.1444 2605:14.2974 2629:10.1444 2678:10.1444 2809:10.1444 2817:10.1444 2828:10.1444 2835:10.1444 2864:10.1444 2941:10.1444 # none/00002058_s05.txt
-6.3204440473799036433535936119199e-05 31:10.1444 205:10.1444 374:10.1444 385:12.5738 390:12.5738 405:15.6344 464:10.1444 472:10.1444 481:12.5738 537:10.1444 543:12.5738 582:10.1444 606:10.1444 657:10.1444 739:10.1444 774:14.2974 792:10.1444 837:10.1444 869:10.1444 886:10.1444 889:12.5738 942:10.1444 947:10.1444 949:12.5738 957:10.1444 959:10.1444 982:10.1444 1040:10.1444 1053:14.2974 1055:10.1444 1077:16.7267 1084:10.1444 1091:12.5738 1131:10.1444 1214:10.1444 1240:10.1444 1295:10.1444 1329:10.1444 1352:10.1444 1396:10.1444 1399:14.2974 1403:10.1444 1426:12.5738 1439:10.1444 1487:10.1444 1498:10.1444 1502:10.1444 1504:10.1444 1531:10.1444 1548:10.1444 1559:12.5738 1562:10.1444 1591:10.1444 1626:19.156099 1694:10.1444 1709:10.1444 1724:14.2974 1735:10.1444 1744:10.1444 1807:10.1444 1817:10.1444 1891:10.1444 1920:10.1444 1938:12.5738 1944:12.5738 1955:10.1444 2008:10.1444 2031:15.6344 2039:10.1444 2047:10.1444 2079:10.1444 2104:10.1444 2149:10.1444 2158:12.5738 2227:10.1444 2240:10.1444 2259:10.1444 2314:10.1444 2322:16.7267 2376:10.1444 2412:12.5738 2464:10.1444 2528:10.1444 2536:10.1444 2550:12.5738 2605:10.1444 2618:10.1444 2629:10.1444 2661:12.5738 2678:10.1444 2735:12.5738 2817:10.1444 2832:10.1444 2852:10.1444 2864:10.1444 2880:10.1444 2895:12.5738 2927:10.1444 2941:10.1444 2956:10.1444 # none/00006474_s01.txt
-6.3204440473799036433535936119199e-05 4:10.1444 14:10.1444 24:10.1444 31:10.1444 97:10.1444 158:12.5738 251:10.1444 314:10.1444 328:10.1444 385:10.1444 405:15.6344 407:10.1444 434:10.1444 487:10.1444 543:10.1444 549:10.1444 567:10.1444 582:12.5738 591:10.1444 657:10.1444 683:14.2974 739:10.1444 770:10.1444 774:12.5738 784:10.1444 789:10.1444 802:12.5738 812:10.1444 814:12.5738 850:10.1444 949:12.5738 957:10.1444 1033:10.1444 1059:10.1444 1067:10.1444 1077:16.7267 1084:10.1444 1091:10.1444 1131:10.1444 1138:10.1444 1147:10.1444 1155:10.1444 1210:10.1444 1227:10.1444 1295:14.2974 1300:10.1444 1398:10.1444 1403:12.5738 1417:10.1444 1426:12.5738 1437:12.5738 1439:10.1444 1476:12.5738 1480:10.1444 1498:12.5738 1502:10.1444 1518:10.1444 1523:10.1444 1531:10.1444 1557:10.1444 1562:10.1444 1626:10.1444 1634:10.1444 1690:12.5738 1715:10.1444 1744:10.1444 1809:14.2974 1815:14.2974 1816:12.5738 1959:10.1444 1985:10.1444 2026:12.5738 2031:12.5738 2034:14.2974 2047:10.1444 2056:10.1444 2060:12.5738 2079:10.1444 2100:12.5738 2149:10.1444 2163:10.1444 2165:10.1444 2166:12.5738 2240:17.650299 2279:10.1444 2322:12.5738 2367:10.1444 2370:15.6344 2373:10.1444 2376:12.5738 2408:10.1444 2464:10.1444 2528:10.1444 2550:12.5738 2565:10.1444 2575:10.1444 2605:14.2974 2629:10.1444 2678:12.5738 2700:10.1444 2715:10.1444 2817:14.2974 2835:10.1444 2864:10.1444 2880:12.5738 # none/00000485_s02.txt
-6.3204440473799036433535936119199e-05 31:10.1444 332:10.1444 368:10.1444 385:14.2974 405:10.1444 465:10.1444 509:10.1444 534:10.1444 582:10.1444 606:10.1444 628:10.1444 657:10.1444 681:10.1444 683:10.1444 738:10.1444 739:10.1444 774:14.2974 852:10.1444 869:12.5738 932:10.1444 947:10.1444 957:10.1444 982:10.1444 1014:10.1444 1019:10.1444 1050:10.1444 1053:10.1444 1077:14.2974 1078:10.1444 1084:10.1444 1091:10.1444 1167:10.1444 1213:10.1444 1223:10.1444 1240:10.1444 1358:10.1444 1376:10.1444 1426:10.1444 1439:10.1444 1487:10.1444 1498:10.1444 1502:12.5738 1562:10.1444 1563:12.5738 1626:10.1444 1724:12.5738 1732:10.1444 1744:10.1444 1755:10.1444 1799:10.1444 1839:10.1444 1862:10.1444 1955:10.1444 1992:10.1444 2026:10.1444 2031:10.1444 2047:10.1444 2079:10.1444 2096:10.1444 2166:12.5738 2237:10.1444 2240:12.5738 2253:10.1444 2294:10.1444 2322:14.2974 2376:10.1444 2414:10.1444 2417:12.5738 2425:10.1444 2464:12.5738 2528:10.1444 2536:10.1444 2604:10.1444 2629:10.1444 2661:10.1444 2678:10.1444 2681:10.1444 2700:10.1444 2817:10.1444 2864:10.1444 2900:10.1444 2915:10.1444 2941:10.1444 # none/00008720_s01.txt
6.170320507023562917135045546857e-05 31:10.1444 56:10.1444 83:10.1444 101:10.1444 116:10.1444 124:10.1444 148:10.1444 155:10.1444 189:10.1444 219:10.1444 268:10.1444 293:10.1444 385:12.5738 405:12.5738 408:10.1444 412:12.5738 435:10.1444 442:10.1444 458:10.1444 464:10.1444 467:10.1444 481:10.1444 502:12.5738 511:10.1444 526:10.1444 549:10.1444 581:10.1444 582:14.2974 601:10.1444 607:10.1444 619:10.1444 626:14.2974 658:10.1444 699:10.1444 726:10.1444 731:12.5738 738:10.1444 757:10.1444 758:10.1444 770:14.2974 774:14.2974 791:14.2974 843:14.2974 850:12.5738 869:12.5738 884:10.1444 905:10.1444 947:10.1444 956:10.1444 957:10.1444 980:10.1444 981:15.6344 996:12.5738 1001:10.1444 1004:10.1444 1028:10.1444 1053:10.1444 1060:12.5738 1062:10.1444 1077:16.7267 1084:10.1444 1091:14.2974 1095:15.6344 1107:10.1444 1150:10.1444 1161:10.1444 1240:10.1444 1268:12.5738 1295:10.1444 1296:10.1444 1300:15.6344 1305:10.1444 1326:12.5738 1346:12.5738 1426:10.1444 1470:10.1444 1472:14.2974 1498:10.1444 1525:10.1444 1531:10.1444 1562:10.1444 1597:10.1444 1617:10.1444 1622:10.1444 1673:10.1444 1708:10.1444 1710:10.1444 1726:10.1444 1734:14.2974 1744:10.1444 1755:10.1444 1772:10.1444 1791:12.5738 1809:10.1444 1909:10.1444 1913:10.1444 1964:10.1444 1967:10.1444 1985:10.1444 1994:10.1444 2031:12.5738 2034:12.5738 2047:14.2974 2078:10.1444 2079:10.1444 2089:10.1444 2104:10.1444 2109:10.1444 2133:14.2974 2156:12.5738 2163:10.1444 2174:10.1444 2233:10.1444 2236:10.1444 2240:18.450399 2252:10.1444 2253:14.2974 2259:10.1444 2271:10.1444 2296:10.1444 2307:10.1444 2313:10.1444 2314:10.1444 2341:10.1444 2374:15.6344 2376:16.7267 2412:14.2974 2439:10.1444 2455:10.1444 2464:19.156099 2476:10.1444 2485:10.1444 2528:10.1444 2530:10.1444 2536:12.5738 2555:12.5738 2573:10.1444 2594:10.1444 2610:10.1444 2629:10.1444 2645:10.1444 2649:10.1444 2661:10.1444 2693:12.5738 2696:10.1444 2700:12.5738 2764:10.1444 2800:12.5738 2805:10.1444 2817:10.1444 2832:10.1444 2877:10.1444 2895:14.2974 2907:12.5738 2926:10.1444 2927:10.1444 2941:10.1444 2951:10.1444 2956:10.1444 # seizures/00000691_s01.txt
6.3204440473799036433535936119199e-05 31:10.1444 79:10.1444 115:10.1444 116:12.5738 123:10.1444 126:10.1444 385:12.5738 405:12.5738 412:15.6344 464:15.6344 481:10.1444 502:19.156099 511:10.1444 512:10.1444 516:14.2974 582:12.5738 609:12.5738 617:10.1444 619:12.5738 670:10.1444 726:14.2974 774:14.2974 812:10.1444 843:14.2974 850:16.7267 869:10.1444 895:10.1444 905:12.5738 947:10.1444 957:10.1444 973:10.1444 980:10.1444 996:12.5738 1028:10.1444 1036:12.5738 1053:10.1444 1060:10.1444 1077:14.2974 1084:10.1444 1091:12.5738 1117:10.1444 1130:10.1444 1161:10.1444 1188:10.1444 1240:10.1444 1268:15.6344 1293:10.1444 1295:14.2974 1296:14.2974 1300:10.1444 1305:10.1444 1326:10.1444 1386:10.1444 1426:10.1444 1437:14.2974 1472:12.5738 1498:10.1444 1504:12.5738 1548:10.1444 1562:10.1444 1615:10.1444 1622:12.5738 1626:10.1444 1672:10.1444 1690:10.1444 1710:12.5738 1744:10.1444 1772:12.5738 1824:10.1444 1826:12.5738 1836:10.1444 1853:10.1444 1906:10.1444 1913:10.1444 1945:15.6344 1946:12.5738 1967:10.1444 1975:10.1444 1984:12.5738 1985:10.1444 2031:14.2974 2045:12.5738 2047:14.2974 2079:10.1444 2109:10.1444 2148:10.1444 2150:10.1444 2156:12.5738 2219:10.1444 2233:10.1444 2240:19.156099 2244:10.1444 2253:19.7873 2266:10.1444 2279:10.1444 2313:12.5738 2322:18.450399 2351:10.1444 2374:16.7267 2376:19.156099 2412:14.2974 2439:10.1444 2455:12.5738 2464:18.450399 2518:10.1444 2528:10.1444 2536:10.1444 2570:10.1444 2573:10.1444 2629:10.1444 2645:10.1444 2649:10.1444 2661:10.1444 2668:10.1444 2693:12.5738 2700:12.5738 2715:12.5738 2800:10.1444 2817:10.1444 2854:10.1444 2885:10.1444 2895:15.6344 2955:10.1444 # seizures/00000231_s03.txt
