SVM-light Version V6.02
0 # kernel type
3 # kernel parameter -d 
1 # kernel parameter -g 
1 # kernel parameter -s 
1 # kernel parameter -r 
empty# kernel parameter -u 
2958 # highest feature index 
320 # number of training documents 
190 # number of support vectors plus 1 
0.19139258 # threshold b, each following line is a SV (starting with alpha*y)
0.00030627409001915612603988980922054 31:3.2681 296:3.2681 297:3.2681 374:3.2681 381:3.2681 385:3.2681 405:5.9914999 412:3.5404 417:3.2681 443:3.2681 445:3.2681 447:3.5404 478:3.2681 519:3.2681 522:3.2681 543:3.5404 549:3.5404 582:3.8127999 606:3.2681 620:3.2681 634:3.2681 657:3.2681 674:3.5404 726:3.2681 739:3.2681 740:3.2681 770:3.8127999 774:4.6297998 784:3.5404 805:3.2681 814:3.2681 819:3.2681 821:3.2681 842:3.2681 851:3.2681 869:3.8127999 879:3.2681 947:3.2681 949:3.8127999 957:3.2681 982:3.2681 984:3.2681 996:3.5404 1003:3.5404 1011:3.5404 1018:3.2681 1053:3.2681 1054:3.2681 1055:3.2681 1077:4.9021001 1084:3.2681 1091:3.2681 1095:3.2681 1117:3.2681 1127:3.5404 1131:3.2681 1136:3.5404 1156:3.2681 1195:4.3573999 1209:3.2681 1210:3.5404 1273:3.2681 1278:3.2681 1295:4.0851002 1337:3.2681 1393:3.2681 1399:4.0851002 1426:3.5404 1439:3.2681 1476:3.2681 1480:3.2681 1498:3.2681 1499:3.2681 1502:3.2681 1523:3.2681 1548:3.8127999 1559:3.5404 1562:3.2681 1573:3.2681 1591:3.2681 1626:4.0851002 1640:3.2681 1672:3.2681 1713:3.2681 1715:3.2681 1744:3.5404 1767:3.2681 1791:3.2681 1809:3.2681 1815:3.5404 1839:3.2681 1855:3.5404 1924:3.2681 1946:3.2681 1959:3.5404 1980:3.2681 1985:3.5404 2009:3.2681 2016:3.2681 2024:3.2681 2031:3.5404 2034:3.2681 2047:3.2681 2050:4.9021001 2079:3.2681 2091:3.2681 2109:3.5404 2151:3.2681 2166:3.2681 2195:3.5404 2227:3.2681 2236:3.2681 2240:3.8127999 2244:3.2681 2253:3.2681 2259:3.2681 2268:3.5404 2313:3.2681 2322:4.9021001 2351:3.2681 2365:3.2681 2373:3.2681 2376:3.8127999 2429:3.2681 2464:4.0851002 2466:3.8127999 2471:3.2681 2502:3.2681 2506:3.2681 2528:3.2681 2580:3.2681 2609:3.2681 2629:3.2681 2678:3.2681 2762:4.3573999 2766:3.2681 2778:3.2681 2817:3.2681 2835:3.2681 2864:3.2681 2892:3.2681 2924:3.2681 2926:3.5404 # seizures/00000255_s03.txt
-0.0006021594349643786484721497132 31:3.7447 116:3.7447 124:3.7447 330:3.7447 385:4.4935999 387:3.7447 405:4.4935999 412:5.2424998 464:3.7447 481:3.7447 502:3.7447 511:3.7447 519:3.7447 526:3.7447 582:4.4935999 619:3.7447 626:3.7447 638:3.7447 656:3.7447 683:3.7447 731:3.7447 760:3.7447 774:4.4935999 835:3.7447 843:3.7447 869:3.7447 947:3.7447 956:3.7447 957:3.7447 962:4.4935999 971:3.7447 981:5.9914999 984:3.7447 996:4.4935999 1005:3.7447 1019:3.7447 1028:3.7447 1053:4.4935999 1055:3.7447 1057:3.7447 1060:3.7447 1077:5.9914999 1078:3.7447 1084:3.7447 1091:4.4935999 1131:3.7447 1156:3.7447 1161:3.7447 1261:3.7447 1286:3.7447 1295:3.7447 1296:3.7447 1305:3.7447 1326:4.4935999 1400:3.7447 1426:4.4935999 1459:3.7447 1472:4.4935999 1498:3.7447 1503:3.7447 1548:3.7447 1562:3.7447 1622:3.7447 1637:3.7447 1683:3.7447 1710:3.7447 1744:3.7447 1762:4.4935999 1772:3.7447 1804:3.7447 1815:3.7447 1817:3.7447 1839:3.7447 1906:3.7447 1913:3.7447 1920:3.7447 1929:3.7447 1967:3.7447 1985:3.7447 2022:3.7447 2031:5.2424998 2041:3.7447 2047:5.2424998 2079:3.7447 2109:3.7447 2129:3.7447 2156:4.4935999 2240:5.2424998 2273:3.7447 2307:3.7447 2309:3.7447 2313:3.7447 2314:3.7447 2341:3.7447 2374:5.9914999 2376:5.2424998 2408:3.7447 2439:3.7447 2455:3.7447 2464:5.2424998 2477:3.7447 2485:3.7447 2506:3.7447 2528:3.7447 2620:3.7447 2629:3.7447 2661:3.7447 2678:3.7447 2700:3.7447 2743:5.2424998 2817:4.4935999 2895:5.9914999 2927:3.7447 # none/00000045_s03.txt
-0.00014509336932646172161828768132352 22:4.1939998 31:3.5948999 116:3.5948999 126:4.7932 342:3.5948999 385:4.1939998 419:3.5948999 475:3.5948999 481:3.5948999 526:3.5948999 582:3.5948999 606:3.5948999 619:3.5948999 668:4.1939998 687:3.5948999 726:4.1939998 731:4.1939998 774:4.1939998 820:3.5948999 843:3.5948999 869:3.5948999 922:3.5948999 957:3.5948999 980:3.5948999 981:5.3923001 982:3.5948999 996:4.1939998 1053:3.5948999 1055:3.5948999 1060:4.1939998 1077:5.3923001 1084:4.1939998 1091:4.7932 1131:3.5948999 1150:3.5948999 1158:3.5948999 1161:3.5948999 1200:3.5948999 1224:3.5948999 1250:3.5948999 1268:4.7932 1300:4.1939998 1305:3.5948999 1426:4.1939998 1435:3.5948999 1459:3.5948999 1472:4.7932 1498:3.5948999 1562:3.5948999 1563:3.5948999 1591:3.5948999 1622:3.5948999 1744:3.5948999 1842:4.7932 1906:3.5948999 1909:3.5948999 1913:3.5948999 1955:3.5948999 1967:3.5948999 1968:3.5948999 2031:3.5948999 2040:3.5948999 2047:4.1939998 2079:3.5948999 2098:3.5948999 2104:3.5948999 2138:3.5948999 2156:3.5948999 2237:3.5948999 2240:4.7932 2252:3.5948999 2253:3.5948999 2292:3.5948999 2322:4.7932 2367:3.5948999 2374:4.1939998 2376:4.1939998 2419:4.1939998 2423:4.1939998 2464:5.9914999 2528:3.5948999 2550:3.5948999 2565:3.5948999 2570:3.5948999 2629:3.5948999 2633:3.5948999 2649:3.5948999 2661:3.5948999 2817:3.5948999 2864:3.5948999 2885:3.5948999 2895:4.1939998 2927:3.5948999 2941:3.5948999 # none/00008213_s01.txt
-0.0006021594349643786484721497132 31:3.3701999 116:3.7447 126:3.3701999 127:3.3701999 332:3.3701999 366:3.3701999 385:3.7447 405:3.7447 412:4.1191001 451:3.3701999 464:3.7447 481:4.1191001 516:3.3701999 526:3.3701999 559:4.1191001 606:3.3701999 618:3.3701999 619:3.3701999 731:3.7447 770:3.3701999 774:3.7447 835:3.3701999 850:3.3701999 869:3.3701999 872:3.3701999 957:3.3701999 980:3.3701999 982:3.3701999 984:3.3701999 996:3.3701999 1028:3.7447 1050:3.7447 1053:3.3701999 1060:3.7447 1077:4.4935999 1084:3.3701999 1091:3.7447 1136:3.3701999 1150:3.3701999 1161:3.7447 1188:3.3701999 1210:3.3701999 1268:4.8681002 1273:3.3701999 1295:3.7447 1305:3.3701999 1376:3.3701999 1399:4.1191001 1426:3.7447 1472:3.7447 1498:3.3701999 1519:3.7447 1562:3.3701999 1622:3.7447 1626:4.8681002 1628:3.3701999 1690:3.3701999 1710:3.3701999 1744:3.3701999 1772:3.7447 1774:3.3701999 1826:3.3701999 1900:3.3701999 1906:3.3701999 1944:3.3701999 1955:3.3701999 1967:3.7447 1984:4.8681002 2031:3.7447 2047:4.1191001 2079:3.3701999 2109:3.7447 2156:3.7447 2218:3.3701999 2225:3.3701999 2227:3.3701999 2233:3.3701999 2240:4.4935999 2252:3.3701999 2253:4.1191001 2307:3.3701999 2313:3.7447 2322:4.4935999 2374:5.9914999 2376:4.1191001 2412:3.7447 2439:3.3701999 2464:4.4935999 2501:3.3701999 2528:3.3701999 2570:3.3701999 2573:3.3701999 2629:3.3701999 2649:3.3701999 2661:5.2424998 2761:3.3701999 2762:3.3701999 2764:3.3701999 2809:3.3701999 2817:3.3701999 2854:3.3701999 2864:3.3701999 2885:3.7447 2895:4.1191001 2900:3.3701999 2927:3.3701999 2941:3.3701999 # none/00000111_s04.txt
-0.0006021594349643786484721497132 7:3.4237001 10:3.2097001 12:3.8517001 31:3.2097001 75:3.2097001 89:3.2097001 93:3.4237001 148:3.4237001 155:3.2097001 202:3.2097001 205:3.2097001 209:3.2097001 211:3.2097001 233:3.2097001 268:3.2097001 273:3.2097001 279:3.2097001 284:3.2097001 385:3.2097001 395:3.2097001 405:5.3495002 412:3.2097001 447:3.2097001 500:3.2097001 502:3.4237001 522:3.2097001 526:3.2097001 582:3.4237001 594:3.2097001 606:3.4237001 609:3.2097001 629:3.4237001 662:3.4237001 671:3.2097001 683:3.2097001 737:3.2097001 739:3.2097001 770:3.6377001 774:3.6377001 807:3.2097001 819:3.6377001 850:3.2097001 869:3.2097001 910:3.2097001 947:3.2097001 957:3.2097001 959:3.4237001 974:3.2097001 977:3.4237001 984:3.2097001 1027:3.2097001 1053:3.2097001 1055:3.4237001 1077:3.8517001 1084:3.2097001 1091:3.2097001 1098:3.2097001 1127:3.2097001 1163:3.4237001 1164:3.2097001 1203:3.4237001 1209:3.2097001 1210:3.4237001 1237:3.2097001 1246:3.2097001 1268:4.0655999 1273:3.2097001 1295:4.4935999 1300:3.8517001 1305:4.4935999 1326:3.2097001 1340:3.2097001 1354:3.2097001 1417:3.2097001 1426:3.2097001 1437:3.2097001 1476:3.2097001 1480:3.4237001 1483:3.2097001 1498:3.2097001 1502:3.4237001 1523:3.2097001 1562:3.2097001 1615:3.2097001 1626:4.7076001 1636:3.4237001 1667:3.2097001 1673:3.6377001 1715:3.2097001 1718:3.2097001 1735:3.4237001 1742:3.2097001 1744:3.2097001 1809:3.6377001 1815:3.4237001 1826:3.2097001 1836:3.2097001 1839:3.2097001 1860:3.2097001 1920:3.4237001 1924:3.2097001 1944:3.2097001 1959:3.2097001 1963:3.2097001 1964:3.4237001 1984:3.2097001 2023:3.8517001 2031:4.0655999 2034:3.6377001 2047:3.2097001 2060:3.2097001 2079:3.2097001 2096:3.2097001 2100:3.2097001 2126:3.2097001 2129:3.2097001 2146:3.2097001 2165:3.2097001 2213:3.2097001 2236:3.2097001 2240:4.2796001 2253:4.7076001 2294:3.2097001 2306:3.2097001 2313:3.4237001 2314:3.6377001 2337:3.2097001 2365:3.2097001 2373:3.4237001 2374:3.2097001 2376:5.9914999 2412:3.6377001 2423:3.2097001 2428:3.2097001 2455:3.8517001 2464:4.0655999 2486:3.4237001 2513:3.2097001 2518:3.2097001 2525:3.4237001 2528:3.2097001 2610:3.2097001 2629:3.2097001 2678:3.6377001 2692:3.2097001 2700:3.4237001 2817:3.2097001 2818:3.2097001 2837:3.2097001 2858:3.2097001 2864:3.4237001 2885:3.4237001 2888:3.2097001 2895:3.6377001 2907:3.4237001 2925:3.2097001 # none/00000126_s04.txt
0.0006021594349643786484721497132 24:3.2953 33:3.2953 120:3.2953 318:3.2953 385:3.2953 405:3.2953 412:3.2953 434:3.8945 506:3.2953 526:3.2953 570:3.2953 582:3.5948999 603:3.2953 606:3.2953 657:3.2953 673:3.2953 696:3.2953 726:3.2953 739:3.2953 770:3.2953 774:3.5948999 842:3.2953 850:3.2953 869:3.2953 941:3.2953 949:3.5948999 982:3.2953 984:3.2953 995:3.2953 1008:3.2953 1043:3.2953 1053:3.2953 1077:5.9914999 1084:3.2953 1091:3.2953 1100:3.2953 1131:3.2953 1187:3.2953 1273:3.2953 1295:3.2953 1300:3.2953 1326:3.2953 1426:3.2953 1439:3.2953 1458:3.2953 1460:3.2953 1498:3.2953 1504:3.2953 1548:3.2953 1562:3.2953 1568:3.2953 1665:3.2953 1718:3.2953 1724:3.2953 1744:3.2953 1815:3.2953 1825:3.2953 1844:3.2953 1955:3.2953 2031:3.8945 2034:3.5948999 2047:3.5948999 2048:3.2953 2065:3.2953 2079:3.2953 2146:3.2953 2149:3.2953 2164:3.2953 2231:3.2953 2240:3.8945 2322:3.2953 2376:3.5948999 2412:3.5948999 2433:3.2953 2436:3.2953 2455:3.2953 2464:3.5948999 2528:3.2953 2530:3.2953 2573:3.2953 2596:3.2953 2627:3.2953 2629:3.2953 2678:3.8945 2693:3.2953 2778:3.2953 2813:3.2953 2817:3.2953 2858:3.2953 2864:3.2953 2895:3.8945 2927:3.2953 2941:3.5948999 # seizures/00000005_s06.txt
3.5715189726201491406901850078626e-05 7:3.2454 31:3.2454 45:3.2454 93:3.2454 120:3.2454 151:3.2454 224:3.2454 229:3.2454 274:3.2454 365:3.2454 368:3.2454 385:3.4949999 405:4.244 419:3.2454 447:3.2454 559:3.2454 577:3.2454 606:3.2454 628:3.4949999 667:3.2454 699:3.2454 738:3.2454 739:3.2454 774:3.9942999 784:3.2454 843:3.7447 850:3.7447 852:3.2454 869:3.4949999 947:3.2454 954:3.2454 957:3.2454 971:3.2454 982:3.2454 996:3.4949999 1018:3.2454 1053:3.4949999 1055:3.2454 1077:3.4949999 1084:3.2454 1091:3.2454 1095:3.4949999 1117:3.2454 1127:3.2454 1131:3.7447 1136:3.2454 1163:3.2454 1188:3.2454 1223:3.2454 1268:3.4949999 1273:3.4949999 1313:3.2454 1370:3.2454 1399:3.2454 1426:3.4949999 1445:3.2454 1459:3.2454 1460:3.2454 1472:3.4949999 1498:3.2454 1514:3.2454 1531:3.2454 1562:3.2454 1583:3.2454 1599:3.2454 1615:3.2454 1617:3.7447 1626:5.9914999 1633:3.2454 1634:3.2454 1657:3.2454 1673:3.2454 1683:3.2454 1735:3.4949999 1744:3.2454 1755:3.2454 1791:3.2454 1809:3.2454 1920:3.7447 1945:3.7447 1959:3.2454 1964:3.2454 1975:3.2454 2023:3.4949999 2031:3.4949999 2045:3.2454 2047:3.4949999 2050:3.7447 2065:3.2454 2079:3.2454 2084:3.2454 2107:3.2454 2109:4.7431998 2113:3.2454 2195:4.7431998 2239:3.2454 2240:3.7447 2253:4.244 2294:3.2454 2322:3.2454 2365:3.7447 2373:3.2454 2376:4.244 2405:3.2454 2408:3.2454 2409:3.2454 2414:3.2454 2423:3.2454 2464:3.7447 2518:3.2454 2528:3.2454 2533:3.2454 2536:3.2454 2550:3.2454 2565:3.2454 2570:3.4949999 2629:3.2454 2678:3.2454 2715:3.2454 2753:3.2454 2817:3.2454 2832:3.2454 2864:3.4949999 # seizures/00001721_s01.txt
0.0006021594349643786484721497132 31:3.4949999 115:3.4949999 116:3.4949999 126:3.4949999 245:3.4949999 261:3.9942999 385:3.9942999 387:3.4949999 405:3.9942999 412:4.4935999 464:3.4949999 481:3.4949999 511:3.4949999 516:3.4949999 522:3.4949999 569:3.4949999 582:3.4949999 601:3.4949999 603:3.4949999 619:3.4949999 635:3.4949999 676:3.4949999 683:3.9942999 726:3.4949999 757:3.4949999 770:3.9942999 774:4.9928999 778:3.4949999 827:4.4935999 835:3.4949999 843:3.4949999 850:3.9942999 869:4.4935999 926:3.4949999 956:3.4949999 957:3.4949999 973:3.4949999 980:3.4949999 981:4.4935999 984:3.4949999 996:3.9942999 1028:3.4949999 1053:3.9942999 1077:4.4935999 1078:3.4949999 1084:3.4949999 1091:3.9942999 1095:4.4935999 1127:3.4949999 1136:3.4949999 1161:3.4949999 1164:3.9942999 1187:3.4949999 1223:3.4949999 1240:3.4949999 1246:3.4949999 1268:3.4949999 1295:3.4949999 1296:3.4949999 1300:3.4949999 1326:3.4949999 1426:3.4949999 1472:4.4935999 1498:3.4949999 1562:3.4949999 1622:3.4949999 1626:4.4935999 1636:3.4949999 1667:3.4949999 1672:3.4949999 1744:3.9942999 1756:3.4949999 1791:3.9942999 1804:3.9942999 1809:3.4949999 1811:3.4949999 1842:3.4949999 1906:3.4949999 1913:3.4949999 1920:3.4949999 1967:3.4949999 1984:3.4949999 2022:3.4949999 2031:4.4935999 2047:4.4935999 2078:3.4949999 2079:3.4949999 2103:3.4949999 2109:4.9928999 2148:3.4949999 2156:3.9942999 2225:3.4949999 2240:5.4921999 2253:3.4949999 2259:3.4949999 2279:3.4949999 2313:3.4949999 2314:3.9942999 2341:3.4949999 2374:4.9928999 2376:5.9914999 2409:3.4949999 2412:5.4921999 2439:3.4949999 2455:3.4949999 2464:5.4921999 2528:3.4949999 2530:3.4949999 2555:3.9942999 2594:3.9942999 2629:3.4949999 2645:3.4949999 2649:3.4949999 2661:4.9928999 2668:3.4949999 2693:4.4935999 2700:4.4935999 2707:3.4949999 2733:3.4949999 2800:3.4949999 2817:3.4949999 2895:5.4921999 # seizures/00000068_s01.txt
0.00014555675855647238299203638511869 31:3.3285999 64:3.3285999 71:3.3285999 116:3.6615 120:3.3285999 127:3.3285999 165:3.3285999 385:3.6615 405:3.6615 411:3.3285999 412:3.6615 429:3.3285999 464:4.9928999 481:3.3285999 502:3.6615 511:3.3285999 516:3.3285999 517:3.3285999 542:3.3285999 582:3.6615 609:3.3285999 617:3.3285999 619:3.6615 621:3.3285999 662:3.3285999 707:3.3285999 726:5.3256998 731:3.9942999 774:3.9942999 843:3.6615 850:4.3271999 869:3.3285999 947:3.3285999 957:3.3285999 980:3.3285999 981:3.3285999 985:3.3285999 996:3.6615 1004:3.3285999 1007:3.3285999 1028:3.3285999 1036:3.3285999 1053:3.3285999 1060:3.3285999 1077:4.6599998 1084:3.3285999 1091:3.6615 1095:3.3285999 1112:3.3285999 1130:3.3285999 1161:3.6615 1164:3.3285999 1188:3.6615 1200:3.3285999 1210:3.3285999 1240:3.3285999 1268:4.3271999 1295:4.3271999 1296:3.3285999 1300:3.6615 1386:3.3285999 1419:3.3285999 1426:3.9942999 1447:3.3285999 1459:3.3285999 1472:3.6615 1498:3.3285999 1504:3.9942999 1562:3.3285999 1569:3.3285999 1615:3.3285999 1617:3.6615 1622:3.3285999 1634:3.3285999 1636:3.3285999 1673:3.3285999 1690:3.3285999 1716:3.3285999 1744:3.3285999 1755:3.3285999 1772:3.6615 1791:3.6615 1824:3.3285999 1826:3.3285999 1836:3.3285999 1853:3.3285999 1906:3.3285999 1913:3.3285999 1924:3.3285999 1945:4.3271999 1957:3.3285999 1964:3.3285999 1967:3.6615 1980:3.3285999 1984:3.3285999 1985:3.3285999 2003:3.3285999 2031:3.6615 2047:4.3271999 2079:3.3285999 2109:3.3285999 2148:3.3285999 2150:3.3285999 2156:3.6615 2196:3.3285999 2201:3.3285999 2219:3.3285999 2228:3.3285999 2233:3.3285999 2240:4.6599998 2244:3.6615 2253:5.6585999 2266:3.3285999 2292:3.3285999 2295:3.3285999 2304:3.3285999 2307:3.3285999 2313:3.3285999 2322:4.3271999 2336:3.3285999 2341:3.3285999 2345:3.3285999 2374:4.3271999 2376:5.9914999 2412:3.6615 2439:3.3285999 2455:3.3285999 2464:4.6599998 2485:3.3285999 2489:3.3285999 2496:3.3285999 2518:3.3285999 2528:3.3285999 2530:3.3285999 2536:3.6615 2570:3.3285999 2573:3.3285999 2629:3.3285999 2645:3.3285999 2647:3.3285999 2649:3.3285999 2661:3.3285999 2693:3.6615 2700:3.3285999 2715:3.6615 2762:3.3285999 2800:3.3285999 2817:3.3285999 2847:3.3285999 2895:3.9942999 2907:3.3285999 2955:3.3285999 # seizures/00000231_s01.txt
-0.0006021594349643786484721497132 31:3.7447 233:3.7447 365:3.7447 385:3.7447 405:4.4935999 412:3.7447 441:3.7447 481:3.7447 572:3.7447 606:3.7447 619:3.7447 774:4.4935999 850:3.7447 869:3.7447 957:3.7447 962:4.4935999 980:3.7447 982:3.7447 984:3.7447 996:4.4935999 1028:3.7447 1077:5.2424998 1084:3.7447 1091:4.4935999 1131:3.7447 1136:3.7447 1156:3.7447 1188:3.7447 1305:3.7447 1376:3.7447 1426:3.7447 1472:3.7447 1498:3.7447 1562:3.7447 1673:4.4935999 1744:3.7447 1809:3.7447 1906:5.2424998 1913:4.4935999 1920:4.4935999 1924:4.4935999 1929:3.7447 1955:3.7447 1967:4.4935999 2031:5.2424998 2047:5.2424998 2079:3.7447 2109:3.7447 2138:4.4935999 2156:4.4935999 2227:3.7447 2233:3.7447 2240:5.9914999 2279:3.7447 2289:4.4935999 2309:3.7447 2313:3.7447 2322:3.7447 2374:3.7447 2376:5.2424998 2441:3.7447 2455:5.2424998 2477:4.4935999 2506:3.7447 2525:5.2424998 2528:3.7447 2536:4.4935999 2573:3.7447 2629:3.7447 2649:3.7447 2661:3.7447 2817:4.4935999 2864:3.7447 2885:4.4935999 2907:3.7447 2908:3.7447 2927:3.7447 2941:3.7447 # none/00000330_s02.txt
-0.0006021594349643786484721497132 31:3.2454 155:3.4949999 158:3.2454 309:3.2454 385:3.2454 400:3.2454 401:3.2454 405:3.4949999 412:3.2454 425:3.4949999 435:3.2454 462:3.2454 464:3.4949999 482:3.2454 507:3.7447 511:3.2454 543:3.2454 582:3.4949999 683:3.2454 701:3.2454 702:3.7447 731:3.4949999 738:3.2454 774:3.2454 812:3.2454 831:3.2454 843:3.4949999 850:4.244 861:3.2454 862:3.2454 870:3.2454 916:3.2454 923:3.2454 932:3.2454 944:3.2454 947:3.2454 957:3.2454 981:4.244 996:3.7447 1000:3.9942999 1028:3.2454 1044:3.2454 1053:3.2454 1060:3.4949999 1077:3.4949999 1078:3.2454 1084:3.2454 1091:3.2454 1095:3.4949999 1105:3.2454 1131:3.7447 1150:3.4949999 1240:3.4949999 1268:3.9942999 1295:3.2454 1326:3.2454 1353:3.2454 1399:3.9942999 1420:3.2454 1426:3.4949999 1437:3.4949999 1460:3.2454 1472:3.4949999 1498:3.2454 1504:3.2454 1508:3.4949999 1513:3.2454 1542:3.2454 1548:3.2454 1591:3.2454 1622:3.4949999 1626:5.9914999 1634:3.2454 1744:3.7447 1755:3.2454 1761:3.2454 1799:3.2454 1804:3.4949999 1809:3.2454 1836:3.2454 1905:3.2454 1909:3.2454 1913:3.2454 1920:3.4949999 1924:3.2454 1929:3.2454 1938:3.2454 1943:3.2454 1944:3.2454 1946:3.2454 1984:3.9942999 1985:3.2454 2017:3.4949999 2031:3.4949999 2047:3.7447 2050:4.4935999 2060:3.2454 2065:3.2454 2084:3.9942999 2092:3.2454 2103:3.2454 2109:4.4935999 2138:3.2454 2148:3.2454 2151:3.2454 2163:3.4949999 2167:3.7447 2195:4.244 2200:3.4949999 2237:3.2454 2240:5.2424998 2259:3.7447 2285:3.4949999 2309:3.4949999 2313:3.2454 2322:3.2454 2376:3.9942999 2382:3.7447 2412:3.4949999 2423:3.2454 2439:3.2454 2455:3.2454 2464:5.2424998 2466:3.2454 2513:3.2454 2524:3.4949999 2528:3.2454 2536:3.2454 2550:3.2454 2570:3.2454 2584:3.2454 2629:3.2454 2645:3.2454 2678:3.4949999 2693:3.4949999 2753:3.2454 2787:3.2454 2855:3.7447 2864:3.4949999 2895:3.9942999 2896:3.4949999 2900:3.2454 2903:3.2454 2927:3.2454 # none/00000482_s07.txt
-0.0006021594349643786484721497132 26:3.4237001 31:3.4237001 76:3.4237001 85:3.4237001 172:3.4237001 191:3.4237001 385:3.4237001 397:3.4237001 405:5.9914999 407:3.4237001 431:5.1355 448:3.4237001 462:3.4237001 464:3.4237001 517:3.4237001 582:3.4237001 606:3.4237001 610:3.4237001 652:3.4237001 657:3.4237001 677:3.4237001 683:4.2796001 693:3.4237001 726:3.4237001 739:3.8517001 754:4.2796001 757:3.4237001 774:3.8517001 869:3.4237001 947:3.4237001 957:3.4237001 982:3.4237001 1000:4.2796001 1053:3.4237001 1055:3.4237001 1077:5.1355 1084:3.4237001 1086:3.4237001 1091:3.4237001 1131:3.4237001 1171:3.4237001 1174:3.4237001 1176:3.4237001 1177:3.4237001 1209:3.4237001 1214:3.4237001 1223:3.4237001 1295:3.4237001 1333:4.7076001 1352:4.2796001 1360:3.4237001 1382:3.4237001 1399:3.8517001 1403:3.4237001 1414:3.4237001 1417:3.4237001 1426:3.4237001 1439:3.4237001 1484:3.4237001 1498:3.4237001 1499:3.4237001 1502:3.4237001 1504:3.4237001 1506:3.4237001 1511:3.8517001 1548:3.4237001 1561:3.4237001 1562:3.4237001 1579:3.4237001 1626:4.2796001 1672:3.4237001 1690:3.8517001 1694:3.4237001 1744:3.4237001 1791:3.4237001 1798:3.4237001 1818:3.4237001 1819:3.4237001 1826:3.8517001 1827:3.4237001 1839:3.4237001 1882:3.4237001 1913:3.4237001 1924:3.4237001 1938:3.8517001 1943:3.4237001 1944:3.4237001 2034:4.7076001 2047:3.4237001 2050:3.4237001 2060:3.4237001 2079:3.4237001 2102:3.4237001 2215:3.4237001 2237:3.4237001 2240:3.4237001 2253:3.4237001 2259:3.8517001 2286:3.4237001 2322:3.8517001 2365:3.4237001 2376:4.7076001 2412:5.1355 2471:3.4237001 2486:3.4237001 2522:3.8517001 2528:3.4237001 2596:3.4237001 2605:3.4237001 2614:3.4237001 2629:3.4237001 2661:3.4237001 2678:3.4237001 2700:3.4237001 2809:3.4237001 2817:3.4237001 2864:3.4237001 2880:4.2796001 2895:4.7076001 2932:3.4237001 # none/00007941_s01.txt
-0.0006021594349643786484721497132 13:3.4949999 16:3.4949999 17:3.4949999 24:3.9942999 36:3.4949999 120:3.9942999 139:3.4949999 310:3.4949999 368:3.4949999 385:3.4949999 405:4.9928999 412:3.9942999 462:3.9942999 506:3.4949999 526:4.4935999 549:3.4949999 582:5.9914999 606:3.9942999 619:4.9928999 629:3.4949999 657:3.9942999 738:3.4949999 739:3.9942999 770:3.4949999 774:4.9928999 799:3.4949999 849:3.4949999 850:5.4921999 869:3.4949999 932:3.4949999 944:3.4949999 947:3.4949999 949:3.4949999 957:3.9942999 982:3.4949999 984:3.4949999 1000:3.9942999 1053:3.4949999 1077:5.9914999 1084:3.9942999 1091:3.9942999 1107:4.4935999 1130:3.9942999 1131:3.9942999 1188:3.9942999 1213:3.9942999 1295:5.4921999 1300:3.4949999 1337:3.9942999 1379:3.4949999 1426:3.4949999 1439:3.9942999 1476:3.9942999 1482:3.4949999 1498:3.9942999 1499:3.9942999 1508:3.4949999 1523:3.9942999 1562:3.9942999 1563:3.9942999 1672:3.4949999 1715:3.4949999 1724:3.4949999 1744:4.4935999 1798:3.4949999 1809:3.9942999 1821:3.4949999 1826:4.4935999 1839:3.4949999 1913:3.4949999 1920:3.4949999 1938:5.4921999 1946:3.4949999 1959:3.9942999 1984:3.4949999 1999:3.4949999 2026:3.4949999 2031:4.4935999 2034:5.4921999 2047:3.9942999 2078:3.4949999 2079:3.9942999 2138:3.4949999 2149:3.4949999 2158:3.4949999 2240:5.4921999 2259:3.9942999 2266:3.4949999 2268:3.4949999 2277:3.4949999 2317:3.9942999 2336:3.4949999 2337:3.4949999 2341:3.4949999 2371:3.9942999 2376:4.4935999 2404:3.4949999 2464:3.4949999 2471:3.9942999 2528:3.9942999 2536:3.9942999 2550:3.9942999 2596:3.4949999 2629:3.9942999 2658:3.4949999 2668:3.4949999 2678:4.9928999 2700:4.4935999 2796:3.4949999 2817:4.4935999 2854:3.4949999 2864:4.4935999 2907:3.4949999 2947:3.4949999 # none/00004433_s01.txt
-0.0006021594349643786484721497132 31:3.7447 155:3.7447 282:3.7447 325:3.7447 385:3.7447 405:3.7447 407:3.7447 543:3.7447 582:4.4935999 606:3.7447 671:3.7447 683:3.7447 726:3.7447 728:3.7447 739:3.7447 774:5.2424998 803:3.7447 850:4.4935999 869:4.4935999 949:3.7447 957:3.7447 982:3.7447 984:3.7447 1000:3.7447 1053:3.7447 1077:5.2424998 1084:3.7447 1091:3.7447 1240:3.7447 1246:3.7447 1295:3.7447 1305:3.7447 1382:3.7447 1426:4.4935999 1437:3.7447 1439:3.7447 1460:3.7447 1498:3.7447 1525:3.7447 1548:3.7447 1562:3.7447 1563:3.7447 1626:5.2424998 1715:3.7447 1744:3.7447 1798:3.7447 1920:4.4935999 1938:4.4935999 1944:3.7447 1955:3.7447 2031:3.7447 2034:3.7447 2047:4.4935999 2065:3.7447 2079:3.7447 2146:3.7447 2168:3.7447 2240:5.9914999 2253:3.7447 2322:3.7447 2370:3.7447 2376:3.7447 2408:3.7447 2412:5.2424998 2417:3.7447 2436:3.7447 2464:3.7447 2466:3.7447 2467:3.7447 2518:3.7447 2528:3.7447 2596:3.7447 2629:3.7447 2668:3.7447 2700:3.7447 2730:3.7447 2817:3.7447 2835:3.7447 2864:3.7447 2895:5.2424998 2941:3.7447 # none/00000251_s05.txt
-0.0006021594349643786484721497132 11:3.2953 24:3.8945 31:3.2953 67:3.2953 89:3.2953 101:3.2953 110:3.2953 120:3.2953 122:3.5948999 144:3.8945 147:4.1939998 151:3.2953 168:3.2953 209:3.2953 213:3.2953 216:3.2953 219:3.2953 227:3.2953 269:3.5948999 367:3.2953 368:3.2953 390:3.2953 399:3.2953 405:3.8945 412:3.2953 428:3.5948999 431:3.2953 441:3.2953 447:3.5948999 451:3.5948999 478:3.2953 502:3.5948999 507:3.2953 518:3.2953 526:4.7932 540:3.2953 559:3.2953 572:3.5948999 582:3.8945 604:3.8945 606:3.2953 610:3.8945 619:3.2953 620:3.2953 631:3.2953 643:3.2953 657:3.2953 671:3.2953 683:4.4935999 685:3.2953 737:3.2953 739:3.2953 755:3.2953 774:3.5948999 850:3.2953 859:3.2953 869:4.1939998 883:4.4935999 904:3.5948999 916:3.2953 947:3.2953 949:3.5948999 952:3.2953 956:3.2953 957:3.5948999 962:3.2953 977:3.2953 979:3.2953 980:3.2953 982:3.2953 1005:3.2953 1011:3.2953 1019:3.2953 1050:3.2953 1054:3.2953 1055:3.8945 1070:3.2953 1077:5.6918998 1084:3.5948999 1091:3.2953 1107:3.2953 1116:3.2953 1127:3.2953 1131:4.1939998 1136:3.2953 1155:3.2953 1156:3.5948999 1174:3.2953 1182:3.2953 1188:3.2953 1193:3.2953 1213:3.2953 1216:3.2953 1243:3.2953 1246:3.2953 1273:3.2953 1296:3.2953 1300:3.2953 1326:3.2953 1334:3.2953 1426:3.2953 1435:3.2953 1439:3.2953 1472:3.2953 1477:3.2953 1480:3.5948999 1490:3.5948999 1498:3.2953 1502:3.8945 1509:3.2953 1543:3.2953 1562:3.2953 1589:3.2953 1593:3.2953 1634:3.2953 1672:3.2953 1678:3.2953 1717:3.2953 1723:3.5948999 1725:3.2953 1744:3.2953 1809:4.1939998 1814:3.5948999 1816:3.5948999 1825:3.8945 1826:3.2953 1833:3.2953 1855:3.5948999 1889:3.2953 1913:3.2953 1916:3.2953 1920:3.5948999 1924:3.2953 1929:3.5948999 1934:3.5948999 1937:3.2953 1946:3.2953 1955:3.2953 1959:3.8945 2021:3.2953 2031:5.9914999 2034:3.5948999 2047:3.2953 2079:3.2953 2089:3.5948999 2103:3.2953 2104:3.2953 2120:3.2953 2129:3.2953 2138:3.2953 2149:3.2953 2189:3.5948999 2191:4.4935999 2201:3.2953 2240:3.8945 2251:3.2953 2266:3.2953 2268:3.2953 2271:3.2953 2279:4.1939998 2313:3.5948999 2314:3.2953 2344:3.5948999 2352:3.2953 2370:3.2953 2372:3.2953 2373:3.2953 2376:5.6918998 2384:3.2953 2399:3.2953 2404:3.2953 2431:3.5948999 2445:3.5948999 2455:4.4935999 2456:3.5948999 2464:3.8945 2471:3.2953 2500:3.2953 2503:3.2953 2504:3.2953 2525:3.5948999 2528:3.2953 2530:3.2953 2561:3.2953 2596:3.2953 2597:3.2953 2611:3.2953 2622:3.5948999 2623:3.5948999 2629:3.2953 2636:3.2953 2638:3.2953 2655:3.5948999 2668:3.2953 2692:3.2953 2700:4.1939998 2763:3.2953 2766:3.2953 2782:3.2953 2807:3.2953 2809:3.2953 2817:3.2953 2864:3.2953 2885:3.5948999 2910:3.2953 2911:3.2953 2927:3.2953 2941:3.2953 # none/00000470_s03.txt
0.0006021594349643786484721497132 31:3.4949999 36:3.4949999 116:3.4949999 126:3.4949999 241:3.4949999 385:4.4935999 405:3.9942999 412:3.9942999 464:3.4949999 481:4.4935999 494:3.4949999 502:3.4949999 516:3.9942999 531:3.4949999 572:3.4949999 613:3.4949999 619:3.4949999 699:3.4949999 726:4.4935999 731:3.9942999 733:3.4949999 774:3.9942999 811:3.4949999 843:4.4935999 852:3.4949999 869:3.9942999 872:3.4949999 905:3.4949999 957:3.4949999 975:3.4949999 980:3.4949999 996:4.4935999 1028:3.4949999 1053:3.4949999 1060:3.4949999 1077:4.4935999 1084:3.4949999 1091:3.9942999 1161:3.9942999 1164:3.4949999 1188:3.4949999 1268:5.4921999 1295:3.4949999 1305:3.4949999 1383:3.4949999 1386:3.4949999 1426:3.9942999 1428:3.4949999 1472:3.9942999 1498:3.4949999 1502:3.9942999 1504:3.4949999 1506:3.4949999 1513:3.4949999 1548:3.4949999 1562:3.4949999 1591:3.4949999 1597:3.4949999 1626:3.9942999 1629:3.4949999 1633:3.9942999 1744:3.4949999 1772:3.4949999 1774:3.4949999 1836:3.9942999 1906:3.4949999 1946:3.9942999 1967:3.9942999 1980:3.4949999 2023:4.4935999 2031:3.9942999 2047:3.4949999 2050:3.4949999 2065:3.9942999 2079:3.4949999 2082:3.4949999 2109:3.4949999 2138:3.4949999 2156:3.9942999 2158:3.4949999 2219:3.4949999 2225:3.4949999 2227:3.4949999 2233:3.4949999 2240:5.9914999 2253:5.4921999 2279:3.4949999 2307:3.4949999 2313:3.9942999 2322:3.4949999 2325:3.4949999 2341:3.4949999 2345:3.4949999 2372:3.4949999 2374:3.9942999 2376:5.9914999 2412:3.4949999 2414:3.4949999 2434:4.4935999 2439:3.4949999 2455:3.4949999 2464:4.4935999 2485:3.4949999 2518:3.4949999 2525:3.4949999 2528:3.4949999 2550:3.9942999 2573:3.4949999 2629:3.4949999 2645:3.4949999 2649:3.4949999 2661:4.4935999 2693:3.9942999 2700:3.4949999 2762:3.4949999 2817:3.4949999 2885:3.4949999 2895:4.4935999 2900:3.4949999 2907:3.4949999 2927:3.4949999 2934:3.4949999 # seizures/00000447_s01.txt
0.0006021594349643786484721497132 31:3.4237001 116:3.4237001 126:3.4237001 284:3.4237001 336:3.4237001 385:4.2796001 405:3.8517001 460:3.8517001 464:3.4237001 481:4.2796001 564:3.4237001 619:3.4237001 702:3.4237001 726:3.4237001 731:3.4237001 738:3.4237001 770:3.4237001 774:3.8517001 869:4.2796001 957:3.4237001 980:3.4237001 982:3.4237001 996:4.2796001 1028:3.4237001 1050:3.8517001 1053:3.4237001 1055:3.8517001 1060:3.4237001 1077:5.9914999 1084:3.4237001 1091:3.8517001 1127:3.4237001 1131:3.4237001 1136:3.4237001 1150:3.4237001 1161:3.4237001 1188:3.4237001 1218:3.4237001 1268:4.2796001 1295:3.4237001 1300:3.4237001 1426:3.8517001 1448:3.4237001 1459:3.4237001 1460:3.8517001 1472:3.8517001 1498:3.4237001 1502:3.8517001 1562:3.4237001 1591:3.4237001 1615:3.4237001 1622:3.4237001 1626:3.8517001 1716:3.4237001 1744:3.4237001 1772:3.4237001 1774:3.8517001 1906:3.4237001 1909:3.4237001 1913:3.8517001 1944:3.4237001 1946:3.4237001 1955:3.4237001 1959:3.4237001 1967:3.8517001 2023:3.4237001 2031:4.7076001 2047:3.4237001 2065:3.8517001 2079:3.4237001 2109:3.4237001 2156:3.8517001 2158:3.4237001 2225:3.4237001 2227:3.4237001 2233:3.4237001 2240:5.1355 2252:3.4237001 2253:3.4237001 2266:3.4237001 2279:3.8517001 2281:3.4237001 2307:3.4237001 2313:3.4237001 2341:3.4237001 2374:3.8517001 2376:4.7076001 2434:3.4237001 2464:3.8517001 2473:3.8517001 2528:3.4237001 2550:3.8517001 2573:3.4237001 2592:3.4237001 2629:3.4237001 2649:3.4237001 2661:5.1355 2700:4.2796001 2799:3.4237001 2809:3.4237001 2817:3.4237001 2864:3.4237001 2885:3.8517001 2895:3.4237001 2908:3.4237001 2941:3.4237001 # seizures/00005770_s01.txt
0.0006021594349643786484721497132 31:3.3701999 276:3.3701999 336:3.3701999 385:4.4935999 405:3.7447 412:3.7447 446:3.3701999 481:3.3701999 502:3.7447 517:4.1191001 559:4.1191001 619:3.3701999 627:3.3701999 649:3.3701999 682:3.7447 683:3.3701999 702:3.3701999 731:3.3701999 738:3.3701999 755:3.3701999 774:3.7447 816:3.7447 839:3.3701999 843:3.7447 869:4.1191001 872:3.3701999 940:3.3701999 956:3.3701999 957:3.3701999 980:3.3701999 981:3.3701999 982:3.3701999 996:3.7447 1011:3.7447 1028:4.1191001 1053:3.7447 1055:5.2424998 1060:3.7447 1077:5.6170001 1084:4.1191001 1091:3.7447 1107:3.3701999 1124:3.3701999 1136:3.3701999 1150:3.3701999 1156:3.7447 1161:3.7447 1171:3.3701999 1223:3.3701999 1244:3.7447 1268:3.7447 1295:3.7447 1326:3.3701999 1376:3.3701999 1395:3.3701999 1399:5.9914999 1426:3.7447 1443:3.3701999 1460:3.7447 1472:3.3701999 1498:3.3701999 1502:3.7447 1548:3.7447 1562:3.3701999 1597:3.3701999 1598:3.3701999 1615:3.7447 1622:3.7447 1626:5.2424998 1679:3.3701999 1744:3.3701999 1785:4.1191001 1906:3.3701999 1909:3.3701999 1920:3.3701999 1926:3.3701999 1955:3.3701999 1967:3.3701999 1984:4.1191001 2000:3.3701999 2023:3.3701999 2031:5.9914999 2047:3.7447 2065:3.3701999 2079:3.3701999 2082:3.3701999 2109:4.1191001 2156:3.7447 2158:3.3701999 2233:3.3701999 2237:3.3701999 2239:3.3701999 2240:5.6170001 2252:3.3701999 2307:3.3701999 2313:4.1191001 2322:5.6170001 2337:3.3701999 2355:3.3701999 2365:3.7447 2374:5.2424998 2376:4.4935999 2425:3.3701999 2434:3.3701999 2439:3.3701999 2464:3.3701999 2528:3.3701999 2530:3.3701999 2550:3.3701999 2573:3.3701999 2629:3.3701999 2637:3.3701999 2649:3.3701999 2654:3.3701999 2661:3.3701999 2678:3.3701999 2693:3.7447 2700:3.3701999 2766:3.3701999 2809:3.3701999 2817:3.3701999 2864:3.3701999 2885:4.4935999 2907:3.3701999 2941:3.3701999 # seizures/00001136_s06.txt
0.0006021594349643786484721497132 31:3.7447 83:3.7447 284:3.7447 385:4.4935999 387:3.7447 405:3.7447 412:3.7447 446:4.4935999 481:4.4935999 502:4.4935999 526:5.2424998 537:3.7447 559:3.7447 582:3.7447 619:3.7447 683:5.2424998 731:3.7447 738:3.7447 774:5.9914999 791:4.4935999 843:5.2424998 869:3.7447 957:3.7447 980:3.7447 981:5.9914999 982:3.7447 996:5.9914999 1028:3.7447 1032:3.7447 1036:4.4935999 1053:3.7447 1055:4.4935999 1060:3.7447 1077:5.9914999 1084:3.7447 1091:4.4935999 1161:3.7447 1188:4.4935999 1225:3.7447 1273:4.4935999 1286:4.4935999 1300:4.4935999 1305:3.7447 1326:4.4935999 1407:3.7447 1426:3.7447 1470:3.7447 1498:3.7447 1525:3.7447 1549:3.7447 1562:3.7447 1569:3.7447 1597:3.7447 1615:3.7447 1672:3.7447 1716:3.7447 1724:4.4935999 1744:3.7447 1779:3.7447 1791:3.7447 1839:5.2424998 1846:5.2424998 1906:3.7447 1912:3.7447 1913:4.4935999 1955:3.7447 1967:5.2424998 2031:5.2424998 2034:4.4935999 2042:4.4935999 2047:4.4935999 2050:3.7447 2079:3.7447 2096:3.7447 2104:4.4935999 2109:3.7447 2129:5.2424998 2156:3.7447 2160:3.7447 2233:3.7447 2240:5.2424998 2294:3.7447 2307:3.7447 2313:3.7447 2365:3.7447 2372:3.7447 2374:3.7447 2376:3.7447 2441:3.7447 2460:3.7447 2464:5.2424998 2506:5.9914999 2528:3.7447 2536:4.4935999 2573:4.4935999 2593:3.7447 2596:3.7447 2605:5.9914999 2629:3.7447 2649:3.7447 2661:3.7447 2700:5.2424998 2735:4.4935999 2796:3.7447 2800:3.7447 2817:3.7447 2855:3.7447 2864:3.7447 2895:5.2424998 2941:3.7447 2956:3.7447 # seizures/00005133_s01.txt
0.0006021594349643786484721497132 7:3.4949999 24:3.4949999 31:3.4949999 120:3.4949999 144:3.4949999 175:3.4949999 229:3.4949999 310:3.4949999 385:3.9942999 387:3.4949999 398:3.4949999 405:3.9942999 412:3.4949999 464:3.4949999 481:3.9942999 521:3.4949999 537:3.4949999 559:4.4935999 582:4.4935999 606:3.4949999 607:3.4949999 619:3.4949999 661:3.4949999 668:3.4949999 683:4.4935999 770:3.4949999 774:3.9942999 798:3.4949999 803:3.4949999 843:4.4935999 850:3.4949999 869:4.4935999 872:3.4949999 890:3.4949999 952:3.4949999 957:3.4949999 971:3.4949999 980:3.4949999 981:4.4935999 982:3.4949999 996:3.9942999 1028:3.4949999 1053:3.4949999 1055:4.4935999 1060:3.4949999 1077:5.4921999 1084:3.4949999 1091:3.9942999 1107:3.4949999 1108:3.9942999 1146:3.4949999 1161:3.4949999 1167:3.9942999 1187:3.4949999 1222:3.4949999 1240:3.4949999 1295:3.4949999 1305:3.4949999 1326:3.9942999 1403:3.4949999 1426:3.4949999 1431:3.4949999 1459:3.4949999 1470:3.4949999 1472:3.4949999 1498:3.4949999 1499:3.4949999 1519:3.4949999 1525:3.4949999 1548:3.4949999 1549:3.4949999 1558:3.4949999 1562:3.4949999 1569:3.4949999 1694:3.4949999 1716:3.4949999 1734:3.4949999 1744:3.4949999 1772:3.9942999 1791:3.4949999 1822:3.4949999 1839:4.4935999 1846:5.9914999 1906:3.4949999 1924:3.4949999 1925:3.4949999 1955:3.4949999 1967:3.4949999 2031:3.9942999 2047:3.4949999 2079:3.4949999 2095:3.9942999 2096:3.4949999 2109:3.4949999 2151:3.9942999 2156:3.4949999 2160:3.4949999 2233:3.4949999 2240:4.9928999 2307:3.4949999 2313:3.4949999 2337:3.4949999 2372:3.4949999 2374:4.4935999 2376:3.4949999 2405:3.4949999 2408:3.4949999 2419:3.4949999 2441:3.4949999 2464:4.4935999 2485:3.9942999 2490:3.4949999 2506:3.4949999 2528:3.4949999 2550:3.9942999 2551:3.9942999 2573:3.4949999 2584:3.4949999 2596:3.4949999 2605:3.4949999 2629:3.4949999 2637:3.4949999 2649:3.4949999 2661:3.4949999 2700:3.4949999 2762:3.4949999 2817:3.4949999 2835:3.9942999 2843:3.4949999 2864:3.9942999 2895:3.4949999 2941:3.4949999 # seizures/00004976_s02.txt
0.00034535110207632632164584385314754 31:3.3701999 60:3.3701999 88:3.3701999 92:3.3701999 233:3.7447 282:3.3701999 381:3.3701999 385:3.3701999 405:4.4935999 412:3.7447 429:3.3701999 447:3.3701999 549:3.3701999 575:3.3701999 582:3.3701999 606:3.3701999 609:3.7447 657:3.3701999 683:3.7447 698:3.3701999 726:4.1191001 739:3.3701999 774:3.7447 819:3.7447 842:3.3701999 850:3.3701999 852:3.3701999 869:3.3701999 880:3.3701999 887:3.3701999 952:3.3701999 956:3.3701999 957:3.3701999 974:3.3701999 979:3.3701999 982:3.3701999 984:3.3701999 1015:3.3701999 1036:3.3701999 1053:3.3701999 1057:3.3701999 1077:4.4935999 1084:3.3701999 1091:3.3701999 1117:3.3701999 1130:3.7447 1131:3.7447 1175:3.3701999 1193:3.3701999 1195:3.3701999 1209:3.3701999 1229:3.3701999 1246:3.3701999 1268:3.3701999 1273:3.3701999 1295:3.3701999 1296:3.3701999 1299:3.3701999 1326:3.7447 1331:3.3701999 1354:3.7447 1398:3.3701999 1408:3.3701999 1426:3.3701999 1437:3.7447 1439:3.3701999 1460:3.3701999 1498:3.3701999 1499:3.3701999 1502:3.3701999 1509:3.3701999 1523:3.3701999 1562:3.3701999 1626:3.3701999 1634:3.3701999 1694:3.3701999 1724:3.3701999 1744:3.3701999 1833:3.3701999 1836:3.3701999 1955:3.3701999 1959:3.3701999 1984:3.3701999 1985:3.3701999 2023:3.7447 2026:3.3701999 2031:4.1191001 2034:3.7447 2047:3.7447 2050:3.7447 2065:3.3701999 2079:3.3701999 2166:3.3701999 2240:4.4935999 2244:3.7447 2253:4.1191001 2276:3.7447 2314:3.3701999 2322:3.7447 2372:3.3701999 2375:3.3701999 2376:4.8681002 2408:3.3701999 2412:3.3701999 2414:3.3701999 2431:3.3701999 2436:3.3701999 2464:5.9914999 2506:3.3701999 2527:3.3701999 2528:3.3701999 2536:3.7447 2557:3.3701999 2590:3.3701999 2622:3.3701999 2629:3.3701999 2661:3.3701999 2720:3.3701999 2727:3.7447 2762:3.3701999 2817:3.3701999 2864:3.7447 2880:3.3701999 2941:3.3701999 # seizures/00000717_s04.txt
-0.00055073431319088033721043107249216 31:3.7447 60:3.7447 116:3.7447 123:3.7447 145:3.7447 153:3.7447 254:3.7447 385:4.4935999 389:3.7447 405:3.7447 412:3.7447 419:3.7447 447:3.7447 464:4.4935999 481:3.7447 485:3.7447 526:3.7447 549:3.7447 582:4.4935999 607:3.7447 619:5.2424998 668:3.7447 683:4.4935999 726:3.7447 731:3.7447 770:3.7447 774:3.7447 843:3.7447 869:3.7447 947:3.7447 957:3.7447 980:3.7447 981:3.7447 996:5.2424998 1028:3.7447 1053:4.4935999 1060:3.7447 1077:4.4935999 1078:3.7447 1084:3.7447 1091:4.4935999 1093:3.7447 1131:3.7447 1150:3.7447 1161:3.7447 1195:3.7447 1227:3.7447 1286:3.7447 1295:3.7447 1296:3.7447 1305:3.7447 1326:4.4935999 1386:3.7447 1426:4.4935999 1472:3.7447 1498:3.7447 1549:3.7447 1562:3.7447 1615:3.7447 1622:3.7447 1683:3.7447 1690:3.7447 1715:3.7447 1723:3.7447 1724:3.7447 1744:5.2424998 1772:3.7447 1804:3.7447 1826:3.7447 1906:3.7447 1909:3.7447 1967:3.7447 1980:3.7447 1984:3.7447 1985:3.7447 2022:3.7447 2028:3.7447 2031:3.7447 2047:4.4935999 2079:3.7447 2088:3.7447 2109:3.7447 2129:3.7447 2156:3.7447 2196:3.7447 2201:3.7447 2219:3.7447 2233:3.7447 2240:5.2424998 2252:3.7447 2307:3.7447 2313:3.7447 2341:3.7447 2345:3.7447 2365:3.7447 2374:5.2424998 2376:5.9914999 2419:3.7447 2431:3.7447 2439:3.7447 2464:5.9914999 2511:3.7447 2528:3.7447 2533:3.7447 2536:3.7447 2573:3.7447 2596:3.7447 2629:3.7447 2649:3.7447 2661:3.7447 2800:3.7447 2817:3.7447 2854:3.7447 # none/00003784_s01.txt
-0.00048067599717420081157498445989518 31:3.4949999 116:3.9942999 125:3.4949999 126:3.4949999 277:3.4949999 342:3.4949999 385:3.9942999 405:3.4949999 412:4.4935999 429:3.4949999 464:4.4935999 481:4.4935999 502:4.9928999 519:3.4949999 531:3.4949999 603:3.9942999 653:3.4949999 726:3.4949999 731:3.4949999 738:3.9942999 770:3.9942999 774:3.9942999 821:3.4949999 850:3.4949999 852:3.4949999 869:3.4949999 952:3.4949999 957:3.4949999 980:3.9942999 981:3.4949999 996:3.9942999 1028:3.4949999 1053:3.9942999 1054:3.4949999 1055:4.4935999 1060:3.9942999 1077:4.4935999 1084:3.9942999 1091:5.9914999 1127:3.4949999 1131:3.4949999 1137:3.4949999 1150:3.9942999 1161:3.4949999 1164:3.4949999 1171:3.9942999 1201:3.4949999 1202:3.4949999 1246:3.4949999 1268:5.4921999 1295:3.9942999 1296:3.4949999 1300:3.4949999 1326:3.4949999 1348:3.4949999 1386:3.4949999 1399:3.4949999 1417:3.9942999 1426:3.9942999 1472:4.4935999 1483:3.4949999 1494:3.9942999 1498:3.4949999 1506:3.4949999 1548:3.4949999 1562:3.4949999 1591:3.4949999 1622:3.4949999 1626:4.4935999 1652:4.4935999 1690:3.4949999 1710:3.9942999 1744:3.4949999 1755:3.9942999 1760:3.4949999 1774:3.9942999 1785:4.4935999 1842:3.9942999 1906:3.4949999 1909:3.9942999 1945:3.4949999 1959:3.4949999 1967:3.4949999 1984:3.4949999 1985:3.4949999 2031:5.4921999 2047:3.9942999 2079:3.4949999 2089:3.4949999 2109:3.4949999 2156:3.4949999 2202:3.4949999 2219:3.4949999 2225:3.4949999 2233:3.4949999 2237:3.4949999 2240:5.9914999 2252:3.9942999 2253:3.9942999 2256:3.4949999 2307:3.4949999 2313:4.4935999 2314:3.4949999 2322:4.9928999 2341:3.4949999 2358:3.4949999 2359:3.4949999 2374:4.9928999 2376:4.4935999 2405:3.4949999 2414:3.4949999 2419:3.4949999 2423:3.4949999 2439:3.4949999 2455:4.4935999 2464:4.9928999 2485:3.4949999 2525:4.4935999 2528:3.4949999 2536:3.9942999 2573:4.4935999 2629:3.4949999 2649:3.4949999 2661:5.9914999 2678:3.9942999 2693:3.4949999 2700:3.4949999 2817:3.4949999 2854:4.9928999 2885:5.4921999 2895:3.4949999 2907:3.4949999 2927:3.4949999 # none/00006018_s02.txt
-0.0006021594349643786484721497132 31:3.4237001 116:3.4237001 124:3.4237001 134:3.4237001 261:3.4237001 284:3.4237001 385:3.8517001 405:3.8517001 412:3.8517001 464:3.4237001 481:4.7076001 511:3.4237001 516:3.4237001 526:3.4237001 582:3.4237001 609:3.4237001 619:3.4237001 667:3.4237001 699:3.4237001 714:3.4237001 731:3.8517001 774:3.8517001 843:3.8517001 850:3.4237001 869:3.4237001 957:3.4237001 973:3.4237001 980:3.4237001 981:3.8517001 982:3.4237001 996:3.4237001 1028:3.4237001 1053:3.8517001 1060:3.8517001 1077:4.2796001 1078:3.4237001 1084:3.4237001 1091:4.2796001 1127:3.4237001 1150:3.4237001 1161:3.8517001 1202:3.4237001 1210:3.4237001 1223:3.4237001 1268:4.2796001 1295:3.8517001 1296:3.4237001 1305:3.4237001 1326:3.8517001 1381:3.4237001 1399:4.7076001 1403:3.4237001 1426:4.2796001 1454:3.4237001 1459:3.4237001 1468:3.4237001 1472:3.8517001 1498:3.4237001 1562:3.4237001 1569:3.4237001 1591:3.4237001 1597:3.4237001 1615:3.4237001 1626:3.8517001 1633:3.4237001 1669:3.4237001 1728:3.4237001 1734:3.8517001 1744:4.2796001 1772:3.4237001 1783:4.2796001 1836:3.4237001 1906:3.4237001 1909:3.4237001 1913:3.8517001 1955:3.4237001 1967:3.4237001 1984:3.8517001 2022:3.4237001 2028:3.4237001 2031:3.4237001 2047:4.2796001 2079:3.4237001 2104:3.8517001 2109:3.4237001 2138:3.4237001 2146:3.4237001 2156:3.8517001 2215:3.4237001 2233:3.4237001 2240:5.1355 2252:3.4237001 2253:4.2796001 2313:3.4237001 2322:5.1355 2341:3.4237001 2374:5.9914999 2376:5.1355 2412:3.8517001 2441:3.4237001 2455:4.2796001 2464:5.1355 2512:3.4237001 2528:3.4237001 2536:3.8517001 2566:3.4237001 2570:3.4237001 2573:3.4237001 2574:3.8517001 2622:3.4237001 2628:3.4237001 2629:3.4237001 2649:3.4237001 2661:5.1355 2678:3.4237001 2693:3.4237001 2700:4.2796001 2709:3.4237001 2817:3.4237001 2852:3.4237001 2864:3.4237001 2885:3.8517001 2895:4.2796001 2941:3.4237001 # none/00000894_s01.txt
-0.0006021594349643786484721497132 17:4.7076001 22:3.4237001 31:3.4237001 145:5.1355 155:3.4237001 174:3.4237001 180:3.8517001 184:3.8517001 191:3.4237001 310:3.4237001 324:3.4237001 385:3.8517001 387:3.4237001 391:3.4237001 405:4.2796001 412:3.8517001 446:3.4237001 464:3.4237001 481:3.4237001 499:3.4237001 502:4.2796001 511:3.4237001 526:3.8517001 559:3.4237001 563:3.4237001 582:3.8517001 621:3.4237001 643:3.4237001 661:3.4237001 726:3.4237001 731:3.4237001 751:3.4237001 770:3.4237001 774:3.8517001 791:3.4237001 796:3.4237001 818:3.4237001 843:3.8517001 850:4.2796001 869:3.4237001 913:3.4237001 952:3.4237001 956:3.4237001 957:3.4237001 981:4.2796001 984:3.4237001 996:5.9914999 1028:3.4237001 1036:3.4237001 1053:3.4237001 1060:3.4237001 1077:4.2796001 1084:3.4237001 1091:3.8517001 1131:4.7076001 1161:3.8517001 1195:3.4237001 1300:3.4237001 1326:4.7076001 1347:3.4237001 1350:3.4237001 1386:3.4237001 1410:3.4237001 1426:4.2796001 1437:3.4237001 1459:3.4237001 1467:3.8517001 1470:3.4237001 1472:3.4237001 1498:3.4237001 1525:3.4237001 1562:3.4237001 1568:3.4237001 1569:3.4237001 1597:3.4237001 1612:3.4237001 1622:3.4237001 1673:3.4237001 1716:3.4237001 1734:3.4237001 1744:3.8517001 1791:3.4237001 1818:3.4237001 1826:3.4237001 1839:3.4237001 1913:3.8517001 1924:3.4237001 1939:3.4237001 1946:3.4237001 1967:3.4237001 1973:3.4237001 1985:3.4237001 2028:3.4237001 2031:3.4237001 2034:3.4237001 2042:3.4237001 2047:4.2796001 2050:4.7076001 2079:3.4237001 2095:3.4237001 2104:3.4237001 2109:3.4237001 2156:3.8517001 2173:3.4237001 2219:3.4237001 2233:3.4237001 2240:5.1355 2253:3.4237001 2307:3.4237001 2313:3.4237001 2372:3.4237001 2374:4.2796001 2376:3.4237001 2408:4.2796001 2439:3.4237001 2455:3.8517001 2464:3.4237001 2528:3.4237001 2536:3.4237001 2573:3.8517001 2605:3.4237001 2629:3.4237001 2661:3.4237001 2693:3.8517001 2700:3.8517001 2714:3.4237001 2800:3.4237001 2817:3.4237001 2855:3.4237001 2864:3.4237001 # none/00000589_s05.txt
-0.0006021594349643786484721497132 31:3.4237001 101:3.4237001 163:3.4237001 331:3.4237001 365:3.4237001 385:3.4237001 405:5.1355 429:3.4237001 464:3.4237001 481:3.8517001 531:3.4237001 572:3.4237001 576:3.4237001 582:3.8517001 609:3.4237001 739:3.4237001 774:3.8517001 805:3.4237001 819:3.4237001 843:3.4237001 850:3.4237001 869:3.4237001 957:3.4237001 982:3.4237001 1028:3.4237001 1045:3.4237001 1050:3.8517001 1053:3.4237001 1055:3.8517001 1067:3.4237001 1077:4.2796001 1091:3.4237001 1131:4.2796001 1154:3.4237001 1176:3.4237001 1183:3.4237001 1190:3.4237001 1223:3.4237001 1234:3.4237001 1268:3.4237001 1273:3.4237001 1316:3.4237001 1328:3.8517001 1368:3.4237001 1417:3.4237001 1426:3.4237001 1431:3.4237001 1433:3.4237001 1439:3.4237001 1444:3.4237001 1460:3.4237001 1483:3.4237001 1548:3.4237001 1562:3.4237001 1598:3.4237001 1601:3.4237001 1652:3.4237001 1673:3.4237001 1742:3.4237001 1744:3.4237001 1772:3.4237001 1790:3.4237001 1809:3.4237001 1815:4.2796001 1856:3.4237001 1906:3.4237001 1913:3.4237001 1946:3.4237001 1955:3.4237001 1973:3.4237001 1985:3.4237001 2021:3.4237001 2031:4.7076001 2047:4.2796001 2065:4.2796001 2079:3.4237001 2109:3.4237001 2240:4.2796001 2253:3.4237001 2256:3.4237001 2313:4.2796001 2322:3.8517001 2373:3.4237001 2374:5.9914999 2376:4.7076001 2412:4.7076001 2455:4.2796001 2464:4.7076001 2506:3.8517001 2512:3.4237001 2518:3.8517001 2525:3.8517001 2528:3.4237001 2539:3.4237001 2550:4.2796001 2573:3.4237001 2629:3.4237001 2661:3.8517001 2700:3.4237001 2707:3.4237001 2709:3.4237001 2727:3.4237001 2809:3.4237001 2817:3.4237001 2858:3.4237001 2864:3.4237001 2895:5.9914999 2908:3.4237001 2925:3.4237001 2941:3.4237001 # none/00001742_s01.txt
-0.00038668008997717407196348382569795 31:3.4237001 351:3.4237001 368:3.4237001 385:3.4237001 405:4.7076001 445:3.4237001 447:3.4237001 462:3.4237001 522:3.8517001 543:3.8517001 606:3.8517001 619:3.4237001 657:3.4237001 737:3.4237001 739:3.4237001 774:3.8517001 822:3.4237001 864:3.4237001 869:3.8517001 902:3.8517001 947:3.8517001 949:3.4237001 957:3.4237001 980:3.4237001 982:3.4237001 1008:3.4237001 1011:3.8517001 1053:3.4237001 1077:4.2796001 1084:3.4237001 1091:3.8517001 1155:3.4237001 1211:3.8517001 1240:3.4237001 1339:3.4237001 1358:3.4237001 1386:3.4237001 1399:4.7076001 1403:3.4237001 1426:3.4237001 1472:3.4237001 1476:3.4237001 1480:3.4237001 1494:3.8517001 1498:3.4237001 1502:3.4237001 1557:3.4237001 1559:3.4237001 1562:3.4237001 1565:3.4237001 1568:3.4237001 1577:3.4237001 1591:3.4237001 1626:5.9914999 1628:3.4237001 1724:4.2796001 1732:3.4237001 1735:3.4237001 1744:3.4237001 1764:3.4237001 1815:3.8517001 1855:3.4237001 1920:3.4237001 1943:3.8517001 1944:3.4237001 1945:3.4237001 1959:3.4237001 2031:3.8517001 2034:3.4237001 2038:3.4237001 2047:3.4237001 2050:3.8517001 2079:3.4237001 2112:3.8517001 2146:3.4237001 2149:3.4237001 2151:3.4237001 2157:3.4237001 2219:3.4237001 2240:3.8517001 2253:3.4237001 2301:3.4237001 2313:3.4237001 2322:5.1355 2376:3.8517001 2412:4.2796001 2415:3.4237001 2464:5.9914999 2472:3.4237001 2528:3.4237001 2565:3.4237001 2604:3.4237001 2629:3.4237001 2649:3.4237001 2678:3.4237001 2706:3.4237001 2766:3.4237001 2774:3.4237001 2817:3.4237001 2835:3.4237001 2854:3.4237001 2864:3.4237001 2895:4.2796001 2907:3.4237001 2915:3.4237001 2927:3.4237001 2950:3.4237001 # none/00000380_s01.txt
0.00041787717316968305816468620683679 4:3.2681 10:4.3573999 12:3.2681 19:3.5404 24:3.2681 31:3.2681 45:3.2681 93:4.9021001 101:3.5404 120:3.5404 207:3.2681 211:3.2681 242:3.2681 274:3.2681 399:3.2681 405:4.9021001 429:3.2681 434:3.2681 462:3.2681 464:3.2681 502:3.2681 526:3.2681 543:3.2681 559:3.2681 566:3.2681 571:3.2681 572:3.2681 581:3.2681 582:3.2681 594:3.2681 603:3.2681 606:3.2681 610:4.0851002 634:3.8127999 643:3.2681 653:3.2681 657:3.2681 685:3.2681 698:3.2681 718:3.2681 738:3.5404 739:3.2681 770:3.8127999 774:3.8127999 812:3.2681 813:3.2681 817:3.2681 832:3.2681 850:3.2681 869:3.2681 892:3.2681 916:3.2681 920:3.2681 945:3.2681 949:3.2681 952:3.2681 957:3.2681 959:3.2681 975:3.5404 984:3.2681 1055:3.2681 1077:3.8127999 1084:3.2681 1091:3.5404 1117:3.2681 1127:3.2681 1131:3.5404 1156:4.0851002 1168:3.2681 1176:3.2681 1188:3.2681 1201:3.2681 1202:3.2681 1238:3.5404 1239:3.2681 1255:3.5404 1296:3.2681 1326:3.2681 1359:3.2681 1376:3.2681 1382:3.2681 1399:3.2681 1420:3.2681 1423:3.2681 1426:3.2681 1439:3.2681 1472:3.2681 1475:3.5404 1480:3.8127999 1498:3.2681 1535:3.2681 1562:3.2681 1565:3.2681 1573:3.2681 1617:3.2681 1626:4.9021001 1628:3.2681 1634:3.2681 1645:3.2681 1660:3.2681 1676:3.2681 1678:3.2681 1715:3.2681 1744:3.2681 1755:3.2681 1809:3.2681 1815:4.3573999 1822:3.2681 1826:3.2681 1839:3.8127999 1875:3.2681 1913:3.2681 1919:3.2681 1924:3.2681 1926:3.2681 1959:3.5404 1985:3.2681 1988:3.2681 2014:3.2681 2022:3.2681 2031:5.9914999 2034:3.2681 2047:3.2681 2069:3.2681 2079:3.2681 2102:3.5404 2113:3.2681 2138:3.2681 2153:3.2681 2189:3.2681 2214:3.2681 2224:3.2681 2240:3.2681 2251:3.2681 2253:3.8127999 2322:4.0851002 2337:3.2681 2373:3.2681 2374:3.5404 2376:4.3573999 2379:3.2681 2417:3.5404 2431:3.2681 2455:3.2681 2464:3.2681 2498:3.2681 2528:3.2681 2530:3.2681 2536:3.2681 2590:3.5404 2620:3.2681 2629:3.2681 2645:3.2681 2661:3.8127999 2671:3.2681 2678:3.5404 2700:3.8127999 2708:3.5404 2709:3.2681 2754:3.2681 2766:3.2681 2778:3.2681 2781:3.2681 2791:3.8127999 2795:3.2681 2798:3.5404 2799:3.2681 2817:3.2681 2864:3.2681 2885:3.5404 2887:3.2681 2898:3.2681 2955:3.2681 # seizures/00000670_s02.txt
0.00045111974788252591668513691303133 12:3.1259999 14:4.1680002 17:3.1259999 31:3.3864999 120:3.2562001 155:3.1259999 158:3.5167 168:3.1259999 169:3.1259999 175:3.1259999 176:3.1259999 180:3.1259999 184:3.1259999 186:3.1259999 191:3.5167 201:3.1259999 202:3.1259999 207:3.1259999 209:3.1259999 219:3.1259999 229:3.2562001 235:3.1259999 240:3.1259999 268:3.1259999 276:3.2562001 293:3.5167 385:3.1259999 387:3.1259999 390:3.1259999 392:3.1259999 405:3.7772 447:3.3864999 451:3.1259999 526:3.5167 530:3.1259999 531:3.1259999 542:3.1259999 556:3.1259999 564:3.1259999 572:3.3864999 573:3.2562001 581:3.1259999 582:3.1259999 603:3.1259999 604:3.2562001 607:3.1259999 610:3.5167 634:3.1259999 649:3.3864999 657:3.5167 685:3.3864999 702:3.1259999 739:3.3864999 764:3.1259999 770:3.1259999 774:4.2982001 807:3.1259999 837:3.1259999 850:3.9075 862:3.5167 869:3.7772 906:3.1259999 933:3.1259999 949:3.5167 955:3.1259999 956:3.2562001 957:3.6470001 959:3.6470001 962:3.1259999 977:3.1259999 984:3.1259999 1004:3.1259999 1011:3.1259999 1019:3.1259999 1028:3.1259999 1050:3.6470001 1055:3.2562001 1077:5.9914999 1084:3.3864999 1091:3.9075 1107:3.1259999 1109:3.1259999 1111:3.1259999 1123:3.1259999 1131:3.9075 1156:4.1680002 1180:3.1259999 1202:3.1259999 1210:3.1259999 1213:3.2562001 1218:3.2562001 1240:3.1259999 1268:3.9075 1273:3.1259999 1277:3.1259999 1295:3.1259999 1296:3.1259999 1305:3.1259999 1307:3.1259999 1330:3.2562001 1346:3.2562001 1348:3.1259999 1376:3.5167 1382:3.1259999 1386:3.5167 1398:3.1259999 1399:3.5167 1417:3.1259999 1426:3.1259999 1431:3.1259999 1437:3.1259999 1472:3.2562001 1480:3.2562001 1483:3.3864999 1498:3.5167 1502:3.5167 1508:3.1259999 1527:3.1259999 1539:3.1259999 1543:3.1259999 1548:3.2562001 1551:3.1259999 1562:3.6470001 1626:3.7772 1634:3.1259999 1648:3.1259999 1652:3.1259999 1654:3.1259999 1660:3.1259999 1673:3.1259999 1678:3.2562001 1707:3.1259999 1715:3.1259999 1741:3.1259999 1744:3.1259999 1791:3.1259999 1809:4.5587001 1815:3.2562001 1816:3.3864999 1822:3.1259999 1825:3.1259999 1826:3.2562001 1833:3.2562001 1861:3.1259999 1906:3.2562001 1908:3.1259999 1913:3.3864999 1920:4.0377002 1924:3.1259999 1927:3.1259999 1929:3.5167 1938:3.1259999 1948:3.7772 1959:3.5167 1980:3.2562001 1981:3.1259999 2026:3.3864999 2028:3.1259999 2030:3.1259999 2031:5.3401999 2034:3.3864999 2047:3.5167 2072:3.1259999 2079:3.3864999 2096:3.1259999 2104:3.1259999 2109:3.1259999 2120:3.1259999 2146:3.1259999 2149:3.3864999 2153:3.3864999 2162:3.1259999 2165:3.1259999 2166:3.1259999 2188:3.1259999 2189:3.3864999 2191:3.5167 2197:3.1259999 2206:3.1259999 2213:3.1259999 2217:3.1259999 2219:3.5167 2227:3.2562001 2240:4.2982001 2258:3.1259999 2264:3.1259999 2268:3.2562001 2279:3.2562001 2289:3.1259999 2306:3.1259999 2313:3.5167 2314:3.2562001 2322:3.9075 2325:3.1259999 2334:4.4285002 2355:3.1259999 2365:3.1259999 2370:3.6470001 2373:3.1259999 2374:3.1259999 2376:4.2982001 2390:3.1259999 2404:3.2562001 2409:3.1259999 2426:3.1259999 2428:3.1259999 2429:3.2562001 2431:3.1259999 2455:4.6890001 2457:3.1259999 2460:3.1259999 2464:4.1680002 2477:3.1259999 2485:3.1259999 2498:3.1259999 2506:3.1259999 2512:3.6470001 2524:3.1259999 2525:3.7772 2528:3.3864999 2530:3.1259999 2555:3.5167 2565:3.2562001 2592:3.1259999 2596:3.1259999 2620:3.2562001 2629:3.3864999 2638:3.1259999 2641:3.1259999 2646:3.1259999 2649:3.1259999 2655:3.1259999 2666:3.1259999 2692:3.2562001 2700:3.2562001 2727:3.2562001 2737:3.1259999 2757:3.1259999 2765:3.1259999 2766:3.5167 2770:3.2562001 2795:3.3864999 2817:3.5167 2858:3.5167 2864:4.0377002 2885:4.0377002 2895:3.6470001 2906:3.1259999 2909:3.1259999 2910:3.1259999 2926:3.2562001 # seizures/00001732_s05.txt
-0.00039346448641368921960576043872493 31:3.3701999 54:3.3701999 385:3.3701999 405:5.9914999 412:3.3701999 447:3.3701999 462:3.7447 464:3.7447 522:3.7447 582:3.7447 634:3.3701999 653:3.3701999 657:3.3701999 683:3.3701999 726:4.1191001 728:3.3701999 739:3.3701999 754:3.7447 768:3.3701999 774:3.7447 819:3.3701999 869:3.3701999 879:3.3701999 947:4.4935999 949:3.7447 956:3.3701999 957:3.3701999 982:3.3701999 1053:3.3701999 1077:4.1191001 1084:3.3701999 1091:3.3701999 1131:3.7447 1194:3.3701999 1209:3.7447 1223:3.3701999 1268:3.3701999 1270:3.7447 1295:3.3701999 1300:3.3701999 1326:4.1191001 1399:3.7447 1417:3.7447 1426:3.3701999 1439:3.3701999 1469:3.3701999 1472:3.3701999 1476:3.3701999 1480:3.7447 1498:3.3701999 1502:3.3701999 1504:3.3701999 1506:3.7447 1509:3.7447 1562:3.3701999 1573:3.3701999 1626:4.4935999 1636:3.3701999 1744:3.3701999 1774:3.3701999 1798:3.3701999 1815:3.7447 1835:3.3701999 1913:3.3701999 1943:3.3701999 1944:3.3701999 1959:3.3701999 1967:3.3701999 1978:3.3701999 2021:3.7447 2031:3.3701999 2034:3.7447 2043:3.3701999 2047:3.3701999 2050:3.3701999 2079:3.3701999 2100:3.7447 2109:3.3701999 2158:3.3701999 2166:3.7447 2240:4.8681002 2253:4.1191001 2259:3.3701999 2277:3.3701999 2305:3.7447 2314:3.3701999 2322:4.1191001 2376:3.3701999 2412:4.4935999 2448:3.3701999 2464:4.1191001 2466:3.3701999 2472:3.3701999 2506:3.3701999 2528:3.3701999 2550:3.3701999 2627:3.7447 2629:3.3701999 2661:3.7447 2678:4.1191001 2720:3.3701999 2747:3.3701999 2817:3.3701999 2827:3.3701999 2864:3.3701999 2895:4.8681002 2907:3.7447 # none/00009489_s01.txt
-0.0006021594349643786484721497132 4:3.2176001 10:3.2176001 13:3.2176001 14:3.2176001 15:3.3285999 17:3.5504999 24:4.4380999 31:3.2176001 45:3.3285999 56:3.8834 67:3.7723999 75:3.4395001 83:3.2176001 89:4.6599998 93:3.1066999 96:4.4380999 101:3.1066999 120:3.1066999 138:3.8834 155:3.3285999 158:3.1066999 163:3.3285999 175:3.1066999 180:3.4395001 184:3.2176001 191:3.1066999 205:3.1066999 207:3.3285999 211:3.3285999 213:3.1066999 215:3.1066999 219:3.1066999 229:3.2176001 233:3.1066999 240:3.1066999 242:3.3285999 244:3.2176001 246:3.1066999 250:3.1066999 276:3.4395001 279:3.2176001 288:3.1066999 291:3.1066999 293:3.1066999 381:3.1066999 388:3.1066999 395:3.1066999 405:5.6585999 407:3.2176001 412:3.3285999 428:3.1066999 429:3.2176001 447:3.8834 451:3.2176001 462:3.6615 464:3.3285999 480:3.1066999 481:3.3285999 502:3.2176001 507:3.1066999 517:3.1066999 522:3.1066999 526:3.8834 531:3.2176001 537:3.1066999 542:3.1066999 558:3.1066999 559:3.1066999 566:3.2176001 572:3.2176001 574:3.1066999 582:4.3271999 583:3.1066999 599:3.2176001 604:3.6615 606:3.1066999 609:3.1066999 610:3.2176001 611:3.1066999 618:3.1066999 619:3.2176001 629:3.1066999 634:3.4395001 653:3.2176001 683:3.5504999 685:3.6615 698:3.5504999 702:3.1066999 710:3.2176001 714:3.1066999 731:3.1066999 732:3.1066999 736:3.1066999 738:3.5504999 739:3.3285999 740:3.1066999 764:3.2176001 770:3.9942999 774:3.9942999 781:3.1066999 812:3.1066999 818:3.1066999 819:3.2176001 820:3.1066999 835:3.2176001 850:3.3285999 852:3.1066999 855:3.1066999 869:3.1066999 900:3.1066999 915:3.2176001 920:3.1066999 940:3.1066999 947:3.4395001 949:3.8834 956:3.1066999 957:3.4395001 962:3.4395001 965:3.2176001 977:3.1066999 979:3.3285999 980:3.1066999 994:3.1066999 996:3.4395001 1028:3.1066999 1050:3.2176001 1054:3.2176001 1055:3.1066999 1077:4.1052999 1084:3.4395001 1091:3.4395001 1117:3.2176001 1123:3.4395001 1124:3.1066999 1131:3.1066999 1138:3.1066999 1156:3.2176001 1161:3.1066999 1163:3.3285999 1174:3.1066999 1182:3.1066999 1201:3.4395001 1202:3.2176001 1209:3.1066999 1210:3.1066999 1234:3.1066999 1236:3.2176001 1238:3.1066999 1246:3.3285999 1261:3.1066999 1268:3.6615 1273:3.1066999 1287:3.1066999 1295:4.2161999 1296:3.1066999 1300:3.1066999 1326:3.2176001 1346:3.1066999 1359:3.2176001 1376:3.7723999 1382:3.1066999 1385:3.1066999 1390:3.2176001 1399:3.3285999 1417:3.3285999 1430:3.1066999 1472:3.5504999 1475:3.3285999 1480:3.9942999 1483:3.2176001 1490:3.1066999 1493:3.1066999 1502:3.4395001 1506:3.1066999 1508:3.3285999 1509:3.5504999 1523:3.2176001 1548:3.3285999 1562:3.2176001 1568:3.1066999 1583:3.1066999 1596:3.1066999 1616:3.1066999 1617:3.3285999 1622:3.2176001 1624:3.1066999 1625:3.1066999 1626:5.9914999 1629:3.1066999 1634:3.1066999 1645:3.5504999 1660:3.1066999 1667:3.1066999 1673:3.5504999 1678:3.1066999 1685:3.1066999 1690:3.1066999 1699:3.1066999 1712:3.1066999 1718:3.1066999 1723:3.8834 1744:3.1066999 1745:3.2176001 1776:3.1066999 1777:3.1066999 1791:3.4395001 1798:3.1066999 1809:3.6615 1815:3.8834 1816:3.1066999 1822:3.1066999 1825:3.1066999 1826:3.8834 1827:3.2176001 1833:3.4395001 1836:3.1066999 1839:3.3285999 1855:3.1066999 1863:3.1066999 1889:3.1066999 1900:3.1066999 1902:3.1066999 1913:3.2176001 1917:3.1066999 1920:4.2161999 1929:4.1052999 1937:3.5504999 1938:3.2176001 1943:3.1066999 1944:3.5504999 1957:3.1066999 1959:3.5504999 1964:3.2176001 1972:3.1066999 1980:3.2176001 1984:3.3285999 1985:3.2176001 1988:3.2176001 2021:3.2176001 2022:3.1066999 2023:3.2176001 2026:3.3285999 2030:3.2176001 2031:5.9914999 2034:3.3285999 2037:3.1066999 2047:3.2176001 2050:3.2176001 2052:3.1066999 2072:3.3285999 2079:3.2176001 2100:3.5504999 2103:3.1066999 2109:3.3285999 2113:3.3285999 2120:3.1066999 2126:3.3285999 2137:3.1066999 2146:3.4395001 2149:3.2176001 2151:3.2176001 2158:3.1066999 2159:3.1066999 2165:3.6615 2166:3.2176001 2189:3.6615 2201:3.1066999 2213:3.4395001 2217:3.1066999 2218:3.2176001 2225:3.1066999 2240:5.2147999 2241:3.1066999 2253:4.3271999 2259:3.2176001 2266:3.2176001 2268:3.2176001 2276:3.3285999 2286:3.1066999 2309:3.5504999 2313:3.2176001 2314:3.8834 2322:5.1037998 2337:3.2176001 2352:3.1066999 2355:3.1066999 2365:3.3285999 2370:3.7723999 2373:4.6599998 2374:4.5490999 2376:5.2147999 2396:3.1066999 2405:3.2176001 2412:4.5490999 2414:3.1066999 2416:3.1066999 2419:3.1066999 2425:3.6615 2431:3.1066999 2433:3.1066999 2439:3.1066999 2445:3.3285999 2455:3.8834 2459:3.1066999 2464:5.7695999 2466:3.1066999 2468:3.1066999 2471:3.1066999 2477:3.1066999 2484:3.2176001 2486:3.2176001 2506:4.2161999 2512:3.2176001 2515:3.1066999 2517:3.1066999 2518:3.2176001 2525:3.2176001 2528:3.2176001 2530:3.5504999 2533:3.1066999 2540:3.3285999 2575:3.1066999 2587:3.1066999 2596:3.1066999 2611:3.1066999 2614:3.1066999 2615:3.1066999 2629:3.2176001 2636:3.1066999 2645:3.3285999 2661:5.4366999 2664:3.2176001 2671:3.1066999 2678:3.4395001 2682:3.1066999 2687:3.1066999 2693:3.1066999 2700:4.3271999 2708:3.1066999 2709:3.4395001 2713:3.1066999 2714:3.2176001 2723:3.4395001 2735:3.1066999 2737:3.1066999 2738:3.2176001 2763:3.1066999 2778:3.1066999 2791:3.1066999 2793:3.1066999 2795:3.2176001 2809:3.6615 2817:3.4395001 2818:3.1066999 2827:3.1066999 2858:3.2176001 2864:3.4395001 2868:3.1066999 2878:3.1066999 2880:3.1066999 2885:3.6615 2894:3.1066999 2895:5.2147999 2907:3.1066999 2937:3.1066999 # none/00001092_s03.txt
-0.0006021594349643786484721497132 11:3.4237001 24:3.8517001 31:3.4237001 45:3.8517001 56:3.4237001 89:3.4237001 93:3.4237001 145:3.8517001 177:3.4237001 279:3.4237001 377:3.4237001 385:3.4237001 387:3.4237001 405:3.8517001 412:3.4237001 419:3.4237001 428:3.4237001 429:4.7076001 462:3.4237001 481:3.4237001 502:4.2796001 517:3.8517001 518:4.7076001 531:3.8517001 561:3.4237001 572:4.7076001 581:3.4237001 582:3.8517001 604:3.4237001 610:3.4237001 619:3.4237001 685:3.4237001 770:3.8517001 774:4.2796001 869:3.8517001 878:3.4237001 934:3.4237001 956:3.4237001 957:3.4237001 980:3.4237001 996:3.8517001 1028:3.4237001 1055:5.1355 1077:5.9914999 1084:3.4237001 1091:4.2796001 1124:3.4237001 1131:3.4237001 1136:4.7076001 1141:3.4237001 1156:4.2796001 1171:3.4237001 1188:3.4237001 1347:3.8517001 1426:3.4237001 1431:3.4237001 1437:3.8517001 1498:3.4237001 1562:3.4237001 1568:4.2796001 1591:3.4237001 1615:3.8517001 1622:3.4237001 1673:3.4237001 1744:3.4237001 1791:3.8517001 1825:3.4237001 1836:3.8517001 1906:3.4237001 1907:3.4237001 1913:4.7076001 1920:3.4237001 1929:3.4237001 1967:3.8517001 2031:5.9914999 2047:4.2796001 2079:3.4237001 2082:3.4237001 2109:3.4237001 2140:3.4237001 2156:3.8517001 2182:3.4237001 2185:3.4237001 2225:3.4237001 2227:3.4237001 2240:5.9914999 2244:3.4237001 2279:3.4237001 2307:3.8517001 2313:3.4237001 2374:3.4237001 2376:4.7076001 2409:4.2796001 2423:3.4237001 2439:3.4237001 2455:5.5634999 2525:4.2796001 2528:3.4237001 2530:4.2796001 2555:3.8517001 2562:3.4237001 2594:3.4237001 2596:3.4237001 2629:3.4237001 2649:3.4237001 2661:3.4237001 2690:3.8517001 2693:3.4237001 2700:3.4237001 2800:5.1355 2809:3.8517001 2817:3.4237001 2854:3.4237001 2864:3.8517001 2885:5.5634999 2908:3.4237001 2916:3.4237001 # none/00008540_s01.txt
-0.0006021594349643786484721497132 11:3.4237001 31:3.4237001 33:3.4237001 86:3.4237001 135:3.4237001 148:3.4237001 181:3.4237001 301:3.4237001 349:3.4237001 385:3.4237001 387:3.4237001 405:5.5634999 502:4.2796001 517:3.4237001 537:3.4237001 539:3.4237001 549:3.4237001 582:3.8517001 594:3.4237001 606:3.4237001 610:3.4237001 657:3.4237001 685:3.8517001 698:3.4237001 738:3.4237001 739:3.4237001 774:3.8517001 813:3.4237001 839:3.4237001 850:3.4237001 869:3.4237001 932:3.4237001 947:3.8517001 956:3.4237001 957:3.4237001 965:3.4237001 979:3.4237001 1036:3.4237001 1043:3.4237001 1053:3.4237001 1055:3.8517001 1077:4.7076001 1084:3.4237001 1091:3.4237001 1095:3.4237001 1156:4.2796001 1163:3.4237001 1168:3.4237001 1193:3.4237001 1202:3.4237001 1213:3.8517001 1268:4.2796001 1295:3.4237001 1326:3.8517001 1331:3.4237001 1347:3.4237001 1370:3.4237001 1376:3.4237001 1399:3.4237001 1426:3.4237001 1430:3.4237001 1437:3.4237001 1439:3.4237001 1480:3.8517001 1498:3.4237001 1502:3.4237001 1548:3.8517001 1562:3.4237001 1581:3.4237001 1590:3.4237001 1634:3.4237001 1636:3.4237001 1660:3.4237001 1685:3.4237001 1735:3.4237001 1744:3.4237001 1755:3.4237001 1778:3.4237001 1809:4.7076001 1815:3.4237001 1822:3.4237001 1833:3.8517001 1836:3.4237001 1839:3.4237001 1929:3.4237001 1945:3.8517001 1959:3.4237001 1973:3.4237001 1984:3.4237001 2031:4.2796001 2034:3.4237001 2047:3.4237001 2079:3.4237001 2089:3.4237001 2096:3.4237001 2100:3.8517001 2109:3.4237001 2146:4.2796001 2166:3.4237001 2189:4.2796001 2195:3.4237001 2201:3.4237001 2213:3.4237001 2240:4.7076001 2253:3.8517001 2266:3.4237001 2309:3.4237001 2314:3.8517001 2322:4.7076001 2373:3.4237001 2376:4.7076001 2412:3.4237001 2423:3.4237001 2433:3.4237001 2455:5.1355 2464:5.9914999 2486:3.8517001 2506:3.4237001 2526:3.4237001 2528:3.4237001 2536:3.4237001 2573:3.8517001 2601:3.4237001 2620:3.4237001 2629:3.4237001 2678:3.4237001 2686:3.4237001 2700:3.4237001 2791:3.4237001 2817:3.4237001 2858:3.4237001 2864:3.4237001 2874:3.4237001 2885:3.4237001 2895:4.2796001 2907:3.4237001 # none/00004200_s03.txt
-0.0006021594349643786484721497132 24:3.5948999 158:3.5948999 221:3.5948999 328:3.5948999 405:3.5948999 427:3.5948999 447:3.5948999 526:4.1939998 543:3.5948999 559:3.5948999 567:3.5948999 572:3.5948999 582:3.5948999 657:3.5948999 740:3.5948999 774:3.5948999 840:3.5948999 869:3.5948999 912:3.5948999 932:3.5948999 949:3.5948999 957:3.5948999 1050:3.5948999 1067:4.1939998 1068:3.5948999 1077:4.7932 1091:3.5948999 1127:3.5948999 1155:3.5948999 1188:3.5948999 1210:3.5948999 1268:3.5948999 1295:3.5948999 1347:3.5948999 1348:3.5948999 1437:3.5948999 1439:3.5948999 1472:3.5948999 1480:3.5948999 1498:3.5948999 1502:3.5948999 1534:3.5948999 1559:3.5948999 1602:4.1939998 1626:3.5948999 1652:3.5948999 1660:3.5948999 1669:3.5948999 1742:3.5948999 1809:3.5948999 1833:4.1939998 1906:3.5948999 1920:4.1939998 1985:3.5948999 2031:4.1939998 2072:3.5948999 2100:4.1939998 2166:4.7932 2197:3.5948999 2218:3.5948999 2227:3.5948999 2240:5.9914999 2253:4.1939998 2268:5.3923001 2279:3.5948999 2309:3.5948999 2313:3.5948999 2314:3.5948999 2322:4.1939998 2370:4.1939998 2374:3.5948999 2376:3.5948999 2412:3.5948999 2455:3.5948999 2464:4.1939998 2590:3.5948999 2604:3.5948999 2620:3.5948999 2649:3.5948999 2652:3.5948999 2661:4.7932 2700:3.5948999 2809:3.5948999 2885:4.1939998 2895:3.5948999 # none/00002683_s04.txt
-0.0006021594349643786484721497132 12:3.1719999 13:3.3482001 14:3.1719999 31:3.3482001 45:3.3482001 56:3.1719999 83:3.1719999 144:3.1719999 148:3.1719999 155:3.7005999 158:3.3482001 202:3.1719999 235:3.1719999 237:3.1719999 282:3.1719999 328:3.1719999 368:3.1719999 399:3.1719999 428:3.1719999 433:3.1719999 447:3.1719999 451:3.1719999 502:3.5244 519:3.1719999 526:3.1719999 545:3.3482001 572:3.8768001 582:3.8768001 606:3.3482001 621:3.3482001 634:3.1719999 657:3.3482001 683:4.2293 731:3.1719999 739:3.3482001 750:3.1719999 774:3.7005999 844:3.3482001 850:3.5244 869:3.3482001 920:3.1719999 957:3.7005999 982:3.5244 990:3.1719999 996:3.3482001 1011:3.1719999 1043:3.1719999 1050:3.3482001 1055:3.3482001 1070:3.3482001 1077:4.4054999 1084:3.3482001 1091:3.3482001 1112:3.1719999 1131:3.7005999 1176:3.1719999 1213:3.3482001 1229:3.1719999 1246:3.5244 1278:3.1719999 1296:3.3482001 1359:3.1719999 1376:3.1719999 1412:3.1719999 1426:3.1719999 1437:3.5244 1439:3.3482001 1472:3.1719999 1480:3.3482001 1483:3.5244 1493:3.3482001 1498:3.5244 1502:3.7005999 1562:3.3482001 1568:3.7005999 1588:3.3482001 1624:3.1719999 1660:3.1719999 1672:3.5244 1673:3.1719999 1703:3.3482001 1744:3.1719999 1809:4.5816998 1815:3.5244 1833:3.1719999 1889:3.3482001 1913:3.3482001 1920:3.7005999 1924:3.1719999 1929:3.5244 1943:3.1719999 1944:3.7005999 1955:3.1719999 1973:3.5244 1980:3.7005999 2021:4.053 2031:4.5816998 2034:3.5244 2047:3.1719999 2079:3.3482001 2120:3.5244 2191:4.053 2201:3.3482001 2213:3.1719999 2218:3.1719999 2229:3.1719999 2240:4.053 2244:3.1719999 2268:3.3482001 2281:3.3482001 2313:3.1719999 2322:3.1719999 2370:3.5244 2374:3.1719999 2376:3.5244 2412:3.1719999 2417:3.1719999 2445:3.1719999 2455:5.9914999 2464:3.5244 2486:3.5244 2503:3.1719999 2506:3.3482001 2512:3.3482001 2525:3.7005999 2528:3.3482001 2565:3.1719999 2614:3.1719999 2629:3.3482001 2666:3.1719999 2668:3.5244 2700:4.053 2712:3.1719999 2727:3.8768001 2809:3.1719999 2817:3.3482001 2826:3.1719999 2857:3.1719999 2858:3.3482001 2864:3.5244 2885:4.5816998 2895:3.5244 2907:3.7005999 2912:3.3482001 2927:3.1719999 2931:3.1719999 2941:3.1719999 # none/00002536_s07.txt
0.0006021594349643786484721497132 31:3.2953 116:3.2953 120:3.2953 121:3.2953 126:3.2953 261:3.2953 361:3.2953 385:3.5948999 405:3.5948999 408:3.2953 412:3.5948999 464:3.8945 473:3.2953 481:3.2953 502:3.5948999 526:3.2953 618:3.2953 619:3.2953 683:3.2953 726:3.8945 731:3.2953 738:3.2953 774:3.8945 805:3.2953 835:3.5948999 843:3.8945 850:3.8945 869:3.5948999 932:3.2953 957:3.2953 970:3.2953 980:3.2953 981:3.5948999 982:3.2953 996:3.5948999 1028:3.2953 1036:3.2953 1053:3.5948999 1055:3.5948999 1057:3.2953 1060:3.5948999 1077:3.8945 1078:3.2953 1084:3.2953 1091:3.5948999 1095:3.8945 1131:3.2953 1145:3.2953 1150:3.2953 1161:3.5948999 1164:3.2953 1188:3.2953 1268:3.5948999 1286:3.2953 1295:3.2953 1300:4.4935999 1303:3.2953 1326:3.5948999 1370:3.2953 1426:3.5948999 1446:3.2953 1459:3.2953 1472:4.1939998 1498:3.2953 1504:3.2953 1519:3.2953 1531:3.2953 1562:3.2953 1569:3.2953 1591:3.2953 1597:3.2953 1602:3.2953 1617:3.2953 1622:3.2953 1636:3.2953 1683:3.2953 1716:3.2953 1726:3.5948999 1744:3.5948999 1755:3.2953 1791:3.2953 1826:3.2953 1842:3.5948999 1909:3.2953 1913:3.2953 1924:3.2953 1955:3.2953 1959:3.8945 1967:3.5948999 2022:3.2953 2031:3.5948999 2041:3.2953 2047:3.8945 2050:3.2953 2079:3.2953 2084:3.8945 2089:3.2953 2109:3.2953 2156:3.5948999 2225:3.2953 2227:3.2953 2233:3.2953 2240:5.9914999 2252:3.2953 2253:3.5948999 2307:3.2953 2313:3.2953 2314:3.5948999 2322:4.1939998 2365:3.2953 2374:4.4935999 2376:4.1939998 2412:3.2953 2439:3.5948999 2464:4.1939998 2488:3.2953 2528:3.2953 2536:3.2953 2570:3.2953 2573:3.2953 2629:3.2953 2649:3.2953 2661:3.2953 2693:3.8945 2700:3.2953 2769:3.2953 2817:3.2953 2864:3.5948999 2885:3.5948999 2895:4.1939998 2941:3.2953 # seizures/00002330_s01.txt
0.00040955373479283871699860308801533 31:3.2454 89:3.4949999 129:3.2454 229:3.2454 259:3.2454 309:3.2454 385:3.2454 401:3.2454 405:4.244 412:3.2454 425:3.7447 464:4.4935999 481:3.2454 483:3.2454 507:4.4935999 511:3.2454 543:3.2454 561:3.2454 582:3.9942999 591:3.2454 603:3.2454 606:3.2454 617:3.2454 619:3.4949999 671:3.2454 683:3.2454 694:3.2454 701:3.2454 702:3.4949999 731:3.4949999 738:3.2454 774:3.2454 843:3.9942999 850:4.244 852:3.4949999 861:3.2454 862:3.2454 923:3.2454 932:4.244 944:3.4949999 947:3.7447 952:3.2454 957:3.2454 981:4.4935999 984:3.2454 996:3.7447 1000:3.4949999 1028:3.2454 1053:3.2454 1060:3.4949999 1077:3.2454 1078:3.2454 1084:3.2454 1091:3.4949999 1095:3.7447 1106:3.2454 1131:3.4949999 1150:3.4949999 1164:3.4949999 1171:3.2454 1210:3.2454 1240:3.7447 1263:3.2454 1268:3.4949999 1278:3.2454 1295:4.7431998 1353:3.2454 1399:4.244 1417:3.2454 1426:3.7447 1472:3.9942999 1498:3.2454 1504:3.2454 1508:3.4949999 1562:3.2454 1575:3.2454 1591:3.2454 1622:3.2454 1626:5.9914999 1634:3.2454 1692:3.2454 1702:3.2454 1735:3.2454 1744:3.9942999 1755:3.2454 1763:3.2454 1798:3.2454 1799:3.7447 1804:3.2454 1809:3.2454 1864:3.2454 1909:3.2454 1913:3.2454 1920:3.4949999 1924:3.2454 1929:3.2454 1938:3.2454 1944:3.7447 1984:3.9942999 2018:3.2454 2031:3.9942999 2047:3.4949999 2050:4.244 2060:3.2454 2084:3.2454 2092:3.4949999 2109:4.4935999 2138:3.2454 2148:3.2454 2163:4.244 2167:3.2454 2195:4.244 2200:3.2454 2217:3.2454 2237:3.4949999 2240:5.2424998 2271:3.2454 2285:3.2454 2309:3.2454 2313:3.2454 2314:3.7447 2322:3.2454 2355:3.2454 2365:3.2454 2367:3.2454 2376:4.9928999 2382:3.2454 2383:3.4949999 2408:3.2454 2412:3.7447 2414:3.4949999 2425:3.2454 2439:3.2454 2455:3.2454 2464:4.4935999 2518:3.2454 2524:3.4949999 2528:3.2454 2530:3.2454 2536:3.2454 2570:3.2454 2592:3.2454 2629:3.2454 2645:3.2454 2678:3.7447 2693:3.4949999 2753:3.2454 2778:3.2454 2779:3.2454 2817:3.2454 2854:3.2454 2855:3.2454 2864:3.2454 2895:4.7431998 2907:3.2454 2927:3.2454 # seizures/00000482_s05.txt
0.00025692783380448628617609418967049 31:3.1954 148:3.1954 149:3.1954 317:3.1954 385:3.1954 401:3.1954 405:3.5948999 412:3.3952 420:3.3952 464:3.5948999 481:3.3952 507:3.5948999 543:3.1954 549:3.1954 568:3.3952 582:3.5948999 606:3.1954 619:3.3952 661:3.3952 671:3.1954 731:3.3952 740:3.3952 770:3.1954 774:3.5948999 803:3.1954 831:3.1954 835:3.1954 843:3.5948999 846:3.1954 861:3.1954 862:3.1954 869:3.3952 901:3.1954 932:3.1954 947:3.5948999 957:3.1954 981:3.7946 996:3.5948999 1000:3.1954 1053:3.1954 1060:3.3952 1077:3.1954 1084:3.1954 1091:3.5948999 1093:3.1954 1095:3.7946 1105:3.3952 1131:3.5948999 1150:3.3952 1171:3.1954 1176:3.1954 1210:3.1954 1240:3.3952 1268:4.1939998 1270:3.1954 1295:3.5948999 1296:3.3952 1305:4.3937001 1346:3.3952 1354:3.3952 1360:3.1954 1399:3.9942999 1403:3.1954 1426:3.3952 1460:3.3952 1498:3.1954 1504:3.3952 1508:3.3952 1525:3.3952 1542:3.1954 1563:3.1954 1591:3.1954 1615:3.5948999 1622:3.1954 1626:3.3952 1630:3.1954 1716:3.1954 1744:3.1954 1791:3.5948999 1799:3.3952 1804:3.5948999 1875:3.1954 1889:3.1954 1909:3.1954 1920:3.1954 1921:3.1954 1938:3.1954 1943:3.1954 1944:3.1954 1946:3.1954 1964:3.1954 1984:4.3937001 2031:3.7946 2047:3.7946 2050:3.1954 2058:3.3952 2065:3.3952 2092:3.3952 2104:3.1954 2166:3.1954 2167:3.3952 2215:3.1954 2240:4.1939998 2253:3.9942999 2301:3.1954 2308:3.3952 2309:3.1954 2319:3.1954 2322:5.9914999 2376:4.3937001 2408:3.5948999 2412:3.3952 2439:3.1954 2464:4.5935001 2521:3.1954 2528:3.1954 2536:3.1954 2550:3.3952 2555:3.1954 2570:3.1954 2574:3.1954 2629:3.1954 2645:3.1954 2652:3.1954 2661:3.1954 2678:3.5948999 2693:3.1954 2700:3.1954 2709:3.1954 2730:3.5948999 2773:3.1954 2778:3.3952 2835:3.1954 2854:3.3952 2895:3.7946 2907:3.3952 # seizures/00000538_s01.txt
0.0006021594349643786484721497132 24:3.4949999 56:3.4949999 120:3.4949999 248:3.4949999 385:3.4949999 393:3.4949999 401:3.4949999 405:3.4949999 412:4.4935999 443:3.4949999 464:4.4935999 481:3.4949999 495:3.4949999 511:3.4949999 582:3.4949999 585:3.4949999 593:4.9928999 606:3.4949999 624:3.4949999 674:4.9928999 702:3.9942999 726:3.4949999 731:3.4949999 738:3.4949999 774:3.4949999 819:3.4949999 827:3.4949999 843:3.4949999 850:3.9942999 947:3.4949999 949:3.4949999 957:3.4949999 981:4.4935999 984:3.4949999 996:3.4949999 1005:3.4949999 1028:3.4949999 1053:3.4949999 1060:3.4949999 1077:3.4949999 1084:3.9942999 1091:4.4935999 1093:3.4949999 1095:4.4935999 1131:3.4949999 1132:3.4949999 1150:3.9942999 1200:3.4949999 1240:3.9942999 1295:3.4949999 1296:3.4949999 1326:3.9942999 1353:3.4949999 1417:3.4949999 1426:3.9942999 1437:3.9942999 1460:3.4949999 1498:3.4949999 1504:3.4949999 1508:3.4949999 1562:3.4949999 1605:3.4949999 1622:3.9942999 1630:3.4949999 1661:3.4949999 1690:3.4949999 1716:3.4949999 1744:3.4949999 1752:3.4949999 1755:3.4949999 1766:3.4949999 1791:3.4949999 1799:3.4949999 1804:4.4935999 1818:4.4935999 1882:3.4949999 1909:3.4949999 1913:3.4949999 1920:3.4949999 1938:3.9942999 1944:4.9928999 1964:3.4949999 1984:4.4935999 2031:4.4935999 2047:4.4935999 2050:3.4949999 2058:3.9942999 2065:3.4949999 2109:3.9942999 2119:3.4949999 2135:3.4949999 2138:3.4949999 2167:3.9942999 2174:3.4949999 2194:3.4949999 2204:3.4949999 2240:4.4935999 2253:3.4949999 2273:3.4949999 2281:3.9942999 2308:3.9942999 2313:3.4949999 2376:4.9928999 2412:4.9928999 2439:3.9942999 2443:3.4949999 2455:3.4949999 2464:3.9942999 2528:3.4949999 2536:3.4949999 2550:3.4949999 2565:3.4949999 2629:3.4949999 2633:3.4949999 2678:3.4949999 2718:3.4949999 2743:5.4921999 2747:3.9942999 2773:3.4949999 2895:4.9928999 2896:5.9914999 # seizures/00004507_s02.txt
0.0006021594349643786484721497132 31:3.3285999 79:3.3285999 115:3.3285999 116:3.6615 123:3.3285999 126:3.3285999 385:3.6615 405:3.6615 412:4.3271999 464:4.3271999 481:3.3285999 502:5.6585999 511:3.3285999 512:3.3285999 516:3.9942999 582:3.6615 609:3.6615 617:3.3285999 619:3.6615 670:3.3285999 726:3.9942999 774:3.9942999 812:3.3285999 843:3.9942999 850:4.6599998 869:3.3285999 895:3.3285999 905:3.6615 947:3.3285999 957:3.3285999 973:3.3285999 980:3.3285999 996:3.6615 1028:3.3285999 1036:3.6615 1053:3.3285999 1060:3.3285999 1077:3.9942999 1084:3.3285999 1091:3.6615 1117:3.3285999 1130:3.3285999 1161:3.3285999 1188:3.3285999 1240:3.3285999 1268:4.3271999 1293:3.3285999 1295:3.9942999 1296:3.9942999 1300:3.3285999 1305:3.3285999 1326:3.3285999 1386:3.3285999 1426:3.3285999 1437:3.9942999 1472:3.6615 1498:3.3285999 1504:3.6615 1548:3.3285999 1562:3.3285999 1615:3.3285999 1622:3.6615 1626:3.3285999 1672:3.3285999 1690:3.3285999 1710:3.6615 1744:3.3285999 1772:3.6615 1824:3.3285999 1826:3.6615 1836:3.3285999 1853:3.3285999 1906:3.3285999 1913:3.3285999 1945:4.3271999 1946:3.6615 1967:3.3285999 1975:3.3285999 1984:3.6615 1985:3.3285999 2031:3.9942999 2045:3.6615 2047:3.9942999 2079:3.3285999 2109:3.3285999 2148:3.3285999 2150:3.3285999 2156:3.6615 2219:3.3285999 2233:3.3285999 2240:5.6585999 2244:3.3285999 2253:5.9914999 2266:3.3285999 2279:3.3285999 2313:3.6615 2322:5.3256998 2351:3.3285999 2374:4.6599998 2376:5.6585999 2412:3.9942999 2439:3.3285999 2455:3.6615 2464:5.3256998 2518:3.3285999 2528:3.3285999 2536:3.3285999 2570:3.3285999 2573:3.3285999 2629:3.3285999 2645:3.3285999 2649:3.3285999 2661:3.3285999 2668:3.3285999 2693:3.6615 2700:3.6615 2715:3.6615 2800:3.3285999 2817:3.3285999 2854:3.3285999 2885:3.3285999 2895:4.3271999 2955:3.3285999 # seizures/00000231_s03.txt
-0.0006021594349643786484721497132 22:3.5948999 31:3.5948999 116:3.5948999 126:3.5948999 323:3.5948999 385:4.1939998 405:4.1939998 408:3.5948999 412:4.7932 453:4.1939998 464:3.5948999 481:3.5948999 511:3.5948999 516:3.5948999 526:3.5948999 527:3.5948999 582:4.1939998 603:4.1939998 619:3.5948999 722:3.5948999 730:3.5948999 770:3.5948999 774:4.1939998 835:3.5948999 843:4.1939998 869:4.1939998 903:3.5948999 947:3.5948999 948:3.5948999 957:3.5948999 980:3.5948999 981:4.1939998 982:3.5948999 996:4.7932 1005:3.5948999 1028:3.5948999 1053:3.5948999 1060:4.1939998 1077:4.7932 1084:3.5948999 1091:4.7932 1131:4.1939998 1136:3.5948999 1150:3.5948999 1161:4.1939998 1164:3.5948999 1187:3.5948999 1268:4.7932 1278:3.5948999 1295:3.5948999 1300:3.5948999 1305:3.5948999 1306:3.5948999 1326:4.1939998 1376:3.5948999 1382:3.5948999 1407:3.5948999 1417:3.5948999 1426:4.1939998 1446:3.5948999 1454:3.5948999 1459:3.5948999 1472:4.1939998 1498:3.5948999 1562:3.5948999 1569:3.5948999 1591:3.5948999 1617:4.1939998 1626:4.1939998 1634:3.5948999 1683:3.5948999 1744:3.5948999 1766:3.5948999 1772:3.5948999 1811:3.5948999 1826:3.5948999 1906:3.5948999 1909:3.5948999 1913:3.5948999 1955:3.5948999 1967:3.5948999 1985:3.5948999 2016:3.5948999 2022:3.5948999 2031:3.5948999 2047:4.7932 2050:4.7932 2079:3.5948999 2084:3.5948999 2096:3.5948999 2109:3.5948999 2138:3.5948999 2156:4.1939998 2174:3.5948999 2233:3.5948999 2240:5.3923001 2252:3.5948999 2253:4.7932 2259:3.5948999 2294:3.5948999 2307:3.5948999 2313:3.5948999 2314:3.5948999 2322:4.1939998 2325:3.5948999 2341:3.5948999 2374:3.5948999 2376:4.7932 2409:3.5948999 2412:3.5948999 2438:3.5948999 2441:3.5948999 2455:3.5948999 2464:5.9914999 2528:3.5948999 2570:3.5948999 2573:3.5948999 2629:3.5948999 2649:3.5948999 2661:3.5948999 2693:3.5948999 2700:3.5948999 2754:3.5948999 2800:3.5948999 2817:3.5948999 2818:3.5948999 2854:4.1939998 2864:3.5948999 2895:5.9914999 2900:3.5948999 2907:3.5948999 2927:3.5948999 2941:3.5948999 2950:3.5948999 # none/00003804_s01.txt
-0.0006021594349643786484721497132 31:3.7447 120:4.4935999 146:3.7447 269:3.7447 293:3.7447 323:3.7447 385:5.2424998 400:3.7447 412:3.7447 464:4.4935999 481:4.4935999 502:4.4935999 527:3.7447 537:3.7447 543:3.7447 560:3.7447 582:3.7447 618:3.7447 619:3.7447 702:3.7447 759:3.7447 774:5.2424998 843:5.9914999 869:4.4935999 957:3.7447 973:3.7447 980:3.7447 981:3.7447 982:3.7447 984:4.4935999 996:4.4935999 1007:3.7447 1028:3.7447 1053:4.4935999 1055:4.4935999 1077:5.9914999 1084:3.7447 1091:4.4935999 1127:5.2424998 1171:4.4935999 1197:3.7447 1268:3.7447 1291:5.2424998 1292:3.7447 1295:3.7447 1305:3.7447 1326:5.9914999 1376:3.7447 1399:4.4935999 1426:3.7447 1459:3.7447 1460:4.4935999 1472:4.4935999 1498:3.7447 1562:3.7447 1581:3.7447 1583:5.2424998 1598:3.7447 1618:3.7447 1626:3.7447 1715:3.7447 1734:3.7447 1744:4.4935999 1772:4.4935999 1785:3.7447 1839:5.2424998 1846:4.4935999 1906:4.4935999 1913:3.7447 1955:3.7447 1967:3.7447 1984:4.4935999 2022:3.7447 2031:4.4935999 2034:3.7447 2047:4.4935999 2060:3.7447 2065:4.4935999 2079:3.7447 2109:3.7447 2129:3.7447 2192:3.7447 2225:3.7447 2233:3.7447 2239:3.7447 2240:5.9914999 2281:3.7447 2313:3.7447 2322:4.4935999 2374:4.4935999 2376:5.9914999 2377:3.7447 2441:3.7447 2455:3.7447 2464:3.7447 2471:3.7447 2485:4.4935999 2506:5.9914999 2528:3.7447 2550:4.4935999 2573:3.7447 2596:3.7447 2629:3.7447 2649:3.7447 2661:3.7447 2678:4.4935999 2765:3.7447 2781:3.7447 2817:3.7447 2864:4.4935999 2885:5.2424998 2895:5.9914999 2941:4.4935999 # none/00007393_s01.txt
-0.0006021594349643786484721497132 22:3.2953 31:3.2953 155:3.2953 189:3.2953 385:3.5948999 387:3.2953 405:3.5948999 412:3.8945 481:3.2953 502:4.1939998 511:3.2953 526:3.2953 549:3.2953 607:3.2953 619:3.2953 726:3.2953 774:3.5948999 835:3.2953 850:3.8945 869:3.2953 947:3.5948999 956:3.2953 957:3.2953 968:3.2953 971:3.2953 979:3.2953 980:3.2953 981:3.2953 982:3.2953 984:3.2953 996:3.5948999 1028:3.2953 1053:3.2953 1055:3.8945 1060:3.5948999 1077:4.7932 1084:3.2953 1091:3.5948999 1117:3.5948999 1129:3.2953 1161:3.2953 1195:3.2953 1210:3.8945 1223:3.2953 1240:3.2953 1244:3.8945 1246:3.2953 1268:3.8945 1295:3.8945 1296:3.2953 1300:3.5948999 1305:3.2953 1324:3.2953 1326:3.5948999 1399:4.7932 1407:3.2953 1426:3.5948999 1437:3.8945 1459:3.2953 1472:3.5948999 1498:3.2953 1499:4.4935999 1531:3.2953 1548:5.0927 1562:3.2953 1569:3.2953 1615:3.2953 1617:3.5948999 1637:3.2953 1652:3.2953 1656:3.2953 1657:3.2953 1665:3.2953 1673:3.2953 1687:3.2953 1713:3.2953 1724:3.2953 1734:4.1939998 1744:3.2953 1783:3.2953 1815:3.2953 1816:3.2953 1839:3.2953 1856:3.2953 1885:3.2953 1906:3.5948999 1913:3.8945 1915:3.2953 1945:4.1939998 1964:3.2953 1984:4.1939998 2000:3.2953 2031:3.2953 2034:3.5948999 2047:3.5948999 2050:3.2953 2051:3.2953 2079:3.2953 2084:3.5948999 2089:3.2953 2109:3.2953 2156:3.2953 2166:3.2953 2233:3.2953 2240:5.0927 2244:3.2953 2253:3.8945 2307:3.2953 2313:3.2953 2314:3.2953 2322:5.9914999 2325:3.2953 2374:3.5948999 2376:3.8945 2409:3.2953 2412:3.8945 2441:3.2953 2455:3.5948999 2464:4.7932 2528:3.2953 2530:3.2953 2570:3.2953 2573:3.2953 2594:3.2953 2601:3.2953 2629:3.2953 2649:3.2953 2661:3.5948999 2693:3.2953 2805:3.2953 2817:3.2953 2864:3.2953 2874:3.5948999 2882:3.2953 2885:3.5948999 2895:3.8945 # none/00002433_s01.txt
-0.0006021594349643786484721497132 31:3.5948999 83:3.5948999 120:3.5948999 269:3.5948999 293:3.5948999 385:4.1939998 405:3.5948999 412:4.7932 464:3.5948999 481:4.7932 502:3.5948999 516:3.5948999 582:3.5948999 606:3.5948999 619:3.5948999 731:3.5948999 738:4.1939998 774:4.1939998 850:4.1939998 868:3.5948999 869:3.5948999 947:3.5948999 957:3.5948999 963:3.5948999 980:3.5948999 981:4.1939998 982:3.5948999 996:3.5948999 1028:3.5948999 1053:3.5948999 1060:3.5948999 1077:5.3923001 1084:3.5948999 1091:4.1939998 1127:3.5948999 1150:3.5948999 1156:3.5948999 1161:4.1939998 1286:3.5948999 1295:4.1939998 1296:3.5948999 1305:3.5948999 1326:4.1939998 1376:3.5948999 1426:4.1939998 1437:3.5948999 1455:3.5948999 1472:3.5948999 1498:3.5948999 1499:3.5948999 1562:3.5948999 1622:3.5948999 1626:3.5948999 1636:3.5948999 1665:3.5948999 1667:3.5948999 1672:3.5948999 1716:3.5948999 1744:3.5948999 1755:4.1939998 1772:3.5948999 1809:3.5948999 1815:3.5948999 1906:4.1939998 1909:3.5948999 1920:3.5948999 1924:3.5948999 1955:3.5948999 1967:3.5948999 2031:3.5948999 2047:4.1939998 2079:3.5948999 2103:3.5948999 2109:3.5948999 2156:3.5948999 2215:3.5948999 2218:3.5948999 2233:3.5948999 2240:4.1939998 2252:3.5948999 2259:3.5948999 2266:3.5948999 2307:3.5948999 2313:3.5948999 2322:4.1939998 2358:3.5948999 2374:4.7932 2376:5.3923001 2412:4.7932 2439:3.5948999 2460:3.5948999 2464:4.7932 2477:4.1939998 2506:3.5948999 2528:3.5948999 2536:4.1939998 2573:3.5948999 2629:3.5948999 2649:3.5948999 2661:4.7932 2668:3.5948999 2700:3.5948999 2817:4.1939998 2818:3.5948999 2832:3.5948999 2864:3.5948999 2895:5.9914999 2941:3.5948999 # none/00001485_s03.txt
-0.0006021594349643786484721497132 31:3.3701999 120:3.7447 198:3.3701999 264:3.3701999 293:3.3701999 385:3.7447 405:3.7447 412:4.8681002 451:3.3701999 464:3.7447 481:4.8681002 502:3.3701999 511:3.3701999 535:3.3701999 582:3.3701999 618:3.7447 619:3.3701999 653:3.3701999 731:3.7447 770:3.7447 774:3.7447 812:3.3701999 850:3.7447 869:3.3701999 887:3.3701999 957:3.3701999 980:3.3701999 981:3.3701999 984:3.3701999 996:3.7447 1028:3.7447 1053:3.3701999 1060:4.1191001 1077:4.1191001 1084:3.3701999 1091:3.7447 1103:3.3701999 1131:3.3701999 1150:3.3701999 1161:3.7447 1210:4.1191001 1268:4.4935999 1295:4.4935999 1305:3.3701999 1316:3.3701999 1326:4.1191001 1358:3.3701999 1390:3.3701999 1399:5.9914999 1426:4.1191001 1472:4.1191001 1498:3.3701999 1504:3.3701999 1548:3.7447 1562:3.3701999 1565:3.3701999 1608:3.3701999 1615:3.3701999 1626:4.8681002 1636:3.3701999 1685:3.3701999 1716:3.3701999 1732:3.3701999 1734:3.3701999 1735:3.3701999 1744:3.3701999 1772:3.7447 1906:3.7447 1909:3.3701999 1913:4.1191001 1920:3.3701999 1927:3.3701999 1959:3.3701999 1967:3.3701999 1984:4.8681002 2031:3.3701999 2047:4.1191001 2079:3.3701999 2082:3.3701999 2104:3.3701999 2109:3.7447 2156:3.7447 2168:3.3701999 2225:3.3701999 2233:3.3701999 2240:4.4935999 2252:3.3701999 2253:3.7447 2307:3.3701999 2313:3.7447 2322:4.8681002 2341:3.3701999 2374:5.9914999 2376:4.8681002 2409:3.3701999 2412:3.7447 2431:3.7447 2441:3.3701999 2455:3.3701999 2464:5.2424998 2528:3.3701999 2536:3.3701999 2570:3.3701999 2573:3.3701999 2612:3.3701999 2629:3.3701999 2644:3.3701999 2649:3.3701999 2661:4.8681002 2700:3.3701999 2726:3.7447 2773:3.3701999 2817:3.3701999 2855:3.3701999 2895:3.7447 2915:3.3701999 # none/00000901_s11.txt
0.0006021594349643786484721497132 31:3.5948999 293:3.5948999 323:3.5948999 385:3.5948999 405:4.7932 412:3.5948999 434:3.5948999 487:3.5948999 512:3.5948999 526:3.5948999 543:3.5948999 582:3.5948999 619:3.5948999 634:5.3923001 657:3.5948999 683:4.1939998 731:3.5948999 737:3.5948999 739:3.5948999 774:4.1939998 806:3.5948999 852:4.1939998 864:3.5948999 869:3.5948999 947:4.1939998 957:3.5948999 981:3.5948999 982:3.5948999 984:3.5948999 1019:3.5948999 1043:3.5948999 1053:3.5948999 1077:5.9914999 1084:4.1939998 1091:3.5948999 1131:3.5948999 1188:3.5948999 1213:4.1939998 1268:4.1939998 1273:4.1939998 1300:5.3923001 1313:3.5948999 1326:4.1939998 1426:3.5948999 1439:3.5948999 1498:3.5948999 1502:3.5948999 1518:3.5948999 1562:3.5948999 1568:3.5948999 1598:3.5948999 1626:5.3923001 1660:4.7932 1667:3.5948999 1693:3.5948999 1715:3.5948999 1744:3.5948999 1815:5.3923001 1826:3.5948999 1863:3.5948999 1920:4.1939998 1955:3.5948999 2021:3.5948999 2031:5.3923001 2034:3.5948999 2047:3.5948999 2048:3.5948999 2052:3.5948999 2065:3.5948999 2079:3.5948999 2104:3.5948999 2119:3.5948999 2201:3.5948999 2215:3.5948999 2240:4.1939998 2253:3.5948999 2295:3.5948999 2314:4.7932 2322:4.1939998 2376:4.1939998 2412:4.1939998 2414:4.1939998 2455:4.1939998 2464:3.5948999 2487:3.5948999 2528:3.5948999 2536:3.5948999 2550:3.5948999 2596:3.5948999 2604:3.5948999 2613:3.5948999 2629:3.5948999 2678:4.7932 2709:3.5948999 2803:3.5948999 2809:3.5948999 2817:3.5948999 2858:3.5948999 2864:3.5948999 2895:4.7932 2941:3.5948999 # seizures/00010766_s01.txt
0.00059494956199005605279594988132885 31:3.5948999 49:3.5948999 304:3.5948999 385:3.5948999 387:3.5948999 405:4.1939998 412:3.5948999 478:3.5948999 502:3.5948999 537:4.7932 549:4.1939998 582:3.5948999 606:3.5948999 610:3.5948999 612:3.5948999 626:3.5948999 657:3.5948999 683:3.5948999 715:3.5948999 739:3.5948999 740:3.5948999 750:3.5948999 774:4.1939998 814:4.1939998 869:3.5948999 947:4.1939998 949:3.5948999 956:3.5948999 957:3.5948999 968:4.1939998 982:3.5948999 984:3.5948999 996:4.1939998 1005:3.5948999 1044:3.5948999 1053:3.5948999 1077:5.9914999 1084:3.5948999 1091:3.5948999 1127:3.5948999 1130:4.1939998 1140:3.5948999 1163:3.5948999 1188:4.1939998 1209:4.1939998 1213:3.5948999 1286:3.5948999 1295:4.1939998 1300:4.1939998 1305:4.1939998 1328:3.5948999 1426:4.1939998 1428:3.5948999 1439:3.5948999 1475:3.5948999 1480:3.5948999 1483:3.5948999 1498:3.5948999 1502:3.5948999 1548:4.1939998 1562:3.5948999 1563:3.5948999 1571:3.5948999 1626:4.1939998 1673:3.5948999 1715:3.5948999 1732:3.5948999 1735:3.5948999 1744:4.1939998 1798:3.5948999 1809:3.5948999 1826:3.5948999 1836:3.5948999 1941:3.5948999 1944:3.5948999 1955:3.5948999 2030:3.5948999 2031:5.3923001 2034:4.7932 2047:4.1939998 2078:3.5948999 2079:3.5948999 2096:3.5948999 2231:3.5948999 2240:3.5948999 2244:3.5948999 2253:4.7932 2276:3.5948999 2281:3.5948999 2282:3.5948999 2294:3.5948999 2314:5.3923001 2322:5.3923001 2356:3.5948999 2376:5.3923001 2392:3.5948999 2423:3.5948999 2464:3.5948999 2485:4.1939998 2528:3.5948999 2536:4.1939998 2590:3.5948999 2614:3.5948999 2629:3.5948999 2678:3.5948999 2771:3.5948999 2817:3.5948999 2864:3.5948999 2915:3.5948999 2941:3.5948999 # seizures/00002938_s04.txt
0.0006021594349643786484721497132 11:4.1939998 12:3.5948999 13:3.5948999 31:3.5948999 145:4.1939998 310:3.5948999 405:3.5948999 447:3.5948999 451:3.5948999 518:4.1939998 543:3.5948999 556:3.5948999 582:3.5948999 603:4.1939998 629:3.5948999 649:3.5948999 657:3.5948999 683:3.5948999 685:3.5948999 706:3.5948999 739:3.5948999 774:4.7932 850:3.5948999 852:3.5948999 913:3.5948999 952:3.5948999 957:4.1939998 995:3.5948999 1050:3.5948999 1053:3.5948999 1077:4.1939998 1084:3.5948999 1091:3.5948999 1127:3.5948999 1136:3.5948999 1156:4.1939998 1210:3.5948999 1273:3.5948999 1295:3.5948999 1386:3.5948999 1426:3.5948999 1497:3.5948999 1513:3.5948999 1562:3.5948999 1591:3.5948999 1626:5.9914999 1737:3.5948999 1744:3.5948999 1782:3.5948999 1809:3.5948999 1815:4.1939998 1882:3.5948999 1920:4.7932 1959:3.5948999 2030:3.5948999 2031:4.7932 2047:3.5948999 2079:3.5948999 2189:3.5948999 2219:3.5948999 2235:3.5948999 2240:3.5948999 2251:3.5948999 2253:3.5948999 2259:3.5948999 2268:3.5948999 2313:4.1939998 2314:3.5948999 2322:4.7932 2370:3.5948999 2372:3.5948999 2374:4.1939998 2376:3.5948999 2409:3.5948999 2412:4.1939998 2414:3.5948999 2464:3.5948999 2528:3.5948999 2573:3.5948999 2596:3.5948999 2605:3.5948999 2620:3.5948999 2629:3.5948999 2654:3.5948999 2678:3.5948999 2692:3.5948999 2700:3.5948999 2737:3.5948999 2795:3.5948999 2804:3.5948999 2817:3.5948999 2864:4.1939998 2885:3.5948999 2895:4.1939998 2945:3.5948999 # seizures/00000735_s04.txt
0.0006021594349643786484721497132 4:3.2262001 7:3.2262001 11:3.4566 12:3.4566 15:3.2262001 17:3.2262001 31:3.2262001 39:3.2262001 96:3.4566 148:3.2262001 202:3.6870999 215:3.2262001 233:3.2262001 238:3.2262001 282:3.2262001 385:3.4566 394:3.2262001 405:5.9914999 526:3.4566 549:3.9175 569:3.2262001 582:3.6870999 606:3.2262001 619:3.6870999 643:3.2262001 657:3.2262001 669:3.2262001 702:3.2262001 731:3.2262001 739:3.2262001 774:3.6870999 869:3.2262001 947:3.9175 949:3.2262001 957:3.2262001 981:3.4566 982:3.2262001 984:3.2262001 1008:3.2262001 1053:3.2262001 1060:3.2262001 1077:4.3783998 1084:3.2262001 1091:3.2262001 1096:3.2262001 1117:3.2262001 1131:3.4566 1153:3.2262001 1156:3.2262001 1188:3.4566 1278:3.2262001 1326:3.4566 1331:3.2262001 1336:3.2262001 1399:3.6870999 1403:3.4566 1420:3.4566 1426:3.2262001 1439:3.2262001 1460:3.2262001 1476:3.2262001 1480:3.6870999 1498:3.2262001 1502:3.2262001 1562:3.2262001 1626:4.3783998 1690:3.2262001 1724:3.2262001 1737:3.2262001 1744:3.4566 1799:3.2262001 1809:3.2262001 1815:3.6870999 1826:3.2262001 1839:3.2262001 1913:3.2262001 1959:3.2262001 1973:3.2262001 2031:3.4566 2047:3.4566 2065:3.2262001 2079:3.2262001 2096:3.2262001 2166:3.2262001 2213:3.2262001 2236:3.2262001 2240:3.6870999 2279:3.2262001 2294:3.2262001 2307:3.2262001 2313:3.2262001 2322:3.4566 2374:3.2262001 2376:3.6870999 2408:3.2262001 2423:3.2262001 2455:3.2262001 2460:3.4566 2464:3.6870999 2466:3.4566 2503:3.2262001 2528:3.2262001 2530:3.2262001 2538:3.2262001 2550:3.2262001 2574:3.2262001 2580:3.2262001 2629:3.2262001 2678:3.9175 2700:3.6870999 2763:3.2262001 2807:3.2262001 2817:3.2262001 2864:3.2262001 2880:3.6870999 2885:3.2262001 # seizures/00001552_s02.txt
-0.00020945958974337821126288083917188 52:3.4949999 305:3.4949999 385:3.4949999 405:3.4949999 443:3.4949999 445:3.4949999 462:3.4949999 506:3.4949999 519:3.9942999 522:3.4949999 531:3.4949999 582:3.9942999 606:3.4949999 625:3.4949999 657:3.4949999 671:3.4949999 726:3.9942999 731:3.4949999 737:3.4949999 774:3.9942999 784:3.4949999 790:3.4949999 842:3.4949999 869:3.4949999 947:3.9942999 957:3.4949999 981:3.9942999 982:3.4949999 1007:3.4949999 1053:3.4949999 1077:4.4935999 1091:3.4949999 1295:3.4949999 1300:3.9942999 1306:3.4949999 1307:3.4949999 1313:3.4949999 1326:3.4949999 1337:3.4949999 1370:3.4949999 1374:3.4949999 1393:3.4949999 1403:3.4949999 1426:3.4949999 1439:3.4949999 1480:3.4949999 1498:3.4949999 1502:3.4949999 1509:3.4949999 1555:3.4949999 1562:3.4949999 1626:4.4935999 1634:3.4949999 1715:3.4949999 1744:3.4949999 1762:3.4949999 1807:3.4949999 1920:3.4949999 1924:3.4949999 1944:4.4935999 2031:3.9942999 2046:3.4949999 2047:3.4949999 2079:3.4949999 2109:3.4949999 2129:3.9942999 2148:3.4949999 2157:3.4949999 2158:3.4949999 2240:4.9928999 2253:4.4935999 2259:3.4949999 2319:3.4949999 2322:4.4935999 2330:3.4949999 2374:3.4949999 2376:3.4949999 2412:4.4935999 2464:3.9942999 2471:3.4949999 2550:3.4949999 2574:3.4949999 2595:3.4949999 2604:3.4949999 2620:3.4949999 2649:3.4949999 2661:3.9942999 2678:3.4949999 2715:3.4949999 2717:3.4949999 2720:3.4949999 2743:4.4935999 2774:3.4949999 2777:3.4949999 2864:3.4949999 2895:5.9914999 2907:3.9942999 # none/00000505_s01.txt
-0.0006021594349643786484721497132 31:3.9942999 45:3.9942999 83:3.9942999 142:3.9942999 264:3.9942999 356:3.9942999 385:3.9942999 390:3.9942999 404:3.9942999 405:5.9914999 447:3.9942999 455:3.9942999 458:3.9942999 551:3.9942999 606:3.9942999 657:3.9942999 683:4.9928999 731:3.9942999 739:3.9942999 774:4.9928999 791:3.9942999 836:3.9942999 869:3.9942999 957:3.9942999 982:3.9942999 1005:3.9942999 1053:3.9942999 1054:3.9942999 1077:5.9914999 1084:3.9942999 1091:3.9942999 1118:3.9942999 1200:3.9942999 1213:3.9942999 1231:3.9942999 1386:3.9942999 1409:3.9942999 1426:4.9928999 1428:3.9942999 1439:3.9942999 1498:3.9942999 1502:4.9928999 1562:3.9942999 1672:3.9942999 1715:3.9942999 1744:4.9928999 1791:3.9942999 1955:3.9942999 2028:3.9942999 2031:3.9942999 2034:4.9928999 2047:3.9942999 2050:4.9928999 2079:3.9942999 2096:3.9942999 2104:3.9942999 2161:3.9942999 2227:3.9942999 2240:5.9914999 2273:3.9942999 2314:3.9942999 2365:4.9928999 2376:4.9928999 2528:3.9942999 2536:3.9942999 2550:3.9942999 2605:5.9914999 2629:3.9942999 2678:3.9942999 2809:3.9942999 2817:3.9942999 2828:3.9942999 2835:3.9942999 2864:3.9942999 2941:3.9942999 # none/00002058_s05.txt
-0.0006021594349643786484721497132 31:3.4949999 33:3.4949999 37:3.4949999 100:3.4949999 207:3.4949999 385:3.9942999 405:4.4935999 421:3.4949999 447:3.9942999 451:3.4949999 479:3.9942999 549:3.4949999 559:3.9942999 568:3.4949999 582:3.9942999 606:3.4949999 649:3.4949999 653:3.4949999 657:3.4949999 674:3.4949999 739:3.4949999 774:4.4935999 819:4.4935999 869:3.9942999 947:4.9928999 949:3.4949999 957:3.4949999 977:3.9942999 982:3.4949999 1043:3.4949999 1051:3.4949999 1053:3.4949999 1059:4.4935999 1077:4.9928999 1084:3.4949999 1091:3.4949999 1115:3.4949999 1131:3.4949999 1134:3.4949999 1147:3.4949999 1164:3.4949999 1179:3.4949999 1185:3.4949999 1213:3.9942999 1278:4.4935999 1295:4.4935999 1300:4.4935999 1426:3.9942999 1439:3.4949999 1487:3.4949999 1496:3.4949999 1498:3.4949999 1502:3.4949999 1504:3.4949999 1532:3.4949999 1548:3.9942999 1562:3.4949999 1563:3.4949999 1626:3.9942999 1715:3.4949999 1718:3.4949999 1724:3.9942999 1735:3.4949999 1744:3.4949999 1812:3.4949999 1815:3.9942999 1864:3.4949999 1886:3.4949999 1920:3.4949999 1945:3.9942999 1955:3.4949999 1986:3.4949999 2026:3.4949999 2031:4.4935999 2034:3.9942999 2047:3.4949999 2050:4.4935999 2079:3.4949999 2096:4.4935999 2102:3.9942999 2104:3.4949999 2129:3.4949999 2146:3.4949999 2152:3.4949999 2158:3.4949999 2161:3.4949999 2166:3.4949999 2227:3.4949999 2240:5.9914999 2248:3.4949999 2253:3.4949999 2294:3.9942999 2303:3.4949999 2309:3.4949999 2317:3.4949999 2322:3.9942999 2370:3.9942999 2376:3.4949999 2394:3.4949999 2431:3.4949999 2455:3.4949999 2464:3.9942999 2528:3.4949999 2536:3.4949999 2550:3.9942999 2551:3.4949999 2629:3.4949999 2635:3.4949999 2659:3.4949999 2678:4.4935999 2743:3.9942999 2796:3.4949999 2817:3.9942999 2864:3.4949999 2895:3.9942999 2920:3.4949999 2941:3.4949999 2944:3.4949999 # none/00001170_s01.txt
-0.00045879645322346378037703384933366 31:3.5948999 285:3.5948999 302:3.5948999 385:3.5948999 405:3.5948999 502:3.5948999 519:3.5948999 522:3.5948999 543:4.1939998 582:4.1939998 606:3.5948999 619:3.5948999 621:3.5948999 640:3.5948999 657:3.5948999 683:4.1939998 721:3.5948999 738:3.5948999 739:3.5948999 774:4.1939998 835:3.5948999 869:4.1939998 947:4.1939998 949:3.5948999 957:3.5948999 971:3.5948999 981:3.5948999 982:3.5948999 1050:3.5948999 1053:3.5948999 1069:3.5948999 1077:4.1939998 1084:3.5948999 1091:3.5948999 1115:3.5948999 1154:3.5948999 1200:3.5948999 1240:3.5948999 1300:4.7932 1386:3.5948999 1426:3.5948999 1476:3.5948999 1487:3.5948999 1498:3.5948999 1502:3.5948999 1504:3.5948999 1562:3.5948999 1591:3.5948999 1712:3.5948999 1724:4.1939998 1744:3.5948999 1755:3.5948999 1762:3.5948999 1799:3.5948999 1920:4.7932 1944:3.5948999 1973:3.5948999 2031:4.7932 2047:3.5948999 2079:3.5948999 2096:3.5948999 2129:3.5948999 2219:3.5948999 2240:4.7932 2253:3.5948999 2273:3.5948999 2314:4.1939998 2373:3.5948999 2376:3.5948999 2412:3.5948999 2417:4.7932 2455:3.5948999 2464:4.1939998 2528:3.5948999 2533:3.5948999 2536:3.5948999 2596:3.5948999 2604:3.5948999 2629:3.5948999 2678:4.1939998 2717:3.5948999 2727:3.5948999 2743:4.1939998 2778:3.5948999 2817:3.5948999 2839:3.5948999 2848:3.5948999 2858:4.7932 2864:3.5948999 2885:3.5948999 2891:3.5948999 2895:5.9914999 2916:3.5948999 # none/00005506_s02.txt
-0.0006021594349643786484721497132 31:3.3701999 205:3.3701999 374:3.3701999 385:3.7447 390:3.7447 405:4.4935999 464:3.3701999 472:3.3701999 481:3.7447 537:3.3701999 543:3.7447 582:3.3701999 606:3.3701999 657:3.3701999 739:3.3701999 774:4.1191001 792:3.3701999 837:3.3701999 869:3.3701999 886:3.3701999 889:3.7447 942:3.3701999 947:3.3701999 949:3.7447 957:3.3701999 959:3.3701999 982:3.3701999 1040:3.3701999 1053:4.1191001 1055:3.3701999 1077:4.8681002 1084:3.3701999 1091:3.7447 1131:3.3701999 1214:3.3701999 1240:3.3701999 1295:3.3701999 1329:3.3701999 1352:3.3701999 1396:3.3701999 1399:4.1191001 1403:3.3701999 1426:3.7447 1439:3.3701999 1487:3.3701999 1498:3.3701999 1502:3.3701999 1504:3.3701999 1531:3.3701999 1548:3.3701999 1559:3.7447 1562:3.3701999 1591:3.3701999 1626:5.9914999 1694:3.3701999 1709:3.3701999 1724:4.1191001 1735:3.3701999 1744:3.3701999 1807:3.3701999 1817:3.3701999 1891:3.3701999 1920:3.3701999 1938:3.7447 1944:3.7447 1955:3.3701999 2008:3.3701999 2031:4.4935999 2039:3.3701999 2047:3.3701999 2079:3.3701999 2104:3.3701999 2149:3.3701999 2158:3.7447 2227:3.3701999 2240:3.3701999 2259:3.3701999 2314:3.3701999 2322:4.8681002 2376:3.3701999 2412:3.7447 2464:3.3701999 2528:3.3701999 2536:3.3701999 2550:3.7447 2605:3.3701999 2618:3.3701999 2629:3.3701999 2661:3.7447 2678:3.3701999 2735:3.7447 2817:3.3701999 2832:3.3701999 2852:3.3701999 2864:3.3701999 2880:3.3701999 2895:3.7447 2927:3.3701999 2941:3.3701999 2956:3.3701999 # none/00006474_s01.txt
-0.00022329976981591003761494496071549 31:3.5948999 342:3.5948999 354:3.5948999 385:3.5948999 405:4.7932 412:3.5948999 445:3.5948999 512:3.5948999 522:4.1939998 551:3.5948999 582:4.1939998 606:3.5948999 634:3.5948999 653:4.1939998 657:3.5948999 661:3.5948999 722:3.5948999 739:3.5948999 774:4.1939998 835:3.5948999 855:3.5948999 869:3.5948999 947:5.9914999 949:3.5948999 957:3.5948999 981:3.5948999 982:3.5948999 983:3.5948999 1011:3.5948999 1050:3.5948999 1053:3.5948999 1077:5.3923001 1084:3.5948999 1091:3.5948999 1131:3.5948999 1210:4.1939998 1213:3.5948999 1231:3.5948999 1240:3.5948999 1244:3.5948999 1295:4.1939998 1300:5.3923001 1326:3.5948999 1337:3.5948999 1360:4.1939998 1399:4.1939998 1426:3.5948999 1439:3.5948999 1480:3.5948999 1498:3.5948999 1504:3.5948999 1513:4.1939998 1548:3.5948999 1562:3.5948999 1626:4.7932 1685:3.5948999 1715:3.5948999 1721:3.5948999 1727:3.5948999 1737:3.5948999 1744:3.5948999 1799:3.5948999 1806:3.5948999 1815:3.5948999 1944:3.5948999 1959:3.5948999 2031:5.3923001 2047:3.5948999 2079:3.5948999 2158:3.5948999 2166:3.5948999 2240:3.5948999 2253:3.5948999 2259:3.5948999 2268:3.5948999 2294:3.5948999 2314:3.5948999 2322:5.3923001 2324:3.5948999 2376:3.5948999 2417:3.5948999 2423:3.5948999 2450:3.5948999 2464:4.1939998 2528:3.5948999 2550:4.1939998 2629:3.5948999 2678:3.5948999 2817:3.5948999 2864:3.5948999 2874:3.5948999 # none/00008991_s01.txt
