SVM-light Version V6.02
0 # kernel type
3 # kernel parameter -d 
1 # kernel parameter -g 
1 # kernel parameter -s 
1 # kernel parameter -r 
empty# kernel parameter -u 
3535 # highest feature index 
960 # number of training documents 
271 # number of support vectors plus 1 
1.1130027 # threshold b, each following line is a SV (starting with alpha*y)
-6.3203817971988331212568335004676e-05 32:7.0900998 40:7.0900998 368:7.0900998 408:7.0900998 430:42.540501 487:14.1802 594:7.0900998 610:28.3603 639:7.0900998 661:7.0900998 684:7.0900998 722:7.0900998 726:7.0900998 793:7.0900998 807:7.0900998 821:7.0900998 865:7.0900998 896:7.0900998 927:7.0900998 950:7.0900998 976:7.0900998 1032:7.0900998 1062:7.0900998 1065:7.0900998 1079:7.0900998 1121:7.0900998 1208:7.0900998 1240:21.270201 1253:7.0900998 1264:7.0900998 1320:7.0900998 1420:7.0900998 1431:7.0900998 1516:14.1802 1522:14.1802 1617:7.0900998 1634:7.0900998 1670:7.0900998 1696:7.0900998 1703:7.0900998 1738:7.0900998 1770:7.0900998 1799:7.0900998 1814:7.0900998 1816:7.0900998 1865:7.0900998 1911:7.0900998 2025:14.1802 2049:14.1802 2089:7.0900998 2141:21.270201 2160:7.0900998 2164:7.0900998 2259:7.0900998 2298:7.0900998 2404:14.1802 2409:7.0900998 2422:7.0900998 2426:14.1802 2446:7.0900998 2473:7.0900998 2507:21.270201 2582:7.0900998 2678:14.1802 2693:7.0900998 2694:21.270201 2725:7.0900998 2777:14.1802 2810:7.0900998 2832:7.0900998 2834:7.0900998 2835:7.0900998 2840:7.0900998 2948:7.0900998 2974:7.0900998 3019:7.0900998 3039:7.0900998 3055:7.0900998 3072:7.0900998 3093:7.0900998 3124:7.0900998 3271:7.0900998 3272:7.0900998 3368:14.1802 3421:7.0900998 # none/00004406_s03.txt
-3.0758372830747427850023312245753e-05 7:7.0900998 10:7.0900998 40:7.0900998 56:7.0900998 408:7.0900998 430:14.1802 478:7.0900998 487:7.0900998 493:7.0900998 516:14.1802 639:7.0900998 699:7.0900998 722:7.0900998 790:7.0900998 821:7.0900998 865:14.1802 875:14.1802 919:7.0900998 939:7.0900998 976:7.0900998 1058:7.0900998 1062:7.0900998 1079:14.1802 1121:7.0900998 1125:7.0900998 1196:7.0900998 1208:7.0900998 1240:28.3603 1253:7.0900998 1264:7.0900998 1320:7.0900998 1351:7.0900998 1420:7.0900998 1421:7.0900998 1439:14.1802 1478:7.0900998 1484:21.270201 1554:7.0900998 1557:14.1802 1670:7.0900998 1738:7.0900998 1744:7.0900998 1747:7.0900998 1755:7.0900998 1768:7.0900998 1814:7.0900998 1874:7.0900998 1988:14.1802 1992:7.0900998 2036:14.1802 2049:7.0900998 2052:7.0900998 2060:7.0900998 2141:21.270201 2160:7.0900998 2291:7.0900998 2294:7.0900998 2298:14.1802 2404:28.3603 2409:14.1802 2426:7.0900998 2428:14.1802 2473:7.0900998 2490:7.0900998 2545:7.0900998 2574:7.0900998 2582:14.1802 2678:28.3603 2701:7.0900998 2777:14.1802 2815:7.0900998 2835:7.0900998 2840:14.1802 2879:49.630501 2936:14.1802 2948:14.1802 2957:7.0900998 2975:7.0900998 2997:7.0900998 3001:7.0900998 3010:7.0900998 3017:14.1802 3019:7.0900998 3024:7.0900998 3027:7.0900998 3039:7.0900998 3124:7.0900998 3198:14.1802 3216:14.1802 3226:7.0900998 3252:7.0900998 3368:7.0900998 3388:7.0900998 3421:7.0900998 3439:14.1802 3458:49.630501 # none/00000382_s01.txt
-3.7633757142895916231704889209908e-05 40:7.0900998 238:7.0900998 390:7.0900998 408:7.0900998 430:21.270201 516:7.0900998 550:14.1802 628:7.0900998 639:14.1802 722:7.0900998 736:7.0900998 776:7.0900998 813:7.0900998 821:7.0900998 865:7.0900998 916:7.0900998 976:7.0900998 1054:7.0900998 1055:7.0900998 1078:7.0900998 1079:7.0900998 1118:7.0900998 1121:7.0900998 1157:7.0900998 1167:7.0900998 1175:7.0900998 1196:7.0900998 1198:7.0900998 1205:14.1802 1208:7.0900998 1240:14.1802 1245:7.0900998 1253:7.0900998 1264:7.0900998 1279:7.0900998 1320:7.0900998 1420:7.0900998 1541:7.0900998 1581:7.0900998 1652:7.0900998 1670:7.0900998 1694:14.1802 1703:28.3603 1738:7.0900998 1744:14.1802 1747:7.0900998 1795:7.0900998 1814:7.0900998 1874:7.0900998 1890:7.0900998 2036:7.0900998 2045:7.0900998 2049:7.0900998 2141:7.0900998 2142:7.0900998 2162:21.270201 2298:7.0900998 2319:14.1802 2341:7.0900998 2394:7.0900998 2404:28.3603 2426:28.3603 2453:21.270201 2473:7.0900998 2507:7.0900998 2534:7.0900998 2555:7.0900998 2562:7.0900998 2582:7.0900998 2620:14.1802 2639:7.0900998 2678:21.270201 2728:7.0900998 2754:7.0900998 2766:7.0900998 2767:14.1802 2835:14.1802 2840:21.270201 2910:7.0900998 2936:14.1802 2948:14.1802 2997:21.270201 3001:7.0900998 3019:7.0900998 3039:21.270201 3055:7.0900998 3091:7.0900998 3124:7.0900998 3257:7.0900998 3368:7.0900998 3373:7.0900998 3413:7.0900998 3421:7.0900998 3446:7.0900998 3458:14.1802 3470:7.0900998 3494:7.0900998 # none/00000709_s03.txt
-4.9604140510536834829564967197513e-05 40:7.0900998 71:7.0900998 153:7.0900998 408:14.1802 430:35.450401 442:7.0900998 524:7.0900998 596:7.0900998 598:7.0900998 661:7.0900998 699:7.0900998 709:7.0900998 722:7.0900998 751:49.630501 821:7.0900998 822:7.0900998 865:14.1802 876:7.0900998 945:7.0900998 951:7.0900998 954:7.0900998 976:7.0900998 1058:7.0900998 1079:7.0900998 1116:7.0900998 1121:7.0900998 1125:7.0900998 1144:21.270201 1180:7.0900998 1208:7.0900998 1213:7.0900998 1240:21.270201 1253:7.0900998 1264:7.0900998 1297:7.0900998 1320:7.0900998 1324:7.0900998 1445:7.0900998 1478:21.270201 1484:7.0900998 1617:7.0900998 1634:28.3603 1670:7.0900998 1711:7.0900998 1738:7.0900998 1744:7.0900998 1770:7.0900998 1814:7.0900998 1896:7.0900998 1929:7.0900998 1950:7.0900998 2025:7.0900998 2049:7.0900998 2141:14.1802 2144:7.0900998 2267:21.270201 2310:7.0900998 2326:7.0900998 2347:7.0900998 2379:7.0900998 2404:14.1802 2409:21.270201 2426:7.0900998 2428:7.0900998 2446:7.0900998 2469:7.0900998 2473:7.0900998 2522:7.0900998 2533:7.0900998 2678:35.450401 2827:14.1802 2833:7.0900998 2840:7.0900998 2879:14.1802 2882:7.0900998 2973:7.0900998 2999:7.0900998 3019:7.0900998 3039:7.0900998 3093:28.3603 3118:7.0900998 3124:7.0900998 3134:7.0900998 3179:7.0900998 3307:7.0900998 3368:7.0900998 3385:7.0900998 3387:7.0900998 3388:7.0900998 3394:7.0900998 3421:14.1802 3458:14.1802 3500:7.0900998 3532:7.0900998 # none/00009351_s01.txt
5.1471828855350492976789000820759e-05 7:7.0900998 40:7.0900998 61:7.0900998 128:7.0900998 162:7.0900998 193:7.0900998 268:7.0900998 272:7.0900998 387:7.0900998 390:7.0900998 408:14.1802 430:35.450401 487:7.0900998 610:7.0900998 634:7.0900998 661:7.0900998 693:14.1802 821:7.0900998 865:21.270201 875:7.0900998 945:21.270201 951:21.270201 954:7.0900998 976:14.1802 1062:7.0900998 1079:7.0900998 1121:7.0900998 1139:14.1802 1166:7.0900998 1208:14.1802 1213:7.0900998 1240:14.1802 1253:7.0900998 1264:7.0900998 1270:14.1802 1297:7.0900998 1314:7.0900998 1320:21.270201 1326:7.0900998 1358:7.0900998 1392:7.0900998 1478:14.1802 1484:14.1802 1541:7.0900998 1603:7.0900998 1634:7.0900998 1674:7.0900998 1694:7.0900998 1703:14.1802 1738:7.0900998 1760:7.0900998 1778:7.0900998 1814:7.0900998 1852:7.0900998 1875:7.0900998 1896:7.0900998 1899:21.270201 1911:85.080902 1918:7.0900998 1919:7.0900998 1947:7.0900998 1968:7.0900998 1979:7.0900998 2036:14.1802 2049:7.0900998 2110:7.0900998 2133:7.0900998 2267:21.270201 2298:21.270201 2319:7.0900998 2326:7.0900998 2338:7.0900998 2394:14.1802 2404:14.1802 2423:7.0900998 2426:14.1802 2428:21.270201 2453:7.0900998 2473:7.0900998 2482:7.0900998 2505:7.0900998 2507:49.630501 2511:7.0900998 2622:49.630501 2677:7.0900998 2678:21.270201 2694:35.450401 2745:7.0900998 2777:7.0900998 2827:21.270201 2834:7.0900998 2840:35.450401 2872:7.0900998 2875:7.0900998 2877:7.0900998 2882:7.0900998 2894:7.0900998 2948:21.270201 3010:7.0900998 3019:7.0900998 3024:7.0900998 3039:7.0900998 3051:7.0900998 3053:14.1802 3124:7.0900998 3198:7.0900998 3252:7.0900998 3298:7.0900998 3368:7.0900998 3385:7.0900998 3421:14.1802 # seizures/00001721_s01.txt
6.3203817971988331212568335004676e-05 4:14.1802 40:7.0900998 101:14.1802 110:7.0900998 396:7.0900998 408:7.0900998 430:7.0900998 442:7.0900998 453:7.0900998 461:7.0900998 496:7.0900998 556:7.0900998 575:7.0900998 591:7.0900998 639:7.0900998 650:7.0900998 661:7.0900998 717:7.0900998 722:7.0900998 736:7.0900998 819:7.0900998 821:7.0900998 826:7.0900998 865:14.1802 938:7.0900998 951:7.0900998 976:7.0900998 1028:14.1802 1062:7.0900998 1065:7.0900998 1079:7.0900998 1105:7.0900998 1116:7.0900998 1121:7.0900998 1125:7.0900998 1208:7.0900998 1226:7.0900998 1240:49.630501 1253:7.0900998 1256:7.0900998 1264:14.1802 1358:7.0900998 1370:7.0900998 1478:14.1802 1505:7.0900998 1516:7.0900998 1517:7.0900998 1567:7.0900998 1581:7.0900998 1668:7.0900998 1670:7.0900998 1738:7.0900998 1799:7.0900998 1814:7.0900998 1865:7.0900998 1911:28.3603 1968:7.0900998 2045:7.0900998 2049:7.0900998 2133:14.1802 2142:7.0900998 2148:7.0900998 2186:7.0900998 2292:7.0900998 2302:7.0900998 2404:21.270201 2426:7.0900998 2428:14.1802 2473:7.0900998 2486:7.0900998 2500:7.0900998 2624:7.0900998 2678:21.270201 2694:14.1802 2832:7.0900998 2834:7.0900998 2835:7.0900998 2840:28.3603 2871:7.0900998 2879:28.3603 2902:7.0900998 2948:14.1802 2997:7.0900998 3019:7.0900998 3116:7.0900998 3124:7.0900998 3136:7.0900998 3167:28.3603 3308:7.0900998 3368:7.0900998 3409:7.0900998 3421:14.1802 3458:28.3603 3494:14.1802 # seizures/00000018_s04.txt
2.0641377352299954974455820089219e-05 4:7.0900998 32:7.0900998 40:7.0900998 61:21.270201 75:7.0900998 76:14.1802 93:14.1802 94:7.0900998 101:7.0900998 162:7.0900998 189:7.0900998 203:7.0900998 206:7.0900998 213:7.0900998 238:7.0900998 272:7.0900998 302:7.0900998 308:7.0900998 309:7.0900998 310:7.0900998 323:7.0900998 396:14.1802 408:14.1802 409:7.0900998 430:99.261101 435:7.0900998 442:14.1802 461:7.0900998 463:7.0900998 467:7.0900998 478:7.0900998 496:7.0900998 527:7.0900998 572:21.270201 591:14.1802 598:28.3603 606:7.0900998 610:14.1802 639:35.450401 659:7.0900998 694:14.1802 699:28.3603 717:7.0900998 722:14.1802 746:21.270201 751:35.450401 814:7.0900998 821:7.0900998 826:7.0900998 861:21.270201 865:7.0900998 910:7.0900998 916:28.3603 938:7.0900998 951:14.1802 1019:7.0900998 1054:14.1802 1055:14.1802 1065:14.1802 1078:7.0900998 1079:14.1802 1085:7.0900998 1093:7.0900998 1116:14.1802 1125:14.1802 1137:7.0900998 1139:14.1802 1182:7.0900998 1212:7.0900998 1213:21.270201 1240:35.450401 1253:7.0900998 1264:7.0900998 1317:14.1802 1320:63.810699 1351:7.0900998 1352:7.0900998 1358:28.3603 1392:7.0900998 1414:7.0900998 1415:35.450401 1422:14.1802 1439:14.1802 1450:7.0900998 1516:70.900803 1522:7.0900998 1567:7.0900998 1622:14.1802 1634:28.3603 1668:7.0900998 1708:7.0900998 1738:7.0900998 1744:7.0900998 1747:28.3603 1755:7.0900998 1784:14.1802 1795:56.7206 1814:14.1802 1819:7.0900998 1865:14.1802 1893:7.0900998 1897:14.1802 1911:63.810699 1972:7.0900998 1988:7.0900998 2025:14.1802 2036:7.0900998 2049:7.0900998 2077:14.1802 2110:7.0900998 2133:14.1802 2141:35.450401 2142:21.270201 2160:14.1802 2186:7.0900998 2267:56.7206 2282:7.0900998 2293:7.0900998 2296:7.0900998 2310:7.0900998 2319:14.1802 2326:7.0900998 2329:7.0900998 2341:7.0900998 2342:14.1802 2347:14.1802 2381:7.0900998 2389:7.0900998 2397:14.1802 2404:63.810699 2409:49.630501 2426:7.0900998 2428:35.450401 2473:7.0900998 2490:7.0900998 2510:7.0900998 2559:7.0900998 2574:28.3603 2636:7.0900998 2649:14.1802 2666:14.1802 2671:14.1802 2678:21.270201 2694:21.270201 2701:21.270201 2710:35.450401 2712:7.0900998 2730:7.0900998 2745:21.270201 2762:7.0900998 2777:28.3603 2831:14.1802 2834:14.1802 2840:63.810699 2863:7.0900998 2871:7.0900998 2879:7.0900998 2894:7.0900998 2902:7.0900998 2906:7.0900998 2948:28.3603 2952:14.1802 2973:21.270201 2974:7.0900998 2975:7.0900998 2993:7.0900998 2997:7.0900998 3010:14.1802 3019:7.0900998 3021:14.1802 3027:14.1802 3039:21.270201 3046:14.1802 3059:14.1802 3093:7.0900998 3107:14.1802 3124:7.0900998 3167:7.0900998 3198:14.1802 3215:7.0900998 3216:7.0900998 3226:7.0900998 3268:7.0900998 3312:14.1802 3319:7.0900998 3368:7.0900998 3421:7.0900998 3439:7.0900998 3449:14.1802 3458:7.0900998 3462:7.0900998 3470:7.0900998 3494:21.270201 # seizures/00000032_s01.txt
6.3203817971988331212568335004676e-05 40:7.0900998 111:7.0900998 153:7.0900998 154:7.0900998 165:7.0900998 230:7.0900998 279:7.0900998 380:7.0900998 408:14.1802 430:14.1802 442:21.270201 472:7.0900998 496:7.0900998 516:14.1802 527:7.0900998 550:14.1802 639:7.0900998 658:7.0900998 682:7.0900998 717:7.0900998 813:14.1802 820:7.0900998 861:7.0900998 865:14.1802 921:7.0900998 945:7.0900998 951:14.1802 976:14.1802 1062:7.0900998 1079:7.0900998 1089:14.1802 1117:7.0900998 1118:14.1802 1125:7.0900998 1139:21.270201 1175:7.0900998 1208:14.1802 1218:14.1802 1240:28.3603 1243:7.0900998 1253:7.0900998 1264:14.1802 1270:14.1802 1320:14.1802 1347:7.0900998 1356:7.0900998 1359:7.0900998 1415:7.0900998 1478:7.0900998 1481:7.0900998 1516:21.270201 1531:7.0900998 1554:14.1802 1604:7.0900998 1622:7.0900998 1703:21.270201 1738:7.0900998 1795:7.0900998 1814:7.0900998 1827:7.0900998 1865:7.0900998 1872:7.0900998 1896:7.0900998 1899:14.1802 1905:7.0900998 1911:14.1802 1918:7.0900998 1919:7.0900998 1921:7.0900998 1968:7.0900998 2007:7.0900998 2049:14.1802 2110:7.0900998 2169:7.0900998 2252:7.0900998 2256:7.0900998 2259:7.0900998 2267:21.270201 2282:7.0900998 2302:14.1802 2319:14.1802 2329:7.0900998 2336:7.0900998 2347:7.0900998 2389:14.1802 2393:7.0900998 2404:21.270201 2426:21.270201 2428:28.3603 2473:7.0900998 2482:21.270201 2507:21.270201 2571:14.1802 2645:7.0900998 2649:7.0900998 2668:7.0900998 2678:28.3603 2693:7.0900998 2694:14.1802 2701:7.0900998 2760:7.0900998 2762:7.0900998 2766:7.0900998 2767:14.1802 2805:7.0900998 2835:7.0900998 2840:42.540501 2879:14.1802 2894:7.0900998 2918:7.0900998 2943:7.0900998 2948:21.270201 2963:7.0900998 2997:7.0900998 3017:7.0900998 3019:7.0900998 3046:7.0900998 3055:7.0900998 3079:7.0900998 3124:7.0900998 3152:7.0900998 3167:21.270201 3226:7.0900998 3358:7.0900998 3368:14.1802 3426:7.0900998 3458:28.3603 3470:21.270201 # seizures/00000032_s05.txt
6.3203817971988331212568335004676e-05 40:7.0900998 296:7.0900998 408:14.1802 430:28.3603 510:7.0900998 550:7.0900998 570:7.0900998 591:7.0900998 598:7.0900998 639:14.1802 649:7.0900998 661:7.0900998 666:7.0900998 682:7.0900998 751:14.1802 821:7.0900998 865:14.1802 976:14.1802 1062:7.0900998 1078:7.0900998 1079:7.0900998 1105:7.0900998 1114:7.0900998 1121:7.0900998 1125:7.0900998 1139:14.1802 1208:7.0900998 1212:7.0900998 1240:49.630501 1253:7.0900998 1264:7.0900998 1270:14.1802 1317:7.0900998 1414:21.270201 1421:7.0900998 1462:7.0900998 1493:7.0900998 1516:7.0900998 1517:14.1802 1522:14.1802 1554:14.1802 1670:7.0900998 1738:7.0900998 1744:7.0900998 1755:7.0900998 1768:7.0900998 1784:7.0900998 1791:7.0900998 1814:7.0900998 1869:7.0900998 1911:7.0900998 1965:7.0900998 1988:7.0900998 2025:14.1802 2031:7.0900998 2049:7.0900998 2118:7.0900998 2133:7.0900998 2212:7.0900998 2293:7.0900998 2345:7.0900998 2392:21.270201 2404:21.270201 2409:14.1802 2426:7.0900998 2437:7.0900998 2472:7.0900998 2473:7.0900998 2514:7.0900998 2524:7.0900998 2534:7.0900998 2555:14.1802 2678:14.1802 2730:7.0900998 2754:7.0900998 2777:7.0900998 2827:14.1802 2840:28.3603 2948:7.0900998 2958:7.0900998 2997:7.0900998 3019:7.0900998 3027:7.0900998 3037:7.0900998 3040:7.0900998 3124:7.0900998 3179:7.0900998 3208:7.0900998 3244:7.0900998 3247:7.0900998 3312:14.1802 3354:7.0900998 3368:7.0900998 3421:14.1802 3426:7.0900998 3439:7.0900998 3458:7.0900998 # seizures/00000048_s08.txt
6.3203817971988331212568335004676e-05 40:7.0900998 153:7.0900998 154:7.0900998 169:7.0900998 296:14.1802 408:14.1802 409:7.0900998 430:14.1802 442:21.270201 516:7.0900998 527:7.0900998 563:7.0900998 569:7.0900998 575:7.0900998 639:7.0900998 657:7.0900998 658:7.0900998 682:7.0900998 751:14.1802 807:7.0900998 836:7.0900998 861:14.1802 865:21.270201 927:21.270201 938:7.0900998 945:7.0900998 951:14.1802 976:21.270201 1041:7.0900998 1079:7.0900998 1104:7.0900998 1117:7.0900998 1118:21.270201 1125:7.0900998 1139:14.1802 1175:7.0900998 1208:14.1802 1240:21.270201 1243:7.0900998 1253:7.0900998 1264:14.1802 1270:21.270201 1314:7.0900998 1356:7.0900998 1359:14.1802 1391:7.0900998 1445:7.0900998 1478:7.0900998 1516:7.0900998 1517:7.0900998 1522:7.0900998 1554:7.0900998 1703:21.270201 1738:7.0900998 1814:7.0900998 1905:7.0900998 1911:14.1802 1921:7.0900998 1959:7.0900998 1965:7.0900998 2049:14.1802 2062:7.0900998 2110:14.1802 2127:14.1802 2133:7.0900998 2135:7.0900998 2169:7.0900998 2252:7.0900998 2259:7.0900998 2267:7.0900998 2329:7.0900998 2393:7.0900998 2404:21.270201 2426:21.270201 2472:7.0900998 2473:7.0900998 2500:7.0900998 2507:21.270201 2558:7.0900998 2571:14.1802 2658:7.0900998 2678:35.450401 2694:7.0900998 2701:7.0900998 2728:7.0900998 2766:7.0900998 2767:14.1802 2797:7.0900998 2835:28.3603 2840:35.450401 2879:35.450401 2918:7.0900998 2936:7.0900998 2948:35.450401 3019:7.0900998 3021:7.0900998 3046:14.1802 3079:14.1802 3124:7.0900998 3149:7.0900998 3152:7.0900998 3167:21.270201 3179:7.0900998 3216:21.270201 3226:21.270201 3276:7.0900998 3349:7.0900998 3368:7.0900998 3458:35.450401 # seizures/00000068_s01.txt
-6.3203817971988331212568335004676e-05 4:42.540501 7:7.0900998 25:21.270201 32:28.3603 40:14.1802 42:7.0900998 60:7.0900998 61:28.3603 76:7.0900998 94:7.0900998 101:7.0900998 102:21.270201 110:7.0900998 111:14.1802 119:7.0900998 130:7.0900998 131:7.0900998 183:42.540501 227:7.0900998 255:7.0900998 278:7.0900998 282:7.0900998 313:7.0900998 323:7.0900998 393:7.0900998 403:21.270201 408:7.0900998 410:7.0900998 430:42.540501 442:21.270201 487:14.1802 510:14.1802 527:14.1802 550:7.0900998 556:14.1802 564:7.0900998 572:7.0900998 581:7.0900998 585:7.0900998 591:7.0900998 594:7.0900998 610:7.0900998 630:7.0900998 639:14.1802 661:14.1802 665:7.0900998 682:28.3603 684:7.0900998 699:7.0900998 722:7.0900998 751:7.0900998 776:21.270201 783:7.0900998 821:14.1802 824:7.0900998 826:14.1802 861:7.0900998 865:21.270201 916:63.810699 938:7.0900998 951:35.450401 976:7.0900998 979:7.0900998 1001:7.0900998 1032:14.1802 1045:7.0900998 1065:14.1802 1079:28.3603 1105:7.0900998 1121:14.1802 1139:7.0900998 1147:7.0900998 1182:7.0900998 1196:7.0900998 1212:7.0900998 1213:7.0900998 1226:14.1802 1240:49.630501 1253:14.1802 1264:14.1802 1283:7.0900998 1297:7.0900998 1302:7.0900998 1317:21.270201 1320:7.0900998 1351:14.1802 1352:7.0900998 1358:28.3603 1367:7.0900998 1376:7.0900998 1399:7.0900998 1406:7.0900998 1415:21.270201 1478:21.270201 1484:7.0900998 1516:56.7206 1517:28.3603 1557:7.0900998 1579:7.0900998 1586:7.0900998 1617:7.0900998 1630:7.0900998 1633:7.0900998 1634:21.270201 1662:7.0900998 1668:7.0900998 1670:14.1802 1711:7.0900998 1729:7.0900998 1738:7.0900998 1739:7.0900998 1744:14.1802 1768:28.3603 1790:7.0900998 1791:7.0900998 1795:28.3603 1814:14.1802 1896:14.1802 1911:28.3603 1936:7.0900998 1950:7.0900998 1957:7.0900998 1959:7.0900998 1965:21.270201 2049:7.0900998 2053:7.0900998 2084:21.270201 2097:7.0900998 2110:21.270201 2133:42.540501 2141:21.270201 2142:28.3603 2157:7.0900998 2160:7.0900998 2214:7.0900998 2267:49.630501 2297:7.0900998 2317:7.0900998 2334:7.0900998 2342:21.270201 2347:21.270201 2394:56.7206 2395:7.0900998 2397:28.3603 2404:85.080902 2409:7.0900998 2423:7.0900998 2426:14.1802 2432:7.0900998 2442:21.270201 2473:14.1802 2486:7.0900998 2507:28.3603 2511:7.0900998 2574:7.0900998 2645:7.0900998 2671:14.1802 2678:92.170998 2685:7.0900998 2694:35.450401 2701:7.0900998 2712:14.1802 2724:21.270201 2739:7.0900998 2767:14.1802 2777:56.7206 2810:7.0900998 2815:7.0900998 2831:70.900803 2834:14.1802 2835:14.1802 2840:163.07179 2861:28.3603 2879:14.1802 2889:7.0900998 2894:14.1802 2899:7.0900998 2906:14.1802 2918:7.0900998 2936:28.3603 2948:35.450401 2957:21.270201 3019:14.1802 3027:14.1802 3030:7.0900998 3039:7.0900998 3046:7.0900998 3053:7.0900998 3124:14.1802 3167:49.630501 3179:7.0900998 3180:7.0900998 3198:21.270201 3215:7.0900998 3216:7.0900998 3226:14.1802 3267:7.0900998 3299:7.0900998 3312:7.0900998 3354:7.0900998 3358:7.0900998 3368:14.1802 3421:14.1802 3449:7.0900998 3458:14.1802 3462:7.0900998 3463:7.0900998 3464:7.0900998 3494:14.1802 # none/00000088_s10.txt
-2.7435564101350241837120290389063e-06 7:7.0900998 11:28.3603 14:14.1802 21:7.0900998 32:28.3603 40:21.270201 102:14.1802 111:14.1802 119:7.0900998 252:7.0900998 254:7.0900998 272:21.270201 284:7.0900998 314:14.1802 323:21.270201 337:7.0900998 365:7.0900998 408:21.270201 430:184.342 487:21.270201 510:21.270201 516:7.0900998 550:14.1802 564:7.0900998 639:35.450401 682:21.270201 722:21.270201 753:21.270201 821:21.270201 824:21.270201 865:7.0900998 916:21.270201 951:21.270201 976:7.0900998 1049:21.270201 1062:21.270201 1079:21.270201 1118:35.450401 1121:21.270201 1125:21.270201 1144:7.0900998 1154:35.450401 1175:21.270201 1193:14.1802 1208:21.270201 1213:28.3603 1240:106.3512 1253:21.270201 1264:21.270201 1314:7.0900998 1328:7.0900998 1352:56.7206 1420:7.0900998 1445:7.0900998 1478:49.630501 1517:35.450401 1531:21.270201 1604:14.1802 1649:21.270201 1670:21.270201 1703:21.270201 1738:21.270201 1747:7.0900998 1750:28.3603 1814:21.270201 1911:85.080902 1936:7.0900998 1968:56.7206 1988:21.270201 2045:7.0900998 2049:21.270201 2133:56.7206 2141:21.270201 2223:14.1802 2291:42.540501 2297:56.7206 2301:7.0900998 2302:21.270201 2319:21.270201 2346:21.270201 2394:7.0900998 2404:7.0900998 2426:21.270201 2428:7.0900998 2442:21.270201 2473:21.270201 2497:7.0900998 2507:21.270201 2611:21.270201 2642:7.0900998 2648:14.1802 2678:56.7206 2694:7.0900998 2723:14.1802 2728:7.0900998 2745:7.0900998 2760:7.0900998 2766:21.270201 2777:49.630501 2805:7.0900998 2835:21.270201 2840:28.3603 2879:127.6214 2936:63.810699 2939:7.0900998 2948:85.080902 2957:21.270201 2973:14.1802 2997:28.3603 3001:21.270201 3017:28.3603 3019:21.270201 3118:21.270201 3124:21.270201 3158:14.1802 3167:120.5313 3343:21.270201 3368:21.270201 3413:21.270201 3421:21.270201 3439:21.270201 3446:28.3603 3458:35.450401 3470:7.0900998 # none/00001611_s01.txt
-6.3203817971988331212568335004676e-05 40:21.270201 76:14.1802 185:14.1802 200:7.0900998 203:14.1802 210:7.0900998 213:7.0900998 220:7.0900998 223:7.0900998 226:7.0900998 254:7.0900998 323:14.1802 376:7.0900998 430:14.1802 435:7.0900998 442:7.0900998 446:14.1802 450:14.1802 461:7.0900998 462:7.0900998 463:7.0900998 487:14.1802 496:14.1802 510:14.1802 550:7.0900998 558:42.540501 571:7.0900998 579:21.270201 585:7.0900998 606:7.0900998 619:7.0900998 620:14.1802 625:7.0900998 628:7.0900998 631:14.1802 637:14.1802 639:14.1802 649:7.0900998 659:28.3603 661:7.0900998 722:14.1802 725:14.1802 751:7.0900998 769:14.1802 819:7.0900998 820:7.0900998 821:14.1802 824:14.1802 861:7.0900998 865:28.3603 909:7.0900998 915:7.0900998 916:7.0900998 924:7.0900998 946:7.0900998 951:49.630501 976:7.0900998 1028:7.0900998 1032:14.1802 1062:7.0900998 1065:14.1802 1078:7.0900998 1079:28.3603 1089:21.270201 1090:35.450401 1105:7.0900998 1116:21.270201 1117:7.0900998 1121:14.1802 1147:7.0900998 1165:7.0900998 1205:7.0900998 1208:21.270201 1212:7.0900998 1213:28.3603 1226:7.0900998 1230:14.1802 1240:77.990799 1253:14.1802 1264:92.170998 1314:7.0900998 1320:21.270201 1377:7.0900998 1383:7.0900998 1396:7.0900998 1399:7.0900998 1404:14.1802 1405:7.0900998 1478:14.1802 1484:7.0900998 1489:7.0900998 1581:7.0900998 1602:7.0900998 1610:21.270201 1617:7.0900998 1642:7.0900998 1649:7.0900998 1668:14.1802 1670:14.1802 1703:14.1802 1711:14.1802 1716:21.270201 1732:7.0900998 1738:7.0900998 1744:35.450401 1763:7.0900998 1781:14.1802 1788:7.0900998 1791:14.1802 1814:28.3603 1844:14.1802 1860:14.1802 1864:7.0900998 1865:7.0900998 1896:7.0900998 1911:35.450401 1934:7.0900998 1941:7.0900998 1959:14.1802 1972:14.1802 2008:7.0900998 2009:7.0900998 2010:7.0900998 2017:14.1802 2045:7.0900998 2049:7.0900998 2110:14.1802 2133:21.270201 2141:14.1802 2142:14.1802 2152:14.1802 2153:7.0900998 2252:7.0900998 2259:7.0900998 2267:21.270201 2292:7.0900998 2296:14.1802 2310:7.0900998 2319:14.1802 2326:7.0900998 2336:14.1802 2347:7.0900998 2351:7.0900998 2393:14.1802 2394:7.0900998 2397:14.1802 2404:99.261101 2410:7.0900998 2426:14.1802 2438:7.0900998 2472:7.0900998 2473:21.270201 2511:7.0900998 2546:7.0900998 2550:7.0900998 2552:7.0900998 2555:7.0900998 2559:7.0900998 2562:7.0900998 2567:21.270201 2582:7.0900998 2590:7.0900998 2611:7.0900998 2624:7.0900998 2630:7.0900998 2636:7.0900998 2642:7.0900998 2648:21.270201 2661:7.0900998 2678:77.990799 2687:7.0900998 2694:7.0900998 2706:7.0900998 2712:7.0900998 2719:7.0900998 2728:14.1802 2766:14.1802 2767:14.1802 2777:28.3603 2814:14.1802 2831:35.450401 2834:7.0900998 2835:14.1802 2840:163.07179 2850:7.0900998 2866:7.0900998 2879:42.540501 2899:7.0900998 2906:14.1802 2936:56.7206 2948:7.0900998 2963:7.0900998 2974:7.0900998 2996:7.0900998 2997:56.7206 3001:28.3603 3017:21.270201 3019:21.270201 3046:7.0900998 3059:14.1802 3068:7.0900998 3072:7.0900998 3074:7.0900998 3105:7.0900998 3114:7.0900998 3124:21.270201 3152:14.1802 3155:7.0900998 3161:7.0900998 3167:28.3603 3179:7.0900998 3198:14.1802 3215:14.1802 3226:7.0900998 3247:7.0900998 3274:7.0900998 3281:7.0900998 3286:14.1802 3339:28.3603 3343:7.0900998 3346:7.0900998 3362:7.0900998 3368:28.3603 3372:21.270201 3396:7.0900998 3409:7.0900998 3413:28.3603 3421:42.540501 3446:35.450401 3454:7.0900998 3458:63.810699 3468:7.0900998 3470:14.1802 3499:7.0900998 3504:14.1802 # none/00000544_s05.txt
6.3203817971988331212568335004676e-05 40:7.0900998 41:7.0900998 380:7.0900998 487:7.0900998 628:7.0900998 639:14.1802 661:7.0900998 682:14.1802 722:7.0900998 821:7.0900998 865:7.0900998 910:7.0900998 1078:7.0900998 1079:7.0900998 1121:7.0900998 1125:7.0900998 1205:21.270201 1240:28.3603 1243:7.0900998 1253:7.0900998 1264:7.0900998 1320:7.0900998 1392:7.0900998 1420:14.1802 1478:7.0900998 1557:14.1802 1670:7.0900998 1707:7.0900998 1725:7.0900998 1738:7.0900998 1744:14.1802 1814:7.0900998 1865:7.0900998 1941:7.0900998 1979:7.0900998 2049:14.1802 2153:7.0900998 2259:7.0900998 2267:7.0900998 2291:7.0900998 2404:7.0900998 2426:7.0900998 2473:7.0900998 2501:7.0900998 2678:14.1802 2766:7.0900998 2790:7.0900998 2840:7.0900998 2948:7.0900998 3019:7.0900998 3124:7.0900998 3368:7.0900998 3421:7.0900998 3446:14.1802 3493:7.0900998 # seizures/00003371_s03.txt
6.3203817971988331212568335004676e-05 40:7.0900998 390:7.0900998 598:14.1802 722:7.0900998 821:7.0900998 824:7.0900998 865:7.0900998 976:7.0900998 1068:7.0900998 1079:7.0900998 1121:7.0900998 1125:7.0900998 1138:7.0900998 1198:7.0900998 1205:7.0900998 1240:35.450401 1253:7.0900998 1264:7.0900998 1314:7.0900998 1546:7.0900998 1617:7.0900998 1670:7.0900998 1738:7.0900998 1744:7.0900998 1755:7.0900998 1762:7.0900998 1814:7.0900998 1860:7.0900998 1874:7.0900998 2009:7.0900998 2025:7.0900998 2049:7.0900998 2133:7.0900998 2153:7.0900998 2190:7.0900998 2193:7.0900998 2259:14.1802 2267:7.0900998 2280:7.0900998 2404:14.1802 2426:7.0900998 2453:7.0900998 2473:7.0900998 2501:7.0900998 2559:7.0900998 2574:7.0900998 2678:7.0900998 2745:7.0900998 2787:7.0900998 2827:7.0900998 2840:7.0900998 2936:21.270201 3001:7.0900998 3017:14.1802 3019:7.0900998 3039:7.0900998 3124:7.0900998 3276:7.0900998 3368:7.0900998 3413:7.0900998 3421:7.0900998 3458:7.0900998 # seizures/00000185_s02.txt
6.3203817971988331212568335004676e-05 40:7.0900998 149:7.0900998 218:7.0900998 238:7.0900998 408:7.0900998 430:21.270201 478:7.0900998 575:14.1802 639:14.1802 661:14.1802 682:7.0900998 726:7.0900998 751:14.1802 865:7.0900998 954:7.0900998 976:7.0900998 1062:21.270201 1079:7.0900998 1121:7.0900998 1125:7.0900998 1197:7.0900998 1208:7.0900998 1240:14.1802 1253:7.0900998 1264:7.0900998 1297:7.0900998 1414:14.1802 1516:7.0900998 1738:7.0900998 1769:7.0900998 1814:7.0900998 1896:7.0900998 1911:14.1802 2049:7.0900998 2118:7.0900998 2141:14.1802 2274:7.0900998 2291:7.0900998 2321:7.0900998 2325:7.0900998 2401:7.0900998 2426:7.0900998 2463:7.0900998 2473:7.0900998 2516:7.0900998 2645:7.0900998 2649:7.0900998 2661:7.0900998 2677:7.0900998 2678:28.3603 2745:7.0900998 2777:28.3603 2827:7.0900998 2834:7.0900998 2840:14.1802 2875:7.0900998 2881:7.0900998 2882:7.0900998 2948:14.1802 2952:14.1802 3019:7.0900998 3039:7.0900998 3081:7.0900998 3124:7.0900998 3198:7.0900998 3226:7.0900998 3368:7.0900998 3388:7.0900998 3409:14.1802 3410:7.0900998 3421:7.0900998 3425:7.0900998 # seizures/00003922_s01.txt
-1.2583192063893196006429259226067e-05 4:14.1802 27:7.0900998 40:7.0900998 42:7.0900998 76:7.0900998 94:7.0900998 185:14.1802 206:7.0900998 216:7.0900998 408:7.0900998 413:21.270201 422:7.0900998 430:14.1802 442:7.0900998 516:7.0900998 524:7.0900998 527:7.0900998 556:28.3603 563:7.0900998 572:7.0900998 639:21.270201 655:7.0900998 726:7.0900998 736:7.0900998 774:21.270201 813:7.0900998 908:7.0900998 945:21.270201 948:7.0900998 951:7.0900998 954:14.1802 966:7.0900998 979:7.0900998 1030:7.0900998 1032:7.0900998 1058:7.0900998 1062:21.270201 1065:14.1802 1079:7.0900998 1118:49.630501 1125:7.0900998 1137:7.0900998 1139:7.0900998 1144:21.270201 1175:7.0900998 1208:7.0900998 1213:14.1802 1218:7.0900998 1240:21.270201 1253:14.1802 1264:7.0900998 1270:21.270201 1294:7.0900998 1297:7.0900998 1320:7.0900998 1347:7.0900998 1445:14.1802 1450:7.0900998 1493:63.810699 1516:7.0900998 1522:21.270201 1554:14.1802 1585:7.0900998 1604:14.1802 1622:7.0900998 1738:7.0900998 1754:14.1802 1770:7.0900998 1814:7.0900998 1827:7.0900998 1905:7.0900998 1969:7.0900998 2049:14.1802 2110:7.0900998 2119:7.0900998 2141:7.0900998 2204:7.0900998 2214:7.0900998 2256:14.1802 2259:7.0900998 2267:14.1802 2271:14.1802 2282:7.0900998 2297:35.450401 2423:7.0900998 2426:7.0900998 2428:21.270201 2489:21.270201 2501:7.0900998 2507:14.1802 2534:21.270201 2559:7.0900998 2562:7.0900998 2585:7.0900998 2633:7.0900998 2649:7.0900998 2678:42.540501 2730:7.0900998 2762:7.0900998 2766:7.0900998 2827:14.1802 2835:14.1802 2840:21.270201 2849:7.0900998 2875:21.270201 2879:14.1802 2882:14.1802 2902:7.0900998 2906:7.0900998 2918:7.0900998 2936:7.0900998 2948:28.3603 3016:14.1802 3019:7.0900998 3039:7.0900998 3124:7.0900998 3149:7.0900998 3226:7.0900998 3290:42.540501 3354:14.1802 3409:7.0900998 3421:7.0900998 3458:70.900803 3470:7.0900998 # none/00000691_s03.txt
-6.3203817971988331212568335004676e-05 40:7.0900998 368:7.0900998 408:7.0900998 430:14.1802 442:7.0900998 510:7.0900998 527:7.0900998 575:7.0900998 639:14.1802 661:7.0900998 722:7.0900998 728:7.0900998 740:7.0900998 751:7.0900998 821:7.0900998 865:7.0900998 927:7.0900998 954:7.0900998 976:7.0900998 1062:14.1802 1079:7.0900998 1121:7.0900998 1208:7.0900998 1240:35.450401 1253:7.0900998 1264:7.0900998 1478:14.1802 1484:7.0900998 1533:7.0900998 1554:7.0900998 1634:7.0900998 1670:7.0900998 1703:7.0900998 1738:7.0900998 1744:7.0900998 1814:7.0900998 1865:7.0900998 1911:35.450401 2033:7.0900998 2045:7.0900998 2049:7.0900998 2093:7.0900998 2267:7.0900998 2297:7.0900998 2426:7.0900998 2473:7.0900998 2497:7.0900998 2582:7.0900998 2678:21.270201 2694:14.1802 2766:7.0900998 2767:7.0900998 2777:7.0900998 2840:14.1802 2879:21.270201 2948:21.270201 2958:7.0900998 3019:7.0900998 3070:7.0900998 3091:7.0900998 3124:7.0900998 3167:14.1802 3358:7.0900998 3368:7.0900998 3382:7.0900998 3421:7.0900998 3458:21.270201 3494:7.0900998 # none/00000052_s01.txt
-6.3203817971988331212568335004676e-05 4:7.0900998 11:7.0900998 17:28.3603 32:7.0900998 40:7.0900998 42:7.0900998 52:7.0900998 53:7.0900998 57:7.0900998 76:14.1802 94:42.540501 162:7.0900998 180:7.0900998 248:7.0900998 278:7.0900998 279:7.0900998 283:7.0900998 403:14.1802 408:14.1802 409:7.0900998 430:77.990799 442:21.270201 485:7.0900998 496:7.0900998 510:14.1802 516:21.270201 579:28.3603 596:7.0900998 639:35.450401 661:21.270201 665:7.0900998 682:7.0900998 699:7.0900998 722:14.1802 736:14.1802 751:85.080902 753:7.0900998 807:7.0900998 813:21.270201 820:21.270201 821:14.1802 824:7.0900998 826:7.0900998 861:14.1802 865:35.450401 875:7.0900998 885:7.0900998 896:7.0900998 927:7.0900998 951:21.270201 976:14.1802 1045:7.0900998 1055:7.0900998 1062:7.0900998 1065:7.0900998 1068:7.0900998 1078:14.1802 1079:14.1802 1095:7.0900998 1118:7.0900998 1121:7.0900998 1144:14.1802 1208:14.1802 1213:7.0900998 1240:42.540501 1253:14.1802 1264:21.270201 1268:7.0900998 1320:14.1802 1359:7.0900998 1397:7.0900998 1404:7.0900998 1406:7.0900998 1414:14.1802 1444:7.0900998 1516:14.1802 1533:7.0900998 1541:7.0900998 1586:7.0900998 1649:7.0900998 1670:14.1802 1708:14.1802 1729:7.0900998 1738:14.1802 1739:7.0900998 1744:7.0900998 1754:7.0900998 1762:21.270201 1768:7.0900998 1814:14.1802 1816:7.0900998 1857:7.0900998 1871:7.0900998 1896:7.0900998 1950:7.0900998 1987:7.0900998 1988:7.0900998 1991:14.1802 1992:7.0900998 1995:7.0900998 2025:7.0900998 2044:7.0900998 2049:21.270201 2110:7.0900998 2118:21.270201 2133:14.1802 2141:7.0900998 2142:7.0900998 2153:7.0900998 2167:7.0900998 2172:7.0900998 2207:7.0900998 2267:7.0900998 2291:14.1802 2296:7.0900998 2298:14.1802 2302:21.270201 2319:14.1802 2346:7.0900998 2347:7.0900998 2404:21.270201 2409:63.810699 2426:14.1802 2473:14.1802 2484:7.0900998 2582:7.0900998 2585:7.0900998 2595:14.1802 2596:7.0900998 2611:7.0900998 2636:14.1802 2672:7.0900998 2678:35.450401 2694:14.1802 2762:7.0900998 2814:7.0900998 2827:35.450401 2834:28.3603 2835:14.1802 2840:21.270201 2958:7.0900998 3019:14.1802 3039:14.1802 3046:7.0900998 3073:7.0900998 3093:28.3603 3124:14.1802 3134:7.0900998 3165:7.0900998 3198:7.0900998 3216:7.0900998 3226:14.1802 3257:7.0900998 3267:7.0900998 3307:7.0900998 3312:7.0900998 3349:7.0900998 3368:7.0900998 3383:7.0900998 3421:28.3603 3439:7.0900998 3493:7.0900998 # none/00003122_s01.txt
-3.7656679637354227856323174439268e-05 4:49.630501 40:7.0900998 83:7.0900998 206:14.1802 408:7.0900998 430:35.450401 442:14.1802 461:7.0900998 463:7.0900998 510:7.0900998 516:21.270201 527:7.0900998 556:7.0900998 579:7.0900998 625:14.1802 639:14.1802 655:7.0900998 661:7.0900998 682:7.0900998 684:14.1802 709:7.0900998 717:7.0900998 807:14.1802 865:7.0900998 919:14.1802 944:14.1802 951:14.1802 976:7.0900998 986:7.0900998 991:28.3603 1028:7.0900998 1045:7.0900998 1062:21.270201 1065:7.0900998 1079:7.0900998 1085:7.0900998 1089:7.0900998 1139:7.0900998 1143:7.0900998 1149:21.270201 1213:7.0900998 1240:21.270201 1253:7.0900998 1264:14.1802 1320:14.1802 1326:7.0900998 1358:14.1802 1375:7.0900998 1414:21.270201 1415:7.0900998 1431:7.0900998 1478:7.0900998 1484:21.270201 1516:14.1802 1557:7.0900998 1622:7.0900998 1634:14.1802 1653:7.0900998 1668:7.0900998 1708:7.0900998 1738:7.0900998 1739:7.0900998 1744:7.0900998 1747:7.0900998 1768:7.0900998 1814:7.0900998 1819:7.0900998 1827:7.0900998 1865:7.0900998 1911:56.7206 1919:7.0900998 1959:7.0900998 1992:7.0900998 2025:14.1802 2036:7.0900998 2049:7.0900998 2052:7.0900998 2084:7.0900998 2110:7.0900998 2133:14.1802 2141:14.1802 2186:7.0900998 2267:56.7206 2319:7.0900998 2346:7.0900998 2389:28.3603 2404:14.1802 2409:14.1802 2423:7.0900998 2426:7.0900998 2428:28.3603 2442:7.0900998 2448:7.0900998 2473:7.0900998 2507:28.3603 2573:7.0900998 2649:7.0900998 2678:42.540501 2687:14.1802 2694:21.270201 2698:7.0900998 2712:7.0900998 2719:7.0900998 2728:7.0900998 2762:14.1802 2810:7.0900998 2831:14.1802 2840:21.270201 2879:35.450401 2894:7.0900998 2899:7.0900998 2906:7.0900998 2948:14.1802 2963:7.0900998 2997:7.0900998 3019:7.0900998 3037:7.0900998 3091:7.0900998 3124:7.0900998 3167:42.540501 3212:7.0900998 3226:7.0900998 3244:7.0900998 3319:7.0900998 3339:7.0900998 3354:7.0900998 3368:7.0900998 3372:7.0900998 3385:7.0900998 3388:14.1802 3409:7.0900998 3410:7.0900998 3421:7.0900998 3458:35.450401 3476:7.0900998 3494:14.1802 3532:7.0900998 # none/00002607_s07.txt
-6.3203817971988331212568335004676e-05 7:7.0900998 13:7.0900998 21:7.0900998 32:7.0900998 40:7.0900998 61:35.450401 76:7.0900998 203:7.0900998 226:7.0900998 250:7.0900998 309:7.0900998 310:7.0900998 316:14.1802 317:7.0900998 408:14.1802 442:21.270201 462:7.0900998 463:7.0900998 516:7.0900998 521:7.0900998 527:7.0900998 639:7.0900998 650:21.270201 682:7.0900998 694:7.0900998 714:7.0900998 784:14.1802 799:7.0900998 820:49.630501 853:42.540501 861:7.0900998 865:21.270201 951:7.0900998 976:21.270201 979:7.0900998 1045:7.0900998 1079:7.0900998 1139:7.0900998 1175:7.0900998 1208:7.0900998 1213:21.270201 1240:56.7206 1253:7.0900998 1264:14.1802 1298:14.1802 1324:7.0900998 1352:7.0900998 1356:7.0900998 1404:7.0900998 1415:7.0900998 1431:14.1802 1478:28.3603 1516:7.0900998 1517:7.0900998 1522:14.1802 1531:7.0900998 1559:7.0900998 1634:70.900803 1657:7.0900998 1703:7.0900998 1738:7.0900998 1739:7.0900998 1757:7.0900998 1762:7.0900998 1795:14.1802 1814:7.0900998 1827:7.0900998 1911:92.170998 1983:7.0900998 2033:7.0900998 2037:7.0900998 2049:7.0900998 2089:7.0900998 2229:7.0900998 2252:7.0900998 2259:35.450401 2267:14.1802 2317:7.0900998 2329:14.1802 2342:14.1802 2346:77.990799 2404:35.450401 2426:14.1802 2446:7.0900998 2472:7.0900998 2473:7.0900998 2507:7.0900998 2537:7.0900998 2555:14.1802 2565:7.0900998 2567:7.0900998 2571:28.3603 2585:7.0900998 2668:7.0900998 2671:7.0900998 2673:14.1802 2677:7.0900998 2678:21.270201 2694:14.1802 2701:7.0900998 2719:7.0900998 2728:7.0900998 2734:7.0900998 2756:7.0900998 2759:21.270201 2766:7.0900998 2777:7.0900998 2797:7.0900998 2827:42.540501 2835:56.7206 2840:14.1802 2876:7.0900998 2879:14.1802 2896:42.540501 2910:7.0900998 2948:14.1802 2953:14.1802 3019:7.0900998 3051:7.0900998 3055:7.0900998 3099:14.1802 3124:7.0900998 3136:7.0900998 3137:7.0900998 3167:7.0900998 3226:7.0900998 3320:7.0900998 3368:7.0900998 3398:7.0900998 3458:14.1802 3494:7.0900998 # none/00000891_s02.txt
-6.3019508081838985580694356691822e-05 40:7.0900998 83:7.0900998 408:14.1802 409:7.0900998 416:7.0900998 430:28.3603 550:7.0900998 572:7.0900998 639:28.3603 661:7.0900998 699:7.0900998 722:7.0900998 821:7.0900998 830:7.0900998 865:7.0900998 954:7.0900998 976:7.0900998 1069:7.0900998 1078:7.0900998 1079:7.0900998 1121:7.0900998 1125:7.0900998 1208:7.0900998 1240:28.3603 1253:7.0900998 1264:7.0900998 1294:7.0900998 1420:7.0900998 1449:7.0900998 1478:7.0900998 1481:7.0900998 1522:21.270201 1533:7.0900998 1605:7.0900998 1670:7.0900998 1675:7.0900998 1703:21.270201 1711:7.0900998 1738:7.0900998 1814:7.0900998 1921:7.0900998 2018:7.0900998 2025:7.0900998 2049:14.1802 2067:7.0900998 2139:7.0900998 2141:14.1802 2143:7.0900998 2164:14.1802 2204:7.0900998 2259:7.0900998 2319:14.1802 2347:7.0900998 2404:14.1802 2409:7.0900998 2426:7.0900998 2438:7.0900998 2473:7.0900998 2479:7.0900998 2534:7.0900998 2567:7.0900998 2574:7.0900998 2655:7.0900998 2678:21.270201 2690:7.0900998 2725:7.0900998 2761:7.0900998 2767:28.3603 2777:21.270201 2840:7.0900998 2882:7.0900998 2884:7.0900998 2948:7.0900998 3019:7.0900998 3072:7.0900998 3081:7.0900998 3124:7.0900998 3151:7.0900998 3290:21.270201 3322:7.0900998 3326:28.3603 3368:14.1802 3388:14.1802 3421:7.0900998 3458:21.270201 # none/00010579_s01.txt
6.3203817971988331212568335004676e-05 2:7.0900998 4:7.0900998 10:7.0900998 21:7.0900998 40:7.0900998 128:7.0900998 137:7.0900998 181:7.0900998 189:7.0900998 200:7.0900998 259:7.0900998 315:7.0900998 323:7.0900998 390:14.1802 410:14.1802 430:14.1802 442:21.270201 462:7.0900998 466:7.0900998 516:35.450401 527:28.3603 550:14.1802 570:7.0900998 572:28.3603 585:21.270201 615:7.0900998 620:7.0900998 628:7.0900998 637:14.1802 639:28.3603 655:14.1802 659:7.0900998 661:14.1802 665:7.0900998 666:14.1802 736:7.0900998 751:7.0900998 776:7.0900998 820:7.0900998 821:7.0900998 824:7.0900998 861:21.270201 865:7.0900998 901:7.0900998 910:7.0900998 916:14.1802 938:14.1802 944:7.0900998 951:21.270201 976:7.0900998 986:7.0900998 1055:7.0900998 1062:7.0900998 1065:7.0900998 1079:7.0900998 1085:7.0900998 1118:7.0900998 1121:7.0900998 1125:7.0900998 1149:7.0900998 1196:7.0900998 1213:7.0900998 1226:7.0900998 1240:49.630501 1253:7.0900998 1264:21.270201 1270:7.0900998 1277:7.0900998 1305:7.0900998 1309:7.0900998 1320:7.0900998 1340:7.0900998 1352:35.450401 1399:7.0900998 1484:7.0900998 1498:7.0900998 1578:7.0900998 1622:7.0900998 1634:7.0900998 1649:28.3603 1670:7.0900998 1707:14.1802 1716:14.1802 1730:7.0900998 1737:7.0900998 1739:7.0900998 1744:14.1802 1755:7.0900998 1763:7.0900998 1781:7.0900998 1787:7.0900998 1814:7.0900998 1857:7.0900998 1860:7.0900998 1911:7.0900998 1942:7.0900998 1984:7.0900998 1992:7.0900998 2045:7.0900998 2049:7.0900998 2110:14.1802 2141:7.0900998 2142:7.0900998 2145:21.270201 2148:7.0900998 2152:21.270201 2160:7.0900998 2167:7.0900998 2259:7.0900998 2291:28.3603 2326:7.0900998 2342:7.0900998 2346:7.0900998 2394:7.0900998 2404:56.7206 2409:21.270201 2423:14.1802 2426:14.1802 2473:7.0900998 2486:7.0900998 2511:7.0900998 2514:7.0900998 2545:14.1802 2572:7.0900998 2642:7.0900998 2645:7.0900998 2649:7.0900998 2658:7.0900998 2678:42.540501 2694:7.0900998 2710:7.0900998 2759:7.0900998 2767:14.1802 2777:28.3603 2827:7.0900998 2834:7.0900998 2840:28.3603 2879:35.450401 2894:7.0900998 2899:14.1802 2904:7.0900998 2936:106.3512 2948:42.540501 2974:14.1802 2990:14.1802 2997:21.270201 3001:7.0900998 3006:7.0900998 3017:14.1802 3019:7.0900998 3021:14.1802 3038:14.1802 3068:7.0900998 3124:7.0900998 3147:7.0900998 3167:35.450401 3198:7.0900998 3226:7.0900998 3257:7.0900998 3268:7.0900998 3339:7.0900998 3358:7.0900998 3368:7.0900998 3409:7.0900998 3413:7.0900998 3421:7.0900998 3446:7.0900998 3458:49.630501 3494:14.1802 # seizures/00007597_s01.txt
1.1304535880553712704930588439645e-05 11:14.1802 40:7.0900998 111:7.0900998 154:7.0900998 169:7.0900998 186:14.1802 213:7.0900998 220:7.0900998 262:7.0900998 408:21.270201 430:14.1802 442:14.1802 516:7.0900998 527:7.0900998 542:7.0900998 550:42.540501 563:7.0900998 564:7.0900998 570:7.0900998 598:7.0900998 611:7.0900998 639:7.0900998 665:7.0900998 682:14.1802 807:7.0900998 865:7.0900998 906:7.0900998 945:7.0900998 951:21.270201 954:7.0900998 976:7.0900998 1030:7.0900998 1062:7.0900998 1068:7.0900998 1078:7.0900998 1079:7.0900998 1089:14.1802 1104:7.0900998 1117:7.0900998 1118:14.1802 1139:21.270201 1156:7.0900998 1160:7.0900998 1175:7.0900998 1208:14.1802 1212:14.1802 1213:14.1802 1218:14.1802 1240:49.630501 1253:7.0900998 1264:14.1802 1314:7.0900998 1326:7.0900998 1356:7.0900998 1359:7.0900998 1407:7.0900998 1413:7.0900998 1445:7.0900998 1455:7.0900998 1481:14.1802 1516:14.1802 1522:7.0900998 1531:7.0900998 1554:21.270201 1617:7.0900998 1668:14.1802 1703:7.0900998 1738:7.0900998 1794:7.0900998 1796:7.0900998 1814:7.0900998 1825:7.0900998 1827:7.0900998 1865:7.0900998 1905:7.0900998 1968:7.0900998 1987:7.0900998 2007:7.0900998 2033:14.1802 2049:7.0900998 2083:7.0900998 2110:7.0900998 2118:7.0900998 2151:7.0900998 2152:14.1802 2162:21.270201 2164:35.450401 2259:14.1802 2267:7.0900998 2282:7.0900998 2296:7.0900998 2298:7.0900998 2329:7.0900998 2338:21.270201 2346:7.0900998 2347:7.0900998 2404:14.1802 2426:21.270201 2473:7.0900998 2507:7.0900998 2558:7.0900998 2571:14.1802 2581:7.0900998 2662:7.0900998 2678:35.450401 2710:7.0900998 2760:7.0900998 2762:14.1802 2766:7.0900998 2767:14.1802 2835:28.3603 2840:49.630501 2879:7.0900998 2882:7.0900998 2899:14.1802 2918:7.0900998 2936:7.0900998 2948:14.1802 2953:7.0900998 2963:7.0900998 2973:7.0900998 2977:7.0900998 2997:35.450401 3019:7.0900998 3021:7.0900998 3053:7.0900998 3055:14.1802 3079:14.1802 3117:7.0900998 3149:7.0900998 3152:7.0900998 3167:7.0900998 3198:14.1802 3215:7.0900998 3216:7.0900998 3226:7.0900998 3248:7.0900998 3250:7.0900998 3307:7.0900998 3321:21.270201 3349:7.0900998 3368:14.1802 3421:7.0900998 3458:14.1802 3470:21.270201 3486:7.0900998 # seizures/00000573_s04.txt
6.3203817971988331212568335004676e-05 11:7.0900998 32:7.0900998 40:7.0900998 76:7.0900998 162:7.0900998 203:14.1802 210:7.0900998 238:14.1802 255:7.0900998 282:7.0900998 339:7.0900998 360:7.0900998 408:7.0900998 430:49.630501 463:14.1802 487:7.0900998 510:7.0900998 516:7.0900998 610:7.0900998 639:14.1802 659:7.0900998 661:7.0900998 682:7.0900998 721:7.0900998 722:7.0900998 736:7.0900998 753:21.270201 820:7.0900998 821:7.0900998 824:7.0900998 865:14.1802 916:7.0900998 976:35.450401 1062:7.0900998 1068:7.0900998 1079:7.0900998 1121:7.0900998 1139:7.0900998 1175:7.0900998 1208:7.0900998 1213:21.270201 1240:63.810699 1253:7.0900998 1264:7.0900998 1314:7.0900998 1320:7.0900998 1352:42.540501 1392:7.0900998 1399:7.0900998 1404:7.0900998 1420:7.0900998 1424:14.1802 1428:7.0900998 1450:7.0900998 1452:7.0900998 1478:7.0900998 1516:7.0900998 1522:14.1802 1531:7.0900998 1533:7.0900998 1578:28.3603 1649:7.0900998 1670:7.0900998 1694:14.1802 1703:7.0900998 1717:7.0900998 1738:7.0900998 1756:7.0900998 1814:7.0900998 1819:7.0900998 1844:7.0900998 1847:7.0900998 1896:7.0900998 1968:7.0900998 1988:7.0900998 1995:7.0900998 2045:7.0900998 2049:7.0900998 2092:7.0900998 2110:7.0900998 2119:7.0900998 2133:7.0900998 2153:14.1802 2193:7.0900998 2223:7.0900998 2242:7.0900998 2259:7.0900998 2267:14.1802 2291:7.0900998 2297:14.1802 2302:28.3603 2319:7.0900998 2336:7.0900998 2394:7.0900998 2404:56.7206 2426:14.1802 2473:7.0900998 2485:28.3603 2501:14.1802 2507:7.0900998 2611:21.270201 2648:14.1802 2678:28.3603 2694:14.1802 2709:7.0900998 2723:7.0900998 2728:7.0900998 2741:7.0900998 2745:7.0900998 2766:7.0900998 2777:28.3603 2790:7.0900998 2827:7.0900998 2835:28.3603 2840:49.630501 2875:7.0900998 2879:21.270201 2936:42.540501 2944:7.0900998 2948:21.270201 2957:7.0900998 2989:7.0900998 3001:7.0900998 3017:14.1802 3018:7.0900998 3024:21.270201 3081:7.0900998 3085:7.0900998 3114:7.0900998 3124:7.0900998 3167:14.1802 3208:7.0900998 3226:7.0900998 3343:7.0900998 3354:7.0900998 3368:7.0900998 3390:7.0900998 3421:7.0900998 3439:7.0900998 3446:14.1802 3458:14.1802 3470:7.0900998 3476:7.0900998 3494:14.1802 3531:7.0900998 # seizures/00002318_s04.txt
-4.0001136616674460590691031480759e-05 40:7.0900998 83:7.0900998 145:7.0900998 408:7.0900998 420:7.0900998 430:28.3603 432:7.0900998 497:7.0900998 591:7.0900998 628:14.1802 639:7.0900998 661:7.0900998 722:7.0900998 751:7.0900998 771:7.0900998 820:7.0900998 865:7.0900998 976:7.0900998 1004:7.0900998 1065:14.1802 1066:7.0900998 1079:7.0900998 1123:7.0900998 1132:7.0900998 1157:14.1802 1208:7.0900998 1213:7.0900998 1240:35.450401 1264:7.0900998 1312:7.0900998 1314:7.0900998 1330:7.0900998 1414:7.0900998 1415:14.1802 1479:7.0900998 1493:14.1802 1510:7.0900998 1516:14.1802 1524:7.0900998 1525:7.0900998 1527:7.0900998 1532:7.0900998 1617:7.0900998 1634:28.3603 1670:7.0900998 1675:7.0900998 1738:7.0900998 1744:7.0900998 1778:7.0900998 1875:7.0900998 1911:14.1802 1961:7.0900998 2036:14.1802 2045:7.0900998 2049:7.0900998 2153:7.0900998 2198:7.0900998 2261:7.0900998 2267:7.0900998 2276:7.0900998 2291:14.1802 2380:7.0900998 2393:7.0900998 2397:7.0900998 2404:14.1802 2409:14.1802 2426:7.0900998 2428:14.1802 2473:7.0900998 2477:7.0900998 2492:14.1802 2636:14.1802 2678:7.0900998 2694:7.0900998 2713:7.0900998 2720:7.0900998 2777:14.1802 2835:7.0900998 2840:7.0900998 2852:7.0900998 2868:7.0900998 2879:21.270201 2906:7.0900998 2916:7.0900998 2948:14.1802 2970:7.0900998 2974:7.0900998 2975:7.0900998 3015:7.0900998 3019:7.0900998 3053:7.0900998 3091:7.0900998 3124:7.0900998 3157:7.0900998 3191:35.450401 3368:7.0900998 3388:7.0900998 3458:14.1802 3461:7.0900998 # none/00000273_s09.txt
6.3203817971988331212568335004676e-05 40:7.0900998 51:7.0900998 154:7.0900998 169:7.0900998 408:21.270201 430:14.1802 442:14.1802 516:7.0900998 527:21.270201 542:7.0900998 550:7.0900998 569:14.1802 585:7.0900998 628:7.0900998 669:7.0900998 682:7.0900998 807:21.270201 813:7.0900998 865:7.0900998 906:7.0900998 945:21.270201 954:7.0900998 976:14.1802 979:7.0900998 1015:7.0900998 1079:7.0900998 1110:7.0900998 1117:7.0900998 1139:21.270201 1175:7.0900998 1208:7.0900998 1218:7.0900998 1240:21.270201 1253:7.0900998 1264:14.1802 1356:14.1802 1359:7.0900998 1392:7.0900998 1478:35.450401 1516:7.0900998 1531:7.0900998 1622:7.0900998 1703:14.1802 1738:7.0900998 1744:14.1802 1747:7.0900998 1750:7.0900998 1795:7.0900998 1814:7.0900998 1865:7.0900998 1872:7.0900998 1911:14.1802 1914:7.0900998 1918:14.1802 2049:7.0900998 2083:7.0900998 2084:7.0900998 2164:7.0900998 2252:7.0900998 2302:14.1802 2329:14.1802 2342:7.0900998 2394:21.270201 2404:14.1802 2426:7.0900998 2428:7.0900998 2453:14.1802 2473:7.0900998 2479:7.0900998 2507:7.0900998 2571:14.1802 2574:7.0900998 2649:7.0900998 2658:7.0900998 2661:7.0900998 2668:7.0900998 2678:42.540501 2694:35.450401 2728:7.0900998 2760:7.0900998 2766:14.1802 2777:7.0900998 2797:7.0900998 2804:7.0900998 2833:7.0900998 2835:14.1802 2840:42.540501 2879:7.0900998 2882:7.0900998 2912:21.270201 2918:7.0900998 2936:7.0900998 2948:21.270201 2973:7.0900998 3010:7.0900998 3017:7.0900998 3019:7.0900998 3039:14.1802 3055:7.0900998 3124:7.0900998 3149:7.0900998 3152:7.0900998 3167:21.270201 3216:14.1802 3226:7.0900998 3307:7.0900998 3368:7.0900998 3446:7.0900998 3458:21.270201 3470:7.0900998 # seizures/00000447_s01.txt
-5.4138912100803633100330747307538e-05 40:7.0900998 408:7.0900998 575:14.1802 639:7.0900998 661:7.0900998 774:14.1802 813:7.0900998 821:7.0900998 865:14.1802 954:21.270201 976:14.1802 1062:21.270201 1068:7.0900998 1079:7.0900998 1118:21.270201 1121:7.0900998 1208:7.0900998 1218:7.0900998 1240:21.270201 1253:7.0900998 1264:7.0900998 1322:7.0900998 1347:7.0900998 1352:14.1802 1366:7.0900998 1420:7.0900998 1517:7.0900998 1558:7.0900998 1591:14.1802 1634:14.1802 1738:7.0900998 1754:7.0900998 1814:7.0900998 1911:14.1802 2049:7.0900998 2067:7.0900998 2164:7.0900998 2201:7.0900998 2267:7.0900998 2297:7.0900998 2319:7.0900998 2336:7.0900998 2404:7.0900998 2426:7.0900998 2442:7.0900998 2473:7.0900998 2492:7.0900998 2518:7.0900998 2613:7.0900998 2645:14.1802 2677:7.0900998 2678:7.0900998 2777:14.1802 2840:7.0900998 2882:21.270201 2886:7.0900998 2936:7.0900998 2948:21.270201 2997:7.0900998 3019:7.0900998 3124:7.0900998 3158:7.0900998 3198:14.1802 3226:7.0900998 3253:7.0900998 3368:7.0900998 3421:7.0900998 3446:14.1802 # none/00002201_s06.txt
6.3203817971988331212568335004676e-05 40:7.0900998 61:7.0900998 308:7.0900998 323:7.0900998 408:7.0900998 430:28.3603 550:7.0900998 586:7.0900998 628:7.0900998 639:7.0900998 722:7.0900998 807:7.0900998 821:7.0900998 824:7.0900998 865:21.270201 906:7.0900998 916:7.0900998 938:14.1802 976:7.0900998 1054:7.0900998 1079:7.0900998 1105:7.0900998 1117:7.0900998 1121:7.0900998 1125:7.0900998 1149:7.0900998 1154:7.0900998 1175:7.0900998 1198:7.0900998 1208:7.0900998 1213:7.0900998 1240:28.3603 1253:7.0900998 1264:7.0900998 1314:7.0900998 1316:7.0900998 1317:7.0900998 1320:21.270201 1352:14.1802 1439:14.1802 1493:7.0900998 1522:14.1802 1535:7.0900998 1557:14.1802 1634:21.270201 1670:7.0900998 1694:7.0900998 1703:7.0900998 1711:7.0900998 1738:7.0900998 1814:7.0900998 1874:7.0900998 1911:35.450401 1959:7.0900998 2045:7.0900998 2049:7.0900998 2141:14.1802 2267:7.0900998 2347:7.0900998 2394:7.0900998 2404:28.3603 2426:14.1802 2453:14.1802 2462:7.0900998 2463:7.0900998 2473:7.0900998 2491:7.0900998 2492:7.0900998 2500:7.0900998 2507:7.0900998 2574:7.0900998 2582:14.1802 2648:7.0900998 2678:7.0900998 2689:7.0900998 2694:14.1802 2701:7.0900998 2710:7.0900998 2730:7.0900998 2766:7.0900998 2767:7.0900998 2777:21.270201 2816:7.0900998 2831:7.0900998 2840:21.270201 2879:7.0900998 2974:21.270201 2997:7.0900998 3010:14.1802 3019:7.0900998 3027:7.0900998 3039:14.1802 3072:7.0900998 3124:7.0900998 3153:7.0900998 3198:7.0900998 3216:7.0900998 3358:7.0900998 3368:7.0900998 3421:7.0900998 3458:7.0900998 3470:7.0900998 # seizures/00000078_s05.txt
-6.3203817971988331212568335004676e-05 10:7.0900998 25:42.540501 40:7.0900998 83:7.0900998 102:21.270201 111:7.0900998 118:7.0900998 119:7.0900998 133:7.0900998 183:28.3603 238:7.0900998 252:21.270201 253:14.1802 254:7.0900998 259:7.0900998 261:14.1802 376:7.0900998 403:7.0900998 408:14.1802 430:42.540501 442:7.0900998 463:7.0900998 487:7.0900998 516:7.0900998 527:35.450401 586:7.0900998 595:7.0900998 596:7.0900998 628:7.0900998 630:7.0900998 639:14.1802 659:7.0900998 661:7.0900998 666:14.1802 677:7.0900998 680:7.0900998 691:14.1802 694:14.1802 717:7.0900998 722:14.1802 751:7.0900998 753:7.0900998 819:7.0900998 821:7.0900998 861:14.1802 865:35.450401 870:14.1802 884:7.0900998 900:7.0900998 916:21.270201 945:7.0900998 951:14.1802 964:14.1802 976:14.1802 1065:21.270201 1079:14.1802 1116:7.0900998 1121:7.0900998 1138:7.0900998 1166:7.0900998 1196:7.0900998 1205:7.0900998 1208:7.0900998 1213:7.0900998 1226:7.0900998 1240:49.630501 1253:7.0900998 1264:7.0900998 1283:7.0900998 1297:7.0900998 1320:7.0900998 1340:7.0900998 1399:7.0900998 1435:14.1802 1478:7.0900998 1517:7.0900998 1522:7.0900998 1574:7.0900998 1643:7.0900998 1670:14.1802 1694:7.0900998 1711:7.0900998 1738:7.0900998 1744:21.270201 1763:7.0900998 1776:7.0900998 1814:7.0900998 1852:7.0900998 1865:7.0900998 1879:7.0900998 1889:7.0900998 1911:35.450401 1959:14.1802 1965:7.0900998 1972:7.0900998 2049:7.0900998 2052:7.0900998 2133:21.270201 2141:21.270201 2142:14.1802 2144:7.0900998 2145:7.0900998 2153:7.0900998 2252:7.0900998 2267:7.0900998 2291:7.0900998 2297:7.0900998 2298:56.7206 2302:7.0900998 2304:7.0900998 2319:7.0900998 2336:7.0900998 2347:7.0900998 2386:7.0900998 2397:7.0900998 2404:63.810699 2409:28.3603 2426:14.1802 2432:7.0900998 2453:7.0900998 2459:7.0900998 2462:7.0900998 2473:7.0900998 2486:7.0900998 2511:14.1802 2562:7.0900998 2579:7.0900998 2582:7.0900998 2611:7.0900998 2636:7.0900998 2658:7.0900998 2671:7.0900998 2678:63.810699 2694:21.270201 2701:14.1802 2710:7.0900998 2712:7.0900998 2724:7.0900998 2728:7.0900998 2742:7.0900998 2766:7.0900998 2767:7.0900998 2777:85.080902 2831:28.3603 2834:14.1802 2835:14.1802 2840:70.900803 2879:70.900803 2893:7.0900998 2899:7.0900998 2910:7.0900998 2936:7.0900998 2943:7.0900998 2948:35.450401 2973:14.1802 2997:35.450401 3019:7.0900998 3024:7.0900998 3037:7.0900998 3039:7.0900998 3055:7.0900998 3118:7.0900998 3124:7.0900998 3149:7.0900998 3167:42.540501 3179:14.1802 3226:14.1802 3244:14.1802 3261:28.3603 3268:21.270201 3280:14.1802 3308:7.0900998 3358:7.0900998 3368:7.0900998 3409:7.0900998 3412:7.0900998 3421:7.0900998 3446:7.0900998 3458:92.170998 3470:7.0900998 3474:7.0900998 3494:7.0900998 # none/00001600_s03.txt
-6.2938372067455823936563130693855e-05 7:7.0900998 12:28.3603 13:7.0900998 14:14.1802 17:7.0900998 25:14.1802 32:28.3603 102:7.0900998 111:7.0900998 119:42.540501 162:14.1802 180:14.1802 203:7.0900998 210:14.1802 213:7.0900998 220:14.1802 238:7.0900998 260:7.0900998 261:14.1802 263:14.1802 272:7.0900998 277:35.450401 284:7.0900998 286:7.0900998 289:7.0900998 315:14.1802 323:7.0900998 430:56.7206 453:7.0900998 463:7.0900998 496:7.0900998 516:14.1802 523:7.0900998 550:35.450401 574:7.0900998 579:7.0900998 612:7.0900998 620:7.0900998 630:7.0900998 637:14.1802 639:56.7206 662:7.0900998 666:7.0900998 717:7.0900998 722:7.0900998 746:7.0900998 776:7.0900998 820:7.0900998 821:7.0900998 861:7.0900998 862:7.0900998 865:7.0900998 900:21.270201 909:7.0900998 910:7.0900998 927:7.0900998 951:7.0900998 997:7.0900998 1028:7.0900998 1032:7.0900998 1045:14.1802 1049:7.0900998 1062:35.450401 1065:63.810699 1079:7.0900998 1089:7.0900998 1125:7.0900998 1202:7.0900998 1205:14.1802 1213:7.0900998 1240:35.450401 1248:7.0900998 1253:21.270201 1264:21.270201 1283:7.0900998 1288:7.0900998 1297:7.0900998 1305:7.0900998 1320:21.270201 1351:7.0900998 1354:7.0900998 1358:7.0900998 1391:7.0900998 1399:7.0900998 1406:14.1802 1420:7.0900998 1443:7.0900998 1450:7.0900998 1478:21.270201 1484:7.0900998 1502:7.0900998 1516:7.0900998 1531:7.0900998 1548:7.0900998 1607:7.0900998 1610:7.0900998 1620:7.0900998 1634:7.0900998 1642:7.0900998 1649:14.1802 1668:7.0900998 1670:7.0900998 1690:7.0900998 1707:14.1802 1711:7.0900998 1716:7.0900998 1738:7.0900998 1739:7.0900998 1744:49.630501 1755:14.1802 1784:7.0900998 1795:7.0900998 1814:7.0900998 1852:7.0900998 1857:14.1802 1860:7.0900998 1897:7.0900998 1899:7.0900998 1911:56.7206 1934:7.0900998 1968:14.1802 1983:7.0900998 1992:7.0900998 2002:7.0900998 2014:7.0900998 2018:7.0900998 2036:7.0900998 2049:7.0900998 2057:14.1802 2133:14.1802 2141:14.1802 2152:14.1802 2153:7.0900998 2160:28.3603 2232:7.0900998 2269:7.0900998 2282:21.270201 2291:35.450401 2302:7.0900998 2315:7.0900998 2336:14.1802 2346:7.0900998 2347:7.0900998 2404:92.170998 2409:21.270201 2426:7.0900998 2450:14.1802 2472:7.0900998 2473:7.0900998 2497:35.450401 2500:7.0900998 2511:14.1802 2555:7.0900998 2578:7.0900998 2582:7.0900998 2611:7.0900998 2630:7.0900998 2642:14.1802 2675:14.1802 2678:70.900803 2694:42.540501 2701:7.0900998 2724:28.3603 2730:7.0900998 2762:14.1802 2767:42.540501 2777:14.1802 2791:21.270201 2831:14.1802 2834:21.270201 2835:14.1802 2840:77.990799 2855:14.1802 2879:49.630501 2899:7.0900998 2925:14.1802 2936:56.7206 2948:56.7206 2954:7.0900998 2969:7.0900998 2980:7.0900998 2988:14.1802 2992:7.0900998 2995:7.0900998 2997:21.270201 3001:7.0900998 3010:7.0900998 3017:14.1802 3019:7.0900998 3021:14.1802 3124:7.0900998 3131:7.0900998 3138:14.1802 3151:14.1802 3160:7.0900998 3164:7.0900998 3167:56.7206 3198:21.270201 3226:56.7206 3232:7.0900998 3261:7.0900998 3268:14.1802 3274:21.270201 3343:7.0900998 3354:7.0900998 3358:7.0900998 3368:14.1802 3413:7.0900998 3421:14.1802 3437:14.1802 3446:28.3603 3458:56.7206 3470:21.270201 3474:21.270201 3478:7.0900998 3494:14.1802 3507:7.0900998 # none/00000303_s03.txt
2.9989506162179009279389156616968e-06 4:7.0900998 7:7.0900998 40:7.0900998 94:7.0900998 186:7.0900998 213:7.0900998 217:7.0900998 233:7.0900998 408:7.0900998 410:7.0900998 422:7.0900998 430:28.3603 442:14.1802 516:21.270201 523:7.0900998 528:7.0900998 550:7.0900998 556:14.1802 579:28.3603 594:7.0900998 598:7.0900998 637:7.0900998 639:14.1802 650:7.0900998 682:14.1802 774:14.1802 789:7.0900998 813:14.1802 861:7.0900998 865:14.1802 945:14.1802 948:7.0900998 954:21.270201 966:7.0900998 1045:14.1802 1062:28.3603 1079:7.0900998 1118:49.630501 1175:7.0900998 1208:7.0900998 1213:14.1802 1218:14.1802 1253:7.0900998 1264:7.0900998 1268:7.0900998 1270:28.3603 1286:28.3603 1317:14.1802 1326:7.0900998 1347:7.0900998 1359:7.0900998 1367:7.0900998 1445:14.1802 1478:42.540501 1493:7.0900998 1516:14.1802 1554:14.1802 1585:7.0900998 1634:42.540501 1652:7.0900998 1694:7.0900998 1703:21.270201 1738:7.0900998 1747:7.0900998 1754:14.1802 1790:7.0900998 1814:7.0900998 1899:7.0900998 1905:7.0900998 1911:77.990799 1915:7.0900998 1959:7.0900998 1987:7.0900998 2049:7.0900998 2077:7.0900998 2078:7.0900998 2097:7.0900998 2110:7.0900998 2119:7.0900998 2124:7.0900998 2127:7.0900998 2164:14.1802 2204:7.0900998 2256:7.0900998 2290:7.0900998 2291:35.450401 2317:14.1802 2326:14.1802 2346:56.7206 2394:7.0900998 2404:7.0900998 2426:14.1802 2445:7.0900998 2453:7.0900998 2489:7.0900998 2505:7.0900998 2507:7.0900998 2559:7.0900998 2583:21.270201 2678:49.630501 2694:35.450401 2701:7.0900998 2740:14.1802 2745:7.0900998 2759:7.0900998 2766:7.0900998 2767:14.1802 2779:7.0900998 2840:42.540501 2875:14.1802 2882:21.270201 2918:7.0900998 2945:7.0900998 2948:42.540501 2952:7.0900998 3019:7.0900998 3027:14.1802 3039:7.0900998 3124:7.0900998 3149:7.0900998 3166:7.0900998 3167:35.450401 3198:7.0900998 3226:7.0900998 3409:7.0900998 3458:7.0900998 3494:14.1802 # seizures/00001217_s01.txt
6.3203817971988331212568335004676e-05 7:7.0900998 40:7.0900998 368:7.0900998 408:7.0900998 430:21.270201 442:7.0900998 454:7.0900998 487:7.0900998 516:7.0900998 527:7.0900998 595:7.0900998 639:7.0900998 694:7.0900998 699:7.0900998 722:7.0900998 733:14.1802 740:7.0900998 774:7.0900998 821:7.0900998 865:7.0900998 908:7.0900998 954:7.0900998 976:7.0900998 1062:7.0900998 1079:7.0900998 1121:7.0900998 1157:7.0900998 1198:7.0900998 1208:7.0900998 1240:35.450401 1253:7.0900998 1264:7.0900998 1279:7.0900998 1322:7.0900998 1351:14.1802 1352:7.0900998 1415:14.1802 1420:7.0900998 1478:14.1802 1516:7.0900998 1517:14.1802 1625:7.0900998 1670:7.0900998 1694:7.0900998 1703:7.0900998 1716:7.0900998 1738:7.0900998 1744:7.0900998 1747:7.0900998 1814:7.0900998 1865:7.0900998 1874:7.0900998 1911:56.7206 1987:7.0900998 2036:7.0900998 2049:7.0900998 2084:7.0900998 2141:7.0900998 2267:14.1802 2297:7.0900998 2298:14.1802 2302:7.0900998 2342:7.0900998 2404:14.1802 2426:14.1802 2453:14.1802 2473:7.0900998 2501:7.0900998 2507:7.0900998 2574:7.0900998 2582:14.1802 2592:7.0900998 2636:7.0900998 2645:14.1802 2678:28.3603 2694:21.270201 2745:7.0900998 2766:21.270201 2777:7.0900998 2816:7.0900998 2831:14.1802 2834:14.1802 2879:42.540501 2882:7.0900998 2936:35.450401 2943:7.0900998 2948:14.1802 2952:7.0900998 2974:7.0900998 3001:7.0900998 3017:7.0900998 3019:7.0900998 3039:21.270201 3091:7.0900998 3124:7.0900998 3167:28.3603 3198:7.0900998 3226:7.0900998 3247:7.0900998 3252:7.0900998 3261:7.0900998 3268:14.1802 3326:14.1802 3368:7.0900998 3403:7.0900998 3413:14.1802 3421:7.0900998 3426:7.0900998 3458:56.7206 3463:7.0900998 3470:14.1802 3529:7.0900998 # seizures/00000327_s03.txt
6.3203817971988331212568335004676e-05 40:7.0900998 111:7.0900998 112:7.0900998 154:7.0900998 171:7.0900998 408:14.1802 430:14.1802 442:14.1802 472:7.0900998 516:7.0900998 527:7.0900998 550:7.0900998 563:7.0900998 570:7.0900998 579:7.0900998 598:7.0900998 610:7.0900998 639:7.0900998 661:7.0900998 662:7.0900998 682:7.0900998 726:7.0900998 807:7.0900998 813:7.0900998 865:7.0900998 888:7.0900998 945:7.0900998 951:7.0900998 976:7.0900998 1053:7.0900998 1079:7.0900998 1089:21.270201 1104:7.0900998 1117:7.0900998 1118:28.3603 1121:7.0900998 1125:7.0900998 1139:7.0900998 1151:7.0900998 1175:7.0900998 1208:14.1802 1218:7.0900998 1240:21.270201 1253:7.0900998 1264:14.1802 1297:7.0900998 1314:7.0900998 1326:7.0900998 1347:7.0900998 1352:14.1802 1356:7.0900998 1396:7.0900998 1413:7.0900998 1414:7.0900998 1445:7.0900998 1478:7.0900998 1481:7.0900998 1484:7.0900998 1522:14.1802 1554:21.270201 1703:7.0900998 1738:7.0900998 1744:7.0900998 1814:7.0900998 1827:7.0900998 1865:7.0900998 1896:7.0900998 1905:7.0900998 1935:7.0900998 1959:7.0900998 1965:7.0900998 2049:7.0900998 2133:7.0900998 2162:7.0900998 2164:28.3603 2167:7.0900998 2169:7.0900998 2252:7.0900998 2256:7.0900998 2259:7.0900998 2282:7.0900998 2319:7.0900998 2326:21.270201 2329:14.1802 2347:7.0900998 2392:7.0900998 2404:28.3603 2426:28.3603 2472:7.0900998 2473:7.0900998 2491:7.0900998 2500:7.0900998 2507:7.0900998 2558:7.0900998 2571:14.1802 2678:63.810699 2693:7.0900998 2694:7.0900998 2728:14.1802 2766:7.0900998 2827:7.0900998 2834:7.0900998 2835:28.3603 2840:56.7206 2879:7.0900998 2918:7.0900998 2936:7.0900998 2948:21.270201 2963:7.0900998 2990:7.0900998 2997:14.1802 3019:7.0900998 3046:7.0900998 3079:14.1802 3124:7.0900998 3149:7.0900998 3152:7.0900998 3167:7.0900998 3179:7.0900998 3216:42.540501 3244:28.3603 3321:7.0900998 3368:7.0900998 3421:7.0900998 3446:7.0900998 3458:21.270201 3470:21.270201 # seizures/00000075_s04.txt
2.1670832672020473672752638449879e-06 17:7.0900998 40:7.0900998 76:7.0900998 128:14.1802 186:7.0900998 193:7.0900998 238:7.0900998 252:7.0900998 408:14.1802 422:7.0900998 430:28.3603 442:28.3603 452:7.0900998 516:28.3603 527:14.1802 556:28.3603 594:7.0900998 639:7.0900998 658:7.0900998 736:21.270201 774:14.1802 813:14.1802 824:7.0900998 931:7.0900998 954:7.0900998 966:7.0900998 1006:7.0900998 1058:7.0900998 1062:14.1802 1079:7.0900998 1118:28.3603 1125:7.0900998 1139:28.3603 1149:7.0900998 1175:14.1802 1207:7.0900998 1208:7.0900998 1213:7.0900998 1218:14.1802 1240:7.0900998 1253:7.0900998 1264:14.1802 1270:21.270201 1320:21.270201 1338:7.0900998 1347:14.1802 1364:7.0900998 1415:7.0900998 1445:14.1802 1478:42.540501 1516:14.1802 1517:7.0900998 1522:56.7206 1533:21.270201 1585:14.1802 1634:70.900803 1694:14.1802 1703:28.3603 1738:7.0900998 1744:7.0900998 1747:7.0900998 1754:14.1802 1790:7.0900998 1814:7.0900998 1865:7.0900998 1899:7.0900998 1905:7.0900998 1911:134.7115 1965:7.0900998 1992:7.0900998 2033:7.0900998 2049:14.1802 2097:28.3603 2110:7.0900998 2127:35.450401 2133:7.0900998 2141:7.0900998 2194:7.0900998 2204:7.0900998 2256:7.0900998 2291:7.0900998 2302:7.0900998 2346:63.810699 2404:7.0900998 2426:28.3603 2428:21.270201 2453:14.1802 2472:7.0900998 2482:14.1802 2489:7.0900998 2507:28.3603 2558:7.0900998 2579:7.0900998 2583:14.1802 2658:7.0900998 2678:28.3603 2694:21.270201 2730:7.0900998 2754:7.0900998 2766:14.1802 2767:7.0900998 2777:28.3603 2814:7.0900998 2827:7.0900998 2840:35.450401 2875:21.270201 2879:21.270201 2882:7.0900998 2918:7.0900998 2936:7.0900998 2948:56.7206 2957:7.0900998 3019:7.0900998 3039:14.1802 3053:7.0900998 3076:7.0900998 3124:7.0900998 3149:7.0900998 3179:7.0900998 3198:14.1802 3226:7.0900998 3409:7.0900998 3458:28.3603 3459:7.0900998 3464:7.0900998 # seizures/00005029_s01.txt
-6.3203817971988331212568335004676e-05 32:7.0900998 40:7.0900998 133:7.0900998 185:7.0900998 408:7.0900998 430:14.1802 442:7.0900998 516:28.3603 527:7.0900998 550:7.0900998 617:7.0900998 639:7.0900998 726:7.0900998 774:14.1802 813:7.0900998 865:7.0900998 908:7.0900998 945:7.0900998 951:14.1802 976:14.1802 979:7.0900998 1058:7.0900998 1079:7.0900998 1085:7.0900998 1089:14.1802 1118:42.540501 1121:7.0900998 1125:7.0900998 1139:42.540501 1144:28.3603 1150:7.0900998 1175:7.0900998 1178:7.0900998 1208:7.0900998 1218:7.0900998 1240:21.270201 1243:7.0900998 1253:21.270201 1264:21.270201 1270:21.270201 1283:7.0900998 1288:7.0900998 1317:7.0900998 1320:35.450401 1338:7.0900998 1369:7.0900998 1375:7.0900998 1445:14.1802 1516:14.1802 1554:21.270201 1585:7.0900998 1625:7.0900998 1649:7.0900998 1653:7.0900998 1668:7.0900998 1694:14.1802 1703:14.1802 1721:7.0900998 1738:7.0900998 1747:21.270201 1754:7.0900998 1814:7.0900998 1865:7.0900998 1965:7.0900998 1988:14.1802 2049:21.270201 2118:7.0900998 2119:7.0900998 2127:21.270201 2133:7.0900998 2188:7.0900998 2212:7.0900998 2251:7.0900998 2256:7.0900998 2259:14.1802 2267:14.1802 2282:7.0900998 2291:14.1802 2297:7.0900998 2298:28.3603 2336:7.0900998 2342:7.0900998 2346:21.270201 2397:7.0900998 2426:14.1802 2428:49.630501 2453:14.1802 2473:7.0900998 2489:7.0900998 2507:14.1802 2558:7.0900998 2571:7.0900998 2578:14.1802 2581:7.0900998 2582:14.1802 2668:7.0900998 2678:7.0900998 2694:28.3603 2701:7.0900998 2762:7.0900998 2766:14.1802 2777:28.3603 2780:7.0900998 2804:7.0900998 2840:35.450401 2894:7.0900998 2902:7.0900998 2918:7.0900998 2923:7.0900998 2936:14.1802 2948:28.3603 2997:7.0900998 3016:7.0900998 3027:7.0900998 3039:14.1802 3055:7.0900998 3076:7.0900998 3124:7.0900998 3149:7.0900998 3179:7.0900998 3198:7.0900998 3368:14.1802 3409:7.0900998 3421:14.1802 3470:14.1802 # none/00003015_s04.txt
-6.3203817971988331212568335004676e-05 7:7.0900998 32:7.0900998 40:7.0900998 61:7.0900998 103:7.0900998 185:14.1802 238:7.0900998 250:7.0900998 408:14.1802 413:21.270201 422:7.0900998 430:7.0900998 442:21.270201 516:21.270201 528:14.1802 556:28.3603 563:7.0900998 572:7.0900998 579:7.0900998 610:21.270201 639:7.0900998 728:7.0900998 736:14.1802 774:14.1802 792:7.0900998 813:7.0900998 861:14.1802 945:7.0900998 951:7.0900998 966:7.0900998 1030:7.0900998 1058:7.0900998 1062:14.1802 1079:7.0900998 1118:14.1802 1125:7.0900998 1144:7.0900998 1148:7.0900998 1175:7.0900998 1208:7.0900998 1213:14.1802 1218:7.0900998 1240:14.1802 1253:7.0900998 1264:7.0900998 1270:21.270201 1290:7.0900998 1294:7.0900998 1347:7.0900998 1445:21.270201 1478:21.270201 1516:7.0900998 1522:7.0900998 1585:7.0900998 1634:49.630501 1668:7.0900998 1738:7.0900998 1754:21.270201 1814:7.0900998 1865:7.0900998 1882:7.0900998 1896:14.1802 1905:7.0900998 1911:28.3603 1918:7.0900998 1990:7.0900998 1992:7.0900998 2049:7.0900998 2067:7.0900998 2119:7.0900998 2127:21.270201 2141:14.1802 2256:14.1802 2259:7.0900998 2297:7.0900998 2346:42.540501 2394:7.0900998 2426:7.0900998 2428:14.1802 2489:14.1802 2507:7.0900998 2534:14.1802 2545:14.1802 2558:7.0900998 2582:7.0900998 2678:21.270201 2694:7.0900998 2701:14.1802 2766:7.0900998 2777:21.270201 2827:7.0900998 2840:21.270201 2918:7.0900998 2936:14.1802 2948:42.540501 3019:7.0900998 3053:7.0900998 3124:7.0900998 3149:7.0900998 3198:7.0900998 3253:7.0900998 3290:35.450401 3354:7.0900998 3409:7.0900998 3421:14.1802 3439:7.0900998 3459:35.450401 # none/00003282_s02.txt
-6.3203817971988331212568335004676e-05 32:7.0900998 40:7.0900998 138:7.0900998 153:14.1802 408:7.0900998 422:7.0900998 430:21.270201 442:14.1802 487:7.0900998 516:21.270201 527:35.450401 528:7.0900998 550:7.0900998 556:7.0900998 585:7.0900998 610:7.0900998 628:7.0900998 646:7.0900998 677:7.0900998 682:21.270201 774:28.3603 785:7.0900998 813:7.0900998 916:7.0900998 945:7.0900998 951:7.0900998 966:7.0900998 1062:7.0900998 1079:7.0900998 1089:7.0900998 1090:7.0900998 1118:14.1802 1125:7.0900998 1139:28.3603 1149:7.0900998 1175:7.0900998 1208:7.0900998 1213:14.1802 1218:7.0900998 1240:7.0900998 1253:7.0900998 1264:14.1802 1270:21.270201 1320:21.270201 1322:7.0900998 1328:7.0900998 1347:7.0900998 1352:7.0900998 1359:7.0900998 1367:21.270201 1392:7.0900998 1415:7.0900998 1445:21.270201 1478:14.1802 1506:7.0900998 1509:7.0900998 1516:21.270201 1517:35.450401 1578:7.0900998 1585:7.0900998 1703:21.270201 1738:7.0900998 1747:14.1802 1754:7.0900998 1795:21.270201 1814:7.0900998 1865:7.0900998 1911:56.7206 1988:7.0900998 1992:7.0900998 2049:21.270201 2098:7.0900998 2133:7.0900998 2267:14.1802 2282:7.0900998 2329:7.0900998 2336:7.0900998 2346:28.3603 2404:7.0900998 2426:7.0900998 2428:14.1802 2438:7.0900998 2482:14.1802 2489:7.0900998 2507:7.0900998 2516:7.0900998 2558:7.0900998 2629:14.1802 2678:14.1802 2694:21.270201 2709:7.0900998 2730:14.1802 2761:7.0900998 2762:7.0900998 2766:7.0900998 2805:14.1802 2835:7.0900998 2840:28.3603 2847:7.0900998 2872:7.0900998 2875:7.0900998 2879:7.0900998 2918:7.0900998 2936:35.450401 2948:28.3603 2963:7.0900998 2997:7.0900998 3001:7.0900998 3002:7.0900998 3016:7.0900998 3019:7.0900998 3053:7.0900998 3076:7.0900998 3124:7.0900998 3149:7.0900998 3167:56.7206 3198:7.0900998 3219:7.0900998 3358:7.0900998 3409:7.0900998 3421:7.0900998 3458:21.270201 3470:7.0900998 # none/00001465_s02.txt
-2.3733770492427050071608876646856e-05 40:7.0900998 57:7.0900998 154:14.1802 165:7.0900998 169:7.0900998 408:14.1802 430:14.1802 442:7.0900998 516:14.1802 527:7.0900998 550:7.0900998 563:7.0900998 610:21.270201 639:14.1802 682:7.0900998 717:7.0900998 813:14.1802 861:7.0900998 865:7.0900998 945:14.1802 954:7.0900998 976:7.0900998 1062:7.0900998 1079:7.0900998 1117:7.0900998 1118:21.270201 1139:14.1802 1175:7.0900998 1208:7.0900998 1218:14.1802 1240:28.3603 1253:7.0900998 1264:14.1802 1306:7.0900998 1320:7.0900998 1347:7.0900998 1356:14.1802 1415:7.0900998 1478:28.3603 1516:14.1802 1522:28.3603 1531:7.0900998 1554:14.1802 1589:7.0900998 1622:7.0900998 1634:42.540501 1636:7.0900998 1703:14.1802 1738:7.0900998 1814:7.0900998 1819:7.0900998 1865:7.0900998 1872:7.0900998 1911:35.450401 2007:7.0900998 2029:7.0900998 2033:28.3603 2049:7.0900998 2083:14.1802 2252:14.1802 2256:7.0900998 2259:7.0900998 2293:7.0900998 2329:7.0900998 2342:7.0900998 2346:28.3603 2347:7.0900998 2404:7.0900998 2426:21.270201 2473:7.0900998 2507:7.0900998 2571:14.1802 2649:7.0900998 2661:7.0900998 2668:7.0900998 2678:21.270201 2693:7.0900998 2694:28.3603 2760:7.0900998 2766:7.0900998 2767:7.0900998 2777:14.1802 2797:7.0900998 2804:7.0900998 2835:14.1802 2840:21.270201 2882:7.0900998 2918:7.0900998 2936:7.0900998 2948:49.630501 3019:7.0900998 3039:7.0900998 3051:7.0900998 3053:7.0900998 3055:7.0900998 3124:7.0900998 3152:7.0900998 3167:7.0900998 3198:14.1802 3226:14.1802 3368:7.0900998 3458:7.0900998 3459:7.0900998 3470:7.0900998 3480:7.0900998 # none/00003156_s01.txt
6.3203817971988331212568335004676e-05 32:7.0900998 40:7.0900998 189:7.0900998 282:7.0900998 357:7.0900998 408:7.0900998 430:7.0900998 442:7.0900998 487:7.0900998 516:7.0900998 527:56.7206 563:7.0900998 569:14.1802 585:7.0900998 610:7.0900998 628:14.1802 639:7.0900998 659:7.0900998 680:7.0900998 824:7.0900998 861:7.0900998 865:14.1802 951:14.1802 976:7.0900998 1062:7.0900998 1079:7.0900998 1085:7.0900998 1205:7.0900998 1213:21.270201 1218:7.0900998 1240:14.1802 1253:7.0900998 1264:21.270201 1270:28.3603 1317:7.0900998 1356:7.0900998 1392:7.0900998 1445:7.0900998 1478:14.1802 1517:21.270201 1634:21.270201 1670:7.0900998 1694:7.0900998 1703:7.0900998 1706:7.0900998 1747:7.0900998 1797:7.0900998 1799:7.0900998 1827:7.0900998 1872:7.0900998 1896:7.0900998 1911:63.810699 1921:7.0900998 1959:7.0900998 2033:7.0900998 2036:7.0900998 2049:7.0900998 2110:7.0900998 2259:7.0900998 2329:7.0900998 2346:7.0900998 2404:7.0900998 2426:7.0900998 2438:7.0900998 2453:7.0900998 2489:14.1802 2545:21.270201 2581:7.0900998 2678:7.0900998 2694:35.450401 2701:7.0900998 2760:7.0900998 2761:7.0900998 2766:7.0900998 2767:7.0900998 2777:14.1802 2827:7.0900998 2832:7.0900998 2835:7.0900998 2840:28.3603 2879:14.1802 2936:14.1802 2948:7.0900998 3010:7.0900998 3019:7.0900998 3027:7.0900998 3039:7.0900998 3053:7.0900998 3085:7.0900998 3114:7.0900998 3124:7.0900998 3154:7.0900998 3167:56.7206 3223:7.0900998 3226:7.0900998 3310:7.0900998 3421:7.0900998 3426:7.0900998 3446:14.1802 3458:14.1802 # seizures/00007935_s01.txt
6.3203817971988331212568335004676e-05 40:7.0900998 83:7.0900998 127:7.0900998 277:14.1802 403:7.0900998 408:7.0900998 430:28.3603 442:14.1802 463:7.0900998 487:7.0900998 598:7.0900998 631:7.0900998 639:7.0900998 661:7.0900998 665:14.1802 722:7.0900998 751:14.1802 769:7.0900998 807:21.270201 821:7.0900998 865:7.0900998 916:14.1802 944:7.0900998 951:7.0900998 954:7.0900998 976:7.0900998 986:7.0900998 1068:7.0900998 1078:7.0900998 1079:7.0900998 1105:7.0900998 1116:7.0900998 1121:7.0900998 1125:7.0900998 1161:7.0900998 1187:7.0900998 1208:7.0900998 1240:28.3603 1253:7.0900998 1264:7.0900998 1297:7.0900998 1317:14.1802 1320:14.1802 1376:7.0900998 1396:7.0900998 1397:7.0900998 1414:7.0900998 1435:7.0900998 1450:7.0900998 1478:7.0900998 1516:7.0900998 1517:7.0900998 1520:7.0900998 1554:14.1802 1586:14.1802 1668:14.1802 1670:7.0900998 1694:7.0900998 1738:7.0900998 1739:7.0900998 1744:7.0900998 1755:7.0900998 1768:7.0900998 1814:7.0900998 1911:7.0900998 1919:7.0900998 1992:7.0900998 2025:7.0900998 2049:7.0900998 2160:7.0900998 2164:7.0900998 2319:7.0900998 2346:7.0900998 2347:7.0900998 2394:14.1802 2397:7.0900998 2404:21.270201 2409:14.1802 2426:14.1802 2428:14.1802 2453:7.0900998 2473:7.0900998 2582:7.0900998 2678:28.3603 2683:7.0900998 2694:21.270201 2724:14.1802 2767:7.0900998 2777:14.1802 2833:7.0900998 2838:7.0900998 2840:28.3603 2875:7.0900998 2879:7.0900998 2882:7.0900998 2906:7.0900998 2914:7.0900998 2948:56.7206 2997:7.0900998 3018:7.0900998 3019:7.0900998 3027:14.1802 3047:7.0900998 3072:7.0900998 3116:7.0900998 3124:7.0900998 3167:7.0900998 3257:7.0900998 3268:14.1802 3307:7.0900998 3368:7.0900998 3421:14.1802 3439:7.0900998 # seizures/00000717_s04.txt
6.3203817971988331212568335004676e-05 40:7.0900998 154:7.0900998 169:7.0900998 365:7.0900998 408:21.270201 430:14.1802 508:14.1802 516:7.0900998 527:21.270201 618:7.0900998 682:7.0900998 774:7.0900998 807:7.0900998 813:7.0900998 820:7.0900998 861:7.0900998 865:7.0900998 976:21.270201 1079:7.0900998 1117:7.0900998 1121:7.0900998 1139:21.270201 1175:7.0900998 1205:14.1802 1208:7.0900998 1213:14.1802 1218:7.0900998 1240:49.630501 1253:7.0900998 1264:14.1802 1320:7.0900998 1326:7.0900998 1347:7.0900998 1356:7.0900998 1392:7.0900998 1424:7.0900998 1478:21.270201 1516:7.0900998 1522:7.0900998 1678:7.0900998 1694:14.1802 1703:14.1802 1738:7.0900998 1744:14.1802 1814:7.0900998 1865:7.0900998 1905:7.0900998 1911:14.1802 2049:7.0900998 2083:7.0900998 2084:14.1802 2252:7.0900998 2256:7.0900998 2259:14.1802 2297:7.0900998 2329:14.1802 2394:7.0900998 2404:28.3603 2426:7.0900998 2453:14.1802 2473:7.0900998 2507:7.0900998 2571:14.1802 2574:7.0900998 2658:7.0900998 2661:7.0900998 2668:7.0900998 2678:35.450401 2693:7.0900998 2694:7.0900998 2710:7.0900998 2728:14.1802 2730:7.0900998 2760:7.0900998 2766:7.0900998 2797:7.0900998 2835:14.1802 2840:28.3603 2912:7.0900998 2948:14.1802 2959:14.1802 3019:7.0900998 3039:14.1802 3055:7.0900998 3076:7.0900998 3124:7.0900998 3152:7.0900998 3167:35.450401 3226:21.270201 3348:7.0900998 3358:7.0900998 3368:7.0900998 3421:7.0900998 3446:14.1802 3458:7.0900998 3471:7.0900998 # seizures/00005770_s01.txt
6.3203817971988331212568335004676e-05 40:7.0900998 76:7.0900998 220:7.0900998 223:7.0900998 224:7.0900998 226:7.0900998 323:7.0900998 376:7.0900998 430:7.0900998 446:14.1802 462:7.0900998 463:7.0900998 496:14.1802 550:7.0900998 558:7.0900998 571:7.0900998 606:7.0900998 649:7.0900998 655:7.0900998 659:7.0900998 725:7.0900998 751:7.0900998 821:7.0900998 824:7.0900998 861:7.0900998 865:21.270201 916:7.0900998 951:14.1802 976:7.0900998 1028:7.0900998 1030:7.0900998 1032:7.0900998 1062:7.0900998 1079:7.0900998 1090:21.270201 1105:7.0900998 1116:14.1802 1117:7.0900998 1208:14.1802 1240:21.270201 1253:7.0900998 1264:35.450401 1314:7.0900998 1320:14.1802 1383:7.0900998 1478:7.0900998 1581:7.0900998 1617:7.0900998 1622:7.0900998 1649:7.0900998 1711:7.0900998 1738:7.0900998 1744:7.0900998 1781:14.1802 1791:14.1802 1814:7.0900998 1844:14.1802 1865:7.0900998 1934:7.0900998 1959:14.1802 2010:7.0900998 2045:7.0900998 2049:7.0900998 2110:7.0900998 2133:14.1802 2152:14.1802 2267:7.0900998 2292:7.0900998 2310:7.0900998 2319:14.1802 2326:7.0900998 2393:7.0900998 2394:7.0900998 2397:7.0900998 2404:28.3603 2423:7.0900998 2426:7.0900998 2473:7.0900998 2546:7.0900998 2550:7.0900998 2552:7.0900998 2559:7.0900998 2567:7.0900998 2582:7.0900998 2630:7.0900998 2649:7.0900998 2678:14.1802 2694:7.0900998 2706:7.0900998 2712:7.0900998 2728:7.0900998 2767:7.0900998 2777:14.1802 2814:7.0900998 2831:14.1802 2835:7.0900998 2840:77.990799 2850:7.0900998 2879:14.1802 2899:7.0900998 2936:7.0900998 2996:7.0900998 2997:28.3603 3001:7.0900998 3019:7.0900998 3055:7.0900998 3059:14.1802 3105:7.0900998 3124:7.0900998 3152:14.1802 3161:7.0900998 3167:7.0900998 3215:7.0900998 3226:7.0900998 3247:7.0900998 3281:7.0900998 3286:14.1802 3339:14.1802 3343:7.0900998 3368:7.0900998 3409:7.0900998 3413:7.0900998 3421:21.270201 3458:21.270201 3504:7.0900998 # seizures/00000544_s09.txt
-6.3203817971988331212568335004676e-05 28:7.0900998 40:7.0900998 61:7.0900998 76:21.270201 83:14.1802 127:7.0900998 238:7.0900998 242:7.0900998 252:7.0900998 255:7.0900998 261:7.0900998 283:7.0900998 302:7.0900998 310:7.0900998 344:7.0900998 408:7.0900998 409:7.0900998 439:7.0900998 442:35.450401 463:14.1802 550:14.1802 639:14.1802 658:7.0900998 661:14.1802 664:7.0900998 682:21.270201 699:14.1802 722:7.0900998 736:14.1802 821:7.0900998 865:21.270201 880:7.0900998 910:7.0900998 945:14.1802 951:21.270201 976:7.0900998 1062:7.0900998 1066:7.0900998 1068:7.0900998 1079:7.0900998 1085:7.0900998 1104:7.0900998 1139:7.0900998 1208:7.0900998 1212:14.1802 1240:28.3603 1253:14.1802 1264:35.450401 1270:7.0900998 1317:7.0900998 1320:14.1802 1351:7.0900998 1377:7.0900998 1385:7.0900998 1435:7.0900998 1478:7.0900998 1484:7.0900998 1541:7.0900998 1622:14.1802 1668:14.1802 1711:28.3603 1738:7.0900998 1739:7.0900998 1747:14.1802 1750:14.1802 1781:14.1802 1795:14.1802 1814:7.0900998 1816:14.1802 1844:7.0900998 1845:7.0900998 1889:7.0900998 1896:7.0900998 1905:7.0900998 1911:42.540501 1919:7.0900998 1950:7.0900998 1969:7.0900998 2025:7.0900998 2049:7.0900998 2110:7.0900998 2133:14.1802 2141:21.270201 2142:14.1802 2267:85.080902 2280:14.1802 2302:35.450401 2342:28.3603 2351:7.0900998 2404:35.450401 2409:7.0900998 2426:7.0900998 2428:7.0900998 2442:7.0900998 2459:7.0900998 2473:7.0900998 2486:7.0900998 2492:7.0900998 2567:7.0900998 2574:7.0900998 2581:7.0900998 2582:7.0900998 2649:14.1802 2654:7.0900998 2661:7.0900998 2678:14.1802 2685:7.0900998 2694:21.270201 2712:7.0900998 2745:7.0900998 2746:7.0900998 2767:7.0900998 2777:49.630501 2827:14.1802 2832:7.0900998 2840:141.8015 2854:7.0900998 2871:7.0900998 2889:7.0900998 2948:7.0900998 2952:7.0900998 3019:7.0900998 3027:7.0900998 3040:7.0900998 3068:7.0900998 3124:7.0900998 3131:7.0900998 3149:14.1802 3167:49.630501 3173:7.0900998 3177:7.0900998 3198:7.0900998 3226:7.0900998 3277:7.0900998 3312:7.0900998 3326:7.0900998 3339:7.0900998 3343:7.0900998 3354:7.0900998 3365:7.0900998 3368:14.1802 3410:21.270201 3421:14.1802 # none/00001789_s05.txt
6.3203817971988331212568335004676e-05 40:7.0900998 137:7.0900998 154:7.0900998 165:7.0900998 189:7.0900998 203:7.0900998 233:7.0900998 263:7.0900998 323:7.0900998 408:14.1802 430:14.1802 442:14.1802 475:7.0900998 505:7.0900998 516:7.0900998 521:7.0900998 527:7.0900998 550:14.1802 563:7.0900998 579:7.0900998 598:7.0900998 637:7.0900998 639:21.270201 662:7.0900998 682:7.0900998 691:21.270201 807:7.0900998 813:14.1802 836:7.0900998 837:7.0900998 861:21.270201 865:14.1802 885:7.0900998 945:21.270201 951:14.1802 976:14.1802 1015:7.0900998 1062:7.0900998 1078:7.0900998 1079:7.0900998 1117:7.0900998 1118:28.3603 1139:14.1802 1150:7.0900998 1175:7.0900998 1208:7.0900998 1218:14.1802 1240:35.450401 1253:7.0900998 1264:21.270201 1270:28.3603 1347:7.0900998 1356:7.0900998 1445:7.0900998 1478:14.1802 1516:7.0900998 1517:7.0900998 1522:28.3603 1531:7.0900998 1554:14.1802 1578:14.1802 1700:7.0900998 1703:21.270201 1738:7.0900998 1770:7.0900998 1778:7.0900998 1814:7.0900998 1899:7.0900998 1905:7.0900998 1968:7.0900998 2004:7.0900998 2007:7.0900998 2033:21.270201 2049:7.0900998 2083:7.0900998 2110:7.0900998 2133:7.0900998 2256:7.0900998 2259:7.0900998 2326:7.0900998 2329:7.0900998 2347:7.0900998 2360:7.0900998 2404:14.1802 2409:14.1802 2426:21.270201 2472:7.0900998 2473:7.0900998 2486:7.0900998 2501:7.0900998 2507:7.0900998 2537:21.270201 2571:14.1802 2592:7.0900998 2668:7.0900998 2671:7.0900998 2678:49.630501 2693:7.0900998 2694:21.270201 2701:7.0900998 2747:7.0900998 2760:7.0900998 2766:7.0900998 2767:7.0900998 2797:7.0900998 2835:28.3603 2840:35.450401 2879:21.270201 2918:7.0900998 2936:7.0900998 2948:56.7206 2961:7.0900998 2973:7.0900998 3019:7.0900998 3027:7.0900998 3046:14.1802 3055:7.0900998 3079:7.0900998 3124:7.0900998 3149:7.0900998 3152:7.0900998 3167:7.0900998 3216:14.1802 3226:14.1802 3309:7.0900998 3349:14.1802 3354:7.0900998 3368:7.0900998 3385:7.0900998 3434:7.0900998 3458:21.270201 3470:14.1802 3494:7.0900998 3526:7.0900998 3532:7.0900998 # seizures/00000691_s01.txt
-6.3203817971988331212568335004676e-05 40:7.0900998 213:7.0900998 387:7.0900998 408:14.1802 430:14.1802 442:7.0900998 472:14.1802 526:14.1802 527:7.0900998 550:7.0900998 628:28.3603 657:7.0900998 659:7.0900998 682:7.0900998 768:7.0900998 807:7.0900998 865:7.0900998 902:21.270201 945:7.0900998 951:21.270201 976:14.1802 999:14.1802 1049:7.0900998 1054:7.0900998 1079:7.0900998 1089:14.1802 1104:7.0900998 1117:7.0900998 1121:7.0900998 1139:14.1802 1172:7.0900998 1175:7.0900998 1213:21.270201 1240:49.630501 1253:7.0900998 1264:14.1802 1297:7.0900998 1306:7.0900998 1320:7.0900998 1352:56.7206 1392:7.0900998 1444:7.0900998 1445:7.0900998 1522:7.0900998 1703:7.0900998 1716:7.0900998 1738:7.0900998 1814:7.0900998 1865:7.0900998 1883:7.0900998 1905:7.0900998 2049:7.0900998 2110:7.0900998 2142:7.0900998 2148:7.0900998 2252:21.270201 2253:7.0900998 2259:28.3603 2282:7.0900998 2329:14.1802 2404:49.630501 2426:21.270201 2473:7.0900998 2507:7.0900998 2547:7.0900998 2571:14.1802 2601:7.0900998 2658:7.0900998 2661:7.0900998 2668:7.0900998 2678:28.3603 2710:7.0900998 2762:7.0900998 2766:7.0900998 2835:7.0900998 2840:28.3603 2918:7.0900998 2936:28.3603 2948:7.0900998 2963:7.0900998 2997:7.0900998 3017:21.270201 3019:7.0900998 3021:7.0900998 3055:7.0900998 3076:7.0900998 3124:7.0900998 3152:7.0900998 3167:7.0900998 3182:7.0900998 3349:21.270201 3358:7.0900998 3368:14.1802 3408:7.0900998 3421:7.0900998 3446:7.0900998 3458:7.0900998 3470:14.1802 # none/00000293_s06.txt
-6.3203817971988331212568335004676e-05 40:7.0900998 111:7.0900998 387:7.0900998 408:14.1802 430:28.3603 442:7.0900998 462:14.1802 463:7.0900998 527:7.0900998 570:7.0900998 579:14.1802 584:7.0900998 598:7.0900998 628:7.0900998 658:7.0900998 665:7.0900998 713:35.450401 820:14.1802 861:21.270201 865:7.0900998 885:7.0900998 902:7.0900998 945:7.0900998 976:28.3603 984:7.0900998 999:7.0900998 1079:7.0900998 1095:7.0900998 1104:7.0900998 1117:7.0900998 1118:14.1802 1121:7.0900998 1125:7.0900998 1139:7.0900998 1175:21.270201 1213:63.810699 1240:49.630501 1253:7.0900998 1264:14.1802 1306:7.0900998 1320:14.1802 1326:56.7206 1352:35.450401 1366:7.0900998 1392:7.0900998 1425:7.0900998 1450:7.0900998 1484:7.0900998 1610:7.0900998 1612:7.0900998 1703:7.0900998 1738:7.0900998 1814:7.0900998 1825:7.0900998 1896:14.1802 1899:7.0900998 1905:7.0900998 1911:7.0900998 1985:7.0900998 1987:7.0900998 2007:7.0900998 2049:7.0900998 2109:7.0900998 2110:21.270201 2152:7.0900998 2164:7.0900998 2167:7.0900998 2252:14.1802 2253:7.0900998 2259:14.1802 2302:7.0900998 2329:14.1802 2404:28.3603 2426:28.3603 2453:14.1802 2473:7.0900998 2507:21.270201 2571:14.1802 2592:7.0900998 2658:7.0900998 2661:7.0900998 2670:7.0900998 2678:49.630501 2710:7.0900998 2760:7.0900998 2766:21.270201 2827:21.270201 2835:14.1802 2840:7.0900998 2877:21.270201 2899:7.0900998 2918:7.0900998 2953:14.1802 3019:7.0900998 3021:35.450401 3039:14.1802 3049:7.0900998 3124:7.0900998 3152:7.0900998 3167:7.0900998 3176:7.0900998 3226:7.0900998 3252:7.0900998 3278:21.270201 3308:7.0900998 3349:14.1802 3358:7.0900998 3368:7.0900998 3421:7.0900998 3446:14.1802 3471:7.0900998 3481:14.1802 3495:7.0900998 3497:7.0900998 # none/00000721_s01.txt
-3.3305787521481702167808897074863e-05 40:7.0900998 380:7.0900998 408:14.1802 430:7.0900998 442:7.0900998 487:14.1802 593:7.0900998 594:7.0900998 639:7.0900998 655:7.0900998 661:7.0900998 684:7.0900998 728:7.0900998 751:7.0900998 811:14.1802 865:7.0900998 908:7.0900998 951:14.1802 954:7.0900998 976:7.0900998 1062:14.1802 1065:7.0900998 1079:7.0900998 1099:7.0900998 1205:21.270201 1208:7.0900998 1213:7.0900998 1240:28.3603 1253:7.0900998 1264:7.0900998 1420:7.0900998 1478:7.0900998 1538:7.0900998 1570:7.0900998 1622:7.0900998 1634:35.450401 1657:7.0900998 1703:7.0900998 1738:7.0900998 1744:7.0900998 1747:7.0900998 1814:7.0900998 1865:7.0900998 1905:7.0900998 1911:63.810699 2025:7.0900998 2036:7.0900998 2049:7.0900998 2074:7.0900998 2084:7.0900998 2097:7.0900998 2110:7.0900998 2143:7.0900998 2297:7.0900998 2404:14.1802 2423:7.0900998 2426:14.1802 2453:7.0900998 2473:7.0900998 2645:7.0900998 2649:7.0900998 2678:21.270201 2694:21.270201 2766:21.270201 2767:7.0900998 2777:14.1802 2797:7.0900998 2840:7.0900998 2879:21.270201 2882:7.0900998 2899:14.1802 2912:7.0900998 2918:7.0900998 2948:28.3603 3019:7.0900998 3039:7.0900998 3053:7.0900998 3091:7.0900998 3124:7.0900998 3167:7.0900998 3368:7.0900998 3446:7.0900998 3458:21.270201 # none/00004892_s01.txt
-3.5952900544486926612697957894582e-05 40:7.0900998 339:7.0900998 408:7.0900998 430:21.270201 453:7.0900998 464:7.0900998 533:7.0900998 554:7.0900998 572:7.0900998 575:14.1802 591:7.0900998 628:7.0900998 639:7.0900998 722:7.0900998 821:7.0900998 861:7.0900998 865:14.1802 907:7.0900998 945:7.0900998 950:7.0900998 951:7.0900998 954:7.0900998 976:7.0900998 1062:28.3603 1065:7.0900998 1079:7.0900998 1121:7.0900998 1125:7.0900998 1166:7.0900998 1205:14.1802 1208:7.0900998 1240:28.3603 1253:7.0900998 1264:7.0900998 1478:7.0900998 1516:7.0900998 1634:14.1802 1670:7.0900998 1694:7.0900998 1738:7.0900998 1747:7.0900998 1795:7.0900998 1814:7.0900998 1874:7.0900998 1911:7.0900998 1959:7.0900998 2025:14.1802 2049:7.0900998 2141:7.0900998 2319:7.0900998 2329:7.0900998 2397:7.0900998 2404:14.1802 2426:14.1802 2428:14.1802 2453:21.270201 2472:7.0900998 2473:7.0900998 2492:7.0900998 2507:21.270201 2559:7.0900998 2622:21.270201 2678:35.450401 2777:35.450401 2810:7.0900998 2835:7.0900998 2840:7.0900998 2879:14.1802 2882:7.0900998 2948:28.3603 2974:14.1802 3006:7.0900998 3019:7.0900998 3039:28.3603 3081:7.0900998 3086:7.0900998 3124:7.0900998 3198:7.0900998 3252:7.0900998 3257:7.0900998 3299:7.0900998 3326:7.0900998 3368:7.0900998 3409:7.0900998 3421:7.0900998 3458:14.1802 # none/00002174_s01.txt
-6.3203817971988331212568335004676e-05 40:7.0900998 312:7.0900998 408:21.270201 430:35.450401 487:7.0900998 496:7.0900998 575:7.0900998 591:14.1802 594:7.0900998 639:14.1802 722:7.0900998 728:7.0900998 751:7.0900998 807:21.270201 821:7.0900998 865:7.0900998 939:7.0900998 945:7.0900998 951:7.0900998 976:7.0900998 993:7.0900998 1054:7.0900998 1062:7.0900998 1065:7.0900998 1079:7.0900998 1121:7.0900998 1154:7.0900998 1157:7.0900998 1205:7.0900998 1208:7.0900998 1240:28.3603 1253:7.0900998 1264:7.0900998 1320:14.1802 1414:7.0900998 1415:7.0900998 1420:7.0900998 1439:7.0900998 1478:14.1802 1516:7.0900998 1557:7.0900998 1578:7.0900998 1634:14.1802 1670:7.0900998 1694:7.0900998 1703:14.1802 1738:7.0900998 1744:21.270201 1747:7.0900998 1805:7.0900998 1814:7.0900998 1865:7.0900998 1874:7.0900998 1895:7.0900998 1911:35.450401 2025:7.0900998 2049:7.0900998 2084:7.0900998 2091:7.0900998 2157:7.0900998 2267:7.0900998 2302:7.0900998 2397:7.0900998 2404:14.1802 2409:7.0900998 2426:14.1802 2442:7.0900998 2453:14.1802 2473:7.0900998 2507:14.1802 2555:7.0900998 2559:7.0900998 2582:14.1802 2678:21.270201 2694:21.270201 2766:14.1802 2777:7.0900998 2840:7.0900998 2879:21.270201 2906:7.0900998 2914:7.0900998 2927:7.0900998 2943:7.0900998 2948:35.450401 2973:7.0900998 2997:7.0900998 3010:14.1802 3019:7.0900998 3039:7.0900998 3053:7.0900998 3091:7.0900998 3124:7.0900998 3167:14.1802 3275:7.0900998 3368:7.0900998 3421:7.0900998 3446:7.0900998 3458:28.3603 3485:7.0900998 # none/00004425_s01.txt
1.8271477295787845468314283814415e-05 4:7.0900998 17:7.0900998 40:7.0900998 61:56.7206 76:85.080902 83:7.0900998 185:7.0900998 193:7.0900998 203:14.1802 206:7.0900998 220:7.0900998 224:14.1802 226:28.3603 238:7.0900998 252:7.0900998 253:7.0900998 254:14.1802 255:7.0900998 259:7.0900998 278:7.0900998 279:7.0900998 282:14.1802 288:7.0900998 313:7.0900998 430:14.1802 469:7.0900998 472:7.0900998 496:7.0900998 502:7.0900998 550:7.0900998 556:14.1802 572:7.0900998 574:7.0900998 579:7.0900998 587:7.0900998 608:7.0900998 628:21.270201 629:7.0900998 637:7.0900998 639:14.1802 645:7.0900998 659:21.270201 665:7.0900998 682:7.0900998 684:7.0900998 699:7.0900998 708:7.0900998 722:7.0900998 729:14.1802 737:7.0900998 751:7.0900998 753:7.0900998 765:7.0900998 769:7.0900998 829:7.0900998 865:14.1802 900:14.1802 951:14.1802 980:14.1802 999:7.0900998 1065:28.3603 1068:7.0900998 1079:7.0900998 1089:7.0900998 1098:7.0900998 1152:7.0900998 1157:7.0900998 1165:7.0900998 1173:7.0900998 1175:14.1802 1194:7.0900998 1196:7.0900998 1202:7.0900998 1213:14.1802 1230:21.270201 1240:56.7206 1264:7.0900998 1297:7.0900998 1301:7.0900998 1305:7.0900998 1352:14.1802 1356:7.0900998 1376:7.0900998 1405:7.0900998 1445:7.0900998 1466:14.1802 1488:21.270201 1557:7.0900998 1621:7.0900998 1622:7.0900998 1634:7.0900998 1711:7.0900998 1738:7.0900998 1744:7.0900998 1814:7.0900998 1816:7.0900998 1893:21.270201 1911:35.450401 1925:7.0900998 1949:7.0900998 1972:28.3603 1997:7.0900998 2049:7.0900998 2099:7.0900998 2133:7.0900998 2141:7.0900998 2142:7.0900998 2151:14.1802 2152:7.0900998 2259:7.0900998 2267:14.1802 2282:14.1802 2310:7.0900998 2319:14.1802 2326:7.0900998 2342:7.0900998 2346:7.0900998 2401:7.0900998 2404:99.261101 2409:14.1802 2426:7.0900998 2442:7.0900998 2450:14.1802 2464:14.1802 2473:7.0900998 2507:14.1802 2511:7.0900998 2574:7.0900998 2611:7.0900998 2615:21.270201 2626:7.0900998 2649:7.0900998 2678:14.1802 2712:7.0900998 2743:7.0900998 2755:7.0900998 2766:14.1802 2777:21.270201 2791:7.0900998 2831:21.270201 2832:7.0900998 2834:7.0900998 2840:99.261101 2936:21.270201 2948:21.270201 2954:7.0900998 2972:7.0900998 2988:21.270201 2992:7.0900998 2997:7.0900998 3001:7.0900998 3007:7.0900998 3019:7.0900998 3021:7.0900998 3054:7.0900998 3068:7.0900998 3078:7.0900998 3124:7.0900998 3138:14.1802 3149:7.0900998 3226:14.1802 3248:7.0900998 3268:7.0900998 3281:7.0900998 3286:7.0900998 3308:14.1802 3315:14.1802 3343:7.0900998 3368:7.0900998 3371:7.0900998 3421:7.0900998 3436:7.0900998 3446:7.0900998 # seizures/00001915_s05.txt
6.3203817971988331212568335004676e-05 4:7.0900998 40:7.0900998 206:7.0900998 225:14.1802 228:7.0900998 238:7.0900998 357:7.0900998 411:7.0900998 487:7.0900998 639:7.0900998 722:7.0900998 736:7.0900998 821:7.0900998 824:7.0900998 916:7.0900998 951:7.0900998 1079:7.0900998 1089:7.0900998 1139:14.1802 1226:7.0900998 1240:21.270201 1253:7.0900998 1264:7.0900998 1270:7.0900998 1320:14.1802 1367:14.1802 1444:7.0900998 1484:7.0900998 1493:7.0900998 1622:7.0900998 1634:7.0900998 1668:7.0900998 1703:7.0900998 1711:21.270201 1738:7.0900998 1795:14.1802 1814:7.0900998 1911:7.0900998 1987:7.0900998 2049:7.0900998 2133:21.270201 2142:21.270201 2252:7.0900998 2342:7.0900998 2347:7.0900998 2426:7.0900998 2473:7.0900998 2501:7.0900998 2624:7.0900998 2649:7.0900998 2678:14.1802 2701:14.1802 2712:14.1802 2728:7.0900998 2766:7.0900998 2813:7.0900998 2831:14.1802 2840:28.3603 2918:7.0900998 2936:21.270201 2948:7.0900998 2963:7.0900998 2997:7.0900998 3001:7.0900998 3017:7.0900998 3019:7.0900998 3124:7.0900998 3152:7.0900998 3198:14.1802 3354:7.0900998 3368:7.0900998 3413:7.0900998 3421:7.0900998 3446:21.270201 3458:14.1802 3470:7.0900998 # seizures/00000514_s24.txt
-6.3203817971988331212568335004676e-05 4:7.0900998 10:7.0900998 11:21.270201 12:7.0900998 13:7.0900998 25:7.0900998 32:42.540501 40:14.1802 45:7.0900998 61:42.540501 76:35.450401 83:7.0900998 111:7.0900998 119:7.0900998 128:7.0900998 137:14.1802 153:21.270201 161:7.0900998 185:35.450401 189:7.0900998 194:7.0900998 195:7.0900998 199:14.1802 200:28.3603 202:35.450401 203:28.3603 209:14.1802 210:7.0900998 213:7.0900998 220:14.1802 224:14.1802 226:7.0900998 230:7.0900998 237:7.0900998 243:7.0900998 254:7.0900998 255:7.0900998 260:14.1802 261:7.0900998 264:7.0900998 279:21.270201 283:21.270201 284:7.0900998 288:14.1802 302:14.1802 308:21.270201 309:7.0900998 312:21.270201 314:7.0900998 317:21.270201 323:7.0900998 335:7.0900998 380:7.0900998 408:7.0900998 409:7.0900998 430:42.540501 442:42.540501 444:7.0900998 463:35.450401 487:56.7206 510:7.0900998 523:56.7206 526:7.0900998 550:7.0900998 554:7.0900998 556:7.0900998 571:14.1802 572:14.1802 585:7.0900998 591:7.0900998 594:21.270201 598:7.0900998 628:21.270201 630:21.270201 639:14.1802 658:7.0900998 665:7.0900998 682:14.1802 684:7.0900998 694:14.1802 699:21.270201 722:21.270201 736:42.540501 737:7.0900998 751:7.0900998 753:28.3603 821:7.0900998 824:14.1802 826:7.0900998 830:14.1802 831:7.0900998 865:14.1802 900:7.0900998 908:14.1802 916:7.0900998 932:7.0900998 934:7.0900998 937:7.0900998 939:7.0900998 945:7.0900998 951:56.7206 964:14.1802 976:7.0900998 1028:7.0900998 1030:7.0900998 1032:7.0900998 1035:7.0900998 1054:7.0900998 1065:7.0900998 1078:28.3603 1079:21.270201 1089:7.0900998 1114:7.0900998 1125:7.0900998 1139:56.7206 1140:14.1802 1150:7.0900998 1151:7.0900998 1157:21.270201 1164:21.270201 1187:7.0900998 1196:35.450401 1203:7.0900998 1205:7.0900998 1208:7.0900998 1212:7.0900998 1213:28.3603 1226:7.0900998 1240:49.630501 1253:7.0900998 1264:28.3603 1270:7.0900998 1320:21.270201 1326:7.0900998 1351:7.0900998 1352:7.0900998 1358:7.0900998 1365:7.0900998 1377:7.0900998 1405:7.0900998 1415:7.0900998 1439:7.0900998 1444:14.1802 1453:7.0900998 1478:21.270201 1492:7.0900998 1516:14.1802 1581:7.0900998 1590:7.0900998 1606:21.270201 1622:21.270201 1628:7.0900998 1647:7.0900998 1657:7.0900998 1665:7.0900998 1668:21.270201 1669:7.0900998 1707:7.0900998 1709:7.0900998 1711:7.0900998 1721:7.0900998 1738:7.0900998 1739:7.0900998 1744:21.270201 1747:14.1802 1754:7.0900998 1763:7.0900998 1768:21.270201 1795:63.810699 1814:21.270201 1860:7.0900998 1865:7.0900998 1896:14.1802 1897:7.0900998 1907:7.0900998 1908:7.0900998 1911:35.450401 1926:7.0900998 1950:7.0900998 1965:21.270201 1968:7.0900998 1999:7.0900998 2012:7.0900998 2017:7.0900998 2036:7.0900998 2041:7.0900998 2045:7.0900998 2049:7.0900998 2062:7.0900998 2077:14.1802 2110:21.270201 2133:35.450401 2141:35.450401 2142:28.3603 2160:14.1802 2164:14.1802 2188:7.0900998 2214:21.270201 2223:21.270201 2252:7.0900998 2259:7.0900998 2267:148.8916 2274:7.0900998 2282:49.630501 2297:7.0900998 2298:92.170998 2308:7.0900998 2319:35.450401 2326:14.1802 2333:7.0900998 2342:7.0900998 2351:7.0900998 2393:7.0900998 2394:21.270201 2404:241.06261 2409:35.450401 2423:7.0900998 2426:21.270201 2448:14.1802 2462:14.1802 2471:7.0900998 2473:14.1802 2486:7.0900998 2507:21.270201 2510:7.0900998 2545:7.0900998 2555:7.0900998 2578:7.0900998 2581:7.0900998 2582:14.1802 2595:7.0900998 2611:28.3603 2613:14.1802 2622:14.1802 2630:7.0900998 2636:7.0900998 2649:21.270201 2666:7.0900998 2670:21.270201 2671:21.270201 2678:106.3512 2682:7.0900998 2683:14.1802 2694:56.7206 2699:7.0900998 2712:7.0900998 2716:7.0900998 2723:14.1802 2724:7.0900998 2728:7.0900998 2731:7.0900998 2734:7.0900998 2740:7.0900998 2762:7.0900998 2766:35.450401 2767:7.0900998 2777:120.5313 2784:7.0900998 2810:14.1802 2831:35.450401 2833:7.0900998 2834:42.540501 2838:7.0900998 2840:425.4046 2859:7.0900998 2861:56.7206 2879:7.0900998 2906:14.1802 2912:14.1802 2936:92.170998 2943:7.0900998 2948:35.450401 2957:7.0900998 2995:7.0900998 2997:42.540501 3001:7.0900998 3006:7.0900998 3010:14.1802 3017:21.270201 3019:14.1802 3021:14.1802 3038:14.1802 3046:14.1802 3055:7.0900998 3063:7.0900998 3068:21.270201 3072:28.3603 3091:7.0900998 3114:14.1802 3116:7.0900998 3124:14.1802 3167:7.0900998 3179:14.1802 3182:7.0900998 3198:14.1802 3226:35.450401 3268:7.0900998 3312:21.270201 3333:14.1802 3343:21.270201 3354:14.1802 3358:21.270201 3368:21.270201 3372:7.0900998 3378:14.1802 3408:7.0900998 3409:28.3603 3413:14.1802 3421:28.3603 3430:35.450401 3441:7.0900998 3442:7.0900998 3446:7.0900998 3449:14.1802 3458:35.450401 3462:14.1802 3470:14.1802 3471:28.3603 3473:14.1802 # none/00006642_s04.txt
-6.3203817971988331212568335004676e-05 7:14.1802 10:7.0900998 12:28.3603 40:7.0900998 102:7.0900998 119:7.0900998 128:14.1802 189:14.1802 203:7.0900998 250:7.0900998 252:7.0900998 254:7.0900998 255:7.0900998 277:7.0900998 310:7.0900998 313:7.0900998 315:7.0900998 408:7.0900998 430:77.990799 442:7.0900998 487:7.0900998 549:7.0900998 550:14.1802 575:7.0900998 579:7.0900998 639:14.1802 650:7.0900998 661:14.1802 665:7.0900998 694:14.1802 728:14.1802 736:7.0900998 751:7.0900998 819:7.0900998 821:7.0900998 861:21.270201 865:14.1802 902:7.0900998 916:14.1802 951:7.0900998 976:7.0900998 1026:7.0900998 1062:7.0900998 1079:7.0900998 1085:14.1802 1105:7.0900998 1114:14.1802 1125:7.0900998 1174:7.0900998 1208:7.0900998 1213:14.1802 1240:28.3603 1253:7.0900998 1264:7.0900998 1275:7.0900998 1314:7.0900998 1358:14.1802 1359:7.0900998 1406:14.1802 1414:7.0900998 1415:14.1802 1442:7.0900998 1450:7.0900998 1478:35.450401 1484:7.0900998 1516:49.630501 1522:21.270201 1531:49.630501 1554:7.0900998 1586:7.0900998 1649:7.0900998 1668:7.0900998 1708:7.0900998 1711:14.1802 1716:7.0900998 1738:7.0900998 1744:14.1802 1768:7.0900998 1814:7.0900998 1896:7.0900998 1911:49.630501 1921:14.1802 1959:7.0900998 1968:21.270201 2017:7.0900998 2036:14.1802 2045:7.0900998 2049:7.0900998 2133:21.270201 2141:14.1802 2153:7.0900998 2164:7.0900998 2167:7.0900998 2191:7.0900998 2267:14.1802 2297:7.0900998 2319:7.0900998 2325:7.0900998 2326:14.1802 2346:7.0900998 2394:21.270201 2404:35.450401 2409:21.270201 2426:7.0900998 2442:7.0900998 2473:7.0900998 2492:7.0900998 2497:7.0900998 2529:7.0900998 2534:7.0900998 2581:7.0900998 2642:7.0900998 2671:7.0900998 2678:42.540501 2694:56.7206 2745:7.0900998 2759:7.0900998 2766:14.1802 2767:21.270201 2791:7.0900998 2827:7.0900998 2834:14.1802 2835:7.0900998 2840:92.170998 2879:21.270201 2894:7.0900998 2902:7.0900998 2936:28.3603 2948:35.450401 2974:14.1802 3002:7.0900998 3010:7.0900998 3017:14.1802 3019:7.0900998 3124:7.0900998 3198:21.270201 3215:7.0900998 3226:14.1802 3368:7.0900998 3371:7.0900998 3391:7.0900998 3413:7.0900998 3421:14.1802 3446:14.1802 3449:7.0900998 3458:21.270201 3470:14.1802 3493:7.0900998 # none/00000126_s04.txt
