SVM-light Version V6.02
0 # kernel type
3 # kernel parameter -d 
1 # kernel parameter -g 
1 # kernel parameter -s 
1 # kernel parameter -r 
empty# kernel parameter -u 
3535 # highest feature index 
960 # number of training documents 
310 # number of support vectors plus 1 
1.0416171 # threshold b, each following line is a SV (starting with alpha*y)
-0.00043046383560777011327569407939109 40:3.9881999 339:3.9881999 408:4.4313002 411:3.9881999 430:7.0900998 463:3.9881999 464:3.9881999 496:4.8744001 516:3.9881999 527:3.9881999 534:3.9881999 550:3.9881999 639:5.3175998 682:3.9881999 717:3.9881999 722:3.9881999 751:4.8744001 813:3.9881999 821:3.9881999 861:3.9881999 865:3.9881999 869:3.9881999 875:3.9881999 916:4.4313002 932:3.9881999 955:3.9881999 976:4.4313002 1065:3.9881999 1068:3.9881999 1079:3.9881999 1118:3.9881999 1121:3.9881999 1139:3.9881999 1167:3.9881999 1208:3.9881999 1240:6.2038002 1253:3.9881999 1264:3.9881999 1306:3.9881999 1314:3.9881999 1320:5.3175998 1414:5.3175998 1434:3.9881999 1478:4.4313002 1480:3.9881999 1516:4.4313002 1517:3.9881999 1522:3.9881999 1541:3.9881999 1554:6.2038002 1617:3.9881999 1634:6.6469002 1670:3.9881999 1711:3.9881999 1721:3.9881999 1738:3.9881999 1744:3.9881999 1814:3.9881999 1819:3.9881999 1869:3.9881999 1874:3.9881999 1911:4.8744001 1961:3.9881999 2009:3.9881999 2034:4.4313002 2036:5.7607002 2045:4.4313002 2049:3.9881999 2052:3.9881999 2119:3.9881999 2141:4.8744001 2160:3.9881999 2259:3.9881999 2297:3.9881999 2298:3.9881999 2319:3.9881999 2347:3.9881999 2389:3.9881999 2392:4.8744001 2404:4.4313002 2426:3.9881999 2462:3.9881999 2473:3.9881999 2488:3.9881999 2507:4.4313002 2545:3.9881999 2582:3.9881999 2617:3.9881999 2678:4.8744001 2694:5.3175998 2777:7.0900998 2832:3.9881999 2834:3.9881999 2840:3.9881999 2875:3.9881999 2906:3.9881999 2948:4.8744001 2986:3.9881999 2997:3.9881999 3019:3.9881999 3091:4.8744001 3124:3.9881999 3198:3.9881999 3215:3.9881999 3252:3.9881999 3257:3.9881999 3358:3.9881999 3368:3.9881999 3383:3.9881999 3388:3.9881999 3391:3.9881999 3421:3.9881999 3441:3.9881999 3458:3.9881999 3470:3.9881999 3477:3.9881999 # none/00006557_s01.txt
-0.00020102605219857844990466455570299 40:4.0514998 390:4.0514998 408:4.0514998 430:4.5579 478:4.0514998 510:4.0514998 527:5.5707998 639:4.5579 661:4.0514998 722:4.0514998 811:4.0514998 813:4.0514998 821:4.0514998 861:4.5579 865:4.0514998 954:4.0514998 976:4.0514998 1054:4.5579 1062:5.5707998 1068:4.0514998 1079:4.0514998 1118:4.5579 1121:4.0514998 1125:4.0514998 1149:4.5579 1167:4.0514998 1208:4.0514998 1240:5.0643001 1253:4.5579 1264:4.0514998 1320:4.0514998 1404:4.0514998 1439:4.5579 1481:4.0514998 1484:4.0514998 1541:4.0514998 1557:4.0514998 1634:4.0514998 1670:4.0514998 1703:4.0514998 1708:4.0514998 1711:5.0643001 1738:4.0514998 1744:4.0514998 1747:4.0514998 1814:4.0514998 1816:4.0514998 1911:5.0643001 1992:4.0514998 2009:4.0514998 2025:4.0514998 2049:4.0514998 2084:4.0514998 2119:4.0514998 2141:4.0514998 2296:4.0514998 2297:4.0514998 2319:4.0514998 2345:4.0514998 2404:4.5579 2426:4.0514998 2438:4.0514998 2473:4.0514998 2507:5.5707998 2574:4.0514998 2622:4.0514998 2648:5.5707998 2678:4.5579 2694:5.0643001 2732:4.0514998 2745:4.0514998 2761:4.0514998 2777:6.5836 2835:5.5707998 2840:4.0514998 2879:6.5836 2882:4.0514998 2948:6.5836 2957:4.5579 3010:4.0514998 3019:4.0514998 3039:4.5579 3072:4.0514998 3086:4.0514998 3091:4.0514998 3124:4.0514998 3167:7.0900998 3198:4.5579 3257:4.0514998 3355:4.0514998 3362:4.0514998 3368:4.0514998 3409:5.0643001 3421:4.0514998 3439:4.0514998 3458:6.5836 3470:4.5579 # none/00007522_s01.txt
-7.9680103309415709072907954557685e-06 206:4.9631 411:4.2540002 430:4.2540002 510:4.2540002 527:4.2540002 579:6.3811002 628:4.2540002 751:4.2540002 776:4.2540002 805:4.2540002 819:4.2540002 865:4.9631 908:4.2540002 922:4.2540002 923:4.2540002 945:4.2540002 959:4.2540002 976:4.2540002 1032:4.2540002 1055:4.2540002 1079:4.2540002 1125:4.9631 1144:4.2540002 1213:4.9631 1240:7.0900998 1270:4.2540002 1320:4.2540002 1392:4.9631 1400:4.2540002 1404:4.2540002 1711:4.9631 1738:4.2540002 1814:4.2540002 1860:4.2540002 1911:4.2540002 1925:4.9631 1965:4.2540002 2049:4.2540002 2133:5.6721001 2153:4.2540002 2252:4.2540002 2267:5.6721001 2319:4.2540002 2404:5.6721001 2410:4.2540002 2450:4.2540002 2462:4.2540002 2501:4.2540002 2555:4.2540002 2559:4.2540002 2648:4.2540002 2678:6.3811002 2712:4.9631 2793:4.2540002 2831:4.9631 2834:4.2540002 2840:4.9631 2871:4.9631 2879:4.9631 2886:4.2540002 2936:4.9631 2948:4.2540002 3001:4.2540002 3055:4.2540002 3081:4.2540002 3149:4.2540002 3167:4.9631 3179:4.2540002 3268:4.2540002 3358:4.2540002 3413:4.2540002 3421:4.2540002 3458:5.6721001 # none/00000035_s10.txt
0.00021033469547642732544803778615972 4:4.5876999 14:3.7535999 32:3.7535999 40:4.3792 72:3.9621 111:3.9621 179:5.0047998 200:3.7535999 206:3.7535999 220:3.7535999 224:3.9621 225:3.7535999 226:3.9621 238:3.9621 430:4.7961998 442:3.7535999 461:3.9621 462:3.7535999 463:3.7535999 472:3.7535999 487:3.7535999 496:3.7535999 516:3.7535999 550:4.1705999 570:3.7535999 579:4.5876999 591:3.9621 598:4.1705999 622:3.7535999 625:3.7535999 637:3.7535999 639:3.9621 661:4.3792 677:3.7535999 682:3.7535999 722:3.9621 728:3.9621 753:4.3792 792:3.7535999 819:3.7535999 821:4.3792 824:4.1705999 826:3.7535999 856:3.7535999 861:4.3792 865:4.1705999 910:3.7535999 913:3.7535999 944:3.7535999 951:4.3792 976:4.5876999 1028:3.9621 1035:4.3792 1045:3.7535999 1062:3.7535999 1078:3.7535999 1079:4.5876999 1085:3.7535999 1116:3.9621 1125:3.7535999 1139:3.7535999 1141:3.7535999 1187:3.7535999 1208:3.7535999 1212:3.7535999 1213:4.3792 1240:6.8814998 1253:4.3792 1264:4.7961998 1297:3.7535999 1320:4.1705999 1352:4.5876999 1353:3.7535999 1383:3.7535999 1396:3.7535999 1414:4.1705999 1434:3.7535999 1452:4.3792 1478:3.9621 1502:3.7535999 1516:3.7535999 1517:3.7535999 1522:3.9621 1557:3.9621 1586:3.7535999 1587:3.7535999 1590:4.3792 1610:3.9621 1617:3.7535999 1658:3.7535999 1668:4.7961998 1670:3.9621 1708:4.3792 1711:3.9621 1736:3.7535999 1738:3.9621 1739:3.9621 1744:4.1705999 1747:3.7535999 1755:3.9621 1768:4.5876999 1781:3.9621 1795:3.7535999 1802:3.7535999 1814:4.3792 1869:4.1705999 1889:4.1705999 1893:3.7535999 1896:3.7535999 1899:3.9621 1911:4.1705999 1919:3.9621 1959:3.9621 1964:3.7535999 1968:4.5876999 1983:3.7535999 1984:3.7535999 1988:3.7535999 2010:3.7535999 2049:4.3792 2097:3.7535999 2110:4.3792 2133:5.6304002 2141:3.9621 2144:3.7535999 2146:3.7535999 2148:3.7535999 2153:3.7535999 2160:3.9621 2164:3.9621 2167:4.3792 2204:4.3792 2267:3.7535999 2302:3.9621 2304:5.0047998 2319:5.0047998 2325:3.7535999 2346:3.9621 2347:3.7535999 2351:3.7535999 2359:4.1705999 2373:3.7535999 2394:4.3792 2404:5.2133002 2409:3.9621 2410:3.7535999 2423:3.9621 2426:4.3792 2428:3.7535999 2448:3.9621 2462:3.7535999 2473:4.3792 2497:3.7535999 2500:3.7535999 2555:3.7535999 2559:3.9621 2567:3.7535999 2573:3.7535999 2581:3.7535999 2611:4.3792 2625:3.7535999 2626:3.7535999 2666:3.7535999 2671:3.9621 2678:7.0900998 2691:3.7535999 2694:3.7535999 2701:3.7535999 2712:3.7535999 2739:3.7535999 2747:3.7535999 2766:4.1705999 2777:4.5876999 2814:4.1705999 2827:3.9621 2831:5.4218001 2833:3.7535999 2840:6.256 2877:3.7535999 2894:4.1705999 2912:4.3792 2929:3.7535999 2936:4.5876999 2948:5.2133002 2966:3.7535999 2994:3.7535999 3019:4.3792 3021:3.9621 3124:4.3792 3179:3.7535999 3180:3.7535999 3226:4.1705999 3245:3.7535999 3288:4.1705999 3299:3.7535999 3307:3.9621 3312:3.7535999 3322:3.7535999 3339:3.7535999 3341:3.7535999 3358:3.7535999 3368:4.5876999 3378:4.1705999 3421:4.3792 3471:3.7535999 3494:4.1705999 # seizures/00002942_s04.txt
0.00052615065072219332868719288143211 4:3.8994999 32:3.8994999 40:3.8994999 162:4.2540002 238:3.8994999 302:3.8994999 408:4.2540002 430:3.8994999 442:4.6085 462:3.8994999 472:3.8994999 496:3.8994999 516:4.2540002 527:3.8994999 550:4.6085 563:3.8994999 569:3.8994999 570:4.2540002 571:3.8994999 579:3.8994999 610:3.8994999 625:3.8994999 639:3.8994999 661:3.8994999 680:3.8994999 682:4.6085 807:3.8994999 813:3.8994999 820:3.8994999 861:3.8994999 865:3.8994999 880:3.8994999 945:3.8994999 951:3.8994999 976:3.8994999 1062:3.8994999 1068:3.8994999 1079:3.8994999 1089:4.6085 1095:3.8994999 1117:3.8994999 1118:6.3811002 1121:3.8994999 1125:3.8994999 1139:3.8994999 1175:3.8994999 1208:3.8994999 1213:3.8994999 1218:3.8994999 1240:5.3175998 1253:3.8994999 1264:4.6085 1297:3.8994999 1314:3.8994999 1326:3.8994999 1347:3.8994999 1352:3.8994999 1356:3.8994999 1413:3.8994999 1439:3.8994999 1484:3.8994999 1493:3.8994999 1517:4.2540002 1522:3.8994999 1531:3.8994999 1554:4.2540002 1625:3.8994999 1634:3.8994999 1668:3.8994999 1703:3.8994999 1738:3.8994999 1739:3.8994999 1814:3.8994999 1893:3.8994999 1896:3.8994999 1911:4.6085 1935:3.8994999 1960:3.8994999 1961:3.8994999 1968:3.8994999 1988:3.8994999 2049:3.8994999 2083:3.8994999 2092:3.8994999 2114:3.8994999 2142:3.8994999 2164:4.6085 2218:3.8994999 2223:3.8994999 2256:3.8994999 2259:4.2540002 2280:3.8994999 2302:4.2540002 2329:3.8994999 2338:4.2540002 2389:3.8994999 2404:4.6085 2423:3.8994999 2426:4.2540002 2473:3.8994999 2500:4.2540002 2507:3.8994999 2571:3.8994999 2647:3.8994999 2668:3.8994999 2678:4.6085 2693:3.8994999 2694:4.2540002 2760:3.8994999 2762:3.8994999 2766:3.8994999 2777:3.8994999 2823:3.8994999 2827:4.2540002 2835:6.0265999 2840:7.0900998 2879:3.8994999 2921:3.8994999 2936:4.2540002 2948:4.6085 2963:4.2540002 2997:3.8994999 3019:3.8994999 3046:3.8994999 3055:3.8994999 3079:3.8994999 3124:3.8994999 3152:3.8994999 3167:3.8994999 3216:3.8994999 3244:4.2540002 3250:3.8994999 3252:3.8994999 3321:3.8994999 3358:3.8994999 3368:4.2540002 3421:3.8994999 3446:3.8994999 3458:4.2540002 3470:3.8994999 # seizures/00004631_s04.txt
0.00052615065072219332868719288143211 4:4.5579 40:4.0514998 101:4.5579 110:4.0514998 396:4.0514998 408:4.0514998 430:4.0514998 442:4.0514998 453:4.0514998 461:4.0514998 496:4.0514998 556:4.0514998 575:4.0514998 591:4.0514998 639:4.0514998 650:4.0514998 661:4.0514998 717:4.0514998 722:4.0514998 736:4.0514998 819:4.0514998 821:4.0514998 826:4.0514998 865:4.5579 938:4.0514998 951:4.0514998 976:4.0514998 1028:4.5579 1062:4.0514998 1065:4.0514998 1079:4.0514998 1105:4.0514998 1116:4.0514998 1121:4.0514998 1125:4.0514998 1208:4.0514998 1226:4.0514998 1240:7.0900998 1253:4.0514998 1256:4.0514998 1264:4.5579 1358:4.0514998 1370:4.0514998 1478:4.5579 1505:4.0514998 1516:4.0514998 1517:4.0514998 1567:4.0514998 1581:4.0514998 1668:4.0514998 1670:4.0514998 1738:4.0514998 1799:4.0514998 1814:4.0514998 1865:4.0514998 1911:5.5707998 1968:4.0514998 2045:4.0514998 2049:4.0514998 2133:4.5579 2142:4.0514998 2148:4.0514998 2186:4.0514998 2292:4.0514998 2302:4.0514998 2404:5.0643001 2426:4.0514998 2428:4.5579 2473:4.0514998 2486:4.0514998 2500:4.0514998 2624:4.0514998 2678:5.0643001 2694:4.5579 2832:4.0514998 2834:4.0514998 2835:4.0514998 2840:5.5707998 2871:4.0514998 2879:5.5707998 2902:4.0514998 2948:4.5579 2997:4.0514998 3019:4.0514998 3116:4.0514998 3124:4.0514998 3136:4.0514998 3167:5.5707998 3308:4.0514998 3368:4.0514998 3409:4.0514998 3421:4.5579 3458:5.5707998 3494:4.5579 # seizures/00000018_s04.txt
0.00037725861943346730015269585578608 4:3.7983 32:3.7983 40:3.7983 61:4.3046999 75:3.7983 76:4.0514998 93:4.0514998 94:3.7983 101:3.7983 162:3.7983 189:3.7983 203:3.7983 206:3.7983 213:3.7983 238:3.7983 272:3.7983 302:3.7983 308:3.7983 309:3.7983 310:3.7983 323:3.7983 396:4.0514998 408:4.0514998 409:3.7983 430:7.0900998 435:3.7983 442:4.0514998 461:3.7983 463:3.7983 467:3.7983 478:3.7983 496:3.7983 527:3.7983 572:4.3046999 591:4.0514998 598:4.5579 606:3.7983 610:4.0514998 639:4.8111 659:3.7983 694:4.0514998 699:4.5579 717:3.7983 722:4.0514998 746:4.3046999 751:4.8111 814:3.7983 821:3.7983 826:3.7983 861:4.3046999 865:3.7983 910:3.7983 916:4.5579 938:3.7983 951:4.0514998 1019:3.7983 1054:4.0514998 1055:4.0514998 1065:4.0514998 1078:3.7983 1079:4.0514998 1085:3.7983 1093:3.7983 1116:4.0514998 1125:4.0514998 1137:3.7983 1139:4.0514998 1182:3.7983 1212:3.7983 1213:4.3046999 1240:4.8111 1253:3.7983 1264:3.7983 1317:4.0514998 1320:5.8239999 1351:3.7983 1352:3.7983 1358:4.5579 1392:3.7983 1414:3.7983 1415:4.8111 1422:4.0514998 1439:4.0514998 1450:3.7983 1516:6.0771999 1522:3.7983 1567:3.7983 1622:4.0514998 1634:4.5579 1668:3.7983 1708:3.7983 1738:3.7983 1744:3.7983 1747:4.5579 1755:3.7983 1784:4.0514998 1795:5.5707998 1814:4.0514998 1819:3.7983 1865:4.0514998 1893:3.7983 1897:4.0514998 1911:5.8239999 1972:3.7983 1988:3.7983 2025:4.0514998 2036:3.7983 2049:3.7983 2077:4.0514998 2110:3.7983 2133:4.0514998 2141:4.8111 2142:4.3046999 2160:4.0514998 2186:3.7983 2267:5.5707998 2282:3.7983 2293:3.7983 2296:3.7983 2310:3.7983 2319:4.0514998 2326:3.7983 2329:3.7983 2341:3.7983 2342:4.0514998 2347:4.0514998 2381:3.7983 2389:3.7983 2397:4.0514998 2404:5.8239999 2409:5.3175998 2426:3.7983 2428:4.8111 2473:3.7983 2490:3.7983 2510:3.7983 2559:3.7983 2574:4.5579 2636:3.7983 2649:4.0514998 2666:4.0514998 2671:4.0514998 2678:4.3046999 2694:4.3046999 2701:4.3046999 2710:4.8111 2712:3.7983 2730:3.7983 2745:4.3046999 2762:3.7983 2777:4.5579 2831:4.0514998 2834:4.0514998 2840:5.8239999 2863:3.7983 2871:3.7983 2879:3.7983 2894:3.7983 2902:3.7983 2906:3.7983 2948:4.5579 2952:4.0514998 2973:4.3046999 2974:3.7983 2975:3.7983 2993:3.7983 2997:3.7983 3010:4.0514998 3019:3.7983 3021:4.0514998 3027:4.0514998 3039:4.3046999 3046:4.0514998 3059:4.0514998 3093:3.7983 3107:4.0514998 3124:3.7983 3167:3.7983 3198:4.0514998 3215:3.7983 3216:3.7983 3226:3.7983 3268:3.7983 3312:4.0514998 3319:3.7983 3368:3.7983 3421:3.7983 3439:3.7983 3449:4.0514998 3458:3.7983 3462:3.7983 3470:3.7983 3494:4.3046999 # seizures/00000032_s01.txt
0.00052615065072219332868719288143211 40:4.1359 111:4.1359 153:4.1359 154:4.1359 165:4.1359 230:4.1359 279:4.1359 380:4.1359 408:4.7266998 430:4.7266998 442:5.3175998 472:4.1359 496:4.1359 516:4.7266998 527:4.1359 550:4.7266998 639:4.1359 658:4.1359 682:4.1359 717:4.1359 813:4.7266998 820:4.1359 861:4.1359 865:4.7266998 921:4.1359 945:4.1359 951:4.7266998 976:4.7266998 1062:4.1359 1079:4.1359 1089:4.7266998 1117:4.1359 1118:4.7266998 1125:4.1359 1139:5.3175998 1175:4.1359 1208:4.7266998 1218:4.7266998 1240:5.9084001 1243:4.1359 1253:4.1359 1264:4.7266998 1270:4.7266998 1320:4.7266998 1347:4.1359 1356:4.1359 1359:4.1359 1415:4.1359 1478:4.1359 1481:4.1359 1516:5.3175998 1531:4.1359 1554:4.7266998 1604:4.1359 1622:4.1359 1703:5.3175998 1738:4.1359 1795:4.1359 1814:4.1359 1827:4.1359 1865:4.1359 1872:4.1359 1896:4.1359 1899:4.7266998 1905:4.1359 1911:4.7266998 1918:4.1359 1919:4.1359 1921:4.1359 1968:4.1359 2007:4.1359 2049:4.7266998 2110:4.1359 2169:4.1359 2252:4.1359 2256:4.1359 2259:4.1359 2267:5.3175998 2282:4.1359 2302:4.7266998 2319:4.7266998 2329:4.1359 2336:4.1359 2347:4.1359 2389:4.7266998 2393:4.1359 2404:5.3175998 2426:5.3175998 2428:5.9084001 2473:4.1359 2482:5.3175998 2507:5.3175998 2571:4.7266998 2645:4.1359 2649:4.1359 2668:4.1359 2678:5.9084001 2693:4.1359 2694:4.7266998 2701:4.1359 2760:4.1359 2762:4.1359 2766:4.1359 2767:4.7266998 2805:4.1359 2835:4.1359 2840:7.0900998 2879:4.7266998 2894:4.1359 2918:4.1359 2943:4.1359 2948:5.3175998 2963:4.1359 2997:4.1359 3017:4.1359 3019:4.1359 3046:4.1359 3055:4.1359 3079:4.1359 3124:4.1359 3152:4.1359 3167:5.3175998 3226:4.1359 3358:4.1359 3368:4.7266998 3426:4.1359 3458:5.9084001 3470:5.3175998 # seizures/00000032_s05.txt
0.00052615065072219332868719288143211 40:4.0514998 296:4.0514998 408:4.5579 430:5.5707998 510:4.0514998 550:4.0514998 570:4.0514998 591:4.0514998 598:4.0514998 639:4.5579 649:4.0514998 661:4.0514998 666:4.0514998 682:4.0514998 751:4.5579 821:4.0514998 865:4.5579 976:4.5579 1062:4.0514998 1078:4.0514998 1079:4.0514998 1105:4.0514998 1114:4.0514998 1121:4.0514998 1125:4.0514998 1139:4.5579 1208:4.0514998 1212:4.0514998 1240:7.0900998 1253:4.0514998 1264:4.0514998 1270:4.5579 1317:4.0514998 1414:5.0643001 1421:4.0514998 1462:4.0514998 1493:4.0514998 1516:4.0514998 1517:4.5579 1522:4.5579 1554:4.5579 1670:4.0514998 1738:4.0514998 1744:4.0514998 1755:4.0514998 1768:4.0514998 1784:4.0514998 1791:4.0514998 1814:4.0514998 1869:4.0514998 1911:4.0514998 1965:4.0514998 1988:4.0514998 2025:4.5579 2031:4.0514998 2049:4.0514998 2118:4.0514998 2133:4.0514998 2212:4.0514998 2293:4.0514998 2345:4.0514998 2392:5.0643001 2404:5.0643001 2409:4.5579 2426:4.0514998 2437:4.0514998 2472:4.0514998 2473:4.0514998 2514:4.0514998 2524:4.0514998 2534:4.0514998 2555:4.5579 2678:4.5579 2730:4.0514998 2754:4.0514998 2777:4.0514998 2827:4.5579 2840:5.5707998 2948:4.0514998 2958:4.0514998 2997:4.0514998 3019:4.0514998 3027:4.0514998 3037:4.0514998 3040:4.0514998 3124:4.0514998 3179:4.0514998 3208:4.0514998 3244:4.0514998 3247:4.0514998 3312:4.5579 3354:4.0514998 3368:4.0514998 3421:4.5579 3426:4.0514998 3439:4.0514998 3458:4.0514998 # seizures/00000048_s08.txt
0.00052615065072219332868719288143211 40:4.2540002 153:4.2540002 154:4.2540002 169:4.2540002 296:4.9631 408:4.9631 409:4.2540002 430:4.9631 442:5.6721001 516:4.2540002 527:4.2540002 563:4.2540002 569:4.2540002 575:4.2540002 639:4.2540002 657:4.2540002 658:4.2540002 682:4.2540002 751:4.9631 807:4.2540002 836:4.2540002 861:4.9631 865:5.6721001 927:5.6721001 938:4.2540002 945:4.2540002 951:4.9631 976:5.6721001 1041:4.2540002 1079:4.2540002 1104:4.2540002 1117:4.2540002 1118:5.6721001 1125:4.2540002 1139:4.9631 1175:4.2540002 1208:4.9631 1240:5.6721001 1243:4.2540002 1253:4.2540002 1264:4.9631 1270:5.6721001 1314:4.2540002 1356:4.2540002 1359:4.9631 1391:4.2540002 1445:4.2540002 1478:4.2540002 1516:4.2540002 1517:4.2540002 1522:4.2540002 1554:4.2540002 1703:5.6721001 1738:4.2540002 1814:4.2540002 1905:4.2540002 1911:4.9631 1921:4.2540002 1959:4.2540002 1965:4.2540002 2049:4.9631 2062:4.2540002 2110:4.9631 2127:4.9631 2133:4.2540002 2135:4.2540002 2169:4.2540002 2252:4.2540002 2259:4.2540002 2267:4.2540002 2329:4.2540002 2393:4.2540002 2404:5.6721001 2426:5.6721001 2472:4.2540002 2473:4.2540002 2500:4.2540002 2507:5.6721001 2558:4.2540002 2571:4.9631 2658:4.2540002 2678:7.0900998 2694:4.2540002 2701:4.2540002 2728:4.2540002 2766:4.2540002 2767:4.9631 2797:4.2540002 2835:6.3811002 2840:7.0900998 2879:7.0900998 2918:4.2540002 2936:4.2540002 2948:7.0900998 3019:4.2540002 3021:4.2540002 3046:4.9631 3079:4.9631 3124:4.2540002 3149:4.2540002 3152:4.2540002 3167:5.6721001 3179:4.2540002 3216:5.6721001 3226:5.6721001 3276:4.2540002 3349:4.2540002 3368:4.2540002 3458:7.0900998 # seizures/00000068_s01.txt
-0.00052615065072219332868719288143211 4:6.6469002 40:3.9881999 83:3.9881999 206:4.4313002 408:3.9881999 430:5.7607002 442:4.4313002 461:3.9881999 463:3.9881999 510:3.9881999 516:4.8744001 527:3.9881999 556:3.9881999 579:3.9881999 625:4.4313002 639:4.4313002 655:3.9881999 661:3.9881999 682:3.9881999 684:4.4313002 709:3.9881999 717:3.9881999 807:4.4313002 865:3.9881999 919:4.4313002 944:4.4313002 951:4.4313002 976:3.9881999 986:3.9881999 991:5.3175998 1028:3.9881999 1045:3.9881999 1062:4.8744001 1065:3.9881999 1079:3.9881999 1085:3.9881999 1089:3.9881999 1139:3.9881999 1143:3.9881999 1149:4.8744001 1213:3.9881999 1240:4.8744001 1253:3.9881999 1264:4.4313002 1320:4.4313002 1326:3.9881999 1358:4.4313002 1375:3.9881999 1414:4.8744001 1415:3.9881999 1431:3.9881999 1478:3.9881999 1484:4.8744001 1516:4.4313002 1557:3.9881999 1622:3.9881999 1634:4.4313002 1653:3.9881999 1668:3.9881999 1708:3.9881999 1738:3.9881999 1739:3.9881999 1744:3.9881999 1747:3.9881999 1768:3.9881999 1814:3.9881999 1819:3.9881999 1827:3.9881999 1865:3.9881999 1911:7.0900998 1919:3.9881999 1959:3.9881999 1992:3.9881999 2025:4.4313002 2036:3.9881999 2049:3.9881999 2052:3.9881999 2084:3.9881999 2110:3.9881999 2133:4.4313002 2141:4.4313002 2186:3.9881999 2267:7.0900998 2319:3.9881999 2346:3.9881999 2389:5.3175998 2404:4.4313002 2409:4.4313002 2423:3.9881999 2426:3.9881999 2428:5.3175998 2442:3.9881999 2448:3.9881999 2473:3.9881999 2507:5.3175998 2573:3.9881999 2649:3.9881999 2678:6.2038002 2687:4.4313002 2694:4.8744001 2698:3.9881999 2712:3.9881999 2719:3.9881999 2728:3.9881999 2762:4.4313002 2810:3.9881999 2831:4.4313002 2840:4.8744001 2879:5.7607002 2894:3.9881999 2899:3.9881999 2906:3.9881999 2948:4.4313002 2963:3.9881999 2997:3.9881999 3019:3.9881999 3037:3.9881999 3091:3.9881999 3124:3.9881999 3167:6.2038002 3212:3.9881999 3226:3.9881999 3244:3.9881999 3319:3.9881999 3339:3.9881999 3354:3.9881999 3368:3.9881999 3372:3.9881999 3385:3.9881999 3388:4.4313002 3409:3.9881999 3410:3.9881999 3421:3.9881999 3458:5.7607002 3476:3.9881999 3494:4.4313002 3532:3.9881999 # none/00002607_s07.txt
-0.00052615065072219332868719288143211 4:3.6041 10:3.6041 11:3.7223001 12:3.6041 13:3.6041 25:3.6041 32:3.8994999 40:3.6631999 45:3.6041 61:3.8994999 76:3.8405001 83:3.6041 111:3.6041 119:3.6041 128:3.6041 137:3.6631999 153:3.7223001 161:3.6041 185:3.8405001 189:3.6041 194:3.6041 195:3.6041 199:3.6631999 200:3.7814 202:3.8405001 203:3.7814 209:3.6631999 210:3.6041 213:3.6041 220:3.6631999 224:3.6631999 226:3.6041 230:3.6041 237:3.6041 243:3.6041 254:3.6041 255:3.6041 260:3.6631999 261:3.6041 264:3.6041 279:3.7223001 283:3.7223001 284:3.6041 288:3.6631999 302:3.6631999 308:3.7223001 309:3.6041 312:3.7223001 314:3.6041 317:3.7223001 323:3.6041 335:3.6041 380:3.6041 408:3.6041 409:3.6041 430:3.8994999 442:3.8994999 444:3.6041 463:3.8405001 487:4.0177002 510:3.6041 523:4.0177002 526:3.6041 550:3.6041 554:3.6041 556:3.6041 571:3.6631999 572:3.6631999 585:3.6041 591:3.6041 594:3.7223001 598:3.6041 628:3.7223001 630:3.7223001 639:3.6631999 658:3.6041 665:3.6041 682:3.6631999 684:3.6041 694:3.6631999 699:3.7223001 722:3.7223001 736:3.8994999 737:3.6041 751:3.6041 753:3.7814 821:3.6041 824:3.6631999 826:3.6041 830:3.6631999 831:3.6041 865:3.6631999 900:3.6041 908:3.6631999 916:3.6041 932:3.6041 934:3.6041 937:3.6041 939:3.6041 945:3.6041 951:4.0177002 964:3.6631999 976:3.6041 1028:3.6041 1030:3.6041 1032:3.6041 1035:3.6041 1054:3.6041 1065:3.6041 1078:3.7814 1079:3.7223001 1089:3.6041 1114:3.6041 1125:3.6041 1139:4.0177002 1140:3.6631999 1150:3.6041 1151:3.6041 1157:3.7223001 1164:3.7223001 1187:3.6041 1196:3.8405001 1203:3.6041 1205:3.6041 1208:3.6041 1212:3.6041 1213:3.7814 1226:3.6041 1240:3.9586 1253:3.6041 1264:3.7814 1270:3.6041 1320:3.7223001 1326:3.6041 1351:3.6041 1352:3.6041 1358:3.6041 1365:3.6041 1377:3.6041 1405:3.6041 1415:3.6041 1439:3.6041 1444:3.6631999 1453:3.6041 1478:3.7223001 1492:3.6041 1516:3.6631999 1581:3.6041 1590:3.6041 1606:3.7223001 1622:3.7223001 1628:3.6041 1647:3.6041 1657:3.6041 1665:3.6041 1668:3.7223001 1669:3.6041 1707:3.6041 1709:3.6041 1711:3.6041 1721:3.6041 1738:3.6041 1739:3.6041 1744:3.7223001 1747:3.6631999 1754:3.6041 1763:3.6041 1768:3.7223001 1795:4.0767999 1814:3.7223001 1860:3.6041 1865:3.6041 1896:3.6631999 1897:3.6041 1907:3.6041 1908:3.6041 1911:3.8405001 1926:3.6041 1950:3.6041 1965:3.7223001 1968:3.6041 1999:3.6041 2012:3.6041 2017:3.6041 2036:3.6041 2041:3.6041 2045:3.6041 2049:3.6041 2062:3.6041 2077:3.6631999 2110:3.7223001 2133:3.8405001 2141:3.8405001 2142:3.7814 2160:3.6631999 2164:3.6631999 2188:3.6041 2214:3.7223001 2223:3.7223001 2252:3.6041 2259:3.6041 2267:4.7858 2274:3.6041 2282:3.9586 2297:3.6041 2298:4.3130999 2308:3.6041 2319:3.8405001 2326:3.6631999 2333:3.6041 2342:3.6041 2351:3.6041 2393:3.6041 2394:3.7223001 2404:5.5538998 2409:3.8405001 2423:3.6041 2426:3.7223001 2448:3.6631999 2462:3.6631999 2471:3.6041 2473:3.6631999 2486:3.6041 2507:3.7223001 2510:3.6041 2545:3.6041 2555:3.6041 2578:3.6041 2581:3.6041 2582:3.6631999 2595:3.6041 2611:3.7814 2613:3.6631999 2622:3.6631999 2630:3.6041 2636:3.6041 2649:3.7223001 2666:3.6041 2670:3.7223001 2671:3.7223001 2678:4.4313002 2682:3.6041 2683:3.6631999 2694:4.0177002 2699:3.6041 2712:3.6041 2716:3.6041 2723:3.6631999 2724:3.6041 2728:3.6041 2731:3.6041 2734:3.6041 2740:3.6041 2762:3.6041 2766:3.8405001 2767:3.6041 2777:4.5495 2784:3.6041 2810:3.6631999 2831:3.8405001 2833:3.6041 2834:3.8994999 2838:3.6041 2840:7.0900998 2859:3.6041 2861:4.0177002 2879:3.6041 2906:3.6631999 2912:3.6631999 2936:4.3130999 2943:3.6041 2948:3.8405001 2957:3.6041 2995:3.6041 2997:3.8994999 3001:3.6041 3006:3.6041 3010:3.6631999 3017:3.7223001 3019:3.6631999 3021:3.6631999 3038:3.6631999 3046:3.6631999 3055:3.6041 3063:3.6041 3068:3.7223001 3072:3.7814 3091:3.6041 3114:3.6631999 3116:3.6041 3124:3.6631999 3167:3.6041 3179:3.6631999 3182:3.6041 3198:3.6631999 3226:3.8405001 3268:3.6041 3312:3.7223001 3333:3.6631999 3343:3.7223001 3354:3.6631999 3358:3.7223001 3368:3.7223001 3372:3.6041 3378:3.6631999 3408:3.6041 3409:3.7814 3413:3.6631999 3421:3.7814 3430:3.8405001 3441:3.6041 3442:3.6041 3446:3.6041 3449:3.6631999 3458:3.8405001 3462:3.6631999 3470:3.6631999 3471:3.7814 3473:3.6631999 # none/00006642_s04.txt
-0.00052615065072219332868719288143211 4:4.4698 7:3.6991999 25:4.0074 32:4.1616001 40:3.8533001 42:3.6991999 60:3.6991999 61:4.1616001 76:3.6991999 94:3.6991999 101:3.6991999 102:4.0074 110:3.6991999 111:3.8533001 119:3.6991999 130:3.6991999 131:3.6991999 183:4.4698 227:3.6991999 255:3.6991999 278:3.6991999 282:3.6991999 313:3.6991999 323:3.6991999 393:3.6991999 403:4.0074 408:3.6991999 410:3.6991999 430:4.4698 442:4.0074 487:3.8533001 510:3.8533001 527:3.8533001 550:3.6991999 556:3.8533001 564:3.6991999 572:3.6991999 581:3.6991999 585:3.6991999 591:3.6991999 594:3.6991999 610:3.6991999 630:3.6991999 639:3.8533001 661:3.8533001 665:3.6991999 682:4.1616001 684:3.6991999 699:3.6991999 722:3.6991999 751:3.6991999 776:4.0074 783:3.6991999 821:3.8533001 824:3.6991999 826:3.8533001 861:3.6991999 865:4.0074 916:4.9322 938:3.6991999 951:4.3157001 976:3.6991999 979:3.6991999 1001:3.6991999 1032:3.8533001 1045:3.6991999 1065:3.8533001 1079:4.1616001 1105:3.6991999 1121:3.8533001 1139:3.6991999 1147:3.6991999 1182:3.6991999 1196:3.6991999 1212:3.6991999 1213:3.6991999 1226:3.8533001 1240:4.6240001 1253:3.8533001 1264:3.8533001 1283:3.6991999 1297:3.6991999 1302:3.6991999 1317:4.0074 1320:3.6991999 1351:3.8533001 1352:3.6991999 1358:4.1616001 1367:3.6991999 1376:3.6991999 1399:3.6991999 1406:3.6991999 1415:4.0074 1478:4.0074 1484:3.6991999 1516:4.7781 1517:4.1616001 1557:3.6991999 1579:3.6991999 1586:3.6991999 1617:3.6991999 1630:3.6991999 1633:3.6991999 1634:4.0074 1662:3.6991999 1668:3.6991999 1670:3.8533001 1711:3.6991999 1729:3.6991999 1738:3.6991999 1739:3.6991999 1744:3.8533001 1768:4.1616001 1790:3.6991999 1791:3.6991999 1795:4.1616001 1814:3.8533001 1896:3.8533001 1911:4.1616001 1936:3.6991999 1950:3.6991999 1957:3.6991999 1959:3.6991999 1965:4.0074 2049:3.6991999 2053:3.6991999 2084:4.0074 2097:3.6991999 2110:4.0074 2133:4.4698 2141:4.0074 2142:4.1616001 2157:3.6991999 2160:3.6991999 2214:3.6991999 2267:4.6240001 2297:3.6991999 2317:3.6991999 2334:3.6991999 2342:4.0074 2347:4.0074 2394:4.7781 2395:3.6991999 2397:4.1616001 2404:5.3945999 2409:3.6991999 2423:3.6991999 2426:3.8533001 2432:3.6991999 2442:4.0074 2473:3.8533001 2486:3.6991999 2507:4.1616001 2511:3.6991999 2574:3.6991999 2645:3.6991999 2671:3.8533001 2678:5.5488 2685:3.6991999 2694:4.3157001 2701:3.6991999 2712:3.8533001 2724:4.0074 2739:3.6991999 2767:3.8533001 2777:4.7781 2810:3.6991999 2815:3.6991999 2831:5.0864 2834:3.8533001 2835:3.8533001 2840:7.0900998 2861:4.1616001 2879:3.8533001 2889:3.6991999 2894:3.8533001 2899:3.6991999 2906:3.8533001 2918:3.6991999 2936:4.1616001 2948:4.3157001 2957:4.0074 3019:3.8533001 3027:3.8533001 3030:3.6991999 3039:3.6991999 3046:3.6991999 3053:3.6991999 3124:3.8533001 3167:4.6240001 3179:3.6991999 3180:3.6991999 3198:4.0074 3215:3.6991999 3216:3.6991999 3226:3.8533001 3267:3.6991999 3299:3.6991999 3312:3.6991999 3354:3.6991999 3358:3.6991999 3368:3.8533001 3421:3.8533001 3449:3.6991999 3458:3.8533001 3462:3.6991999 3463:3.6991999 3464:3.6991999 3494:3.8533001 # none/00000088_s10.txt
-0.00052615065072219332868719288143211 7:4.7266998 61:4.1359 93:4.7266998 101:4.1359 111:4.7266998 128:4.1359 282:4.1359 315:4.7266998 342:4.1359 390:4.1359 408:4.1359 411:4.1359 430:5.3175998 438:4.1359 510:4.1359 533:4.1359 569:4.1359 579:4.7266998 591:4.1359 594:4.1359 598:5.3175998 639:4.7266998 658:4.1359 661:4.1359 665:4.1359 682:5.3175998 717:4.7266998 722:4.1359 751:4.1359 821:4.1359 865:4.7266998 875:4.7266998 916:4.1359 923:4.1359 928:4.1359 945:4.1359 951:6.4991999 976:4.7266998 1045:4.7266998 1065:4.7266998 1079:4.1359 1118:4.1359 1121:4.1359 1125:4.1359 1197:4.1359 1208:4.1359 1213:4.1359 1240:7.0900998 1317:4.1359 1421:4.1359 1625:4.1359 1634:5.9084001 1670:4.1359 1707:5.3175998 1708:4.1359 1711:4.1359 1721:4.1359 1738:4.1359 1744:4.1359 1768:4.1359 1795:4.1359 1814:4.1359 1819:4.1359 1911:4.7266998 1959:4.1359 1988:5.3175998 1992:4.1359 2045:4.1359 2049:4.1359 2133:4.7266998 2141:5.3175998 2148:4.1359 2167:4.1359 2342:4.1359 2347:4.7266998 2394:4.1359 2404:4.7266998 2409:5.9084001 2426:4.1359 2428:4.1359 2442:4.1359 2497:4.7266998 2507:4.1359 2552:4.1359 2648:4.1359 2675:4.1359 2678:7.0900998 2694:4.1359 2701:4.7266998 2712:4.1359 2777:4.7266998 2834:4.1359 2835:4.1359 2840:5.3175998 2879:4.1359 2886:4.1359 2918:4.1359 2948:4.1359 2973:4.1359 3027:4.1359 3046:4.7266998 3091:4.1359 3093:5.3175998 3124:4.1359 3149:4.1359 3167:4.1359 3198:4.1359 3226:4.1359 3257:4.1359 3355:4.7266998 3421:4.7266998 3439:6.4991999 3458:4.1359 3470:4.1359 # none/00000340_s03.txt
-0.00052615065072219332868719288143211 4:3.7138 10:4.0514998 14:3.7138 25:3.7138 32:3.8827 40:3.8827 46:3.7138 47:3.7138 48:3.7138 59:3.7138 61:3.7138 94:3.7138 162:3.7138 176:3.8827 190:3.7138 195:3.7138 210:3.7138 215:3.7138 224:3.7138 252:3.8827 272:3.8827 288:3.7138 309:3.7138 315:3.8827 316:4.3891001 317:3.7138 323:3.7138 356:3.7138 380:3.7138 408:3.7138 418:3.7138 430:4.8955002 463:3.8827 471:3.7138 472:3.7138 478:3.7138 484:3.7138 487:3.7138 496:4.0514998 510:4.3891001 516:4.5579 527:5.0643001 549:3.7138 550:3.7138 556:4.2203002 570:4.0514998 572:3.7138 575:3.7138 579:4.3891001 585:3.7138 610:3.8827 620:3.7138 628:3.8827 630:3.7138 639:4.3891001 640:3.7138 658:4.0514998 664:3.7138 665:3.7138 666:3.8827 722:3.7138 744:3.7138 753:3.7138 807:4.0514998 821:3.8827 824:3.7138 825:3.7138 826:3.7138 861:4.2203002 865:4.0514998 875:3.7138 905:3.7138 908:3.7138 912:3.7138 916:4.2203002 951:4.0514998 958:4.0514998 976:3.7138 985:3.7138 1016:3.7138 1025:3.7138 1032:3.7138 1061:3.7138 1062:3.7138 1068:3.8827 1076:3.7138 1079:4.0514998 1081:3.7138 1084:3.7138 1085:3.8827 1090:3.7138 1105:3.7138 1117:3.7138 1118:3.7138 1121:3.7138 1125:3.8827 1147:3.7138 1175:4.0514998 1205:4.5579 1208:3.7138 1213:3.7138 1214:3.7138 1226:3.7138 1240:5.0643001 1241:3.7138 1242:3.7138 1246:3.7138 1247:3.8827 1253:3.8827 1264:3.8827 1270:3.7138 1283:3.7138 1306:3.7138 1314:3.7138 1320:3.7138 1328:3.7138 1341:3.7138 1351:3.7138 1352:3.8827 1358:3.7138 1359:3.7138 1372:3.7138 1377:3.7138 1384:3.7138 1396:3.7138 1397:4.0514998 1399:3.7138 1420:3.7138 1438:3.7138 1439:4.0514998 1443:3.8827 1450:3.8827 1478:4.5579 1484:4.0514998 1516:3.7138 1517:3.7138 1531:3.7138 1557:3.8827 1617:4.0514998 1634:3.8827 1649:3.7138 1652:4.0514998 1668:3.7138 1670:3.7138 1703:4.0514998 1709:3.7138 1711:4.7266998 1713:3.7138 1716:4.7266998 1737:3.7138 1739:3.7138 1744:3.7138 1767:3.7138 1768:4.0514998 1795:3.8827 1814:3.8827 1819:3.8827 1832:3.7138 1848:3.7138 1863:3.7138 1899:4.0514998 1906:3.7138 1910:3.7138 1911:6.4148002 1919:3.7138 1924:3.8827 1959:3.7138 1968:4.3891001 1972:3.7138 1985:3.7138 1988:3.8827 2024:3.7138 2025:3.7138 2045:3.7138 2049:4.3891001 2084:3.7138 2085:3.7138 2110:3.7138 2119:3.7138 2133:4.3891001 2141:4.7266998 2142:3.8827 2146:3.7138 2148:3.7138 2150:3.7138 2152:4.2203002 2153:4.5579 2167:4.0514998 2215:3.7138 2223:3.7138 2231:3.7138 2267:3.7138 2290:3.7138 2291:3.7138 2296:3.8827 2297:3.8827 2300:3.7138 2302:3.7138 2304:3.8827 2319:3.8827 2326:3.7138 2335:3.7138 2336:3.8827 2342:4.0514998 2346:3.7138 2356:3.7138 2368:3.7138 2392:3.7138 2394:3.7138 2404:4.7266998 2409:4.0514998 2426:3.8827 2428:3.7138 2435:3.7138 2438:3.8827 2450:4.0514998 2457:3.7138 2473:3.8827 2485:3.7138 2497:4.0514998 2500:3.7138 2507:4.0514998 2511:3.8827 2556:3.7138 2559:3.8827 2611:3.7138 2642:4.3891001 2648:4.2203002 2651:3.7138 2653:4.0514998 2661:4.0514998 2678:6.2459998 2690:3.7138 2694:4.5579 2701:3.7138 2728:4.2203002 2740:3.7138 2761:3.8827 2764:3.7138 2766:4.2203002 2767:4.5579 2777:4.7266998 2800:3.7138 2801:3.7138 2803:3.7138 2810:3.7138 2811:3.7138 2827:4.5579 2831:4.3891001 2833:3.7138 2834:4.2203002 2835:4.7266998 2837:3.7138 2839:3.7138 2840:7.0900998 2841:3.7138 2879:5.2332001 2894:3.8827 2899:3.8827 2906:4.5579 2918:3.7138 2933:3.7138 2936:6.5836 2948:5.7396002 2957:3.7138 2974:3.7138 2997:4.2203002 3001:3.8827 3010:4.3891001 3017:4.7266998 3019:3.8827 3021:3.8827 3024:3.8827 3038:3.7138 3046:3.7138 3072:3.7138 3081:3.7138 3114:4.2203002 3124:3.8827 3129:3.8827 3148:3.7138 3167:5.9084001 3184:3.7138 3198:4.2203002 3205:3.7138 3221:3.7138 3225:3.7138 3226:4.0514998 3245:3.8827 3252:3.7138 3299:4.0514998 3307:3.8827 3308:3.8827 3343:3.8827 3353:3.7138 3358:3.7138 3368:3.7138 3369:3.7138 3413:3.8827 3421:4.0514998 3439:3.7138 3444:4.0514998 3445:3.8827 3446:5.5707998 3458:6.2459998 3463:3.7138 3470:4.2203002 3482:3.7138 3515:3.7138 3519:3.7138 3533:3.7138 # none/00005914_s01.txt
0.00052615065072219332868719288143211 40:4.0514998 154:4.0514998 169:4.0514998 365:4.0514998 408:5.0643001 430:4.5579 508:4.5579 516:4.0514998 527:5.0643001 618:4.0514998 682:4.0514998 774:4.0514998 807:4.0514998 813:4.0514998 820:4.0514998 861:4.0514998 865:4.0514998 976:5.0643001 1079:4.0514998 1117:4.0514998 1121:4.0514998 1139:5.0643001 1175:4.0514998 1205:4.5579 1208:4.0514998 1213:4.5579 1218:4.0514998 1240:7.0900998 1253:4.0514998 1264:4.5579 1320:4.0514998 1326:4.0514998 1347:4.0514998 1356:4.0514998 1392:4.0514998 1424:4.0514998 1478:5.0643001 1516:4.0514998 1522:4.0514998 1678:4.0514998 1694:4.5579 1703:4.5579 1738:4.0514998 1744:4.5579 1814:4.0514998 1865:4.0514998 1905:4.0514998 1911:4.5579 2049:4.0514998 2083:4.0514998 2084:4.5579 2252:4.0514998 2256:4.0514998 2259:4.5579 2297:4.0514998 2329:4.5579 2394:4.0514998 2404:5.5707998 2426:4.0514998 2453:4.5579 2473:4.0514998 2507:4.0514998 2571:4.5579 2574:4.0514998 2658:4.0514998 2661:4.0514998 2668:4.0514998 2678:6.0771999 2693:4.0514998 2694:4.0514998 2710:4.0514998 2728:4.5579 2730:4.0514998 2760:4.0514998 2766:4.0514998 2797:4.0514998 2835:4.5579 2840:5.5707998 2912:4.0514998 2948:4.5579 2959:4.5579 3019:4.0514998 3039:4.5579 3055:4.0514998 3076:4.0514998 3124:4.0514998 3152:4.0514998 3167:6.0771999 3226:5.0643001 3348:4.0514998 3358:4.0514998 3368:4.0514998 3421:4.0514998 3446:4.5579 3458:4.0514998 3471:4.0514998 # seizures/00005770_s01.txt
0.00052615065072219332868719288143211 40:4.1359 51:4.1359 154:4.1359 169:4.1359 408:5.3175998 430:4.7266998 442:4.7266998 516:4.1359 527:5.3175998 542:4.1359 550:4.1359 569:4.7266998 585:4.1359 628:4.1359 669:4.1359 682:4.1359 807:5.3175998 813:4.1359 865:4.1359 906:4.1359 945:5.3175998 954:4.1359 976:4.7266998 979:4.1359 1015:4.1359 1079:4.1359 1110:4.1359 1117:4.1359 1139:5.3175998 1175:4.1359 1208:4.1359 1218:4.1359 1240:5.3175998 1253:4.1359 1264:4.7266998 1356:4.7266998 1359:4.1359 1392:4.1359 1478:6.4991999 1516:4.1359 1531:4.1359 1622:4.1359 1703:4.7266998 1738:4.1359 1744:4.7266998 1747:4.1359 1750:4.1359 1795:4.1359 1814:4.1359 1865:4.1359 1872:4.1359 1911:4.7266998 1914:4.1359 1918:4.7266998 2049:4.1359 2083:4.1359 2084:4.1359 2164:4.1359 2252:4.1359 2302:4.7266998 2329:4.7266998 2342:4.1359 2394:5.3175998 2404:4.7266998 2426:4.1359 2428:4.1359 2453:4.7266998 2473:4.1359 2479:4.1359 2507:4.1359 2571:4.7266998 2574:4.1359 2649:4.1359 2658:4.1359 2661:4.1359 2668:4.1359 2678:7.0900998 2694:6.4991999 2728:4.1359 2760:4.1359 2766:4.7266998 2777:4.1359 2797:4.1359 2804:4.1359 2833:4.1359 2835:4.7266998 2840:7.0900998 2879:4.1359 2882:4.1359 2912:5.3175998 2918:4.1359 2936:4.1359 2948:5.3175998 2973:4.1359 3010:4.1359 3017:4.1359 3019:4.1359 3039:4.7266998 3055:4.1359 3124:4.1359 3149:4.1359 3152:4.1359 3167:5.3175998 3216:4.7266998 3226:4.1359 3307:4.1359 3368:4.1359 3446:4.1359 3458:5.3175998 3470:4.1359 # seizures/00000447_s01.txt
0.00052615065072219332868719288143211 40:3.9881999 365:3.9881999 408:5.3175998 430:4.4313002 442:4.4313002 485:3.9881999 527:3.9881999 550:4.4313002 570:4.8744001 610:4.8744001 682:3.9881999 692:3.9881999 750:3.9881999 751:3.9881999 774:3.9881999 813:3.9881999 820:3.9881999 865:3.9881999 913:4.4313002 941:3.9881999 945:4.4313002 976:4.8744001 979:3.9881999 1054:3.9881999 1079:3.9881999 1117:3.9881999 1118:3.9881999 1121:3.9881999 1139:4.4313002 1157:4.4313002 1175:4.8744001 1208:4.4313002 1213:6.2038002 1218:4.4313002 1240:6.6469002 1253:4.8744001 1264:4.4313002 1285:3.9881999 1306:3.9881999 1326:3.9881999 1347:3.9881999 1352:4.4313002 1356:4.4313002 1367:3.9881999 1449:4.4313002 1478:4.4313002 1516:4.4313002 1554:3.9881999 1631:3.9881999 1634:7.0900998 1672:3.9881999 1694:4.4313002 1703:3.9881999 1738:3.9881999 1744:4.4313002 1795:4.4313002 1814:3.9881999 1872:3.9881999 1874:3.9881999 1896:3.9881999 1905:4.4313002 1911:5.7607002 1973:3.9881999 2049:3.9881999 2097:4.8744001 2252:3.9881999 2256:3.9881999 2267:3.9881999 2279:3.9881999 2329:3.9881999 2346:4.8744001 2373:3.9881999 2394:3.9881999 2404:7.0900998 2426:4.4313002 2453:3.9881999 2473:3.9881999 2479:3.9881999 2507:4.8744001 2571:4.4313002 2574:3.9881999 2668:3.9881999 2677:3.9881999 2678:6.6469002 2693:3.9881999 2760:3.9881999 2766:4.8744001 2777:6.2038002 2791:3.9881999 2814:3.9881999 2827:3.9881999 2835:6.2038002 2840:4.8744001 2912:3.9881999 2918:3.9881999 2948:3.9881999 3019:3.9881999 3021:3.9881999 3039:3.9881999 3055:3.9881999 3124:3.9881999 3137:3.9881999 3152:3.9881999 3158:3.9881999 3167:3.9881999 3198:3.9881999 3216:4.4313002 3226:3.9881999 3312:3.9881999 3358:3.9881999 3368:3.9881999 3421:3.9881999 3446:5.3175998 3470:3.9881999 # seizures/00001136_s06.txt
0.00052615065072219332868719288143211 40:3.9389 133:3.9389 162:3.9389 184:4.3327999 189:3.9389 193:3.9389 200:3.9389 238:3.9389 261:3.9389 285:3.9389 323:3.9389 408:4.3327999 409:3.9389 430:5.1206002 472:4.7266998 478:3.9389 516:3.9389 526:3.9389 527:3.9389 553:3.9389 570:3.9389 628:4.7266998 651:3.9389 657:3.9389 682:3.9389 753:3.9389 824:3.9389 865:3.9389 885:3.9389 900:3.9389 902:5.5145001 913:4.7266998 951:3.9389 976:4.7266998 1019:3.9389 1030:3.9389 1049:3.9389 1078:3.9389 1079:3.9389 1089:3.9389 1105:3.9389 1139:3.9389 1175:3.9389 1213:4.3327999 1240:7.0900998 1253:3.9389 1264:4.7266998 1270:3.9389 1320:3.9389 1326:4.3327999 1352:4.7266998 1392:3.9389 1396:3.9389 1424:3.9389 1441:3.9389 1484:4.3327999 1502:3.9389 1522:3.9389 1531:3.9389 1610:3.9389 1617:3.9389 1619:4.3327999 1694:3.9389 1703:3.9389 1707:4.3327999 1716:3.9389 1738:3.9389 1744:3.9389 1791:4.7266998 1814:3.9389 1896:3.9389 1911:4.3327999 1968:3.9389 2083:3.9389 2110:4.3327999 2133:3.9389 2148:4.3327999 2152:3.9389 2164:3.9389 2177:3.9389 2252:4.3327999 2253:4.7266998 2254:3.9389 2259:5.1206002 2280:3.9389 2282:4.3327999 2291:3.9389 2329:3.9389 2337:3.9389 2404:5.9084001 2426:3.9389 2453:3.9389 2473:3.9389 2507:3.9389 2547:4.3327999 2571:3.9389 2601:3.9389 2630:4.3327999 2647:3.9389 2661:3.9389 2678:3.9389 2714:3.9389 2745:4.3327999 2760:5.5145001 2762:3.9389 2766:3.9389 2777:3.9389 2785:3.9389 2791:3.9389 2834:3.9389 2835:4.3327999 2840:6.3023 2861:4.3327999 2875:3.9389 2877:3.9389 2899:4.3327999 2901:4.3327999 2915:3.9389 2936:4.7266998 2953:4.3327999 2963:3.9389 3017:4.7266998 3019:3.9389 3021:4.7266998 3039:3.9389 3089:3.9389 3124:3.9389 3145:3.9389 3167:3.9389 3182:3.9389 3226:4.7266998 3278:3.9389 3307:3.9389 3308:4.7266998 3349:3.9389 3368:3.9389 3372:3.9389 3408:4.3327999 3421:3.9389 3422:3.9389 3497:3.9389 # seizures/00000494_s02.txt
0.00052615065072219332868719288143211 40:4.2540002 390:4.2540002 598:4.9631 722:4.2540002 821:4.2540002 824:4.2540002 865:4.2540002 976:4.2540002 1068:4.2540002 1079:4.2540002 1121:4.2540002 1125:4.2540002 1138:4.2540002 1198:4.2540002 1205:4.2540002 1240:7.0900998 1253:4.2540002 1264:4.2540002 1314:4.2540002 1546:4.2540002 1617:4.2540002 1670:4.2540002 1738:4.2540002 1744:4.2540002 1755:4.2540002 1762:4.2540002 1814:4.2540002 1860:4.2540002 1874:4.2540002 2009:4.2540002 2025:4.2540002 2049:4.2540002 2133:4.2540002 2153:4.2540002 2190:4.2540002 2193:4.2540002 2259:4.9631 2267:4.2540002 2280:4.2540002 2404:4.9631 2426:4.2540002 2453:4.2540002 2473:4.2540002 2501:4.2540002 2559:4.2540002 2574:4.2540002 2678:4.2540002 2745:4.2540002 2787:4.2540002 2827:4.2540002 2840:4.2540002 2936:5.6721001 3001:4.2540002 3017:4.9631 3019:4.2540002 3039:4.2540002 3124:4.2540002 3276:4.2540002 3368:4.2540002 3413:4.2540002 3421:4.2540002 3458:4.2540002 # seizures/00000185_s02.txt
-0.00025148335197139521680897988886727 40:4.0514998 323:4.0514998 408:5.0643001 430:4.5579 442:4.0514998 516:4.0514998 527:4.0514998 550:4.5579 593:4.5579 682:4.0514998 751:4.0514998 865:5.0643001 919:4.0514998 945:4.0514998 976:5.0643001 979:4.0514998 1079:4.0514998 1104:4.0514998 1117:4.0514998 1139:7.0900998 1175:4.0514998 1205:4.0514998 1208:4.5579 1240:4.5579 1253:4.0514998 1264:4.5579 1268:4.0514998 1314:4.5579 1320:4.0514998 1392:4.0514998 1481:4.0514998 1484:4.0514998 1531:4.0514998 1554:5.5707998 1622:4.0514998 1694:4.0514998 1703:4.0514998 1738:4.0514998 1744:4.0514998 1814:4.0514998 1827:4.0514998 1911:5.0643001 2007:4.0514998 2049:4.0514998 2084:4.0514998 2164:4.5579 2252:4.5579 2259:4.0514998 2302:4.5579 2303:4.0514998 2329:4.5579 2393:4.0514998 2404:4.5579 2426:4.0514998 2453:4.0514998 2473:4.0514998 2500:4.0514998 2507:4.0514998 2534:4.5579 2571:4.5579 2574:4.0514998 2647:4.5579 2649:4.0514998 2658:4.0514998 2661:4.0514998 2668:4.0514998 2677:4.0514998 2678:6.0771999 2694:4.5579 2766:4.0514998 2797:4.0514998 2840:4.5579 2879:4.0514998 2921:4.0514998 2936:5.0643001 2948:4.0514998 2957:4.0514998 3010:4.0514998 3017:5.0643001 3019:4.0514998 3021:4.0514998 3039:4.0514998 3055:4.0514998 3081:4.0514998 3124:4.0514998 3152:4.0514998 3167:5.0643001 3211:4.0514998 3215:4.0514998 3226:4.0514998 3326:4.0514998 3368:4.0514998 3446:4.5579 3458:4.5579 3471:4.0514998 # none/00010465_s01.txt
-0.00021844234910500343006464762929397 18:3.9389 40:4.7266998 76:4.3327999 94:4.3327999 123:3.9389 180:5.1206002 203:3.9389 339:3.9389 396:3.9389 408:5.5145001 430:5.1206002 442:3.9389 446:3.9389 579:4.7266998 639:5.9084001 661:4.3327999 717:3.9389 722:4.3327999 730:3.9389 805:4.3327999 813:3.9389 821:4.3327999 865:4.7266998 888:3.9389 916:4.3327999 939:3.9389 951:4.7266998 958:4.3327999 974:3.9389 976:3.9389 986:3.9389 1028:3.9389 1039:5.1206002 1062:4.3327999 1065:3.9389 1079:3.9389 1118:3.9389 1121:3.9389 1125:3.9389 1167:3.9389 1196:3.9389 1208:4.3327999 1240:7.0900998 1253:4.7266998 1254:3.9389 1264:5.1206002 1314:3.9389 1445:3.9389 1517:3.9389 1520:3.9389 1522:7.0900998 1541:3.9389 1554:3.9389 1591:3.9389 1666:3.9389 1668:3.9389 1670:4.3327999 1694:3.9389 1730:3.9389 1738:4.3327999 1768:3.9389 1814:4.7266998 1868:3.9389 1911:3.9389 1919:4.3327999 1965:3.9389 1972:3.9389 1983:3.9389 2017:3.9389 2025:4.7266998 2036:4.3327999 2045:3.9389 2049:3.9389 2133:4.7266998 2157:3.9389 2259:3.9389 2266:3.9389 2291:3.9389 2346:3.9389 2347:3.9389 2404:5.5145001 2409:4.3327999 2426:5.1206002 2450:4.3327999 2453:4.3327999 2473:4.7266998 2491:3.9389 2497:3.9389 2500:3.9389 2534:4.7266998 2574:3.9389 2639:3.9389 2647:3.9389 2678:7.0900998 2694:3.9389 2767:3.9389 2777:5.1206002 2828:3.9389 2831:3.9389 2834:3.9389 2840:4.7266998 2879:3.9389 2936:3.9389 2948:5.9084001 2973:3.9389 2997:5.5145001 3001:3.9389 3017:3.9389 3019:4.7266998 3039:4.3327999 3050:3.9389 3072:3.9389 3086:3.9389 3091:3.9389 3124:4.7266998 3159:3.9389 3179:3.9389 3215:4.3327999 3226:3.9389 3343:3.9389 3362:3.9389 3368:4.7266998 3413:3.9389 3421:4.3327999 3458:5.9084001 # none/00008073_s02.txt
-2.9242498046593091488333515659548e-05 7:3.8176999 13:3.8176999 21:3.8176999 32:3.8176999 40:3.8176999 61:4.9085002 76:3.8176999 203:3.8176999 226:3.8176999 250:3.8176999 309:3.8176999 310:3.8176999 316:4.0904002 317:3.8176999 408:4.0904002 442:4.3631001 462:3.8176999 463:3.8176999 516:3.8176999 521:3.8176999 527:3.8176999 639:3.8176999 650:4.3631001 682:3.8176999 694:3.8176999 714:3.8176999 784:4.0904002 799:3.8176999 820:5.4538999 853:5.1812 861:3.8176999 865:4.3631001 951:3.8176999 976:4.3631001 979:3.8176999 1045:3.8176999 1079:3.8176999 1139:3.8176999 1175:3.8176999 1208:3.8176999 1213:4.3631001 1240:5.7266002 1253:3.8176999 1264:4.0904002 1298:4.0904002 1324:3.8176999 1352:3.8176999 1356:3.8176999 1404:3.8176999 1415:3.8176999 1431:4.0904002 1478:4.6357999 1516:3.8176999 1517:3.8176999 1522:4.0904002 1531:3.8176999 1559:3.8176999 1634:6.2719998 1657:3.8176999 1703:3.8176999 1738:3.8176999 1739:3.8176999 1757:3.8176999 1762:3.8176999 1795:4.0904002 1814:3.8176999 1827:3.8176999 1911:7.0900998 1983:3.8176999 2033:3.8176999 2037:3.8176999 2049:3.8176999 2089:3.8176999 2229:3.8176999 2252:3.8176999 2259:4.9085002 2267:4.0904002 2317:3.8176999 2329:4.0904002 2342:4.0904002 2346:6.5447001 2404:4.9085002 2426:4.0904002 2446:3.8176999 2472:3.8176999 2473:3.8176999 2507:3.8176999 2537:3.8176999 2555:4.0904002 2565:3.8176999 2567:3.8176999 2571:4.6357999 2585:3.8176999 2668:3.8176999 2671:3.8176999 2673:4.0904002 2677:3.8176999 2678:4.3631001 2694:4.0904002 2701:3.8176999 2719:3.8176999 2728:3.8176999 2734:3.8176999 2756:3.8176999 2759:4.3631001 2766:3.8176999 2777:3.8176999 2797:3.8176999 2827:5.1812 2835:5.7266002 2840:4.0904002 2876:3.8176999 2879:4.0904002 2896:5.1812 2910:3.8176999 2948:4.0904002 2953:4.0904002 3019:3.8176999 3051:3.8176999 3055:3.8176999 3099:4.0904002 3124:3.8176999 3136:3.8176999 3137:3.8176999 3167:3.8176999 3226:3.8176999 3320:3.8176999 3368:3.8176999 3398:3.8176999 3458:4.0904002 3494:3.8176999 # none/00000891_s02.txt
0.00012433663127357921047641542422468 40:4.1359 211:4.1359 257:4.1359 272:4.1359 408:4.7266998 422:4.1359 430:5.9084001 442:4.7266998 452:4.1359 516:4.7266998 527:4.1359 550:4.7266998 556:4.7266998 585:4.1359 598:4.1359 610:4.1359 628:4.1359 639:4.7266998 691:6.4991999 736:4.7266998 774:4.7266998 813:4.1359 820:4.1359 865:4.7266998 931:4.1359 945:4.1359 966:4.1359 979:4.1359 1058:4.1359 1062:4.7266998 1068:4.1359 1079:4.1359 1118:7.0900998 1139:4.1359 1175:4.1359 1208:4.1359 1213:4.7266998 1218:4.1359 1240:4.1359 1245:4.1359 1253:4.1359 1264:4.1359 1270:5.3175998 1285:4.1359 1314:4.1359 1320:4.7266998 1414:5.9084001 1445:4.7266998 1516:4.1359 1522:4.1359 1567:4.1359 1585:4.1359 1610:4.1359 1694:5.3175998 1738:4.1359 1747:4.1359 1754:4.7266998 1896:4.1359 1899:4.7266998 1905:4.7266998 1915:4.1359 1988:4.1359 2049:4.1359 2097:4.7266998 2110:4.1359 2127:5.3175998 2186:4.1359 2188:4.1359 2204:4.1359 2256:4.1359 2297:4.7266998 2302:4.1359 2326:4.7266998 2338:4.1359 2342:5.3175998 2345:4.1359 2404:5.3175998 2426:5.3175998 2453:4.7266998 2489:4.1359 2492:4.1359 2500:5.3175998 2507:4.7266998 2514:4.1359 2558:4.1359 2583:4.1359 2647:4.1359 2678:5.9084001 2744:4.1359 2754:4.7266998 2762:4.1359 2766:4.1359 2777:4.1359 2791:4.1359 2827:4.7266998 2840:7.0900998 2906:4.1359 2918:5.9084001 2936:5.3175998 2948:5.3175998 3019:4.1359 3039:4.7266998 3124:4.7266998 3149:4.1359 3155:4.1359 3158:4.1359 3198:4.1359 3226:4.1359 3302:4.1359 3321:4.7266998 3358:4.1359 3409:4.1359 3439:4.1359 3446:4.7266998 # seizures/00002594_s03.txt
0.00030690372504136643506955639537637 40:4.1359 61:5.0221 83:3.8405001 94:3.8405001 119:3.8405001 185:3.8405001 203:3.8405001 238:3.8405001 264:3.8405001 272:4.1359 282:4.1359 288:3.8405001 290:3.8405001 329:3.8405001 430:4.1359 463:4.1359 516:3.8405001 556:4.1359 591:3.8405001 639:5.0221 661:4.1359 665:3.8405001 694:4.7266998 699:3.8405001 722:3.8405001 736:3.8405001 751:4.4313002 807:4.1359 820:3.8405001 821:4.1359 865:3.8405001 896:3.8405001 916:3.8405001 951:4.1359 976:3.8405001 1065:4.1359 1068:3.8405001 1078:3.8405001 1079:4.1359 1121:4.1359 1125:3.8405001 1144:3.8405001 1171:3.8405001 1180:3.8405001 1212:4.1359 1213:3.8405001 1224:3.8405001 1240:6.2038002 1253:4.1359 1264:4.7266998 1297:4.1359 1317:4.1359 1414:3.8405001 1434:3.8405001 1439:3.8405001 1450:3.8405001 1481:3.8405001 1484:3.8405001 1516:3.8405001 1557:3.8405001 1581:3.8405001 1634:4.4313002 1649:3.8405001 1668:3.8405001 1670:3.8405001 1692:3.8405001 1707:3.8405001 1711:4.4313002 1738:4.1359 1739:3.8405001 1755:3.8405001 1771:3.8405001 1781:3.8405001 1791:3.8405001 1795:5.0221 1802:3.8405001 1814:4.1359 1816:3.8405001 1819:3.8405001 1857:4.1359 1865:3.8405001 1896:3.8405001 1911:6.2038002 1983:3.8405001 1988:4.1359 2025:4.7266998 2036:4.7266998 2049:3.8405001 2110:4.1359 2118:3.8405001 2133:4.1359 2141:5.6129999 2142:4.4313002 2162:3.8405001 2223:3.8405001 2267:4.4313002 2291:3.8405001 2298:5.3175998 2302:3.8405001 2342:3.8405001 2351:3.8405001 2386:3.8405001 2389:3.8405001 2404:4.4313002 2409:4.7266998 2426:4.1359 2473:4.1359 2486:3.8405001 2491:3.8405001 2507:5.3175998 2534:3.8405001 2548:3.8405001 2555:3.8405001 2582:4.1359 2622:4.1359 2624:3.8405001 2678:5.0221 2694:4.4313002 2710:3.8405001 2712:3.8405001 2777:4.1359 2831:3.8405001 2834:4.1359 2840:7.0900998 2948:4.4313002 2997:4.7266998 3010:3.8405001 3019:4.1359 3021:3.8405001 3027:4.1359 3038:3.8405001 3091:3.8405001 3093:4.7266998 3124:4.1359 3215:3.8405001 3226:3.8405001 3312:3.8405001 3349:3.8405001 3368:4.1359 3388:3.8405001 3410:3.8405001 3421:4.1359 3439:4.1359 # seizures/00001269_s09.txt
-0.00052615065072219332868719288143211 40:3.8673 249:4.1896 357:3.8673 408:3.8673 430:7.0900998 487:3.8673 496:4.8340998 575:4.8340998 598:3.8673 610:3.8673 628:4.8340998 639:4.1896 659:3.8673 666:3.8673 694:4.1896 722:3.8673 821:3.8673 861:3.8673 865:4.1896 902:4.1896 938:4.5118999 945:4.1896 951:5.1564002 976:3.8673 986:4.1896 1062:5.4787002 1065:4.5118999 1079:3.8673 1089:3.8673 1125:3.8673 1149:4.5118999 1208:3.8673 1217:3.8673 1240:5.8010001 1253:3.8673 1264:3.8673 1297:4.1896 1320:4.5118999 1351:3.8673 1359:3.8673 1414:4.5118999 1439:3.8673 1484:4.1896 1554:3.8673 1557:3.8673 1622:3.8673 1634:4.5118999 1668:3.8673 1738:3.8673 1739:4.5118999 1747:4.1896 1768:3.8673 1784:3.8673 1795:3.8673 1814:3.8673 1819:3.8673 1865:3.8673 1911:5.1564002 1988:3.8673 2036:3.8673 2049:3.8673 2133:4.8340998 2141:4.1896 2142:3.8673 2188:3.8673 2267:4.5118999 2319:3.8673 2325:3.8673 2342:3.8673 2346:4.5118999 2347:3.8673 2404:4.8340998 2409:5.4787002 2426:3.8673 2428:4.5118999 2445:3.8673 2473:3.8673 2582:4.1896 2649:3.8673 2667:3.8673 2678:5.1564002 2694:3.8673 2701:3.8673 2710:4.1896 2766:3.8673 2777:4.1896 2810:3.8673 2840:4.8340998 2871:3.8673 2879:4.1896 2906:3.8673 2936:4.8340998 2948:4.5118999 2963:3.8673 2974:3.8673 2997:4.5118999 3010:3.8673 3019:3.8673 3124:3.8673 3167:3.8673 3226:3.8673 3312:3.8673 3343:3.8673 3368:3.8673 3372:3.8673 3409:3.8673 3421:4.1896 3439:3.8673 3446:3.8673 3458:3.8673 # none/00001413_s02.txt
0.00023229626539567960804427704246677 27:4.0514998 40:4.0514998 231:4.0514998 272:4.0514998 295:4.0514998 328:4.0514998 408:4.0514998 409:4.0514998 430:6.5836 449:4.0514998 494:4.0514998 524:4.0514998 610:4.0514998 639:5.0643001 655:4.0514998 694:4.0514998 726:4.0514998 774:4.0514998 789:4.0514998 813:5.0643001 820:4.0514998 821:4.0514998 824:4.0514998 865:5.0643001 896:4.5579 945:4.0514998 951:4.0514998 954:4.5579 976:4.5579 1062:4.5579 1068:4.0514998 1079:4.0514998 1118:4.5579 1121:4.0514998 1130:4.0514998 1139:5.0643001 1208:6.0771999 1213:4.0514998 1218:4.0514998 1240:4.5579 1243:4.0514998 1253:4.0514998 1264:4.0514998 1270:5.0643001 1294:4.0514998 1317:4.5579 1320:4.5579 1322:4.0514998 1358:4.0514998 1484:4.0514998 1516:4.5579 1517:4.5579 1622:4.0514998 1634:5.0643001 1653:4.0514998 1686:4.0514998 1694:4.0514998 1703:5.0643001 1708:4.0514998 1738:4.0514998 1747:4.0514998 1761:4.0514998 1768:4.0514998 1796:4.5579 1814:4.0514998 1865:4.0514998 1896:4.0514998 1899:4.5579 1911:4.0514998 1918:4.0514998 1988:4.0514998 1995:4.0514998 2049:4.5579 2062:4.0514998 2067:4.0514998 2110:4.0514998 2251:4.5579 2338:4.0514998 2389:4.0514998 2394:4.5579 2404:4.0514998 2409:4.0514998 2423:4.0514998 2426:4.5579 2428:4.5579 2453:4.0514998 2473:4.0514998 2482:4.5579 2645:4.0514998 2649:4.0514998 2677:4.0514998 2678:5.0643001 2694:4.5579 2728:4.0514998 2777:7.0900998 2827:4.5579 2835:4.0514998 2840:6.5836 2872:4.0514998 2875:4.0514998 2882:4.5579 2948:5.0643001 2997:4.0514998 3010:4.0514998 3019:4.0514998 3024:4.5579 3027:4.5579 3039:4.0514998 3053:4.0514998 3076:4.0514998 3081:4.0514998 3124:4.0514998 3167:4.0514998 3170:4.0514998 3198:4.5579 3253:4.0514998 3298:4.0514998 3326:5.0643001 3358:4.0514998 3368:4.0514998 3410:4.5579 3421:4.0514998 3439:4.0514998 3458:4.0514998 # seizures/00002277_s02.txt
-0.00052615065072219332868719288143211 40:4.1359 408:4.7266998 430:4.7266998 442:4.1359 496:4.7266998 527:4.1359 550:4.1359 563:4.1359 570:4.1359 579:4.1359 598:4.1359 639:4.1359 661:4.1359 682:4.1359 813:4.1359 820:4.1359 865:4.7266998 945:4.7266998 951:4.1359 954:4.1359 976:5.9084001 979:4.7266998 1079:4.1359 1116:4.1359 1118:5.9084001 1121:4.1359 1139:7.0900998 1175:4.1359 1208:4.1359 1213:4.1359 1218:4.7266998 1240:5.9084001 1253:4.1359 1264:4.7266998 1320:4.7266998 1352:4.1359 1356:4.1359 1397:5.3175998 1516:4.1359 1522:4.1359 1531:4.1359 1552:4.1359 1554:5.3175998 1700:4.1359 1703:4.7266998 1738:4.1359 1747:4.1359 1814:4.1359 1827:4.1359 1911:4.1359 2033:4.1359 2049:4.1359 2067:4.1359 2097:4.1359 2144:4.1359 2167:4.1359 2172:4.1359 2252:4.1359 2259:4.7266998 2302:4.1359 2329:4.1359 2404:5.3175998 2426:5.3175998 2428:5.3175998 2473:4.1359 2507:4.1359 2571:4.7266998 2573:4.1359 2664:4.1359 2668:4.1359 2678:7.0900998 2701:4.1359 2760:4.1359 2766:4.1359 2834:4.1359 2835:4.7266998 2840:4.1359 2875:4.1359 2882:4.1359 2893:4.1359 2921:4.1359 2936:4.1359 2948:5.3175998 3019:4.1359 3024:4.1359 3039:4.7266998 3055:4.1359 3124:4.1359 3167:4.1359 3216:4.7266998 3226:5.3175998 3290:4.1359 3307:5.3175998 3349:4.1359 3368:4.1359 3421:4.1359 3458:4.7266998 # none/00006131_s01.txt
5.5326775864720897826331408309031e-05 7:3.7316 10:3.7316 14:3.7316 38:3.7316 40:3.7316 58:3.7316 61:5.2242999 83:3.7316 183:5.2242999 203:3.7316 204:3.7316 210:3.9182 213:3.9182 220:4.1048002 224:3.7316 226:3.7316 272:3.9182 277:3.7316 314:3.7316 408:3.9182 410:3.7316 430:5.9706001 442:3.7316 496:3.7316 498:3.9182 510:3.7316 516:3.9182 550:3.9182 598:3.9182 622:3.7316 639:4.4779 642:3.7316 659:3.7316 661:3.7316 699:3.7316 722:3.9182 736:3.7316 745:3.7316 751:7.0900998 774:3.7316 807:4.2914 821:3.7316 824:3.7316 861:3.7316 865:3.9182 951:5.2242999 986:3.7316 1062:3.7316 1065:4.4779 1079:3.9182 1085:3.7316 1089:3.7316 1090:3.7316 1121:3.7316 1125:3.7316 1137:3.7316 1144:3.7316 1147:3.7316 1182:3.7316 1197:3.9182 1208:3.9182 1212:4.1048002 1213:3.9182 1240:5.7839999 1253:3.7316 1264:3.7316 1270:3.9182 1297:3.7316 1317:3.7316 1320:4.4779 1322:3.7316 1328:3.7316 1358:3.7316 1392:3.7316 1404:3.7316 1420:3.7316 1450:3.7316 1516:3.9182 1517:3.7316 1634:3.9182 1649:4.1048002 1668:3.7316 1670:3.9182 1711:4.1048002 1738:3.9182 1744:3.9182 1747:3.7316 1768:3.7316 1787:3.7316 1795:3.9182 1814:3.7316 1816:3.7316 1899:3.7316 1903:3.7316 1911:3.7316 1919:3.7316 1950:3.7316 1965:3.7316 1969:3.9182 1988:3.9182 1992:3.7316 1995:3.7316 2009:3.7316 2036:4.1048002 2049:3.7316 2064:3.7316 2077:3.9182 2110:3.7316 2133:3.9182 2141:4.6645002 2147:3.7316 2223:3.7316 2267:4.4779 2291:3.7316 2296:3.7316 2298:4.2914 2302:3.9182 2325:3.7316 2329:3.7316 2338:3.7316 2342:3.9182 2346:3.7316 2347:3.7316 2389:4.8511 2404:4.4779 2409:7.0900998 2426:3.7316 2428:3.9182 2473:3.7316 2491:4.1048002 2492:3.7316 2507:4.6645002 2555:3.9182 2582:3.7316 2622:3.9182 2636:3.7316 2645:3.9182 2671:3.7316 2678:5.5974002 2683:3.7316 2694:4.6645002 2701:3.7316 2710:3.7316 2724:3.9182 2745:3.7316 2767:3.9182 2777:5.5974002 2810:3.7316 2827:4.2914 2831:4.6645002 2835:3.7316 2838:3.7316 2840:6.3438001 2879:4.1048002 2894:3.7316 2948:3.9182 2973:3.9182 2997:5.0377002 3019:3.7316 3021:3.7316 3027:3.7316 3093:5.4108 3107:4.1048002 3124:3.7316 3167:3.9182 3179:3.9182 3180:3.7316 3182:3.7316 3198:4.1048002 3233:3.7316 3261:3.7316 3268:3.7316 3312:3.7316 3358:4.1048002 3368:3.9182 3387:3.7316 3388:4.1048002 3409:3.7316 3410:4.1048002 3421:3.9182 3439:4.1048002 3449:3.7316 3458:4.1048002 3462:3.7316 3471:3.9182 # seizures/00005195_s03.txt
-0.00052615065072219332868719288143211 4:3.8673 10:3.8673 12:3.8673 13:3.8673 25:3.8673 32:3.8673 40:3.8673 61:3.8673 76:3.8673 118:3.8673 119:3.8673 127:3.8673 137:3.8673 162:4.8340998 193:3.8673 210:3.8673 224:3.8673 255:3.8673 358:3.8673 409:3.8673 416:3.8673 430:6.1231999 461:3.8673 463:3.8673 496:3.8673 556:3.8673 564:3.8673 591:3.8673 593:3.8673 661:3.8673 682:3.8673 699:4.1896 714:3.8673 722:3.8673 736:4.1896 738:3.8673 751:4.5118999 813:5.4787002 821:3.8673 833:3.8673 865:3.8673 875:3.8673 951:4.8340998 976:4.1896 1065:4.8340998 1078:3.8673 1079:4.1896 1095:3.8673 1144:4.8340998 1202:3.8673 1212:3.8673 1227:3.8673 1240:5.4787002 1253:3.8673 1264:3.8673 1297:3.8673 1420:4.1896 1421:3.8673 1478:3.8673 1516:3.8673 1586:3.8673 1634:4.1896 1668:3.8673 1670:3.8673 1738:3.8673 1744:4.1896 1747:3.8673 1764:3.8673 1768:4.1896 1795:3.8673 1814:4.1896 1896:4.5118999 1911:4.8340998 1968:3.8673 2009:3.8673 2020:3.8673 2133:4.5118999 2141:4.1896 2203:3.8673 2208:3.8673 2319:4.8340998 2334:3.8673 2342:3.8673 2346:3.8673 2347:3.8673 2351:3.8673 2404:3.8673 2409:5.1564002 2420:3.8673 2422:3.8673 2426:3.8673 2427:3.8673 2428:5.1564002 2473:3.8673 2497:4.1896 2559:3.8673 2581:3.8673 2671:3.8673 2678:7.0900998 2694:3.8673 2771:3.8673 2772:3.8673 2777:5.1564002 2827:5.4787002 2831:5.1564002 2834:3.8673 2840:3.8673 2879:4.1896 2894:3.8673 2997:3.8673 3019:3.8673 3093:5.8010001 3124:3.8673 3167:3.8673 3203:3.8673 3308:3.8673 3312:3.8673 3343:3.8673 3358:4.1896 3368:3.8673 3388:3.8673 3396:3.8673 3421:4.1896 3458:4.1896 # none/00006266_s02.txt
-0.00052615065072219332868719288143211 40:4.2540002 61:4.2540002 352:4.2540002 389:4.2540002 390:4.2540002 408:4.2540002 430:4.2540002 496:4.2540002 550:4.2540002 570:4.2540002 579:4.2540002 628:4.2540002 629:4.9631 639:4.2540002 657:4.2540002 658:4.2540002 661:4.2540002 722:4.2540002 751:4.2540002 861:4.2540002 865:4.2540002 875:4.2540002 914:4.2540002 951:4.2540002 954:4.9631 976:4.2540002 986:4.2540002 1047:4.2540002 1062:4.2540002 1089:4.2540002 1116:4.2540002 1121:4.2540002 1125:4.2540002 1144:4.9631 1208:4.2540002 1240:7.0900998 1253:4.2540002 1276:4.2540002 1288:4.2540002 1294:4.2540002 1351:4.2540002 1390:4.2540002 1586:4.9631 1634:4.2540002 1670:4.2540002 1738:4.2540002 1739:5.6721001 1747:4.9631 1755:4.2540002 1768:4.9631 1795:5.6721001 1825:4.2540002 1911:7.0900998 1968:4.9631 1988:4.9631 1991:4.2540002 2025:4.9631 2049:4.2540002 2152:4.9631 2164:4.2540002 2167:4.2540002 2280:4.2540002 2291:4.9631 2293:4.2540002 2342:4.2540002 2346:5.6721001 2351:4.2540002 2397:4.2540002 2404:4.9631 2409:7.0900998 2426:4.2540002 2438:4.2540002 2507:4.9631 2574:4.2540002 2678:7.0900998 2701:4.9631 2710:4.2540002 2740:4.2540002 2761:4.2540002 2777:5.6721001 2840:5.6721001 2882:4.9631 2948:5.6721001 2997:4.2540002 3019:4.2540002 3021:4.2540002 3026:4.2540002 3080:4.2540002 3081:4.2540002 3091:4.2540002 3093:6.3811002 3167:4.9631 3198:7.0900998 3226:4.2540002 3333:4.2540002 3368:4.2540002 3409:5.6721001 3421:4.2540002 3437:4.2540002 3439:4.9631 # none/00009034_s02.txt
-0.00052615065072219332868719288143211 203:4.4313002 355:4.4313002 408:4.4313002 430:4.4313002 435:4.4313002 594:4.4313002 639:5.3175998 661:4.4313002 736:4.4313002 751:4.4313002 807:4.4313002 811:4.4313002 821:4.4313002 865:5.3175998 896:4.4313002 951:5.3175998 976:5.3175998 1065:4.4313002 1079:4.4313002 1121:4.4313002 1125:4.4313002 1144:4.4313002 1208:4.4313002 1240:6.2038002 1253:4.4313002 1264:4.4313002 1445:4.4313002 1450:4.4313002 1516:4.4313002 1531:4.4313002 1657:4.4313002 1668:4.4313002 1670:4.4313002 1694:4.4313002 1738:4.4313002 1795:4.4313002 1814:4.4313002 1816:4.4313002 1911:6.2038002 2049:4.4313002 2118:4.4313002 2267:5.3175998 2291:5.3175998 2297:4.4313002 2404:4.4313002 2409:4.4313002 2426:5.3175998 2453:4.4313002 2473:4.4313002 2555:4.4313002 2585:4.4313002 2678:7.0900998 2694:4.4313002 2777:4.4313002 2831:4.4313002 2840:4.4313002 2879:6.2038002 2886:4.4313002 2914:4.4313002 2948:4.4313002 2952:4.4313002 2953:4.4313002 3010:4.4313002 3019:4.4313002 3081:4.4313002 3179:4.4313002 3226:4.4313002 3368:4.4313002 3388:4.4313002 3421:4.4313002 3458:6.2038002 # none/00000251_s03.txt
-0.00052615065072219332868719288143211 40:4.4313002 61:4.4313002 83:4.4313002 102:4.4313002 119:4.4313002 272:4.4313002 408:4.4313002 598:4.4313002 600:4.4313002 639:7.0900998 661:5.3175998 665:4.4313002 694:4.4313002 722:4.4313002 820:4.4313002 821:4.4313002 865:4.4313002 951:5.3175998 976:4.4313002 1079:4.4313002 1174:4.4313002 1208:4.4313002 1240:6.2038002 1253:4.4313002 1264:4.4313002 1297:4.4313002 1415:4.4313002 1516:5.3175998 1533:4.4313002 1567:4.4313002 1591:4.4313002 1670:4.4313002 1675:4.4313002 1707:4.4313002 1708:4.4313002 1738:4.4313002 1747:4.4313002 1814:4.4313002 1816:4.4313002 1897:4.4313002 1911:4.4313002 1933:4.4313002 2017:4.4313002 2036:4.4313002 2049:4.4313002 2133:4.4313002 2319:4.4313002 2325:5.3175998 2347:4.4313002 2404:6.2038002 2409:5.3175998 2426:4.4313002 2473:4.4313002 2482:7.0900998 2492:5.3175998 2511:4.4313002 2574:4.4313002 2581:4.4313002 2666:4.4313002 2678:6.2038002 2694:4.4313002 2745:5.3175998 2777:4.4313002 2831:4.4313002 2840:4.4313002 2894:4.4313002 3019:4.4313002 3039:4.4313002 3093:4.4313002 3124:4.4313002 3179:4.4313002 3198:4.4313002 3248:4.4313002 3368:4.4313002 3388:4.4313002 3421:4.4313002 # none/00004595_s02.txt
-0.00052615065072219332868719288143211 4:3.8405001 11:3.8405001 17:4.7266998 32:3.8405001 40:3.8405001 42:3.8405001 52:3.8405001 53:3.8405001 57:3.8405001 76:4.1359 94:5.3175998 162:3.8405001 180:3.8405001 248:3.8405001 278:3.8405001 279:3.8405001 283:3.8405001 403:4.1359 408:4.1359 409:3.8405001 430:6.7947001 442:4.4313002 485:3.8405001 496:3.8405001 510:4.1359 516:4.4313002 579:4.7266998 596:3.8405001 639:5.0221 661:4.4313002 665:3.8405001 682:3.8405001 699:3.8405001 722:4.1359 736:4.1359 751:7.0900998 753:3.8405001 807:3.8405001 813:4.4313002 820:4.4313002 821:4.1359 824:3.8405001 826:3.8405001 861:4.1359 865:5.0221 875:3.8405001 885:3.8405001 896:3.8405001 927:3.8405001 951:4.4313002 976:4.1359 1045:3.8405001 1055:3.8405001 1062:3.8405001 1065:3.8405001 1068:3.8405001 1078:4.1359 1079:4.1359 1095:3.8405001 1118:3.8405001 1121:3.8405001 1144:4.1359 1208:4.1359 1213:3.8405001 1240:5.3175998 1253:4.1359 1264:4.4313002 1268:3.8405001 1320:4.1359 1359:3.8405001 1397:3.8405001 1404:3.8405001 1406:3.8405001 1414:4.1359 1444:3.8405001 1516:4.1359 1533:3.8405001 1541:3.8405001 1586:3.8405001 1649:3.8405001 1670:4.1359 1708:4.1359 1729:3.8405001 1738:4.1359 1739:3.8405001 1744:3.8405001 1754:3.8405001 1762:4.4313002 1768:3.8405001 1814:4.1359 1816:3.8405001 1857:3.8405001 1871:3.8405001 1896:3.8405001 1950:3.8405001 1987:3.8405001 1988:3.8405001 1991:4.1359 1992:3.8405001 1995:3.8405001 2025:3.8405001 2044:3.8405001 2049:4.4313002 2110:3.8405001 2118:4.4313002 2133:4.1359 2141:3.8405001 2142:3.8405001 2153:3.8405001 2167:3.8405001 2172:3.8405001 2207:3.8405001 2267:3.8405001 2291:4.1359 2296:3.8405001 2298:4.1359 2302:4.4313002 2319:4.1359 2346:3.8405001 2347:3.8405001 2404:4.4313002 2409:6.2038002 2426:4.1359 2473:4.1359 2484:3.8405001 2582:3.8405001 2585:3.8405001 2595:4.1359 2596:3.8405001 2611:3.8405001 2636:4.1359 2672:3.8405001 2678:5.0221 2694:4.1359 2762:3.8405001 2814:3.8405001 2827:5.0221 2834:4.7266998 2835:4.1359 2840:4.4313002 2958:3.8405001 3019:4.1359 3039:4.1359 3046:3.8405001 3073:3.8405001 3093:4.7266998 3124:4.1359 3134:3.8405001 3165:3.8405001 3198:3.8405001 3216:3.8405001 3226:4.1359 3257:3.8405001 3267:3.8405001 3307:3.8405001 3312:3.8405001 3349:3.8405001 3368:3.8405001 3383:3.8405001 3421:4.7266998 3439:3.8405001 3493:3.8405001 # none/00003122_s01.txt
0.00052615065072219332868719288143211 40:3.9389 71:3.9389 76:3.9389 308:3.9389 408:4.3327999 430:7.0900998 442:3.9389 463:3.9389 464:3.9389 516:5.1206002 554:3.9389 570:3.9389 572:3.9389 610:3.9389 625:3.9389 628:4.3327999 631:3.9389 639:4.7266998 680:3.9389 699:3.9389 722:3.9389 769:3.9389 821:3.9389 833:5.5145001 865:4.3327999 900:3.9389 916:5.1206002 927:4.3327999 932:3.9389 957:3.9389 976:4.3327999 1065:3.9389 1079:3.9389 1114:3.9389 1121:3.9389 1125:3.9389 1139:3.9389 1175:3.9389 1196:4.7266998 1205:3.9389 1208:3.9389 1240:5.1206002 1253:3.9389 1264:3.9389 1273:3.9389 1279:3.9389 1320:5.5145001 1362:3.9389 1375:3.9389 1405:3.9389 1414:3.9389 1439:4.3327999 1445:3.9389 1478:3.9389 1498:3.9389 1522:4.3327999 1531:4.7266998 1554:3.9389 1557:3.9389 1591:3.9389 1617:3.9389 1634:5.1206002 1649:5.1206002 1670:3.9389 1694:3.9389 1703:4.3327999 1711:4.3327999 1721:3.9389 1738:3.9389 1744:4.3327999 1768:3.9389 1814:3.9389 1819:3.9389 1825:3.9389 1852:4.3327999 1858:3.9389 1874:3.9389 1911:5.5145001 1934:3.9389 1950:3.9389 2009:3.9389 2025:3.9389 2033:3.9389 2036:3.9389 2049:3.9389 2085:3.9389 2139:3.9389 2141:5.1206002 2144:3.9389 2145:4.3327999 2160:3.9389 2291:3.9389 2319:3.9389 2336:3.9389 2372:3.9389 2381:3.9389 2397:3.9389 2403:3.9389 2409:3.9389 2423:3.9389 2426:4.3327999 2453:3.9389 2462:4.3327999 2473:3.9389 2497:3.9389 2507:3.9389 2534:4.3327999 2555:3.9389 2573:3.9389 2582:5.1206002 2639:3.9389 2661:3.9389 2678:5.5145001 2687:3.9389 2694:5.5145001 2712:3.9389 2753:3.9389 2766:3.9389 2777:3.9389 2808:3.9389 2827:3.9389 2831:3.9389 2834:5.5145001 2840:3.9389 2899:3.9389 2928:3.9389 2936:7.0900998 2943:3.9389 2948:6.3023 2952:3.9389 2973:3.9389 2993:3.9389 2997:5.9084001 3010:3.9389 3019:3.9389 3039:3.9389 3068:3.9389 3074:3.9389 3114:3.9389 3124:3.9389 3208:3.9389 3252:4.3327999 3308:3.9389 3309:3.9389 3312:3.9389 3355:3.9389 3358:4.7266998 3368:3.9389 3388:3.9389 3421:3.9389 3423:3.9389 3441:3.9389 3446:3.9389 3458:5.9084001 3481:3.9389 # seizures/00000804_s02.txt
0.00052615065072219332868719288143211 40:4.2540002 376:4.2540002 408:4.9631 430:4.9631 446:4.2540002 556:4.2540002 575:4.9631 588:4.2540002 591:4.2540002 594:4.2540002 639:5.6721001 722:4.2540002 813:4.2540002 821:4.2540002 865:4.2540002 954:4.2540002 976:4.2540002 981:4.2540002 999:4.2540002 1062:4.9631 1079:4.2540002 1118:4.2540002 1121:4.2540002 1125:4.2540002 1167:4.2540002 1175:4.2540002 1202:4.2540002 1205:4.2540002 1208:4.2540002 1240:7.0900998 1253:4.2540002 1264:4.2540002 1415:4.2540002 1420:4.2540002 1516:4.2540002 1533:4.2540002 1541:4.9631 1571:4.2540002 1602:4.2540002 1617:4.2540002 1670:4.2540002 1703:4.9631 1711:4.2540002 1731:4.2540002 1738:4.2540002 1744:4.2540002 1747:4.2540002 1778:4.2540002 1795:4.2540002 1810:4.2540002 1814:4.2540002 1874:4.2540002 1911:6.3811002 1988:4.2540002 2049:4.2540002 2097:4.2540002 2227:4.2540002 2261:4.2540002 2297:4.9631 2319:4.2540002 2342:4.2540002 2404:5.6721001 2426:4.9631 2453:4.9631 2473:4.2540002 2500:4.2540002 2507:4.2540002 2597:4.2540002 2639:4.2540002 2648:4.2540002 2678:4.9631 2694:4.9631 2766:4.2540002 2803:4.2540002 2814:4.2540002 2840:4.2540002 2879:5.6721001 2882:4.2540002 2948:6.3811002 2974:4.2540002 3001:4.2540002 3019:4.2540002 3039:4.9631 3053:4.2540002 3086:4.2540002 3091:4.2540002 3124:4.2540002 3141:4.2540002 3155:4.2540002 3167:4.9631 3198:4.2540002 3216:4.2540002 3226:4.2540002 3368:4.2540002 3413:4.2540002 3421:4.2540002 3439:4.2540002 3446:4.2540002 3458:6.3811002 3499:4.2540002 # seizures/00000207_s02.txt
0.00052615065072219332868719288143211 32:4.4313002 40:4.4313002 357:4.4313002 408:5.3175998 430:7.0900998 487:5.3175998 527:4.4313002 585:4.4313002 594:4.4313002 628:5.3175998 630:4.4313002 661:4.4313002 722:4.4313002 728:4.4313002 811:4.4313002 820:4.4313002 821:4.4313002 865:4.4313002 976:4.4313002 993:4.4313002 1062:4.4313002 1079:4.4313002 1105:4.4313002 1121:4.4313002 1125:4.4313002 1150:4.4313002 1205:4.4313002 1208:4.4313002 1213:4.4313002 1226:4.4313002 1240:6.2038002 1253:4.4313002 1264:4.4313002 1314:4.4313002 1320:4.4313002 1478:5.3175998 1516:4.4313002 1634:4.4313002 1670:4.4313002 1703:4.4313002 1738:4.4313002 1790:4.4313002 1814:4.4313002 1911:4.4313002 1925:4.4313002 1959:4.4313002 2036:4.4313002 2045:4.4313002 2049:4.4313002 2084:4.4313002 2259:4.4313002 2319:5.3175998 2394:4.4313002 2404:4.4313002 2426:5.3175998 2453:4.4313002 2459:4.4313002 2473:4.4313002 2582:5.3175998 2678:6.2038002 2687:4.4313002 2694:6.2038002 2724:4.4313002 2754:4.4313002 2766:4.4313002 2777:7.0900998 2835:5.3175998 2840:7.0900998 2874:5.3175998 2879:4.4313002 2948:6.2038002 2997:4.4313002 3019:4.4313002 3039:4.4313002 3053:4.4313002 3059:4.4313002 3124:4.4313002 3167:5.3175998 3179:4.4313002 3198:5.3175998 3310:4.4313002 3368:4.4313002 3388:4.4313002 3421:4.4313002 3446:4.4313002 3458:5.3175998 3470:4.4313002 3494:4.4313002 # seizures/00004784_s01.txt
-0.00026764803519262008162787891407675 40:3.9881999 238:3.9881999 357:3.9881999 408:4.4313002 413:3.9881999 430:7.0900998 487:3.9881999 496:3.9881999 498:3.9881999 516:4.4313002 639:5.3175998 691:3.9881999 699:3.9881999 717:3.9881999 722:3.9881999 736:3.9881999 807:4.4313002 821:3.9881999 824:3.9881999 861:3.9881999 865:3.9881999 905:3.9881999 916:3.9881999 919:3.9881999 976:3.9881999 1062:4.4313002 1079:3.9881999 1114:4.4313002 1121:3.9881999 1125:3.9881999 1139:4.4313002 1205:3.9881999 1208:3.9881999 1240:5.3175998 1253:3.9881999 1264:3.9881999 1320:6.6469002 1478:4.4313002 1516:3.9881999 1517:3.9881999 1522:5.3175998 1554:3.9881999 1567:3.9881999 1634:3.9881999 1649:3.9881999 1670:3.9881999 1703:3.9881999 1709:3.9881999 1738:3.9881999 1747:3.9881999 1750:3.9881999 1814:3.9881999 1827:3.9881999 1874:3.9881999 1911:4.8744001 1959:3.9881999 1963:3.9881999 2009:3.9881999 2017:4.4313002 2025:3.9881999 2036:3.9881999 2049:3.9881999 2052:3.9881999 2118:3.9881999 2141:5.3175998 2162:3.9881999 2169:3.9881999 2291:3.9881999 2297:3.9881999 2302:4.8744001 2336:3.9881999 2374:4.4313002 2389:3.9881999 2397:3.9881999 2404:3.9881999 2426:4.4313002 2427:3.9881999 2453:5.3175998 2473:3.9881999 2534:3.9881999 2573:3.9881999 2582:3.9881999 2668:3.9881999 2678:5.3175998 2694:4.4313002 2712:3.9881999 2766:3.9881999 2777:4.8744001 2810:3.9881999 2831:3.9881999 2835:3.9881999 2840:3.9881999 2879:3.9881999 2910:3.9881999 2936:3.9881999 2948:5.7607002 2997:4.8744001 3010:3.9881999 3019:3.9881999 3039:5.3175998 3081:3.9881999 3124:3.9881999 3158:3.9881999 3167:3.9881999 3179:3.9881999 3198:4.4313002 3268:3.9881999 3308:3.9881999 3368:3.9881999 3371:3.9881999 3421:3.9881999 3458:5.3175998 3470:3.9881999 # none/00002655_s01.txt
-0.00052615065072219332868719288143211 32:3.9881999 40:3.9881999 138:3.9881999 153:4.4313002 408:3.9881999 422:3.9881999 430:4.8744001 442:4.4313002 487:3.9881999 516:4.8744001 527:5.7607002 528:3.9881999 550:3.9881999 556:3.9881999 585:3.9881999 610:3.9881999 628:3.9881999 646:3.9881999 677:3.9881999 682:4.8744001 774:5.3175998 785:3.9881999 813:3.9881999 916:3.9881999 945:3.9881999 951:3.9881999 966:3.9881999 1062:3.9881999 1079:3.9881999 1089:3.9881999 1090:3.9881999 1118:4.4313002 1125:3.9881999 1139:5.3175998 1149:3.9881999 1175:3.9881999 1208:3.9881999 1213:4.4313002 1218:3.9881999 1240:3.9881999 1253:3.9881999 1264:4.4313002 1270:4.8744001 1320:4.8744001 1322:3.9881999 1328:3.9881999 1347:3.9881999 1352:3.9881999 1359:3.9881999 1367:4.8744001 1392:3.9881999 1415:3.9881999 1445:4.8744001 1478:4.4313002 1506:3.9881999 1509:3.9881999 1516:4.8744001 1517:5.7607002 1578:3.9881999 1585:3.9881999 1703:4.8744001 1738:3.9881999 1747:4.4313002 1754:3.9881999 1795:4.8744001 1814:3.9881999 1865:3.9881999 1911:7.0900998 1988:3.9881999 1992:3.9881999 2049:4.8744001 2098:3.9881999 2133:3.9881999 2267:4.4313002 2282:3.9881999 2329:3.9881999 2336:3.9881999 2346:5.3175998 2404:3.9881999 2426:3.9881999 2428:4.4313002 2438:3.9881999 2482:4.4313002 2489:3.9881999 2507:3.9881999 2516:3.9881999 2558:3.9881999 2629:4.4313002 2678:4.4313002 2694:4.8744001 2709:3.9881999 2730:4.4313002 2761:3.9881999 2762:3.9881999 2766:3.9881999 2805:4.4313002 2835:3.9881999 2840:5.3175998 2847:3.9881999 2872:3.9881999 2875:3.9881999 2879:3.9881999 2918:3.9881999 2936:5.7607002 2948:5.3175998 2963:3.9881999 2997:3.9881999 3001:3.9881999 3002:3.9881999 3016:3.9881999 3019:3.9881999 3053:3.9881999 3076:3.9881999 3124:3.9881999 3149:3.9881999 3167:7.0900998 3198:3.9881999 3219:3.9881999 3358:3.9881999 3409:3.9881999 3421:3.9881999 3458:4.8744001 3470:3.9881999 # none/00001465_s02.txt
-0.00052615065072219332868719288143211 7:3.8673 23:3.8673 25:4.1896 32:3.8673 40:3.8673 76:4.5118999 111:3.8673 162:3.8673 183:4.1896 189:3.8673 200:3.8673 203:4.1896 226:3.8673 238:3.8673 286:3.8673 302:3.8673 315:3.8673 380:3.8673 408:3.8673 430:4.8340998 463:3.8673 516:5.4787002 527:3.8673 550:3.8673 571:3.8673 575:3.8673 579:3.8673 591:4.1896 618:4.5118999 639:4.8340998 658:3.8673 661:3.8673 682:4.8340998 699:3.8673 717:3.8673 722:3.8673 746:4.1896 751:4.1896 753:3.8673 754:4.1896 769:3.8673 807:3.8673 821:3.8673 861:3.8673 865:5.8010001 869:3.8673 916:4.1896 976:4.5118999 1032:3.8673 1062:4.5118999 1065:3.8673 1079:4.1896 1093:3.8673 1115:3.8673 1116:4.1896 1121:4.1896 1125:3.8673 1213:4.1896 1240:6.1231999 1253:3.8673 1264:3.8673 1320:3.8673 1326:3.8673 1352:4.8340998 1359:3.8673 1420:3.8673 1445:3.8673 1450:3.8673 1478:4.1896 1493:3.8673 1516:3.8673 1517:4.1896 1554:3.8673 1632:3.8673 1634:5.4787002 1649:5.8010001 1670:3.8673 1694:3.8673 1709:3.8673 1711:3.8673 1738:3.8673 1744:4.5118999 1814:4.1896 1827:3.8673 1836:3.8673 1846:3.8673 1852:5.1564002 1911:7.0900998 1945:3.8673 1947:3.8673 1950:3.8673 1965:4.1896 1972:3.8673 1979:3.8673 1995:3.8673 2009:3.8673 2017:3.8673 2049:3.8673 2133:4.8340998 2141:4.1896 2152:3.8673 2160:3.8673 2171:3.8673 2267:4.5118999 2291:4.1896 2297:3.8673 2389:5.1564002 2397:4.1896 2404:5.1564002 2409:4.1896 2426:4.5118999 2448:3.8673 2453:3.8673 2491:3.8673 2507:4.1896 2518:3.8673 2533:3.8673 2559:4.5118999 2562:3.8673 2567:3.8673 2573:3.8673 2581:4.1896 2592:3.8673 2611:3.8673 2678:5.4787002 2694:3.8673 2701:3.8673 2710:3.8673 2712:4.1896 2728:4.1896 2730:3.8673 2767:4.1896 2777:5.4787002 2811:3.8673 2831:4.8340998 2834:4.1896 2835:4.5118999 2840:4.1896 2871:4.1896 2879:4.1896 2906:4.1896 2910:3.8673 2936:4.5118999 2948:5.4787002 2973:3.8673 2974:3.8673 2997:5.1564002 3001:3.8673 3039:3.8673 3086:3.8673 3091:3.8673 3117:3.8673 3124:3.8673 3167:4.5118999 3179:4.1896 3198:4.5118999 3212:3.8673 3226:4.1896 3247:3.8673 3308:3.8673 3321:3.8673 3340:3.8673 3342:3.8673 3343:3.8673 3368:3.8673 3421:5.1564002 3446:3.8673 3458:5.1564002 3494:4.5118999 # none/00001731_s05.txt
-0.00051571861783661040231491190510837 7:3.8673 23:3.8673 25:4.1896 32:3.8673 33:3.8673 76:4.5118999 111:3.8673 162:4.1896 183:4.1896 189:3.8673 200:3.8673 203:4.1896 226:3.8673 238:3.8673 286:3.8673 302:3.8673 315:3.8673 380:3.8673 408:3.8673 430:4.8340998 463:3.8673 516:5.4787002 527:3.8673 550:3.8673 571:3.8673 575:3.8673 579:3.8673 591:4.1896 618:4.5118999 639:4.8340998 658:3.8673 661:3.8673 682:4.8340998 699:3.8673 717:3.8673 722:3.8673 746:4.1896 751:4.1896 753:3.8673 754:4.1896 769:3.8673 807:3.8673 821:3.8673 861:3.8673 865:5.8010001 869:3.8673 916:4.1896 976:4.5118999 1032:3.8673 1062:4.5118999 1065:3.8673 1079:4.1896 1093:3.8673 1115:3.8673 1116:4.1896 1121:4.1896 1125:3.8673 1213:4.1896 1240:6.1231999 1253:3.8673 1264:3.8673 1320:3.8673 1326:3.8673 1352:4.8340998 1359:3.8673 1420:3.8673 1445:3.8673 1450:3.8673 1478:4.1896 1493:3.8673 1516:3.8673 1517:4.1896 1554:3.8673 1632:3.8673 1634:5.4787002 1649:5.8010001 1670:3.8673 1694:3.8673 1709:3.8673 1711:3.8673 1738:3.8673 1744:4.5118999 1814:4.1896 1827:3.8673 1836:3.8673 1846:3.8673 1852:5.1564002 1911:7.0900998 1945:3.8673 1947:3.8673 1950:3.8673 1965:4.1896 1972:3.8673 1979:3.8673 2009:3.8673 2017:3.8673 2049:3.8673 2133:4.8340998 2141:4.1896 2152:3.8673 2160:3.8673 2171:3.8673 2267:4.5118999 2291:4.1896 2297:3.8673 2389:5.1564002 2397:4.1896 2404:5.1564002 2409:4.1896 2426:4.5118999 2448:3.8673 2453:3.8673 2491:3.8673 2507:4.1896 2518:3.8673 2533:3.8673 2559:4.5118999 2562:3.8673 2567:3.8673 2573:3.8673 2581:4.1896 2592:3.8673 2611:3.8673 2678:5.4787002 2694:3.8673 2701:3.8673 2710:3.8673 2712:4.1896 2728:4.1896 2730:3.8673 2767:4.1896 2777:5.4787002 2811:3.8673 2831:4.8340998 2834:4.1896 2835:4.5118999 2840:4.1896 2871:4.1896 2879:4.1896 2906:4.1896 2910:3.8673 2936:4.5118999 2948:5.4787002 2973:3.8673 2974:3.8673 2997:5.1564002 3001:3.8673 3039:3.8673 3086:3.8673 3091:3.8673 3117:3.8673 3124:3.8673 3167:4.5118999 3179:4.1896 3198:4.5118999 3212:3.8673 3226:4.1896 3238:3.8673 3247:3.8673 3308:3.8673 3321:3.8673 3340:3.8673 3342:3.8673 3343:3.8673 3368:3.8673 3421:5.1564002 3446:3.8673 3458:5.1564002 3494:4.5118999 # none/00001731_s07.txt
-0.00052615065072219332868719288143211 40:4.1359 200:4.1359 203:4.1359 224:4.1359 272:4.1359 286:4.1359 291:4.1359 308:4.1359 387:4.1359 408:4.1359 409:4.1359 430:4.7266998 442:4.1359 450:4.1359 462:4.1359 472:4.1359 485:4.1359 510:4.1359 523:4.1359 527:4.1359 571:4.1359 579:4.1359 628:4.1359 658:4.1359 666:4.1359 682:4.1359 774:4.1359 807:4.1359 865:4.7266998 945:4.7266998 951:4.1359 976:5.3175998 1048:4.1359 1054:4.1359 1079:4.1359 1089:4.7266998 1117:4.1359 1121:4.1359 1125:4.1359 1139:4.7266998 1175:4.7266998 1213:4.7266998 1240:6.4991999 1253:4.1359 1264:4.7266998 1320:4.1359 1326:4.7266998 1352:6.4991999 1367:4.1359 1392:4.1359 1450:4.1359 1522:4.1359 1617:4.7266998 1668:4.1359 1703:4.1359 1738:4.1359 1795:4.1359 1814:4.1359 1825:4.1359 1896:4.1359 1905:4.1359 1911:4.7266998 1965:4.1359 2049:4.1359 2110:4.7266998 2141:4.1359 2167:4.1359 2252:5.3175998 2253:4.7266998 2259:4.7266998 2267:5.3175998 2282:4.1359 2302:5.3175998 2319:6.4991999 2329:4.7266998 2404:6.4991999 2426:5.3175998 2473:4.1359 2479:4.1359 2507:4.7266998 2555:4.1359 2571:4.7266998 2601:4.1359 2658:4.1359 2661:4.1359 2668:4.1359 2678:7.0900998 2710:4.1359 2762:4.7266998 2766:4.7266998 2777:4.1359 2827:4.1359 2835:5.3175998 2840:5.9084001 2877:4.7266998 2879:4.1359 2894:4.1359 2899:4.7266998 2918:4.1359 2936:5.3175998 2963:4.1359 2973:5.3175998 2997:4.1359 3017:5.3175998 3019:4.1359 3021:4.7266998 3046:4.1359 3055:4.1359 3076:4.1359 3079:4.1359 3124:4.1359 3152:4.1359 3167:4.7266998 3179:4.1359 3208:4.1359 3226:4.1359 3252:4.7266998 3349:4.1359 3368:5.3175998 3421:4.1359 3446:4.7266998 3458:4.7266998 3470:4.1359 # none/00009686_s01.txt
0.00052615065072219332868719288143211 40:4.4313002 83:4.4313002 302:4.4313002 323:4.4313002 408:4.4313002 428:4.4313002 430:4.4313002 494:4.4313002 579:5.3175998 591:4.4313002 598:4.4313002 610:5.3175998 639:7.0900998 661:4.4313002 665:4.4313002 682:4.4313002 699:4.4313002 722:4.4313002 813:4.4313002 821:4.4313002 865:5.3175998 892:4.4313002 908:4.4313002 916:4.4313002 976:4.4313002 993:4.4313002 1051:4.4313002 1062:5.3175998 1079:5.3175998 1097:4.4313002 1114:5.3175998 1121:4.4313002 1125:4.4313002 1149:4.4313002 1167:4.4313002 1208:4.4313002 1218:4.4313002 1240:7.0900998 1253:4.4313002 1264:4.4313002 1283:4.4313002 1320:4.4313002 1415:4.4313002 1420:4.4313002 1445:4.4313002 1482:4.4313002 1484:4.4313002 1516:5.3175998 1531:4.4313002 1552:4.4313002 1554:4.4313002 1559:4.4313002 1567:4.4313002 1613:4.4313002 1634:4.4313002 1670:4.4313002 1694:4.4313002 1703:4.4313002 1707:4.4313002 1738:4.4313002 1747:4.4313002 1768:4.4313002 1795:6.2038002 1814:4.4313002 1816:4.4313002 1825:4.4313002 1865:4.4313002 1899:4.4313002 1911:7.0900998 1950:4.4313002 1988:4.4313002 1992:4.4313002 2009:4.4313002 2049:4.4313002 2083:4.4313002 2141:6.2038002 2153:5.3175998 2167:4.4313002 2267:5.3175998 2298:4.4313002 2347:4.4313002 2390:4.4313002 2404:5.3175998 2409:7.0900998 2426:5.3175998 2428:6.2038002 2453:4.4313002 2473:4.4313002 2507:5.3175998 2534:4.4313002 2582:5.3175998 2658:4.4313002 2678:7.0900998 2712:4.4313002 2728:4.4313002 2767:4.4313002 2772:4.4313002 2777:7.0900998 2831:5.3175998 2835:4.4313002 2840:4.4313002 2863:4.4313002 2875:4.4313002 2879:7.0900998 2914:4.4313002 2948:5.3175998 2957:4.4313002 3019:4.4313002 3070:4.4313002 3091:4.4313002 3124:4.4313002 3198:4.4313002 3202:4.4313002 3257:4.4313002 3271:4.4313002 3368:4.4313002 3421:4.4313002 3439:5.3175998 3458:5.3175998 # seizures/00001215_s01.txt
0.00052615065072219332868719288143211 4:3.8673 10:5.1564002 12:3.8673 25:4.1896 32:3.8673 40:3.8673 61:3.8673 128:5.8010001 137:4.1896 162:4.1896 253:3.8673 255:3.8673 282:3.8673 418:3.8673 430:5.8010001 463:3.8673 467:3.8673 510:3.8673 516:3.8673 550:3.8673 579:3.8673 594:3.8673 610:3.8673 620:3.8673 627:3.8673 628:3.8673 637:3.8673 639:3.8673 650:3.8673 658:3.8673 661:3.8673 666:4.8340998 699:4.5118999 705:3.8673 717:3.8673 722:3.8673 753:3.8673 769:3.8673 795:3.8673 820:4.1896 821:3.8673 861:4.5118999 865:4.1896 908:3.8673 909:3.8673 932:3.8673 951:3.8673 976:3.8673 1035:3.8673 1060:3.8673 1065:3.8673 1068:3.8673 1079:3.8673 1085:3.8673 1110:4.1896 1125:3.8673 1213:3.8673 1240:4.5118999 1253:3.8673 1264:4.1896 1297:3.8673 1320:4.1896 1352:4.8340998 1363:3.8673 1377:3.8673 1392:3.8673 1404:3.8673 1443:4.1896 1444:3.8673 1460:4.1896 1517:3.8673 1554:3.8673 1590:3.8673 1610:3.8673 1617:3.8673 1634:3.8673 1652:3.8673 1654:3.8673 1670:3.8673 1703:3.8673 1707:4.1896 1711:4.5118999 1738:3.8673 1782:3.8673 1814:3.8673 1819:3.8673 1832:3.8673 1899:3.8673 1911:5.8010001 1919:3.8673 1934:3.8673 1950:3.8673 1972:3.8673 2049:3.8673 2060:3.8673 2133:3.8673 2141:5.1564002 2148:3.8673 2153:3.8673 2167:4.5118999 2204:3.8673 2259:3.8673 2266:3.8673 2319:4.1896 2347:3.8673 2351:3.8673 2386:3.8673 2393:3.8673 2404:7.0900998 2409:3.8673 2426:3.8673 2459:3.8673 2473:3.8673 2499:4.1896 2511:3.8673 2545:3.8673 2567:3.8673 2611:3.8673 2644:3.8673 2656:3.8673 2678:3.8673 2694:4.5118999 2777:4.8340998 2791:3.8673 2834:3.8673 2835:4.1896 2840:4.8340998 2886:4.1896 2906:3.8673 2936:3.8673 2948:3.8673 2988:3.8673 3019:3.8673 3021:3.8673 3027:3.8673 3072:4.1896 3114:3.8673 3124:3.8673 3149:3.8673 3167:4.5118999 3182:3.8673 3198:4.1896 3226:4.5118999 3244:4.1896 3245:3.8673 3299:3.8673 3312:3.8673 3326:3.8673 3329:3.8673 3339:4.5118999 3343:3.8673 3347:4.1896 3348:3.8673 3368:3.8673 3421:3.8673 3446:4.1896 3448:3.8673 3463:3.8673 3531:3.8673 # seizures/00000670_s02.txt
0.00052615065072219332868719288143211 40:4.2540002 83:4.2540002 94:4.2540002 242:4.2540002 408:5.6721001 430:4.9631 556:4.2540002 579:5.6721001 598:4.2540002 610:4.2540002 639:5.6721001 649:4.2540002 661:4.2540002 665:4.2540002 717:4.2540002 722:4.2540002 821:4.2540002 865:4.9631 976:4.2540002 1062:4.2540002 1065:4.9631 1068:4.2540002 1079:4.2540002 1121:4.2540002 1180:4.2540002 1208:4.2540002 1240:7.0900998 1253:4.2540002 1264:4.9631 1270:4.2540002 1283:4.2540002 1320:4.2540002 1358:4.2540002 1397:4.2540002 1484:4.2540002 1516:4.2540002 1622:4.2540002 1708:4.2540002 1738:4.2540002 1768:4.9631 1795:4.9631 1814:4.2540002 1825:4.2540002 1852:4.9631 1896:4.2540002 1911:4.9631 1959:4.2540002 1968:4.2540002 1988:4.2540002 2025:4.9631 2049:4.2540002 2133:4.2540002 2142:4.2540002 2167:5.6721001 2258:4.2540002 2404:4.2540002 2409:5.6721001 2426:4.2540002 2473:4.2540002 2574:4.2540002 2649:4.2540002 2678:4.9631 2683:4.2540002 2797:4.2540002 2814:4.2540002 2827:4.2540002 2840:4.9631 2879:4.2540002 2906:4.2540002 2997:4.2540002 3019:4.2540002 3039:4.2540002 3055:4.2540002 3093:5.6721001 3124:4.2540002 3134:4.2540002 3307:4.2540002 3368:4.2540002 3410:4.2540002 3421:4.9631 3439:4.2540002 3458:4.2540002 # seizures/00001734_s03.txt
0.00052615065072219332868719288143211 4:3.7983 17:3.7983 40:3.7983 61:5.5707998 76:6.5836 83:3.7983 185:3.7983 193:3.7983 203:4.0514998 206:3.7983 220:3.7983 224:4.0514998 226:4.5579 238:3.7983 252:3.7983 253:3.7983 254:4.0514998 255:3.7983 259:3.7983 278:3.7983 279:3.7983 282:4.0514998 288:3.7983 313:3.7983 430:4.0514998 469:3.7983 472:3.7983 496:3.7983 502:3.7983 550:3.7983 556:4.0514998 572:3.7983 574:3.7983 579:3.7983 587:3.7983 608:3.7983 628:4.3046999 629:3.7983 637:3.7983 639:4.0514998 645:3.7983 659:4.3046999 665:3.7983 682:3.7983 684:3.7983 699:3.7983 708:3.7983 722:3.7983 729:4.0514998 737:3.7983 751:3.7983 753:3.7983 765:3.7983 769:3.7983 829:3.7983 865:4.0514998 900:4.0514998 951:4.0514998 980:4.0514998 999:3.7983 1065:4.5579 1068:3.7983 1079:3.7983 1089:3.7983 1098:3.7983 1152:3.7983 1157:3.7983 1165:3.7983 1173:3.7983 1175:4.0514998 1194:3.7983 1196:3.7983 1202:3.7983 1213:4.0514998 1230:4.3046999 1240:5.5707998 1264:3.7983 1297:3.7983 1301:3.7983 1305:3.7983 1352:4.0514998 1356:3.7983 1376:3.7983 1405:3.7983 1445:3.7983 1466:4.0514998 1488:4.3046999 1557:3.7983 1621:3.7983 1622:3.7983 1634:3.7983 1711:3.7983 1738:3.7983 1744:3.7983 1814:3.7983 1816:3.7983 1893:4.3046999 1911:4.8111 1925:3.7983 1949:3.7983 1972:4.5579 1997:3.7983 2049:3.7983 2099:3.7983 2133:3.7983 2141:3.7983 2142:3.7983 2151:4.0514998 2152:3.7983 2259:3.7983 2267:4.0514998 2282:4.0514998 2310:3.7983 2319:4.0514998 2326:3.7983 2342:3.7983 2346:3.7983 2401:3.7983 2404:7.0900998 2409:4.0514998 2426:3.7983 2442:3.7983 2450:4.0514998 2464:4.0514998 2473:3.7983 2507:4.0514998 2511:3.7983 2574:3.7983 2611:3.7983 2615:4.3046999 2626:3.7983 2649:3.7983 2678:4.0514998 2712:3.7983 2743:3.7983 2755:3.7983 2766:4.0514998 2777:4.3046999 2791:3.7983 2831:4.3046999 2832:3.7983 2834:3.7983 2840:7.0900998 2936:4.3046999 2948:4.3046999 2954:3.7983 2972:3.7983 2988:4.3046999 2992:3.7983 2997:3.7983 3001:3.7983 3007:3.7983 3019:3.7983 3021:3.7983 3054:3.7983 3068:3.7983 3078:3.7983 3124:3.7983 3138:4.0514998 3149:3.7983 3226:4.0514998 3248:3.7983 3268:3.7983 3281:3.7983 3286:3.7983 3308:4.0514998 3315:4.0514998 3343:3.7983 3368:3.7983 3371:3.7983 3421:3.7983 3436:3.7983 3446:3.7983 # seizures/00001915_s05.txt
0.00052615065072219332868719288143211 33:4.2540002 67:4.2540002 162:4.2540002 408:4.2540002 430:5.6721001 527:4.2540002 550:4.2540002 575:5.6721001 639:4.2540002 661:4.2540002 693:4.2540002 736:4.2540002 751:4.9631 814:4.2540002 821:4.2540002 865:4.2540002 951:4.2540002 954:4.9631 976:4.2540002 1032:4.2540002 1062:5.6721001 1079:4.2540002 1121:4.2540002 1125:4.2540002 1144:4.2540002 1149:4.2540002 1154:4.2540002 1187:4.2540002 1208:4.2540002 1240:5.6721001 1253:4.2540002 1264:4.2540002 1327:4.2540002 1420:4.2540002 1522:4.9631 1634:4.9631 1670:4.2540002 1738:4.2540002 1744:4.2540002 1747:4.9631 1795:4.2540002 1814:4.2540002 1865:4.2540002 1896:4.2540002 1911:4.2540002 1977:4.2540002 1992:4.2540002 2009:4.2540002 2049:4.2540002 2084:4.2540002 2141:4.2540002 2143:4.2540002 2267:6.3811002 2291:4.2540002 2297:4.2540002 2397:4.9631 2403:4.2540002 2404:4.2540002 2409:5.6721001 2426:4.2540002 2442:4.2540002 2473:4.2540002 2507:4.2540002 2559:4.2540002 2582:4.9631 2678:6.3811002 2694:4.9631 2767:4.2540002 2777:7.0900998 2831:4.9631 2834:4.2540002 2840:4.2540002 2879:7.0900998 2882:4.9631 2886:4.2540002 2936:4.2540002 2948:6.3811002 3019:4.2540002 3046:4.2540002 3047:4.2540002 3091:4.2540002 3124:4.2540002 3161:4.2540002 3167:6.3811002 3198:4.2540002 3226:4.2540002 3368:4.2540002 3421:4.2540002 3439:4.2540002 3458:7.0900998 # seizures/00001303_s02.txt
3.9042379037781613226876231692586e-06 40:4.0514998 76:6.5836 83:4.0514998 162:5.0643001 203:4.0514998 220:4.0514998 253:4.0514998 259:4.0514998 326:4.0514998 403:4.0514998 408:4.5579 430:5.0643001 442:4.0514998 461:4.0514998 463:4.0514998 516:4.0514998 527:4.0514998 550:5.0643001 598:5.0643001 639:5.0643001 650:4.0514998 661:4.0514998 665:4.0514998 722:4.0514998 751:4.0514998 821:4.0514998 861:4.5579 865:4.0514998 976:4.0514998 986:4.5579 1062:5.0643001 1065:4.0514998 1079:4.0514998 1121:4.0514998 1125:4.0514998 1139:4.0514998 1182:4.0514998 1208:4.0514998 1212:4.0514998 1213:4.0514998 1231:4.0514998 1240:7.0900998 1243:4.0514998 1253:4.0514998 1264:4.0514998 1270:4.0514998 1317:4.0514998 1320:4.0514998 1396:4.0514998 1481:4.0514998 1484:4.0514998 1522:5.0643001 1528:4.0514998 1537:4.0514998 1551:4.0514998 1567:4.0514998 1610:4.0514998 1649:4.0514998 1668:4.5579 1670:4.0514998 1720:4.0514998 1729:4.0514998 1738:4.0514998 1744:4.0514998 1747:4.0514998 1754:4.0514998 1762:4.0514998 1795:4.0514998 1814:4.0514998 1911:4.0514998 1950:4.0514998 1992:4.0514998 2025:4.5579 2049:4.0514998 2110:4.5579 2119:4.0514998 2160:4.0514998 2186:4.0514998 2267:4.0514998 2291:4.0514998 2297:4.0514998 2346:4.5579 2347:4.5579 2397:4.0514998 2404:4.5579 2409:5.0643001 2426:4.0514998 2442:4.0514998 2464:4.0514998 2473:4.0514998 2492:4.0514998 2534:4.0514998 2582:4.0514998 2595:5.5707998 2671:4.0514998 2678:6.0771999 2694:4.0514998 2724:4.0514998 2739:4.0514998 2744:4.0514998 2745:4.0514998 2767:5.0643001 2777:5.5707998 2831:4.0514998 2834:4.0514998 2840:4.0514998 2879:6.0771999 2948:5.5707998 2952:4.0514998 2953:4.0514998 2997:4.0514998 3019:4.0514998 3027:4.5579 3046:4.0514998 3124:4.0514998 3167:4.5579 3194:4.5579 3198:4.5579 3208:4.0514998 3268:4.0514998 3321:4.0514998 3368:4.0514998 3409:4.0514998 3421:4.0514998 3439:4.0514998 3458:6.5836 3470:4.5579 3504:4.0514998 # seizures/00000726_s02.txt
-0.00052615065072219332868719288143211 40:4.4313002 83:4.4313002 408:4.4313002 416:4.4313002 430:7.0900998 442:4.4313002 480:4.4313002 516:4.4313002 591:4.4313002 639:4.4313002 661:4.4313002 722:4.4313002 733:4.4313002 802:4.4313002 811:4.4313002 821:4.4313002 865:4.4313002 951:4.4313002 954:4.4313002 976:4.4313002 1065:4.4313002 1079:4.4313002 1121:4.4313002 1208:4.4313002 1240:7.0900998 1253:4.4313002 1264:4.4313002 1359:4.4313002 1414:4.4313002 1415:4.4313002 1439:5.3175998 1481:4.4313002 1516:5.3175998 1557:5.3175998 1649:5.3175998 1670:4.4313002 1738:4.4313002 1744:4.4313002 1814:4.4313002 1816:4.4313002 1827:4.4313002 1865:4.4313002 1911:6.2038002 1992:4.4313002 2049:4.4313002 2118:4.4313002 2143:4.4313002 2186:4.4313002 2211:4.4313002 2296:4.4313002 2397:4.4313002 2404:4.4313002 2411:4.4313002 2426:4.4313002 2473:4.4313002 2492:4.4313002 2574:4.4313002 2582:5.3175998 2678:5.3175998 2745:5.3175998 2766:4.4313002 2777:5.3175998 2840:5.3175998 2879:6.2038002 2882:4.4313002 3010:5.3175998 3019:4.4313002 3021:4.4313002 3039:4.4313002 3091:4.4313002 3124:4.4313002 3134:4.4313002 3368:4.4313002 3421:4.4313002 3439:4.4313002 3458:6.2038002 # none/00000717_s02.txt
-0.00052615065072219332868719288143211 32:4.7266998 40:4.1359 61:4.1359 128:4.1359 133:4.1359 238:4.1359 279:4.1359 355:4.1359 403:4.1359 430:4.1359 462:4.7266998 487:4.1359 550:4.1359 570:4.1359 579:4.1359 618:4.1359 628:4.1359 639:4.1359 659:4.1359 661:4.1359 666:4.7266998 713:4.1359 732:4.1359 820:4.1359 821:4.1359 865:4.1359 885:4.1359 906:4.1359 945:4.1359 976:4.1359 1065:4.1359 1121:4.1359 1125:4.1359 1127:4.1359 1175:4.1359 1187:4.1359 1213:4.7266998 1240:7.0900998 1253:4.1359 1264:4.1359 1352:4.1359 1396:4.1359 1424:4.1359 1543:4.1359 1554:4.1359 1567:4.1359 1578:4.1359 1610:4.1359 1623:4.1359 1670:4.1359 1703:4.1359 1738:4.1359 1768:4.1359 1854:4.1359 1899:4.1359 1911:4.7266998 1935:4.1359 1950:4.1359 2049:4.1359 2143:4.1359 2148:4.1359 2153:6.4991999 2167:4.1359 2259:4.7266998 2319:4.7266998 2346:4.1359 2404:5.9084001 2409:4.1359 2418:4.1359 2426:4.1359 2473:4.1359 2507:4.1359 2555:4.1359 2610:4.1359 2611:4.1359 2630:4.1359 2678:4.1359 2712:4.7266998 2714:4.1359 2745:4.1359 2766:4.7266998 2767:4.1359 2777:5.9084001 2840:4.1359 2904:4.1359 2910:4.1359 2974:4.1359 2994:4.7266998 3019:4.1359 3055:4.1359 3124:4.1359 3151:5.9084001 3158:4.1359 3161:4.1359 3190:4.1359 3214:4.1359 3217:4.1359 3312:4.1359 3358:4.1359 3368:4.1359 3373:4.1359 3421:4.1359 3428:4.1359 3446:4.1359 3480:4.1359 3494:4.1359 3497:4.1359 # none/00002494_s01.txt
-0.00052615065072219332868719288143211 10:4.2540002 40:4.2540002 390:4.2540002 408:4.2540002 430:4.2540002 510:4.2540002 550:4.2540002 575:4.2540002 625:4.2540002 639:4.9631 661:4.2540002 722:4.2540002 821:4.2540002 847:4.2540002 865:4.2540002 951:4.9631 976:4.2540002 1022:4.2540002 1062:4.9631 1065:4.2540002 1079:4.2540002 1114:4.2540002 1121:4.2540002 1125:4.2540002 1134:4.2540002 1139:4.2540002 1208:4.2540002 1240:7.0900998 1253:4.2540002 1264:4.2540002 1320:4.2540002 1420:4.2540002 1439:5.6721001 1478:4.9631 1481:4.2540002 1516:4.9631 1522:4.2540002 1554:4.2540002 1557:7.0900998 1634:5.6721001 1670:4.2540002 1738:4.2540002 1744:4.9631 1747:4.2540002 1778:4.2540002 1814:4.2540002 1819:4.2540002 1865:4.2540002 1896:4.2540002 1987:4.2540002 1988:4.2540002 2036:5.6721001 2049:4.2540002 2118:4.2540002 2141:4.2540002 2188:4.2540002 2264:4.2540002 2404:4.9631 2409:4.9631 2426:4.2540002 2428:4.2540002 2473:4.2540002 2492:4.2540002 2507:4.2540002 2533:4.2540002 2574:4.2540002 2582:4.2540002 2622:4.2540002 2636:4.2540002 2678:5.6721001 2687:4.2540002 2745:4.2540002 2777:6.3811002 2840:4.2540002 2879:4.9631 2906:4.2540002 2948:5.6721001 2958:4.2540002 2974:4.9631 2997:4.2540002 3010:5.6721001 3019:4.2540002 3039:4.2540002 3114:4.2540002 3124:4.2540002 3198:5.6721001 3258:4.2540002 3355:4.2540002 3368:4.9631 3377:4.2540002 3388:4.9631 3421:4.2540002 3439:4.2540002 3458:5.6721001 3468:4.2540002 # none/00000998_s06.txt
-0.00052615065072219332868719288143211 40:4.1359 115:4.1359 408:4.1359 430:4.7266998 463:4.1359 496:4.1359 579:4.7266998 598:4.1359 639:4.1359 661:4.1359 693:4.1359 722:4.1359 821:4.1359 865:4.1359 954:5.9084001 976:4.1359 1062:5.3175998 1079:4.1359 1121:4.1359 1125:4.1359 1208:4.1359 1240:5.9084001 1253:4.1359 1264:4.1359 1392:4.1359 1421:4.1359 1478:4.1359 1560:4.1359 1670:4.1359 1738:4.1359 1814:4.1359 1816:4.1359 1865:4.1359 1911:7.0900998 1988:4.1359 1992:4.1359 2025:5.3175998 2049:4.1359 2141:4.1359 2153:4.1359 2167:4.1359 2267:4.1359 2297:4.1359 2319:4.1359 2404:5.3175998 2409:4.7266998 2426:4.1359 2473:4.1359 2492:4.7266998 2573:4.1359 2574:4.1359 2628:4.1359 2678:4.1359 2745:4.7266998 2777:5.3175998 2840:4.1359 2882:5.9084001 2906:4.1359 2948:5.9084001 3019:4.1359 3039:4.1359 3081:4.1359 3107:4.1359 3124:4.1359 3368:4.1359 3409:4.1359 3421:4.1359 3439:4.7266998 # none/00005355_s01.txt
0.00052615065072219332868719288143211 32:3.9881999 40:3.9881999 111:3.9881999 154:4.4313002 169:3.9881999 171:3.9881999 240:3.9881999 408:4.4313002 430:3.9881999 442:4.8744001 516:4.8744001 527:5.3175998 550:4.8744001 563:3.9881999 569:5.3175998 570:3.9881999 639:4.4313002 661:3.9881999 680:3.9881999 682:3.9881999 686:3.9881999 699:3.9881999 717:3.9881999 807:4.4313002 813:4.4313002 820:3.9881999 865:3.9881999 906:3.9881999 945:3.9881999 951:4.4313002 976:4.4313002 1015:3.9881999 1045:3.9881999 1079:3.9881999 1089:4.4313002 1117:3.9881999 1118:4.4313002 1121:3.9881999 1139:4.4313002 1175:3.9881999 1208:4.4313002 1213:4.4313002 1218:4.8744001 1240:5.3175998 1243:3.9881999 1253:3.9881999 1264:4.4313002 1326:3.9881999 1338:3.9881999 1347:3.9881999 1352:3.9881999 1356:5.3175998 1392:3.9881999 1445:3.9881999 1450:4.4313002 1478:6.2038002 1516:3.9881999 1517:3.9881999 1531:3.9881999 1578:3.9881999 1649:3.9881999 1668:4.8744001 1703:4.8744001 1738:3.9881999 1747:3.9881999 1750:3.9881999 1814:3.9881999 1827:3.9881999 1872:3.9881999 1896:4.4313002 1911:5.7607002 1950:3.9881999 1957:3.9881999 1968:3.9881999 2049:4.4313002 2083:4.4313002 2133:3.9881999 2141:3.9881999 2151:3.9881999 2153:3.9881999 2164:4.8744001 2252:3.9881999 2256:3.9881999 2259:4.4313002 2267:4.8744001 2282:3.9881999 2329:4.4313002 2338:3.9881999 2393:3.9881999 2397:3.9881999 2404:4.8744001 2426:4.4313002 2467:3.9881999 2473:3.9881999 2507:3.9881999 2558:3.9881999 2571:3.9881999 2658:3.9881999 2661:3.9881999 2668:3.9881999 2678:6.2038002 2693:3.9881999 2694:6.2038002 2710:3.9881999 2735:3.9881999 2746:3.9881999 2760:3.9881999 2762:3.9881999 2766:3.9881999 2767:3.9881999 2777:4.4313002 2810:3.9881999 2827:3.9881999 2835:6.2038002 2840:7.0900998 2879:4.4313002 2921:3.9881999 2936:4.8744001 2948:5.7607002 2963:3.9881999 2973:3.9881999 2997:3.9881999 3017:3.9881999 3019:3.9881999 3020:3.9881999 3037:3.9881999 3053:3.9881999 3055:3.9881999 3124:3.9881999 3149:3.9881999 3152:3.9881999 3167:5.7607002 3198:3.9881999 3226:4.4313002 3298:3.9881999 3349:3.9881999 3368:4.4313002 3371:3.9881999 3421:3.9881999 3426:3.9881999 3446:3.9881999 3458:4.4313002 3470:4.8744001 3530:3.9881999 # seizures/00001884_s02.txt
0.00052615065072219332868719288143211 32:4.5579 40:4.0514998 111:4.5579 203:4.5579 286:4.5579 408:4.5579 410:4.0514998 430:4.5579 442:5.0643001 472:4.0514998 485:4.0514998 527:4.0514998 563:4.0514998 570:4.0514998 579:4.0514998 610:4.0514998 639:4.0514998 665:4.0514998 682:5.0643001 694:4.0514998 717:4.0514998 751:4.0514998 813:4.0514998 861:4.0514998 865:5.5707998 945:4.0514998 951:4.0514998 976:5.0643001 1032:4.5579 1079:4.0514998 1089:4.5579 1095:4.0514998 1117:4.0514998 1118:6.0771999 1125:4.0514998 1139:5.5707998 1175:4.0514998 1208:4.0514998 1213:5.0643001 1218:4.0514998 1240:6.0771999 1253:4.0514998 1264:4.5579 1270:4.0514998 1297:4.0514998 1314:4.0514998 1347:4.0514998 1356:4.5579 1414:4.5579 1445:4.0514998 1450:4.0514998 1478:4.5579 1484:4.0514998 1516:4.0514998 1517:4.0514998 1531:4.0514998 1554:4.0514998 1668:5.0643001 1703:4.0514998 1738:4.0514998 1739:4.0514998 1744:4.0514998 1795:4.0514998 1814:4.0514998 1827:4.0514998 1865:4.0514998 1896:4.5579 1968:4.0514998 2025:4.0514998 2049:4.0514998 2141:4.0514998 2151:4.0514998 2162:4.0514998 2164:4.5579 2167:4.0514998 2252:4.0514998 2256:4.0514998 2259:4.5579 2267:4.0514998 2326:4.0514998 2329:4.5579 2400:4.5579 2404:5.5707998 2409:4.0514998 2426:5.0643001 2442:4.0514998 2472:4.0514998 2473:4.0514998 2479:4.0514998 2491:4.5579 2507:4.0514998 2558:4.0514998 2571:4.5579 2639:4.0514998 2668:4.0514998 2678:6.5836 2693:4.0514998 2728:4.0514998 2760:4.0514998 2762:4.0514998 2766:4.0514998 2827:4.5579 2835:6.0771999 2840:7.0900998 2879:4.0514998 2921:4.0514998 2936:4.5579 2948:4.5579 2963:4.5579 2997:4.5579 3019:4.0514998 3046:4.5579 3055:4.0514998 3069:4.0514998 3079:4.5579 3117:4.0514998 3124:4.0514998 3149:4.0514998 3152:4.0514998 3167:4.0514998 3216:4.0514998 3226:4.5579 3368:4.5579 3446:4.0514998 3458:5.0643001 3470:4.0514998 # seizures/00000075_s05.txt
0.00052615065072219332868719288143211 32:4.1359 76:4.1359 162:4.1359 408:4.1359 422:4.1359 430:4.1359 442:5.3175998 516:5.3175998 527:4.1359 545:4.1359 563:4.1359 639:4.1359 649:5.9084001 661:4.1359 688:4.1359 740:5.9084001 774:4.7266998 807:4.1359 813:4.1359 916:4.1359 945:4.1359 951:4.7266998 1062:4.1359 1065:4.1359 1079:4.1359 1118:5.3175998 1125:4.1359 1139:4.1359 1175:4.1359 1208:4.1359 1218:4.1359 1240:4.1359 1253:4.7266998 1264:5.3175998 1268:4.1359 1270:5.3175998 1320:4.1359 1322:4.1359 1347:4.7266998 1445:4.7266998 1516:4.1359 1517:4.1359 1554:4.7266998 1585:4.1359 1649:4.1359 1668:4.7266998 1694:4.1359 1738:4.1359 1747:4.1359 1754:4.1359 1814:4.1359 1882:4.1359 1905:4.7266998 1915:4.1359 1988:4.1359 2049:4.1359 2074:4.1359 2110:4.1359 2119:4.1359 2127:5.3175998 2144:5.3175998 2256:4.1359 2259:4.1359 2267:4.1359 2291:4.7266998 2297:5.9084001 2346:5.3175998 2404:4.1359 2426:5.3175998 2428:4.1359 2438:4.7266998 2453:4.1359 2507:4.7266998 2516:4.1359 2539:4.1359 2583:4.7266998 2592:4.1359 2621:4.1359 2633:4.1359 2678:5.3175998 2694:4.1359 2730:4.7266998 2761:4.7266998 2766:4.1359 2840:5.3175998 2879:5.9084001 2918:4.7266998 2923:4.1359 2936:4.1359 2948:4.7266998 3019:4.1359 3039:4.1359 3124:4.1359 3131:4.1359 3198:4.1359 3255:4.1359 3290:6.4991999 3294:4.7266998 3321:4.1359 3458:5.9084001 3459:7.0900998 # seizures/00004507_s02.txt
