SVM-light Version V6.02
0 # kernel type
3 # kernel parameter -d 
1 # kernel parameter -g 
1 # kernel parameter -s 
1 # kernel parameter -r 
empty# kernel parameter -u 
2609 # highest feature index 
320 # number of training documents 
179 # number of support vectors plus 1 
0.93550054 # threshold b, each following line is a SV (starting with alpha*y)
-4.7235198452098827121090757197308e-05 8:11.9829 14:5.9914999 29:11.9829 37:17.9744 64:5.9914999 71:5.9914999 89:11.9829 102:5.9914999 133:5.9914999 138:5.9914999 150:5.9914999 159:5.9914999 224:5.9914999 239:5.9914999 240:5.9914999 283:5.9914999 353:11.9829 391:5.9914999 395:11.9829 466:5.9914999 489:5.9914999 504:5.9914999 506:5.9914999 578:5.9914999 590:5.9914999 592:5.9914999 602:5.9914999 603:5.9914999 605:5.9914999 617:5.9914999 646:5.9914999 669:5.9914999 672:11.9829 680:11.9829 698:17.9744 705:5.9914999 713:11.9829 751:5.9914999 760:11.9829 772:5.9914999 782:11.9829 812:5.9914999 888:17.9744 928:5.9914999 952:11.9829 1006:5.9914999 1029:29.9573 1031:5.9914999 1049:11.9829 1118:5.9914999 1164:5.9914999 1180:5.9914999 1225:5.9914999 1229:5.9914999 1245:11.9829 1253:23.9659 1296:5.9914999 1338:5.9914999 1344:5.9914999 1362:11.9829 1372:5.9914999 1403:11.9829 1414:11.9829 1523:23.9659 1536:11.9829 1541:5.9914999 1546:5.9914999 1589:5.9914999 1601:11.9829 1618:29.9573 1650:11.9829 1654:5.9914999 1660:5.9914999 1664:5.9914999 1683:17.9744 1712:5.9914999 1745:5.9914999 1747:11.9829 1777:5.9914999 1797:11.9829 1870:5.9914999 1872:5.9914999 1880:5.9914999 1889:17.9744 1901:5.9914999 1902:23.9659 1965:5.9914999 1972:23.9659 2030:35.948799 2033:29.9573 2066:5.9914999 2071:11.9829 2098:5.9914999 2100:5.9914999 2112:5.9914999 2118:23.9659 2177:5.9914999 2221:5.9914999 2229:11.9829 2280:5.9914999 2291:5.9914999 2303:5.9914999 2315:5.9914999 2479:5.9914999 2523:5.9914999 2542:11.9829 2550:35.948799 2555:5.9914999 # none/00000011_s07.txt
1.4327174743442995887877933203214e-05 8:11.9829 22:5.9914999 29:23.9659 37:11.9829 46:5.9914999 89:11.9829 102:5.9914999 124:11.9829 128:11.9829 154:5.9914999 170:5.9914999 180:5.9914999 194:5.9914999 203:11.9829 246:29.9573 291:11.9829 325:11.9829 353:5.9914999 359:5.9914999 376:5.9914999 395:17.9744 456:5.9914999 466:5.9914999 480:5.9914999 492:5.9914999 561:5.9914999 566:11.9829 572:5.9914999 578:5.9914999 603:35.948799 617:5.9914999 646:5.9914999 672:5.9914999 675:11.9829 680:5.9914999 698:5.9914999 701:5.9914999 705:5.9914999 713:5.9914999 716:17.9744 727:5.9914999 751:5.9914999 755:11.9829 832:23.9659 860:11.9829 917:11.9829 924:5.9914999 963:5.9914999 982:5.9914999 1006:5.9914999 1049:5.9914999 1079:17.9744 1118:5.9914999 1125:11.9829 1130:11.9829 1245:5.9914999 1247:11.9829 1250:11.9829 1257:5.9914999 1320:5.9914999 1344:5.9914999 1372:5.9914999 1414:11.9829 1431:17.9744 1481:5.9914999 1483:5.9914999 1503:5.9914999 1523:11.9829 1541:5.9914999 1551:17.9744 1559:5.9914999 1576:11.9829 1579:5.9914999 1598:11.9829 1608:5.9914999 1614:17.9744 1617:5.9914999 1664:23.9659 1683:17.9744 1700:11.9829 1727:5.9914999 1732:5.9914999 1738:17.9744 1745:11.9829 1753:5.9914999 1777:5.9914999 1788:5.9914999 1810:5.9914999 1862:5.9914999 1889:23.9659 1944:5.9914999 1953:11.9829 1961:5.9914999 1965:5.9914999 1972:5.9914999 1991:5.9914999 2033:47.931702 2091:5.9914999 2099:23.9659 2112:17.9744 2118:17.9744 2177:5.9914999 2201:11.9829 2280:11.9829 2300:5.9914999 2306:5.9914999 2309:5.9914999 2337:5.9914999 2354:5.9914999 2418:5.9914999 2435:11.9829 2470:5.9914999 2515:5.9914999 2537:5.9914999 2542:11.9829 # seizures/00002594_s03.txt
-2.7261480212719370265668505926016e-06 5:5.9914999 8:5.9914999 9:5.9914999 12:17.9744 29:35.948799 37:5.9914999 102:5.9914999 128:5.9914999 149:17.9744 203:5.9914999 224:5.9914999 260:5.9914999 282:11.9829 310:5.9914999 359:5.9914999 395:11.9829 411:5.9914999 426:5.9914999 441:5.9914999 466:11.9829 489:5.9914999 538:5.9914999 577:5.9914999 578:5.9914999 602:5.9914999 605:5.9914999 617:5.9914999 633:5.9914999 646:5.9914999 652:5.9914999 675:5.9914999 694:5.9914999 698:35.948799 705:17.9744 709:17.9744 712:29.9573 713:23.9659 728:5.9914999 758:5.9914999 812:5.9914999 846:5.9914999 908:5.9914999 961:5.9914999 1033:5.9914999 1049:11.9829 1086:5.9914999 1118:5.9914999 1164:11.9829 1180:5.9914999 1229:5.9914999 1250:11.9829 1372:17.9744 1401:5.9914999 1523:41.9403 1545:5.9914999 1546:29.9573 1559:5.9914999 1589:5.9914999 1601:5.9914999 1629:5.9914999 1631:11.9829 1660:5.9914999 1664:11.9829 1665:5.9914999 1683:17.9744 1712:5.9914999 1745:5.9914999 1797:5.9914999 1816:11.9829 1863:5.9914999 1880:5.9914999 1889:35.948799 1959:5.9914999 1961:5.9914999 1965:5.9914999 2027:5.9914999 2030:23.9659 2033:5.9914999 2092:5.9914999 2099:11.9829 2101:5.9914999 2193:5.9914999 2201:11.9829 2258:5.9914999 2280:5.9914999 2303:5.9914999 2313:5.9914999 2315:5.9914999 2350:5.9914999 2460:5.9914999 2479:5.9914999 2496:5.9914999 2503:5.9914999 2507:11.9829 2523:5.9914999 2560:5.9914999 # none/00007764_s01.txt
-6.0887553083172185467743242615057e-05 4:17.9744 8:5.9914999 10:5.9914999 29:35.948799 37:17.9744 76:11.9829 88:11.9829 102:11.9829 124:5.9914999 128:11.9829 134:5.9914999 141:5.9914999 150:5.9914999 154:5.9914999 159:5.9914999 164:5.9914999 180:5.9914999 196:5.9914999 203:11.9829 224:11.9829 227:5.9914999 240:23.9659 242:5.9914999 254:5.9914999 302:5.9914999 328:17.9744 335:5.9914999 360:11.9829 362:5.9914999 363:11.9829 391:5.9914999 395:23.9659 442:53.923199 459:5.9914999 471:29.9573 489:5.9914999 492:5.9914999 515:5.9914999 549:5.9914999 569:11.9829 578:23.9659 593:5.9914999 605:11.9829 617:5.9914999 624:5.9914999 651:5.9914999 662:5.9914999 674:5.9914999 675:5.9914999 688:11.9829 698:41.9403 705:11.9829 713:11.9829 725:5.9914999 739:5.9914999 743:5.9914999 753:17.9744 755:5.9914999 777:11.9829 778:5.9914999 784:23.9659 793:5.9914999 798:5.9914999 819:5.9914999 828:5.9914999 833:17.9744 846:5.9914999 888:17.9744 893:5.9914999 917:47.931702 918:23.9659 955:5.9914999 976:5.9914999 983:5.9914999 1006:5.9914999 1012:5.9914999 1024:5.9914999 1027:5.9914999 1029:17.9744 1049:5.9914999 1057:5.9914999 1063:11.9829 1099:5.9914999 1110:5.9914999 1118:5.9914999 1119:5.9914999 1123:11.9829 1142:23.9659 1160:5.9914999 1161:5.9914999 1164:23.9659 1180:11.9829 1245:11.9829 1253:23.9659 1277:5.9914999 1287:5.9914999 1292:5.9914999 1294:5.9914999 1299:17.9744 1372:5.9914999 1375:5.9914999 1404:17.9744 1414:5.9914999 1437:35.948799 1441:17.9744 1442:23.9659 1455:5.9914999 1459:5.9914999 1513:5.9914999 1523:17.9744 1551:35.948799 1554:41.9403 1576:5.9914999 1589:5.9914999 1591:5.9914999 1605:5.9914999 1614:17.9744 1619:17.9744 1655:47.931702 1656:5.9914999 1658:23.9659 1664:71.897598 1665:5.9914999 1680:5.9914999 1683:11.9829 1688:5.9914999 1695:17.9744 1712:11.9829 1724:5.9914999 1745:23.9659 1748:5.9914999 1800:5.9914999 1860:5.9914999 1883:11.9829 1889:77.889 1893:5.9914999 1895:5.9914999 1902:29.9573 1907:5.9914999 1916:11.9829 1924:17.9744 1939:5.9914999 1966:11.9829 1972:53.923199 2008:5.9914999 2014:5.9914999 2026:59.9146 2029:11.9829 2030:11.9829 2033:143.7951 2053:23.9659 2071:11.9829 2078:5.9914999 2081:11.9829 2085:5.9914999 2091:11.9829 2099:5.9914999 2112:23.9659 2118:29.9573 2127:17.9744 2177:11.9829 2185:11.9829 2189:5.9914999 2201:5.9914999 2205:5.9914999 2219:5.9914999 2280:11.9829 2315:41.9403 2325:5.9914999 2326:5.9914999 2337:17.9744 2349:5.9914999 2350:5.9914999 2354:11.9829 2387:5.9914999 2415:5.9914999 2428:5.9914999 2466:5.9914999 2470:5.9914999 2479:11.9829 2523:11.9829 2545:5.9914999 2550:11.9829 2552:5.9914999 2553:5.9914999 2555:5.9914999 2578:11.9829 # none/00000088_s10.txt
-1.6240155573315535495956818401453e-05 8:5.9914999 23:5.9914999 32:5.9914999 72:5.9914999 76:5.9914999 111:5.9914999 140:5.9914999 154:5.9914999 170:5.9914999 203:5.9914999 224:5.9914999 291:5.9914999 360:5.9914999 395:11.9829 456:5.9914999 459:5.9914999 489:5.9914999 506:5.9914999 520:5.9914999 524:5.9914999 578:5.9914999 590:5.9914999 592:5.9914999 596:5.9914999 602:5.9914999 605:5.9914999 617:11.9829 660:5.9914999 698:35.948799 705:5.9914999 713:5.9914999 751:5.9914999 755:11.9829 759:5.9914999 794:5.9914999 836:5.9914999 846:5.9914999 908:5.9914999 924:5.9914999 1000:5.9914999 1003:5.9914999 1038:5.9914999 1049:11.9829 1075:5.9914999 1076:5.9914999 1078:5.9914999 1079:5.9914999 1103:5.9914999 1118:5.9914999 1121:5.9914999 1135:5.9914999 1180:5.9914999 1192:5.9914999 1218:5.9914999 1253:5.9914999 1268:5.9914999 1280:5.9914999 1340:5.9914999 1372:23.9659 1467:5.9914999 1523:11.9829 1536:17.9744 1546:11.9829 1551:11.9829 1554:5.9914999 1589:5.9914999 1601:5.9914999 1660:5.9914999 1664:17.9744 1681:5.9914999 1683:17.9744 1700:5.9914999 1712:5.9914999 1716:5.9914999 1792:11.9829 1889:17.9744 1965:5.9914999 2016:5.9914999 2030:11.9829 2033:17.9744 2081:5.9914999 2091:5.9914999 2098:5.9914999 2112:17.9744 2118:5.9914999 2174:11.9829 2177:5.9914999 2179:5.9914999 2201:11.9829 2211:5.9914999 2215:5.9914999 2265:5.9914999 2280:5.9914999 2290:5.9914999 2302:5.9914999 2303:5.9914999 2385:5.9914999 2400:5.9914999 2470:5.9914999 2479:5.9914999 2515:5.9914999 2523:5.9914999 2531:5.9914999 2542:17.9744 2577:5.9914999 2581:5.9914999 2586:5.9914999 2591:5.9914999 # none/00005362_s01.txt
6.0887553083172185467743242615057e-05 8:5.9914999 29:5.9914999 37:5.9914999 63:17.9744 127:5.9914999 149:5.9914999 192:5.9914999 203:11.9829 221:5.9914999 224:5.9914999 292:5.9914999 317:5.9914999 349:5.9914999 360:5.9914999 391:5.9914999 395:11.9829 465:5.9914999 471:5.9914999 489:5.9914999 559:5.9914999 569:11.9829 605:5.9914999 606:5.9914999 616:5.9914999 629:5.9914999 662:5.9914999 672:5.9914999 698:59.9146 705:5.9914999 713:5.9914999 720:5.9914999 755:5.9914999 811:5.9914999 893:5.9914999 917:5.9914999 924:5.9914999 952:5.9914999 1049:5.9914999 1063:5.9914999 1077:5.9914999 1079:5.9914999 1118:5.9914999 1125:5.9914999 1164:5.9914999 1180:5.9914999 1187:5.9914999 1292:5.9914999 1346:5.9914999 1352:5.9914999 1372:5.9914999 1441:5.9914999 1451:5.9914999 1469:5.9914999 1589:5.9914999 1664:17.9744 1665:11.9829 1683:11.9829 1685:5.9914999 1700:5.9914999 1712:5.9914999 1786:5.9914999 1789:5.9914999 1807:5.9914999 1878:5.9914999 1889:17.9744 1972:5.9914999 2033:11.9829 2071:11.9829 2093:5.9914999 2096:5.9914999 2112:5.9914999 2118:11.9829 2177:5.9914999 2179:5.9914999 2221:5.9914999 2245:5.9914999 2277:5.9914999 2280:5.9914999 2337:17.9744 2350:5.9914999 2439:5.9914999 2475:5.9914999 2479:5.9914999 2518:5.9914999 2523:5.9914999 2550:17.9744 2580:5.9914999 # seizures/00000005_s06.txt
6.0887553083172185467743242615057e-05 8:5.9914999 9:5.9914999 29:17.9744 45:5.9914999 124:5.9914999 164:5.9914999 203:5.9914999 224:5.9914999 240:5.9914999 302:17.9744 360:5.9914999 391:5.9914999 395:23.9659 463:5.9914999 470:5.9914999 483:5.9914999 489:11.9829 515:5.9914999 569:17.9744 577:5.9914999 578:5.9914999 605:5.9914999 606:5.9914999 617:5.9914999 631:5.9914999 672:5.9914999 674:5.9914999 675:5.9914999 698:23.9659 705:5.9914999 713:5.9914999 716:5.9914999 734:5.9914999 753:5.9914999 755:5.9914999 769:5.9914999 819:5.9914999 833:11.9829 836:5.9914999 860:5.9914999 880:5.9914999 888:5.9914999 908:5.9914999 917:11.9829 918:5.9914999 1027:5.9914999 1029:17.9744 1037:5.9914999 1049:5.9914999 1063:5.9914999 1118:5.9914999 1123:11.9829 1124:5.9914999 1125:5.9914999 1180:5.9914999 1189:5.9914999 1218:5.9914999 1253:17.9744 1260:5.9914999 1352:5.9914999 1372:5.9914999 1375:5.9914999 1451:5.9914999 1523:5.9914999 1551:5.9914999 1554:11.9829 1559:5.9914999 1575:5.9914999 1589:5.9914999 1593:5.9914999 1639:5.9914999 1664:17.9744 1665:11.9829 1683:11.9829 1712:5.9914999 1789:5.9914999 1799:5.9914999 1800:5.9914999 1889:5.9914999 1907:5.9914999 1961:5.9914999 1972:23.9659 2030:5.9914999 2033:17.9744 2071:5.9914999 2085:5.9914999 2091:5.9914999 2099:5.9914999 2118:11.9829 2142:5.9914999 2157:5.9914999 2160:5.9914999 2177:5.9914999 2185:5.9914999 2201:5.9914999 2280:5.9914999 2328:5.9914999 2337:5.9914999 2431:5.9914999 2479:5.9914999 2523:5.9914999 2550:5.9914999 2580:5.9914999 # seizures/00000018_s02.txt
6.0887553083172185467743242615057e-05 8:5.9914999 29:5.9914999 37:5.9914999 47:5.9914999 55:5.9914999 79:5.9914999 128:5.9914999 144:5.9914999 159:5.9914999 203:5.9914999 213:11.9829 224:5.9914999 273:5.9914999 291:5.9914999 322:5.9914999 358:5.9914999 360:5.9914999 363:5.9914999 395:17.9744 459:5.9914999 471:5.9914999 489:5.9914999 535:11.9829 566:5.9914999 569:5.9914999 578:5.9914999 593:5.9914999 601:5.9914999 605:5.9914999 606:5.9914999 672:5.9914999 688:5.9914999 698:41.9403 705:5.9914999 707:5.9914999 713:11.9829 734:5.9914999 784:5.9914999 794:5.9914999 880:5.9914999 888:11.9829 908:5.9914999 912:5.9914999 917:5.9914999 918:5.9914999 963:5.9914999 967:5.9914999 977:5.9914999 1049:5.9914999 1063:5.9914999 1118:5.9914999 1167:5.9914999 1180:5.9914999 1218:5.9914999 1253:23.9659 1300:5.9914999 1369:5.9914999 1372:5.9914999 1382:5.9914999 1437:11.9829 1442:5.9914999 1448:5.9914999 1481:5.9914999 1523:5.9914999 1573:5.9914999 1579:5.9914999 1589:5.9914999 1664:29.9573 1683:5.9914999 1686:11.9829 1712:5.9914999 1724:5.9914999 1732:5.9914999 1738:5.9914999 1840:5.9914999 1889:17.9744 1902:11.9829 2027:5.9914999 2029:5.9914999 2030:5.9914999 2033:23.9659 2061:5.9914999 2071:23.9659 2088:5.9914999 2118:11.9829 2160:5.9914999 2177:5.9914999 2185:5.9914999 2272:5.9914999 2280:5.9914999 2288:5.9914999 2315:23.9659 2424:5.9914999 2479:5.9914999 2515:5.9914999 2517:5.9914999 2523:11.9829 2550:23.9659 2578:11.9829 2580:5.9914999 # seizures/00000018_s04.txt
4.5744448526972000324593986553268e-05 4:5.9914999 8:11.9829 29:17.9744 37:5.9914999 55:5.9914999 57:5.9914999 64:5.9914999 89:5.9914999 102:5.9914999 124:17.9744 170:17.9744 203:17.9744 213:5.9914999 224:5.9914999 227:5.9914999 302:5.9914999 360:5.9914999 391:11.9829 395:11.9829 489:5.9914999 499:11.9829 524:5.9914999 566:17.9744 569:5.9914999 578:5.9914999 605:5.9914999 606:5.9914999 617:5.9914999 651:5.9914999 672:5.9914999 674:5.9914999 675:5.9914999 692:5.9914999 698:41.9403 699:5.9914999 705:5.9914999 713:5.9914999 716:5.9914999 753:11.9829 755:5.9914999 776:5.9914999 816:5.9914999 846:5.9914999 890:5.9914999 893:5.9914999 924:17.9744 925:5.9914999 932:5.9914999 947:5.9914999 963:5.9914999 1006:5.9914999 1041:5.9914999 1049:5.9914999 1063:5.9914999 1105:5.9914999 1110:5.9914999 1118:5.9914999 1123:5.9914999 1125:5.9914999 1130:5.9914999 1138:5.9914999 1164:5.9914999 1180:5.9914999 1253:5.9914999 1287:5.9914999 1323:5.9914999 1352:11.9829 1366:5.9914999 1372:5.9914999 1427:5.9914999 1459:5.9914999 1481:5.9914999 1523:5.9914999 1554:5.9914999 1572:5.9914999 1576:5.9914999 1589:5.9914999 1618:11.9829 1619:11.9829 1658:5.9914999 1664:11.9829 1665:17.9744 1683:5.9914999 1694:5.9914999 1706:5.9914999 1712:5.9914999 1732:5.9914999 1766:5.9914999 1809:5.9914999 1819:23.9659 1883:5.9914999 1889:29.9573 1902:5.9914999 1924:5.9914999 1939:5.9914999 1944:5.9914999 1945:5.9914999 1966:17.9744 1972:23.9659 2026:5.9914999 2029:5.9914999 2033:5.9914999 2071:29.9573 2118:23.9659 2122:5.9914999 2123:5.9914999 2160:5.9914999 2177:5.9914999 2185:17.9744 2205:5.9914999 2280:5.9914999 2315:11.9829 2333:11.9829 2337:11.9829 2344:5.9914999 2388:5.9914999 2435:5.9914999 2479:5.9914999 2515:5.9914999 2523:5.9914999 2537:5.9914999 2550:35.948799 2560:11.9829 2590:5.9914999 # seizures/00000726_s01.txt
6.0887553083172185467743242615057e-05 8:11.9829 29:11.9829 37:17.9744 69:5.9914999 79:5.9914999 89:11.9829 102:5.9914999 124:11.9829 203:5.9914999 213:5.9914999 221:5.9914999 240:5.9914999 246:5.9914999 273:5.9914999 300:5.9914999 353:11.9829 359:11.9829 391:5.9914999 395:17.9744 446:5.9914999 466:5.9914999 471:11.9829 489:11.9829 566:5.9914999 578:5.9914999 582:11.9829 602:5.9914999 603:11.9829 606:5.9914999 617:17.9744 646:5.9914999 672:11.9829 680:11.9829 698:23.9659 699:5.9914999 705:5.9914999 713:11.9829 716:11.9829 755:11.9829 772:5.9914999 775:5.9914999 782:5.9914999 785:5.9914999 833:5.9914999 888:5.9914999 890:5.9914999 917:17.9744 928:5.9914999 952:11.9829 1001:5.9914999 1016:5.9914999 1023:5.9914999 1049:5.9914999 1054:5.9914999 1118:5.9914999 1164:5.9914999 1180:5.9914999 1189:5.9914999 1218:5.9914999 1225:5.9914999 1245:5.9914999 1247:11.9829 1250:5.9914999 1253:11.9829 1260:5.9914999 1261:5.9914999 1263:5.9914999 1284:5.9914999 1300:5.9914999 1338:5.9914999 1344:5.9914999 1372:11.9829 1382:5.9914999 1509:5.9914999 1523:11.9829 1536:5.9914999 1541:5.9914999 1546:5.9914999 1551:11.9829 1554:23.9659 1564:5.9914999 1579:11.9829 1593:11.9829 1601:5.9914999 1606:5.9914999 1619:5.9914999 1650:11.9829 1654:5.9914999 1664:17.9744 1683:17.9744 1686:23.9659 1712:5.9914999 1719:17.9744 1745:17.9744 1797:11.9829 1860:5.9914999 1864:5.9914999 1880:5.9914999 1889:23.9659 1901:5.9914999 1902:11.9829 1907:5.9914999 1958:5.9914999 1959:5.9914999 1961:5.9914999 1965:5.9914999 1966:11.9829 2002:5.9914999 2030:5.9914999 2033:35.948799 2071:11.9829 2081:5.9914999 2099:5.9914999 2115:5.9914999 2118:17.9744 2126:5.9914999 2131:5.9914999 2160:5.9914999 2174:5.9914999 2177:5.9914999 2178:5.9914999 2185:5.9914999 2205:5.9914999 2221:5.9914999 2229:5.9914999 2243:5.9914999 2280:5.9914999 2303:5.9914999 2315:17.9744 2354:5.9914999 2470:5.9914999 2479:11.9829 2528:5.9914999 2550:23.9659 2560:17.9744 2572:5.9914999 # seizures/00000032_s05.txt
-6.0887553083172185467743242615057e-05 6:5.9914999 8:5.9914999 29:23.9659 32:5.9914999 64:5.9914999 72:5.9914999 79:5.9914999 83:5.9914999 88:5.9914999 89:5.9914999 102:11.9829 144:5.9914999 180:5.9914999 203:11.9829 224:5.9914999 359:5.9914999 360:5.9914999 395:11.9829 415:5.9914999 442:11.9829 489:5.9914999 566:5.9914999 572:5.9914999 578:5.9914999 594:5.9914999 603:5.9914999 605:5.9914999 617:5.9914999 672:11.9829 698:17.9744 704:5.9914999 705:5.9914999 713:5.9914999 722:5.9914999 823:5.9914999 836:5.9914999 846:5.9914999 856:5.9914999 901:5.9914999 909:5.9914999 918:5.9914999 952:5.9914999 955:5.9914999 964:5.9914999 1021:5.9914999 1029:5.9914999 1033:5.9914999 1041:5.9914999 1049:5.9914999 1063:5.9914999 1068:5.9914999 1118:5.9914999 1180:5.9914999 1253:23.9659 1372:5.9914999 1389:5.9914999 1523:5.9914999 1574:5.9914999 1577:5.9914999 1593:5.9914999 1614:5.9914999 1654:5.9914999 1664:11.9829 1680:5.9914999 1683:5.9914999 1686:35.948799 1712:5.9914999 1725:5.9914999 1735:5.9914999 1789:5.9914999 1889:11.9829 1921:5.9914999 1945:5.9914999 1966:5.9914999 2001:5.9914999 2033:5.9914999 2071:5.9914999 2118:35.948799 2128:5.9914999 2140:5.9914999 2160:17.9744 2170:5.9914999 2177:5.9914999 2185:5.9914999 2186:5.9914999 2201:5.9914999 2215:11.9829 2280:5.9914999 2315:17.9744 2319:5.9914999 2337:5.9914999 2428:5.9914999 2441:5.9914999 2479:5.9914999 2523:5.9914999 2550:23.9659 # none/00006256_s01.txt
-6.0887553083172185467743242615057e-05 8:17.9744 29:17.9744 76:5.9914999 89:11.9829 102:5.9914999 134:5.9914999 141:5.9914999 144:5.9914999 164:11.9829 170:11.9829 203:5.9914999 221:5.9914999 224:5.9914999 241:5.9914999 254:11.9829 302:5.9914999 349:5.9914999 353:5.9914999 360:5.9914999 395:5.9914999 459:5.9914999 473:11.9829 481:5.9914999 520:5.9914999 566:11.9829 578:5.9914999 605:5.9914999 669:5.9914999 672:5.9914999 698:17.9744 705:5.9914999 713:5.9914999 735:5.9914999 751:5.9914999 836:5.9914999 888:11.9829 891:5.9914999 893:5.9914999 908:5.9914999 917:5.9914999 924:5.9914999 952:5.9914999 1016:5.9914999 1029:11.9829 1034:5.9914999 1044:11.9829 1049:5.9914999 1118:5.9914999 1125:5.9914999 1135:5.9914999 1176:5.9914999 1180:5.9914999 1185:5.9914999 1187:11.9829 1218:5.9914999 1241:5.9914999 1253:41.9403 1323:5.9914999 1343:5.9914999 1352:11.9829 1364:17.9744 1372:5.9914999 1441:17.9744 1523:5.9914999 1551:5.9914999 1554:17.9744 1576:5.9914999 1606:5.9914999 1664:41.9403 1683:11.9829 1688:5.9914999 1712:5.9914999 1732:5.9914999 1745:11.9829 1748:5.9914999 1809:5.9914999 1864:5.9914999 1889:11.9829 1934:5.9914999 1945:5.9914999 1965:5.9914999 1972:17.9744 2033:5.9914999 2071:17.9744 2073:11.9829 2118:17.9744 2177:5.9914999 2215:5.9914999 2280:5.9914999 2306:5.9914999 2328:5.9914999 2337:5.9914999 2460:5.9914999 2470:5.9914999 2479:5.9914999 2499:11.9829 2511:5.9914999 2516:5.9914999 2523:5.9914999 2537:5.9914999 2542:5.9914999 2550:17.9744 2575:5.9914999 # none/00002905_s03.txt
-6.0887553083172185467743242615057e-05 11:5.9914999 29:17.9744 63:5.9914999 79:5.9914999 124:11.9829 141:5.9914999 149:23.9659 170:5.9914999 180:11.9829 203:23.9659 224:5.9914999 227:5.9914999 250:5.9914999 349:5.9914999 358:5.9914999 360:5.9914999 395:11.9829 447:5.9914999 459:5.9914999 461:5.9914999 465:5.9914999 471:11.9829 489:5.9914999 506:17.9744 554:5.9914999 566:5.9914999 569:17.9744 578:5.9914999 603:5.9914999 605:5.9914999 606:5.9914999 621:5.9914999 629:5.9914999 631:5.9914999 646:11.9829 672:5.9914999 675:5.9914999 698:23.9659 699:5.9914999 705:5.9914999 713:23.9659 739:5.9914999 778:5.9914999 833:11.9829 836:5.9914999 865:5.9914999 888:5.9914999 917:11.9829 919:5.9914999 924:5.9914999 928:11.9829 965:5.9914999 1023:5.9914999 1029:41.9403 1049:5.9914999 1063:5.9914999 1079:5.9914999 1106:5.9914999 1118:5.9914999 1119:5.9914999 1123:11.9829 1125:11.9829 1153:5.9914999 1164:17.9744 1171:5.9914999 1180:5.9914999 1209:5.9914999 1218:5.9914999 1253:65.906097 1299:11.9829 1343:5.9914999 1354:5.9914999 1372:5.9914999 1393:5.9914999 1437:11.9829 1441:11.9829 1442:5.9914999 1470:5.9914999 1508:5.9914999 1517:5.9914999 1523:5.9914999 1551:5.9914999 1559:5.9914999 1576:5.9914999 1579:5.9914999 1589:5.9914999 1618:5.9914999 1650:5.9914999 1664:35.948799 1665:29.9573 1683:11.9829 1700:5.9914999 1712:5.9914999 1738:5.9914999 1745:17.9744 1792:5.9914999 1794:5.9914999 1809:5.9914999 1884:5.9914999 1889:35.948799 1902:5.9914999 1907:5.9914999 1916:5.9914999 1965:11.9829 1972:35.948799 1986:5.9914999 2013:5.9914999 2026:5.9914999 2030:5.9914999 2033:11.9829 2061:11.9829 2066:5.9914999 2071:17.9744 2091:5.9914999 2105:5.9914999 2108:5.9914999 2112:5.9914999 2118:17.9744 2122:11.9829 2140:5.9914999 2167:5.9914999 2177:5.9914999 2201:5.9914999 2221:5.9914999 2229:5.9914999 2280:5.9914999 2303:5.9914999 2315:5.9914999 2325:11.9829 2354:5.9914999 2391:5.9914999 2479:5.9914999 2523:11.9829 2550:17.9744 2560:5.9914999 # none/00001132_s03.txt
-6.0887553083172185467743242615057e-05 8:23.9659 29:29.9573 124:5.9914999 164:5.9914999 203:23.9659 224:5.9914999 250:11.9829 254:5.9914999 264:5.9914999 282:11.9829 360:5.9914999 395:11.9829 403:5.9914999 430:5.9914999 435:5.9914999 436:5.9914999 442:11.9829 489:11.9829 566:5.9914999 569:5.9914999 578:5.9914999 605:5.9914999 606:5.9914999 672:5.9914999 698:23.9659 705:5.9914999 713:5.9914999 812:5.9914999 833:5.9914999 836:5.9914999 917:11.9829 924:5.9914999 952:5.9914999 1049:11.9829 1063:5.9914999 1095:5.9914999 1099:11.9829 1118:5.9914999 1123:11.9829 1164:5.9914999 1180:5.9914999 1181:5.9914999 1187:5.9914999 1193:5.9914999 1253:5.9914999 1261:11.9829 1263:5.9914999 1352:5.9914999 1372:11.9829 1389:5.9914999 1427:5.9914999 1441:5.9914999 1452:5.9914999 1463:5.9914999 1510:5.9914999 1523:5.9914999 1551:5.9914999 1554:5.9914999 1575:17.9744 1576:5.9914999 1577:5.9914999 1581:17.9744 1593:5.9914999 1606:11.9829 1619:5.9914999 1664:35.948799 1683:5.9914999 1686:17.9744 1712:5.9914999 1714:5.9914999 1719:5.9914999 1732:5.9914999 1735:11.9829 1745:11.9829 1766:5.9914999 1781:5.9914999 1786:5.9914999 1809:5.9914999 1889:35.948799 1902:11.9829 1907:11.9829 1916:5.9914999 1946:5.9914999 1966:5.9914999 1969:5.9914999 1972:5.9914999 2029:5.9914999 2033:5.9914999 2066:5.9914999 2071:17.9744 2086:5.9914999 2091:5.9914999 2118:5.9914999 2177:5.9914999 2191:5.9914999 2215:5.9914999 2219:5.9914999 2221:5.9914999 2280:5.9914999 2315:5.9914999 2337:5.9914999 2354:5.9914999 2404:23.9659 2423:17.9744 2435:5.9914999 2439:5.9914999 2479:5.9914999 2499:5.9914999 2523:5.9914999 2550:17.9744 2553:5.9914999 2560:5.9914999 2578:5.9914999 2580:5.9914999 # none/00004240_s02.txt
-6.0887553083172185467743242615057e-05 8:11.9829 29:29.9573 32:5.9914999 89:11.9829 139:5.9914999 144:5.9914999 149:5.9914999 159:5.9914999 170:5.9914999 180:5.9914999 203:11.9829 224:5.9914999 226:5.9914999 240:11.9829 302:11.9829 360:5.9914999 362:5.9914999 395:11.9829 442:11.9829 444:5.9914999 459:5.9914999 471:5.9914999 474:5.9914999 489:5.9914999 561:5.9914999 566:11.9829 569:5.9914999 578:5.9914999 585:5.9914999 603:5.9914999 605:5.9914999 606:5.9914999 657:5.9914999 672:5.9914999 675:5.9914999 698:35.948799 705:5.9914999 706:5.9914999 713:5.9914999 755:5.9914999 816:5.9914999 843:5.9914999 888:5.9914999 890:5.9914999 893:5.9914999 917:5.9914999 928:11.9829 955:11.9829 975:11.9829 1023:11.9829 1029:17.9744 1041:11.9829 1049:5.9914999 1063:5.9914999 1095:5.9914999 1099:11.9829 1118:5.9914999 1142:5.9914999 1180:5.9914999 1187:5.9914999 1189:5.9914999 1253:17.9744 1346:5.9914999 1364:11.9829 1372:5.9914999 1433:5.9914999 1441:5.9914999 1452:5.9914999 1466:5.9914999 1481:5.9914999 1523:5.9914999 1551:5.9914999 1554:5.9914999 1593:5.9914999 1601:5.9914999 1619:5.9914999 1664:11.9829 1683:5.9914999 1686:11.9829 1695:5.9914999 1712:5.9914999 1725:5.9914999 1735:5.9914999 1792:5.9914999 1809:11.9829 1860:5.9914999 1889:29.9573 1902:11.9829 1945:5.9914999 1968:5.9914999 1972:11.9829 2030:5.9914999 2033:11.9829 2068:5.9914999 2118:41.9403 2160:23.9659 2170:5.9914999 2177:5.9914999 2179:5.9914999 2201:5.9914999 2229:11.9829 2256:5.9914999 2265:5.9914999 2280:5.9914999 2380:5.9914999 2423:5.9914999 2424:5.9914999 2479:5.9914999 2523:5.9914999 2550:29.9573 2580:5.9914999 # none/00000724_s01.txt
4.3270607092101566302925000351287e-06 8:11.9829 29:29.9573 98:17.9744 111:5.9914999 127:5.9914999 128:11.9829 134:5.9914999 149:5.9914999 185:17.9744 228:11.9829 291:11.9829 302:5.9914999 395:17.9744 435:5.9914999 442:5.9914999 489:17.9744 549:5.9914999 569:5.9914999 577:5.9914999 606:5.9914999 617:53.923199 649:5.9914999 698:5.9914999 751:5.9914999 755:17.9744 760:11.9829 778:17.9744 798:5.9914999 893:5.9914999 909:5.9914999 917:5.9914999 939:5.9914999 1063:5.9914999 1113:5.9914999 1118:5.9914999 1142:5.9914999 1164:5.9914999 1237:5.9914999 1245:29.9573 1247:5.9914999 1253:47.931702 1347:5.9914999 1369:5.9914999 1372:5.9914999 1414:5.9914999 1441:5.9914999 1442:5.9914999 1466:5.9914999 1502:5.9914999 1517:5.9914999 1523:11.9829 1554:17.9744 1563:5.9914999 1571:5.9914999 1579:35.948799 1582:5.9914999 1618:5.9914999 1619:5.9914999 1654:5.9914999 1655:11.9829 1664:35.948799 1704:5.9914999 1725:5.9914999 1761:23.9659 1766:5.9914999 1860:5.9914999 1924:5.9914999 1966:5.9914999 1972:17.9744 2002:5.9914999 2008:5.9914999 2033:41.9403 2047:17.9744 2066:5.9914999 2071:5.9914999 2075:5.9914999 2091:5.9914999 2112:5.9914999 2115:5.9914999 2128:5.9914999 2140:11.9829 2160:11.9829 2179:5.9914999 2221:5.9914999 2224:5.9914999 2241:5.9914999 2256:5.9914999 2301:5.9914999 2315:65.906097 2349:5.9914999 2354:5.9914999 2416:5.9914999 2424:11.9829 2425:5.9914999 2428:11.9829 2457:5.9914999 2470:5.9914999 2541:5.9914999 2549:5.9914999 2550:5.9914999 2560:5.9914999 # seizures/00005535_s02.txt
6.0887553083172185467743242615057e-05 8:11.9829 29:11.9829 37:23.9659 89:23.9659 102:5.9914999 124:47.931702 133:5.9914999 134:5.9914999 138:17.9744 203:11.9829 227:11.9829 237:5.9914999 240:11.9829 290:5.9914999 349:17.9744 395:17.9744 435:5.9914999 466:17.9744 471:29.9573 489:5.9914999 514:5.9914999 528:11.9829 566:5.9914999 578:5.9914999 592:5.9914999 602:5.9914999 617:11.9829 646:5.9914999 654:11.9829 672:5.9914999 680:5.9914999 698:17.9744 705:5.9914999 713:11.9829 739:5.9914999 753:5.9914999 782:5.9914999 812:5.9914999 860:5.9914999 888:23.9659 914:5.9914999 917:17.9744 918:17.9744 924:5.9914999 928:5.9914999 952:5.9914999 1016:5.9914999 1049:5.9914999 1118:5.9914999 1125:11.9829 1164:5.9914999 1180:5.9914999 1245:5.9914999 1250:11.9829 1253:5.9914999 1299:5.9914999 1320:5.9914999 1338:11.9829 1372:5.9914999 1403:11.9829 1450:5.9914999 1452:11.9829 1463:5.9914999 1479:5.9914999 1523:17.9744 1536:5.9914999 1546:5.9914999 1551:5.9914999 1577:23.9659 1579:11.9829 1601:5.9914999 1608:5.9914999 1618:11.9829 1619:5.9914999 1664:17.9744 1680:11.9829 1683:17.9744 1712:5.9914999 1745:5.9914999 1788:5.9914999 1790:5.9914999 1797:11.9829 1864:5.9914999 1880:5.9914999 1889:47.931702 1893:5.9914999 1902:53.923199 1914:5.9914999 1928:5.9914999 1965:11.9829 1972:41.9403 2008:5.9914999 2030:29.9573 2033:47.931702 2071:17.9744 2099:5.9914999 2112:11.9829 2118:41.9403 2170:5.9914999 2177:5.9914999 2185:5.9914999 2219:5.9914999 2221:5.9914999 2280:5.9914999 2300:5.9914999 2303:5.9914999 2315:5.9914999 2325:5.9914999 2350:11.9829 2354:11.9829 2373:11.9829 2460:5.9914999 2479:5.9914999 2515:5.9914999 2542:5.9914999 2550:23.9659 2606:5.9914999 # seizures/00000231_s03.txt
6.0887553083172185467743242615057e-05 8:5.9914999 29:5.9914999 37:5.9914999 89:17.9744 102:5.9914999 124:17.9744 133:5.9914999 149:11.9829 150:5.9914999 163:5.9914999 190:5.9914999 203:5.9914999 224:5.9914999 240:11.9829 359:5.9914999 391:5.9914999 395:5.9914999 445:5.9914999 448:5.9914999 469:5.9914999 471:11.9829 549:5.9914999 566:11.9829 568:5.9914999 578:5.9914999 585:5.9914999 602:5.9914999 603:5.9914999 605:5.9914999 617:11.9829 646:5.9914999 672:5.9914999 674:5.9914999 675:5.9914999 698:11.9829 705:5.9914999 713:17.9744 725:5.9914999 739:5.9914999 785:23.9659 917:29.9573 924:5.9914999 930:5.9914999 952:11.9829 1029:53.923199 1049:11.9829 1078:5.9914999 1094:5.9914999 1165:5.9914999 1180:5.9914999 1218:5.9914999 1245:5.9914999 1253:17.9744 1286:5.9914999 1320:5.9914999 1338:5.9914999 1340:5.9914999 1362:5.9914999 1372:11.9829 1392:5.9914999 1403:11.9829 1404:5.9914999 1414:5.9914999 1441:5.9914999 1466:11.9829 1523:17.9744 1536:5.9914999 1546:5.9914999 1551:5.9914999 1574:5.9914999 1589:5.9914999 1598:5.9914999 1601:5.9914999 1614:5.9914999 1618:11.9829 1660:5.9914999 1664:11.9829 1683:11.9829 1704:5.9914999 1712:5.9914999 1739:5.9914999 1745:11.9829 1797:11.9829 1880:5.9914999 1889:23.9659 1902:11.9829 1965:5.9914999 1972:35.948799 2001:5.9914999 2030:35.948799 2033:29.9573 2112:5.9914999 2118:23.9659 2177:5.9914999 2201:5.9914999 2205:5.9914999 2221:5.9914999 2243:5.9914999 2280:11.9829 2303:5.9914999 2315:11.9829 2337:5.9914999 2424:5.9914999 2470:5.9914999 2479:5.9914999 2523:5.9914999 2550:5.9914999 2561:5.9914999 2568:5.9914999 # seizures/00000043_s02.txt
6.0887553083172185467743242615057e-05 8:11.9829 29:11.9829 37:11.9829 69:5.9914999 89:5.9914999 102:5.9914999 124:5.9914999 133:5.9914999 139:5.9914999 149:5.9914999 170:5.9914999 180:5.9914999 203:5.9914999 224:5.9914999 225:5.9914999 240:5.9914999 282:5.9914999 322:5.9914999 349:5.9914999 353:11.9829 395:11.9829 415:5.9914999 466:5.9914999 471:5.9914999 489:5.9914999 557:5.9914999 578:5.9914999 582:17.9744 592:5.9914999 602:5.9914999 603:23.9659 605:5.9914999 606:5.9914999 617:5.9914999 627:5.9914999 646:5.9914999 672:11.9829 680:5.9914999 698:17.9744 705:5.9914999 713:11.9829 739:5.9914999 751:5.9914999 760:5.9914999 772:5.9914999 778:11.9829 782:5.9914999 816:5.9914999 831:5.9914999 832:5.9914999 846:5.9914999 860:5.9914999 888:5.9914999 890:5.9914999 893:5.9914999 924:11.9829 952:17.9744 1049:11.9829 1118:5.9914999 1123:5.9914999 1180:5.9914999 1189:5.9914999 1218:5.9914999 1245:5.9914999 1250:5.9914999 1276:5.9914999 1294:5.9914999 1299:5.9914999 1372:5.9914999 1382:5.9914999 1437:5.9914999 1462:5.9914999 1463:23.9659 1466:5.9914999 1523:23.9659 1536:5.9914999 1541:5.9914999 1544:5.9914999 1546:5.9914999 1564:5.9914999 1589:5.9914999 1593:5.9914999 1598:17.9744 1601:11.9829 1619:5.9914999 1635:5.9914999 1653:5.9914999 1664:23.9659 1683:23.9659 1711:5.9914999 1712:5.9914999 1729:5.9914999 1738:5.9914999 1745:5.9914999 1788:5.9914999 1797:11.9829 1889:53.923199 1901:5.9914999 1902:5.9914999 1928:11.9829 1956:5.9914999 1965:5.9914999 2029:5.9914999 2030:23.9659 2033:53.923199 2066:5.9914999 2071:5.9914999 2099:5.9914999 2112:5.9914999 2118:17.9744 2131:5.9914999 2155:5.9914999 2160:11.9829 2177:5.9914999 2205:5.9914999 2243:11.9829 2280:5.9914999 2300:5.9914999 2303:5.9914999 2315:5.9914999 2325:5.9914999 2350:35.948799 2363:23.9659 2435:5.9914999 2479:5.9914999 2523:5.9914999 2542:5.9914999 2550:17.9744 2560:17.9744 # seizures/00000075_s04.txt
6.0887553083172185467743242615057e-05 8:5.9914999 29:11.9829 37:5.9914999 89:17.9744 92:5.9914999 102:5.9914999 124:17.9744 133:5.9914999 149:11.9829 150:5.9914999 163:5.9914999 180:5.9914999 190:5.9914999 203:5.9914999 224:5.9914999 240:11.9829 359:5.9914999 364:5.9914999 391:5.9914999 395:5.9914999 445:5.9914999 448:5.9914999 471:11.9829 486:5.9914999 549:5.9914999 566:11.9829 568:5.9914999 578:5.9914999 585:5.9914999 602:5.9914999 603:5.9914999 605:5.9914999 617:5.9914999 646:5.9914999 672:5.9914999 674:5.9914999 675:5.9914999 698:11.9829 705:5.9914999 713:17.9744 725:5.9914999 739:5.9914999 785:23.9659 917:29.9573 924:5.9914999 930:5.9914999 952:11.9829 1029:53.923199 1049:11.9829 1078:5.9914999 1094:5.9914999 1165:5.9914999 1180:5.9914999 1218:5.9914999 1245:5.9914999 1253:17.9744 1286:5.9914999 1320:5.9914999 1338:5.9914999 1340:5.9914999 1362:5.9914999 1372:11.9829 1392:5.9914999 1403:11.9829 1404:5.9914999 1414:5.9914999 1441:5.9914999 1466:11.9829 1523:17.9744 1536:5.9914999 1546:5.9914999 1551:5.9914999 1574:5.9914999 1589:5.9914999 1598:5.9914999 1601:5.9914999 1614:5.9914999 1618:11.9829 1664:11.9829 1683:17.9744 1704:5.9914999 1712:5.9914999 1739:5.9914999 1745:11.9829 1797:11.9829 1880:5.9914999 1889:17.9744 1902:11.9829 1965:5.9914999 1972:35.948799 2001:5.9914999 2030:35.948799 2033:35.948799 2112:5.9914999 2118:23.9659 2201:5.9914999 2205:5.9914999 2221:5.9914999 2243:5.9914999 2280:11.9829 2303:5.9914999 2315:11.9829 2337:5.9914999 2424:5.9914999 2470:5.9914999 2479:5.9914999 2523:5.9914999 2550:5.9914999 2561:5.9914999 2568:5.9914999 # seizures/00000043_s01.txt
-6.0887553083172185467743242615057e-05 8:29.9573 9:5.9914999 10:5.9914999 29:23.9659 37:11.9829 56:11.9829 57:29.9573 62:5.9914999 68:5.9914999 69:5.9914999 75:11.9829 79:5.9914999 88:5.9914999 102:11.9829 124:95.863403 134:5.9914999 138:5.9914999 139:41.9403 141:5.9914999 149:17.9744 154:17.9744 159:5.9914999 180:23.9659 202:11.9829 221:23.9659 222:5.9914999 227:5.9914999 240:11.9829 246:5.9914999 250:5.9914999 269:17.9744 273:53.923199 302:11.9829 322:5.9914999 325:5.9914999 349:5.9914999 389:5.9914999 391:23.9659 395:17.9744 401:17.9744 403:5.9914999 442:11.9829 471:29.9573 473:5.9914999 489:17.9744 549:17.9744 551:5.9914999 558:5.9914999 578:47.931702 582:11.9829 593:11.9829 603:29.9573 605:5.9914999 617:29.9573 646:11.9829 654:5.9914999 672:5.9914999 674:5.9914999 675:65.906097 684:23.9659 698:53.923199 705:5.9914999 713:11.9829 716:11.9829 739:41.9403 745:5.9914999 751:5.9914999 752:11.9829 755:5.9914999 778:41.9403 785:17.9744 811:5.9914999 812:41.9403 831:11.9829 833:5.9914999 841:5.9914999 846:5.9914999 856:5.9914999 865:11.9829 871:5.9914999 888:11.9829 893:23.9659 905:17.9744 917:47.931702 918:5.9914999 924:59.9146 928:5.9914999 952:35.948799 975:5.9914999 995:5.9914999 1006:35.948799 1029:29.9573 1038:5.9914999 1049:17.9744 1094:11.9829 1103:17.9744 1104:11.9829 1118:11.9829 1125:17.9744 1164:5.9914999 1180:5.9914999 1187:5.9914999 1209:35.948799 1212:5.9914999 1218:5.9914999 1238:5.9914999 1241:5.9914999 1245:29.9573 1247:17.9744 1249:23.9659 1253:59.9146 1256:5.9914999 1276:11.9829 1292:23.9659 1294:5.9914999 1300:11.9829 1323:11.9829 1338:17.9744 1362:23.9659 1365:5.9914999 1372:11.9829 1429:17.9744 1437:11.9829 1441:59.9146 1442:23.9659 1446:5.9914999 1451:29.9573 1452:11.9829 1459:5.9914999 1462:17.9744 1463:5.9914999 1466:17.9744 1523:47.931702 1536:11.9829 1537:11.9829 1546:17.9744 1551:29.9573 1554:5.9914999 1562:5.9914999 1564:5.9914999 1571:17.9744 1579:35.948799 1589:5.9914999 1593:17.9744 1598:29.9573 1601:35.948799 1618:17.9744 1655:5.9914999 1664:65.906097 1683:29.9573 1712:5.9914999 1729:17.9744 1738:5.9914999 1745:17.9744 1747:5.9914999 1753:5.9914999 1766:23.9659 1771:5.9914999 1777:5.9914999 1786:5.9914999 1797:11.9829 1809:5.9914999 1826:5.9914999 1847:11.9829 1863:5.9914999 1870:5.9914999 1872:5.9914999 1880:5.9914999 1884:5.9914999 1889:65.906097 1900:5.9914999 1902:35.948799 1907:5.9914999 1913:5.9914999 1914:11.9829 1923:5.9914999 1961:5.9914999 1965:11.9829 1972:89.872002 1974:5.9914999 1989:5.9914999 2030:65.906097 2033:167.761 2063:17.9744 2066:5.9914999 2068:11.9829 2071:35.948799 2073:5.9914999 2076:5.9914999 2085:47.931702 2093:5.9914999 2112:35.948799 2115:47.931702 2118:23.9659 2121:5.9914999 2123:5.9914999 2127:5.9914999 2131:11.9829 2140:11.9829 2141:5.9914999 2155:5.9914999 2158:5.9914999 2160:11.9829 2168:5.9914999 2170:29.9573 2174:35.948799 2177:5.9914999 2179:29.9573 2181:11.9829 2197:5.9914999 2200:5.9914999 2205:17.9744 2212:5.9914999 2213:17.9744 2221:5.9914999 2241:5.9914999 2243:23.9659 2280:5.9914999 2315:47.931702 2328:11.9829 2349:5.9914999 2354:35.948799 2363:17.9744 2364:11.9829 2371:5.9914999 2373:5.9914999 2424:5.9914999 2435:5.9914999 2439:5.9914999 2454:5.9914999 2460:11.9829 2466:11.9829 2470:17.9744 2479:11.9829 2480:5.9914999 2523:23.9659 2531:5.9914999 2550:35.948799 2560:29.9573 2561:5.9914999 2606:5.9914999 # none/00001422_s10.txt
-6.0887553083172185467743242615057e-05 8:11.9829 19:5.9914999 29:11.9829 32:5.9914999 37:23.9659 57:5.9914999 89:5.9914999 102:11.9829 133:5.9914999 149:11.9829 180:5.9914999 203:11.9829 239:17.9744 240:5.9914999 245:5.9914999 349:17.9744 353:5.9914999 359:5.9914999 395:5.9914999 431:5.9914999 459:5.9914999 466:11.9829 471:23.9659 478:11.9829 489:5.9914999 528:5.9914999 578:5.9914999 582:11.9829 602:5.9914999 603:17.9744 606:5.9914999 617:17.9744 646:5.9914999 672:11.9829 680:11.9829 698:23.9659 699:5.9914999 705:5.9914999 713:23.9659 755:11.9829 768:5.9914999 772:5.9914999 778:5.9914999 782:11.9829 812:5.9914999 860:5.9914999 888:29.9573 893:5.9914999 917:5.9914999 924:5.9914999 952:17.9744 1016:5.9914999 1029:17.9744 1031:11.9829 1049:11.9829 1118:5.9914999 1119:5.9914999 1164:17.9744 1180:5.9914999 1189:5.9914999 1225:5.9914999 1245:11.9829 1247:11.9829 1250:5.9914999 1253:17.9744 1300:5.9914999 1344:5.9914999 1372:11.9829 1403:5.9914999 1431:11.9829 1441:5.9914999 1523:11.9829 1531:5.9914999 1536:5.9914999 1546:5.9914999 1551:17.9744 1554:11.9829 1564:5.9914999 1576:5.9914999 1579:5.9914999 1601:11.9829 1618:29.9573 1654:5.9914999 1664:11.9829 1665:5.9914999 1683:17.9744 1686:11.9829 1712:5.9914999 1719:5.9914999 1745:5.9914999 1788:5.9914999 1797:11.9829 1822:5.9914999 1864:5.9914999 1870:5.9914999 1872:5.9914999 1880:5.9914999 1889:35.948799 1901:5.9914999 1902:11.9829 1928:5.9914999 1959:5.9914999 1961:5.9914999 1965:5.9914999 1972:23.9659 2008:5.9914999 2030:47.931702 2033:29.9573 2071:17.9744 2099:5.9914999 2112:17.9744 2115:17.9744 2118:29.9573 2131:5.9914999 2160:5.9914999 2174:5.9914999 2177:5.9914999 2219:5.9914999 2221:5.9914999 2223:5.9914999 2280:5.9914999 2300:5.9914999 2303:5.9914999 2315:17.9744 2350:11.9829 2354:5.9914999 2364:5.9914999 2392:5.9914999 2424:5.9914999 2479:11.9829 2516:5.9914999 2542:11.9829 2550:35.948799 2560:17.9744 # none/00000538_s03.txt
-3.3795323244297089879117912403217e-05 8:11.9829 29:5.9914999 37:23.9659 59:5.9914999 76:5.9914999 89:17.9744 102:11.9829 124:5.9914999 133:5.9914999 164:5.9914999 170:5.9914999 203:5.9914999 224:5.9914999 240:11.9829 241:11.9829 250:5.9914999 349:11.9829 353:5.9914999 395:11.9829 489:5.9914999 492:5.9914999 504:5.9914999 578:5.9914999 602:5.9914999 603:11.9829 605:5.9914999 614:5.9914999 617:5.9914999 646:5.9914999 672:5.9914999 680:17.9744 698:17.9744 705:5.9914999 713:11.9829 772:5.9914999 782:11.9829 833:11.9829 888:23.9659 917:23.9659 924:11.9829 952:11.9829 956:5.9914999 1029:29.9573 1031:5.9914999 1049:5.9914999 1118:5.9914999 1119:5.9914999 1164:11.9829 1180:5.9914999 1218:5.9914999 1250:5.9914999 1253:23.9659 1314:5.9914999 1343:5.9914999 1362:5.9914999 1372:5.9914999 1441:5.9914999 1523:17.9744 1536:11.9829 1541:5.9914999 1546:11.9829 1551:5.9914999 1559:5.9914999 1576:5.9914999 1601:5.9914999 1618:29.9573 1631:5.9914999 1664:5.9914999 1683:11.9829 1686:5.9914999 1698:5.9914999 1712:5.9914999 1738:5.9914999 1739:5.9914999 1745:5.9914999 1797:5.9914999 1880:5.9914999 1889:17.9744 1901:5.9914999 1902:5.9914999 1907:5.9914999 1959:5.9914999 1965:5.9914999 1972:29.9573 2030:41.9403 2033:23.9659 2071:11.9829 2099:5.9914999 2112:5.9914999 2118:29.9573 2177:5.9914999 2185:5.9914999 2201:5.9914999 2219:5.9914999 2221:5.9914999 2229:5.9914999 2280:5.9914999 2303:5.9914999 2315:5.9914999 2354:11.9829 2391:5.9914999 2455:5.9914999 2460:5.9914999 2479:5.9914999 2512:5.9914999 2523:5.9914999 2550:35.948799 # none/00008164_s01.txt
-5.8225381321939321654229670954805e-05 8:11.9829 14:5.9914999 19:5.9914999 29:11.9829 37:5.9914999 64:5.9914999 89:5.9914999 124:5.9914999 154:11.9829 194:11.9829 240:5.9914999 326:5.9914999 389:11.9829 395:11.9829 462:5.9914999 489:5.9914999 572:5.9914999 577:5.9914999 578:5.9914999 600:11.9829 602:5.9914999 606:5.9914999 617:17.9744 646:5.9914999 670:5.9914999 675:5.9914999 698:17.9744 705:5.9914999 713:11.9829 751:5.9914999 755:5.9914999 793:5.9914999 812:5.9914999 1012:5.9914999 1016:5.9914999 1036:5.9914999 1049:11.9829 1079:11.9829 1118:5.9914999 1123:11.9829 1180:5.9914999 1218:5.9914999 1226:5.9914999 1245:5.9914999 1250:5.9914999 1314:5.9914999 1320:5.9914999 1343:5.9914999 1372:5.9914999 1437:5.9914999 1523:11.9829 1536:17.9744 1546:11.9829 1601:5.9914999 1664:17.9744 1683:5.9914999 1700:11.9829 1712:5.9914999 1745:5.9914999 1777:5.9914999 1797:11.9829 1800:5.9914999 1864:5.9914999 1870:5.9914999 1872:5.9914999 1880:5.9914999 1889:29.9573 1965:5.9914999 1997:5.9914999 2030:11.9829 2033:35.948799 2068:5.9914999 2099:5.9914999 2112:23.9659 2140:5.9914999 2174:5.9914999 2177:5.9914999 2201:11.9829 2221:5.9914999 2280:5.9914999 2303:5.9914999 2315:5.9914999 2350:5.9914999 2368:5.9914999 2391:5.9914999 2454:5.9914999 2479:5.9914999 2542:11.9829 2544:5.9914999 # none/00001655_s02.txt
6.0887553083172185467743242615057e-05 8:11.9829 29:53.923199 37:5.9914999 45:5.9914999 57:5.9914999 59:5.9914999 89:23.9659 127:5.9914999 139:5.9914999 141:5.9914999 180:5.9914999 190:5.9914999 194:11.9829 197:5.9914999 203:17.9744 239:5.9914999 254:5.9914999 319:5.9914999 360:5.9914999 367:5.9914999 375:29.9573 395:17.9744 429:5.9914999 442:23.9659 451:11.9829 457:5.9914999 474:5.9914999 481:5.9914999 489:11.9829 569:5.9914999 578:5.9914999 599:5.9914999 605:5.9914999 606:5.9914999 617:5.9914999 646:5.9914999 654:5.9914999 662:17.9744 669:5.9914999 672:5.9914999 698:23.9659 705:5.9914999 713:5.9914999 717:5.9914999 722:5.9914999 751:5.9914999 755:29.9573 788:5.9914999 797:5.9914999 826:5.9914999 832:5.9914999 843:5.9914999 856:11.9829 860:5.9914999 866:5.9914999 888:5.9914999 905:5.9914999 924:11.9829 928:17.9744 952:5.9914999 955:5.9914999 989:5.9914999 1012:5.9914999 1029:23.9659 1041:23.9659 1049:5.9914999 1063:5.9914999 1079:5.9914999 1099:11.9829 1106:5.9914999 1118:5.9914999 1123:11.9829 1142:5.9914999 1180:5.9914999 1183:5.9914999 1187:5.9914999 1209:11.9829 1215:5.9914999 1226:5.9914999 1228:5.9914999 1245:5.9914999 1253:29.9573 1273:5.9914999 1287:5.9914999 1340:5.9914999 1343:5.9914999 1352:5.9914999 1362:5.9914999 1364:5.9914999 1372:5.9914999 1405:5.9914999 1440:5.9914999 1441:23.9659 1444:5.9914999 1445:11.9829 1459:5.9914999 1551:5.9914999 1572:5.9914999 1593:5.9914999 1606:5.9914999 1630:5.9914999 1639:5.9914999 1658:5.9914999 1663:5.9914999 1665:5.9914999 1680:5.9914999 1683:11.9829 1700:5.9914999 1704:11.9829 1712:5.9914999 1735:5.9914999 1745:5.9914999 1766:11.9829 1786:5.9914999 1799:5.9914999 1809:23.9659 1856:5.9914999 1872:5.9914999 1889:29.9573 1897:5.9914999 1902:29.9573 1916:5.9914999 1952:5.9914999 1965:5.9914999 1972:5.9914999 2005:5.9914999 2026:5.9914999 2029:29.9573 2033:5.9914999 2085:5.9914999 2106:5.9914999 2112:53.923199 2115:5.9914999 2118:41.9403 2122:5.9914999 2140:5.9914999 2157:5.9914999 2160:35.948799 2170:5.9914999 2175:5.9914999 2177:5.9914999 2201:5.9914999 2232:5.9914999 2239:5.9914999 2271:5.9914999 2280:5.9914999 2344:5.9914999 2373:11.9829 2424:5.9914999 2426:5.9914999 2428:5.9914999 2468:5.9914999 2470:17.9744 2479:5.9914999 2499:5.9914999 2523:5.9914999 2525:5.9914999 2538:5.9914999 2542:5.9914999 2550:35.948799 2568:5.9914999 # seizures/00000804_s02.txt
6.0887553083172185467743242615057e-05 8:5.9914999 29:17.9744 37:5.9914999 48:5.9914999 76:5.9914999 89:5.9914999 102:5.9914999 165:5.9914999 203:5.9914999 250:5.9914999 254:5.9914999 289:11.9829 293:5.9914999 325:5.9914999 360:5.9914999 395:11.9829 435:5.9914999 473:5.9914999 489:5.9914999 566:5.9914999 578:5.9914999 605:5.9914999 631:5.9914999 664:5.9914999 672:5.9914999 698:29.9573 705:5.9914999 713:5.9914999 722:5.9914999 756:5.9914999 777:11.9829 778:5.9914999 833:11.9829 836:5.9914999 846:11.9829 888:11.9829 917:5.9914999 918:11.9829 1006:5.9914999 1021:5.9914999 1049:5.9914999 1063:5.9914999 1079:5.9914999 1103:5.9914999 1118:5.9914999 1123:5.9914999 1125:5.9914999 1180:5.9914999 1218:5.9914999 1226:5.9914999 1253:53.923199 1287:5.9914999 1293:5.9914999 1319:5.9914999 1364:5.9914999 1372:5.9914999 1404:5.9914999 1441:5.9914999 1463:5.9914999 1554:11.9829 1576:5.9914999 1577:11.9829 1579:5.9914999 1589:5.9914999 1614:5.9914999 1660:11.9829 1664:11.9829 1683:11.9829 1700:11.9829 1712:5.9914999 1739:5.9914999 1745:5.9914999 1748:5.9914999 1750:5.9914999 1800:5.9914999 1809:11.9829 1817:5.9914999 1852:5.9914999 1860:11.9829 1889:23.9659 1902:17.9744 1945:5.9914999 1965:17.9744 1972:5.9914999 2015:5.9914999 2026:11.9829 2029:11.9829 2033:5.9914999 2071:35.948799 2073:5.9914999 2112:29.9573 2115:5.9914999 2118:11.9829 2122:5.9914999 2141:5.9914999 2163:5.9914999 2174:5.9914999 2177:5.9914999 2181:5.9914999 2201:17.9744 2256:5.9914999 2280:5.9914999 2315:29.9573 2337:5.9914999 2354:5.9914999 2368:5.9914999 2373:5.9914999 2383:5.9914999 2388:11.9829 2439:11.9829 2479:5.9914999 2509:5.9914999 2518:11.9829 2523:5.9914999 2528:5.9914999 2550:47.931702 2553:11.9829 2560:11.9829 2604:5.9914999 # seizures/00000327_s03.txt
6.0887553083172185467743242615057e-05 45:5.9914999 59:5.9914999 76:5.9914999 170:5.9914999 194:5.9914999 203:11.9829 224:5.9914999 240:11.9829 360:5.9914999 362:5.9914999 395:11.9829 437:5.9914999 489:5.9914999 522:5.9914999 577:5.9914999 578:5.9914999 605:5.9914999 606:5.9914999 669:17.9744 698:23.9659 699:5.9914999 705:5.9914999 713:5.9914999 751:5.9914999 755:5.9914999 812:5.9914999 836:11.9829 888:5.9914999 955:11.9829 1049:5.9914999 1063:5.9914999 1094:5.9914999 1108:5.9914999 1118:5.9914999 1123:11.9829 1180:5.9914999 1218:5.9914999 1245:5.9914999 1280:5.9914999 1311:5.9914999 1372:11.9829 1452:5.9914999 1523:5.9914999 1544:5.9914999 1546:5.9914999 1554:5.9914999 1572:5.9914999 1664:5.9914999 1683:5.9914999 1712:5.9914999 1739:5.9914999 1773:5.9914999 1889:17.9744 1934:5.9914999 1965:5.9914999 1974:5.9914999 1989:5.9914999 2033:11.9829 2118:5.9914999 2177:5.9914999 2280:5.9914999 2479:5.9914999 2523:5.9914999 2542:11.9829 2555:5.9914999 2577:5.9914999 2580:5.9914999 # seizures/00003371_s02.txt
6.0887553083172185467743242615057e-05 45:5.9914999 59:5.9914999 76:5.9914999 170:5.9914999 194:5.9914999 203:11.9829 224:5.9914999 240:11.9829 360:5.9914999 362:5.9914999 395:11.9829 437:5.9914999 522:5.9914999 577:5.9914999 578:5.9914999 605:5.9914999 606:5.9914999 669:17.9744 698:23.9659 699:5.9914999 705:5.9914999 713:5.9914999 751:5.9914999 755:5.9914999 812:5.9914999 836:11.9829 888:5.9914999 955:11.9829 1049:5.9914999 1063:5.9914999 1094:5.9914999 1108:5.9914999 1118:5.9914999 1123:11.9829 1180:5.9914999 1218:5.9914999 1245:5.9914999 1280:5.9914999 1311:5.9914999 1372:11.9829 1452:5.9914999 1523:5.9914999 1544:5.9914999 1546:5.9914999 1554:5.9914999 1572:5.9914999 1664:5.9914999 1683:5.9914999 1712:5.9914999 1739:5.9914999 1773:5.9914999 1889:11.9829 1934:5.9914999 1965:5.9914999 1974:5.9914999 1989:5.9914999 2033:11.9829 2118:5.9914999 2177:5.9914999 2280:5.9914999 2479:5.9914999 2523:5.9914999 2542:11.9829 2555:5.9914999 2577:5.9914999 2580:5.9914999 # seizures/00003371_s03.txt
6.0887553083172185467743242615057e-05 170:11.9829 360:5.9914999 362:5.9914999 395:11.9829 489:5.9914999 572:5.9914999 578:5.9914999 605:5.9914999 606:5.9914999 616:5.9914999 664:5.9914999 669:5.9914999 698:29.9573 705:5.9914999 713:5.9914999 751:5.9914999 939:5.9914999 1006:5.9914999 1012:5.9914999 1049:5.9914999 1063:5.9914999 1118:5.9914999 1123:5.9914999 1131:5.9914999 1138:5.9914999 1180:5.9914999 1217:5.9914999 1226:5.9914999 1340:5.9914999 1343:5.9914999 1352:5.9914999 1372:5.9914999 1437:5.9914999 1452:5.9914999 1485:5.9914999 1488:5.9914999 1546:11.9829 1554:5.9914999 1562:5.9914999 1589:5.9914999 1664:11.9829 1683:5.9914999 1700:5.9914999 1712:5.9914999 1739:5.9914999 1777:5.9914999 1789:5.9914999 1800:5.9914999 1889:5.9914999 1945:5.9914999 1972:5.9914999 1986:5.9914999 2033:11.9829 2112:17.9744 2163:5.9914999 2174:11.9829 2177:5.9914999 2201:5.9914999 2280:5.9914999 2395:5.9914999 2479:5.9914999 2518:5.9914999 2523:5.9914999 2550:5.9914999 # seizures/00000185_s02.txt
-6.0887553083172185467743242615057e-05 8:5.9914999 29:5.9914999 98:5.9914999 203:23.9659 224:5.9914999 237:5.9914999 240:11.9829 360:5.9914999 395:17.9744 434:5.9914999 471:5.9914999 473:5.9914999 489:5.9914999 566:11.9829 578:5.9914999 605:5.9914999 672:5.9914999 698:17.9744 705:5.9914999 713:5.9914999 755:5.9914999 836:5.9914999 860:5.9914999 917:11.9829 955:5.9914999 1016:5.9914999 1049:5.9914999 1061:5.9914999 1095:11.9829 1099:5.9914999 1118:5.9914999 1123:5.9914999 1146:5.9914999 1180:5.9914999 1181:5.9914999 1218:5.9914999 1297:5.9914999 1343:5.9914999 1372:11.9829 1393:5.9914999 1426:5.9914999 1463:5.9914999 1517:5.9914999 1523:5.9914999 1546:5.9914999 1602:5.9914999 1619:5.9914999 1664:5.9914999 1665:11.9829 1683:5.9914999 1712:5.9914999 1864:5.9914999 1889:11.9829 1925:5.9914999 1968:5.9914999 2033:11.9829 2073:5.9914999 2076:5.9914999 2177:5.9914999 2280:5.9914999 2300:5.9914999 2385:5.9914999 2439:5.9914999 2460:5.9914999 2479:5.9914999 2516:5.9914999 2523:5.9914999 2576:5.9914999 # none/00001072_s01.txt
-1.3654008944016275201504759251314e-05 59:5.9914999 79:5.9914999 88:5.9914999 107:5.9914999 149:47.931702 203:11.9829 242:5.9914999 272:5.9914999 295:5.9914999 337:5.9914999 358:5.9914999 375:5.9914999 395:5.9914999 403:5.9914999 419:5.9914999 453:5.9914999 486:5.9914999 489:5.9914999 509:11.9829 539:5.9914999 566:5.9914999 578:5.9914999 605:5.9914999 659:5.9914999 672:5.9914999 698:53.923199 705:5.9914999 709:5.9914999 763:5.9914999 766:5.9914999 777:5.9914999 809:5.9914999 811:11.9829 848:5.9914999 851:5.9914999 917:5.9914999 918:5.9914999 960:5.9914999 963:5.9914999 988:5.9914999 1016:5.9914999 1031:5.9914999 1049:5.9914999 1095:5.9914999 1099:5.9914999 1118:5.9914999 1123:5.9914999 1133:35.948799 1179:5.9914999 1180:5.9914999 1199:5.9914999 1257:5.9914999 1274:11.9829 1280:5.9914999 1299:5.9914999 1320:5.9914999 1322:5.9914999 1323:5.9914999 1333:5.9914999 1346:11.9829 1372:5.9914999 1440:5.9914999 1444:5.9914999 1451:5.9914999 1452:11.9829 1466:5.9914999 1470:5.9914999 1471:5.9914999 1492:11.9829 1513:5.9914999 1523:11.9829 1551:5.9914999 1554:11.9829 1559:5.9914999 1571:5.9914999 1576:5.9914999 1610:11.9829 1619:5.9914999 1658:5.9914999 1664:5.9914999 1665:11.9829 1671:5.9914999 1683:5.9914999 1695:5.9914999 1774:5.9914999 1821:5.9914999 1864:5.9914999 1889:23.9659 1907:11.9829 1914:5.9914999 1916:5.9914999 2026:5.9914999 2033:5.9914999 2052:5.9914999 2141:5.9914999 2241:5.9914999 2258:5.9914999 2303:11.9829 2325:5.9914999 2442:5.9914999 2479:5.9914999 2537:11.9829 2547:5.9914999 # none/00007973_s01.txt
-6.0887553083172185467743242615057e-05 8:5.9914999 11:5.9914999 26:5.9914999 29:5.9914999 63:5.9914999 64:5.9914999 79:5.9914999 124:5.9914999 149:11.9829 158:5.9914999 170:5.9914999 180:5.9914999 195:5.9914999 203:5.9914999 221:5.9914999 224:5.9914999 240:5.9914999 282:5.9914999 360:5.9914999 395:11.9829 443:5.9914999 489:5.9914999 499:5.9914999 506:5.9914999 539:5.9914999 566:17.9744 569:5.9914999 578:5.9914999 605:5.9914999 672:5.9914999 698:23.9659 705:5.9914999 713:5.9914999 751:5.9914999 753:5.9914999 755:5.9914999 774:5.9914999 836:5.9914999 988:5.9914999 1006:5.9914999 1012:5.9914999 1049:11.9829 1063:5.9914999 1099:5.9914999 1115:5.9914999 1118:5.9914999 1125:5.9914999 1131:5.9914999 1164:5.9914999 1180:5.9914999 1181:5.9914999 1245:5.9914999 1323:5.9914999 1341:5.9914999 1372:5.9914999 1441:5.9914999 1452:5.9914999 1466:11.9829 1508:5.9914999 1523:11.9829 1554:5.9914999 1589:5.9914999 1597:5.9914999 1643:5.9914999 1664:17.9744 1665:11.9829 1683:5.9914999 1712:5.9914999 1777:5.9914999 1792:5.9914999 1852:5.9914999 1889:11.9829 1948:5.9914999 1972:5.9914999 1987:5.9914999 2027:5.9914999 2033:17.9744 2118:5.9914999 2177:5.9914999 2185:5.9914999 2240:5.9914999 2260:5.9914999 2280:5.9914999 2350:5.9914999 2391:5.9914999 2439:5.9914999 2479:5.9914999 2491:5.9914999 2523:5.9914999 2537:5.9914999 2580:5.9914999 # none/00006646_s02.txt
-6.0887553083172185467743242615057e-05 8:5.9914999 29:23.9659 88:23.9659 89:5.9914999 106:5.9914999 143:5.9914999 146:5.9914999 164:5.9914999 180:5.9914999 200:11.9829 203:23.9659 215:5.9914999 220:5.9914999 224:5.9914999 240:17.9744 273:5.9914999 277:5.9914999 333:5.9914999 340:5.9914999 353:5.9914999 360:11.9829 395:17.9744 471:5.9914999 489:11.9829 502:5.9914999 549:5.9914999 566:5.9914999 578:5.9914999 605:5.9914999 629:5.9914999 672:17.9744 675:5.9914999 680:5.9914999 697:5.9914999 698:35.948799 705:5.9914999 713:5.9914999 812:5.9914999 846:5.9914999 894:5.9914999 908:5.9914999 917:5.9914999 932:5.9914999 977:5.9914999 987:5.9914999 1014:5.9914999 1021:5.9914999 1029:5.9914999 1049:5.9914999 1063:5.9914999 1095:5.9914999 1118:5.9914999 1124:5.9914999 1125:23.9659 1130:11.9829 1133:11.9829 1180:5.9914999 1183:5.9914999 1216:5.9914999 1256:5.9914999 1281:5.9914999 1359:5.9914999 1372:11.9829 1437:5.9914999 1452:5.9914999 1523:11.9829 1559:5.9914999 1576:5.9914999 1593:5.9914999 1644:5.9914999 1664:5.9914999 1674:17.9744 1680:5.9914999 1683:11.9829 1695:11.9829 1712:5.9914999 1740:5.9914999 1872:11.9829 1889:17.9744 1943:5.9914999 1972:5.9914999 1989:5.9914999 2015:17.9744 2016:5.9914999 2033:11.9829 2118:11.9829 2141:5.9914999 2177:5.9914999 2201:11.9829 2241:5.9914999 2280:5.9914999 2304:5.9914999 2314:5.9914999 2337:5.9914999 2380:5.9914999 2385:5.9914999 2387:5.9914999 2424:5.9914999 2460:5.9914999 2466:5.9914999 2470:5.9914999 2477:5.9914999 2479:5.9914999 2523:5.9914999 2567:5.9914999 # none/00003851_s02.txt
6.0887553083172185467743242615057e-05 4:5.9914999 8:11.9829 29:11.9829 32:5.9914999 89:5.9914999 150:5.9914999 203:11.9829 224:11.9829 228:5.9914999 292:5.9914999 359:5.9914999 360:5.9914999 363:5.9914999 391:5.9914999 395:17.9744 408:5.9914999 489:5.9914999 566:5.9914999 578:5.9914999 605:5.9914999 617:5.9914999 626:5.9914999 672:5.9914999 698:23.9659 705:5.9914999 713:5.9914999 716:17.9744 753:5.9914999 755:11.9829 774:5.9914999 784:5.9914999 856:5.9914999 860:11.9829 890:11.9829 908:5.9914999 917:11.9829 941:5.9914999 1049:5.9914999 1063:5.9914999 1118:5.9914999 1180:5.9914999 1183:5.9914999 1218:5.9914999 1286:5.9914999 1300:5.9914999 1336:5.9914999 1343:5.9914999 1352:5.9914999 1372:5.9914999 1437:5.9914999 1523:5.9914999 1556:5.9914999 1572:5.9914999 1576:11.9829 1577:5.9914999 1589:5.9914999 1618:5.9914999 1663:5.9914999 1664:11.9829 1665:11.9829 1683:5.9914999 1686:5.9914999 1703:5.9914999 1712:5.9914999 1713:5.9914999 1719:5.9914999 1732:5.9914999 1745:5.9914999 1809:5.9914999 1889:11.9829 1892:5.9914999 1902:11.9829 1924:5.9914999 1945:5.9914999 1961:5.9914999 1966:5.9914999 1972:5.9914999 1987:5.9914999 2029:5.9914999 2033:11.9829 2170:5.9914999 2177:5.9914999 2185:5.9914999 2280:5.9914999 2300:11.9829 2337:11.9829 2384:5.9914999 2460:5.9914999 2479:5.9914999 2499:5.9914999 2523:5.9914999 # seizures/00000372_s01.txt
6.0887553083172185467743242615057e-05 8:11.9829 29:11.9829 32:5.9914999 37:11.9829 89:17.9744 96:5.9914999 102:5.9914999 124:11.9829 149:5.9914999 239:5.9914999 240:5.9914999 302:5.9914999 349:17.9744 353:5.9914999 359:5.9914999 395:17.9744 429:5.9914999 459:11.9829 466:17.9744 471:17.9744 489:11.9829 549:5.9914999 578:5.9914999 589:5.9914999 602:5.9914999 603:11.9829 605:5.9914999 617:11.9829 646:5.9914999 654:5.9914999 672:11.9829 675:11.9829 678:5.9914999 680:11.9829 698:17.9744 699:5.9914999 705:5.9914999 713:11.9829 716:17.9744 755:5.9914999 767:5.9914999 772:5.9914999 782:11.9829 785:5.9914999 812:5.9914999 888:11.9829 908:5.9914999 917:5.9914999 924:29.9573 926:5.9914999 952:11.9829 1000:5.9914999 1049:11.9829 1068:5.9914999 1078:5.9914999 1118:5.9914999 1125:5.9914999 1139:5.9914999 1151:5.9914999 1180:5.9914999 1189:5.9914999 1218:5.9914999 1225:5.9914999 1229:5.9914999 1247:5.9914999 1250:5.9914999 1263:5.9914999 1311:5.9914999 1344:5.9914999 1354:11.9829 1372:11.9829 1382:5.9914999 1452:5.9914999 1523:5.9914999 1541:5.9914999 1546:5.9914999 1551:11.9829 1559:5.9914999 1589:5.9914999 1593:17.9744 1601:11.9829 1654:5.9914999 1664:11.9829 1672:5.9914999 1683:17.9744 1686:5.9914999 1712:5.9914999 1719:17.9744 1724:5.9914999 1745:5.9914999 1797:11.9829 1870:5.9914999 1872:5.9914999 1880:5.9914999 1889:59.9146 1901:5.9914999 1902:11.9829 1959:5.9914999 1965:5.9914999 1966:11.9829 1972:23.9659 2030:29.9573 2033:23.9659 2071:5.9914999 2099:11.9829 2118:23.9659 2143:5.9914999 2177:5.9914999 2185:5.9914999 2219:5.9914999 2221:5.9914999 2280:5.9914999 2303:5.9914999 2315:5.9914999 2350:17.9744 2354:5.9914999 2430:5.9914999 2479:5.9914999 2523:11.9829 2542:11.9829 2550:23.9659 # seizures/00002330_s01.txt
6.0887553083172185467743242615057e-05 8:23.9659 29:11.9829 37:11.9829 75:5.9914999 102:5.9914999 124:11.9829 139:17.9744 180:17.9744 240:5.9914999 247:5.9914999 269:5.9914999 301:11.9829 302:5.9914999 325:5.9914999 353:5.9914999 359:5.9914999 376:5.9914999 395:11.9829 439:11.9829 462:5.9914999 466:11.9829 489:17.9744 492:5.9914999 558:5.9914999 577:5.9914999 578:5.9914999 602:5.9914999 603:5.9914999 605:5.9914999 617:11.9829 631:11.9829 646:17.9744 672:11.9829 675:35.948799 680:11.9829 698:41.9403 705:17.9744 713:11.9829 727:5.9914999 745:5.9914999 760:5.9914999 772:5.9914999 778:11.9829 782:11.9829 793:5.9914999 846:5.9914999 864:11.9829 888:11.9829 917:11.9829 952:5.9914999 1006:5.9914999 1025:5.9914999 1029:47.931702 1049:11.9829 1066:5.9914999 1079:11.9829 1118:5.9914999 1123:11.9829 1164:11.9829 1180:5.9914999 1225:5.9914999 1226:5.9914999 1245:11.9829 1250:11.9829 1253:35.948799 1306:5.9914999 1372:5.9914999 1414:17.9744 1523:11.9829 1536:5.9914999 1541:5.9914999 1551:17.9744 1554:5.9914999 1561:5.9914999 1589:5.9914999 1601:5.9914999 1618:17.9744 1631:5.9914999 1655:5.9914999 1664:47.931702 1683:11.9829 1700:5.9914999 1712:5.9914999 1716:5.9914999 1745:17.9744 1797:11.9829 1800:5.9914999 1880:5.9914999 1884:5.9914999 1888:5.9914999 1889:41.9403 1901:5.9914999 1959:5.9914999 1965:17.9744 1972:41.9403 1991:5.9914999 2013:5.9914999 2030:35.948799 2033:23.9659 2085:5.9914999 2094:5.9914999 2099:5.9914999 2118:5.9914999 2177:5.9914999 2179:5.9914999 2201:5.9914999 2221:5.9914999 2280:5.9914999 2289:5.9914999 2303:5.9914999 2309:5.9914999 2315:5.9914999 2337:5.9914999 2350:11.9829 2354:5.9914999 2428:5.9914999 2470:5.9914999 2479:5.9914999 2523:5.9914999 2542:23.9659 2560:5.9914999 # seizures/00001136_s06.txt
5.8467369819312076779059539344274e-05 8:5.9914999 17:5.9914999 29:23.9659 56:5.9914999 57:5.9914999 76:5.9914999 88:5.9914999 89:5.9914999 102:5.9914999 128:5.9914999 159:5.9914999 187:5.9914999 203:17.9744 213:5.9914999 226:11.9829 228:5.9914999 240:5.9914999 250:11.9829 302:11.9829 358:5.9914999 359:11.9829 360:5.9914999 391:23.9659 395:17.9744 430:5.9914999 442:41.9403 459:11.9829 468:5.9914999 489:5.9914999 535:5.9914999 569:5.9914999 578:5.9914999 593:5.9914999 602:5.9914999 605:5.9914999 646:5.9914999 672:5.9914999 675:5.9914999 684:5.9914999 688:5.9914999 698:23.9659 705:5.9914999 713:11.9829 742:5.9914999 750:5.9914999 751:11.9829 755:5.9914999 785:5.9914999 799:11.9829 855:5.9914999 858:5.9914999 865:11.9829 888:29.9573 893:5.9914999 909:5.9914999 928:5.9914999 1006:5.9914999 1041:5.9914999 1049:11.9829 1063:5.9914999 1079:11.9829 1094:5.9914999 1118:5.9914999 1125:5.9914999 1154:5.9914999 1164:11.9829 1180:5.9914999 1226:5.9914999 1247:11.9829 1253:53.923199 1272:5.9914999 1275:5.9914999 1294:5.9914999 1305:5.9914999 1320:5.9914999 1331:5.9914999 1343:5.9914999 1354:5.9914999 1364:11.9829 1369:5.9914999 1372:5.9914999 1441:5.9914999 1473:5.9914999 1513:5.9914999 1551:5.9914999 1593:5.9914999 1598:5.9914999 1601:5.9914999 1606:5.9914999 1618:11.9829 1645:5.9914999 1655:29.9573 1660:5.9914999 1664:11.9829 1683:17.9744 1693:5.9914999 1700:5.9914999 1712:5.9914999 1745:5.9914999 1753:5.9914999 1790:5.9914999 1879:5.9914999 1889:17.9744 1902:17.9744 1940:5.9914999 1946:5.9914999 1948:5.9914999 1949:5.9914999 1953:5.9914999 1958:5.9914999 1960:5.9914999 1961:5.9914999 1965:11.9829 1972:11.9829 2024:5.9914999 2029:5.9914999 2030:11.9829 2033:41.9403 2039:5.9914999 2066:5.9914999 2071:29.9573 2118:65.906097 2127:5.9914999 2141:5.9914999 2151:5.9914999 2154:5.9914999 2160:5.9914999 2170:5.9914999 2177:5.9914999 2179:11.9829 2201:5.9914999 2280:5.9914999 2300:5.9914999 2306:5.9914999 2309:5.9914999 2315:41.9403 2321:5.9914999 2325:5.9914999 2337:5.9914999 2343:5.9914999 2380:11.9829 2444:5.9914999 2479:11.9829 2523:5.9914999 2537:5.9914999 2542:5.9914999 2550:35.948799 2560:11.9829 2583:5.9914999 # seizures/00007409_s01.txt
-6.0887553083172185467743242615057e-05 8:11.9829 29:41.9403 57:17.9744 59:5.9914999 89:11.9829 154:11.9829 159:5.9914999 164:5.9914999 194:17.9744 221:5.9914999 224:5.9914999 250:5.9914999 254:5.9914999 274:5.9914999 360:5.9914999 375:29.9573 391:5.9914999 395:11.9829 435:5.9914999 442:17.9744 471:11.9829 489:5.9914999 559:5.9914999 578:5.9914999 605:5.9914999 616:5.9914999 621:29.9573 662:5.9914999 669:11.9829 672:5.9914999 698:29.9573 705:5.9914999 713:5.9914999 755:11.9829 776:5.9914999 832:11.9829 840:5.9914999 867:5.9914999 894:5.9914999 916:5.9914999 917:5.9914999 924:5.9914999 928:5.9914999 952:5.9914999 1029:17.9744 1044:11.9829 1049:5.9914999 1063:5.9914999 1099:11.9829 1118:5.9914999 1125:11.9829 1133:5.9914999 1164:5.9914999 1180:5.9914999 1253:41.9403 1343:11.9829 1360:5.9914999 1372:5.9914999 1441:35.948799 1451:5.9914999 1463:5.9914999 1523:11.9829 1576:5.9914999 1577:17.9744 1593:5.9914999 1597:5.9914999 1609:5.9914999 1650:5.9914999 1658:5.9914999 1664:5.9914999 1665:5.9914999 1683:5.9914999 1695:5.9914999 1712:5.9914999 1735:5.9914999 1745:17.9744 1766:29.9573 1809:17.9744 1889:35.948799 1902:17.9744 1916:5.9914999 1972:17.9744 2029:5.9914999 2030:5.9914999 2033:11.9829 2071:17.9744 2112:11.9829 2118:29.9573 2160:11.9829 2177:5.9914999 2277:5.9914999 2280:5.9914999 2309:5.9914999 2325:5.9914999 2337:5.9914999 2451:5.9914999 2479:11.9829 2523:5.9914999 2542:17.9744 2550:29.9573 2571:5.9914999 # none/00003004_s03.txt
-6.0887553083172185467743242615057e-05 8:11.9829 29:5.9914999 47:5.9914999 59:5.9914999 107:5.9914999 149:5.9914999 203:17.9744 205:5.9914999 240:11.9829 282:5.9914999 283:11.9829 302:5.9914999 312:5.9914999 349:35.948799 358:5.9914999 395:11.9829 436:5.9914999 465:5.9914999 470:5.9914999 471:5.9914999 473:5.9914999 477:5.9914999 489:5.9914999 506:5.9914999 566:17.9744 569:11.9829 578:11.9829 602:5.9914999 603:5.9914999 605:5.9914999 646:5.9914999 662:5.9914999 664:5.9914999 672:5.9914999 675:5.9914999 698:35.948799 705:5.9914999 713:5.9914999 751:5.9914999 769:5.9914999 888:11.9829 917:11.9829 924:5.9914999 930:5.9914999 955:5.9914999 1012:5.9914999 1016:5.9914999 1029:11.9829 1039:5.9914999 1049:11.9829 1099:5.9914999 1115:5.9914999 1118:5.9914999 1119:5.9914999 1123:5.9914999 1125:5.9914999 1131:5.9914999 1144:5.9914999 1164:5.9914999 1180:5.9914999 1182:5.9914999 1218:5.9914999 1226:5.9914999 1229:5.9914999 1253:17.9744 1287:5.9914999 1319:5.9914999 1352:5.9914999 1372:5.9914999 1426:11.9829 1437:5.9914999 1441:17.9744 1444:5.9914999 1452:5.9914999 1463:5.9914999 1466:5.9914999 1523:11.9829 1546:5.9914999 1551:5.9914999 1554:35.948799 1571:5.9914999 1576:5.9914999 1606:5.9914999 1619:5.9914999 1657:5.9914999 1664:17.9744 1665:23.9659 1683:5.9914999 1700:17.9744 1712:5.9914999 1732:11.9829 1745:23.9659 1749:5.9914999 1786:11.9829 1864:5.9914999 1884:5.9914999 1889:11.9829 1902:29.9573 1923:5.9914999 1945:5.9914999 1965:17.9744 1966:11.9829 1968:5.9914999 1972:47.931702 2015:5.9914999 2016:5.9914999 2033:17.9744 2071:11.9829 2073:5.9914999 2076:5.9914999 2091:5.9914999 2112:5.9914999 2118:23.9659 2177:5.9914999 2201:11.9829 2202:5.9914999 2221:11.9829 2280:5.9914999 2303:5.9914999 2315:23.9659 2337:5.9914999 2348:5.9914999 2354:5.9914999 2392:5.9914999 2479:5.9914999 2493:5.9914999 2523:5.9914999 2550:11.9829 2553:5.9914999 2580:5.9914999 # none/00004406_s07.txt
-9.5835087819579580561144341310786e-06 29:5.9914999 57:5.9914999 111:5.9914999 112:5.9914999 124:17.9744 141:5.9914999 159:5.9914999 170:11.9829 176:11.9829 194:5.9914999 203:5.9914999 222:5.9914999 228:5.9914999 242:5.9914999 249:5.9914999 273:5.9914999 360:5.9914999 395:11.9829 449:5.9914999 462:5.9914999 471:5.9914999 493:5.9914999 569:5.9914999 577:5.9914999 578:5.9914999 582:5.9914999 601:5.9914999 602:11.9829 617:5.9914999 651:5.9914999 669:5.9914999 672:5.9914999 675:23.9659 698:29.9573 705:5.9914999 713:5.9914999 738:5.9914999 752:5.9914999 755:17.9744 760:5.9914999 777:5.9914999 795:5.9914999 798:5.9914999 812:5.9914999 819:5.9914999 836:17.9744 913:11.9829 918:5.9914999 1006:5.9914999 1016:5.9914999 1049:5.9914999 1123:5.9914999 1131:5.9914999 1142:5.9914999 1180:5.9914999 1207:35.948799 1218:17.9744 1222:5.9914999 1253:11.9829 1314:5.9914999 1343:5.9914999 1372:5.9914999 1414:5.9914999 1437:5.9914999 1441:11.9829 1510:5.9914999 1523:35.948799 1551:11.9829 1554:47.931702 1572:5.9914999 1598:5.9914999 1601:5.9914999 1606:11.9829 1614:5.9914999 1619:5.9914999 1637:11.9829 1658:5.9914999 1664:41.9403 1665:5.9914999 1683:5.9914999 1712:5.9914999 1794:5.9914999 1852:5.9914999 1864:5.9914999 1870:5.9914999 1883:5.9914999 1889:41.9403 1894:11.9829 1902:5.9914999 1948:5.9914999 1957:5.9914999 1961:5.9914999 1972:17.9744 2026:35.948799 2029:5.9914999 2030:11.9829 2033:23.9659 2061:5.9914999 2091:5.9914999 2112:41.9403 2140:5.9914999 2163:5.9914999 2174:23.9659 2177:5.9914999 2188:5.9914999 2236:5.9914999 2280:5.9914999 2282:5.9914999 2300:5.9914999 2303:11.9829 2315:11.9829 2349:5.9914999 2388:17.9744 2402:5.9914999 2454:5.9914999 2479:11.9829 2518:5.9914999 2523:17.9744 2542:11.9829 2550:5.9914999 2560:11.9829 2570:17.9744 # none/00001779_s04.txt
-6.0887553083172185467743242615057e-05 8:11.9829 29:41.9403 156:5.9914999 164:5.9914999 203:11.9829 224:5.9914999 242:5.9914999 360:5.9914999 380:5.9914999 395:11.9829 429:5.9914999 466:5.9914999 471:11.9829 489:5.9914999 578:5.9914999 605:5.9914999 606:5.9914999 617:11.9829 672:5.9914999 698:17.9744 705:5.9914999 713:5.9914999 755:5.9914999 776:5.9914999 777:5.9914999 804:11.9829 817:5.9914999 856:5.9914999 890:5.9914999 1023:5.9914999 1029:41.9403 1041:5.9914999 1049:11.9829 1063:5.9914999 1078:5.9914999 1118:5.9914999 1180:5.9914999 1187:5.9914999 1188:5.9914999 1218:5.9914999 1227:5.9914999 1241:5.9914999 1245:5.9914999 1253:29.9573 1319:5.9914999 1320:5.9914999 1344:5.9914999 1352:11.9829 1372:5.9914999 1523:11.9829 1577:5.9914999 1618:5.9914999 1619:5.9914999 1638:5.9914999 1650:11.9829 1660:5.9914999 1664:11.9829 1683:5.9914999 1712:5.9914999 1729:17.9744 1786:5.9914999 1889:41.9403 1902:11.9829 1904:11.9829 1937:5.9914999 1972:29.9573 2028:5.9914999 2029:5.9914999 2030:5.9914999 2033:17.9744 2081:17.9744 2118:5.9914999 2140:5.9914999 2170:11.9829 2177:5.9914999 2179:5.9914999 2215:11.9829 2229:5.9914999 2258:23.9659 2280:5.9914999 2315:5.9914999 2350:5.9914999 2423:5.9914999 2470:5.9914999 2479:5.9914999 2515:5.9914999 2523:5.9914999 2537:5.9914999 2555:5.9914999 # none/00001093_s02.txt
6.0887553083172185467743242615057e-05 8:11.9829 9:5.9914999 19:5.9914999 29:11.9829 37:5.9914999 89:5.9914999 102:11.9829 143:5.9914999 159:5.9914999 180:17.9744 203:17.9744 224:5.9914999 225:5.9914999 240:5.9914999 282:5.9914999 288:5.9914999 302:17.9744 391:5.9914999 395:11.9829 420:5.9914999 426:5.9914999 466:17.9744 471:5.9914999 489:17.9744 492:5.9914999 508:5.9914999 572:5.9914999 578:5.9914999 590:5.9914999 602:5.9914999 603:17.9744 605:5.9914999 617:11.9829 646:5.9914999 672:5.9914999 675:17.9744 680:5.9914999 698:29.9573 705:5.9914999 713:11.9829 727:5.9914999 728:11.9829 768:5.9914999 782:5.9914999 788:11.9829 811:5.9914999 845:5.9914999 860:5.9914999 917:5.9914999 928:5.9914999 952:11.9829 1031:5.9914999 1049:5.9914999 1055:5.9914999 1078:5.9914999 1088:5.9914999 1118:5.9914999 1119:5.9914999 1139:5.9914999 1144:5.9914999 1164:5.9914999 1165:5.9914999 1174:5.9914999 1180:5.9914999 1189:5.9914999 1323:5.9914999 1344:5.9914999 1362:5.9914999 1372:5.9914999 1403:11.9829 1448:5.9914999 1466:17.9744 1471:35.948799 1523:23.9659 1536:5.9914999 1551:5.9914999 1559:5.9914999 1560:5.9914999 1589:5.9914999 1601:5.9914999 1664:11.9829 1683:5.9914999 1712:5.9914999 1729:11.9829 1732:5.9914999 1745:5.9914999 1792:11.9829 1797:5.9914999 1802:5.9914999 1880:5.9914999 1889:23.9659 1959:5.9914999 1965:5.9914999 1991:5.9914999 2028:5.9914999 2030:17.9744 2033:5.9914999 2062:5.9914999 2066:5.9914999 2078:5.9914999 2100:5.9914999 2118:17.9744 2140:11.9829 2146:5.9914999 2160:5.9914999 2177:5.9914999 2201:11.9829 2202:11.9829 2221:5.9914999 2232:5.9914999 2245:5.9914999 2258:5.9914999 2280:5.9914999 2289:5.9914999 2303:5.9914999 2315:5.9914999 2354:5.9914999 2423:5.9914999 2479:5.9914999 2499:11.9829 2506:5.9914999 2523:11.9829 2550:5.9914999 # seizures/00004976_s02.txt
6.0887553083172185467743242615057e-05 12:5.9914999 76:5.9914999 203:5.9914999 291:5.9914999 360:5.9914999 362:5.9914999 395:5.9914999 442:5.9914999 471:5.9914999 578:5.9914999 582:5.9914999 617:11.9829 688:5.9914999 698:17.9744 705:5.9914999 713:5.9914999 716:5.9914999 751:5.9914999 755:11.9829 776:5.9914999 793:11.9829 859:5.9914999 893:5.9914999 901:5.9914999 1016:5.9914999 1029:5.9914999 1049:5.9914999 1099:17.9744 1118:5.9914999 1164:11.9829 1180:5.9914999 1253:5.9914999 1319:5.9914999 1372:5.9914999 1437:17.9744 1442:17.9744 1536:5.9914999 1551:5.9914999 1614:5.9914999 1619:5.9914999 1683:5.9914999 1712:5.9914999 1739:5.9914999 1760:5.9914999 1840:5.9914999 1864:5.9914999 1889:11.9829 1900:5.9914999 1907:11.9829 1916:11.9829 1928:5.9914999 1965:5.9914999 2012:5.9914999 2026:11.9829 2033:23.9659 2099:5.9914999 2112:17.9744 2118:5.9914999 2131:5.9914999 2160:5.9914999 2163:5.9914999 2174:5.9914999 2177:5.9914999 2280:5.9914999 2303:5.9914999 2337:11.9829 2466:5.9914999 2479:5.9914999 2518:5.9914999 2523:5.9914999 2542:17.9744 2550:11.9829 2560:5.9914999 # seizures/00000514_s24.txt
6.0887553083172185467743242615057e-05 29:17.9744 37:5.9914999 79:5.9914999 102:5.9914999 150:5.9914999 224:5.9914999 226:5.9914999 262:5.9914999 302:5.9914999 360:5.9914999 363:11.9829 395:5.9914999 442:11.9829 471:11.9829 578:5.9914999 605:5.9914999 612:5.9914999 617:5.9914999 651:5.9914999 666:5.9914999 674:5.9914999 675:5.9914999 698:5.9914999 705:5.9914999 713:5.9914999 716:5.9914999 755:5.9914999 762:5.9914999 784:5.9914999 812:5.9914999 817:5.9914999 846:5.9914999 917:5.9914999 924:5.9914999 930:5.9914999 1029:5.9914999 1049:5.9914999 1063:5.9914999 1118:11.9829 1119:5.9914999 1123:5.9914999 1131:5.9914999 1161:11.9829 1170:5.9914999 1180:5.9914999 1201:5.9914999 1253:17.9744 1268:5.9914999 1270:5.9914999 1301:5.9914999 1319:5.9914999 1364:5.9914999 1372:5.9914999 1397:5.9914999 1441:5.9914999 1523:5.9914999 1554:11.9829 1589:5.9914999 1655:11.9829 1664:11.9829 1683:5.9914999 1695:5.9914999 1712:5.9914999 1714:5.9914999 1754:5.9914999 1776:5.9914999 1789:5.9914999 1811:11.9829 1817:5.9914999 1883:5.9914999 1889:17.9744 1893:5.9914999 1902:5.9914999 1924:5.9914999 1930:5.9914999 1972:11.9829 2026:5.9914999 2033:17.9744 2064:5.9914999 2071:23.9659 2098:5.9914999 2177:5.9914999 2185:5.9914999 2258:5.9914999 2280:5.9914999 2315:11.9829 2341:5.9914999 2356:5.9914999 2401:5.9914999 2423:5.9914999 2428:5.9914999 2470:5.9914999 2479:5.9914999 2523:5.9914999 2550:11.9829 2600:5.9914999 # seizures/00000157_s12.txt
6.0887553083172185467743242615057e-05 8:5.9914999 14:5.9914999 22:5.9914999 29:5.9914999 37:17.9744 71:5.9914999 89:17.9744 102:5.9914999 116:5.9914999 133:5.9914999 203:5.9914999 206:5.9914999 212:23.9659 224:5.9914999 244:5.9914999 293:23.9659 325:11.9829 349:5.9914999 353:5.9914999 359:5.9914999 395:5.9914999 442:5.9914999 451:5.9914999 466:5.9914999 471:11.9829 566:5.9914999 569:5.9914999 578:5.9914999 603:17.9744 606:5.9914999 617:5.9914999 627:5.9914999 646:5.9914999 672:5.9914999 680:5.9914999 698:5.9914999 705:11.9829 713:17.9744 714:5.9914999 716:17.9744 755:5.9914999 756:5.9914999 772:11.9829 823:5.9914999 860:11.9829 917:5.9914999 918:5.9914999 952:11.9829 982:5.9914999 1041:5.9914999 1049:11.9829 1079:5.9914999 1118:5.9914999 1125:5.9914999 1130:5.9914999 1180:5.9914999 1234:5.9914999 1250:11.9829 1257:5.9914999 1288:5.9914999 1320:5.9914999 1344:5.9914999 1372:5.9914999 1379:5.9914999 1382:5.9914999 1397:5.9914999 1427:5.9914999 1431:17.9744 1444:17.9744 1510:5.9914999 1523:35.948799 1541:5.9914999 1546:5.9914999 1551:5.9914999 1554:5.9914999 1572:11.9829 1576:23.9659 1598:5.9914999 1618:17.9744 1664:17.9744 1683:17.9744 1686:5.9914999 1693:11.9829 1700:5.9914999 1745:11.9829 1755:5.9914999 1774:5.9914999 1777:5.9914999 1810:11.9829 1817:5.9914999 1837:5.9914999 1849:5.9914999 1889:17.9744 1902:5.9914999 1921:5.9914999 1930:11.9829 1960:11.9829 1965:5.9914999 2033:23.9659 2071:23.9659 2099:11.9829 2101:5.9914999 2112:5.9914999 2118:11.9829 2177:5.9914999 2185:5.9914999 2201:5.9914999 2215:5.9914999 2280:5.9914999 2283:5.9914999 2337:5.9914999 2376:5.9914999 2404:29.9573 2407:11.9829 2435:5.9914999 2550:23.9659 2551:35.948799 # seizures/00004507_s02.txt
3.7833933606266665163921081305176e-05 8:5.9914999 14:5.9914999 21:5.9914999 22:5.9914999 29:59.9146 37:23.9659 42:11.9829 51:5.9914999 57:11.9829 76:11.9829 89:17.9744 99:5.9914999 102:5.9914999 125:5.9914999 128:23.9659 146:5.9914999 149:23.9659 167:5.9914999 203:11.9829 219:5.9914999 221:17.9744 224:5.9914999 227:5.9914999 246:11.9829 250:17.9744 291:5.9914999 353:5.9914999 359:5.9914999 377:5.9914999 395:11.9829 425:5.9914999 456:5.9914999 466:5.9914999 467:5.9914999 473:11.9829 480:5.9914999 522:5.9914999 566:11.9829 578:5.9914999 585:5.9914999 590:5.9914999 603:29.9573 617:11.9829 621:5.9914999 627:5.9914999 646:5.9914999 654:5.9914999 670:5.9914999 672:5.9914999 674:5.9914999 675:5.9914999 680:5.9914999 698:5.9914999 705:11.9829 713:5.9914999 716:11.9829 728:23.9659 730:5.9914999 739:5.9914999 772:5.9914999 784:17.9744 814:5.9914999 860:11.9829 901:5.9914999 908:5.9914999 917:11.9829 924:23.9659 934:5.9914999 963:5.9914999 975:11.9829 982:5.9914999 983:23.9659 989:11.9829 1016:11.9829 1034:5.9914999 1049:11.9829 1051:5.9914999 1061:5.9914999 1078:5.9914999 1079:5.9914999 1118:5.9914999 1123:5.9914999 1125:17.9744 1130:5.9914999 1144:5.9914999 1164:5.9914999 1209:5.9914999 1250:35.948799 1257:5.9914999 1294:5.9914999 1323:5.9914999 1372:23.9659 1427:5.9914999 1431:17.9744 1439:5.9914999 1441:17.9744 1466:5.9914999 1470:5.9914999 1503:5.9914999 1513:5.9914999 1523:11.9829 1541:5.9914999 1551:11.9829 1552:5.9914999 1554:17.9744 1559:5.9914999 1572:17.9744 1579:5.9914999 1591:11.9829 1593:5.9914999 1618:17.9744 1647:17.9744 1660:5.9914999 1664:23.9659 1680:5.9914999 1683:17.9744 1686:5.9914999 1688:17.9744 1700:5.9914999 1732:11.9829 1745:11.9829 1762:5.9914999 1766:17.9744 1792:5.9914999 1806:11.9829 1808:5.9914999 1809:5.9914999 1810:11.9829 1811:5.9914999 1862:5.9914999 1864:5.9914999 1883:5.9914999 1889:53.923199 1893:5.9914999 1907:11.9829 1914:5.9914999 1939:5.9914999 1940:11.9829 1965:5.9914999 1966:35.948799 2033:17.9744 2042:5.9914999 2066:5.9914999 2071:23.9659 2073:11.9829 2091:5.9914999 2099:11.9829 2101:5.9914999 2118:29.9573 2177:5.9914999 2201:5.9914999 2205:5.9914999 2221:5.9914999 2280:5.9914999 2283:5.9914999 2300:5.9914999 2337:11.9829 2423:5.9914999 2424:5.9914999 2466:5.9914999 2470:5.9914999 2473:5.9914999 2505:11.9829 2515:5.9914999 2516:11.9829 2550:35.948799 2560:5.9914999 2578:5.9914999 2580:5.9914999 # seizures/00001448_s01.txt
-3.0860992889034878010161289108026e-05 8:11.9829 29:17.9744 37:5.9914999 78:5.9914999 89:5.9914999 99:5.9914999 203:23.9659 219:5.9914999 224:11.9829 250:5.9914999 325:23.9659 330:5.9914999 353:5.9914999 360:5.9914999 368:5.9914999 385:5.9914999 395:17.9744 459:17.9744 466:5.9914999 471:5.9914999 489:5.9914999 566:5.9914999 578:5.9914999 592:5.9914999 603:17.9744 605:5.9914999 627:5.9914999 669:5.9914999 672:17.9744 680:5.9914999 698:17.9744 699:5.9914999 705:5.9914999 713:5.9914999 737:5.9914999 751:5.9914999 755:11.9829 760:5.9914999 901:5.9914999 917:23.9659 1016:5.9914999 1021:5.9914999 1034:5.9914999 1035:5.9914999 1049:11.9829 1079:5.9914999 1099:5.9914999 1118:5.9914999 1125:11.9829 1130:5.9914999 1137:5.9914999 1164:11.9829 1165:5.9914999 1166:5.9914999 1180:5.9914999 1231:5.9914999 1244:5.9914999 1245:5.9914999 1263:5.9914999 1288:5.9914999 1344:5.9914999 1372:11.9829 1389:5.9914999 1403:5.9914999 1437:11.9829 1523:17.9744 1551:11.9829 1574:17.9744 1576:11.9829 1614:5.9914999 1618:5.9914999 1664:23.9659 1680:5.9914999 1683:11.9829 1700:5.9914999 1712:5.9914999 1739:5.9914999 1745:5.9914999 1766:5.9914999 1776:5.9914999 1777:5.9914999 1864:5.9914999 1872:5.9914999 1889:17.9744 1973:5.9914999 2001:5.9914999 2029:5.9914999 2030:17.9744 2033:17.9744 2066:5.9914999 2118:17.9744 2165:5.9914999 2167:5.9914999 2177:5.9914999 2181:17.9744 2185:5.9914999 2201:11.9829 2245:5.9914999 2280:5.9914999 2337:5.9914999 2354:5.9914999 2375:5.9914999 2380:5.9914999 2404:23.9659 2439:5.9914999 2479:5.9914999 2499:5.9914999 2523:5.9914999 2550:23.9659 # none/00003269_s02.txt
-5.4013937423351264131496374254482e-05 8:5.9914999 29:17.9744 37:5.9914999 86:5.9914999 89:5.9914999 134:5.9914999 149:11.9829 194:5.9914999 209:5.9914999 237:5.9914999 240:11.9829 246:11.9829 250:11.9829 262:5.9914999 325:5.9914999 353:5.9914999 362:5.9914999 374:5.9914999 395:23.9659 440:5.9914999 451:5.9914999 489:11.9829 497:11.9829 552:5.9914999 578:5.9914999 603:11.9829 615:5.9914999 617:11.9829 636:5.9914999 640:5.9914999 646:11.9829 664:5.9914999 669:23.9659 672:11.9829 675:17.9744 680:5.9914999 698:23.9659 705:5.9914999 713:11.9829 755:17.9744 824:5.9914999 826:5.9914999 841:11.9829 917:5.9914999 930:5.9914999 941:5.9914999 1012:5.9914999 1013:5.9914999 1016:5.9914999 1049:5.9914999 1070:5.9914999 1118:5.9914999 1128:11.9829 1132:5.9914999 1180:5.9914999 1229:5.9914999 1245:11.9829 1250:5.9914999 1297:5.9914999 1300:5.9914999 1318:5.9914999 1320:5.9914999 1370:5.9914999 1372:11.9829 1397:5.9914999 1437:5.9914999 1466:5.9914999 1523:17.9744 1660:11.9829 1664:17.9744 1680:5.9914999 1683:11.9829 1700:11.9829 1712:5.9914999 1745:17.9744 1781:5.9914999 1864:5.9914999 1888:11.9829 1889:23.9659 1902:5.9914999 1923:5.9914999 1945:5.9914999 1965:11.9829 1980:5.9914999 1997:5.9914999 2030:17.9744 2033:17.9744 2058:5.9914999 2099:5.9914999 2112:5.9914999 2118:17.9744 2174:5.9914999 2177:5.9914999 2181:5.9914999 2201:11.9829 2245:5.9914999 2271:5.9914999 2272:11.9829 2280:5.9914999 2315:11.9829 2354:5.9914999 2479:5.9914999 2492:5.9914999 2542:17.9744 2578:5.9914999 2580:5.9914999 # none/00007966_s01.txt
-6.0887553083172185467743242615057e-05 8:17.9744 14:5.9914999 29:11.9829 37:11.9829 49:5.9914999 89:29.9573 99:5.9914999 131:5.9914999 143:5.9914999 156:5.9914999 159:5.9914999 167:5.9914999 170:5.9914999 203:35.948799 224:5.9914999 225:5.9914999 252:5.9914999 254:5.9914999 331:5.9914999 336:5.9914999 355:5.9914999 359:5.9914999 360:5.9914999 395:17.9744 411:5.9914999 442:11.9829 489:5.9914999 542:5.9914999 569:11.9829 572:5.9914999 578:5.9914999 605:5.9914999 606:5.9914999 621:17.9744 627:5.9914999 639:5.9914999 654:5.9914999 672:5.9914999 674:5.9914999 695:5.9914999 698:23.9659 705:5.9914999 713:5.9914999 737:5.9914999 751:5.9914999 755:11.9829 776:5.9914999 791:5.9914999 823:11.9829 888:5.9914999 893:5.9914999 908:5.9914999 952:11.9829 979:5.9914999 1016:5.9914999 1029:5.9914999 1033:5.9914999 1041:23.9659 1049:5.9914999 1063:5.9914999 1078:5.9914999 1118:5.9914999 1123:5.9914999 1164:5.9914999 1180:5.9914999 1181:5.9914999 1229:5.9914999 1311:5.9914999 1330:5.9914999 1341:5.9914999 1352:17.9744 1372:5.9914999 1373:5.9914999 1374:5.9914999 1403:5.9914999 1441:11.9829 1463:5.9914999 1481:5.9914999 1512:5.9914999 1523:5.9914999 1551:11.9829 1572:5.9914999 1593:5.9914999 1654:5.9914999 1658:5.9914999 1664:23.9659 1668:5.9914999 1683:5.9914999 1686:17.9744 1693:5.9914999 1705:5.9914999 1712:5.9914999 1732:5.9914999 1776:5.9914999 1800:5.9914999 1802:5.9914999 1872:5.9914999 1889:17.9744 1901:5.9914999 1921:5.9914999 1945:5.9914999 1960:5.9914999 2026:5.9914999 2033:11.9829 2057:5.9914999 2066:5.9914999 2071:5.9914999 2091:5.9914999 2118:11.9829 2133:5.9914999 2160:23.9659 2177:5.9914999 2201:5.9914999 2221:5.9914999 2224:5.9914999 2234:5.9914999 2258:17.9744 2280:5.9914999 2337:11.9829 2354:11.9829 2428:5.9914999 2455:11.9829 2460:5.9914999 2479:5.9914999 2499:5.9914999 2523:5.9914999 2550:17.9744 2580:5.9914999 2587:5.9914999 2607:5.9914999 # none/00005956_s01.txt
6.0887553083172185467743242615057e-05 8:17.9744 14:5.9914999 29:11.9829 37:11.9829 57:11.9829 76:29.9573 89:5.9914999 124:5.9914999 133:5.9914999 146:5.9914999 161:5.9914999 167:11.9829 203:29.9573 225:5.9914999 240:5.9914999 242:5.9914999 282:5.9914999 348:5.9914999 349:11.9829 391:11.9829 395:17.9744 425:5.9914999 466:5.9914999 471:5.9914999 481:11.9829 485:5.9914999 489:11.9829 555:5.9914999 572:5.9914999 577:5.9914999 578:5.9914999 582:11.9829 590:5.9914999 602:5.9914999 603:17.9744 617:11.9829 627:5.9914999 646:5.9914999 654:5.9914999 670:5.9914999 672:5.9914999 675:11.9829 698:29.9573 705:5.9914999 713:23.9659 716:5.9914999 730:5.9914999 745:11.9829 753:5.9914999 778:5.9914999 782:5.9914999 785:5.9914999 859:5.9914999 908:5.9914999 917:11.9829 924:17.9744 952:11.9829 963:5.9914999 1016:11.9829 1034:5.9914999 1049:11.9829 1051:5.9914999 1061:5.9914999 1078:5.9914999 1118:5.9914999 1125:5.9914999 1130:11.9829 1139:5.9914999 1164:11.9829 1180:5.9914999 1187:5.9914999 1204:5.9914999 1209:5.9914999 1245:5.9914999 1299:11.9829 1338:11.9829 1372:17.9744 1470:5.9914999 1523:29.9573 1528:11.9829 1536:5.9914999 1546:11.9829 1551:5.9914999 1554:5.9914999 1559:5.9914999 1564:5.9914999 1569:5.9914999 1575:5.9914999 1579:5.9914999 1593:5.9914999 1598:5.9914999 1606:5.9914999 1618:5.9914999 1619:5.9914999 1654:5.9914999 1660:5.9914999 1664:11.9829 1665:35.948799 1683:23.9659 1686:5.9914999 1689:5.9914999 1712:5.9914999 1716:5.9914999 1732:5.9914999 1745:5.9914999 1766:5.9914999 1777:11.9829 1786:5.9914999 1788:5.9914999 1797:11.9829 1802:5.9914999 1803:5.9914999 1864:5.9914999 1880:5.9914999 1883:5.9914999 1889:47.931702 1944:5.9914999 1959:11.9829 1961:5.9914999 1965:5.9914999 2030:5.9914999 2033:35.948799 2071:5.9914999 2099:5.9914999 2112:5.9914999 2123:5.9914999 2160:11.9829 2177:5.9914999 2179:5.9914999 2185:5.9914999 2205:5.9914999 2221:5.9914999 2245:11.9829 2280:5.9914999 2300:5.9914999 2303:5.9914999 2325:5.9914999 2350:17.9744 2455:5.9914999 2460:5.9914999 2470:5.9914999 2479:11.9829 2516:17.9744 2550:17.9744 2560:11.9829 2580:5.9914999 # seizures/00001448_s05.txt
6.0887553083172185467743242615057e-05 8:11.9829 37:5.9914999 56:5.9914999 102:5.9914999 124:5.9914999 149:5.9914999 164:11.9829 170:5.9914999 203:23.9659 224:5.9914999 227:5.9914999 262:11.9829 360:5.9914999 395:23.9659 401:5.9914999 403:5.9914999 464:5.9914999 489:5.9914999 566:5.9914999 577:5.9914999 578:5.9914999 587:11.9829 593:5.9914999 605:5.9914999 606:5.9914999 628:5.9914999 672:5.9914999 674:5.9914999 675:17.9744 698:41.9403 705:5.9914999 713:5.9914999 716:5.9914999 751:5.9914999 752:5.9914999 784:5.9914999 812:23.9659 836:5.9914999 862:5.9914999 917:11.9829 922:5.9914999 963:5.9914999 1006:5.9914999 1016:5.9914999 1049:11.9829 1063:5.9914999 1081:5.9914999 1118:5.9914999 1123:5.9914999 1160:11.9829 1164:11.9829 1180:5.9914999 1253:17.9744 1292:5.9914999 1352:5.9914999 1372:11.9829 1397:5.9914999 1441:5.9914999 1452:5.9914999 1552:5.9914999 1564:5.9914999 1579:5.9914999 1589:5.9914999 1593:5.9914999 1614:5.9914999 1660:5.9914999 1664:17.9744 1683:5.9914999 1688:11.9829 1712:5.9914999 1739:5.9914999 1776:5.9914999 1788:5.9914999 1792:5.9914999 1864:5.9914999 1872:5.9914999 1889:11.9829 1902:5.9914999 1924:11.9829 1945:5.9914999 1972:41.9403 2030:5.9914999 2033:59.9146 2071:23.9659 2091:5.9914999 2118:11.9829 2141:5.9914999 2158:5.9914999 2176:5.9914999 2177:5.9914999 2181:5.9914999 2185:5.9914999 2258:5.9914999 2280:5.9914999 2283:11.9829 2315:17.9744 2363:5.9914999 2404:5.9914999 2423:5.9914999 2439:5.9914999 2455:5.9914999 2460:5.9914999 2479:5.9914999 2523:11.9829 2529:5.9914999 2550:29.9573 2560:11.9829 2580:5.9914999 # seizures/00002566_s02.txt
6.0887553083172185467743242615057e-05 8:5.9914999 26:5.9914999 29:5.9914999 78:5.9914999 149:11.9829 159:5.9914999 170:5.9914999 180:11.9829 203:23.9659 224:5.9914999 227:5.9914999 240:5.9914999 254:5.9914999 353:5.9914999 360:5.9914999 395:17.9744 421:5.9914999 435:5.9914999 442:5.9914999 489:5.9914999 506:11.9829 554:5.9914999 566:11.9829 578:11.9829 587:5.9914999 599:11.9829 605:5.9914999 606:5.9914999 625:5.9914999 637:5.9914999 672:5.9914999 680:5.9914999 698:23.9659 705:5.9914999 713:5.9914999 725:5.9914999 755:5.9914999 833:5.9914999 836:5.9914999 860:5.9914999 891:5.9914999 893:5.9914999 917:11.9829 928:5.9914999 949:5.9914999 952:5.9914999 956:5.9914999 963:5.9914999 1009:5.9914999 1023:5.9914999 1029:5.9914999 1031:5.9914999 1049:5.9914999 1063:5.9914999 1079:5.9914999 1094:5.9914999 1118:5.9914999 1125:5.9914999 1142:5.9914999 1164:17.9744 1173:5.9914999 1180:5.9914999 1181:5.9914999 1187:5.9914999 1218:5.9914999 1247:5.9914999 1253:29.9573 1287:5.9914999 1320:5.9914999 1323:5.9914999 1340:5.9914999 1372:5.9914999 1403:5.9914999 1441:17.9744 1452:11.9829 1466:5.9914999 1554:11.9829 1577:5.9914999 1589:5.9914999 1619:5.9914999 1651:5.9914999 1664:11.9829 1665:23.9659 1683:11.9829 1686:17.9744 1700:5.9914999 1712:5.9914999 1739:5.9914999 1745:11.9829 1749:5.9914999 1766:5.9914999 1809:11.9829 1870:5.9914999 1889:23.9659 1916:5.9914999 1928:5.9914999 1934:5.9914999 1966:5.9914999 1969:5.9914999 1972:23.9659 2026:11.9829 2030:5.9914999 2033:5.9914999 2055:5.9914999 2066:5.9914999 2071:23.9659 2096:5.9914999 2118:11.9829 2127:5.9914999 2177:5.9914999 2185:5.9914999 2229:5.9914999 2235:5.9914999 2256:5.9914999 2280:5.9914999 2337:5.9914999 2341:5.9914999 2380:5.9914999 2391:5.9914999 2479:5.9914999 2523:5.9914999 2537:11.9829 2550:11.9829 2580:5.9914999 # seizures/00001215_s01.txt
6.0887553083172185467743242615057e-05 8:5.9914999 29:11.9829 57:5.9914999 76:5.9914999 89:5.9914999 140:5.9914999 164:11.9829 224:5.9914999 269:5.9914999 297:5.9914999 360:5.9914999 395:11.9829 466:11.9829 471:5.9914999 489:17.9744 572:5.9914999 578:5.9914999 605:5.9914999 606:5.9914999 617:5.9914999 672:5.9914999 675:11.9829 698:17.9744 705:5.9914999 713:5.9914999 755:5.9914999 760:5.9914999 817:11.9829 818:5.9914999 833:11.9829 860:5.9914999 890:5.9914999 917:5.9914999 1029:5.9914999 1049:5.9914999 1063:5.9914999 1118:5.9914999 1125:11.9829 1180:5.9914999 1218:5.9914999 1245:11.9829 1253:11.9829 1255:5.9914999 1297:5.9914999 1372:5.9914999 1404:5.9914999 1523:5.9914999 1546:5.9914999 1551:11.9829 1559:5.9914999 1577:17.9744 1589:5.9914999 1683:5.9914999 1686:23.9659 1712:5.9914999 1745:5.9914999 1806:5.9914999 1848:5.9914999 1860:5.9914999 1889:53.923199 1902:17.9744 1965:5.9914999 1972:35.948799 2030:53.923199 2033:17.9744 2068:5.9914999 2071:17.9744 2118:11.9829 2177:5.9914999 2215:5.9914999 2224:11.9829 2315:11.9829 2354:5.9914999 2423:11.9829 2466:5.9914999 2470:5.9914999 2479:5.9914999 2523:17.9744 2550:17.9744 2580:5.9914999 # seizures/00001363_s04.txt
6.0887553083172185467743242615057e-05 8:5.9914999 29:5.9914999 99:5.9914999 102:11.9829 139:5.9914999 203:5.9914999 224:5.9914999 246:5.9914999 248:5.9914999 360:5.9914999 395:11.9829 426:5.9914999 471:11.9829 473:5.9914999 489:5.9914999 569:5.9914999 578:5.9914999 599:11.9829 605:5.9914999 637:5.9914999 672:5.9914999 698:35.948799 705:5.9914999 713:5.9914999 716:5.9914999 739:5.9914999 753:11.9829 784:5.9914999 812:5.9914999 917:5.9914999 918:5.9914999 924:5.9914999 998:5.9914999 1049:5.9914999 1063:5.9914999 1094:5.9914999 1118:5.9914999 1123:5.9914999 1144:5.9914999 1180:5.9914999 1253:11.9829 1261:5.9914999 1294:5.9914999 1323:5.9914999 1343:5.9914999 1352:5.9914999 1404:5.9914999 1437:5.9914999 1452:5.9914999 1463:5.9914999 1551:11.9829 1554:5.9914999 1589:5.9914999 1597:5.9914999 1606:5.9914999 1618:5.9914999 1664:11.9829 1665:5.9914999 1683:5.9914999 1712:5.9914999 1732:5.9914999 1739:5.9914999 1745:11.9829 1889:11.9829 1940:5.9914999 1966:5.9914999 1972:11.9829 2026:5.9914999 2032:5.9914999 2033:23.9659 2066:5.9914999 2073:5.9914999 2118:5.9914999 2177:5.9914999 2185:17.9744 2256:5.9914999 2280:5.9914999 2315:23.9659 2427:5.9914999 2479:5.9914999 2523:5.9914999 2589:5.9914999 # seizures/00000825_s02.txt
-6.0887553083172185467743242615057e-05 8:5.9914999 29:5.9914999 37:5.9914999 81:5.9914999 137:5.9914999 149:17.9744 150:5.9914999 168:5.9914999 180:5.9914999 203:23.9659 334:5.9914999 340:5.9914999 359:5.9914999 360:5.9914999 395:17.9744 442:5.9914999 470:5.9914999 489:11.9829 564:5.9914999 566:5.9914999 568:5.9914999 569:5.9914999 578:5.9914999 592:5.9914999 605:5.9914999 627:5.9914999 672:5.9914999 674:5.9914999 675:5.9914999 698:23.9659 705:5.9914999 713:11.9829 737:5.9914999 776:11.9829 789:5.9914999 812:5.9914999 860:5.9914999 917:5.9914999 963:5.9914999 969:5.9914999 1002:5.9914999 1006:5.9914999 1049:5.9914999 1063:5.9914999 1078:5.9914999 1118:5.9914999 1164:5.9914999 1180:5.9914999 1226:5.9914999 1286:5.9914999 1297:5.9914999 1352:11.9829 1372:5.9914999 1389:5.9914999 1392:5.9914999 1452:5.9914999 1481:5.9914999 1523:5.9914999 1551:5.9914999 1554:17.9744 1577:5.9914999 1589:5.9914999 1619:5.9914999 1664:17.9744 1665:5.9914999 1683:11.9829 1686:17.9744 1700:11.9829 1712:5.9914999 1745:23.9659 1766:11.9829 1789:11.9829 1794:5.9914999 1800:11.9829 1863:5.9914999 1878:5.9914999 1889:23.9659 1902:11.9829 1972:5.9914999 2033:11.9829 2070:5.9914999 2071:23.9659 2118:11.9829 2142:5.9914999 2177:5.9914999 2199:5.9914999 2201:17.9744 2238:5.9914999 2245:5.9914999 2256:5.9914999 2277:5.9914999 2280:5.9914999 2315:5.9914999 2337:5.9914999 2401:5.9914999 2404:11.9829 2405:5.9914999 2427:5.9914999 2439:5.9914999 2479:5.9914999 2515:11.9829 2523:5.9914999 2550:41.9403 2580:5.9914999 # none/00008936_s01.txt
-6.0887553083172185467743242615057e-05 8:5.9914999 29:5.9914999 31:5.9914999 164:5.9914999 203:11.9829 224:5.9914999 291:5.9914999 302:5.9914999 349:5.9914999 351:5.9914999 360:5.9914999 395:17.9744 426:5.9914999 471:11.9829 489:11.9829 569:5.9914999 578:5.9914999 605:5.9914999 606:5.9914999 621:5.9914999 672:5.9914999 698:17.9744 705:5.9914999 713:5.9914999 860:5.9914999 865:5.9914999 917:5.9914999 928:5.9914999 1012:5.9914999 1049:11.9829 1063:5.9914999 1079:5.9914999 1118:5.9914999 1144:5.9914999 1164:5.9914999 1180:5.9914999 1181:5.9914999 1253:17.9744 1343:5.9914999 1372:5.9914999 1426:5.9914999 1523:5.9914999 1554:11.9829 1572:11.9829 1576:5.9914999 1589:5.9914999 1664:5.9914999 1665:5.9914999 1683:11.9829 1700:5.9914999 1712:5.9914999 1786:5.9914999 1812:5.9914999 1889:23.9659 1902:5.9914999 1972:5.9914999 2026:5.9914999 2033:5.9914999 2066:5.9914999 2071:17.9744 2076:5.9914999 2096:5.9914999 2118:5.9914999 2122:5.9914999 2123:5.9914999 2170:5.9914999 2177:5.9914999 2245:5.9914999 2280:5.9914999 2325:5.9914999 2354:5.9914999 2392:5.9914999 2479:5.9914999 2499:5.9914999 2523:5.9914999 2550:17.9744 # none/00000251_s02.txt
-6.0887553083172185467743242615057e-05 8:11.9829 9:5.9914999 29:35.948799 45:5.9914999 76:5.9914999 144:5.9914999 199:5.9914999 203:5.9914999 205:5.9914999 224:5.9914999 248:5.9914999 273:5.9914999 302:11.9829 313:5.9914999 353:11.9829 360:5.9914999 395:11.9829 489:5.9914999 542:5.9914999 566:23.9659 569:11.9829 577:5.9914999 578:5.9914999 605:5.9914999 627:5.9914999 631:11.9829 637:5.9914999 655:5.9914999 679:5.9914999 698:23.9659 705:5.9914999 713:5.9914999 733:5.9914999 823:5.9914999 829:5.9914999 833:11.9829 836:11.9829 888:11.9829 917:17.9744 924:17.9744 936:5.9914999 1029:17.9744 1031:5.9914999 1033:5.9914999 1049:5.9914999 1051:5.9914999 1063:5.9914999 1118:5.9914999 1119:11.9829 1123:5.9914999 1137:5.9914999 1164:11.9829 1173:5.9914999 1180:5.9914999 1181:5.9914999 1218:5.9914999 1253:5.9914999 1343:5.9914999 1352:5.9914999 1372:5.9914999 1389:5.9914999 1397:5.9914999 1441:5.9914999 1516:5.9914999 1523:5.9914999 1549:5.9914999 1551:5.9914999 1589:5.9914999 1653:11.9829 1658:5.9914999 1664:11.9829 1665:11.9829 1683:5.9914999 1686:5.9914999 1712:5.9914999 1715:5.9914999 1766:5.9914999 1799:5.9914999 1863:5.9914999 1889:11.9829 1921:5.9914999 1966:5.9914999 1968:5.9914999 1972:23.9659 1988:5.9914999 2026:5.9914999 2030:5.9914999 2033:5.9914999 2071:11.9829 2118:11.9829 2177:5.9914999 2252:5.9914999 2256:5.9914999 2280:5.9914999 2337:5.9914999 2428:5.9914999 2473:5.9914999 2479:5.9914999 2496:5.9914999 2523:5.9914999 2550:11.9829 2607:5.9914999 # none/00000816_s02.txt
-6.0887553083172185467743242615057e-05 8:5.9914999 29:17.9744 37:5.9914999 76:5.9914999 141:5.9914999 149:5.9914999 157:5.9914999 164:11.9829 203:5.9914999 224:5.9914999 262:5.9914999 293:5.9914999 302:5.9914999 360:5.9914999 391:5.9914999 395:11.9829 442:5.9914999 473:5.9914999 489:5.9914999 566:11.9829 569:11.9829 578:5.9914999 605:5.9914999 658:5.9914999 672:5.9914999 675:5.9914999 698:23.9659 705:11.9829 713:5.9914999 741:5.9914999 755:5.9914999 769:5.9914999 812:5.9914999 817:5.9914999 833:5.9914999 836:5.9914999 848:5.9914999 917:17.9744 1026:5.9914999 1029:5.9914999 1049:11.9829 1063:5.9914999 1118:5.9914999 1123:5.9914999 1125:11.9829 1164:5.9914999 1174:5.9914999 1176:11.9829 1180:5.9914999 1181:5.9914999 1196:5.9914999 1218:5.9914999 1253:23.9659 1272:5.9914999 1343:5.9914999 1352:5.9914999 1355:5.9914999 1372:5.9914999 1414:5.9914999 1431:5.9914999 1443:5.9914999 1494:5.9914999 1503:5.9914999 1523:17.9744 1551:5.9914999 1554:11.9829 1559:5.9914999 1579:5.9914999 1589:5.9914999 1664:17.9744 1665:11.9829 1683:5.9914999 1712:5.9914999 1739:5.9914999 1789:11.9829 1800:5.9914999 1811:5.9914999 1863:5.9914999 1889:11.9829 1966:5.9914999 1972:35.948799 1987:5.9914999 2033:5.9914999 2066:5.9914999 2067:5.9914999 2071:5.9914999 2073:5.9914999 2091:5.9914999 2118:5.9914999 2177:5.9914999 2185:5.9914999 2192:5.9914999 2201:5.9914999 2215:5.9914999 2258:5.9914999 2280:5.9914999 2337:17.9744 2423:11.9829 2460:5.9914999 2479:5.9914999 2516:5.9914999 2523:5.9914999 2550:5.9914999 # none/00001580_s03.txt
-6.0887553083172185467743242615057e-05 1:5.9914999 8:5.9914999 15:5.9914999 29:23.9659 79:5.9914999 89:5.9914999 102:23.9659 127:5.9914999 189:5.9914999 203:5.9914999 240:5.9914999 250:5.9914999 273:5.9914999 359:5.9914999 360:5.9914999 392:5.9914999 395:11.9829 403:5.9914999 426:5.9914999 442:5.9914999 465:5.9914999 471:23.9659 473:11.9829 489:5.9914999 506:5.9914999 566:11.9829 572:5.9914999 577:5.9914999 578:5.9914999 672:5.9914999 698:23.9659 705:5.9914999 713:5.9914999 755:5.9914999 756:11.9829 762:5.9914999 784:5.9914999 917:5.9914999 952:5.9914999 976:5.9914999 1029:23.9659 1041:11.9829 1063:5.9914999 1101:5.9914999 1118:5.9914999 1180:5.9914999 1189:5.9914999 1192:5.9914999 1253:35.948799 1346:5.9914999 1351:5.9914999 1366:5.9914999 1372:5.9914999 1426:5.9914999 1437:5.9914999 1441:17.9744 1523:5.9914999 1551:5.9914999 1593:5.9914999 1618:5.9914999 1658:11.9829 1664:5.9914999 1665:11.9829 1685:5.9914999 1686:5.9914999 1688:5.9914999 1695:5.9914999 1712:5.9914999 1755:5.9914999 1799:5.9914999 1819:5.9914999 1889:23.9659 1902:17.9744 1961:5.9914999 1968:5.9914999 1972:5.9914999 2009:11.9829 2026:5.9914999 2030:5.9914999 2033:5.9914999 2071:17.9744 2073:11.9829 2081:11.9829 2118:17.9744 2155:5.9914999 2160:11.9829 2177:5.9914999 2252:5.9914999 2256:5.9914999 2280:5.9914999 2315:23.9659 2337:11.9829 2349:5.9914999 2354:5.9914999 2373:5.9914999 2454:5.9914999 2479:5.9914999 2523:5.9914999 2550:23.9659 2560:11.9829 2580:5.9914999 # none/00000344_s03.txt
6.0887553083172185467743242615057e-05 8:11.9829 29:11.9829 37:5.9914999 56:5.9914999 59:11.9829 76:5.9914999 102:23.9659 124:23.9659 132:5.9914999 138:5.9914999 139:11.9829 149:5.9914999 154:5.9914999 180:5.9914999 187:5.9914999 202:11.9829 221:5.9914999 226:5.9914999 240:5.9914999 250:5.9914999 255:5.9914999 258:5.9914999 273:5.9914999 329:5.9914999 340:5.9914999 349:17.9744 395:11.9829 444:11.9829 466:5.9914999 471:11.9829 489:5.9914999 528:5.9914999 566:5.9914999 578:5.9914999 592:5.9914999 602:5.9914999 603:11.9829 617:17.9744 646:5.9914999 672:5.9914999 675:23.9659 698:17.9744 705:5.9914999 713:11.9829 716:5.9914999 739:5.9914999 751:5.9914999 778:5.9914999 785:5.9914999 812:17.9744 888:11.9829 901:5.9914999 904:5.9914999 915:5.9914999 918:11.9829 924:11.9829 1006:5.9914999 1012:17.9744 1016:5.9914999 1029:11.9829 1049:11.9829 1079:11.9829 1118:5.9914999 1123:11.9829 1124:5.9914999 1180:5.9914999 1183:5.9914999 1250:5.9914999 1253:35.948799 1292:11.9829 1294:5.9914999 1372:5.9914999 1429:11.9829 1441:17.9744 1451:23.9659 1459:5.9914999 1466:5.9914999 1513:11.9829 1517:5.9914999 1523:5.9914999 1536:5.9914999 1546:5.9914999 1556:5.9914999 1579:11.9829 1593:5.9914999 1598:11.9829 1601:11.9829 1664:23.9659 1683:11.9829 1700:11.9829 1712:5.9914999 1724:11.9829 1738:11.9829 1745:11.9829 1771:11.9829 1797:11.9829 1847:5.9914999 1863:5.9914999 1864:5.9914999 1870:5.9914999 1872:5.9914999 1880:5.9914999 1882:5.9914999 1889:23.9659 1907:5.9914999 1928:5.9914999 1959:5.9914999 1965:5.9914999 1966:5.9914999 1972:23.9659 1997:5.9914999 2030:17.9744 2033:59.9146 2068:17.9744 2071:17.9744 2080:5.9914999 2085:23.9659 2099:11.9829 2112:29.9573 2118:11.9829 2140:5.9914999 2155:5.9914999 2170:5.9914999 2177:5.9914999 2179:41.9403 2180:5.9914999 2201:11.9829 2205:5.9914999 2221:5.9914999 2243:11.9829 2280:5.9914999 2303:5.9914999 2315:17.9744 2337:5.9914999 2354:5.9914999 2362:5.9914999 2415:5.9914999 2435:5.9914999 2466:17.9744 2479:5.9914999 2542:23.9659 2550:17.9744 2580:5.9914999 # seizures/00007224_s01.txt
